<?xml version="1.0"?>
<opencv_storage>
<my_svm type_id="opencv-ml-svm">
  <svm_type>C_SVC</svm_type>
  <kernel><type>LINEAR</type></kernel>
  <C>1.</C>
  <term_criteria><epsilon>2.2204460492503131e-16</epsilon>
    <iterations>1000000</iterations></term_criteria>
  <var_all>108160</var_all>
  <var_count>108160</var_count>
  <class_count>2</class_count>
  <class_labels type_id="opencv-matrix">
    <rows>1</rows>
    <cols>2</cols>
    <dt>i</dt>
    <data>
      0 1</data></class_labels>
  <sv_total>1</sv_total>
  <support_vectors>
    <_>
      -3.84693931e-06 -3.69378381e-06 -3.25848214e-06 -2.73501951e-06
      -2.00755858e-06 -1.21974995e-06 -5.25786731e-07 2.45260878e-07
      7.98193071e-07 1.12530734e-06 1.38379949e-06 1.37863856e-06
      1.44101784e-06 1.31114075e-06 9.78554681e-07 5.51440394e-07
      2.48326415e-07 -1.49805448e-08 -3.38184606e-07 -7.23928508e-07
      -1.23442123e-06 -1.80534278e-06 -2.42245869e-06 -3.05915501e-06
      -3.64644438e-06 -4.08026062e-06 -4.16010789e-06 -3.93568553e-06
      -3.30067110e-06 -2.35205766e-06 -1.13536112e-06 1.51311372e-08
      1.04025924e-06 1.72830244e-06 2.01053808e-06 1.93541746e-06
      1.21537312e-06 7.40087501e-07 4.20606227e-07 8.01355995e-08
      2.13206053e-09 4.13208767e-07 7.81321830e-07 1.22843301e-06
      1.66440805e-06 1.83167685e-06 1.85378917e-06 1.36547317e-06
      5.28292162e-07 6.80574459e-08 1.54967793e-07 1.82810808e-07
      2.09085457e-07 2.19787680e-07 3.19527317e-07 5.57869100e-07
      8.86669341e-07 1.32044556e-06 1.80155757e-06 2.14832585e-06
      2.28306499e-06 2.16524450e-06 2.05025481e-06 2.01679518e-06
      2.03532363e-06 2.10280291e-06 2.11544284e-06 2.03309787e-06
      1.90266519e-06 1.70135559e-06 1.43186139e-06 1.13089197e-06
      7.82492066e-07 4.22379514e-07 9.97393954e-08 -1.95752747e-07
      -4.23555349e-07 -5.90982609e-07 -6.68874634e-07 -6.98983399e-07
      -6.35052345e-07 -4.19980779e-07 -8.23152035e-08 2.63930815e-07
      6.33102104e-07 1.01952503e-06 1.27794601e-06 1.32613661e-06
      1.20195102e-06 9.21313813e-07 5.20702088e-07 9.21458465e-08
      -5.80299861e-08 -7.98032005e-08 4.58953142e-09 1.59652387e-07
      2.70853633e-07 2.36607875e-07 5.35455200e-08 -1.29875090e-07
      -6.74967069e-08 1.23310031e-07 2.67976731e-07 3.32693929e-07
      1.06773746e-06 1.03563434e-06 9.42295742e-07 9.67934511e-07
      1.10167491e-06 1.42339695e-06 1.82365079e-06 2.08655183e-06
      2.15743398e-06 1.93499955e-06 1.67802420e-06 1.51086454e-06
      1.50779306e-06 1.73784963e-06 2.13974931e-06 2.60710772e-06
      3.05291792e-06 3.46362776e-06 3.55843372e-06 3.28830038e-06
      2.71885074e-06 2.05786273e-06 1.61416051e-06 1.35842242e-06
      1.22526887e-06 1.15770763e-06 1.00913144e-06 6.74281239e-07
      1.30851177e-07 -5.11497547e-07 -1.10978442e-06 -1.41747000e-06
      -1.22538052e-06 -4.44803447e-07 6.58450972e-07 1.57835473e-06
      2.17977367e-06 2.42546298e-06 2.24730957e-06 1.76298533e-06
      1.15329112e-06 5.30248656e-07 2.40490774e-08 -2.37213911e-07
      -3.96622227e-07 -3.97818241e-07 -3.12171551e-07 -4.56707994e-07
      -7.76786294e-07 -9.73569172e-07 -1.02157173e-06 -9.97444431e-07
      -1.29250202e-06 -1.27371595e-06 -1.23216353e-06 -1.07731398e-06
      -7.38979850e-07 -4.32885798e-07 3.70503983e-08 3.90574940e-07
      6.73806710e-07 8.31424529e-07 9.53616222e-07 1.13503063e-06
      1.47973708e-06 2.13816429e-06 2.96206053e-06 3.72507043e-06
      4.20968854e-06 4.34084268e-06 4.10767871e-06 3.35579716e-06
      2.47452908e-06 1.38095288e-06 4.51170649e-07 -6.75465088e-08
      -4.21687560e-07 -7.10103791e-07 -1.01783439e-06 -1.40777036e-06
      -1.78576715e-06 -2.01243029e-06 -1.83299278e-06 -1.11702309e-06
      1.71755621e-09 1.23339612e-06 2.35805510e-06 2.92571849e-06
      3.08120548e-06 2.89472950e-06 2.34339791e-06 1.45074182e-06
      4.60887975e-07 -3.53815892e-07 -8.91385525e-07 -1.01095532e-06
      -8.75366766e-07 -6.38958170e-07 -5.32507158e-07 -4.00665328e-07
      -3.13158495e-07 -3.16965753e-07 -3.57426359e-07 -3.50342333e-07
      -2.08791494e-06 -2.00585328e-06 -1.67655026e-06 -1.11178440e-06
      -1.12631119e-06 -9.78249659e-07 -4.36049504e-07 1.68168285e-07
      6.87541785e-07 1.06171649e-06 1.26275290e-06 1.39076155e-06
      1.53349254e-06 1.84730357e-06 2.21612163e-06 2.39554333e-06
      2.30952128e-06 1.97853024e-06 1.58951332e-06 1.30020646e-06
      1.13628676e-06 6.47325521e-07 1.74932666e-07 -1.48895973e-09
      -7.71495436e-08 -1.61605669e-07 -2.76850727e-07 -4.06369850e-07
      -5.28068767e-07 -5.91048661e-07 -4.53247964e-07 -1.14584772e-07
      2.82042492e-07 5.44959448e-07 6.92733124e-07 1.06795687e-06
      1.16659805e-06 9.30845999e-07 3.64159121e-07 -4.22679477e-07
      -1.17851857e-06 -1.70401108e-06 -1.94874383e-06 -1.89313891e-06
      -1.71648207e-06 -1.52532050e-06 -1.39341046e-06 -1.24688870e-06
      -1.10134499e-06 -8.77895218e-07 -7.03972603e-07 -6.35966046e-07
      -1.67960582e-06 -1.74975821e-06 -1.97194026e-06 -2.52887708e-06
      -3.26036957e-06 -3.09465759e-06 -2.76748392e-06 -2.25915755e-06
      -1.49601613e-06 -7.23190169e-07 -7.74285596e-08 4.61636432e-07
      7.39408279e-07 8.15073747e-07 6.72003807e-07 2.80046379e-07
      -2.90085069e-07 -9.98216251e-07 -7.87907140e-07 -1.50980469e-07
      2.18855448e-07 1.88319916e-07 -6.48549801e-08 -7.32912540e-08
      6.17597484e-09 -1.37817139e-07 -4.25634084e-07 -7.69466567e-07
      -1.09060807e-06 -1.39853273e-06 -1.68060865e-06 -1.99570604e-06
      -2.13583462e-06 -2.17693423e-06 -1.54770714e-06 -6.47894353e-07
      1.69640671e-07 7.73781153e-07 1.21466883e-06 1.47863875e-06
      1.64290009e-06 1.75929745e-06 1.96339079e-06 2.17815796e-06
      2.08492588e-06 1.66403447e-06 9.47664944e-07 1.78203507e-07
      -4.92757010e-07 -9.44397641e-07 -1.21230687e-06 -1.30279534e-06
      -3.55044244e-06 -3.72715863e-06 -4.40231770e-06 -5.38337235e-06
      -5.97661347e-06 -6.02793853e-06 -5.44149043e-06 -4.11648261e-06
      -2.34266690e-06 -7.90801892e-07 3.97925959e-07 1.15160753e-06
      1.44158025e-06 1.22805045e-06 6.29734870e-07 -1.15866804e-07
      -8.15213923e-07 -1.14167244e-06 -1.06551693e-06 -3.45426429e-07
      4.76761699e-07 1.46758305e-06 1.49637822e-06 1.11871327e-06
      6.68725932e-07 2.40150371e-07 -7.33415320e-08 -2.69776422e-07
      -4.61494579e-07 -6.96354164e-07 -1.03338061e-06 -1.28672150e-06
      -1.31583863e-06 -1.48160279e-06 -1.58842886e-06 -8.04086142e-07
      6.39154734e-07 1.93587834e-06 3.02924650e-06 4.07898960e-06
      4.97817564e-06 5.39848998e-06 5.23095332e-06 4.47883303e-06
      3.29080558e-06 1.87870842e-06 5.65597986e-07 -8.09563801e-07
      -2.11137854e-06 -3.07854930e-06 -3.73390844e-06 -3.96301039e-06
      -4.50428661e-06 -4.48853280e-06 -4.45012211e-06 -4.34736467e-06
      -4.20427068e-06 -4.05837955e-06 -3.48037429e-06 -2.38974508e-06
      -7.69836902e-07 1.03843809e-06 2.42909300e-06 3.17745616e-06
      3.24614166e-06 2.65749236e-06 1.56387773e-06 3.52983875e-07
      -4.00718704e-07 -2.17773604e-07 5.28584792e-07 1.62254912e-06
      2.76263040e-06 3.53359360e-06 3.65035203e-06 3.34823653e-06
      2.76012156e-06 2.07873495e-06 1.41018768e-06 7.59768966e-07
      1.67730647e-07 -8.38606624e-08 -5.74730663e-09 2.46067714e-07
      3.15619303e-07 5.61887020e-07 7.96285917e-07 6.81062886e-07
      7.45449427e-07 1.31578577e-06 2.15528917e-06 2.92517598e-06
      3.44952559e-06 3.57148951e-06 3.39055532e-06 3.06528273e-06
      2.56037788e-06 1.92949483e-06 1.33964136e-06 4.38906255e-07
      -1.01787850e-06 -2.33652213e-06 -3.18781053e-06 -3.47390778e-06
      -2.62657613e-06 -2.55754412e-06 -2.46394916e-06 -2.43293198e-06
      -2.31944955e-06 -1.68759937e-06 -9.49463185e-07 -5.55975760e-07
      -1.09275589e-07 2.25312419e-07 3.73050227e-07 2.50623060e-07
      -6.57440822e-08 -5.61707679e-07 -1.21800076e-06 -1.86387399e-06
      -2.17747902e-06 -2.09431278e-06 -1.53382052e-06 -4.04271447e-07
      1.11066322e-06 2.02778324e-06 2.29924945e-06 2.05266588e-06
      1.44475803e-06 6.53446079e-07 -1.10700945e-07 -7.53490667e-07
      -1.25114150e-06 -1.50077551e-06 -1.47450601e-06 -1.12463852e-06
      -5.85815314e-07 -1.65287219e-07 1.79995041e-07 5.87141187e-07
      8.00350051e-07 1.16643150e-06 1.47079004e-06 1.65392566e-06
      1.74030151e-06 1.56405395e-06 1.11872885e-06 3.53975935e-07
      -4.89628576e-07 -1.18750268e-06 -1.73860474e-06 -2.07712174e-06
      -2.01062335e-06 -1.68965460e-06 -1.55967155e-06 -1.59353374e-06
      -6.28417865e-07 -6.58083252e-07 -7.34770708e-07 -8.13627651e-07
      -8.73029819e-07 -9.65462391e-07 -1.43402815e-06 -2.33774267e-06
      -3.44316072e-06 -4.40943813e-06 -4.91057926e-06 -5.07290088e-06
      -5.03961564e-06 -4.95261338e-06 -4.90822731e-06 -4.56359749e-06
      -3.91373533e-06 -3.23708036e-06 -2.65653284e-06 -2.14122588e-06
      -1.62827325e-06 -1.12796727e-06 -8.50231913e-07 -7.07161178e-07
      -8.03675277e-07 -1.01863395e-06 -1.32155435e-06 -1.65097333e-06
      -1.92482480e-06 -2.12033547e-06 -2.09494942e-06 -1.86250406e-06
      -1.64064659e-06 -8.12082078e-07 -2.35232363e-07 5.46598145e-08
      7.06240044e-08 -1.75415821e-07 -6.32711647e-07 -5.92031540e-07
      -1.06996424e-06 -2.18571222e-06 -3.46824959e-06 -4.43892213e-06
      -4.60870569e-06 -4.02335127e-06 -3.02986814e-06 -2.00091404e-06
      -1.23611358e-06 -6.39867665e-07 -2.03285808e-07 -1.32003564e-07
      4.69301199e-07 3.08469083e-07 2.14489457e-08 -7.32350642e-08
      -2.15511037e-07 -4.94394271e-07 -9.98508995e-07 -1.21290429e-06
      -1.43041734e-06 -1.86639841e-06 -1.77048855e-06 -1.67105202e-06
      -1.56342367e-06 -1.37805534e-06 -1.41528608e-06 -1.68550378e-06
      -1.92898642e-06 -1.95861935e-06 -1.59928823e-06 -1.22816891e-06
      -1.46231116e-06 -1.66270809e-06 -1.70162980e-06 -1.83206851e-06
      -1.95999019e-06 -2.05667948e-06 -2.14258557e-06 -2.22327935e-06
      -2.27316514e-06 -2.37747281e-06 -2.43171485e-06 -2.19037111e-06
      -1.52882217e-06 -9.14309794e-07 -7.61367801e-07 -1.25734448e-06
      -2.37031350e-06 -3.56862279e-06 -4.39594942e-06 -4.25490043e-06
      -3.70933526e-06 -3.13887153e-06 -2.68642634e-06 -2.39636256e-06
      -2.15134901e-06 -1.65612551e-06 -8.56481336e-07 2.51748901e-07
      1.43298246e-06 2.27213695e-06 2.73423052e-06 2.83427175e-06
      4.02205274e-07 3.79306016e-07 2.80267557e-07 3.86814548e-07
      5.17028184e-07 7.68772225e-07 1.44741455e-06 2.22783706e-06
      2.99446947e-06 3.26981331e-06 2.63705147e-06 1.90388573e-06
      1.41079488e-06 1.32641151e-06 1.41894429e-06 1.33153264e-06
      1.15626483e-06 2.05508584e-07 -3.94387285e-07 -5.03629849e-07
      -1.16497858e-06 -1.90381820e-06 -1.93930168e-06 -1.79506492e-06
      -1.76176877e-06 -1.89207913e-06 -2.07050539e-06 -2.23499273e-06
      -2.25593953e-06 -2.07052221e-06 -1.74040042e-06 -1.48281765e-06
      -1.26423981e-06 -1.18902244e-06 -1.24498001e-06 -1.91631329e-06
      -2.83139730e-06 -3.44291107e-06 -3.88780245e-06 -3.97675103e-06
      -3.50426217e-06 -2.60135062e-06 -1.63204652e-06 -9.38037090e-07
      -8.00007115e-07 -8.01192243e-07 -5.41587326e-07 -4.62413006e-08
      5.48325033e-07 1.17769434e-06 1.94479207e-06 2.21324899e-06
      -2.04806929e-06 -1.86943487e-06 -1.71626766e-06 -1.00371210e-06
      1.41809295e-07 7.98268104e-07 1.20901495e-06 1.44631576e-06
      1.76823187e-06 2.05738093e-06 1.97505142e-06 1.76397930e-06
      1.29448517e-06 9.51242725e-07 1.04234857e-06 1.47312335e-06
      1.90073786e-06 1.92185803e-06 1.40909276e-06 4.56235654e-07
      -5.32278250e-07 -1.67720282e-06 -2.37063432e-06 -2.45855790e-06
      -2.58630189e-06 -2.66940765e-06 -2.63556262e-06 -2.54399379e-06
      -2.45587148e-06 -2.32242883e-06 -1.94747008e-06 -1.21841185e-06
      -3.73017372e-07 6.25693019e-07 9.43838700e-07 4.72559066e-07
      -5.33332866e-07 -1.80868017e-06 -2.85870374e-06 -3.58303805e-06
      -3.80561255e-06 -3.56473811e-06 -2.92139111e-06 -1.98817793e-06
      -1.26336658e-06 -1.20383231e-06 -1.14658167e-06 -4.81177665e-07
      5.29593763e-07 1.49467621e-06 2.31185140e-06 2.64792698e-06
      -1.72719740e-06 -1.37263498e-06 -8.48240461e-07 -1.87544316e-07
      8.58391047e-07 1.24049870e-06 1.52104292e-07 -1.19611684e-06
      -1.53488338e-06 -1.12454836e-06 -9.84047347e-07 -1.21071969e-06
      -1.89086734e-06 -2.57533497e-06 -2.86745421e-06 -2.62338858e-06
      -1.97712257e-06 -1.41181033e-06 -1.56419901e-06 -1.62363131e-06
      -1.71631268e-06 -1.73722981e-06 -1.58783871e-06 -1.82468534e-06
      -1.88800175e-06 -1.84753014e-06 -1.83272130e-06 -1.84947464e-06
      -1.90985702e-06 -1.87819069e-06 -1.87566798e-06 -1.91887079e-06
      -2.05159108e-06 -2.26107841e-06 -2.46012587e-06 -2.59887793e-06
      -2.70609212e-06 -3.03812499e-06 -3.64174639e-06 -4.53914436e-06
      -5.07135292e-06 -4.88266051e-06 -4.19334401e-06 -3.31620140e-06
      -2.76237779e-06 -2.34125264e-06 -1.08265453e-06 5.47175887e-07
      2.09987820e-06 3.16682736e-06 3.74312435e-06 3.95477264e-06
      1.35372125e-06 1.58557441e-06 2.04749244e-06 2.59854642e-06
      2.16375611e-06 1.30637147e-06 -5.43216894e-09 -1.22920380e-06
      -2.02014417e-06 -2.13296403e-06 -1.78678408e-06 -1.34232209e-06
      -1.36360416e-06 -2.15497766e-06 -3.09559459e-06 -3.72112618e-06
      -3.97255462e-06 -3.68914311e-06 -3.17333593e-06 -2.48712877e-06
      -1.93286064e-06 -1.50604467e-06 -8.86903479e-07 -5.56082796e-07
      -4.39480232e-07 -4.59891481e-07 -4.52697805e-07 -5.26715553e-07
      -5.86121644e-07 -6.51146308e-07 -9.66070616e-07 -1.34549543e-06
      -1.78666994e-06 -2.27339842e-06 -2.81311691e-06 -3.03442812e-06
      -2.94644792e-06 -2.96888038e-06 -3.17308309e-06 -3.36498283e-06
      -3.04800824e-06 -2.45056276e-06 -2.17412662e-06 -2.25000986e-06
      -2.13632757e-06 -1.60008722e-06 -2.30534965e-07 1.53708550e-06
      3.15312309e-06 4.09481345e-06 4.33438527e-06 4.38162670e-06
      2.77378604e-07 2.59156934e-07 3.17197674e-07 5.70890336e-07
      7.50272534e-07 8.84983422e-07 6.73279828e-07 2.87889804e-07
      1.63474610e-07 4.11472627e-07 8.82915572e-07 1.50764618e-06
      2.24705900e-06 2.83960298e-06 3.23390009e-06 3.44931709e-06
      3.32685067e-06 2.99278759e-06 2.82701626e-06 2.73491401e-06
      2.64210371e-06 2.40331133e-06 1.90719561e-06 1.11489476e-06
      2.22986614e-07 -6.06846640e-07 -1.06513858e-06 -1.34256425e-06
      -1.44067315e-06 -1.47570142e-06 -1.17888646e-06 -7.09307415e-07
      -1.55294785e-07 5.84653890e-07 1.29545424e-06 1.97093436e-06
      2.74029662e-06 3.04629543e-06 3.12412794e-06 3.11563622e-06
      3.13292117e-06 3.33462572e-06 3.31109095e-06 2.91840661e-06
      2.42553097e-06 2.27561804e-06 2.66709685e-06 3.29436193e-06
      3.39663916e-06 2.86698560e-06 2.24250493e-06 2.03469153e-06
      -1.77551999e-06 -1.80019856e-06 -1.71028535e-06 -1.56698354e-06
      -1.37025381e-06 -1.07332039e-06 -4.00025328e-07 1.10623986e-07
      1.83288748e-07 1.04403064e-07 1.10632627e-07 7.92306807e-08
      6.39206945e-08 -2.63775011e-08 -1.73385871e-07 -3.27435458e-07
      -2.83506580e-07 -2.34452770e-07 2.53031427e-08 4.05547894e-07
      3.48868497e-07 1.20695532e-07 -9.37128419e-08 -2.66175505e-07
      -4.95372603e-07 -8.18021022e-07 -1.01919022e-06 -1.11732061e-06
      -1.17810544e-06 -1.09366431e-06 -6.89108447e-07 -2.85667369e-07
      8.20997315e-08 2.50502467e-07 5.69587533e-09 -7.47252670e-07
      -1.51536074e-06 -1.78668790e-06 -1.31942329e-06 -6.22667301e-07
      3.57940451e-07 1.39854990e-06 2.27133046e-06 3.00282477e-06
      3.56656278e-06 3.40137603e-06 2.39202109e-06 1.05194977e-06
      -1.70276792e-07 -1.51699999e-06 -2.42081933e-06 -2.77995969e-06
      -1.32399589e-06 -1.38512280e-06 -1.50539688e-06 -1.62432559e-06
      -1.64929531e-06 -1.51568065e-06 -1.10491010e-06 -5.02248270e-07
      -2.52904329e-07 -1.90068931e-07 -3.23421773e-07 -1.78940752e-07
      9.09568456e-08 4.33001304e-07 7.44995134e-07 1.35173707e-06
      1.44800549e-06 1.02825061e-06 7.76221214e-07 8.67525728e-07
      1.14207933e-06 1.32040134e-06 1.31456352e-06 1.33361061e-06
      1.31649756e-06 1.24909707e-06 1.05503239e-06 9.22410777e-07
      8.42158329e-07 9.01127407e-07 9.30151941e-07 9.68373115e-07
      1.11693248e-06 1.23872712e-06 1.30426656e-06 4.81171639e-07
      -8.29937449e-07 -1.96875044e-06 -2.70145370e-06 -3.27644739e-06
      -3.85010935e-06 -4.21005871e-06 -4.34504636e-06 -4.33566447e-06
      -3.87539876e-06 -3.39185135e-06 -2.91319020e-06 -1.84977580e-06
      -9.69646976e-07 -1.15925934e-06 -1.58272178e-06 -1.79519157e-06
      1.82236420e-07 2.95929539e-07 6.62204798e-07 1.29807711e-06
      1.94799168e-06 2.32200568e-06 2.26751422e-06 1.59633464e-06
      6.36595132e-07 -3.37546027e-07 -1.05813865e-06 -1.26819486e-06
      -9.52485948e-07 -4.14416547e-07 -3.68142103e-08 1.18013951e-07
      2.04716727e-07 4.47644368e-07 4.78923084e-07 4.66846132e-07
      5.93187224e-07 7.56288330e-07 9.73404440e-07 1.17714706e-06
      1.31525701e-06 1.40637883e-06 1.33231572e-06 1.21797075e-06
      1.16970261e-06 1.11336226e-06 9.21277717e-07 7.88711077e-07
      7.67109043e-07 8.92145806e-07 1.20697678e-06 1.69435953e-06
      2.19526623e-06 2.49821619e-06 2.35074754e-06 1.91854883e-06
      1.15541388e-06 3.87259945e-07 4.07812053e-07 8.77791024e-07
      1.65709514e-06 2.13305930e-06 2.33664196e-06 2.26966336e-06
      1.89739364e-06 1.70670944e-06 1.62958963e-06 1.59468516e-06
      1.71807369e-06 1.65224435e-06 1.46041498e-06 1.15835257e-06
      8.60576279e-07 6.83925919e-07 5.68511723e-07 3.56221420e-07
      1.10261169e-07 -5.66865932e-09 3.37277157e-08 2.52614797e-07
      6.01309011e-07 8.84594044e-07 9.79355264e-07 7.62468687e-07
      1.96743670e-07 -2.13583206e-07 -3.12400175e-07 -2.27393755e-07
      -8.85374192e-08 4.41445529e-08 1.75856357e-07 2.67736823e-07
      3.24024938e-07 3.30393959e-07 4.06211996e-07 5.04843399e-07
      6.97167479e-07 9.08152117e-07 1.03174739e-06 1.01596697e-06
      8.41912140e-07 5.75888635e-07 2.85748541e-07 4.91670171e-09
      -1.41842079e-07 -6.99199703e-08 1.86824224e-07 4.19656175e-07
      6.64617573e-07 1.18399385e-06 1.79558822e-06 2.28459567e-06
      2.87954799e-06 3.51798849e-06 3.91698632e-06 3.92683887e-06
      3.54244639e-06 2.84634939e-06 2.24005566e-06 2.03238187e-06
      5.53603741e-07 4.89019840e-07 2.91248824e-07 2.24345644e-08
      -8.07989124e-08 3.37985959e-08 3.56698905e-07 7.87924421e-07
      1.09637790e-06 1.21793846e-06 1.15347245e-06 1.02632157e-06
      8.54664620e-07 6.38280710e-07 3.34228588e-07 1.11141514e-08
      -2.14978741e-07 -2.89759271e-07 -2.60708021e-07 -1.66195889e-07
      -1.57421187e-08 1.41763877e-07 2.24278153e-07 2.02399121e-07
      9.89150095e-08 -6.72371172e-08 -2.30966364e-07 -3.52968073e-07
      -3.90498741e-07 -3.26021649e-07 -1.34042992e-07 6.37640980e-08
      1.36306397e-07 -6.18998470e-08 -5.30010084e-07 -1.25557369e-06
      -2.13550334e-06 -3.08164840e-06 -3.83157749e-06 -3.86200873e-06
      -3.17618719e-06 -2.23706593e-06 -1.27108831e-06 -5.69042868e-07
      -3.81240355e-08 3.38148482e-07 6.90952447e-07 1.07203550e-06
      1.40014095e-06 1.56675867e-06 1.65324707e-06 1.69258863e-06
      -6.37014352e-07 -5.96463508e-07 -3.67882876e-07 6.00351413e-08
      5.72311023e-07 9.78584808e-07 1.20071638e-06 1.21373944e-06
      9.62137278e-07 5.23249014e-07 -8.31761255e-08 -7.92145386e-07
      -1.43368163e-06 -1.87132207e-06 -2.09683412e-06 -1.98254497e-06
      -1.77463141e-06 -1.64270830e-06 -1.58743853e-06 -1.63112884e-06
      -1.68134170e-06 -1.64718710e-06 -1.54835425e-06 -1.40888471e-06
      -1.27607882e-06 -1.13205238e-06 -1.07269784e-06 -1.04152707e-06
      -1.16499291e-06 -1.36663050e-06 -1.45055492e-06 -1.37996983e-06
      -1.14046179e-06 -8.68327106e-07 -5.94049482e-07 -3.11035393e-07
      -1.21117338e-07 -9.92936151e-08 -2.86516496e-07 -6.22154403e-07
      -7.02055218e-07 -6.25084283e-07 -5.30798957e-07 -4.02707087e-07
      -3.40506631e-07 -3.47921400e-07 -2.54802245e-07 -3.97531741e-09
      2.50645769e-07 4.74886605e-07 5.85724877e-07 6.11392409e-07
      1.56346758e-07 1.73010037e-07 2.22312821e-07 2.78329907e-07
      3.22884461e-07 2.49014533e-07 -1.96049008e-08 -4.07618643e-07
      -8.73573981e-07 -1.23901327e-06 -1.45206332e-06 -1.57324973e-06
      -1.53929216e-06 -1.40741110e-06 -1.20428297e-06 -9.49365017e-07
      -8.09426524e-07 -9.15703538e-07 -1.19168749e-06 -1.55408281e-06
      -1.91495678e-06 -2.12641908e-06 -2.17722391e-06 -2.07709672e-06
      -1.85138811e-06 -1.62284107e-06 -1.36910819e-06 -1.17977311e-06
      -1.15479691e-06 -1.23266466e-06 -1.39272049e-06 -1.57831255e-06
      -1.69551788e-06 -1.62733602e-06 -1.38878067e-06 -9.80449954e-07
      -5.13924135e-07 -6.13961575e-08 3.43964842e-07 6.81562199e-07
      9.72379212e-07 1.10551355e-06 9.73785404e-07 5.83941983e-07
      -4.51085889e-08 -6.47223203e-07 -9.83229484e-07 -1.11231100e-06
      -1.15355613e-06 -1.14146178e-06 -1.14712850e-06 -1.17189563e-06
      -1.73107793e-07 -1.87811992e-07 -2.83687228e-07 -4.95471227e-07
      -7.96014206e-07 -1.16981039e-06 -1.55884163e-06 -1.83615862e-06
      -1.95309644e-06 -1.83204827e-06 -1.51721360e-06 -1.10712426e-06
      -6.81649965e-07 -4.00675987e-07 -2.27563916e-07 -7.62413350e-08
      -2.53864965e-08 -5.02399722e-08 -1.03811139e-07 -2.28140010e-07
      -4.47056181e-07 -6.23179460e-07 -6.84229576e-07 -6.65757454e-07
      -6.28249325e-07 -6.14198996e-07 -4.72441059e-07 -2.87339986e-07
      -5.69252521e-08 2.17103164e-07 3.64469372e-07 3.62930081e-07
      2.55905519e-07 2.01368294e-07 1.99138086e-07 1.83486179e-07
      1.38264909e-07 8.74709372e-08 5.26118313e-08 1.02397088e-07
      2.81511888e-07 5.33950526e-07 7.94956122e-07 9.72649218e-07
      9.49364846e-07 8.02380782e-07 5.11447240e-07 2.34869020e-07
      9.02213699e-08 4.66244998e-08 4.49611939e-08 6.44158433e-08
      3.70849619e-07 3.22318044e-07 2.33895335e-07 1.16672965e-07
      -5.88674247e-08 -1.60469497e-07 -7.00831606e-08 1.49707603e-07
      4.57088674e-07 7.03639387e-07 8.51626226e-07 9.82743927e-07
      1.01572380e-06 9.87930889e-07 1.00224156e-06 1.05318043e-06
      1.12566795e-06 1.29303373e-06 1.40593602e-06 1.33365359e-06
      1.14961529e-06 8.38883579e-07 4.42473095e-07 4.50854998e-08
      -3.39635164e-07 -6.31070805e-07 -8.01366298e-07 -8.42470058e-07
      -7.15845260e-07 -4.01967895e-07 -1.84868156e-08 4.54446109e-07
      9.52300127e-07 1.34870061e-06 1.59126432e-06 1.66763846e-06
      1.59132753e-06 1.38489133e-06 1.10962776e-06 8.65550533e-07
      6.93429399e-07 6.41537326e-07 7.04191280e-07 8.09376957e-07
      8.63197101e-07 8.19594561e-07 5.71540909e-07 2.08768270e-07
      -1.78364047e-07 -4.88303044e-07 -6.72394208e-07 -7.33414481e-07
      -2.35138202e-08 3.29203829e-08 1.84104081e-07 4.31272497e-07
      7.13802251e-07 9.87618364e-07 1.29744137e-06 1.51699396e-06
      1.65508163e-06 1.65037454e-06 1.58434625e-06 1.49406867e-06
      1.33033234e-06 1.19421441e-06 1.10326584e-06 1.05979859e-06
      1.00741875e-06 9.26578821e-07 7.44164595e-07 3.89197652e-07
      -1.79455473e-08 -3.58477962e-07 -5.42557586e-07 -6.25056032e-07
      -6.68594964e-07 -6.63821652e-07 -7.22689776e-07 -7.10078154e-07
      -6.58536408e-07 -6.02606121e-07 -5.33488105e-07 -3.97128758e-07
      -1.13983567e-07 1.65203858e-07 3.96459598e-07 5.17000956e-07
      7.06131289e-07 9.14584746e-07 1.09296673e-06 1.28179738e-06
      1.41791861e-06 1.54087343e-06 1.64588755e-06 1.74072045e-06
      1.76382252e-06 1.65497829e-06 1.51027416e-06 1.33407286e-06
      1.09801090e-06 8.57382815e-07 6.82491020e-07 6.23356470e-07
      -7.26864357e-07 -6.70002692e-07 -5.31116768e-07 -3.30903589e-07
      -4.65622989e-08 2.90789558e-07 5.71401756e-07 7.56379507e-07
      8.62390038e-07 8.90725516e-07 8.97669281e-07 8.65731579e-07
      8.16095223e-07 7.16263060e-07 5.43310932e-07 2.94052228e-07
      -3.90562995e-08 -5.21984987e-07 -1.20554751e-06 -1.95127109e-06
      -2.44776788e-06 -2.49066557e-06 -2.23703137e-06 -1.90885225e-06
      -1.48184722e-06 -1.04820401e-06 -7.26631242e-07 -5.53810480e-07
      -4.78316565e-07 -6.20681988e-07 -8.59948216e-07 -1.09294251e-06
      -1.20098093e-06 -1.04380661e-06 -5.81115330e-07 -1.99384758e-08
      4.19809993e-07 7.92998947e-07 1.26699513e-06 1.82387259e-06
      2.24075848e-06 2.60188085e-06 2.95344989e-06 3.20325739e-06
      3.38563132e-06 3.41077521e-06 3.43126953e-06 3.33765388e-06
      3.12983479e-06 2.93783114e-06 2.80723043e-06 2.74539752e-06
      4.70864450e-07 5.51523328e-07 7.73423324e-07 1.12934868e-06
      1.54354018e-06 1.89298316e-06 2.06113327e-06 2.09098584e-06
      2.05236165e-06 2.02482420e-06 1.97436088e-06 1.86032435e-06
      1.70332362e-06 1.41357737e-06 9.97724669e-07 4.81842733e-07
      -8.29766691e-08 -6.51764992e-07 -1.02487718e-06 -1.10690223e-06
      -1.03902005e-06 -9.41101860e-07 -8.44636077e-07 -6.36457628e-07
      -3.58777413e-07 -1.19050547e-07 1.16832183e-07 2.15362860e-07
      2.31997717e-07 8.62955858e-08 -1.15371783e-07 -2.60297668e-07
      -3.71979297e-07 -3.50647866e-07 -3.75876361e-08 4.19268929e-07
      8.12969120e-07 1.00597777e-06 1.01000603e-06 9.07237734e-07
      8.33696276e-07 7.17925616e-07 7.16803697e-07 7.28920725e-07
      6.95759297e-07 6.79560117e-07 5.61664820e-07 3.54719418e-07
      1.02182668e-07 -1.74690783e-07 -3.93751890e-07 -4.80841777e-07
      -1.48271582e-08 5.64437386e-08 2.07861831e-07 3.60056475e-07
      5.44914542e-07 7.20954517e-07 8.71947691e-07 9.90918693e-07
      1.03173636e-06 9.89365844e-07 8.66918583e-07 8.06620392e-07
      8.14840917e-07 8.40610824e-07 8.99035513e-07 1.04406797e-06
      1.25792076e-06 1.36669439e-06 1.44736953e-06 1.78094922e-06
      2.00872068e-06 2.13928161e-06 2.20352695e-06 2.21950586e-06
      2.06552318e-06 1.85056058e-06 1.63019331e-06 1.35797916e-06
      1.07051051e-06 8.85107454e-07 7.10261759e-07 5.68009057e-07
      5.49535230e-07 7.08850905e-07 9.24958385e-07 9.70765086e-07
      6.72792510e-07 1.03149162e-07 -5.86565307e-07 -1.21684457e-06
      -1.60405853e-06 -1.60560944e-06 -1.55885971e-06 -1.35056007e-06
      -1.14220063e-06 -8.94279140e-07 -6.62589571e-07 -3.97831087e-07
      -1.92006979e-07 -9.39456442e-08 -2.93808355e-08 2.65342095e-08
      -4.65213077e-07 -4.49372237e-07 -3.45160231e-07 -1.90588764e-07
      -7.22503586e-08 3.01047116e-08 7.00916729e-08 9.43971088e-08
      1.41227432e-07 2.18662819e-07 3.75361964e-07 6.68140956e-07
      1.03526384e-06 1.46102025e-06 1.99661918e-06 2.36093638e-06
      2.56829799e-06 2.68581744e-06 2.69966768e-06 2.62826620e-06
      2.39488372e-06 2.09705877e-06 1.73743069e-06 1.32817127e-06
      9.01480178e-07 5.28288012e-07 -5.08666975e-09 -5.96019106e-07
      -1.09786174e-06 -1.27864951e-06 -1.02556919e-06 -3.97398310e-07
      6.09328367e-07 1.72707018e-06 2.69767884e-06 3.37108327e-06
      3.60282093e-06 3.20087497e-06 2.28173781e-06 1.16075648e-06
      1.34643571e-07 -4.70330747e-07 -7.70648910e-07 -7.57104374e-07
      -3.82646135e-07 1.17041189e-07 7.00087583e-07 1.18997309e-06
      1.50879009e-06 1.71672900e-06 1.82165979e-06 1.85555064e-06
      2.65583367e-07 2.25000733e-07 1.78396860e-07 5.78551003e-08
      -1.62443371e-07 -3.84974015e-07 -6.19272100e-07 -8.80570894e-07
      -1.10111773e-06 -1.18547894e-06 -1.08582390e-06 -8.12854068e-07
      -3.98108028e-07 3.53284761e-08 3.55005398e-07 4.80112021e-07
      4.81063694e-07 5.26564975e-07 6.07427751e-07 5.68314249e-07
      3.51801276e-07 8.95009862e-08 -1.83861886e-07 -4.81091774e-07
      -8.41276460e-07 -1.25441045e-06 -1.64743278e-06 -1.88449064e-06
      -1.91091362e-06 -1.62948265e-06 -9.09645451e-07 2.06447282e-07
      1.61589037e-06 3.03635125e-06 4.12634245e-06 4.60477895e-06
      4.31402259e-06 3.48595881e-06 2.72944067e-06 1.90314336e-06
      1.01922751e-06 3.48600167e-07 -1.57579638e-08 -3.34789235e-07
      -5.89619447e-07 -7.23469327e-07 -8.31200339e-07 -9.82064876e-07
      -1.08619531e-06 -1.11358816e-06 -1.13437000e-06 -1.15159264e-06
      6.75398724e-07 6.92278832e-07 6.56556665e-07 5.13360021e-07
      2.89882593e-07 -1.10856933e-08 -3.11078026e-07 -6.35275455e-07
      -9.25721224e-07 -1.18342552e-06 -1.42040494e-06 -1.59538445e-06
      -1.76933111e-06 -1.95270582e-06 -2.20788752e-06 -2.46889181e-06
      -2.40773170e-06 -1.99826604e-06 -1.65496544e-06 -1.40049826e-06
      -7.93366723e-07 -5.33237426e-07 -5.56688292e-07 -7.69318831e-07
      -1.04202013e-06 -1.21227106e-06 -1.21939559e-06 -1.06591187e-06
      -8.16793715e-07 -3.87400547e-07 3.16761970e-07 1.26359157e-06
      2.40242207e-06 3.64772177e-06 4.49790650e-06 4.44768921e-06
      3.60316471e-06 2.29139096e-06 1.25970996e-06 4.66875974e-07
      -1.24017205e-07 -4.21161218e-07 -8.28909435e-07 -1.06038135e-06
      -1.27176156e-06 -1.42021986e-06 -1.62133642e-06 -1.76534525e-06
      -1.87694354e-06 -1.93575693e-06 -1.95738562e-06 -1.92799257e-06
      5.47628588e-07 6.17271610e-07 7.39331199e-07 9.07045091e-07
      1.02979050e-06 1.03663740e-06 9.38301241e-07 8.49747437e-07
      7.62316347e-07 6.79711945e-07 6.01216129e-07 6.38708798e-07
      6.46363219e-07 6.04312504e-07 4.91576770e-07 4.46874367e-07
      7.42917905e-07 1.03257116e-06 9.61205615e-07 1.21569371e-06
      1.60296827e-06 1.57335285e-06 1.34590414e-06 9.43333703e-07
      6.90695629e-07 3.80146361e-07 3.50234700e-07 4.95772497e-07
      6.48404580e-07 8.36856941e-07 1.12913904e-06 1.69575060e-06
      2.61250284e-06 3.44667774e-06 3.80829192e-06 3.64291350e-06
      3.58898274e-06 3.01012460e-06 2.15830460e-06 1.35940024e-06
      8.46702449e-07 5.82437565e-07 4.58739947e-07 4.44860973e-07
      3.89366221e-07 2.41866218e-07 9.80789991e-08 1.08644329e-08
      8.47006021e-08 1.75048726e-07 2.10742840e-07 2.02975116e-07
      -1.35728658e-06 -1.26206760e-06 -1.02454590e-06 -6.57995372e-07
      -2.74595436e-07 1.08825155e-07 4.19825369e-07 7.38098663e-07
      9.79514425e-07 1.23267682e-06 1.69074394e-06 2.26771976e-06
      2.75269826e-06 2.97159295e-06 2.97398719e-06 2.81830853e-06
      2.65197104e-06 2.41677685e-06 2.16514286e-06 2.15812884e-06
      2.70993337e-06 3.35163782e-06 3.58261650e-06 3.34478773e-06
      2.75428306e-06 2.26791167e-06 2.36162850e-06 2.61717719e-06
      2.94231836e-06 2.99166140e-06 2.89654395e-06 2.74470267e-06
      2.67331507e-06 2.48311835e-06 1.76490346e-06 9.30896022e-07
      5.43820306e-07 1.36828930e-07 -9.45970697e-08 7.15115434e-08
      4.20119477e-07 9.91204502e-07 1.77511743e-06 2.48570109e-06
      2.98575151e-06 3.07047731e-06 2.94668030e-06 2.68380495e-06
      2.39977862e-06 2.22418430e-06 2.25386543e-06 2.24156474e-06
      -3.76932547e-07 -3.20644972e-07 -2.11080064e-07 -1.49724130e-07
      -1.42456415e-07 -1.62074500e-07 -1.99272534e-07 -2.80315874e-07
      -1.97965178e-07 -2.52418997e-09 2.56751065e-07 4.65878003e-07
      5.06902040e-07 3.10274771e-07 -1.05040364e-07 -5.82146242e-07
      -1.20880816e-06 -1.72607758e-06 -2.06244226e-06 -2.08179245e-06
      -2.03340710e-06 -1.48592676e-06 -2.26648794e-07 7.00054102e-07
      1.13749661e-06 1.32999969e-06 1.60493153e-06 2.05295123e-06
      2.51434517e-06 2.75856701e-06 2.65734320e-06 2.09986229e-06
      9.88776037e-07 -5.60856563e-07 -2.18134710e-06 -2.99828571e-06
      -3.09557390e-06 -3.10273504e-06 -3.00789316e-06 -2.42581018e-06
      -1.62469701e-06 -8.94009077e-07 -3.95785946e-07 -1.07576170e-08
      2.61089440e-07 4.45228864e-07 5.29531803e-07 5.38034271e-07
      5.64445827e-07 5.87229465e-07 5.97155690e-07 6.43911733e-07
      2.32164825e-06 2.26718748e-06 2.06800064e-06 1.73602598e-06
      1.29743228e-06 8.00741304e-07 3.44499114e-07 -4.11890344e-09
      -9.91709044e-08 -6.76449901e-08 1.63199783e-08 -4.97237529e-10
      -2.27140191e-07 -6.05580453e-07 -9.43262364e-07 -1.11181714e-06
      -1.17777245e-06 -1.13128863e-06 -1.11878853e-06 -7.73481702e-07
      -4.69259192e-07 6.81415244e-08 8.47037256e-07 1.36178062e-06
      1.57043223e-06 1.37386144e-06 1.22823769e-06 1.26385942e-06
      1.41576936e-06 1.57873865e-06 1.72916464e-06 1.81842074e-06
      1.67006681e-06 1.29883790e-06 7.24940378e-07 2.51049897e-07
      1.49804748e-07 2.16756334e-07 1.10509077e-07 4.18364371e-10
      -2.23642161e-07 -4.71274916e-07 -6.78992762e-07 -9.67802407e-07
      -1.23039217e-06 -1.27141027e-06 -1.39155850e-06 -1.48047479e-06
      -1.41695341e-06 -1.34568029e-06 -1.30639148e-06 -1.22008635e-06
      2.04401340e-06 1.98324256e-06 1.86418254e-06 1.69949840e-06
      1.46684158e-06 1.16791068e-06 7.70901636e-07 3.69369872e-07
      -1.68490857e-08 -3.95198754e-07 -6.76507113e-07 -8.70003134e-07
      -8.36365643e-07 -5.14839201e-07 -1.19716637e-08 4.75202398e-07
      8.24548579e-07 1.19906235e-06 1.62847482e-06 1.90539254e-06
      2.10980738e-06 2.33156334e-06 2.54877114e-06 2.96218559e-06
      2.86977843e-06 2.73808723e-06 2.64812752e-06 2.60184993e-06
      2.61783771e-06 2.61714945e-06 2.69121165e-06 2.72415809e-06
      2.72789498e-06 2.58253340e-06 2.13508270e-06 2.00630939e-06
      1.83290570e-06 1.71305692e-06 1.10443466e-06 4.81670611e-07
      -6.02250552e-08 -6.01889269e-07 -1.03138211e-06 -1.26366126e-06
      -1.28400177e-06 -1.15149840e-06 -9.89594923e-07 -7.94861364e-07
      -5.64101583e-07 -2.70071268e-07 -2.10970050e-08 7.66158621e-08
      4.74563080e-07 4.38100471e-07 3.76169965e-07 3.04329575e-07
      1.32205727e-07 -2.10525698e-07 -6.81774054e-07 -1.20557479e-06
      -1.72557043e-06 -2.11319707e-06 -2.28694148e-06 -2.16907301e-06
      -1.67644589e-06 -9.48416016e-07 -1.55573858e-07 5.38533413e-07
      1.11694499e-06 1.61170965e-06 1.89157242e-06 2.00307522e-06
      2.08788538e-06 2.39820292e-06 2.65588574e-06 2.84265934e-06
      3.03104412e-06 3.09520897e-06 3.05053572e-06 3.19794299e-06
      3.54472900e-06 3.86719421e-06 4.02958449e-06 4.01477519e-06
      3.91990670e-06 3.79078961e-06 3.52219831e-06 2.94967595e-06
      2.12347095e-06 1.11675456e-06 1.09959775e-09 -1.08454321e-06
      -1.87908267e-06 -2.33770538e-06 -2.35769130e-06 -2.00430850e-06
      -1.58015405e-06 -1.06757227e-06 -4.91508729e-07 2.27542543e-07
      8.93816946e-07 1.27386193e-06 1.43410819e-06 1.44601108e-06
      -3.85043990e-07 -3.58985403e-07 -3.63117948e-07 -3.82644686e-07
      -4.90081447e-07 -6.36335585e-07 -8.02035174e-07 -1.08084873e-06
      -1.38180269e-06 -1.55080124e-06 -1.63573793e-06 -1.46703337e-06
      -1.19595825e-06 -9.51893810e-07 -8.14075236e-07 -6.36339792e-07
      -3.04923162e-07 1.83883259e-07 6.87951001e-07 1.17421871e-06
      1.59331501e-06 1.82841484e-06 1.75579476e-06 1.51521726e-06
      1.13534725e-06 7.45057719e-07 4.63713292e-07 3.38654189e-07
      4.09057890e-07 7.29952660e-07 1.11708107e-06 1.58647401e-06
      2.01539569e-06 2.48084757e-06 2.83382860e-06 2.92027198e-06
      2.76681044e-06 2.43803584e-06 1.97370696e-06 1.30459068e-06
      5.91777223e-07 -6.05353208e-08 -6.09903338e-07 -9.56877898e-07
      -1.14244142e-06 -1.05608126e-06 -8.39890902e-07 -6.58324439e-07
      -4.93035998e-07 -4.40932041e-07 -4.74238476e-07 -5.30808961e-07
      -2.71808403e-06 -2.77467620e-06 -2.82946053e-06 -2.78034145e-06
      -2.50507287e-06 -2.10423786e-06 -1.60593891e-06 -1.12982423e-06
      -7.45147531e-07 -3.57397141e-07 -1.09610184e-07 -1.28327372e-07
      -3.04465800e-07 -3.76707874e-07 -2.88622658e-07 2.61679052e-08
      6.76961008e-07 1.51223674e-06 2.33934065e-06 2.89757963e-06
      3.03903494e-06 2.67806331e-06 1.99151214e-06 1.09172061e-06
      2.16880181e-07 -4.13704100e-07 -6.75441015e-07 -5.43219926e-07
      -8.74685142e-08 5.97993449e-07 1.26939312e-06 1.90736137e-06
      2.51610641e-06 3.03017509e-06 3.35904838e-06 3.53321479e-06
      3.58263492e-06 3.58508760e-06 3.54674171e-06 3.39649341e-06
      3.18999582e-06 2.97315160e-06 2.58546629e-06 2.12639543e-06
      1.66467669e-06 1.25380075e-06 8.78021979e-07 6.27528948e-07
      3.58554587e-07 8.97997126e-08 -1.64823362e-07 -2.75379023e-07
      -1.69557347e-06 -1.69034445e-06 -1.55280054e-06 -1.30757383e-06
      -9.73578267e-07 -5.74631656e-07 -3.00776293e-07 -2.23022298e-07
      -3.30139557e-07 -6.15971715e-07 -8.18470994e-07 -8.89699436e-07
      -8.00941791e-07 -2.52508414e-07 9.58522946e-07 2.26084398e-06
      3.52080156e-06 4.45119440e-06 4.98044710e-06 5.13921532e-06
      4.83309805e-06 4.15548993e-06 3.37067740e-06 2.54103566e-06
      1.92260950e-06 1.54244356e-06 1.47097080e-06 1.51137874e-06
      1.54023496e-06 1.56339195e-06 1.64835569e-06 1.70485362e-06
      1.78309995e-06 1.89084085e-06 1.98505290e-06 2.07783592e-06
      2.11671795e-06 2.07468247e-06 2.01124044e-06 2.09864425e-06
      2.31485478e-06 2.42728333e-06 2.29292277e-06 1.95015696e-06
      1.48186325e-06 1.10889823e-06 8.64637059e-07 7.85612485e-07
      7.05200307e-07 7.04855211e-07 7.55174483e-07 8.05036564e-07
      1.64395487e-06 1.72540899e-06 1.92506968e-06 2.15161685e-06
      2.25966460e-06 2.32701518e-06 2.19506273e-06 1.81321127e-06
      1.28538068e-06 8.54080611e-07 6.92148149e-07 8.73758950e-07
      1.47790684e-06 2.20741777e-06 2.77490631e-06 3.14473095e-06
      3.30983153e-06 3.32461104e-06 3.21551079e-06 3.06630272e-06
      2.85011697e-06 2.55632244e-06 2.05735932e-06 1.51035294e-06
      1.09087557e-06 6.50870675e-07 2.41952563e-07 -2.16828070e-07
      -6.73222644e-07 -9.38941469e-07 -9.05887248e-07 -6.37444998e-07
      -1.74257835e-07 4.30357034e-07 9.56303893e-07 1.32103094e-06
      1.54650172e-06 1.65160179e-06 1.81542885e-06 2.17821412e-06
      2.56139606e-06 2.66000075e-06 2.47993603e-06 2.10903295e-06
      1.66384200e-06 1.40274597e-06 1.14828435e-06 1.03897287e-06
      9.15851047e-07 7.59433533e-07 6.87216016e-07 7.33812215e-07
      1.81067742e-06 1.84182272e-06 1.88687159e-06 1.99724991e-06
      2.19617505e-06 2.39303699e-06 2.46632885e-06 2.43412751e-06
      2.27108922e-06 2.10692519e-06 2.18414175e-06 2.57250622e-06
      3.06531547e-06 3.45710464e-06 3.06105744e-06 2.27885812e-06
      1.26248858e-06 1.87972645e-07 -5.32356864e-07 -8.55737539e-07
      -9.74335876e-07 -9.32967055e-07 -9.09677567e-07 -9.00752468e-07
      -9.66298444e-07 -1.10190604e-06 -1.23148538e-06 -1.26034445e-06
      -1.04482763e-06 -5.84421002e-07 -9.12949449e-09 7.05481511e-07
      1.39106976e-06 1.74626098e-06 1.65596907e-06 1.26008331e-06
      7.39950963e-07 3.42044217e-07 4.96846155e-07 1.25289876e-06
      2.20741458e-06 2.74362355e-06 2.81188341e-06 2.60568618e-06
      2.28797057e-06 1.77773791e-06 1.40543648e-06 1.04903472e-06
      9.06855405e-07 9.84017333e-07 1.19899903e-06 1.28543468e-06
      2.35852475e-08 1.55652535e-09 6.30513242e-09 1.37770527e-07
      3.45680235e-07 4.53966976e-07 4.81439145e-07 5.77695459e-07
      8.16743011e-07 1.00641137e-06 1.09417863e-06 1.15815953e-06
      1.44759338e-06 1.78386733e-06 1.19816207e-06 -3.32246628e-07
      -1.72900775e-06 -2.81073926e-06 -3.22608662e-06 -3.04294394e-06
      -2.58855357e-06 -1.95340021e-06 -1.05543916e-06 1.03123817e-07
      1.16972433e-06 2.03817694e-06 2.55139116e-06 2.78755442e-06
      2.89676200e-06 2.90352159e-06 2.73873525e-06 2.38031362e-06
      1.87052797e-06 1.29599766e-06 3.71840684e-07 -8.81500171e-07
      -2.03759350e-06 -2.66462621e-06 -2.36697292e-06 -1.03997922e-06
      5.69771203e-07 1.66567895e-06 2.10138523e-06 1.73617718e-06
      1.25740098e-06 8.67784593e-07 5.26532119e-07 1.73912028e-07
      -5.22738688e-08 1.25881911e-07 2.62553641e-07 3.10093412e-07
      -1.56148872e-06 -1.57162754e-06 -1.49619575e-06 -1.30903265e-06
      -1.13082262e-06 -1.06416633e-06 -9.80090135e-07 -7.70255667e-07
      -1.56549703e-07 7.70998895e-07 1.86054149e-06 2.81428515e-06
      3.19556761e-06 2.76032188e-06 1.27328178e-06 -1.03334685e-06
      -3.71337455e-06 -6.03024182e-06 -6.64901108e-06 -6.34721209e-06
      -5.50843924e-06 -4.20177093e-06 -2.38265397e-06 -3.11761625e-07
      1.52997234e-06 2.95916220e-06 3.75140758e-06 3.93706114e-06
      3.62124706e-06 2.86917998e-06 1.74301158e-06 3.74113029e-07
      -1.08867005e-06 -2.52149857e-06 -3.54919212e-06 -4.07294510e-06
      -4.11333394e-06 -3.30886792e-06 -1.59112346e-06 7.70061774e-07
      2.86275417e-06 4.00286581e-06 4.08735150e-06 2.85316310e-06
      1.27312478e-06 4.23870802e-07 -2.57124327e-07 -8.26802079e-07
      -1.27344333e-06 -1.50551853e-06 -1.58384296e-06 -1.63909374e-06
      -1.49288417e-06 -1.45420745e-06 -1.42053943e-06 -1.42286854e-06
      -1.48425886e-06 -1.65245206e-06 -1.94647805e-06 -2.01114176e-06
      -1.63349193e-06 -5.40835742e-07 6.41022496e-07 1.06516620e-06
      9.95569053e-07 2.13661266e-07 -1.29024659e-06 -3.03322781e-06
      -4.96374332e-06 -6.43660042e-06 -7.02922989e-06 -7.37373284e-06
      -7.25126893e-06 -6.55840904e-06 -4.88962132e-06 -2.66739744e-06
      -8.23857533e-07 6.97801624e-07 1.69145596e-06 2.14220609e-06
      1.96374731e-06 1.23673988e-06 1.25899035e-07 -1.24641667e-06
      -2.86403065e-06 -4.54235624e-06 -5.53149221e-06 -5.69747090e-06
      -4.92486606e-06 -3.76934099e-06 -1.25904614e-06 9.77196123e-07
      2.48274114e-06 3.19372248e-06 3.30357079e-06 2.83096324e-06
      1.78685741e-06 7.93213587e-07 -4.94300672e-08 -7.15944054e-07
      -1.27211410e-06 -1.68193651e-06 -1.90153787e-06 -1.97697568e-06
      1.39768122e-06 1.43049624e-06 1.48742856e-06 1.51863844e-06
      1.59839828e-06 1.61058665e-06 1.48630147e-06 1.16762408e-06
      6.32398041e-07 -8.48298498e-08 -5.52204767e-07 -1.06377638e-06
      -2.16302465e-06 -3.29515296e-06 -3.57655381e-06 -3.45502963e-06
      -3.70222938e-06 -4.69720362e-06 -6.22228845e-06 -7.02400393e-06
      -7.14900216e-06 -6.13670136e-06 -4.60486035e-06 -2.92083405e-06
      -1.46545210e-06 -3.20989415e-07 5.94880191e-07 1.24673511e-06
      1.33906644e-06 9.70591373e-07 1.62890828e-07 -1.00578177e-06
      -2.36037067e-06 -3.86541751e-06 -5.18876686e-06 -5.81442737e-06
      -5.89321462e-06 -4.62035132e-06 -3.11610711e-06 -2.11085376e-06
      -1.25672977e-06 -4.44107009e-08 3.75542072e-07 5.47902914e-07
      9.10744689e-07 1.24612632e-06 1.17075115e-06 8.04963292e-07
      4.45702426e-07 2.60484455e-07 2.63547804e-07 2.86632996e-07
      7.31893351e-07 8.02525619e-07 1.06335335e-06 1.39460269e-06
      1.84786416e-06 2.33803189e-06 2.50208268e-06 2.29267266e-06
      1.39439601e-06 -2.22061004e-07 -1.57436989e-06 -2.31998570e-06
      -2.80975883e-06 -3.08388098e-06 -3.17134618e-06 -3.34156357e-06
      -3.85291651e-06 -4.87934267e-06 -6.49599542e-06 -7.15791566e-06
      -6.33504305e-06 -4.66749407e-06 -2.96012854e-06 -1.41268276e-06
      3.47751730e-08 1.20985442e-06 1.99720603e-06 2.18904393e-06
      1.92154448e-06 1.44565274e-06 8.79072104e-07 2.02428865e-07
      -5.17463548e-07 -1.65117478e-06 -3.22259234e-06 -5.26590793e-06
      -5.93011782e-06 -5.64323273e-06 -4.87465877e-06 -4.01269608e-06
      -3.11570511e-06 -2.48275660e-06 -1.93577534e-06 -1.79810399e-06
      -8.61995545e-07 -5.84674524e-07 -2.38605082e-07 2.42592051e-07
      6.67243683e-07 1.03389345e-06 1.23822417e-06 1.36422557e-06
      -3.62444041e-07 -2.67232764e-07 -9.02752717e-09 3.83081414e-07
      7.28027203e-07 1.06068785e-06 1.17531943e-06 8.02244529e-07
      -5.94690697e-08 -1.21429548e-06 -2.92220875e-06 -4.88967044e-06
      -5.83981273e-06 -5.43555916e-06 -4.45628166e-06 -3.22572077e-06
      -2.20322545e-06 -2.59697435e-06 -3.25380233e-06 -3.80492361e-06
      -2.90036496e-06 -1.28980446e-06 -6.21192342e-09 8.25357176e-07
      1.04567903e-06 7.55051474e-07 2.52139216e-07 -2.26766431e-07
      -6.35065476e-07 -7.15851172e-07 -3.00600760e-07 3.45977043e-07
      1.41079636e-06 2.16969670e-06 2.06237405e-06 5.51826020e-07
      -2.67805291e-07 -1.31130605e-06 -2.28165095e-06 -2.83798886e-06
      -2.83480540e-06 -2.64435062e-06 -2.01842795e-06 -3.14535555e-07
      1.40493501e-06 1.72961211e-06 1.23141865e-06 9.61654678e-07
      9.04656304e-07 9.49868706e-07 9.17519174e-07 9.40153996e-07
      5.97397829e-08 6.87163109e-08 9.72011236e-08 2.19003837e-07
      4.14912790e-07 6.18185652e-07 7.58396993e-07 6.27264455e-07
      1.86030249e-07 -8.16710724e-07 -1.95453867e-06 -2.45050410e-06
      -2.92456093e-06 -2.93256744e-06 -2.47268576e-06 -1.78168250e-06
      -9.23038158e-07 -6.18526812e-08 1.33897163e-06 2.31173908e-06
      2.39344376e-06 2.42991223e-06 2.82888186e-06 2.96507346e-06
      2.70752344e-06 2.11939027e-06 1.50158655e-06 1.02150921e-06
      6.98100905e-07 6.44617899e-07 1.12388932e-06 1.74580475e-06
      2.59093781e-06 3.69711006e-06 4.63212928e-06 4.23666779e-06
      2.88045180e-06 1.25462020e-06 -1.27361034e-07 -1.02572051e-06
      -1.25244401e-06 -8.03126341e-07 6.89278863e-07 2.65137237e-06
      3.88061289e-06 4.20334527e-06 3.94755489e-06 3.30645389e-06
      2.69712109e-06 2.24798555e-06 1.88388969e-06 1.73863634e-06
      1.71489745e-07 2.28496290e-07 3.78494519e-07 5.85420935e-07
      8.71964403e-07 1.16776789e-06 1.46287232e-06 1.65051313e-06
      1.64698054e-06 1.50541723e-06 1.34636912e-06 1.22520851e-06
      1.12872101e-06 1.09134578e-06 1.17115246e-06 1.23224470e-06
      1.39236943e-06 1.73911917e-06 1.93188703e-06 1.35190680e-06
      5.10437417e-07 5.81249076e-08 -5.49256036e-08 5.82274197e-07
      1.27572423e-06 1.47234402e-06 1.16226431e-06 6.94358846e-07
      1.82838864e-08 -5.90792183e-07 -7.40139683e-07 -5.41388829e-07
      5.07222637e-07 1.76083381e-06 2.68269469e-06 2.92020013e-06
      2.12158216e-06 4.80670565e-07 -1.26362772e-06 -2.90289768e-06
      -3.71374836e-06 -2.43636350e-06 -7.24563051e-07 1.15358387e-06
      2.82746259e-06 3.82109511e-06 4.18878881e-06 4.04216780e-06
      3.56204305e-06 2.84972248e-06 2.27274381e-06 2.04865751e-06
      -5.00644433e-08 -9.87096200e-08 -2.74994875e-07 -4.69918149e-07
      -2.32814685e-07 2.39187212e-08 4.81296240e-07 1.30296814e-06
      2.33946662e-06 3.15690454e-06 3.28112105e-06 3.12000702e-06
      2.63857260e-06 1.84026294e-06 8.33115280e-07 7.87327338e-07
      6.30999807e-07 1.45190654e-07 -7.15665806e-07 -1.79780841e-06
      -2.54178576e-06 -2.73463934e-06 -3.04439891e-06 -3.53239943e-06
      -3.65772576e-06 -2.31194008e-06 -1.83507075e-06 -2.32994330e-06
      -3.48074877e-06 -4.76362175e-06 -5.67838561e-06 -5.49099241e-06
      -6.26093379e-06 -5.44596651e-06 -4.78153288e-06 -4.19557318e-06
      -3.70595080e-06 -3.72306954e-06 -3.77939887e-06 -3.58144212e-06
      -2.77743698e-06 -1.94451923e-06 -3.18578856e-07 1.37906125e-06
      2.36688561e-06 3.01026012e-06 2.90657067e-06 1.97625172e-06
      1.10751728e-06 1.87637809e-07 -5.37592314e-07 -8.20294474e-07
      2.48521678e-06 2.29470652e-06 1.92094853e-06 1.51458062e-06
      1.11553743e-06 8.13392603e-07 5.15932186e-07 7.39892243e-07
      1.05795414e-06 1.03313198e-06 8.91428101e-07 6.88507612e-07
      3.13475823e-08 -3.42120472e-07 -6.03667218e-07 -9.80817163e-07
      -9.77526611e-07 -8.71105499e-07 -5.44573240e-08 1.20095535e-06
      1.91940853e-06 2.29420266e-06 2.86354680e-06 3.21802372e-06
      3.40487418e-06 3.67063330e-06 3.78299910e-06 3.66220320e-06
      3.69333202e-06 3.77443644e-06 3.43236434e-06 3.15394368e-06
      3.05044409e-06 2.38120538e-06 1.65577558e-06 1.23445011e-06
      9.02240629e-07 5.32516367e-07 6.41767542e-07 7.22256289e-07
      9.16546298e-07 1.40935276e-06 1.45178660e-06 1.38042969e-06
      1.63057928e-06 1.90648962e-06 1.92429320e-06 1.72535749e-06
      1.27201224e-06 7.47911031e-07 2.75327125e-07 8.17257444e-08
      2.32856337e-06 2.26877319e-06 2.08699475e-06 1.85710746e-06
      1.28418571e-06 6.38072663e-07 4.12126155e-07 6.55270469e-07
      1.04840854e-06 1.02997353e-06 7.73625345e-07 6.93524669e-07
      3.17927402e-07 1.14353121e-07 -1.92644350e-07 -8.81773815e-07
      -1.05859976e-06 -9.70451651e-07 -1.89405299e-07 1.07154574e-06
      1.91015829e-06 2.32446610e-06 2.59193985e-06 3.17366607e-06
      3.54716713e-06 3.91103822e-06 3.93857135e-06 3.67727171e-06
      3.81441168e-06 4.03582953e-06 3.40656106e-06 2.80431550e-06
      2.67922906e-06 2.21397750e-06 1.32808736e-06 8.73828924e-07
      9.11914356e-07 6.73580814e-07 5.96917005e-07 5.35768891e-07
      5.51151516e-07 1.03180582e-06 1.20290804e-06 1.32305945e-06
      1.69793839e-06 1.88118781e-06 1.67107305e-06 1.34235756e-06
      1.07470714e-06 5.21019956e-07 -2.87646003e-07 -6.87848399e-07
      1.51070969e-06 1.85033036e-06 1.98088355e-06 1.73304045e-06
      1.22297786e-06 5.90855223e-07 3.67281586e-07 4.78258130e-07
      7.06289427e-07 4.86508895e-07 2.88996915e-07 3.78600646e-07
      3.80380072e-07 2.44805335e-07 -7.38563699e-08 -5.73197838e-07
      -8.98578094e-07 -8.21567596e-07 -2.85109962e-07 5.40375652e-07
      1.39800807e-06 2.00454087e-06 2.15588125e-06 2.59339390e-06
      3.11321969e-06 3.60874151e-06 3.66587415e-06 3.49593938e-06
      3.78137020e-06 4.04832099e-06 3.64901166e-06 3.13210421e-06
      2.66719530e-06 2.07336143e-06 1.08694917e-06 5.60876458e-07
      8.64359492e-07 8.98593669e-07 7.12321537e-07 6.39775749e-07
      5.15623015e-07 7.38761003e-07 1.14774650e-06 1.49458197e-06
      1.94879158e-06 2.18621858e-06 1.89765422e-06 1.42355407e-06
      1.28404827e-06 5.25032192e-07 -4.64509071e-07 -8.53603694e-07
      1.40197290e-06 1.63415768e-06 1.72116938e-06 1.34089964e-06
      9.89060140e-07 5.19997798e-07 3.50054876e-07 4.21361676e-07
      4.12651929e-07 3.94061246e-08 -1.86831372e-07 5.72111318e-08
      3.56257800e-07 1.69345000e-07 -2.95228773e-07 -5.07377479e-07
      -6.16605917e-07 -5.18869285e-07 -1.79391776e-07 2.30611079e-07
      8.00506143e-07 1.35545270e-06 1.49317111e-06 1.66780069e-06
      2.26253610e-06 2.82850579e-06 2.82399105e-06 2.87099579e-06
      3.34243168e-06 3.86686679e-06 3.99578448e-06 3.69508552e-06
      2.99920180e-06 2.18622858e-06 1.12008456e-06 7.03321632e-07
      7.44125884e-07 1.02340437e-06 8.71725547e-07 6.51917219e-07
      6.92647461e-07 9.40273480e-07 1.30022647e-06 1.57335148e-06
      2.00098771e-06 2.27135706e-06 2.19979506e-06 1.85796046e-06
      2.07198627e-06 1.59807530e-06 7.19716638e-07 1.05139208e-07
      5.96525581e-07 8.48957882e-07 9.78705430e-07 9.08479194e-07
      4.56910556e-07 7.12952852e-09 -4.72695616e-09 1.57278564e-07
      2.94416566e-07 1.33946614e-08 -2.92324529e-07 -9.88846693e-08
      3.68065372e-07 1.44691654e-07 -1.66288700e-07 -1.98310815e-07
      -1.68294065e-07 -1.44000367e-07 -3.15266533e-08 1.14462672e-07
      3.92899835e-07 6.56956786e-07 6.46309218e-07 5.97389487e-07
      1.05936442e-06 1.69242571e-06 1.65880294e-06 1.83320287e-06
      2.63121638e-06 3.25273572e-06 3.61332604e-06 3.82838516e-06
      3.39631470e-06 2.57867350e-06 1.47549179e-06 7.67228357e-07
      6.55902852e-07 6.10727511e-07 5.38152619e-07 3.66578803e-07
      5.11127155e-07 9.75433068e-07 1.26849693e-06 1.52271002e-06
      1.75301750e-06 1.89871241e-06 1.83114912e-06 1.59176466e-06
      2.04452544e-06 2.34807453e-06 2.06007621e-06 1.89427988e-06
      -3.24280080e-07 -2.09333734e-07 5.17683745e-08 3.18611427e-07
      3.00437506e-08 -6.65680432e-07 -3.98266053e-07 -1.26051560e-07
      1.51708676e-07 -1.05211065e-07 -4.46585659e-07 -5.59764537e-08
      3.28701361e-07 1.88346291e-07 -3.87582801e-08 7.90230246e-08
      1.95054426e-07 4.75215472e-07 3.60107634e-07 2.17848566e-07
      3.34230663e-07 3.25742519e-07 -3.93016428e-08 -2.00061734e-07
      -2.96384659e-08 6.74776572e-07 7.54956318e-07 6.76451805e-07
      1.52644986e-06 2.40887425e-06 2.81733719e-06 3.14002159e-06
      3.15149327e-06 2.57483862e-06 1.60462230e-06 8.41129349e-07
      5.47081584e-07 4.71086622e-07 1.66861170e-07 -1.35070749e-07
      -2.36360602e-08 3.22357977e-07 6.43630358e-07 8.41870076e-07
      1.27120234e-06 1.41838939e-06 1.24732367e-06 1.04642299e-06
      1.29342357e-06 1.48954132e-06 1.29612238e-06 1.32877449e-06
      -1.64090068e-07 -3.69992733e-07 -2.47366927e-07 7.33586134e-08
      7.07477241e-08 -5.53169855e-07 -6.61634203e-07 -2.98806071e-07
      -3.86812324e-08 -2.73997614e-07 -4.60537024e-07 -8.12170100e-08
      3.62250233e-07 2.89726813e-07 3.23907514e-08 6.92728932e-08
      2.69979836e-07 6.77580488e-07 5.27172062e-07 3.09742454e-08
      4.51593138e-07 4.54539389e-07 -2.40653890e-07 -5.92566892e-07
      -4.68658868e-07 1.99498970e-07 4.58862218e-07 5.02464502e-07
      1.11896566e-06 2.03976037e-06 2.51634174e-06 2.38065331e-06
      2.25822077e-06 1.93533219e-06 1.04161097e-06 4.51240510e-07
      4.93963739e-07 4.22555502e-07 1.28853657e-07 -1.91157401e-08
      -4.96528116e-08 1.30144230e-07 2.97974879e-07 5.28958026e-07
      1.12734824e-06 1.38586392e-06 8.58465114e-07 5.43674673e-07
      6.78621859e-07 8.05585614e-07 5.07156926e-07 4.32809117e-07
      8.28132897e-07 5.77881906e-07 4.43874285e-07 8.18997535e-07
      9.63749471e-07 3.32606760e-07 -3.55870071e-07 -2.83372714e-07
      -2.12807095e-07 -3.74481886e-07 -4.16116734e-07 1.33119357e-07
      5.50687162e-07 4.05929228e-07 9.69696785e-08 3.52363250e-10
      1.98016252e-07 6.22665311e-07 3.72016729e-07 -1.13340263e-07
      2.27357006e-07 3.86594479e-07 -2.74645913e-07 -9.43983650e-07
      -8.57221039e-07 1.33822496e-07 6.86465739e-07 9.64670789e-07
      1.35395203e-06 1.86780892e-06 2.12516625e-06 1.81412361e-06
      1.27673854e-06 1.05353774e-06 4.44687657e-07 2.68675238e-09
      3.27631682e-07 2.07143373e-07 -6.43255120e-08 -2.71276313e-09
      3.36350240e-07 5.25198516e-07 6.09383164e-07 8.74704483e-07
      1.44492014e-06 1.52896780e-06 7.20889204e-07 3.52463836e-08
      -1.00035891e-07 -2.00655265e-07 -2.72259740e-07 2.23208776e-08
      3.49415018e-07 6.97059647e-07 9.67913479e-07 1.38433074e-06
      1.73179887e-06 1.34026811e-06 6.47253330e-07 1.19477148e-08
      -3.60821304e-07 -5.42792463e-07 -3.75542612e-07 1.00199159e-07
      4.66659856e-07 1.61274983e-07 -3.02145651e-07 -1.46606226e-07
      1.88396939e-07 4.72551193e-07 1.60928238e-07 -2.41026527e-07
      -1.62888263e-08 1.78163504e-07 -3.09074551e-07 -1.11769305e-06
      -1.16183446e-06 -1.84590917e-07 7.70346560e-07 1.21586572e-06
      1.47696119e-06 1.74632123e-06 1.70989028e-06 1.19524998e-06
      8.76559341e-07 6.46271019e-07 3.05077805e-07 -9.81384360e-08
      4.44399461e-07 6.68103368e-08 -3.27572934e-07 -2.18804715e-07
      3.68762187e-07 6.90408228e-07 7.73730676e-07 1.06591506e-06
      1.33867525e-06 1.30077854e-06 7.20627838e-07 9.96700500e-09
      -4.60181639e-07 -8.54085442e-07 -1.07605695e-06 -9.37314780e-07
      2.35283593e-07 2.38361238e-07 5.13377017e-07 7.36948266e-07
      1.19877734e-06 1.35295886e-06 9.79529773e-07 4.42333260e-07
      -2.87469760e-07 -7.07790150e-07 -5.81285519e-07 -3.35921101e-07
      -6.88233470e-08 -5.14770193e-07 -1.07664334e-06 -9.73101351e-07
      -4.90229297e-07 -8.60144809e-08 -1.69389356e-08 -6.59986696e-08
      1.06143183e-07 3.36048089e-07 8.69464216e-08 -9.14817292e-07
      -1.17804882e-06 -3.60097999e-07 6.84694555e-07 1.30540786e-06
      1.46037723e-06 1.53903954e-06 1.07160031e-06 2.63567614e-07
      1.12968969e-07 2.39723363e-07 2.98683389e-08 -2.73782859e-07
      1.90278627e-07 3.48469591e-08 -4.39284463e-07 -3.96356626e-07
      1.47060803e-07 5.92598212e-07 5.78389233e-07 3.17642389e-07
      2.57460471e-07 5.13831367e-07 4.57582530e-07 6.97102891e-08
      -4.40982745e-07 -8.67987922e-07 -1.29868863e-06 -1.54949362e-06
      -6.06809749e-07 -7.71347572e-07 -7.25790983e-07 -6.51299899e-07
      -3.01354220e-07 -5.61420102e-08 2.07744421e-07 9.40845482e-08
      -2.58461483e-07 -6.83710880e-07 -8.97757104e-07 -9.97408733e-07
      -6.63784249e-07 -7.91016930e-07 -1.25304109e-06 -1.20992377e-06
      -9.92724722e-07 -8.04952890e-07 -2.23170048e-07 1.20926046e-07
      3.49298261e-07 7.76607408e-07 9.66516041e-07 2.46815517e-07
      -5.21730044e-07 -1.18059546e-07 7.46657122e-07 1.51667132e-06
      1.67402368e-06 1.69666396e-06 8.37797700e-07 -5.79024473e-08
      -6.96697100e-07 -4.70535952e-07 -3.60290386e-07 -5.15784393e-07
      -2.26187680e-07 -1.55814988e-07 -5.17254023e-07 -7.50084496e-07
      -3.48105374e-07 3.97718622e-07 6.81117172e-07 3.24007829e-07
      -1.47600858e-07 -1.27993502e-07 8.68456738e-08 9.37592759e-08
      -1.98031699e-07 -5.02082287e-07 -9.03573607e-07 -1.12178282e-06
      -1.90593028e-07 -1.21252128e-06 -1.56715737e-06 -1.71890645e-06
      -1.17123273e-06 -8.38034282e-07 -7.13694021e-07 -1.06950529e-06
      -1.02297713e-06 -9.67539108e-07 -1.20180528e-06 -1.48346601e-06
      -8.58255703e-07 -4.87792363e-07 -4.47356001e-07 -2.34727523e-07
      -1.47398524e-07 -2.10790802e-07 1.31232028e-07 6.51241919e-07
      7.49577282e-07 1.20225650e-06 1.56504552e-06 1.15399712e-06
      5.46723584e-07 5.39168127e-07 1.18087735e-06 1.84009923e-06
      1.63843231e-06 1.41474834e-06 8.06668481e-07 -4.78409810e-08
      -9.93642175e-07 -1.03191371e-06 -8.30459555e-07 -8.00992666e-07
      -4.89775061e-07 -3.40055749e-07 -7.59625834e-07 -1.30733906e-06
      -1.15970511e-06 -9.36528224e-08 6.72235899e-07 7.24967720e-07
      4.07826633e-07 1.17885996e-07 -6.92479105e-08 1.38986678e-07
      3.54245003e-07 -1.03336617e-07 -2.51807137e-07 -2.23818034e-07
      7.99291172e-07 -5.94142904e-08 -8.72058308e-07 -1.58524949e-06
      -1.28301429e-06 -8.55251585e-07 -7.85707812e-07 -1.29818739e-06
      -1.87240414e-06 -1.89668651e-06 -1.61737171e-06 -1.97885902e-06
      -1.10020039e-06 -1.29787537e-07 4.55140878e-07 9.97470579e-07
      1.08919937e-06 1.02087984e-06 1.11393808e-06 1.58236514e-06
      1.65188806e-06 1.73399440e-06 1.80624465e-06 1.55004432e-06
      1.25195720e-06 1.10895155e-06 1.62955746e-06 2.24822656e-06
      1.65389247e-06 1.17925208e-06 6.88868511e-07 -7.64222463e-08
      -8.43989596e-07 -9.25860888e-07 -7.73706518e-07 -9.80158461e-07
      -7.41143367e-07 -6.51157350e-08 2.46006977e-07 -5.81060874e-07
      -1.51682320e-06 -1.02704121e-06 1.53798794e-07 9.17376951e-07
      9.90536819e-07 7.70423128e-07 4.93318851e-07 1.65892942e-07
      2.05188812e-07 7.81836434e-07 7.33297156e-07 6.51975029e-07
      1.22317078e-06 9.84467761e-07 4.27509065e-07 -5.12362988e-07
      -1.06781772e-06 -7.66338815e-07 -4.90964226e-07 -5.94974836e-07
      -1.12206953e-06 -1.83119857e-06 -1.46862681e-06 -1.73607327e-06
      -1.53296946e-06 -8.09243232e-08 1.02858166e-06 1.75868104e-06
      2.18270270e-06 2.07204494e-06 2.08004349e-06 2.19434196e-06
      2.51511960e-06 2.44191301e-06 2.36397909e-06 1.95551524e-06
      1.50867982e-06 1.25882957e-06 1.48879394e-06 1.90796072e-06
      1.40637064e-06 6.65260302e-07 1.14384100e-07 -3.56994406e-07
      -1.09592656e-06 -8.73825741e-07 -5.29345414e-07 -9.20297396e-07
      -1.12146722e-06 -1.50104285e-07 8.12279097e-07 9.32965861e-07
      -5.64452591e-07 -1.36016570e-06 -6.33898367e-07 -1.58396745e-07
      3.24979965e-07 8.06241417e-07 1.09814289e-06 7.79028028e-07
      2.68121170e-07 9.12483358e-07 1.39779320e-06 1.43918669e-06
      1.56421322e-06 1.74009165e-06 1.29529724e-06 6.68988775e-07
      -3.39990180e-07 -7.04926265e-07 -4.73684793e-07 -2.19470621e-07
      -1.84483085e-07 -6.40714347e-07 -7.34586592e-07 -2.04198187e-07
      -1.09013354e-06 -6.26639633e-07 8.66113908e-07 1.46085836e-06
      2.22633321e-06 2.37548329e-06 2.30466753e-06 2.13320800e-06
      2.64276696e-06 2.72030843e-06 2.81279677e-06 2.39955148e-06
      1.76314302e-06 1.13460533e-06 1.04192361e-06 1.37530742e-06
      8.84441931e-07 1.99478663e-07 -3.98109478e-07 -9.54527991e-07
      -1.49840730e-06 -1.20340587e-06 -5.70479187e-07 -7.44554256e-07
      -9.97706820e-07 -3.54395695e-07 5.44538068e-07 1.16960302e-06
      5.83784356e-07 -5.63214428e-07 -8.10340453e-07 -1.00437762e-06
      -9.29324074e-07 -5.33647324e-07 3.94211526e-07 9.53886797e-07
      9.76210004e-07 1.12237637e-06 1.31551724e-06 1.51009772e-06
      2.11953852e-06 2.23668144e-06 1.64617290e-06 1.13038413e-06
      5.20024741e-07 -3.83522007e-07 -4.51076602e-07 -1.93451882e-07
      7.50551479e-08 8.31905851e-08 4.84275517e-07 1.00843420e-06
      5.01833881e-07 -2.64889508e-07 -1.10207850e-07 9.19146260e-07
      1.38955409e-06 1.85587476e-06 1.99543115e-06 1.66115080e-06
      1.93292044e-06 2.24809969e-06 2.47452294e-06 2.68160375e-06
      2.05067340e-06 1.05027823e-06 6.09240942e-07 8.12397502e-07
      7.82919983e-07 2.01796126e-07 -2.40941205e-07 -9.60464718e-07
      -1.43553746e-06 -1.20421214e-06 -5.75808542e-07 -4.56304861e-07
      -4.19661148e-07 -2.32341421e-07 -3.73584150e-08 5.28075020e-07
      7.76778336e-07 3.62880400e-07 -4.43770858e-07 -6.54264568e-07
      -1.09195514e-06 -1.37912093e-06 -9.78068897e-07 -2.83042169e-07
      8.22353854e-07 1.58581963e-06 1.38865164e-06 1.34126049e-06
      2.91587344e-06 2.82801398e-06 1.94895097e-06 1.34531581e-06
      8.16854083e-07 2.11569201e-07 -2.27565693e-07 -1.57898413e-07
      4.56830698e-08 1.54479196e-07 4.89859303e-07 1.17461548e-06
      1.28567808e-06 4.71770790e-07 -8.64263754e-08 3.88129308e-07
      1.10890539e-06 1.92435618e-06 1.83356519e-06 1.10992175e-06
      9.62166723e-07 1.26914188e-06 1.75078378e-06 2.45567935e-06
      1.95127564e-06 9.59381964e-07 6.54799578e-07 6.99903183e-07
      9.67816391e-07 7.17673402e-07 4.70420247e-07 -2.32215640e-07
      -8.85004340e-07 -5.20190667e-07 1.45797728e-07 3.63261023e-07
      3.84536264e-07 4.07250042e-07 1.62677281e-07 1.97744782e-07
      4.27138616e-07 5.66540223e-07 3.13501189e-08 -5.06645286e-08
      -4.99995508e-07 -1.38450741e-06 -1.48139020e-06 -9.90717581e-07
      -3.09455515e-07 9.32528508e-07 1.28847569e-06 1.13491240e-06
      3.33706362e-06 3.07297341e-06 2.24292307e-06 1.39931228e-06
      1.08392101e-06 8.09807716e-07 2.98980126e-07 1.73528267e-08
      1.60805627e-08 6.58867716e-09 -5.83165836e-08 6.08189907e-07
      7.85066163e-07 3.00941593e-07 -1.71793403e-07 -1.19460708e-07
      4.80504703e-08 1.20124650e-06 1.96906035e-06 1.46191644e-06
      6.21329548e-07 7.74721627e-07 1.29912883e-06 1.71121644e-06
      1.19649962e-06 4.56536128e-07 5.46083129e-07 7.37954338e-07
      1.27325018e-06 1.46446519e-06 1.45944875e-06 8.41168287e-07
      -1.71073225e-07 -7.80117801e-08 4.48881821e-07 6.60165483e-07
      9.77995342e-07 1.01513888e-06 6.07322534e-07 4.60807797e-07
      4.00491132e-07 2.78298131e-07 6.07670074e-08 -7.36607930e-09
      -8.39636716e-09 -9.07648086e-07 -1.10223618e-06 -9.40603798e-07
      -8.83598034e-07 -4.72281585e-07 1.03492695e-07 3.62206663e-07
      2.94658184e-06 2.72447119e-06 2.02415868e-06 1.21637152e-06
      8.66952519e-07 7.74422290e-07 6.33136494e-07 2.14918572e-07
      -3.99410851e-08 -1.29802856e-07 -2.43697599e-07 8.63016183e-08
      1.53437014e-07 -8.07229696e-08 -5.19564253e-07 -5.00902729e-07
      -4.51628523e-07 1.76221761e-07 1.06380401e-06 1.31972047e-06
      8.51807442e-07 1.07586959e-06 1.12324676e-06 8.19535160e-07
      5.13137017e-08 -4.53302505e-07 -5.06229441e-08 3.79811553e-07
      1.07979781e-06 1.84191128e-06 2.15860609e-06 1.88744377e-06
      7.79999198e-07 3.32925168e-07 2.64417935e-07 3.74571584e-07
      6.17143940e-07 5.97282849e-07 5.94272933e-07 6.18564115e-07
      6.49664685e-07 2.97559353e-07 -4.67744599e-08 1.28188617e-07
      1.10854820e-07 -3.85796710e-07 -4.19190684e-07 -3.36309029e-07
      -6.99336340e-07 -9.92181072e-07 -6.44529621e-07 -5.32257104e-07
      3.02212811e-06 2.95408154e-06 2.17762749e-06 1.22361064e-06
      6.56656994e-07 3.23006020e-07 3.68479505e-07 1.07639174e-07
      -6.70670133e-08 -1.04168670e-07 -1.66782129e-07 -2.37126926e-07
      -2.35481664e-07 8.61578613e-08 2.43630165e-08 -3.02979714e-07
      -5.37089420e-07 -5.03637025e-08 4.33704543e-07 4.07908118e-07
      8.91477203e-09 5.90848174e-07 7.67201129e-07 -5.29818855e-08
      -9.80950404e-07 -1.29378145e-06 -8.50756749e-07 -7.72736115e-08
      6.65496998e-07 1.60459388e-06 2.29387979e-06 2.26458496e-06
      1.69325301e-06 1.10320332e-06 7.60251055e-07 2.83984065e-07
      1.55896188e-07 -4.83525788e-08 -2.99072802e-08 5.16887610e-07
      7.31255568e-07 2.49441683e-07 -1.41368645e-07 1.40561639e-07
      -5.32332862e-08 -5.06706101e-07 2.32817339e-08 3.35579927e-07
      -4.18374611e-07 -8.33866750e-07 -6.76361481e-07 -7.53996630e-07
      3.00009083e-06 2.77291952e-06 2.09664745e-06 1.31887202e-06
      7.05319962e-07 4.35854986e-07 3.40186226e-08 -5.67978802e-08
      2.01611332e-08 1.09592406e-07 1.18771879e-07 -3.43230681e-07
      -6.46232934e-07 1.71038977e-07 3.84201343e-07 2.95746929e-07
      3.40897763e-08 2.11962771e-07 5.84865120e-07 2.27117724e-07
      -2.49078568e-07 1.51580096e-07 1.94069898e-07 -7.09829578e-07
      -1.73079513e-06 -2.05974970e-06 -1.88419051e-06 -8.24165397e-07
      1.94563697e-07 1.27355906e-06 1.97236091e-06 2.23279835e-06
      1.91902359e-06 1.40103168e-06 1.06822586e-06 6.50264838e-07
      1.12028253e-07 -3.75576008e-07 -3.37813390e-07 1.96836098e-07
      4.03658305e-07 1.00551993e-07 -1.81332922e-07 -3.89779586e-08
      -2.02278969e-07 -6.32601939e-07 -4.58982790e-08 4.11558119e-07
      -3.26836670e-07 -9.81364451e-07 -6.96708980e-07 -5.42142459e-07
      3.15396596e-06 2.85464762e-06 1.99528677e-06 1.26783402e-06
      9.72998237e-07 7.09666779e-07 2.30108270e-08 -3.47964928e-08
      9.95776190e-08 3.00544968e-07 5.26154167e-07 1.80675357e-07
      -8.89173322e-08 1.87870086e-07 2.19654993e-07 1.96286166e-07
      3.20756641e-07 6.60079991e-07 1.02739841e-06 7.70224062e-07
      5.25016901e-07 5.60976957e-07 1.42092318e-07 -8.08338768e-07
      -1.85300053e-06 -2.37832955e-06 -2.49782579e-06 -1.67565952e-06
      -6.25670452e-07 6.15387989e-07 1.66170594e-06 2.04633375e-06
      1.93602796e-06 1.48442757e-06 1.04547576e-06 6.64632580e-07
      3.14030729e-07 -2.39362976e-07 -3.30086976e-07 9.85953790e-08
      2.62009195e-07 7.66633832e-08 6.12556903e-08 8.10527609e-08
      -2.18144194e-07 -5.80554058e-07 -3.33878276e-08 2.58393214e-07
      -7.03543179e-08 -5.13350756e-07 -2.13947075e-07 -5.82204649e-08
      3.10089877e-06 2.79501000e-06 1.82475458e-06 1.15709281e-06
      9.84551548e-07 7.16269369e-07 6.90006061e-08 -7.40889377e-08
      -3.87207670e-08 9.51547250e-08 3.99538493e-07 3.38699778e-07
      3.76310112e-07 3.59410620e-07 -9.80737695e-08 -3.92661434e-07
      -2.65441713e-07 3.01464581e-07 8.75007061e-07 1.03284560e-06
      1.24453470e-06 1.19739741e-06 4.67183298e-07 -4.62448554e-07
      -1.27579801e-06 -2.05603919e-06 -2.36132860e-06 -2.11345423e-06
      -1.42453860e-06 -6.20208766e-07 7.18516958e-07 1.43212026e-06
      1.57228919e-06 1.33415381e-06 1.09927396e-06 7.60963246e-07
      4.98448458e-07 1.41245764e-07 -1.95606091e-07 1.12843260e-07
      1.20478447e-07 2.51883652e-08 8.10399072e-08 2.69520001e-07
      5.51665913e-08 -3.40011951e-07 -1.11039377e-07 1.40943854e-07
      1.15237189e-08 6.09403301e-08 5.65754931e-07 8.12779490e-07
      2.79410233e-06 2.60367347e-06 1.63346829e-06 7.82148618e-07
      6.64606489e-07 4.85152384e-07 4.05074090e-08 -6.21668264e-08
      -6.74133673e-08 -1.40620969e-07 -1.58481285e-07 -7.93217652e-08
      1.67799598e-07 2.66744479e-07 -3.20002913e-09 -5.57970964e-07
      -1.14431134e-06 -8.73800730e-07 -2.26505648e-07 2.99771841e-07
      9.16766453e-07 1.32812818e-06 8.68415668e-07 1.71377835e-07
      -2.63292208e-07 -1.01535011e-06 -1.56072497e-06 -1.89066327e-06
      -1.77367735e-06 -1.28700697e-06 -3.98589066e-07 1.09048763e-07
      3.62454728e-07 6.07060429e-07 6.29396084e-07 4.28722927e-07
      3.46635773e-07 1.66604579e-07 -1.16201790e-07 6.66154634e-08
      1.35020258e-07 -1.90078464e-09 -1.53562823e-07 1.34334286e-07
      2.25741360e-07 -2.19120352e-07 -2.99991854e-07 -1.49120453e-07
      -3.33771588e-08 3.50809472e-07 1.02349145e-06 1.32578828e-06
      1.87345631e-06 1.89881177e-06 1.32320258e-06 6.47018510e-07
      4.36023385e-07 1.82282349e-07 -2.56684451e-08 -3.82572409e-08
      3.29459588e-08 -1.14047658e-07 -2.65126261e-07 -4.00879117e-07
      -2.36016618e-07 -3.33198757e-09 -9.89702755e-08 -6.19688251e-07
      -1.26670614e-06 -1.32152263e-06 -9.97697953e-07 -6.54920314e-07
      -4.57621603e-08 4.60521022e-07 5.04595221e-07 6.14614180e-07
      4.88626483e-07 -3.33534658e-08 -4.75936019e-07 -1.07976564e-06
      -1.53661404e-06 -1.26667294e-06 -6.44406725e-07 -7.63595438e-07
      -7.69857877e-07 -4.28967439e-07 -2.44610902e-07 -2.82637387e-07
      -1.54066925e-07 2.69903317e-08 -1.44628999e-07 1.31193523e-09
      3.41876415e-07 2.60907740e-07 -5.42865699e-08 -1.43421516e-07
      1.52774675e-07 -1.67358820e-07 -4.53399394e-07 -3.94768932e-07
      -1.43205227e-07 3.72032474e-07 1.07027552e-06 1.34263769e-06
      8.27862891e-07 9.82016559e-07 8.05438560e-07 3.70457826e-07
      2.98865217e-07 -6.14957418e-09 -2.28141531e-07 -1.97703159e-07
      -3.70518265e-08 -3.75426978e-08 -1.84042392e-07 -1.49144569e-07
      2.21102141e-08 1.50765842e-07 -2.07097145e-07 -7.64495383e-07
      -1.12680618e-06 -1.11247107e-06 -8.69328971e-07 -8.19272032e-07
      -7.77515993e-07 -4.85828082e-07 -2.86907721e-07 1.48410294e-07
      4.09202556e-07 3.43945089e-07 2.48273267e-07 -2.22925607e-07
      -7.30422528e-07 -7.74138812e-07 -3.25163086e-07 -6.43895419e-07
      -9.86875193e-07 -9.08352831e-07 -9.56910071e-07 -1.11346401e-06
      -9.52899541e-07 -4.15935375e-07 -2.10423266e-07 -1.66456388e-07
      2.59434927e-07 4.06004460e-07 1.62576754e-07 -1.42037081e-07
      -9.81659625e-08 -2.85269948e-07 -6.37991491e-07 -4.81710970e-07
      -1.35487298e-07 2.72803021e-07 8.13284487e-07 1.11759277e-06
      6.69914542e-08 1.62427014e-07 3.23656678e-07 1.61042564e-07
      2.05629647e-07 -1.38048346e-08 -3.60238317e-07 -4.77336926e-07
      -3.74925690e-07 -2.29101047e-07 -2.41967314e-07 2.08293542e-08
      2.65901633e-07 2.53280120e-07 -2.15652900e-08 -6.81255699e-07
      -7.38912604e-07 -5.07906464e-07 -3.50884108e-07 -3.21900757e-07
      -5.30813054e-07 -6.95707740e-07 -7.33334389e-07 -5.05742776e-07
      -4.70732822e-08 2.73778682e-07 5.61857064e-07 7.68479964e-08
      -2.59096254e-07 -3.03982887e-07 7.57078169e-08 -9.77152013e-08
      -5.10049233e-07 -5.26268593e-07 -8.96245524e-07 -1.44875355e-06
      -1.60580441e-06 -1.14205704e-06 -6.10234281e-07 -3.69536622e-07
      8.36048528e-08 4.16824946e-07 1.26587466e-07 -2.35023077e-08
      -9.52301704e-08 -3.83647091e-07 -7.50699883e-07 -5.86661315e-07
      -1.85722854e-07 1.43422696e-07 5.48347828e-07 8.32033152e-07
      -1.65596532e-07 -2.93130626e-07 4.05604936e-08 1.10412714e-07
      1.67962185e-07 4.30864731e-08 -3.59486592e-07 -4.46661488e-07
      -5.89432489e-07 -4.92689935e-07 -3.61818138e-07 9.74906378e-09
      2.09481854e-07 -5.69734091e-08 -2.04557296e-07 -3.54700063e-07
      -2.14135866e-07 1.61679637e-07 4.41435901e-07 4.79311097e-07
      2.31861378e-07 -2.43981475e-07 -6.68932728e-07 -6.55865279e-07
      -3.56559127e-07 -4.28277147e-08 3.48923464e-07 -4.01911855e-08
      -4.00406549e-07 -6.05653781e-07 -4.02218092e-07 -5.17863214e-07
      -8.98651876e-07 -7.16236912e-07 -8.49167520e-07 -1.62174899e-06
      -2.06093341e-06 -1.92192238e-06 -1.37014899e-06 -8.39332927e-07
      -2.49619546e-07 1.74149918e-07 -1.03145034e-07 -7.93439057e-08
      -5.04227664e-08 -2.72552228e-07 -6.27709028e-07 -5.41912527e-07
      -1.53226864e-07 2.50023966e-08 2.77784437e-07 5.27153190e-07
      -2.43557619e-08 -1.65096949e-07 -1.11234513e-07 6.53288765e-08
      1.46867905e-07 1.26253099e-07 4.60159484e-08 -6.66401689e-08
      -5.16273815e-07 -6.71946225e-07 -4.74981505e-07 -1.19025493e-07
      2.20683702e-08 -2.27483227e-07 -3.58262298e-07 -2.59116177e-07
      1.73059391e-07 7.50810102e-07 1.25920144e-06 1.41181704e-06
      1.04803928e-06 4.15628193e-07 -6.11887856e-08 -4.19874453e-07
      -3.64170631e-07 -2.41396975e-07 6.38850324e-08 -3.38608146e-08
      -2.67892887e-07 -7.47831621e-07 -1.10570352e-06 -1.30179876e-06
      -1.78761070e-06 -1.67358576e-06 -1.61134517e-06 -2.05891024e-06
      -2.31403305e-06 -2.24059113e-06 -1.76514448e-06 -1.25442637e-06
      -6.66301105e-07 -2.44166529e-07 -5.08658957e-07 -2.42799899e-07
      -4.04734308e-08 -2.44169968e-07 -6.00411738e-07 -4.21222211e-07
      9.92723681e-09 1.39411327e-07 1.37463942e-07 2.56489500e-07
      1.43332755e-07 1.43377633e-07 4.30792824e-08 -1.03129132e-07
      -9.21418586e-09 1.69821945e-07 4.41555983e-07 3.80584709e-07
      -1.17048728e-07 -5.97483165e-07 -4.52546203e-07 -2.50940587e-07
      -2.42873142e-07 -3.39735180e-07 -5.61879119e-07 -4.72706063e-07
      1.21801278e-07 8.76903812e-07 1.44685328e-06 1.63831282e-06
      1.41314104e-06 9.30398244e-07 4.68838891e-07 1.92407441e-07
      2.04918067e-07 1.17769197e-07 1.92787837e-07 1.38665840e-07
      -8.96790198e-08 -3.71335659e-07 -7.96134316e-07 -1.47341245e-06
      -2.43176828e-06 -2.49840946e-06 -2.29496163e-06 -2.36649657e-06
      -2.33195647e-06 -2.03977697e-06 -1.51630911e-06 -1.17002162e-06
      -7.14739656e-07 -5.41882685e-07 -8.33628860e-07 -4.33973355e-07
      -5.19306944e-08 -2.42893918e-07 -5.45903958e-07 -3.62663457e-07
      2.84702715e-08 2.04955612e-07 1.45120396e-07 1.33137007e-07
      4.21628421e-08 1.48323934e-07 4.72501220e-08 -2.25167554e-07
      -2.09430340e-07 4.68901256e-08 5.60610260e-07 5.27761188e-07
      1.30169340e-07 -2.96411031e-07 -3.38590269e-07 -3.84119630e-07
      -1.89207285e-07 -7.81837741e-08 -3.95964122e-07 -8.22866127e-07
      -2.05873860e-07 5.25417022e-07 1.02285685e-06 1.22630865e-06
      1.11772772e-06 8.30340582e-07 6.84810686e-07 6.84294491e-07
      6.18293939e-07 3.46286555e-07 3.57127249e-07 5.45752300e-07
      2.76327171e-07 5.90707323e-08 -1.46370127e-07 -7.12778728e-07
      -1.78796324e-06 -2.77965796e-06 -2.79715255e-06 -2.68187864e-06
      -2.30120168e-06 -1.68001236e-06 -8.37794460e-07 -2.94661248e-07
      -4.26868496e-08 -1.40644630e-07 -4.55168049e-07 -4.43686417e-07
      -1.04016806e-07 -2.08295674e-07 -4.51421243e-07 -3.19582085e-07
      6.27636112e-08 1.19425579e-07 5.15645873e-08 5.72186636e-08
      -1.47563298e-07 2.41366145e-08 -1.31362485e-08 -1.52399750e-07
      -1.69164252e-07 3.06943733e-08 5.86690533e-07 7.25006998e-07
      1.57272623e-07 -2.86692426e-07 -3.39158760e-07 -4.68093958e-07
      -1.26478952e-07 4.58631632e-07 3.85133234e-07 -3.25376419e-07
      -3.72427195e-07 1.83543548e-07 5.25356199e-07 4.07357078e-07
      3.88768399e-07 -1.26855113e-08 -1.71861856e-07 -9.03452602e-08
      1.72655390e-07 -6.12079916e-08 -4.05279144e-09 6.79707796e-07
      8.18430408e-07 5.45873036e-07 2.56307487e-07 -6.71541187e-08
      -7.87684201e-07 -1.72983403e-06 -2.06785921e-06 -2.29536158e-06
      -2.10603025e-06 -1.40864677e-06 -3.05221704e-07 4.59585749e-07
      5.33388913e-07 4.71354497e-07 1.74682000e-07 -6.90807056e-08
      1.69907768e-08 -8.77552679e-08 -3.46818666e-07 -3.25646397e-07
      -9.13447806e-08 -4.08081533e-08 -2.89215567e-08 -5.25689643e-08
      -2.02210970e-07 -1.08586875e-07 -1.44661598e-07 -3.88737043e-08
      -3.74854388e-08 1.27300723e-07 7.30400814e-07 1.01623004e-06
      4.49301353e-07 -2.88254700e-08 -2.40932224e-07 -3.17115081e-07
      -2.92815514e-07 2.83884560e-07 5.61276863e-07 5.46017304e-07
      8.52194376e-07 7.87126169e-07 2.41625145e-07 -4.02356420e-07
      -7.45698571e-07 -7.63138473e-07 -7.47793081e-07 -6.83868848e-07
      -6.12252734e-07 -7.31133582e-07 -4.18714365e-07 1.54857162e-07
      5.82304608e-07 8.92785124e-07 5.09759900e-07 1.70734623e-07
      -1.85647806e-07 -6.94233506e-07 -4.09102029e-07 -3.71318777e-07
      -4.49046695e-07 -2.67055157e-07 4.18137972e-07 9.94163088e-07
      9.70359224e-07 6.81483073e-07 1.91099119e-07 1.17451169e-08
      -3.61741073e-08 -4.53113067e-08 -1.97434204e-07 -2.88783042e-07
      -1.93867322e-07 -2.00172508e-07 -9.80433583e-08 6.92365205e-08
      -3.84041130e-07 -3.19655726e-07 -1.95952978e-07 -2.56859245e-08
      -1.93477128e-08 7.54390257e-08 6.74547891e-07 1.04644027e-06
      8.09741152e-07 5.37759263e-07 1.43442207e-07 1.02507762e-08
      -8.41056007e-08 4.78297189e-08 1.41460262e-07 -5.21551939e-08
      9.92564651e-07 1.87284184e-06 1.30355363e-06 2.50930343e-09
      -7.48272782e-07 -1.06391474e-06 -6.91541629e-07 -5.29247359e-07
      -9.41281940e-07 -1.27795158e-06 -1.02231297e-06 -8.21082097e-07
      -6.34832247e-07 2.00015521e-07 3.61048166e-07 2.87383614e-07
      1.63074475e-07 -5.96938776e-07 3.13622479e-08 7.60580974e-07
      9.46043542e-07 8.94842799e-07 1.14798036e-06 1.39875351e-06
      1.11684199e-06 7.52525182e-07 5.46567378e-08 -2.89529680e-07
      -3.40958906e-07 -2.71724872e-07 -1.40025620e-07 -1.24603432e-07
      -8.12226091e-08 -1.40560104e-07 3.08349755e-08 2.16072422e-07
      -2.97160824e-07 -3.10342102e-07 -1.17757757e-07 6.76984939e-08
      9.41747018e-08 7.46610684e-09 2.55881645e-07 7.73371141e-07
      8.05581067e-07 8.07849005e-07 6.62602361e-07 5.71558814e-07
      4.78849699e-07 2.66832700e-07 7.57013012e-08 1.86801572e-07
      6.33732839e-07 1.31773527e-06 1.32037485e-06 4.07172706e-07
      -2.67655224e-07 -6.25264647e-07 -6.91442835e-07 -7.63051048e-07
      -1.10409178e-06 -1.55059342e-06 -1.60987190e-06 -1.93794153e-06
      -1.83838813e-06 -8.19630941e-07 -3.13503790e-07 -8.43099812e-08
      1.81174329e-07 -6.31154251e-07 -5.24629513e-07 2.87297752e-07
      5.98375664e-07 7.26506073e-07 7.63953608e-07 1.06215805e-06
      7.47145350e-07 2.53104531e-07 -3.68506875e-07 -5.89939418e-07
      -4.94477206e-07 -4.20043079e-07 -2.60972485e-07 -1.80260614e-07
      -3.64984594e-08 -4.04234974e-08 1.40056201e-07 3.42243908e-07
      -2.76810283e-07 -3.92442871e-07 -1.59432702e-07 2.37882617e-07
      3.94487074e-07 1.69971642e-07 3.94249646e-08 3.03844644e-07
      2.14936421e-07 6.71378359e-07 1.10024212e-06 1.12376779e-06
      8.24196434e-07 2.91214519e-07 -5.44866596e-09 3.89710010e-07
      6.18560534e-07 7.36078334e-07 5.38128006e-07 2.61780258e-07
      1.48537538e-07 -3.76701337e-07 -7.77530943e-07 -1.25202655e-06
      -1.67410155e-06 -1.71974204e-06 -1.91296135e-06 -2.43425848e-06
      -2.30721389e-06 -1.28538011e-06 -6.54503594e-07 -7.08520872e-07
      -4.69016129e-07 -8.30307158e-07 -9.68090603e-07 -1.13051563e-07
      7.88178198e-08 2.06440589e-07 1.41861491e-07 3.63840428e-07
      2.95517282e-07 1.10871810e-08 -3.63932429e-07 -4.51765231e-07
      -2.70490801e-07 -1.62790599e-07 -2.65602629e-09 -4.35007834e-08
      4.20032968e-08 1.98652927e-07 3.27936561e-07 3.10343609e-07
      -9.24881789e-08 -3.59190238e-07 -2.79829550e-07 1.92500735e-07
      5.04777290e-07 4.78273989e-07 3.95654382e-07 4.20949902e-07
      7.44425819e-08 4.88878470e-07 1.05669449e-06 1.31477918e-06
      1.00761588e-06 2.21013536e-07 -3.01640995e-07 8.36029415e-08
      5.25781218e-07 7.72647923e-07 8.98452242e-07 7.21944900e-07
      3.96007664e-07 -1.85423417e-07 -1.00428906e-06 -1.51430743e-06
      -1.71370323e-06 -1.82031977e-06 -1.94707422e-06 -2.21937921e-06
      -2.09224072e-06 -1.39270048e-06 -8.82158758e-07 -1.04804838e-06
      -5.21566562e-07 -2.08881914e-07 -7.03756541e-07 -3.15223474e-07
      -3.52940134e-07 -1.98859922e-07 -3.00632443e-08 3.71541688e-07
      4.39349179e-07 1.89293289e-07 -1.16660146e-07 -2.52932210e-07
      8.73199042e-08 2.68338908e-07 4.06210461e-07 3.45285201e-07
      6.04224567e-07 8.74245302e-07 7.52651829e-07 4.95356176e-07
      4.44879134e-07 -6.77275054e-08 -2.92453670e-08 3.02060357e-07
      6.24544441e-07 6.81871370e-07 8.29168300e-07 9.28790485e-07
      6.56811267e-07 7.18906676e-07 1.09207008e-06 1.34199843e-06
      1.09732525e-06 2.02540718e-07 -5.63877109e-07 -7.45950672e-07
      -4.74641411e-07 2.46698182e-08 7.25756308e-07 1.00501143e-06
      6.92186745e-07 1.14570220e-07 -5.61082345e-07 -1.16532601e-06
      -1.50015615e-06 -1.55163366e-06 -1.57543775e-06 -1.52907046e-06
      -1.39151859e-06 -1.21858830e-06 -9.45146496e-07 -7.17933005e-07
      -2.38646152e-07 1.89198701e-07 -1.46665599e-07 -4.90768116e-07
      -6.75275885e-07 -4.30783587e-07 1.38049941e-07 7.30302702e-07
      7.41838448e-07 2.44860757e-07 -4.26692850e-08 -1.86196218e-07
      2.67735402e-07 4.56468626e-07 3.99880633e-07 5.12176030e-07
      8.82984580e-07 1.29351531e-06 1.41796579e-06 1.30673527e-06
      1.17927061e-06 1.07339872e-06 9.21624462e-07 9.83640348e-07
      1.24083533e-06 1.19849460e-06 1.30530259e-06 1.48497315e-06
      1.43326088e-06 1.31633556e-06 1.43038881e-06 1.79941344e-06
      1.64078006e-06 7.30002398e-07 -4.65264264e-07 -1.18919468e-06
      -1.38782639e-06 -1.09324549e-06 -1.84640484e-07 6.79925336e-07
      8.93060701e-07 5.32705826e-07 9.71112186e-08 -4.38539587e-07
      -8.81453786e-07 -1.08850986e-06 -1.21800372e-06 -7.03270928e-07
      -6.06404399e-07 -7.18233991e-07 -6.63449441e-07 -1.31090431e-07
      1.93203846e-07 3.50134087e-07 -4.68293706e-08 -4.17619333e-07
      -6.74643616e-07 -4.27586002e-07 1.83215832e-07 1.01413877e-06
      1.14540615e-06 7.20646312e-07 2.14765777e-07 -2.29325806e-07
      -1.52511035e-08 3.10922559e-07 2.47704776e-07 -9.21997980e-08
      3.29293897e-07 9.32417549e-07 1.36079336e-06 1.58930050e-06
      1.47652395e-06 1.65747326e-06 1.75106663e-06 1.89271179e-06
      2.14032775e-06 1.96157089e-06 1.66129973e-06 1.71385136e-06
      1.75091247e-06 1.63172626e-06 1.53080964e-06 1.71861177e-06
      1.68119709e-06 1.10281121e-06 1.05394662e-07 -8.12982250e-07
      -1.26473617e-06 -1.71476756e-06 -1.26906775e-06 -1.36355212e-07
      5.20455103e-07 6.88070088e-07 5.20162359e-07 3.66701215e-07
      -1.14697464e-07 -5.24065854e-07 -6.89326328e-07 -2.59696236e-07
      2.03839292e-07 1.86588295e-07 1.02316633e-07 3.84067022e-07
      5.00310932e-07 4.19009922e-07 1.11517281e-07 -1.80631545e-07
      -5.42709813e-07 -5.64470668e-07 -1.27363791e-07 5.49999584e-07
      9.76370984e-07 8.35117987e-07 3.68939766e-07 -2.63846374e-07
      -2.85603562e-07 -1.46495765e-07 4.54756837e-08 -4.50483327e-07
      -3.09713897e-07 2.52346581e-07 7.80986738e-07 1.00867805e-06
      1.18336948e-06 1.46662171e-06 1.82089832e-06 2.20817265e-06
      2.62496064e-06 2.68136023e-06 2.32610614e-06 2.06312757e-06
      1.97331997e-06 1.71787508e-06 1.41445844e-06 1.00951934e-06
      6.92445269e-07 3.65174742e-07 1.66158483e-08 -3.36035924e-07
      -6.94498738e-07 -1.20362165e-06 -1.23587017e-06 -4.79555240e-07
      1.89033159e-07 2.57104119e-07 3.86829640e-07 6.80699145e-07
      5.05690934e-07 9.87205269e-08 -1.07581734e-07 2.22378318e-07
      4.75019732e-07 7.65257994e-07 8.85598354e-07 9.73532337e-07
      7.82816073e-07 5.93753100e-07 4.68773891e-07 1.45995870e-07
      -4.87695957e-07 -1.00681780e-06 -1.03913931e-06 -4.75536183e-07
      2.03759782e-07 5.00107490e-07 3.14933743e-07 -1.38423360e-07
      -2.35454266e-07 -1.85303449e-07 1.30656531e-07 -1.94979592e-07
      -2.98248807e-07 3.70306168e-08 3.08097810e-07 4.56730561e-07
      6.24018298e-07 9.22416007e-07 1.52084374e-06 2.12746522e-06
      2.50389940e-06 2.67407313e-06 2.62531148e-06 2.18964328e-06
      1.89658090e-06 1.64647520e-06 1.43104057e-06 7.06593084e-07
      -4.22266240e-08 -4.45817562e-07 -4.56767339e-07 -2.20238931e-07
      6.71786182e-09 -1.99129659e-07 -7.51005871e-07 -6.55454983e-07
      6.06381221e-08 1.13561555e-07 2.11903895e-07 5.65683820e-07
      6.31048351e-07 5.08486494e-07 4.36354583e-07 6.24471170e-07
      8.21376773e-07 7.39206087e-07 5.83031124e-07 7.92223375e-07
      9.22891104e-07 7.80239930e-07 9.30159501e-07 7.71434657e-07
      1.07553795e-07 -8.74133150e-07 -1.44252999e-06 -1.36128142e-06
      -7.28106443e-07 -4.17785515e-07 8.31646929e-08 2.24983125e-08
      -2.56291088e-07 -2.51452320e-07 1.70769624e-07 -1.64235701e-08
      -2.89079622e-07 -1.05726112e-08 2.04452746e-07 6.94926214e-08
      1.19161271e-07 4.97018902e-07 1.10859139e-06 1.64336234e-06
      1.87653495e-06 2.12615305e-06 2.35001517e-06 2.05147330e-06
      1.65970584e-06 1.16359081e-06 8.87564227e-07 4.41007217e-07
      -2.46655077e-07 -5.02988144e-07 -5.62142930e-07 -2.06294857e-08
      5.73414468e-07 5.62212051e-07 -2.85055904e-07 -7.19622903e-07
      -2.29173637e-07 1.85199028e-07 4.71504222e-07 6.95008737e-07
      6.41337920e-07 8.60187242e-07 9.91930733e-07 1.11805218e-06
      1.42410101e-06 1.05669585e-06 6.12834754e-07 7.50838694e-07
      1.01198111e-06 8.70403710e-07 7.53961444e-07 8.60047010e-07
      6.87899899e-07 1.19293404e-07 -5.88782143e-07 -1.14600266e-06
      -1.00067302e-06 -9.78445655e-07 -5.51826645e-07 -2.15885123e-07
      -2.66476974e-07 -3.40234777e-07 -6.18321678e-08 -4.03784922e-10
      -4.09475831e-07 -2.82304427e-07 1.37174197e-07 -3.76279985e-08
      4.63016391e-07 6.99242946e-07 1.19483514e-06 1.49859613e-06
      1.41904604e-06 1.60082448e-06 1.82890244e-06 1.54283009e-06
      1.01866340e-06 5.78178117e-07 1.56353295e-07 -1.23049105e-07
      -3.93903719e-07 -4.29219568e-07 -8.48740953e-08 3.83062257e-07
      6.88853731e-07 6.35063884e-07 3.91513822e-07 6.86487578e-09
      2.29422653e-07 7.39852055e-07 1.22451911e-06 1.67849021e-06
      2.11542147e-06 2.15849013e-06 2.08436381e-06 1.91632466e-06
      1.73395358e-06 1.34703293e-06 9.92216087e-07 1.15031662e-06
      9.85162387e-07 8.07958770e-07 6.67991742e-07 7.91853893e-07
      9.41069800e-07 7.33296361e-07 2.56903519e-07 -1.96065670e-07
      -2.42169250e-07 -7.96994897e-08 -5.96184009e-08 -2.62101054e-07
      -3.94839475e-07 -4.20732050e-07 -1.28893618e-07 7.80071616e-08
      4.08002165e-08 2.09672990e-07 5.23641972e-07 3.68758634e-07
      2.27561009e-06 2.24944074e-06 2.21166761e-06 1.95618281e-06
      1.49746359e-06 1.49225127e-06 1.45046863e-06 1.27798512e-06
      1.28009617e-06 1.12480620e-06 6.48411003e-07 2.10519403e-07
      -2.55164792e-07 -1.83803039e-07 6.00202952e-07 8.55472592e-07
      7.23006849e-07 3.37700214e-07 5.88311138e-07 6.03471676e-07
      6.98070835e-07 7.99638826e-07 1.33691969e-06 2.49817185e-06
      3.03980073e-06 3.30121702e-06 3.27067801e-06 3.44355249e-06
      3.23461109e-06 2.52862515e-06 2.13375711e-06 1.88453191e-06
      1.31438787e-06 7.09798769e-07 6.33948048e-07 7.59663067e-07
      1.00055331e-06 1.12144096e-06 1.10109625e-06 7.00762257e-07
      6.62716729e-07 1.05505183e-06 1.05197569e-06 7.59399484e-07
      5.10166274e-07 2.66933018e-08 1.54402500e-07 4.83477720e-07
      5.02377532e-07 5.18577053e-07 6.76808440e-07 9.25033930e-07
      3.85124531e-06 3.62986566e-06 3.28486385e-06 2.55503164e-06
      1.90025446e-06 1.71719228e-06 1.12467524e-06 8.85536053e-07
      1.29353077e-06 1.61769424e-06 1.36145525e-06 7.96365100e-07
      1.58280329e-07 -2.34472935e-07 4.25741121e-07 1.24762380e-06
      1.17797083e-06 7.62740569e-07 8.83629639e-07 1.31987315e-06
      1.34096081e-06 1.09899645e-06 1.58222815e-06 2.53536837e-06
      3.13527084e-06 3.30183866e-06 3.31560909e-06 3.45813896e-06
      3.76064509e-06 3.81392192e-06 3.40634915e-06 2.95161453e-06
      2.16640319e-06 1.26392752e-06 7.60676983e-07 7.56594090e-07
      8.74298507e-07 1.22216102e-06 1.13595786e-06 7.04507954e-07
      7.38481447e-07 1.43983289e-06 1.90414403e-06 1.99529131e-06
      1.99684382e-06 1.51118866e-06 1.08168081e-06 1.02916499e-06
      8.36576532e-07 6.05657419e-07 5.25141218e-07 5.59986631e-07
      4.40877329e-06 4.14405577e-06 3.67321968e-06 3.01332398e-06
      2.30899559e-06 1.97438612e-06 1.09911241e-06 7.21291485e-07
      1.12330088e-06 1.42014824e-06 1.44481339e-06 1.11680026e-06
      5.17590877e-07 -3.44969884e-08 -2.06886153e-08 8.80577261e-07
      1.42750423e-06 1.44611909e-06 1.63931475e-06 1.61683840e-06
      1.46632567e-06 1.26683210e-06 1.78453615e-06 2.35130324e-06
      2.43527688e-06 2.72158309e-06 2.60684692e-06 2.59923149e-06
      2.84594648e-06 3.43232568e-06 3.67639018e-06 3.43108900e-06
      2.83714644e-06 1.93859864e-06 1.47077890e-06 1.40957911e-06
      1.42658280e-06 2.00125237e-06 1.88053298e-06 1.05529648e-06
      6.21637639e-07 1.18789706e-06 1.86044269e-06 2.69860675e-06
      3.21098878e-06 2.94534152e-06 2.24385144e-06 1.94199242e-06
      1.68215070e-06 1.12606290e-06 7.61539866e-07 4.91267201e-07
      3.61901289e-06 3.74229307e-06 3.36509015e-06 2.94325423e-06
      2.45691149e-06 1.93731807e-06 1.19241372e-06 7.29076476e-07
      1.10933968e-06 1.26544592e-06 1.05009565e-06 1.09575080e-06
      9.44852218e-07 4.04188455e-07 2.15728903e-07 7.42921031e-07
      1.37899269e-06 1.62785534e-06 1.88789568e-06 1.74069021e-06
      1.26132124e-06 1.10114252e-06 1.63970913e-06 1.89713751e-06
      2.07252447e-06 2.30467253e-06 2.17967636e-06 1.73551018e-06
      1.58009652e-06 2.19778212e-06 2.93151879e-06 3.22733422e-06
      3.15454326e-06 2.90443768e-06 2.77226741e-06 2.36986489e-06
      2.29932630e-06 2.78750213e-06 3.09800430e-06 2.30796877e-06
      1.57793943e-06 1.36661174e-06 1.82836072e-06 2.84320026e-06
      3.27907446e-06 3.33131175e-06 2.97383622e-06 2.82661631e-06
      2.54993006e-06 1.85282431e-06 1.25594693e-06 1.03321850e-06
      2.12126588e-06 2.37139147e-06 2.35999505e-06 2.23632583e-06
      2.04364824e-06 1.39776762e-06 8.00756936e-07 4.53177393e-07
      1.07147730e-06 1.31483500e-06 1.03731691e-06 9.57577299e-07
      1.17355683e-06 9.11951417e-07 6.80645087e-07 8.93909828e-07
      1.33235005e-06 1.78725440e-06 2.18239848e-06 1.88154058e-06
      1.38107157e-06 1.44007197e-06 1.46084312e-06 1.45125193e-06
      1.74208151e-06 2.19340882e-06 2.27130045e-06 1.47377546e-06
      1.04949675e-06 1.40370241e-06 2.03574314e-06 2.95215546e-06
      3.32605532e-06 3.29590216e-06 3.55818656e-06 3.36520998e-06
      3.04586024e-06 3.41808573e-06 3.87742421e-06 3.35697951e-06
      2.36507526e-06 1.98096154e-06 2.09453106e-06 2.64120558e-06
      3.03148931e-06 3.22686310e-06 3.28336546e-06 3.38562700e-06
      3.21917719e-06 2.74525905e-06 2.33636956e-06 1.97059512e-06
      5.62169760e-07 1.00077841e-06 1.52410962e-06 1.87997443e-06
      1.89669368e-06 1.42908516e-06 8.92190201e-07 4.16675078e-07
      7.52409505e-07 1.15796206e-06 7.13387806e-07 6.86864439e-07
      8.49869537e-07 8.85448230e-07 9.49608932e-07 9.20269486e-07
      1.05070148e-06 1.12318014e-06 1.56753993e-06 1.61317985e-06
      1.38290682e-06 1.49613436e-06 1.42798729e-06 1.28034048e-06
      1.57458203e-06 1.99608030e-06 2.03114109e-06 1.47839171e-06
      7.77381160e-07 7.06879916e-07 1.40697171e-06 2.43165687e-06
      2.83188365e-06 2.79509027e-06 3.27384305e-06 3.66319864e-06
      3.49321317e-06 3.69265354e-06 4.16289367e-06 3.88466378e-06
      2.97570773e-06 2.17815659e-06 2.10529811e-06 2.18911487e-06
      2.66699340e-06 3.11250642e-06 3.51042740e-06 3.87636192e-06
      3.72420504e-06 3.56110149e-06 3.32674040e-06 2.97642555e-06
      -2.96419188e-07 4.32915925e-07 1.40375130e-06 2.22799258e-06
      2.41377302e-06 2.03833997e-06 1.56529120e-06 1.21279538e-06
      1.42993667e-06 1.58915088e-06 1.12317707e-06 7.58678254e-07
      5.23517770e-07 6.19364698e-07 9.57823886e-07 1.17730906e-06
      1.18807793e-06 9.96788117e-07 9.01565215e-07 1.05170272e-06
      1.31009529e-06 1.44734167e-06 1.51847166e-06 1.34579454e-06
      1.41752230e-06 1.81893267e-06 1.95793723e-06 1.66285463e-06
      1.01866954e-06 7.17466548e-07 9.75180683e-07 1.82433587e-06
      2.27480609e-06 2.18810374e-06 2.65190238e-06 3.27598991e-06
      3.42015028e-06 3.37336155e-06 3.54413760e-06 3.33985963e-06
      2.81237340e-06 2.32259754e-06 2.09257587e-06 1.83916916e-06
      2.04192088e-06 2.84859880e-06 3.57915042e-06 4.00863155e-06
      3.99087639e-06 4.10188795e-06 3.94360040e-06 3.67501889e-06
      -2.03539670e-07 5.30858642e-07 1.63680909e-06 2.62158323e-06
      2.96785652e-06 2.65985886e-06 2.28130557e-06 2.02851379e-06
      2.34018989e-06 2.40647955e-06 1.98021553e-06 1.39853375e-06
      8.79552886e-07 7.28687098e-07 1.14604234e-06 1.50152380e-06
      1.73055798e-06 1.54261647e-06 1.01863179e-06 9.25717984e-07
      1.10931444e-06 1.39538713e-06 1.66678717e-06 1.61533330e-06
      1.63453331e-06 1.92933931e-06 1.97063264e-06 1.64943503e-06
      1.21187782e-06 1.02977515e-06 1.03966431e-06 1.54248369e-06
      2.09656105e-06 2.14491911e-06 2.45166598e-06 2.81863572e-06
      3.17735567e-06 3.13292662e-06 3.17892386e-06 2.80107793e-06
      2.38971461e-06 1.90751871e-06 1.51609265e-06 1.30671401e-06
      1.70841599e-06 2.47425351e-06 3.38665836e-06 3.77868923e-06
      3.85130852e-06 4.09015320e-06 4.09014592e-06 4.00881618e-06
      6.32157196e-07 5.89143099e-07 3.89371650e-07 1.65231384e-07
      -2.25905303e-08 1.14932979e-08 4.47816092e-07 7.91165462e-07
      8.74388036e-07 9.05639638e-07 1.04813444e-06 6.87832028e-07
      3.53681770e-07 1.80667328e-07 -3.98841706e-08 6.26610941e-08
      1.08882034e-07 2.44484379e-08 -7.10998052e-08 -2.76050258e-07
      -3.27729367e-07 -1.26386595e-07 1.17115952e-08 1.43592587e-07
      2.33724393e-07 4.75153115e-07 4.82378880e-07 2.88085886e-07
      2.93931578e-07 4.65418196e-07 4.79714572e-07 2.64843607e-07
      -4.84075500e-08 -1.34218212e-07 -1.49136667e-08 1.86465641e-07
      4.80781978e-07 3.30706257e-07 1.66110581e-07 2.82138757e-07
      4.74898258e-07 4.60340658e-07 2.13358661e-07 1.44682971e-07
      9.18371441e-08 -2.08644309e-07 -3.19369832e-07 -1.71707804e-08
      1.37566232e-07 -5.33347553e-08 -2.06875669e-07 -2.40343667e-07
      6.80114283e-07 5.39397888e-07 2.35295445e-07 -3.97228845e-08
      -1.37019214e-07 -2.09628809e-07 9.83890214e-09 4.41436413e-07
      6.53672942e-07 5.17615945e-07 5.56390717e-07 6.63282322e-07
      1.83277578e-07 1.72253678e-07 4.46925590e-08 -1.11430765e-07
      7.14403612e-08 2.73732724e-07 3.20691299e-07 2.84907514e-07
      -5.07511047e-08 -1.40445593e-07 -1.09132774e-08 1.35661693e-07
      2.55436333e-07 3.17670697e-07 3.58157109e-07 4.19663309e-07
      3.52399439e-07 4.20617198e-07 5.26417296e-07 4.00187957e-07
      1.06041121e-07 -4.62553018e-08 -4.18565698e-08 1.35489387e-07
      4.52166574e-07 6.27419467e-07 4.07546082e-07 2.80737765e-07
      4.22873228e-07 6.82823895e-07 5.12953420e-07 3.02157133e-07
      2.56921879e-07 7.80742013e-08 -2.11379245e-07 3.05457029e-08
      2.75261897e-07 2.16077112e-07 -1.38617509e-07 -2.73201380e-07
      7.72858357e-07 5.27594182e-07 2.48524572e-07 -1.13364202e-07
      -2.60713620e-07 -2.62680828e-07 -2.27288197e-07 5.88539351e-09
      3.28972305e-07 2.88063092e-07 9.25553962e-08 2.41037498e-07
      1.44676505e-07 -4.48006325e-08 -1.04672782e-09 -2.09311608e-07
      -7.91216408e-08 3.25923168e-07 5.72361785e-07 6.46552394e-07
      5.62200455e-07 1.48292770e-07 -6.20694465e-08 5.80683270e-08
      1.76000512e-07 3.44063835e-07 2.35464185e-07 2.78446976e-07
      4.97417886e-07 4.93954701e-07 5.68838630e-07 5.12037445e-07
      4.15878475e-07 2.34938682e-07 1.73236913e-07 1.88721344e-07
      4.10279426e-07 7.09342373e-07 7.56087047e-07 4.27803627e-07
      3.02816886e-07 5.84444081e-07 6.62070022e-07 4.47413157e-07
      2.26800296e-07 1.36060322e-07 4.92637362e-08 4.25606999e-08
      4.78595325e-07 4.82950668e-07 1.75486960e-07 -3.01230557e-07
      7.68242217e-07 4.86097633e-07 1.86337758e-07 1.16221386e-07
      -1.23695514e-07 -2.40052714e-07 -1.45792711e-07 -3.08987396e-08
      1.17202198e-07 1.63345277e-07 6.68745859e-09 -1.31003929e-07
      4.30286100e-08 -5.23357002e-08 -1.58063685e-07 -1.93250429e-07
      -2.67366488e-07 1.40944593e-07 6.35521815e-07 8.76077763e-07
      9.66165544e-07 7.84356644e-07 2.62102134e-07 2.96813294e-08
      9.94859946e-08 2.20826138e-07 3.26010536e-07 1.80345594e-07
      4.09645963e-07 6.08220773e-07 5.76762716e-07 6.26459382e-07
      6.17495402e-07 5.23708934e-07 4.01451928e-07 3.76414079e-07
      4.70126935e-07 6.90575064e-07 8.79967445e-07 6.74648732e-07
      3.02174527e-07 2.49987522e-07 5.18398224e-07 4.93086304e-07
      1.01211214e-07 -1.11258210e-07 -6.20646290e-08 3.78781451e-08
      4.29246796e-07 7.30772456e-07 4.71990631e-07 1.07873284e-07
      7.60054832e-07 5.52836809e-07 1.67031544e-07 9.93803653e-08
      2.00871710e-07 5.89282010e-08 1.47780970e-08 4.51189628e-08
      7.79540912e-08 8.39900665e-08 2.82832353e-08 -1.70692161e-07
      -1.85744071e-07 -9.07517119e-08 -1.74750951e-07 -2.54337380e-07
      -3.16211384e-07 -2.17566310e-07 3.90774659e-07 8.52252754e-07
      1.10328494e-06 1.17943750e-06 8.47775993e-07 3.57551585e-07
      1.63361747e-07 1.71022748e-07 2.51375639e-07 3.08562051e-07
      2.69559479e-07 4.98194197e-07 6.50235393e-07 5.68415146e-07
      5.65467985e-07 6.83274152e-07 5.68894507e-07 4.28992308e-07
      4.64921982e-07 7.06116964e-07 8.68304994e-07 8.69336077e-07
      4.67796212e-07 1.18080521e-07 1.76223153e-07 3.65712253e-07
      5.93317147e-08 -4.31646498e-07 -5.24362520e-07 -1.97309674e-07
      2.50148958e-07 6.68085875e-07 7.25236589e-07 3.69626633e-07
      5.58862439e-07 6.87961574e-07 3.80753335e-07 4.42704504e-08
      1.81183808e-07 3.96050211e-07 3.65948011e-07 2.85355696e-07
      2.07004447e-07 1.09324986e-07 3.50118796e-08 -1.20944293e-07
      -1.52557092e-07 -1.60073512e-07 -1.31913296e-07 -2.27292588e-07
      -2.83795657e-07 -3.52387588e-07 -1.12797657e-07 5.00305816e-07
      9.26098494e-07 1.20779021e-06 1.14219199e-06 7.80536595e-07
      4.36025601e-07 2.24654798e-07 1.98659293e-07 1.62139528e-07
      2.14633616e-07 3.07097480e-07 5.02646458e-07 5.72647252e-07
      5.35360357e-07 5.98895213e-07 6.19196044e-07 5.47885179e-07
      3.88126750e-07 5.71942962e-07 8.15091710e-07 8.49361015e-07
      6.39461803e-07 2.79538312e-07 1.68760977e-07 2.28832945e-07
      4.41484076e-08 -4.02242193e-07 -7.70745487e-07 -6.06630977e-07
      6.05588610e-08 5.44135276e-07 7.96346285e-07 7.26400231e-07
      5.44690728e-08 6.89166143e-07 7.15197132e-07 4.50949727e-07
      1.57052312e-07 3.92288769e-07 6.96669531e-07 6.88039108e-07
      3.95428657e-07 2.46454874e-07 9.40970395e-08 -1.01441351e-07
      -7.91200065e-08 8.17478920e-08 -9.14836296e-09 -2.10473360e-07
      -2.63581114e-07 -2.58459721e-07 -2.76113468e-07 1.00059118e-07
      5.04642458e-07 8.29370435e-07 9.96238327e-07 9.29263422e-07
      5.93276297e-07 3.38956625e-07 1.33090992e-07 5.79913149e-08
      1.41742582e-08 1.35345473e-07 2.74950850e-07 3.31838038e-07
      3.98497264e-07 4.96266978e-07 4.93230516e-07 4.71093415e-07
      3.64209257e-07 2.72306522e-07 5.68809980e-07 7.34523610e-07
      6.92989545e-07 5.16736236e-07 4.20139799e-07 3.79038653e-07
      1.45439543e-07 -1.41892741e-07 -5.77263677e-07 -5.96313555e-07
      -1.79545239e-07 3.41369940e-07 7.88215686e-07 8.35989908e-07
      -2.95521005e-07 1.22168387e-07 6.34792968e-07 8.50316269e-07
      6.71049463e-07 5.34478033e-07 6.55544113e-07 8.85814700e-07
      6.42344958e-07 3.72957771e-07 2.10065849e-07 1.18603065e-08
      -1.53778865e-10 2.83045551e-07 3.68804194e-07 5.36401750e-08
      -2.45730007e-07 -3.03483006e-07 -1.75506926e-07 -8.96516106e-09
      2.64934300e-07 3.94318192e-07 6.39123130e-07 7.79843447e-07
      7.75043361e-07 4.84804957e-07 1.86744401e-07 -1.38967692e-07
      -1.74340030e-07 -1.33507186e-07 3.43449571e-08 1.45404158e-07
      1.55740423e-07 1.25489308e-07 2.41121853e-07 3.28224672e-07
      2.33059112e-07 1.65018449e-07 2.54821174e-07 5.14713122e-07
      6.44343118e-07 7.56514567e-07 6.52500773e-07 6.29481292e-07
      3.77351427e-07 1.05135214e-07 -2.43638226e-07 -5.22911932e-07
      -2.72891839e-07 1.93665656e-07 5.62149467e-07 7.95556616e-07
      4.74252779e-08 -4.36800818e-08 2.50787309e-07 7.45002353e-07
      9.50794856e-07 7.30708905e-07 8.25447671e-07 9.39299184e-07
      9.44779856e-07 5.79454934e-07 3.00582826e-07 1.19078820e-07
      1.13836535e-07 3.25970092e-07 5.18873605e-07 4.76263921e-07
      3.11974588e-08 -2.93211258e-07 -2.36627159e-07 -3.79931393e-08
      1.61363317e-07 2.69680157e-07 3.30685054e-07 5.56797602e-07
      6.77444632e-07 5.69339022e-07 3.41864592e-07 -7.58948815e-08
      -3.17489054e-07 -2.61296691e-07 -1.45073130e-07 5.11793772e-08
      1.85445202e-07 -4.53519142e-08 -2.04356667e-07 -3.61785624e-08
      1.25544858e-07 1.71455596e-07 3.00647770e-07 4.18492675e-07
      4.99272687e-07 5.76734863e-07 7.22207517e-07 6.64025777e-07
      3.83167816e-07 6.85583785e-08 -7.74432394e-08 -4.95095833e-07
      -6.11966811e-07 -1.29084498e-07 3.97804627e-07 6.93366587e-07
      2.17852005e-07 2.20973874e-07 7.43654454e-08 3.19254383e-07
      6.61572130e-07 6.81825099e-07 5.65968264e-07 9.28917245e-07
      1.00690431e-06 7.91795685e-07 5.97309622e-07 2.25732549e-07
