<?xml version="1.0"?>
<opencv_storage>
<my_svm type_id="opencv-ml-svm">
  <svm_type>C_SVC</svm_type>
  <kernel><type>LINEAR</type></kernel>
  <C>1.</C>
  <term_criteria><epsilon>2.2204460492503131e-16</epsilon>
    <iterations>1000000</iterations></term_criteria>
  <var_all>108160</var_all>
  <var_count>108160</var_count>
  <class_count>2</class_count>
  <class_labels type_id="opencv-matrix">
    <rows>1</rows>
    <cols>2</cols>
    <dt>i</dt>
    <data>
      0 1</data></class_labels>
  <sv_total>1</sv_total>
  <support_vectors>
    <_>
      3.18710408e-06 3.33321032e-06 3.75244417e-06 4.24016798e-06
      4.69836505e-06 5.03557567e-06 5.23579638e-06 5.39207622e-06
      5.72235604e-06 5.82691837e-06 5.82335588e-06 5.50089771e-06
      4.99920725e-06 4.31776380e-06 3.44542400e-06 2.34563845e-06
      1.26726491e-06 2.76752331e-07 -4.96900043e-07 -7.16559782e-07
      -5.98413919e-07 -2.80078837e-07 -1.99709724e-08 1.66581501e-07
      3.13807277e-07 4.04775733e-07 4.79574624e-07 5.52757626e-07
      6.83313203e-07 1.19588526e-06 2.08956908e-06 2.88293700e-06
      3.57258909e-06 4.06760500e-06 4.43647923e-06 4.72621196e-06
      4.60812544e-06 4.22866833e-06 3.69742406e-06 3.14298063e-06
      2.51562574e-06 2.02732440e-06 1.35937921e-06 6.99571217e-07
      2.53088132e-07 -2.94941771e-07 -8.33475724e-07 -1.20384959e-06
      -1.37938844e-06 -1.48101753e-06 -1.64262212e-06 -1.72890452e-06
      4.10210561e-07 4.20274205e-07 4.91855133e-07 5.95630922e-07
      7.32908916e-07 8.66055018e-07 9.86820964e-07 1.13230135e-06
      1.30359297e-06 1.52660994e-06 1.81331393e-06 2.14417446e-06
      2.52159907e-06 2.82364817e-06 2.86749946e-06 2.57512283e-06
      2.02348974e-06 1.29788646e-06 5.49254878e-07 -1.10080451e-08
      -2.92026442e-07 -2.88925037e-07 -1.37267165e-07 1.61954858e-08
      1.03009242e-07 6.52383818e-08 -2.51071199e-08 -1.02487789e-07
      -1.47604226e-07 -2.72550214e-08 2.81992129e-07 6.80935500e-07
      1.11295674e-06 1.46415789e-06 1.65654251e-06 1.61614139e-06
      1.37407881e-06 9.79189281e-07 6.59110640e-07 5.09435040e-07
      6.08142784e-07 8.65168602e-07 1.08578888e-06 1.09334110e-06
      8.78999799e-07 5.02739113e-07 9.72082788e-08 -2.83777297e-07
      -5.91937294e-07 -8.01498857e-07 -8.96384336e-07 -9.21484570e-07
      -2.48830111e-06 -2.54284419e-06 -2.65181598e-06 -2.79046321e-06
      -2.90601793e-06 -2.91681408e-06 -2.83868985e-06 -2.65071867e-06
      -2.39621841e-06 -2.06814184e-06 -1.61938124e-06 -1.05838581e-06
      -3.97850783e-07 3.07282107e-07 9.71901841e-07 1.48863580e-06
      1.80010113e-06 1.86071884e-06 1.59296371e-06 1.10209112e-06
      5.68463406e-07 2.24994693e-07 7.42334336e-08 5.16877847e-08
      3.77411347e-08 -3.24068665e-08 -1.86941520e-07 -4.48918371e-07
      -8.27034512e-07 -1.27314843e-06 -1.67531311e-06 -1.96634460e-06
      -2.06503819e-06 -1.77908373e-06 -1.53022097e-06 -1.39215388e-06
      -1.27262376e-06 -1.12217515e-06 -9.67322649e-07 -8.23273808e-07
      -6.86457952e-07 -6.31260093e-07 -7.97422445e-07 -1.15656428e-06
      -1.42418696e-06 -1.72498721e-06 -2.01512353e-06 -2.13832254e-06
      -2.05340302e-06 -1.87650539e-06 -1.69129544e-06 -1.63127072e-06
      -4.14786336e-06 -4.10587836e-06 -3.97734357e-06 -3.64319931e-06
      -3.05794765e-06 -2.25876920e-06 -1.36237111e-06 -4.18155651e-07
      4.29085190e-07 1.12801388e-06 1.67393489e-06 2.13432099e-06
      2.48822357e-06 2.73946193e-06 2.84882344e-06 2.81624625e-06
      2.64924461e-06 2.34408003e-06 1.92329594e-06 1.60030572e-06
      9.75729108e-07 2.28856422e-07 -3.86665505e-07 -7.03763533e-07
      -7.38586039e-07 -5.16662340e-07 -2.23523031e-07 -7.52311458e-09
      1.15483360e-07 1.04604659e-07 6.00341679e-08 1.81584653e-07
      4.41569455e-07 8.50157562e-07 1.33807850e-06 1.77702236e-06
      2.12180316e-06 2.42493888e-06 2.66083157e-06 2.83036366e-06
      2.78756102e-06 2.09986274e-06 1.17474383e-06 1.17379535e-07
      -1.01423086e-06 -1.96294127e-06 -2.61886498e-06 -2.84224257e-06
      -2.67725227e-06 -2.38356415e-06 -2.13766430e-06 -2.05586343e-06
      -3.03158095e-06 -2.94265055e-06 -2.65854442e-06 -2.10627763e-06
      -1.28903832e-06 -1.61128270e-07 1.21870096e-06 2.76354785e-06
      4.18378295e-06 5.30130319e-06 5.91796288e-06 5.91909566e-06
      5.50117011e-06 4.91909668e-06 4.31441231e-06 3.71240594e-06
      3.09820825e-06 2.48551441e-06 1.78853441e-06 1.03779246e-06
      2.03127811e-07 -5.58408374e-07 -1.03213790e-06 -1.19398396e-06
      -1.20361142e-06 -9.62990839e-07 -6.68246855e-07 -4.22442412e-07
      -1.94194570e-07 -2.82508310e-08 1.25720163e-07 5.22153243e-07
      9.97143047e-07 1.62462140e-06 2.32921434e-06 2.85562987e-06
      3.18967454e-06 3.47344871e-06 3.64901166e-06 3.58899410e-06
      3.18172988e-06 2.69680891e-06 2.22697258e-06 1.65341726e-06
      6.58232693e-07 -2.61208129e-07 -7.56054988e-07 -9.96298695e-07
      -9.19728222e-07 -7.09603682e-07 -5.39095026e-07 -4.64603602e-07
      -1.71060253e-06 -1.70430303e-06 -1.74269474e-06 -1.74676370e-06
      -1.63874392e-06 -1.24028850e-06 -4.54148307e-07 6.08269488e-07
      1.70847943e-06 2.72043894e-06 3.53854239e-06 4.03556396e-06
      4.10965094e-06 3.80231995e-06 3.32395780e-06 2.98851023e-06
      2.70386613e-06 2.26582551e-06 1.40303507e-06 4.41416631e-07
      -3.54242218e-07 -5.80841913e-07 -2.34511532e-07 5.56672774e-07
      1.24421899e-06 1.56200656e-06 1.64739185e-06 1.58829164e-06
      1.41654220e-06 1.19829213e-06 7.63130743e-07 1.30401787e-07
      -2.76518989e-07 -5.01141812e-08 2.81189330e-07 4.78915297e-07
      8.50893343e-07 1.23350696e-06 1.42887768e-06 1.60218553e-06
      1.74975321e-06 1.24627184e-06 5.80425080e-07 1.43664192e-08
      -5.15625914e-07 -6.11932876e-07 -3.39371041e-07 6.96029474e-08
      4.44916651e-07 7.17221667e-07 8.40859002e-07 8.68797031e-07
      -2.41586076e-06 -2.55506120e-06 -2.98410396e-06 -3.54489180e-06
      -3.55217094e-06 -2.76954006e-06 -1.67881501e-06 -6.04088314e-07
      2.92683154e-07 8.95090125e-07 1.15873581e-06 1.16905369e-06
      1.11982195e-06 1.26353495e-06 1.56456724e-06 1.80972233e-06
      1.82116310e-06 1.45702597e-06 6.75031686e-07 -3.54255320e-07
      -9.39201868e-07 -7.29932651e-07 -6.76510794e-08 4.31354664e-07
      7.56958173e-07 8.39026598e-07 8.02614409e-07 7.58060366e-07
      7.17927492e-07 6.54430039e-07 5.48238120e-07 3.81579326e-07
      1.60296494e-07 -6.18002929e-08 9.33624733e-09 1.81143534e-07
      4.95455367e-07 9.50208403e-07 1.36248423e-06 1.39876317e-06
      1.17225591e-06 7.82985751e-07 3.94884609e-07 1.45631446e-07
      5.29916662e-08 2.03191686e-08 -2.08977582e-08 -4.30416485e-08
      8.82796414e-08 3.23212220e-07 5.13162149e-07 5.93533343e-07
      -3.80199094e-06 -3.82364533e-06 -3.73639477e-06 -3.24165057e-06
      -2.34290383e-06 -1.45003139e-06 -7.97375492e-07 -5.30524630e-07
      -4.24657230e-07 -4.24787657e-07 -4.75627274e-07 -4.84186558e-07
      -3.18104981e-07 1.08790204e-07 7.47005231e-07 1.44610920e-06
      1.97203281e-06 2.03422701e-06 1.62664219e-06 1.01933665e-06
      7.71031694e-07 9.68282734e-07 9.33679416e-07 7.65712286e-07
      5.99818861e-07 3.75313050e-07 1.25949228e-07 -1.07466995e-07
      -4.37989229e-07 -5.87528348e-07 -5.32054173e-07 -2.09526490e-07
      4.54696817e-07 1.15421869e-06 1.65345091e-06 2.01445641e-06
      2.34915865e-06 3.04970763e-06 3.73646299e-06 3.90709101e-06
      3.80657798e-06 3.58218131e-06 3.40220117e-06 3.36521407e-06
      3.39917142e-06 3.23324025e-06 2.86166937e-06 2.41657540e-06
      2.11371935e-06 1.97954728e-06 1.97451550e-06 1.98562861e-06
      -2.62892968e-06 -2.66825759e-06 -2.69261477e-06 -2.58411387e-06
      -2.31875219e-06 -2.09541827e-06 -1.97453824e-06 -1.94933773e-06
      -1.82444080e-06 -1.66924235e-06 -1.46683840e-06 -1.23575091e-06
      -8.66130335e-07 -1.70888171e-07 7.54521636e-07 1.67601047e-06
      2.32041634e-06 2.65364542e-06 2.93712833e-06 3.11946087e-06
      3.01307750e-06 2.34671279e-06 1.44647606e-06 8.82999757e-07
      3.84277882e-07 -6.82244163e-08 -4.85555631e-07 -9.09354412e-07
      -1.35462676e-06 -1.68230849e-06 -1.74611273e-06 -1.36256756e-06
      -5.11615212e-07 3.29101567e-07 1.25048280e-06 2.14021566e-06
      2.89013519e-06 3.54563281e-06 4.03222657e-06 4.32975776e-06
      4.57693341e-06 4.79503160e-06 4.98608961e-06 5.03499177e-06
      4.53773646e-06 3.79873404e-06 2.97523093e-06 2.25875260e-06
      1.82776409e-06 1.49697280e-06 1.24613393e-06 1.13229760e-06
      -1.69316252e-06 -1.76304263e-06 -1.90858555e-06 -1.94998256e-06
      -1.51078802e-06 -8.84874169e-07 -3.74892039e-07 -2.03414132e-07
      -5.26843316e-08 1.93899254e-07 6.34042863e-07 1.20355742e-06
      1.55450209e-06 1.78773064e-06 1.97898817e-06 2.16311287e-06
      2.37551308e-06 2.37193467e-06 1.96862879e-06 1.47641185e-06
      1.19234267e-06 9.74811883e-07 6.61506249e-07 4.19231640e-07
      1.69711385e-07 -1.56024214e-07 -5.15071633e-07 -9.23492848e-07
      -1.32294076e-06 -1.61285709e-06 -1.75995285e-06 -1.72722014e-06
      -1.21762207e-06 5.56573987e-08 1.20835239e-06 2.15502132e-06
      2.69016414e-06 2.84726889e-06 2.89093441e-06 3.34440642e-06
      3.92718630e-06 3.87095679e-06 3.42648764e-06 2.85770511e-06
      2.30675687e-06 1.57321733e-06 8.01517785e-07 1.32288687e-08
      -5.33687739e-07 -7.83978635e-07 -8.58867622e-07 -8.91332832e-07
      -1.73037802e-06 -1.79704421e-06 -1.98345742e-06 -2.17140655e-06
      -2.23251891e-06 -2.15516093e-06 -1.83571694e-06 -1.18638002e-06
      -3.69191099e-07 5.39076950e-07 1.30224578e-06 1.80266113e-06
      1.98248426e-06 1.84861813e-06 1.52426935e-06 1.12800524e-06
      7.63752041e-07 6.56339921e-07 6.27552936e-07 3.26983354e-07
      -4.07617468e-10 -2.23093480e-07 -4.73484846e-07 -6.96740869e-07
      -8.34929608e-07 -9.08602772e-07 -9.24920585e-07 -9.84285407e-07
      -1.13025681e-06 -1.24713495e-06 -1.28808745e-06 -1.02792171e-06
      -4.02679433e-07 4.66052313e-07 1.16754006e-06 1.64125140e-06
      1.74666059e-06 1.50012636e-06 1.04851813e-06 8.98046835e-07
      1.14396869e-06 1.25715235e-06 1.13576027e-06 9.36406195e-07
      6.09195070e-07 1.43773420e-07 -2.14230226e-07 -5.79617335e-07
      -1.14943236e-06 -1.94807080e-06 -2.53406733e-06 -2.77035724e-06
      -1.93670735e-06 -1.90900982e-06 -1.80556924e-06 -1.74123818e-06
      -1.93071560e-06 -2.33507740e-06 -2.13763133e-06 -1.74495096e-06
      -1.12876228e-06 -2.95367073e-07 1.25205545e-07 3.47499451e-07
      4.54930671e-07 3.84913619e-07 1.95917295e-07 -6.94180713e-08
      -4.61545625e-07 -1.07219932e-06 -1.32325840e-06 -1.54671261e-06
      -1.92644779e-06 -2.23042207e-06 -2.33091123e-06 -2.41522753e-06
      -2.70639703e-06 -3.14389013e-06 -3.61659659e-06 -3.86033798e-06
      -3.86005331e-06 -3.65812639e-06 -3.18604361e-06 -2.67726273e-06
      -2.17862930e-06 -1.57507759e-06 -9.59655722e-07 -3.95967334e-07
      -9.30112343e-09 4.27255713e-07 9.47828937e-07 1.69553107e-06
      2.30727323e-06 2.34770459e-06 2.33318110e-06 2.26242264e-06
      2.01267676e-06 1.50218978e-06 6.67925462e-07 -4.59016690e-07
      -1.42177385e-06 -2.26345355e-06 -2.80696167e-06 -2.96715871e-06
      -2.44103285e-06 -2.31282729e-06 -1.76746596e-06 -1.36397500e-06
      -2.09753966e-06 -2.68176586e-06 -2.83073473e-06 -2.56804947e-06
      -1.97014197e-06 -1.37063091e-06 -9.23432424e-07 -6.81138090e-07
      -5.61375771e-07 -5.36164748e-07 -3.90769372e-07 -1.88689654e-07
      -1.72578154e-07 -4.49431354e-07 -8.06936157e-07 -1.11799159e-06
      -1.60838749e-06 -2.30649425e-06 -3.07439973e-06 -3.52710003e-06
      -3.70077350e-06 -3.76169646e-06 -3.76644130e-06 -3.78706886e-06
      -3.81959899e-06 -3.74139950e-06 -3.49152720e-06 -3.18458478e-06
      -2.72253328e-06 -1.92352991e-06 -7.63017169e-07 5.12053361e-07
      1.21465837e-06 1.67336998e-06 2.17844536e-06 2.67749556e-06
      2.81682446e-06 2.57266197e-06 1.99122178e-06 1.49324831e-06
      1.24296241e-06 1.13665567e-06 5.99456712e-07 -4.21444952e-07
      -1.62921845e-06 -2.84548310e-06 -3.57796739e-06 -3.78745699e-06
      -4.97024212e-06 -4.75451043e-06 -4.01151328e-06 -3.38480231e-06
      -2.75319780e-06 -2.85201372e-06 -2.89512195e-06 -2.08393635e-06
      -7.91525167e-07 3.71915490e-07 1.11999952e-06 1.38831365e-06
      1.28950035e-06 9.35765343e-07 5.62112518e-07 2.40048024e-07
      -3.64759423e-08 1.55289243e-07 3.67618128e-07 3.10417704e-07
      2.36155344e-07 2.00431060e-07 -2.19592764e-07 -5.00919782e-07
      -5.96417692e-07 -6.04505829e-07 -4.92474385e-07 -4.36400569e-07
      -4.37335757e-07 -4.09129399e-07 -5.75707304e-07 -7.30535589e-07
      -6.42196085e-07 -4.49420298e-07 -2.57265668e-07 8.26116491e-08
      6.03427452e-07 1.33518824e-06 1.86456145e-06 2.01997273e-06
      1.82192446e-06 1.48059041e-06 9.85966381e-07 3.30184150e-07
      -2.90425533e-07 -6.87315946e-07 -1.01589546e-06 -1.51920403e-06
      -2.30001046e-06 -3.48997537e-06 -4.33022205e-06 -4.61511536e-06
      -5.05430990e-06 -4.90237380e-06 -4.50793368e-06 -4.00607132e-06
      -3.30667922e-06 -2.44976582e-06 -1.53948770e-06 -9.60291800e-07
      -3.58326361e-07 2.17453817e-07 7.46926389e-07 8.94262655e-07
      7.55162432e-07 3.19765320e-07 -2.63236387e-07 -9.36655397e-07
      -1.46673699e-06 -1.79829124e-06 -1.89110983e-06 -1.72055377e-06
      -1.10186852e-06 -2.96159698e-07 3.39069317e-07 7.42714633e-07
      1.00658656e-06 1.14956140e-06 1.13808437e-06 1.06578557e-06
      1.01537682e-06 8.52170047e-07 6.58769920e-07 5.69395581e-07
      4.86465069e-07 1.59928589e-07 -1.48462064e-07 -4.60021681e-07
      -5.28470480e-07 -7.82343420e-07 -8.62141235e-07 -5.60941885e-07
      -2.06558695e-07 -1.65130018e-07 -6.13238001e-07 -1.05513766e-06
      -9.04884303e-07 -5.94891958e-07 -3.89537661e-07 -5.03006220e-07
      -1.15806642e-06 -1.94804193e-06 -2.56919589e-06 -2.83744293e-06
      -4.80788185e-06 -4.75527213e-06 -4.64358209e-06 -4.33797368e-06
      -3.53696305e-06 -2.42117585e-06 -1.34932850e-06 -4.01236179e-07
      1.43984323e-07 2.12581469e-07 2.93052750e-07 5.88531975e-07
      1.08329300e-06 1.59704848e-06 1.86007253e-06 1.80112875e-06
      1.57985323e-06 1.17059471e-06 8.18343153e-07 5.53573273e-07
      1.36301907e-07 -1.77999567e-07 -1.87540564e-07 -1.19780822e-07
      -1.56072616e-07 -2.47884287e-07 -3.68688234e-07 -4.50436403e-07
      -5.28625776e-07 -6.16194939e-07 -6.24343159e-07 -6.48096318e-07
      -6.82089535e-07 -7.10691779e-07 -8.08595871e-07 -9.46050534e-07
      -1.06352093e-06 -1.13635042e-06 -1.20422646e-06 -1.36422716e-06
      -1.46627872e-06 -1.43390412e-06 -1.42743761e-06 -1.60317234e-06
      -1.36529559e-06 -8.77944103e-07 -3.39022563e-07 1.55559746e-07
      3.50918839e-07 2.72870267e-07 -9.89489646e-09 -2.12720721e-07
      -4.79559276e-06 -4.65783160e-06 -4.22953735e-06 -3.55686871e-06
      -2.80268773e-06 -1.90189110e-06 -9.29915302e-07 -5.86213531e-08
      5.50824041e-07 7.47168485e-07 8.41500025e-07 7.90995784e-07
      1.04640878e-06 1.51926474e-06 1.83377313e-06 1.80755421e-06
      1.35163509e-06 5.99546524e-07 -2.86636426e-09 -2.43258285e-07
      -1.26055738e-07 8.04592233e-08 1.26960288e-07 8.76866935e-08
      -9.82249926e-09 -9.95297640e-08 -1.40030224e-07 -1.56341670e-07
      -2.78580018e-07 -3.65667120e-07 -4.43706710e-07 -5.56429995e-07
      -6.26495250e-07 -6.17459932e-07 -5.12646125e-07 -3.81401577e-07
      -3.90833435e-07 -2.58703267e-07 -8.97876689e-08 -1.05253328e-07
      -3.67868722e-07 -7.04476861e-07 -1.01035891e-06 -1.11699819e-06
      -9.36184108e-07 -4.95639540e-07 -2.10087041e-08 1.01446126e-07
      -5.58039062e-07 -1.11026418e-06 -1.59428009e-06 -1.79720007e-06
      -2.75481671e-06 -2.71731824e-06 -2.62208505e-06 -2.50535163e-06
      -2.39952328e-06 -2.42603392e-06 -2.65059725e-06 -3.10319911e-06
      -3.70103498e-06 -4.16689318e-06 -4.43950739e-06 -4.64490631e-06
      -4.71949124e-06 -4.44052603e-06 -4.16379726e-06 -3.94739800e-06
      -4.08340293e-06 -3.66908489e-06 -3.02472245e-06 -2.30234741e-06
      -1.43745069e-06 -5.43073554e-07 1.43080314e-07 5.47193679e-07
      7.41779047e-07 7.66905544e-07 6.69584097e-07 5.87676254e-07
      5.52655592e-07 6.40388976e-07 8.02404600e-07 9.37875200e-07
      1.02723516e-06 9.83702535e-07 7.22978541e-07 2.28899225e-07
      -3.57194352e-07 -7.55018334e-07 -9.68702807e-07 -1.05165600e-06
      -9.92391620e-07 -7.78699359e-07 -4.04033983e-07 1.23680834e-07
      5.21609081e-07 6.66880737e-07 5.02901628e-07 1.00372937e-07
      -6.15236559e-07 -1.38891471e-06 -1.90647074e-06 -2.09471864e-06
      -1.46584512e-07 -2.68586206e-07 -6.54503310e-07 -1.15486478e-06
      -1.67112216e-06 -2.22522294e-06 -2.87927605e-06 -3.51184053e-06
      -3.89302022e-06 -4.44252692e-06 -5.22943037e-06 -5.83468045e-06
      -6.10197048e-06 -5.86730766e-06 -5.04968466e-06 -4.00304134e-06
      -2.98217492e-06 -1.91928598e-06 -1.03771072e-06 -3.51099374e-07
      5.19150198e-08 3.80368903e-07 6.51626635e-07 8.23863274e-07
      9.12451299e-07 9.23558105e-07 8.34339630e-07 7.11285793e-07
      6.67057009e-07 6.05642867e-07 5.47783941e-07 4.87163788e-07
      3.54335356e-07 9.42424663e-08 -2.44670161e-07 -6.21614788e-07
      -1.11364955e-06 -1.72214004e-06 -2.37930840e-06 -2.89645709e-06
      -2.96325788e-06 -2.92493201e-06 -3.02820649e-06 -3.13797000e-06
      -3.22049118e-06 -3.18652587e-06 -3.06422203e-06 -2.98229816e-06
      -2.77719482e-06 -2.45908018e-06 -2.18734044e-06 -2.08459142e-06
      1.38283724e-07 2.41499890e-07 5.28824899e-07 9.02399790e-07
      1.25762335e-06 1.44798560e-06 1.43924410e-06 1.31276704e-06
      1.04322635e-06 6.00319368e-07 1.10766322e-07 -2.37768475e-07
      -3.80483925e-07 -3.67420171e-07 -2.69420468e-07 -1.97401633e-07
      -2.40036456e-07 -2.22207277e-07 -1.89086336e-07 -2.18168154e-07
      -1.39181566e-07 -1.72518728e-08 1.31241237e-07 2.97716952e-07
      4.10135044e-07 4.77575043e-07 5.04930881e-07 4.52030889e-07
      3.34087559e-07 7.45081365e-08 -2.38615542e-07 -5.12001236e-07
      -7.44815054e-07 -9.68859695e-07 -1.13632552e-06 -1.32442119e-06
      -1.57080547e-06 -1.92847938e-06 -2.41566318e-06 -2.80993527e-06
      -3.09806455e-06 -3.27318639e-06 -3.43347892e-06 -3.58940520e-06
      -3.79662288e-06 -4.02459091e-06 -4.05408355e-06 -3.89841534e-06
      -3.64361495e-06 -3.35219079e-06 -3.15241596e-06 -3.07965888e-06
      -1.83323834e-06 -1.78401058e-06 -1.62755032e-06 -1.40466989e-06
      -1.17771947e-06 -9.28644795e-07 -7.54794314e-07 -7.52772507e-07
      -7.40605174e-07 -7.25802522e-07 -7.25439804e-07 -8.09470691e-07
      -9.59222007e-07 -1.15059197e-06 -1.27349483e-06 -1.25785073e-06
      -1.15718422e-06 -1.01727471e-06 -9.00845578e-07 -7.97596385e-07
      -6.96660948e-07 -5.84575560e-07 -5.04431569e-07 -4.16653336e-07
      -3.65323700e-07 -3.34966359e-07 -2.99812029e-07 -2.81525701e-07
      -2.88005367e-07 -3.46550848e-07 -4.32650978e-07 -6.05611604e-07
      -8.38205153e-07 -1.11218401e-06 -1.40119846e-06 -1.65022709e-06
      -1.79366941e-06 -1.81269888e-06 -1.75503078e-06 -1.56176611e-06
      -1.29440718e-06 -1.01534226e-06 -7.55617350e-07 -7.03156729e-07
      -9.89268187e-07 -1.58937883e-06 -2.36860251e-06 -3.15596139e-06
      -3.90594278e-06 -4.51740425e-06 -4.88120577e-06 -4.98392728e-06
      -7.82416009e-07 -8.90523040e-07 -1.19307265e-06 -1.62948515e-06
      -2.15335058e-06 -2.59581839e-06 -2.76790138e-06 -2.70924465e-06
      -2.46445074e-06 -2.14050715e-06 -1.79816129e-06 -1.52874850e-06
      -1.24305666e-06 -9.41161659e-07 -6.30783006e-07 -3.59426593e-07
      -1.81676015e-07 -1.10032154e-07 -1.44205629e-07 -2.27417559e-07
      -3.28218391e-07 -4.02219257e-07 -4.54755082e-07 -4.56410447e-07
      -4.67296303e-07 -5.01367708e-07 -4.85528858e-07 -4.31315328e-07
      -3.53078207e-07 -2.46212267e-07 -1.53042123e-07 -1.50726677e-07
      -2.52431647e-07 -3.71900995e-07 -5.09865686e-07 -6.23611243e-07
      -7.55625251e-07 -8.93315928e-07 -1.14039631e-06 -1.51212407e-06
      -1.83446252e-06 -1.96012411e-06 -1.94962695e-06 -1.79097356e-06
      -1.54755776e-06 -1.37391169e-06 -1.35059531e-06 -1.41288660e-06
      -1.48978984e-06 -1.53430756e-06 -1.54471388e-06 -1.54902739e-06
      1.63520497e-06 1.57022873e-06 1.38428084e-06 1.09159487e-06
      7.60091041e-07 3.85882259e-07 -6.50780896e-09 -3.40526526e-07
      -6.20746732e-07 -8.34080879e-07 -9.67560595e-07 -1.00553575e-06
      -9.12776272e-07 -7.28565681e-07 -5.22364417e-07 -2.70056489e-07
      -1.21122854e-08 2.38018885e-07 4.35532314e-07 5.95685378e-07
      7.04562979e-07 7.89352896e-07 8.61866965e-07 8.62075638e-07
      7.48170578e-07 5.84564589e-07 4.45180859e-07 3.62709727e-07
      3.06629147e-07 2.97110603e-07 3.24359405e-07 4.28372800e-07
      5.36685604e-07 6.74581031e-07 8.28927455e-07 9.59925956e-07
      1.03973503e-06 1.03963339e-06 9.58273176e-07 7.49996047e-07
      4.78967820e-07 2.02005481e-07 -6.32691055e-08 -2.62293383e-07
      -3.45041940e-07 -3.00376513e-07 -1.21927599e-07 7.99281636e-08
      2.92700491e-07 4.66802675e-07 5.60308990e-07 5.64576283e-07
      1.94948871e-06 1.95931329e-06 1.96490282e-06 1.92218454e-06
      1.76921230e-06 1.53311589e-06 1.19038486e-06 8.31511556e-07
      4.56343031e-07 9.52495398e-08 -2.25936404e-07 -4.65476717e-07
      -5.96383927e-07 -5.60982073e-07 -4.06420270e-07 -1.43899413e-07
      1.52444272e-07 4.37145474e-07 6.08870323e-07 6.80687606e-07
      6.46543640e-07 5.74318619e-07 5.00406429e-07 4.39230348e-07
      4.35844839e-07 4.99966404e-07 5.24950678e-07 6.06870856e-07
      7.04193667e-07 8.46629575e-07 9.90090484e-07 1.13551494e-06
      1.24237511e-06 1.28349700e-06 1.28871875e-06 1.25307270e-06
      1.20739264e-06 1.12692601e-06 1.01874321e-06 9.61323167e-07
      9.10913116e-07 9.18615115e-07 9.45380691e-07 1.05863296e-06
      1.22759025e-06 1.39813346e-06 1.58861508e-06 1.73666410e-06
      1.86602654e-06 2.00108252e-06 2.08493429e-06 2.11288852e-06
      5.80485050e-07 6.00379053e-07 6.38062033e-07 6.94054052e-07
      7.84013196e-07 9.21287153e-07 1.10312021e-06 1.27507064e-06
      1.32288790e-06 1.20843765e-06 9.93405820e-07 7.27647489e-07
      4.75831115e-07 3.08559947e-07 2.27859488e-07 2.42287570e-07
      2.24982003e-07 1.01514331e-07 -1.16391398e-07 -4.23669348e-07
      -7.52077710e-07 -1.04321828e-06 -1.19943854e-06 -1.24731162e-06
      -1.21338906e-06 -1.13525653e-06 -1.02679542e-06 -8.68593986e-07
      -6.91314312e-07 -3.74526479e-07 -2.75219243e-08 3.16284769e-07
      6.93728623e-07 1.05786194e-06 1.33966319e-06 1.48067625e-06
      1.48095069e-06 1.30945909e-06 1.03533466e-06 7.69601797e-07
      5.39366908e-07 4.05886396e-07 3.37942481e-07 3.61996769e-07
      4.27586855e-07 4.76888886e-07 5.06817059e-07 5.44291652e-07
      5.97860321e-07 7.30014676e-07 8.18867647e-07 8.58157534e-07
      -3.59479913e-07 -3.33415187e-07 -2.84330554e-07 -1.46047967e-07
      1.05434985e-07 3.21417929e-07 4.46965316e-07 4.84024838e-07
      4.71423789e-07 4.29617160e-07 3.43103267e-07 1.72458542e-07
      9.14283227e-09 -1.52082634e-07 -2.82537627e-07 -3.64079057e-07
      -4.72078000e-07 -5.90939976e-07 -7.08209711e-07 -8.18984347e-07
      -9.16986210e-07 -9.96468430e-07 -1.07151322e-06 -1.15540001e-06
      -1.29007458e-06 -1.51726272e-06 -1.70500800e-06 -1.88617855e-06
      -1.98525186e-06 -1.96575661e-06 -1.82339966e-06 -1.60381569e-06
      -1.31362879e-06 -9.48557442e-07 -4.19043943e-07 2.70522804e-07
      9.12588007e-07 1.19869537e-06 1.11710506e-06 8.86649275e-07
      7.05223215e-07 6.04143736e-07 5.94255653e-07 6.27763711e-07
      6.46507601e-07 6.14502369e-07 5.37249662e-07 4.62246021e-07
      4.09722276e-07 4.14041750e-07 4.48969104e-07 4.62907025e-07
      2.94274201e-07 2.42274297e-07 8.62643574e-08 -1.87557319e-07
      -5.23661583e-07 -8.21207038e-07 -1.00291390e-06 -1.01821820e-06
      -8.72635667e-07 -5.89542879e-07 -2.93902843e-07 -2.38964493e-08
      1.21775315e-07 1.04541108e-07 -4.82532521e-08 -2.84651719e-07
      -4.73320512e-07 -5.41286170e-07 -5.40668509e-07 -5.39953078e-07
      -5.48235050e-07 -5.69079816e-07 -5.99538282e-07 -6.05734272e-07
      -6.39316454e-07 -7.18698288e-07 -8.03724845e-07 -8.79518382e-07
      -9.42220254e-07 -1.05457843e-06 -1.17260902e-06 -1.30623300e-06
      -1.43145530e-06 -1.49772006e-06 -1.40433690e-06 -1.09051598e-06
      -5.81165864e-07 -3.50876448e-08 3.42030063e-07 4.52875184e-07
      4.05226331e-07 3.37786815e-07 3.44961308e-07 3.83806054e-07
      4.54484876e-07 4.99658881e-07 5.50261689e-07 5.89576928e-07
      5.88947387e-07 5.66443305e-07 5.23005554e-07 5.01370835e-07
      -1.12029193e-06 -1.16263664e-06 -1.22637562e-06 -1.33913954e-06
      -1.42513557e-06 -1.41720011e-06 -1.27737007e-06 -1.03790296e-06
      -7.64750496e-07 -5.05243918e-07 -2.70633933e-07 -2.62255622e-08
      2.21418759e-07 4.67428663e-07 6.64330798e-07 8.64533320e-07
      1.10166388e-06 1.23951395e-06 1.10727206e-06 7.45358307e-07
      4.79680295e-07 2.92707085e-07 2.52055969e-07 2.83211762e-07
      3.27562873e-07 4.02100170e-07 4.16104143e-07 3.95450570e-07
      2.18757748e-07 -1.54282365e-08 -2.82486326e-07 -5.73938735e-07
      -8.17003070e-07 -9.43646342e-07 -9.24996357e-07 -7.74161379e-07
      -5.98684892e-07 -4.99009730e-07 -3.92811216e-07 -2.72823854e-07
      -2.16000899e-07 -2.32451583e-07 -3.23026370e-07 -4.26987725e-07
      -4.77645870e-07 -4.59709696e-07 -4.59863685e-07 -4.39981761e-07
      -3.90674529e-07 -3.36434368e-07 -2.80503031e-07 -2.45314510e-07
      -9.93749040e-07 -9.67997266e-07 -8.32751141e-07 -5.95533550e-07
      -2.70606961e-07 8.02213549e-08 3.86294488e-07 5.83520375e-07
      6.46871172e-07 5.82285054e-07 5.32604133e-07 5.03866488e-07
      5.42966859e-07 6.72725150e-07 8.72056830e-07 1.10339431e-06
      1.30683111e-06 1.45211857e-06 1.54687666e-06 1.60175250e-06
      1.69131124e-06 1.81539156e-06 1.90593596e-06 1.88464242e-06
      1.86901707e-06 1.88369529e-06 1.93592064e-06 1.86339150e-06
      1.60816660e-06 1.32018272e-06 1.01245882e-06 7.85011650e-07
      6.46372996e-07 6.41634074e-07 7.64680067e-07 7.87954889e-07
      6.91672369e-07 7.42479415e-07 9.14234477e-07 1.17990783e-06
      1.43675038e-06 1.53717713e-06 1.37350639e-06 1.08680331e-06
      7.12634630e-07 3.30012483e-07 -4.32644498e-08 -3.98247892e-07
      -6.61508864e-07 -8.59776151e-07 -9.74322234e-07 -9.95655910e-07
      -1.12401392e-06 -1.01863611e-06 -7.76616901e-07 -3.92268220e-07
      1.46966850e-09 3.42229271e-07 5.69889266e-07 6.92876711e-07
      7.25454640e-07 7.27058193e-07 7.83907694e-07 8.36144523e-07
      8.39429788e-07 7.43323028e-07 5.93319442e-07 4.26777177e-07
      1.98088529e-07 -6.32289456e-08 -2.01106602e-07 1.18557040e-08
      4.38799105e-07 8.55974065e-07 1.14953559e-06 1.29553200e-06
      1.46083903e-06 1.66606276e-06 1.88455374e-06 1.98114799e-06
      2.07335029e-06 2.09516975e-06 2.01839998e-06 1.89750278e-06
      1.63077027e-06 1.22532060e-06 8.97211919e-07 7.81419544e-07
      9.63072921e-07 1.47173625e-06 2.12107011e-06 2.58661316e-06
      2.92153322e-06 3.05795947e-06 3.01169780e-06 2.72710395e-06
      2.27954183e-06 1.78962523e-06 1.40880456e-06 1.05161484e-06
      7.26808537e-07 4.58280937e-07 3.11014048e-07 2.38481789e-07
      -6.94829623e-07 -6.07301615e-07 -4.37375121e-07 -1.78491476e-07
      6.82958259e-08 2.36659687e-07 3.14067677e-07 2.82236215e-07
      1.92312072e-07 1.36948401e-07 1.06670321e-07 1.30947839e-07
      1.27901103e-07 3.19361781e-08 -3.07290321e-07 -7.65917150e-07
      -1.16277533e-06 -1.35345238e-06 -1.35428252e-06 -9.41554049e-07
      -4.31269655e-07 1.69471832e-08 3.41753037e-07 5.41205566e-07
      6.49494609e-07 8.34908747e-07 1.18801029e-06 1.44738590e-06
      1.62526794e-06 1.62726292e-06 1.49966877e-06 1.37730831e-06
      1.32751211e-06 1.16514866e-06 1.04502340e-06 1.12099485e-06
      1.28480610e-06 1.69831469e-06 2.17946967e-06 2.38066605e-06
      2.30824617e-06 2.02396791e-06 1.67397639e-06 1.27002420e-06
      9.47295575e-07 7.73366537e-07 7.41423889e-07 7.77429534e-07
      8.35193703e-07 9.49629509e-07 1.02987758e-06 1.04739058e-06
      2.89981472e-07 2.81036563e-07 2.59350685e-07 1.81670700e-07
      7.41639852e-08 -6.52817178e-08 -1.64936267e-07 -2.11694413e-07
      -1.78076860e-07 -8.22147399e-08 7.51352687e-08 3.15955020e-07
      4.79994469e-07 4.47463918e-07 1.91686141e-07 -2.09030276e-07
      -4.57086884e-07 -3.33765541e-07 -1.05675511e-07 2.49063760e-07
      7.45641159e-07 1.07048459e-06 1.18500134e-06 1.16173806e-06
      1.04969831e-06 1.04475919e-06 9.40037239e-07 8.02691488e-07
      6.07525124e-07 4.69185750e-07 4.80018059e-07 5.83567612e-07
      7.54247594e-07 8.16583622e-07 8.75619037e-07 1.02755484e-06
      9.05730928e-07 6.86017529e-07 3.66917334e-07 -9.36524600e-08
      -5.10303153e-07 -7.49504807e-07 -9.48336776e-07 -1.12055898e-06
      -1.16761908e-06 -9.50986532e-07 -6.30750264e-07 -2.54076866e-07
      1.26154987e-07 4.53995966e-07 6.84364920e-07 7.83251323e-07
      -5.20622280e-07 -5.19187836e-07 -5.16031321e-07 -5.24047721e-07
      -4.94979361e-07 -4.16700033e-07 -3.59928947e-07 -1.82702408e-07
      5.33311955e-08 2.73812475e-07 4.78378638e-07 5.96202653e-07
      6.39369205e-07 3.74275601e-07 8.05395644e-08 -9.69553753e-08
      -6.53573977e-08 -6.23245029e-08 -2.00306815e-07 -3.99943673e-07
      -4.41123802e-07 -2.58503462e-07 -7.09394499e-08 4.74085802e-08
      -7.14643491e-08 -4.78019274e-07 -9.36335709e-07 -1.14840509e-06
      -1.19366450e-06 -9.22498373e-07 -5.67376617e-07 -3.67481817e-07
      -4.46490589e-07 -7.16509987e-07 -1.09373457e-06 -1.40941461e-06
      -1.49259256e-06 -1.55908367e-06 -1.76493461e-06 -1.77460879e-06
      -1.43980890e-06 -8.92684511e-07 -3.21341361e-07 2.34704956e-07
      6.61654724e-07 8.71590714e-07 8.07346169e-07 6.24760276e-07
      2.24631421e-07 -1.90007142e-07 -4.61948929e-07 -5.56845805e-07
      -6.48744162e-07 -6.45856915e-07 -5.96266887e-07 -4.91825801e-07
      -3.13129902e-07 -3.43329560e-08 2.42367349e-07 5.53476355e-07
      7.25580207e-07 8.07788695e-07 8.49345156e-07 6.86956355e-07
      2.88885587e-07 -1.68477314e-07 -4.25183771e-07 -2.81350452e-07
      1.91584022e-07 2.67563934e-07 1.53103883e-07 1.00278918e-07
      2.68610222e-07 2.64482566e-07 2.43579109e-07 8.57988027e-08
      -2.28950540e-07 -8.90085289e-07 -1.52337009e-06 -1.81492635e-06
      -1.75866114e-06 -1.41106432e-06 -1.19427102e-06 -1.11536099e-06
      -1.05528966e-06 -9.08247216e-07 -7.46687476e-07 -5.67048289e-07
      -6.87365912e-07 -6.14709563e-07 -2.91095148e-07 -1.65724202e-07
      -3.54180486e-07 -6.16278157e-07 -5.62357855e-07 -2.89006266e-07
      -2.16535781e-07 -3.25463873e-07 -4.24132338e-07 -3.61527810e-07
      -2.22784280e-07 -1.39027208e-07 -2.24625722e-07 -2.56365638e-07
      -1.16496187e-06 -1.19263768e-06 -1.24404232e-06 -1.24807684e-06
      -1.23228995e-06 -1.17648915e-06 -9.47830699e-07 -6.72622207e-07
      -4.22405265e-07 -2.26939534e-07 -3.11877386e-07 -6.37978246e-07
      -1.07602852e-06 -1.51359643e-06 -1.79494702e-06 -1.88145509e-06
      -1.54728048e-06 -9.82324650e-07 -5.00270744e-07 -9.61640438e-08
      -2.56420321e-07 -5.60082469e-07 -8.36542426e-07 -1.06545394e-06
      -1.19492984e-06 -1.15330204e-06 -1.12746955e-06 -1.08958136e-06
      -9.79804668e-07 -1.02695276e-06 -1.29368027e-06 -1.50458845e-06
      -1.42145052e-06 -1.03210834e-06 -5.62146852e-07 -8.48020605e-08
      3.58121270e-07 6.34734022e-07 7.16133229e-07 7.90214813e-07
      8.72233500e-07 8.96093184e-07 9.56226245e-07 9.68279323e-07
      9.66162929e-07 1.04513185e-06 1.14666261e-06 1.24325834e-06
      1.34779305e-06 1.50143012e-06 1.58872183e-06 1.60674983e-06
      -1.72548187e-06 -1.67488190e-06 -1.51664210e-06 -1.25817542e-06
      -9.94407856e-07 -7.90044908e-07 -6.45539444e-07 -7.92226217e-07
      -1.22355561e-06 -1.86780278e-06 -2.42657165e-06 -2.67448650e-06
      -2.52300288e-06 -1.95709117e-06 -1.16179137e-06 -2.63825626e-07
      4.80020105e-07 8.14240593e-07 6.42786972e-07 1.73344560e-07
      -6.92517688e-07 -1.60400964e-06 -2.18693958e-06 -2.42271858e-06
      -2.66965822e-06 -2.73746946e-06 -2.80128779e-06 -2.68254075e-06
      -2.32324192e-06 -2.09732184e-06 -2.18811192e-06 -2.32368484e-06
      -2.29867123e-06 -1.87700073e-06 -1.02885917e-06 -1.47498625e-07
      6.70742509e-07 9.84116696e-07 1.19474703e-06 1.18872265e-06
      1.12076953e-06 1.15118019e-06 1.25643658e-06 1.37789846e-06
      1.40920349e-06 1.47932292e-06 1.55159989e-06 1.39461019e-06
      1.12853809e-06 8.06142509e-07 5.71920339e-07 4.54097290e-07
      -5.41698228e-07 -4.50715078e-07 -2.61667594e-07 -6.77932235e-08
      7.63823493e-08 1.61753661e-07 -1.91873752e-08 -4.20976249e-07
      -9.85200131e-07 -1.45889805e-06 -1.57354668e-06 -1.24653138e-06
      -5.73643433e-07 2.48394343e-07 1.13680176e-06 2.07067183e-06
      2.84613566e-06 3.19466290e-06 2.94726806e-06 2.14417014e-06
      1.05940421e-06 -1.13668115e-07 -1.28597912e-06 -2.33456194e-06
      -2.92555205e-06 -3.40985321e-06 -3.68907422e-06 -3.72960540e-06
      -3.46525212e-06 -3.16707292e-06 -3.16268938e-06 -3.24872235e-06
      -3.28604688e-06 -3.09845404e-06 -2.48033916e-06 -1.75704849e-06
      -1.02436184e-06 -4.57676776e-07 -3.51188220e-07 -5.51600806e-07
      -8.46747128e-07 -1.16925776e-06 -1.38854170e-06 -1.40968973e-06
      -1.36511630e-06 -1.38174244e-06 -1.44706405e-06 -1.50582594e-06
      -1.46130458e-06 -1.44432624e-06 -1.41376495e-06 -1.42622753e-06
      -6.00875978e-07 -5.11787391e-07 -3.70030847e-07 -2.36276847e-07
      -9.69136238e-08 8.49765129e-08 2.57494747e-07 3.81716973e-07
      6.02628859e-07 8.40716780e-07 1.15395437e-06 1.43246575e-06
      1.57451132e-06 1.64386415e-06 1.67997632e-06 1.65632309e-06
      1.53802398e-06 1.26516716e-06 8.49000457e-07 3.23839259e-07
      -1.92086745e-07 -7.01707052e-07 -1.11848624e-06 -1.50998699e-06
      -1.90874880e-06 -2.26921043e-06 -2.47994603e-06 -2.57731449e-06
      -2.48780157e-06 -2.24641985e-06 -2.02236083e-06 -2.11736096e-06
      -2.11099336e-06 -2.08789811e-06 -2.01190028e-06 -1.80003019e-06
      -1.54276211e-06 -1.19008439e-06 -8.74879390e-07 -6.53985524e-07
      -5.67584152e-07 -6.16878481e-07 -7.01855015e-07 -7.93249569e-07
      -8.16078682e-07 -7.97310804e-07 -8.47638773e-07 -6.38656161e-07
      -5.35509571e-07 -4.19269639e-07 -2.80182235e-07 -2.12791960e-07
      2.37098021e-07 2.39078361e-07 2.02841576e-07 1.30382375e-07
      7.63670016e-08 6.86241250e-08 1.25795694e-07 2.11881272e-07
      3.31129030e-07 5.16925525e-07 5.58810257e-07 8.25072490e-08
      -5.32418312e-07 -1.15106434e-06 -1.66353914e-06 -2.06745517e-06
      -2.37616473e-06 -2.65131803e-06 -2.73621981e-06 -2.53729650e-06
      -2.10197459e-06 -1.46103287e-06 -7.60351668e-07 -7.18447026e-08
      3.26633824e-07 4.70156607e-07 4.65542570e-07 3.85817401e-07
      2.41775865e-07 1.35714160e-07 1.21615189e-08 -1.82447891e-07
      -4.54590264e-07 -8.09008611e-07 -1.31869820e-06 -1.72822104e-06
      -1.93244318e-06 -1.88219110e-06 -1.61405512e-06 -1.18365938e-06
      -7.09992491e-07 -1.80278249e-07 2.68606300e-07 5.63918604e-07
      7.04166041e-07 6.06375863e-07 3.59350707e-07 1.14028104e-07
      -1.83154555e-07 -4.23709054e-07 -5.82023972e-07 -6.01218460e-07
      1.05504068e-06 9.72802468e-07 8.47478987e-07 7.32720594e-07
      6.95055860e-07 6.81852214e-07 6.57493501e-07 6.21166464e-07
      4.08423489e-07 3.03656087e-08 -5.23720075e-07 -1.17099137e-06
      -1.79185383e-06 -2.41127509e-06 -3.01663317e-06 -3.58132206e-06
      -3.99470355e-06 -4.19738262e-06 -4.09746690e-06 -3.73716580e-06
      -3.08640938e-06 -2.16989793e-06 -1.17265790e-06 -3.21196751e-07
      2.66056190e-07 5.43768635e-07 5.35051868e-07 4.26417444e-07
      3.38173976e-07 1.95415723e-07 -1.15123449e-07 -5.39655787e-07
      -1.06809864e-06 -1.68101258e-06 -2.39918882e-06 -3.10275755e-06
      -3.60853801e-06 -3.86850252e-06 -3.78435925e-06 -3.41193913e-06
      -2.89155651e-06 -2.21472760e-06 -1.46041214e-06 -7.07978131e-07
      -3.08055519e-08 4.69348294e-07 7.17392595e-07 7.30348916e-07
      5.49126923e-07 3.44750049e-07 2.30689935e-07 1.96592964e-07
      1.65620563e-07 1.16892011e-07 2.26963852e-08 -5.37415303e-08
      -1.28742542e-07 -8.07558607e-08 2.61221004e-07 7.37849859e-07
      1.10824124e-06 1.13118392e-06 8.71971793e-07 4.59012711e-07
      -5.45732792e-09 -5.07836432e-07 -1.14262923e-06 -1.78823643e-06
      -2.42457190e-06 -3.02810463e-06 -3.52476400e-06 -3.86449256e-06
      -3.88951275e-06 -3.64467587e-06 -3.28133638e-06 -3.01980026e-06
      -2.83069380e-06 -2.61610853e-06 -2.39282008e-06 -2.21549089e-06
      -2.03780405e-06 -1.81913731e-06 -1.67126518e-06 -1.67740018e-06
      -1.88700142e-06 -2.30739420e-06 -2.89824243e-06 -3.55158386e-06
      -4.15118529e-06 -4.68889448e-06 -4.94570895e-06 -4.76595778e-06
      -4.20530796e-06 -3.40338397e-06 -2.49555751e-06 -1.60200557e-06
      -7.53918584e-07 6.44603304e-08 7.06354797e-07 9.24509607e-07
      9.39198571e-07 8.32335616e-07 7.65590528e-07 7.24005304e-07
      -3.88959194e-07 -3.58160264e-07 -2.54333060e-07 -3.88636288e-08
      2.15076000e-07 6.54505698e-07 1.15020316e-06 1.62527306e-06
      1.88046624e-06 1.72662192e-06 1.22865015e-06 6.85636962e-07
      1.83843071e-07 -1.23852246e-07 -4.76821413e-07 -8.39829340e-07
      -1.17394507e-06 -1.53518147e-06 -1.88330296e-06 -2.13122780e-06
      -2.20170546e-06 -2.07752328e-06 -1.89627076e-06 -1.82192809e-06
      -1.92001426e-06 -2.15043042e-06 -2.39565884e-06 -2.60708975e-06
      -2.71718955e-06 -2.71672161e-06 -2.54409156e-06 -2.26496286e-06
      -1.96964015e-06 -1.69836642e-06 -1.51218342e-06 -1.42495969e-06
      -1.44843466e-06 -1.60939123e-06 -1.85511612e-06 -2.06257687e-06
      -2.19214780e-06 -2.24583300e-06 -2.10491839e-06 -1.81957989e-06
      -1.56592057e-06 -1.34511231e-06 -1.09934456e-06 -9.26610880e-07
      -6.88041098e-07 -4.74309843e-07 -3.10941090e-07 -2.61668191e-07
      -7.89304266e-08 -3.78146181e-09 1.15293602e-07 2.18036391e-07
      2.93673423e-07 4.15557651e-07 4.76925834e-07 4.54235021e-07
      3.01887297e-07 7.16719839e-08 -3.14459669e-07 -9.29332998e-07
      -1.68045403e-06 -2.02409024e-06 -2.03363766e-06 -1.75498701e-06
      -1.28081149e-06 -9.43656687e-07 -7.56566692e-07 -6.08851224e-07
      -3.24543436e-07 2.44424001e-07 8.31986370e-07 1.30032208e-06
      1.50883977e-06 1.38041014e-06 9.64290621e-07 4.08872609e-07
      -1.70489741e-07 -6.93698894e-07 -1.04590606e-06 -1.18075275e-06
      -1.11526072e-06 -9.41976680e-07 -7.27677502e-07 -4.46615104e-07
      -2.40049985e-07 -1.51785102e-07 -2.56923300e-07 -6.45719695e-07
      -1.39984218e-06 -2.15685168e-06 -2.70722467e-06 -3.08929566e-06
      -3.16116689e-06 -3.43118472e-06 -3.45601688e-06 -3.13610303e-06
      -2.61103696e-06 -2.16824992e-06 -1.86669945e-06 -1.77615800e-06
      -1.25932331e-06 -1.22819381e-06 -1.17088791e-06 -1.15954151e-06
      -1.17348179e-06 -1.20035384e-06 -1.08168285e-06 -1.13021497e-06
      -1.30373348e-06 -1.57383568e-06 -1.90808646e-06 -2.32645993e-06
      -2.69845782e-06 -2.90812932e-06 -2.59605872e-06 -1.76544654e-06
      -7.91699449e-07 -4.42556001e-07 -5.18121851e-07 -8.86047758e-07
      -1.20271602e-06 -9.32019589e-07 -5.07243044e-07 1.05032349e-07
      6.80736264e-07 1.13186411e-06 1.38567384e-06 1.48487288e-06
      1.48686934e-06 1.39317706e-06 1.13998465e-06 8.15411511e-07
      4.64496168e-07 1.35999201e-07 -1.67677058e-07 -4.36070508e-07
      -5.88802379e-07 -6.63493040e-07 -8.09473534e-07 -1.28586282e-06
      -2.11993711e-06 -2.90852677e-06 -3.33578578e-06 -3.41923328e-06
      -3.04280411e-06 -2.66626989e-06 -2.35994958e-06 -1.89578395e-06
      -1.36538017e-06 -8.99356962e-07 -6.30050977e-07 -5.60554099e-07
      -1.80961604e-06 -1.78813002e-06 -1.72420800e-06 -1.69788871e-06
      -1.69410941e-06 -1.70489261e-06 -1.73509090e-06 -1.83553550e-06
      -2.28614067e-06 -3.00255510e-06 -3.58890179e-06 -3.66054701e-06
      -3.12815587e-06 -2.04736511e-06 -6.92187371e-07 7.29873079e-07
      1.37220900e-06 1.02104411e-06 -2.10011223e-07 -1.62858009e-06
      -2.82865972e-06 -3.64992502e-06 -4.05513492e-06 -3.89280194e-06
      -3.32958825e-06 -2.53279381e-06 -1.78084213e-06 -1.31981278e-06
      -9.87139629e-07 -7.05437913e-07 -6.27408212e-07 -4.96574216e-07
      -6.01992781e-07 -8.33835657e-07 -9.81811581e-07 -9.20303421e-07
      -7.82022141e-07 -7.00599230e-07 -7.50141112e-07 -9.31055752e-07
      -1.19228469e-06 -1.95418534e-06 -2.59362696e-06 -2.61027935e-06
      -2.39474207e-06 -1.60606282e-06 -6.30676936e-07 1.35596210e-07
      3.50383402e-07 3.52734304e-07 2.09705547e-07 1.63006519e-07
      -1.47083426e-07 -1.66489698e-07 -1.98623283e-07 -2.38816028e-07
      -2.61028447e-07 -2.39706083e-07 -2.03733507e-07 -1.42375555e-07
      -2.79778249e-07 -5.21651714e-07 -6.47647141e-07 -6.31887019e-07
      -3.35373670e-07 4.30134605e-07 1.28670922e-06 1.86845580e-06
      1.44219086e-06 6.80788446e-07 -3.18097250e-07 -1.40149450e-06
      -2.45536103e-06 -3.18408843e-06 -3.40583392e-06 -3.12654834e-06
      -2.56401836e-06 -1.73480350e-06 -8.78849335e-07 -1.20017901e-07
      4.98841644e-07 9.72955831e-07 1.16888509e-06 1.01533567e-06
      3.28055648e-07 -7.25675648e-07 -1.31063132e-06 -1.58314799e-06
      -1.15530770e-06 -3.31124482e-07 7.82646566e-07 1.73147907e-06
      2.33452056e-06 2.54240740e-06 2.23428469e-06 7.93493427e-07
      -4.26734942e-07 -1.11388761e-06 -1.19592096e-06 -9.84489702e-07
      -8.82026711e-07 -1.00621310e-06 -1.18710784e-06 -1.22831318e-06
      5.49735432e-07 5.59958380e-07 5.84098302e-07 6.58757926e-07
      7.95428150e-07 9.72204930e-07 1.22405345e-06 1.48722927e-06
      1.86287048e-06 2.39238352e-06 2.12916552e-06 1.78751918e-06
      1.48924687e-06 1.40308191e-06 8.20253945e-07 1.69088594e-07
      -3.53475968e-07 -5.12383735e-07 -7.93146512e-07 -9.09974858e-07
      -7.90019556e-07 -2.52426815e-07 5.00696558e-07 1.29166790e-06
      2.33272021e-06 3.31187516e-06 3.84020086e-06 4.05750188e-06
      4.08752976e-06 3.96704127e-06 3.55272596e-06 2.88812021e-06
      1.83817701e-06 6.60841408e-07 -4.59618548e-07 -1.04617800e-06
      -7.04754427e-07 6.05677712e-07 1.57561431e-06 2.23384950e-06
      2.77583445e-06 3.02181957e-06 2.77024242e-06 2.06128948e-06
      6.03056606e-07 -1.09051200e-06 -2.33279843e-06 -2.46809941e-06
      -1.94566519e-06 -1.47832770e-06 -1.18227149e-06 -1.12172620e-06
      -6.21280151e-07 -6.07142169e-07 -5.36952939e-07 -4.28723354e-07
      -3.28255453e-07 -2.04636663e-07 -6.46963301e-08 5.68801113e-08
      2.43614068e-07 4.51883011e-07 9.11813402e-07 1.55276155e-06
      1.84322857e-06 1.98849443e-06 1.99440615e-06 1.96117298e-06
      1.67968210e-06 1.68691054e-06 1.33151002e-06 1.14379293e-06
      1.38492192e-06 1.66235327e-06 1.92602351e-06 2.28919475e-06
      2.25002213e-06 1.79806409e-06 1.14376576e-06 5.25656162e-07
      1.97590794e-07 3.23976877e-07 7.64804383e-07 1.45872434e-06
      2.19210233e-06 2.69072302e-06 2.76793094e-06 2.52410587e-06
      2.21741402e-06 1.95974872e-06 1.83777297e-06 1.47962839e-06
      1.19572292e-06 9.41655571e-07 6.08599237e-07 -9.25043935e-08
      -4.13296362e-07 -9.01331191e-07 -1.39407791e-06 -1.56113333e-06
      -1.24079384e-06 -7.25877044e-07 -3.36071707e-07 -2.30821513e-07
      2.06256274e-07 1.07334870e-07 -8.68764900e-08 -3.37909228e-07
      -6.77219418e-07 -1.02541389e-06 -1.25744009e-06 -1.22700771e-06
      -8.77860202e-07 -3.31798560e-07 4.10799913e-07 1.44383921e-06
      2.67617133e-06 3.86308693e-06 4.63553124e-06 4.94650294e-06
      4.53598614e-06 3.45774401e-06 2.29955140e-06 1.48561617e-06
      1.14771808e-06 6.92341985e-07 2.03958578e-07 -2.58295699e-07
      -5.79189589e-07 -1.01834337e-06 -1.62415381e-06 -2.21674145e-06
      -2.49454570e-06 -2.37728591e-06 -1.96990368e-06 -1.12256032e-06
      3.76140264e-07 1.89969535e-06 2.85657984e-06 2.80239351e-06
      2.60391562e-06 2.65570588e-06 2.38112148e-06 2.07521339e-06
      1.82803046e-06 1.47947128e-06 8.81491587e-07 5.69340671e-07
      5.07687218e-07 3.19063588e-07 -6.45215010e-08 1.16461209e-07
      6.63667436e-07 1.25530914e-06 1.65346250e-06 1.79549772e-06
      9.60502689e-07 8.78361561e-07 6.90597517e-07 4.09352964e-07
      1.01703691e-07 -1.16731734e-07 -2.05875764e-07 -2.52879346e-07
      -2.41230453e-07 4.68933976e-08 6.52139704e-07 1.45575586e-06
      2.23070333e-06 2.70673354e-06 2.71355566e-06 2.28658155e-06
      1.49222922e-06 5.53584641e-07 -5.43093790e-07 -1.09341181e-06
      -1.01229239e-06 -7.68090729e-07 -5.01861166e-07 -1.30954930e-07
      1.77351737e-07 -1.75326704e-08 -5.83531119e-07 -1.29332352e-06
      -1.91879167e-06 -2.52932296e-06 -3.15178977e-06 -3.54247595e-06
      -3.43172269e-06 -2.84705493e-06 -2.24238465e-06 -1.83851364e-06
      -1.31999207e-06 -8.40147266e-07 -5.38174561e-07 -3.33005886e-07
      -3.42777298e-07 -4.05889182e-07 -2.17692758e-07 5.14966189e-07
      1.19026481e-06 1.56720807e-06 1.66103075e-06 1.49005723e-06
      1.09275072e-06 7.90538081e-07 6.15115312e-07 5.71608723e-07
      2.79129154e-07 3.18668725e-07 3.49323813e-07 3.91084626e-07
      4.30839322e-07 3.73198873e-07 1.68343590e-07 -1.56303642e-07
      -5.13480586e-07 -8.55675864e-07 -1.13916985e-06 -1.35673179e-06
      -1.44212834e-06 -1.34271886e-06 -1.23025904e-06 -1.20819391e-06
      -1.66423490e-06 -2.15772752e-06 -2.12284340e-06 -1.48715674e-06
      -5.40121960e-07 2.65180887e-07 1.03017396e-06 1.80969209e-06
      2.45453407e-06 2.90770163e-06 2.94476786e-06 2.56371709e-06
      1.95881807e-06 1.28180466e-06 4.12116350e-07 -1.05345146e-06
      -2.35493189e-06 -3.17445165e-06 -3.47709965e-06 -3.29057457e-06
      -2.90450430e-06 -2.70173473e-06 -2.75334833e-06 -2.94265624e-06
      -2.97130032e-06 -1.84921851e-06 -7.58683086e-07 1.30415472e-07
      8.20141054e-07 1.31004958e-06 1.60563366e-06 1.65852691e-06
      1.39303336e-06 9.24971459e-07 5.44550858e-07 4.09224270e-07
      3.85307374e-07 5.24886161e-07 9.42094232e-07 1.37133361e-06
      1.58211321e-06 1.62033007e-06 1.79908659e-06 1.88262402e-06
      1.68270935e-06 9.88520242e-07 -6.25439043e-08 -1.14610941e-06
      -2.26122802e-06 -3.02626586e-06 -3.18145999e-06 -2.56385329e-06
      -1.61763921e-06 -1.42050374e-06 -1.57592740e-06 -1.62908748e-06
      -8.42228587e-07 4.86263389e-07 1.18378625e-06 1.70035901e-06
      1.91815866e-06 2.37336781e-06 3.58519264e-06 3.73567809e-06
      3.49993138e-06 2.64034088e-06 1.22461631e-06 3.87660215e-08
      -1.08208417e-06 -1.75500816e-06 -2.01269427e-06 -1.39747738e-06
      -1.73858439e-06 -2.52859741e-06 -2.44591115e-06 -1.94870108e-06
      -1.20167931e-06 -1.05176503e-06 -1.12578687e-06 -1.11098302e-06
      -9.51030870e-07 -6.59801401e-07 -8.16799712e-08 3.10462326e-07
      7.99140537e-07 1.17766820e-06 9.44349893e-07 6.81285997e-07
      5.00950193e-07 4.99016778e-07 5.43814451e-07 6.28894043e-07
      7.70234351e-07 6.73988609e-07 4.93556399e-07 3.80711782e-07
      4.44845028e-07 4.08704096e-07 9.61097228e-08 -3.74457386e-07
      -8.68977679e-07 -1.23506732e-06 -1.17109937e-06 -6.93942411e-07
      -1.49824359e-07 3.41329553e-07 6.90065576e-07 7.59755437e-07
      5.91332935e-07 2.83336931e-07 1.34009284e-07 -2.64631637e-07
      -9.06617970e-07 -1.30358967e-06 -1.45443516e-06 -1.43253328e-06
      -1.23784503e-06 -9.44484611e-07 -9.01885755e-07 -7.68884149e-07
      -5.65024777e-07 -2.07733635e-07 -4.86147549e-08 2.92304542e-10
      2.94449762e-08 2.27087270e-07 3.96047369e-07 2.73947222e-07
      -9.70210934e-09 -1.10339876e-07 -1.38291071e-07 -1.44554102e-08
      -4.52622722e-08 -8.47541202e-08 2.00611183e-07 6.01736986e-07
      7.51999494e-07 6.39294853e-07 5.07889240e-07 4.70030329e-07
      5.70663985e-07 6.34700086e-07 7.24490064e-07 8.86094654e-07
      1.03248749e-06 7.66249968e-07 4.82513485e-07 2.54756685e-07
      2.62805912e-07 4.30458357e-07 3.71716993e-07 -1.34496929e-07
      -6.66217716e-07 -1.01551302e-06 -9.88405986e-07 -7.44105591e-07
      -3.27713508e-07 2.41901660e-07 6.42836483e-07 8.18260958e-07
      6.59402986e-07 2.33585070e-07 -1.38532172e-07 -5.31010755e-07
      -1.11040708e-06 -1.49412915e-06 -1.69858788e-06 -1.66035409e-06
      -1.41334851e-06 -1.01364549e-06 -8.95375706e-07 -8.41507529e-07
      -5.27876921e-07 -1.44189272e-07 -1.23720611e-07 -1.95759355e-07
      -1.52900668e-07 1.88633948e-07 2.02035778e-07 4.51431070e-08
      -1.21117708e-07 -5.39553646e-08 -1.05217424e-07 -2.80244805e-08
      -1.38485689e-07 -2.12797957e-07 2.33787503e-07 6.12893814e-07
      5.18020045e-07 3.15327867e-07 3.20217367e-07 4.08985784e-07
      7.86696091e-07 8.36464665e-07 9.78004778e-07 1.11967881e-06
      1.19331662e-06 7.48401874e-07 3.85086992e-07 1.14214131e-07
      -5.87983280e-08 5.01063795e-08 2.57161702e-07 -2.69446705e-08
      -3.87469498e-07 -5.72426984e-07 -5.89273441e-07 -5.66536471e-07
      -3.93534606e-07 8.86719036e-08 6.24537734e-07 8.14429939e-07
      7.48955358e-07 2.50806295e-07 -3.48159972e-07 -9.14693544e-07
      -1.62263336e-06 -1.99305418e-06 -2.15621822e-06 -2.23836810e-06
      -1.98303383e-06 -1.50103278e-06 -1.05136985e-06 -9.73813485e-07
      -6.38211588e-07 -2.60408257e-07 -2.95707082e-07 -3.60052951e-07
      -1.62386954e-07 2.68415960e-07 5.36917852e-08 -9.88104460e-08
      -1.38811615e-07 9.02205031e-08 -2.23817462e-08 1.17424637e-09
      -4.69412917e-08 -1.45795610e-07 2.00508609e-07 3.50008435e-07
      8.59888729e-08 -1.63312961e-07 -7.23644646e-08 2.19590845e-07
      1.29010198e-06 1.30587182e-06 1.32634511e-06 1.29545288e-06
      1.13252270e-06 6.38488473e-07 3.81866784e-07 3.95169195e-07
      1.41564556e-07 7.02048331e-09 2.28094720e-07 1.27319382e-07
      -1.90844801e-07 -1.69918522e-07 -3.40184073e-07 -2.68308156e-07
      -1.92525704e-07 3.30147394e-08 5.05965488e-07 8.25896450e-07
      8.37792982e-07 3.97762392e-07 -2.03241271e-07 -8.01530405e-07
      -1.77589538e-06 -2.29899342e-06 -2.40132067e-06 -2.65065501e-06
      -2.52041741e-06 -1.89910861e-06 -1.10000713e-06 -9.11106383e-07
      -8.63168907e-07 -5.63182141e-07 -3.47050729e-07 -2.29588665e-07
      -1.09479792e-07 3.12868451e-08 -2.32538653e-07 -1.51021410e-07
      4.25747615e-08 1.78598398e-07 1.78213391e-08 1.14166397e-07
      3.09213675e-07 5.79527999e-08 1.17120301e-07 2.89243047e-07
      1.57671039e-07 -1.09420682e-07 -2.03238955e-07 -2.21326406e-08
      1.13695341e-06 1.14193631e-06 1.41692999e-06 1.41430166e-06
      1.08512779e-06 5.25384962e-07 4.02962542e-07 5.11369706e-07
      4.73835343e-07 3.25931808e-07 4.61040628e-07 3.49035844e-07
      1.00348991e-07 1.15489435e-07 -9.56906163e-08 4.67785597e-08
      1.35471367e-07 1.40498715e-08 2.76271720e-07 7.30069701e-07
      8.28258408e-07 5.39007544e-07 1.41061022e-07 -2.44581400e-07
      -1.24802943e-06 -1.87137857e-06 -2.16685976e-06 -2.54789916e-06
      -2.45043475e-06 -1.75424123e-06 -8.82667621e-07 -6.71630005e-07
      -8.83692962e-07 -7.09066001e-07 -3.80473239e-07 5.07787874e-08
      -3.64675650e-08 -1.26901980e-07 -3.48526868e-07 -2.03528231e-07
      7.78746099e-08 1.71589534e-07 8.01374540e-08 3.04875471e-07
      4.82822315e-07 2.35302124e-07 1.00566602e-07 4.33166576e-07
      7.03248247e-07 5.65556718e-07 3.62511116e-07 3.29513057e-07
      5.24510824e-07 6.33156162e-07 1.18444746e-06 1.47013361e-06
      1.04413539e-06 5.38256018e-07 2.91071473e-07 2.79737151e-07
      3.27527772e-07 3.57529075e-07 4.91295054e-07 4.12627742e-07
      2.39056334e-07 8.36808454e-08 -4.25062385e-09 2.17365880e-07
      3.45289777e-07 2.47966568e-07 1.30872067e-07 3.42177373e-07
      4.16387024e-07 2.36852159e-07 -3.30189494e-08 -1.56984584e-07
      -7.39877180e-07 -1.19649201e-06 -1.26980547e-06 -1.58179125e-06
      -1.59080207e-06 -9.95372147e-07 -2.71495793e-07 -1.68763563e-07
      -6.05199773e-07 -4.78081120e-07 -1.03625069e-07 1.04533008e-07
      5.05984801e-08 -1.23640490e-07 -1.05852564e-07 -8.60929887e-08
      6.27205381e-08 1.56096846e-07 1.70729706e-07 4.21869316e-07
      4.71392639e-07 2.64641670e-07 2.18232117e-07 6.09289430e-07
      1.01318892e-06 1.11084569e-06 1.05173615e-06 1.13618057e-06
      5.49868787e-07 4.49629312e-07 6.94344862e-07 9.84750045e-07
      9.84555413e-07 6.89793865e-07 3.31433370e-07 1.46962421e-07
      1.34972780e-07 4.29437641e-08 2.76393507e-07 2.86229522e-07
      1.94842102e-07 -8.56607727e-08 -1.83593329e-07 2.02593057e-07
      4.45774333e-07 4.44122861e-07 3.53787044e-07 1.81842921e-07
      5.74098635e-08 -4.58584530e-08 -4.11201967e-07 -4.96586665e-07
      -5.68018322e-07 -7.19835953e-07 -4.83994597e-07 -4.09293762e-07
      -4.52366322e-07 -3.29856285e-08 3.61460081e-07 2.37649346e-07
      -7.77086555e-08 -1.11085292e-07 3.35958461e-08 3.98575786e-08
      4.76592028e-08 1.61747433e-08 2.86693222e-07 1.87903993e-07
      1.81552238e-07 2.33982760e-07 3.21817964e-07 4.92426580e-07
      4.48360311e-07 3.65256341e-07 4.05836460e-07 6.38796564e-07
      9.68889026e-07 1.33750711e-06 1.60062734e-06 1.64546316e-06
      2.56005535e-07 4.06892468e-07 7.15392503e-07 9.21381570e-07
      7.48084631e-07 4.79587811e-07 3.01730068e-07 1.98215460e-07
      6.96601603e-08 -1.24980772e-07 -4.19147881e-08 2.54136907e-08
      -7.25803346e-08 -1.51725615e-07 -2.62419803e-07 -1.34627154e-08
      2.39320201e-07 2.64835222e-07 3.59021953e-07 3.15160349e-07
      -1.29003695e-07 -2.67344063e-07 -5.25616144e-07 -7.29445105e-07
      -6.90475758e-07 -4.55975680e-07 -8.64066649e-08 3.65761196e-07
      4.80668177e-07 4.68109050e-07 5.02771456e-07 4.04367967e-07
      4.44414979e-07 2.44079359e-07 1.55595199e-08 -1.42207796e-07
      -2.62321805e-07 -1.67579842e-07 1.17860864e-07 1.64868965e-07
      3.34249393e-07 5.17330591e-07 5.03564365e-07 4.20939188e-07
      2.72116694e-07 2.29331491e-07 2.67063058e-07 4.05209988e-07
      5.61538513e-07 9.70017823e-07 1.44936973e-06 1.62617903e-06
      -1.48980490e-07 2.08914287e-07 5.86445196e-07 9.53584220e-07
      9.60773377e-07 7.33792547e-07 4.45999973e-07 5.68831133e-08
      -9.91805535e-08 -4.08358318e-07 -4.54723420e-07 -3.23677170e-07
      -4.62961452e-07 -2.36441338e-07 -2.38422388e-07 -3.98733874e-07
      -3.42054506e-07 -2.85930753e-07 -2.45906534e-07 -2.51768995e-07
      -4.89277568e-07 -5.74462888e-07 -7.20562241e-07 -1.03329478e-06
      -9.71625013e-07 -5.21253014e-07 3.38467365e-09 4.27653220e-07
      5.01158240e-07 2.75049814e-07 9.15293512e-08 1.08528972e-07
      3.09461285e-07 2.78522606e-07 -4.40221726e-08 -6.32104843e-07
      -7.98646056e-07 -7.63658818e-07 -7.77019238e-07 -4.81829147e-07
      7.44610134e-08 4.66619127e-07 5.03998479e-07 3.65703698e-07
      1.99611407e-07 2.14638121e-07 1.75178357e-07 1.60442795e-07
      3.44410779e-07 8.14266798e-07 1.19930314e-06 1.23773191e-06
      -4.50897204e-07 3.35744454e-09 5.05481523e-07 1.05857157e-06
      1.33217259e-06 1.16982812e-06 7.97303187e-07 3.32804120e-07
      -1.43994512e-07 -4.34475425e-07 -7.26818200e-07 -6.85493546e-07
      -7.44746728e-07 -2.64801400e-07 -2.00599786e-07 -6.28160308e-07
      -8.72418696e-07 -9.14498230e-07 -9.11605298e-07 -1.11655186e-06
      -1.24185590e-06 -9.86961481e-07 -9.86317445e-07 -1.23837776e-06
      -1.31482545e-06 -1.05289007e-06 -4.85781925e-07 -1.32426237e-07
      -1.02812351e-07 -2.67272299e-07 -5.57711076e-07 -6.12557642e-07
      -4.78835773e-07 -4.48515237e-07 -5.96754489e-07 -7.22197171e-07
      -9.62962872e-07 -1.32001878e-06 -1.65986455e-06 -1.49013795e-06
      -6.66455264e-07 -1.03452820e-07 1.39672352e-07 3.53079855e-07
      4.12953597e-07 4.68452299e-07 4.55645704e-07 4.33501924e-07
      7.83740404e-07 1.05267145e-06 1.16352624e-06 1.25815995e-06
      -5.05152627e-07 -9.61590700e-08 4.03419733e-07 9.06328012e-07
      1.30400747e-06 1.34528875e-06 1.30696185e-06 9.90329909e-07
      4.67543430e-07 -6.86078963e-08 -7.59658747e-07 -8.13173131e-07
      -8.15325564e-07 -1.18207559e-07 1.24019195e-07 -2.35491598e-07
      -7.56242741e-07 -1.18168998e-06 -1.47255764e-06 -1.68551185e-06
      -1.73479737e-06 -1.47022229e-06 -1.28903901e-06 -1.23553673e-06
      -1.19414767e-06 -1.26494251e-06 -8.85086365e-07 -5.85647513e-07
      -6.78418871e-07 -9.18445437e-07 -1.38475014e-06 -1.51646009e-06
      -1.36981782e-06 -1.09394909e-06 -7.58877093e-07 -3.81568071e-07
      -3.77875779e-07 -7.89750629e-07 -1.32685932e-06 -1.55264775e-06
      -1.42018462e-06 -6.71680198e-07 -1.91129274e-07 3.41785665e-07
      8.08170967e-07 7.61944591e-07 6.84889699e-07 8.17128921e-07
      1.26904797e-06 1.40218981e-06 1.47914932e-06 1.66546442e-06
      -8.74937029e-08 -5.10229796e-08 2.71859790e-07 7.51464370e-07
      9.71584768e-07 1.23730149e-06 1.41502653e-06 1.22185929e-06
      9.47047283e-07 6.00983185e-07 -2.38663063e-07 -6.28749262e-07
      -3.86584446e-07 4.59372586e-07 9.71902864e-07 8.12648580e-07
      3.11091952e-07 -3.92835517e-07 -1.15202420e-06 -1.62496030e-06
      -1.66976793e-06 -1.59058220e-06 -1.58816215e-06 -1.25667066e-06
      -8.09970004e-07 -9.40260009e-07 -8.70926613e-07 -6.46251863e-07
      -7.34679247e-07 -9.23609434e-07 -1.35025266e-06 -1.48163201e-06
      -1.39189308e-06 -1.18982575e-06 -7.83759390e-07 -1.86372063e-07
      1.27546301e-07 2.93510368e-07 -2.69828728e-08 -6.23294056e-07
      -1.03222555e-06 -8.81269102e-07 -3.10491117e-07 4.48854706e-07
      1.16545596e-06 1.45014099e-06 1.31257025e-06 1.11319196e-06
      1.02868512e-06 9.60707666e-07 1.01480919e-06 1.44253636e-06
      5.62513549e-07 1.88820209e-07 -4.24277005e-08 2.65926076e-07
      5.09331414e-07 9.22218362e-07 1.39977135e-06 1.42004205e-06
      1.18293951e-06 9.79754304e-07 5.06311153e-07 -6.72143727e-08
      5.34499378e-08 9.76193633e-07 1.79650658e-06 2.16879107e-06
      1.95419238e-06 1.02822344e-06 -2.16450052e-10 -6.44569411e-07
      -1.01505429e-06 -1.29539933e-06 -1.54903398e-06 -1.14739396e-06
      -6.11084829e-07 -5.21342940e-07 -6.83364021e-07 -5.48340495e-07
      -3.63182949e-07 -2.34200044e-07 -3.98941694e-07 -6.77302694e-07
      -3.38669878e-07 -4.28850001e-07 -2.85983930e-07 1.34568708e-07
      5.75932290e-07 1.12518421e-06 1.31818524e-06 8.18210481e-07
      1.42255971e-07 -4.37645610e-07 -4.11521654e-07 1.98340473e-07
      1.24946735e-06 1.75122966e-06 1.82695248e-06 1.21890946e-06
      4.19520063e-07 4.09061954e-07 2.82253978e-07 3.87273190e-07
      5.91037178e-07 5.52982897e-07 2.03149099e-07 -7.09821322e-08
      -1.34181022e-07 5.95998983e-07 1.31010893e-06 1.62290303e-06
      1.63236120e-06 1.44580258e-06 1.16930630e-06 6.94543928e-07
      5.67068014e-07 1.27858220e-06 2.06304185e-06 2.98769828e-06
      3.32883405e-06 2.60479646e-06 1.55505825e-06 8.57274301e-07
      2.70033041e-07 -5.52742620e-07 -1.18937089e-06 -8.62062052e-07
      -3.17125796e-07 -2.69148813e-07 -4.28916735e-07 -3.28080432e-07
      6.62965416e-09 3.16765011e-07 5.16091859e-07 5.88499461e-07
      9.80460641e-07 9.89257046e-07 8.32563103e-07 9.59207910e-07
      1.12943508e-06 1.66852328e-06 2.13461135e-06 2.03924992e-06
      1.29209150e-06 7.42809675e-07 -3.32746559e-08 4.49452706e-08
      1.01193245e-06 1.67151529e-06 1.93072037e-06 1.47683090e-06
      5.80620792e-07 1.37146017e-07 -2.40737734e-07 -5.19911566e-07
      8.27939459e-07 7.42514260e-07 4.76639059e-07 2.74773868e-07
      -1.33916302e-07 1.89504718e-07 9.85809947e-07 1.46573905e-06
      1.66027064e-06 1.73138017e-06 1.55814848e-06 1.31098716e-06
      1.11379893e-06 1.21445885e-06 1.88159822e-06 2.77067488e-06
      3.47371702e-06 3.18752222e-06 2.53463577e-06 2.09963127e-06
      1.30624392e-06 2.52193246e-07 -7.25589643e-07 -5.50855475e-07
      -8.22085227e-08 -9.52366577e-08 -1.62009968e-07 -1.25510610e-07
      1.96072492e-07 6.57005501e-07 1.03544085e-06 1.28634326e-06
      1.72933460e-06 1.96816700e-06 1.96191127e-06 1.90714718e-06
      1.77691209e-06 2.00071099e-06 2.34079334e-06 2.51288679e-06
      2.18407013e-06 1.52621965e-06 8.87986005e-07 3.29116290e-07
      8.15817145e-07 1.20806897e-06 1.60193213e-06 1.62974675e-06
      9.86174314e-07 1.19431263e-07 -7.06810170e-07 -1.02626950e-06
      1.25914471e-06 1.20843720e-06 7.21846504e-07 4.43447703e-07
      2.95160021e-07 2.99102652e-07 6.79296988e-07 1.10201393e-06
      1.42060412e-06 1.54858094e-06 1.62016784e-06 1.36786946e-06
      1.47745072e-06 1.09955124e-06 7.53551603e-07 1.39279950e-06
      2.01158082e-06 2.43719114e-06 2.29971010e-06 2.25364261e-06
      1.45898889e-06 4.25522359e-07 -4.57114879e-07 -4.10867614e-07
      -1.00841554e-07 -2.03273970e-07 -1.34178023e-07 -6.85760781e-08
      1.69526814e-07 6.61157685e-07 1.05409845e-06 1.28324257e-06
      1.45648437e-06 1.77735285e-06 1.92144057e-06 1.92421976e-06
      1.87160583e-06 1.93395567e-06 1.99528495e-06 2.09710379e-06
      2.30137289e-06 2.03608670e-06 1.54094005e-06 8.06137734e-07
      6.64274410e-07 5.90207321e-07 8.76856234e-07 1.29282603e-06
      8.54766256e-07 2.15133213e-07 -9.98113137e-07 -1.40362795e-06
      1.29768443e-06 1.40893212e-06 1.00083207e-06 5.73422028e-07
      5.46933336e-07 6.08252094e-07 7.52924166e-07 9.20327636e-07
      1.12865530e-06 1.39561882e-06 1.43076363e-06 1.33463948e-06
      1.32638820e-06 8.81318556e-07 2.12915040e-07 2.52977003e-07
      4.35490421e-07 8.91816228e-07 1.48994980e-06 1.48553181e-06
      8.27928886e-07 1.89674211e-07 -4.85152839e-07 -5.93414541e-07
      -5.82209964e-07 -7.55144754e-07 -5.06099184e-07 -1.44670281e-07
      6.35234016e-08 3.74283331e-07 7.46081525e-07 9.61933210e-07
      9.09598270e-07 9.29061514e-07 1.03695618e-06 1.07166102e-06
      1.04035632e-06 9.36297170e-07 8.97911036e-07 1.02307763e-06
      1.40094380e-06 1.76224785e-06 1.36721326e-06 9.76824481e-07
      4.01254027e-07 1.17135478e-07 2.84488777e-07 9.88817533e-07
      8.71001873e-07 1.40734372e-07 -7.32329511e-07 -1.35465064e-06
      1.18170374e-06 1.35417088e-06 1.12711962e-06 7.82453355e-07
      6.14490943e-07 6.45826162e-07 6.87302418e-07 7.80369760e-07
      9.15653231e-07 1.12341104e-06 1.15357238e-06 1.07844323e-06
      1.05298102e-06 8.07552851e-07 1.13804369e-07 -1.06024149e-08
      -2.28516086e-07 1.85388913e-07 6.61530407e-07 2.75426999e-07
      -4.36987307e-07 -6.11498479e-07 -9.49733817e-07 -1.16607964e-06
      -1.28236127e-06 -1.19807385e-06 -7.50539868e-07 -6.32784776e-08
      7.86009124e-08 1.68596102e-07 4.52667734e-07 6.84681595e-07
      6.50475954e-07 4.18172618e-07 2.20455235e-07 1.47137584e-07
      6.09916100e-08 -1.87972944e-07 -3.71710854e-07 -2.73627080e-07
      1.57301429e-07 5.58215504e-07 6.03047113e-07 6.25933637e-07
      1.04748835e-07 -2.22085589e-07 3.14196207e-08 7.73040767e-07
      9.86936357e-07 3.47303228e-07 -1.25406658e-07 -4.75257110e-07
      1.11585894e-06 1.28136185e-06 1.09270854e-06 6.86572264e-07
      4.66307654e-07 4.45469823e-07 4.61064445e-07 4.78624543e-07
      5.75093054e-07 7.31994987e-07 8.29394025e-07 8.24106110e-07
      7.07371385e-07 6.14062571e-07 2.40334145e-07 -1.95081668e-07
      -3.43202373e-07 -3.14006732e-09 2.17784063e-07 -8.16150347e-08
      -6.45951047e-07 -8.63605464e-07 -1.21554376e-06 -1.64320659e-06
      -1.68145596e-06 -1.34739059e-06 -7.43599117e-07 1.69634532e-07
      4.69490345e-07 2.97306485e-07 3.63519320e-07 5.74561227e-07
      7.36741015e-07 5.79567882e-07 8.36698817e-08 -2.95782769e-07
      -3.93245045e-07 -4.90918808e-07 -6.51318203e-07 -6.98182021e-07
      -6.07195375e-07 -2.52974957e-07 -1.23136715e-07 4.39062084e-08
      -2.50758831e-07 -4.09916709e-07 1.93160314e-08 5.30041916e-07
      7.81233837e-07 5.06395224e-07 2.90258555e-07 3.85985715e-07
      1.24744975e-06 1.28321824e-06 1.06763832e-06 5.99195630e-07
      3.98770908e-07 2.79667603e-07 1.54938022e-07 1.00632576e-07
      1.06844105e-07 1.88175562e-07 3.88177966e-07 5.48642049e-07
      4.22320142e-07 2.33705777e-07 -1.41124531e-07 -5.45203079e-07
      -5.38439792e-07 -1.55699382e-07 8.93902623e-08 -5.44414576e-08
      -4.26539685e-07 -7.12508438e-07 -1.24488304e-06 -1.85309148e-06
      -1.83700411e-06 -1.48100889e-06 -8.72335647e-07 1.28334875e-07
      8.05208742e-07 7.24974313e-07 6.90345473e-07 5.81795973e-07
      7.24556742e-07 7.59476563e-07 2.73374980e-07 -2.76305201e-07
      -4.78702418e-07 -5.36655932e-07 -6.72599015e-07 -7.04769263e-07
      -6.60791500e-07 -5.95985114e-07 -4.27680163e-07 -1.81428405e-07
      -2.37095023e-07 -2.61939391e-07 -8.61641709e-08 2.34737044e-07
      3.15278925e-07 4.53265784e-07 6.44134730e-07 8.30121621e-07
      1.38831047e-06 1.26513078e-06 1.02554088e-06 5.87705642e-07
      4.96190637e-07 2.90819770e-07 5.28451736e-08 -1.41394864e-07
      -1.88418255e-07 -2.17540304e-07 -8.84654980e-08 1.05441643e-07
      2.83019954e-08 -9.03028123e-08 -5.12908116e-07 -8.41656231e-07
      -9.56265239e-07 -5.63006552e-07 -1.51942672e-07 1.43613548e-07
      -5.91812750e-08 -4.27181334e-07 -1.03073580e-06 -1.54154259e-06
      -1.69694079e-06 -1.45983392e-06 -1.07317214e-06 -1.51637522e-07
      8.25443294e-07 9.87232852e-07 1.00577631e-06 7.69984013e-07
      7.46336013e-07 7.45040552e-07 3.71293055e-07 -1.19981024e-07
      -3.92765202e-07 -4.93029233e-07 -5.99369287e-07 -6.47768104e-07
      -5.64453671e-07 -5.01348211e-07 -4.10702256e-07 -3.41037094e-07
      -2.42537766e-07 -2.60498723e-07 -1.99591767e-07 -2.28740703e-07
      -1.75167330e-07 2.82788221e-07 7.96140455e-07 8.76360389e-07
      1.60215825e-06 1.37464963e-06 1.06201310e-06 7.46794001e-07
      5.34712171e-07 1.75185676e-07 -1.07621354e-07 -2.25072625e-07
      -2.48676145e-07 -2.52758980e-07 -2.09138207e-07 -1.52263794e-07
      -2.62794458e-07 -4.89977538e-07 -6.36833818e-07 -7.70994347e-07
      -1.06037635e-06 -8.15576811e-07 -3.29241544e-07 6.34179784e-08
      1.32669811e-07 -2.85814849e-07 -8.71768975e-07 -1.28502586e-06
      -1.38795190e-06 -1.27916064e-06 -1.13469400e-06 -3.42453177e-07
      6.65005473e-07 1.04893263e-06 1.21412165e-06 1.00199134e-06
      8.19065406e-07 5.75538536e-07 2.17334986e-07 -1.56108385e-07
      -3.74613762e-07 -4.68294076e-07 -4.78569291e-07 -6.40643407e-07
      -5.10461007e-07 -2.62990937e-07 -2.16915055e-07 -4.10900213e-07
      -4.68929159e-07 -5.63971128e-07 -6.14023236e-07 -8.02332863e-07
      -6.12745112e-07 -2.54384418e-07 1.61453897e-07 1.53493573e-07
      1.74606737e-06 1.51253073e-06 1.15209707e-06 7.96739755e-07
      4.83427641e-07 2.95016118e-08 -3.40588826e-07 -3.65789163e-07
      -2.86678329e-07 -2.82878688e-07 -3.01507271e-07 -2.71924762e-07
      -4.70877154e-07 -8.67339395e-07 -8.60056616e-07 -7.39517532e-07
      -9.02712600e-07 -1.00145462e-06 -6.22751884e-07 -1.43475546e-07
      7.78525902e-08 -5.75770116e-07 -1.03661660e-06 -1.28486431e-06
      -1.28813156e-06 -1.19941808e-06 -1.03483762e-06 -3.99904764e-07
      4.53163295e-07 8.01834005e-07 1.02474621e-06 1.07527080e-06
      7.49247647e-07 4.36010822e-07 -4.80185420e-08 -5.79754442e-07
      -7.52612948e-07 -5.79804180e-07 -4.57855862e-07 -5.99596206e-07
      -6.00544865e-07 -2.89632339e-07 -1.89110352e-07 -5.23369806e-07
      -6.50344361e-07 -8.11870962e-07 -8.51544257e-07 -1.02207912e-06
      -8.79840059e-07 -6.94203436e-07 -6.71573332e-07 -6.12203735e-07
      1.78130017e-06 1.58175760e-06 1.25551196e-06 8.66817174e-07
      4.40863204e-07 -3.75817422e-08 -3.53283895e-07 -3.55862483e-07
      -2.92554006e-07 -3.29364639e-07 -3.59080701e-07 -2.88351146e-07
      -5.30899854e-07 -8.96534289e-07 -9.21168407e-07 -8.03961370e-07
      -1.01338946e-06 -1.18286346e-06 -9.36350546e-07 -5.13612520e-07
      -1.65981589e-07 -6.66656888e-07 -1.25817110e-06 -1.42610975e-06
      -1.29276884e-06 -1.15886382e-06 -9.15052283e-07 -2.72417338e-07
      3.98048911e-07 4.93911045e-07 6.71136547e-07 8.75399564e-07
      6.13791713e-07 2.59801823e-07 -2.55395094e-07 -8.63221260e-07
      -1.12789076e-06 -9.45755630e-07 -6.15450119e-07 -6.51876803e-07
      -7.42069403e-07 -5.09462950e-07 -2.89127058e-07 -5.79608241e-07
      -6.91477851e-07 -7.61463525e-07 -9.04690694e-07 -9.56125177e-07
      -8.44409897e-07 -8.56799545e-07 -8.45356624e-07 -8.03739226e-07
      1.66487996e-06 1.47924675e-06 1.17475133e-06 8.72060411e-07
      4.86520150e-07 -3.91493451e-08 -2.66525717e-07 -2.03056160e-07
      -2.14659124e-07 -2.98421327e-07 -3.31345660e-07 -2.09993090e-07
      -4.80196036e-07 -7.50448123e-07 -7.85169505e-07 -8.63830621e-07
      -1.23554628e-06 -1.44998899e-06 -1.17305490e-06 -6.81130643e-07
      -1.41445952e-07 -3.34481172e-07 -9.60877173e-07 -1.39343979e-06
      -1.39030828e-06 -1.10616202e-06 -7.47318950e-07 -1.84563021e-07
      3.83856502e-07 3.83177650e-07 4.44628597e-07 4.49342849e-07
      2.28931953e-07 1.50057744e-08 -3.35285137e-07 -8.56376971e-07
      -1.20694733e-06 -1.06874643e-06 -6.99325426e-07 -5.80483970e-07
      -6.66042183e-07 -5.74097669e-07 -4.07610372e-07 -4.76634938e-07
      -4.95727306e-07 -4.82724261e-07 -6.61143304e-07 -7.17773446e-07
      -5.94746496e-07 -7.09569065e-07 -7.47230786e-07 -6.22972038e-07
      1.64072446e-06 1.40227758e-06 1.05875495e-06 7.91979176e-07
      5.11806832e-07 9.36875608e-08 -1.42503310e-07 -5.12061362e-08
      -1.04588651e-07 -2.05329741e-07 -3.12690446e-07 -2.70604687e-07
      -3.58896926e-07 -5.83997917e-07 -7.87951535e-07 -1.10463100e-06
      -1.45280706e-06 -1.56983992e-06 -1.41125759e-06 -9.19383808e-07
      -3.38769240e-07 -1.86741943e-07 -4.96535222e-07 -9.10611504e-07
      -1.13679391e-06 -8.76331399e-07 -4.98400141e-07 -7.03717262e-08
      4.06628601e-07 4.27586968e-07 4.51194836e-07 4.01353816e-07
      2.19979299e-07 -1.20247437e-10 -6.09890037e-07 -1.13301871e-06
      -1.39033068e-06 -1.15364446e-06 -6.79250888e-07 -3.49283795e-07
      -2.98095017e-07 -2.72212731e-07 -3.09393187e-07 -3.45664603e-07
      -2.58213589e-07 -2.41436254e-07 -3.24065383e-07 -3.83117595e-07
      -2.19403148e-07 -1.95995966e-07 -2.13584286e-07 -1.20404664e-07
      1.81008738e-06 1.64909079e-06 1.24721555e-06 9.11902589e-07
      6.98619090e-07 3.05046285e-07 9.82692399e-08 1.39980926e-07
      5.99488192e-09 -1.38918736e-07 -3.00237076e-07 -2.51166711e-07
      -3.75160653e-07 -5.50382140e-07 -7.98104963e-07 -1.11915915e-06
      -1.36306915e-06 -1.46009552e-06 -1.33605761e-06 -9.81353992e-07
      -4.70408395e-07 -2.73104973e-07 -3.23197980e-07 -4.09699879e-07
      -4.07589170e-07 -2.30637681e-07 -1.65507572e-07 1.26963826e-08
      3.16551507e-07 3.75054611e-07 3.54235311e-07 1.89709368e-07
      2.61148386e-07 1.69948905e-07 -3.04521024e-07 -9.39424240e-07
      -1.29091006e-06 -1.03230286e-06 -5.80824860e-07 -1.83606119e-07
      1.17535443e-07 2.24626064e-07 3.24389369e-08 -2.03163566e-08
      -9.85142421e-08 -1.85351126e-07 -1.38115439e-07 -7.81353080e-08
      4.21950759e-08 2.25862138e-07 3.12656510e-07 2.60599109e-07
      2.17911588e-06 1.99142255e-06 1.52558971e-06 1.12580938e-06
      8.99394649e-07 6.11331870e-07 3.95509176e-07 3.58018951e-07
      2.38084425e-07 -7.96311994e-09 -1.18476230e-07 -9.48297370e-08
      -2.10761684e-07 -4.80719336e-07 -9.31268744e-07 -9.81420158e-07
      -8.90156002e-07 -7.72100009e-07 -8.26648034e-07 -6.17294859e-07
      -1.86307901e-07 2.20918338e-07 2.63443525e-07 1.38423502e-07
      1.77895970e-07 2.91354212e-07 2.12951306e-07 1.38946149e-07
      1.28783583e-07 1.13862953e-07 -2.68946945e-08 -3.28925921e-07
      -4.01970198e-07 -2.05499646e-07 -3.08171280e-07 -7.58979297e-07
      -9.71608415e-07 -7.90567981e-07 -3.75882848e-07 9.60931104e-08
      3.51102301e-07 3.63514062e-07 2.27243831e-07 1.68304425e-07
      -1.92586462e-08 -1.66834738e-07 -1.02232789e-07 -8.29350366e-09
      1.32531852e-07 3.91114526e-07 6.11077041e-07 4.79821267e-07
      2.48465199e-06 2.26877250e-06 1.70935368e-06 1.18463720e-06
      8.71713553e-07 7.39238772e-07 6.43781675e-07 6.00342901e-07
      5.38218387e-07 2.55429597e-07 1.66215699e-07 6.50932321e-08
      -2.29882872e-07 -7.20686842e-07 -9.44433793e-07 -7.05449963e-07
      -2.52255404e-07 2.26992611e-07 1.78306095e-07 6.57284502e-08
      3.48468745e-07 6.88170530e-07 9.00345356e-07 7.97292387e-07
      6.00837836e-07 4.32827619e-07 2.48182573e-07 1.81367838e-07
      -1.85853679e-08 -3.19485594e-08 -9.62304512e-08 -3.80625039e-07
      -5.51727339e-07 -2.43995913e-07 -1.38593464e-07 -4.54455005e-07
      -5.89920603e-07 -5.10517793e-07 -1.97751987e-07 2.12150724e-07
      5.60055014e-07 6.10046925e-07 4.09955220e-07 2.76134415e-07
      4.34925838e-08 -1.89907453e-07 -1.68617504e-07 -1.58408497e-07
      4.79650346e-08 4.28770420e-07 6.90344791e-07 6.43443570e-07
      2.59672447e-06 2.35951961e-06 1.75494233e-06 1.08888514e-06
      6.57306657e-07 5.56420787e-07 6.02253294e-07 5.96843847e-07
      7.02073180e-07 4.77220567e-07 2.41115259e-07 -5.09861664e-09
      -6.42592795e-07 -1.30996250e-06 -1.53134590e-06 -7.68240625e-07
      1.76439372e-07 1.06337677e-06 1.30705428e-06 1.17101013e-06
      1.16474382e-06 1.24153416e-06 1.36308847e-06 1.32710591e-06
      7.43085820e-07 2.92142289e-07 -1.07876467e-07 -1.74936829e-07
      -2.69104845e-07 -8.90078695e-08 1.10113042e-07 1.65092217e-07
      -5.50840129e-09 1.71712500e-07 4.08110196e-07 2.64925205e-07
      1.79918729e-07 2.34663304e-07 3.03185772e-07 4.75101757e-07
      8.43096757e-07 8.81814174e-07 6.09605934e-07 4.45080474e-07
      2.05935208e-07 -7.35737515e-08 -3.69395146e-08 -1.22826350e-07
      -1.48308928e-07 2.32195219e-07 5.30918783e-07 5.57932481e-07
      2.31171180e-06 2.17278694e-06 1.61442199e-06 9.73004603e-07
      5.03241949e-07 3.41473623e-07 4.35307385e-07 3.03360679e-07
      4.51421812e-07 4.63461305e-07 2.87213204e-08 -5.85455098e-07
      -1.12953626e-06 -1.92693346e-06 -2.19341155e-06 -1.76781862e-06
      -7.99156908e-07 6.00562032e-07 1.44378066e-06 1.65773599e-06
      1.92452922e-06 2.01516718e-06 1.90017977e-06 1.71942349e-06
      1.13034321e-06 1.91574671e-07 -3.65199327e-07 -6.20742185e-07
      -7.71514124e-07 -5.20235233e-07 -7.05122858e-08 3.40295657e-07
      4.48293889e-07 5.86134604e-07 5.43032115e-07 4.63986140e-07
      4.95395739e-07 5.81336963e-07 6.70019801e-07 7.16130785e-07
      8.93531876e-07 8.93353899e-07 7.95350786e-07 6.77596120e-07
      5.65042342e-07 2.04497439e-07 2.67259367e-07 2.01014828e-07
      8.75344419e-09 1.56992314e-07 3.02144002e-07 4.05719817e-07
      1.84186729e-06 1.79407925e-06 1.41967837e-06 9.22860806e-07
      4.81773895e-07 2.51247911e-07 3.28698746e-07 7.47347570e-08
      6.37827355e-08 -1.34147777e-08 -4.39125898e-07 -1.10881069e-06
      -1.45694287e-06 -1.93209621e-06 -2.67885980e-06 -2.87869534e-06
      -2.29552165e-06 -1.30549643e-06 -3.50953940e-07 3.26073945e-07
      1.14145553e-06 2.03655486e-06 2.17877528e-06 1.96207293e-06
      1.24756161e-06 3.48017238e-07 -2.56575333e-07 -4.83388988e-07
      -7.42517841e-07 -7.61026172e-07 -5.36142920e-07 7.05718008e-08
      4.58116460e-07 2.32821577e-07 -1.56566770e-07 -7.21693027e-07
      -7.49189439e-07 -5.18663796e-07 -1.63376740e-07 1.23246707e-07
      3.11623126e-07 5.84191355e-07 6.56889029e-07 7.14471639e-07
      6.51369760e-07 3.81033090e-07 3.52280580e-07 3.17782991e-07
      1.64788176e-07 2.09724234e-07 1.49870672e-07 2.36816575e-07
      1.65155620e-06 1.55775751e-06 1.21863820e-06 8.48233640e-07
      4.60955192e-07 1.76350397e-07 1.59761669e-07 -1.69174221e-08
      -1.69254065e-07 -4.58546367e-07 -9.20366801e-07 -1.58904049e-06
      -1.80543236e-06 -1.74607544e-06 -2.44546618e-06 -2.97155225e-06
      -2.96478834e-06 -2.56700014e-06 -2.22171161e-06 -1.43181171e-06
      -5.14894850e-07 7.99145255e-07 1.75151968e-06 1.83687246e-06
      1.22758991e-06 5.79713856e-07 1.73606026e-07 -2.21933334e-08
      -2.62529795e-07 -3.97527032e-07 -5.23002598e-07 -3.81764920e-07
      -6.05584773e-08 -3.28998112e-07 -8.24237986e-07 -1.52582459e-06
      -1.76767776e-06 -1.69830844e-06 -1.49047298e-06 -1.04657204e-06
      -6.28282578e-07 -2.58651454e-07 1.88317955e-07 5.64674394e-07
      5.81404720e-07 3.43537920e-07 2.81349202e-07 2.08260602e-07
      1.03089263e-07 1.84512771e-07 7.34080672e-08 9.42640952e-08
      1.62628965e-06 1.52764346e-06 1.12805697e-06 8.20601940e-07
      5.05201228e-07 1.75634426e-07 7.09973165e-08 -4.27346549e-08
      -3.36119029e-07 -4.75372843e-07 -1.06159848e-06 -1.96472342e-06
      -2.28204362e-06 -2.06618438e-06 -1.96160340e-06 -2.05329388e-06
      -2.07910125e-06 -2.17636716e-06 -2.26889233e-06 -2.08008260e-06
      -1.57803856e-06 -6.24645963e-07 5.22928985e-07 1.28089141e-06
      1.17329796e-06 8.44292799e-07 5.81742370e-07 3.58091853e-07
      1.50958854e-07 1.21703636e-07 1.41639291e-07 -8.99208263e-09
      1.27987860e-07 -8.24139335e-08 -7.76330921e-07 -1.49806476e-06
      -1.76690071e-06 -1.72048374e-06 -1.53758617e-06 -1.23331699e-06
      -1.08270058e-06 -7.00366968e-07 1.27141604e-07 8.20108994e-07
      8.33664217e-07 5.41591987e-07 3.65405384e-07 1.33713044e-07
      -3.14352171e-08 -6.19167606e-10 -7.01992491e-08 -1.35622670e-07
      1.62715094e-06 1.58564433e-06 1.21454468e-06 8.59212378e-07
      5.81748907e-07 3.03214676e-07 1.05144522e-07 -1.80874466e-07
      -5.28925966e-07 -5.28059616e-07 -7.04938373e-07 -1.50669166e-06
      -2.15305249e-06 -2.36369669e-06 -2.37603308e-06 -1.88942533e-06
      -1.22324491e-06 -1.11914608e-06 -1.24361520e-06 -1.50027552e-06
      -1.39422468e-06 -1.03956313e-06 -2.62091504e-07 5.37267965e-07
      9.64177389e-07 9.75585181e-07 8.41109681e-07 4.86676242e-07
      1.54282787e-07 1.98370941e-07 4.36119080e-07 4.96699499e-07
      7.22368384e-07 6.08695473e-07 -6.75964245e-08 -7.64992876e-07
      -1.23642189e-06 -1.34798790e-06 -1.16449769e-06 -9.17794637e-07
      -8.46996443e-07 -5.44228556e-07 3.13485259e-07 1.04409503e-06
      1.00235195e-06 7.26979920e-07 6.16592388e-07 3.52410751e-07
      1.31245216e-07 -8.58084022e-08 -1.33858819e-07 -1.99321661e-07
      1.50524829e-06 1.35864650e-06 1.11874272e-06 7.63782850e-07
      4.27877637e-07 3.07181637e-07 1.94318446e-07 -2.85249115e-07
      -6.66468338e-07 -6.24813993e-07 -6.36609684e-07 -7.98391795e-07
      -1.13663691e-06 -1.49404696e-06 -2.04034745e-06 -1.93762685e-06
      -1.23695236e-06 -5.43798251e-07 -2.81654309e-07 -4.70286238e-07
      -5.23031360e-07 -4.62852398e-07 -5.15347551e-07 6.03082242e-08
      6.77159051e-07 8.96422307e-07 9.55770588e-07 6.59582895e-07
      2.75596591e-07 3.20138327e-07 1.70902652e-07 1.00570844e-07
      2.47224335e-07 3.96998360e-07 1.65967222e-07 -6.35788595e-08
      -5.10129951e-07 -1.09514804e-06 -1.12337727e-06 -8.42493193e-07
      -9.32199100e-07 -6.87491934e-07 9.95432927e-08 6.15661520e-07
      5.94007702e-07 5.55644931e-07 6.08784603e-07 4.92836364e-07
      4.76140798e-07 1.44409441e-07 -1.51270996e-07 -2.71750082e-07
      1.34261222e-06 1.15694252e-06 8.30247870e-07 3.85057007e-07
      7.85805128e-08 7.67972708e-08 2.76788992e-08 -3.15589574e-07
      -3.58107513e-07 -3.65745279e-07 -6.86169130e-07 -8.26421399e-07
      -5.99087969e-07 -4.04553049e-07 -8.35083824e-07 -1.46767127e-06
      -1.38448377e-06 -7.62109778e-07 -1.50808404e-07 -6.17872757e-08
      -2.40513334e-08 -1.29509781e-08 -3.06316053e-07 -1.56548438e-07
      2.53718923e-07 6.27910140e-07 9.36311551e-07 8.15243482e-07
      6.44386034e-07 7.81221445e-07 4.24796781e-07 -3.04490300e-07
      -3.38068247e-07 -2.05532487e-07 -1.49327875e-07 -4.04549327e-09
      -3.47882320e-07 -7.72348983e-07 -8.88848433e-07 -6.02455202e-07
      -5.89395086e-07 -5.85857322e-07 -5.51828521e-07 -4.07833795e-07
      -2.63601549e-07 -1.43670093e-07 3.78811249e-09 3.82308869e-08
      1.88191692e-07 1.17062143e-07 -2.25914192e-07 -4.79785115e-07
      9.99242047e-07 8.40639359e-07 4.39582266e-07 -3.40033246e-08
      -4.52904771e-07 -5.16481293e-07 -4.34318764e-07 -6.38106940e-07
      -1.18098669e-07 1.48486464e-07 -2.85081228e-07 -7.33457057e-07
      -6.78347874e-07 -1.15703372e-07 -9.19270615e-09 -5.35863194e-07
      -1.10981512e-06 -1.13214946e-06 -5.54434507e-07 -2.20619881e-07
      -1.88867944e-09 2.39819883e-07 7.28376293e-08 -1.31041148e-07
      -1.68188265e-07 7.41577599e-09 4.59653137e-07 4.60502179e-07
      8.05047023e-07 1.30294109e-06 1.06605739e-06 -4.34526513e-08
      -5.31197315e-07 -6.31042610e-07 -4.23964138e-07 -3.84041329e-07
      -3.37845023e-07 -4.93034065e-07 -6.02142165e-07 -2.61947918e-07
      -2.68557443e-07 -3.87188976e-07 -4.64270897e-07 -6.74493037e-07
      -8.31525483e-07 -8.58524629e-07 -8.67465474e-07 -9.15895328e-07
      -6.34660466e-07 -3.60493090e-07 -3.25842933e-07 -6.33466584e-07
      6.85283936e-08 9.29214252e-08 -6.45346248e-08 -3.21364951e-07
      -7.45662646e-07 -1.00437319e-06 -1.01030696e-06 -9.95471964e-07
      -5.48832986e-07 -1.41046232e-08 -1.50560400e-08 -3.09854642e-07
      -3.97912800e-07 -3.62477863e-07 2.26951293e-08 1.06534365e-07
      -3.13544803e-07 -8.47690160e-07 -9.64437277e-07 -5.90034801e-07
      3.89833090e-08 4.87162026e-07 4.88783428e-07 6.76206753e-08
      -3.72557707e-07 -6.01058446e-07 -3.25540242e-07 -1.24818243e-07
      5.45051421e-07 1.46545392e-06 1.47095614e-06 3.06080437e-07
      -4.52310019e-07 -5.80380231e-07 -4.46023819e-07 -3.70222665e-07
      -3.49589016e-07 -4.02682730e-07 -5.92340314e-07 -3.17035159e-07
      -3.82146027e-07 -6.21355639e-07 -3.98335203e-07 -3.35792379e-07
      -7.50523043e-07 -9.83560426e-07 -1.08036613e-06 -1.28699583e-06
      -1.18376511e-06 -6.73963200e-07 -2.71187218e-07 -4.79524090e-07
      -8.86998237e-07 -7.46258820e-07 -7.79488687e-07 -9.20459229e-07
      -1.09452264e-06 -1.20443019e-06 -1.17875607e-06 -1.27275439e-06
      -1.13939245e-06 -6.80484163e-07 -4.04481170e-07 -2.76493580e-07
      -3.03930022e-07 -3.52661488e-07 1.24380408e-08 6.23121878e-07
      5.08947949e-07 -1.70648349e-07 -7.09385176e-07 -5.33837238e-07
      -1.04759287e-07 9.64268736e-08 5.05737461e-08 -1.76760196e-07
      -2.65723713e-07 -6.29738679e-07 -9.06619448e-07 -6.20270669e-07
      1.24323648e-07 9.90154149e-07 1.27427097e-06 5.10561279e-07
      -1.42522495e-07 -1.01480936e-07 3.11969082e-08 -3.52974325e-08
      -2.52486331e-07 -4.27398902e-07 -6.22441746e-07 -5.48654157e-07
      -6.12010354e-07 -7.40557709e-07 -4.29279140e-07 -7.94390189e-08
      -4.45849423e-07 -8.67566484e-07 -8.23602079e-07 -9.37327798e-07
      -8.23561436e-07 -3.13004506e-07 -1.49056874e-08 -1.96662000e-07
      -1.39305064e-06 -1.25689155e-06 -1.34523020e-06 -1.44362980e-06
      -1.53919427e-06 -1.63475602e-06 -1.44972137e-06 -1.44385979e-06
      -1.51831421e-06 -1.28180159e-06 -8.87334863e-07 -5.87000102e-07
      -6.32214778e-07 -7.00227986e-07 -6.91137885e-08 4.46256308e-07
      5.19507637e-07 2.84415393e-07 2.99134467e-11 -3.60118015e-08
      -1.60413833e-07 -3.52706081e-07 -6.50110394e-07 -7.66457219e-07
      -5.53964128e-07 -6.24365498e-07 -9.29840155e-07 -8.63273272e-07
      -5.22960590e-07 -6.89547051e-08 4.08941730e-07 4.18790449e-07
      2.92076038e-07 3.17101950e-07 2.85494849e-07 1.55232286e-07
      -4.32895284e-08 -2.44325804e-07 -5.85156158e-07 -7.15518354e-07
      -6.76421394e-07 -6.59877969e-07 -4.83495000e-07 -1.47253933e-08
      6.26218579e-08 -2.00312670e-07 -3.05697569e-07 -5.42948328e-07
      -4.84177406e-07 3.93116402e-08 5.67954089e-07 5.59478508e-07
      -1.06954053e-06 -1.12111081e-06 -1.46511377e-06 -1.80754819e-06
      -1.91901017e-06 -2.08576148e-06 -1.91192862e-06 -1.82496615e-06
      -1.90139701e-06 -1.81588393e-06 -1.27221051e-06 -8.18208491e-07
      -8.22184518e-07 -8.78877756e-07 -4.26501430e-07 3.86324608e-08
      1.17633370e-07 2.05579624e-07 5.41415318e-07 5.70006705e-07
      -1.48936099e-08 -5.00699571e-07 -8.45893851e-07 -1.03803529e-06
      -9.71726308e-07 -9.81654466e-07 -1.20773984e-06 -1.03819855e-06
      -5.70880445e-07 -5.01648572e-07 -6.12399845e-07 5.41567360e-08
      4.01156086e-07 2.92262570e-07 -1.64866663e-07 -3.53556942e-07
      -3.20443007e-07 -9.01189665e-08 -2.67226056e-07 -5.14919918e-07
      -5.45924991e-07 -4.41587531e-07 -3.64772632e-07 -7.54128138e-08
      1.17509778e-07 9.06760391e-08 -7.42971906e-08 -3.18187830e-07
      -5.02827845e-07 -1.37012577e-07 6.81060897e-07 9.29312534e-07
      -4.84375562e-07 -5.14179590e-07 -1.00048840e-06 -1.59151762e-06
      -1.87211560e-06 -2.13723433e-06 -2.01240096e-06 -1.96727592e-06
      -2.05067067e-06 -1.84329622e-06 -1.39326664e-06 -8.81800361e-07
      -9.23095172e-07 -8.98305757e-07 -4.65338616e-07 -1.64627906e-07
      -1.09705297e-07 2.91236887e-07 8.74601938e-07 8.91457489e-07
      2.36319352e-07 -1.90371537e-07 -6.72368458e-07 -1.32409207e-06
      -1.61185119e-06 -1.47886396e-06 -1.62574588e-06 -1.55341888e-06
      -1.11939198e-06 -1.10723670e-06 -1.17101081e-06 -4.54878943e-07
      2.40258373e-07 -1.35687600e-07 -7.54299720e-07 -1.02764841e-06
      -9.78738399e-07 -6.73325758e-07 -4.10117622e-07 -4.44655370e-07
      -3.95869534e-07 -2.44618178e-07 -1.16683353e-07 -1.98052476e-07
      -2.57617671e-07 -2.81531612e-07 -2.52217262e-07 -2.55741412e-07
      -4.71478899e-07 -4.06872005e-07 3.27695261e-07 7.51687196e-07
      -4.76529500e-08 3.68961253e-08 -2.96850061e-07 -7.60004127e-07
      -1.28603369e-06 -1.78491280e-06 -1.72894386e-06 -1.58227124e-06
      -1.62475374e-06 -1.38083283e-06 -1.01327612e-06 -5.19882576e-07
      -5.61070863e-07 -6.34805190e-07 -4.88555258e-07 -4.14928536e-07
      -3.05353609e-07 9.07627253e-08 6.88282341e-07 6.65937932e-07
      2.64963660e-07 8.17567738e-08 -2.97287130e-07 -1.20572918e-06
      -1.95620146e-06 -2.01998341e-06 -1.91823074e-06 -1.82750659e-06
      -1.45301613e-06 -1.30264982e-06 -1.43696957e-06 -1.04331616e-06
      -1.96510925e-07 -5.89799697e-07 -1.34779134e-06 -1.36452013e-06
      -1.26703776e-06 -1.11441727e-06 -9.62188551e-07 -6.88862144e-07
      -2.84191884e-07 2.05696850e-07 4.77609433e-07 3.30608657e-07
      -5.20801962e-08 -3.81294228e-07 -4.25413390e-07 -3.58021083e-07
      -4.19705742e-07 -3.50142244e-07 1.67037868e-07 5.38927736e-07
      3.74509398e-07 3.78501682e-07 3.19886965e-07 6.95762514e-09
      -5.46741546e-07 -1.15160310e-06 -1.35047515e-06 -1.21921175e-06
      -9.29407918e-07 -6.62952971e-07 -3.83352216e-07 3.11062394e-08
      1.81314178e-07 6.73601761e-08 -1.52055648e-08 -1.68685872e-07
      -3.98272874e-07 -3.14396686e-07 -1.25881652e-08 1.20416246e-07
      -1.86523110e-07 -2.85704573e-07 -5.08093251e-07 -1.02057561e-06
      -1.68114536e-06 -2.09403152e-06 -1.92625066e-06 -1.84363307e-06
      -1.71441400e-06 -1.47442631e-06 -1.38589769e-06 -1.21667335e-06
      -6.71890916e-07 -8.60693888e-07 -1.36539029e-06 -1.37437291e-06
      -1.02198339e-06 -9.33619162e-07 -9.29051623e-07 -8.23370272e-07
      -3.11505886e-07 5.53047812e-07 8.98184169e-07 9.36907043e-07
      5.84197210e-07 1.93537488e-07 -1.36489433e-08 7.38882875e-08
      -6.04659149e-08 1.73937824e-08 4.05896202e-07 6.56788586e-07
      4.36522441e-07 5.83479732e-07 6.26796520e-07 3.75663660e-07
      -2.14090093e-07 -7.36708103e-07 -8.63081652e-07 -8.85600684e-07
      -6.18211629e-07 -2.09421799e-07 2.40236830e-09 -4.20569829e-10
      7.02056724e-08 5.00499588e-08 2.72948824e-07 3.95482999e-07
      -2.93164732e-07 -5.53875054e-07 -5.47710329e-07 -4.75174176e-07
      -7.70472354e-07 -1.16156343e-06 -1.36200401e-06 -1.51610197e-06
      -1.74920149e-06 -2.04333764e-06 -2.12782106e-06 -2.09559403e-06
      -2.12627901e-06 -2.05262722e-06 -1.75572404e-06 -1.48945435e-06
      -1.00596026e-06 -8.89451087e-07 -9.96451263e-07 -1.03415391e-06
      -7.29656506e-07 -7.60483601e-07 -9.37505490e-07 -8.74413558e-07
      -3.09921887e-07 5.70393865e-07 1.11037502e-06 1.19159051e-06
      8.97743746e-07 8.46745252e-07 6.40002497e-07 5.66098606e-07
      5.30894852e-07 5.96495852e-07 9.04194280e-07 1.11758095e-06
      1.91774362e-07 4.51846859e-07 6.92695664e-07 7.48685466e-07
      3.87925567e-08 -3.70130806e-07 -4.97297833e-07 -5.90885008e-07
      -5.63838114e-07 -5.30540717e-07 -4.63208323e-07 -3.75254928e-07
      -4.41293963e-07 -3.59315663e-07 -2.10128377e-07 1.45648542e-07
      6.58021477e-08 -3.35975955e-07 -5.42512112e-07 -5.50251741e-07
      -1.05944309e-06 -1.46615753e-06 -1.78227765e-06 -1.78653329e-06
      -1.93887877e-06 -1.96900874e-06 -1.89539105e-06 -1.79559026e-06
      -2.00828708e-06 -2.48942320e-06 -2.35146035e-06 -1.78523453e-06
      -1.25093925e-06 -1.13987460e-06 -9.91384013e-07 -7.86962573e-07
      -4.63561122e-07 -7.61991487e-07 -8.82912730e-07 -8.80405366e-07
      -5.37001654e-07 1.31218130e-07 9.07116601e-07 1.28795841e-06
      1.21054302e-06 1.27930809e-06 1.12522798e-06 8.52188691e-07
      8.34860998e-07 9.35322475e-07 1.37036568e-06 1.80827021e-06
      2.81193564e-07 3.92793027e-07 6.33072545e-07 7.18154183e-07
      4.60014235e-07 4.53640645e-08 -2.70028096e-07 -3.11489970e-07
      -4.06010059e-07 -6.98489259e-07 -7.71624002e-07 -5.31930937e-07
      -4.26028890e-07 -3.20256277e-07 -4.13498810e-07 -1.41997305e-07
      -2.61693813e-08 -1.64840117e-07 -4.58993497e-07 -4.25504140e-07
      -8.99739803e-07 -1.14005741e-06 -1.44897899e-06 -1.67850726e-06
      -1.90663593e-06 -1.83966051e-06 -1.47995547e-06 -1.32814989e-06
      -1.56536248e-06 -2.09496170e-06 -2.35595144e-06 -1.88010483e-06
      -1.16494232e-06 -1.05688241e-06 -7.66232176e-07 -7.78037929e-07
      -7.67847609e-07 -6.44447596e-07 -5.87101965e-07 -7.29372516e-07
      -6.91149125e-07 -3.10867961e-07 1.31323674e-07 8.58376950e-07
      1.29769535e-06 1.42742738e-06 1.30605929e-06 9.16528847e-07
      8.00461294e-07 7.03107730e-07 1.00842863e-06 1.72819500e-06
      1.01684032e-06 9.46754596e-07 7.65322397e-07 7.94600226e-07
      6.62420121e-07 3.28111327e-07 -2.69279887e-08 -1.34510628e-07
      -2.52077882e-07 -6.22048958e-07 -7.72677993e-07 -5.30503371e-07
      -3.19155987e-07 -1.29719240e-07 -1.14894512e-07 -5.48009496e-08
      4.01686968e-08 -2.66212737e-07 -6.93915808e-07 -5.42908822e-07
      -7.67590961e-07 -9.19359763e-07 -9.41014775e-07 -1.05247170e-06
      -1.47843878e-06 -1.42747183e-06 -1.10789790e-06 -8.97520295e-07
      -1.09382461e-06 -1.28969157e-06 -1.77052220e-06 -1.91587287e-06
      -1.63034372e-06 -1.04315086e-06 -3.73476155e-07 -4.45497705e-07
      -8.65593449e-07 -8.29629698e-07 -5.36404400e-07 -3.84033143e-07
      -3.62619033e-07 -4.03917454e-07 -5.12430688e-07 -1.00064987e-07
      5.49851791e-07 9.92674927e-07 8.87163026e-07 5.42428950e-07
      3.96217416e-07 2.23672899e-07 2.24267907e-07 7.47182469e-07
      2.01176454e-06 1.78909193e-06 1.35289054e-06 1.14904583e-06
      9.90977924e-07 6.70831071e-07 3.19517000e-07 1.76414801e-07
      -1.32188589e-07 -6.14027613e-07 -8.17548198e-07 -5.96524501e-07
      -2.66483454e-07 -9.19494738e-08 -1.35381999e-08 4.16248525e-07
      3.13436828e-07 -3.19619858e-07 -6.93826621e-07 -3.97678264e-07
      -5.45845182e-07 -8.65696677e-07 -7.98899578e-07 -6.14420628e-07
      -6.75778210e-07 -6.20200410e-07 -4.16705433e-07 -4.37942987e-07
      -6.08908408e-07 -8.50483787e-07 -1.31685977e-06 -1.79055883e-06
      -1.98905286e-06 -1.62118579e-06 -7.19019283e-07 -2.93864758e-07
      -5.87193369e-07 -4.55515163e-07 3.31176153e-08 1.97956723e-07
      3.54894411e-07 4.61418388e-08 -5.90672300e-07 -6.50041159e-07
      -1.79067072e-07 3.56246602e-07 5.60022386e-07 6.28086639e-07
      4.87790260e-07 2.94037562e-07 2.40297624e-07 4.87946750e-07
      2.81624216e-06 2.51833330e-06 1.95778284e-06 1.56863757e-06
      1.24310270e-06 9.35788080e-07 4.36620098e-07 1.27237215e-07
      -3.24249129e-07 -9.77797754e-07 -1.33491187e-06 -1.18919661e-06
      -8.22833840e-07 -4.27902364e-07 -1.72994163e-07 2.87017230e-07
      2.43308307e-07 -3.45755183e-07 -6.35263518e-07 -2.41951511e-07
      -4.56010014e-07 -7.94540597e-07 -8.63290381e-07 -5.30079490e-07
      -6.03322405e-07 -3.80383653e-07 -1.26166427e-07 -5.07824076e-08
      -1.96878162e-07 -5.13347118e-07 -1.02034517e-06 -1.64864230e-06
      -1.97042596e-06 -1.99199394e-06 -1.40499708e-06 -7.61916908e-07
      -6.50329014e-07 -1.12151120e-07 5.14503654e-07 5.77076833e-07
      5.32525064e-07 3.99876143e-07 -2.21760885e-07 -5.78399124e-07
      -5.26694578e-07 -2.29649203e-07 1.01774312e-07 5.23555059e-07
      8.58813280e-07 7.79637844e-07 7.73085731e-07 9.46579348e-07
      3.17421723e-06 2.84221028e-06 2.31020726e-06 1.81291546e-06
      1.28503734e-06 9.72289627e-07 6.44334762e-07 3.02926281e-07
      -3.73042099e-07 -1.12102668e-06 -1.55084126e-06 -1.54888949e-06
      -1.36048288e-06 -8.37403775e-07 -3.81944318e-07 -4.66534402e-08
      -1.38747742e-08 -3.15200879e-07 -6.23997323e-07 -5.18764182e-07
      -5.08080689e-07 -8.17337366e-07 -8.52706080e-07 -6.40228279e-07
      -7.61934643e-07 -6.10974666e-07 -2.81257059e-07 4.16151522e-08
      3.79175944e-08 -3.90261050e-07 -1.03270781e-06 -1.38043754e-06
      -1.62648075e-06 -1.84844578e-06 -1.68094573e-06 -1.12795681e-06
      -6.98744373e-07 -1.28897099e-07 4.13423237e-07 5.84926852e-07
      5.00401939e-07 2.48247687e-07 -3.18244219e-07 -6.43844487e-07
      -5.59214641e-07 -4.48872015e-07 -2.13870862e-07 2.53817234e-07
      7.70866620e-07 9.18633759e-07 1.11475060e-06 1.12010923e-06
      1.89272782e-07 1.92167448e-07 2.64089749e-07 4.86561873e-07
      5.19663047e-07 3.22183780e-07 9.38933269e-08 -2.06181952e-07
      -3.61273493e-07 -3.27629010e-07 -2.44983653e-07 -1.30551014e-09
      2.27165074e-07 2.39239199e-07 1.46861154e-07 2.15167191e-07
      2.56736939e-07 3.01148390e-07 9.48074614e-08 -6.11169000e-08
      -2.58979789e-08 -3.62791859e-08 -2.64220517e-07 -1.67707796e-07
      6.30222274e-08 2.94088181e-07 3.82729723e-07 3.73932579e-07
      9.70546523e-08 -4.47687718e-08 2.53513033e-08 -2.72174550e-09
      -1.13666530e-07 -1.53277270e-07 -2.81216444e-07 -1.43683991e-07
      8.63524630e-09 -2.43636975e-07 -3.32950805e-07 -2.66154416e-07
      -1.97929296e-07 -2.07579518e-07 -3.21781016e-07 -2.41414710e-07
      -1.71167059e-07 -6.90502722e-09 3.32813642e-07 5.83505766e-07
      6.40952521e-07 6.11130645e-07 4.92464892e-07 3.48567141e-07
      1.56861702e-07 1.58008277e-07 1.00570155e-07 1.13478727e-07
      2.67793439e-07 2.81911980e-07 2.57493440e-07 3.25091420e-08
      -2.39367296e-07 -4.36800093e-07 -4.35262308e-07 -3.09468078e-07
      -2.80626704e-08 2.30016482e-07 2.76052248e-07 2.69492176e-07
      2.81212266e-07 3.10929494e-07 3.88226368e-07 1.60175290e-07
      7.33075556e-09 -4.85738845e-08 -1.39335768e-07 -2.16013646e-07
      -1.72207180e-07 2.92954656e-08 2.37098064e-07 3.39909690e-07
      3.07512664e-07 5.62930182e-08 -7.17433792e-08 5.26722275e-08
      -5.81989532e-08 -1.97099766e-07 -2.66447387e-07 -2.63641141e-07
      1.39038780e-08 4.85131366e-08 -8.66474537e-08 -2.75255054e-08
      -1.77675279e-08 -4.09720258e-09 -1.94464782e-08 -1.19762646e-07
      -7.57659038e-08 3.29515473e-08 2.42566585e-07 5.85121597e-07
      7.05624927e-07 7.38425001e-07 5.63138144e-07 3.15247803e-07
      1.29240604e-07 5.67111016e-08 5.14586240e-08 -9.88454332e-08
      -1.23299486e-07 7.71637332e-08 1.64239566e-07 9.80525954e-08
      -3.85728711e-08 -2.70798949e-07 -4.97372184e-07 -4.76501185e-07
      -2.69308259e-07 -1.54345958e-08 2.17249962e-07 2.40165491e-07
      2.40787642e-07 2.50784808e-07 3.51596555e-07 5.02265834e-07
      2.95704467e-07 2.10756514e-08 -1.35606982e-07 -2.47036297e-07
      -3.23434534e-07 -3.38025046e-07 -1.45508807e-07 5.37324816e-08
      1.57234396e-07 1.62136686e-07 4.40146302e-08 4.24106119e-08
      2.28032189e-08 -8.22495565e-08 -1.93619044e-07 -2.39269156e-07
      -8.71189911e-08 1.22372541e-07 1.31429559e-07 1.58145099e-07
      2.26839987e-07 1.61757441e-07 7.53997540e-08 1.24189015e-07
      6.62772548e-09 1.07333996e-07 2.78555490e-07 5.25588348e-07
      6.51352025e-07 6.72808312e-07 5.94763719e-07 2.92720841e-07
      1.97197124e-07 -4.07555660e-08 -1.03742167e-07 -1.01837713e-07
      -2.48545859e-07 -2.74069549e-07 -1.26209176e-08 5.05392208e-08
      -3.61155417e-09 -8.44688941e-08 -3.02960842e-07 -5.04143657e-07
      -4.03129150e-07 -1.43287721e-07 2.33541364e-08 1.04638318e-07
      1.76538620e-07 8.77578543e-08 8.87260541e-08 3.19355905e-07
      5.53767791e-07 3.08212094e-07 -7.08600396e-08 -3.04863022e-07
      -4.56944207e-07 -5.40961253e-07 -6.19277785e-07 -4.72717403e-07
      -2.60061341e-07 -1.42957887e-07 5.78130361e-08 1.46371960e-07
      3.62718815e-08 3.76450586e-08 -3.90379862e-09 -1.35341054e-07
      -1.00801330e-07 8.53919602e-08 1.71795307e-07 1.84909922e-07
      2.42410550e-07 3.10879471e-07 1.93422906e-07 1.70885585e-07
      1.43418774e-07 3.98416944e-08 2.60407802e-07 5.40665212e-07
      6.38491088e-07 6.37187156e-07 5.04334650e-07 2.94757314e-07
      -5.84815751e-09 -6.92658659e-08 -2.14815302e-07 -2.17683905e-07
      -2.15039364e-07 -3.62685796e-07 -3.34906389e-07 -1.01218497e-07
      -7.79927956e-10 -6.59308981e-08 -1.76774279e-07 -3.05541164e-07
      -4.49264832e-07 -2.58324292e-07 2.57257309e-08 1.38000331e-08
      3.68788307e-08 7.71377202e-08 -1.08945287e-07 -5.16293710e-08
      2.27129973e-07 3.97834867e-07 1.77794107e-07 -2.01057787e-07
      -5.15753527e-07 -6.52927838e-07 -7.70761631e-07 -9.40703785e-07
      -8.42022814e-07 -5.80898416e-07 -3.67572795e-07 4.92997501e-08
      1.36183786e-07 6.06217014e-08 1.05674332e-07 6.67322979e-08
      -1.03077733e-08 5.39941389e-08 2.35097730e-07 2.68877557e-07
      2.70538379e-07 2.87197111e-07 3.23195707e-07 3.24620601e-07
      2.60694719e-07 9.63547748e-08 5.34188800e-08 4.23279289e-07
      7.24321694e-07 6.20421076e-07 5.76595710e-07 3.19609342e-07
      -3.38560170e-07 -2.28136869e-07 -2.66755137e-07 -3.30679455e-07
      -2.50064659e-07 -2.99710763e-07 -3.97341211e-07 -2.81938156e-07
      -1.73741370e-07 -6.15291817e-10 -7.71509150e-08 -1.54889932e-07
      -3.11312021e-07 -3.35947988e-07 -6.73988012e-08 4.10429202e-08
      -5.28526058e-08 -2.19621121e-08 -9.71607790e-08 -2.77409868e-07
      -2.35993156e-07 8.56612470e-09 1.22683659e-07 5.83519011e-09
      -3.32585216e-07 -5.83587337e-07 -6.73433476e-07 -9.21155390e-07
      -1.17971319e-06 -1.05524941e-06 -7.63108460e-07 -3.91245635e-07
      -5.76512482e-09 1.50542505e-07 1.81873702e-07 1.33624582e-07
      1.01987624e-07 3.55256660e-08 1.25331255e-07 3.61126666e-07
      4.05191031e-07 3.74243569e-07 3.86288434e-07 4.73252072e-07
      5.24286520e-07 4.30856801e-07 1.35992707e-07 1.64018829e-07
      5.45353601e-07 6.59621435e-07 5.14046462e-07 4.67675193e-07
      -4.39875066e-07 -4.30996351e-07 -3.43588397e-07 -3.29993100e-07
      -3.25868996e-07 -1.85503822e-07 -2.57986500e-07 -2.98115992e-07
      -2.43093211e-07 -8.11963048e-08 4.54682123e-08 2.47853613e-08
      -2.04251634e-07 -3.70483832e-07 -2.71769352e-07 -4.64951952e-08
      -5.64231541e-08 -1.32865139e-07 -1.48384785e-07 -2.49359402e-07
      -4.86212286e-07 -5.05762273e-07 -2.53964657e-07 -5.76688102e-08
      -5.77833390e-08 -2.73243330e-07 -4.38084328e-07 -5.79741027e-07
      -1.00128568e-06 -1.32639946e-06 -1.15168223e-06 -7.61356091e-07
      -4.25873424e-07 -2.31425439e-08 2.42517359e-07 2.07629839e-07
      9.98571181e-08 -2.82851396e-08 -1.17268229e-07 9.34448892e-08
      3.78467689e-07 5.01069565e-07 5.45668286e-07 6.39827419e-07
      7.54313874e-07 8.31011334e-07 6.18609306e-07 2.37595415e-07
      2.46971780e-07 3.40122540e-07 3.03476497e-07 1.58328831e-07
      -2.08543426e-07 -4.24973479e-07 -3.54817104e-07 -2.72557571e-07
      -1.66455834e-07 2.49631960e-08 -7.45509610e-08 -1.65020495e-07
      -2.94768085e-07 -1.00566737e-07 5.50244899e-08 2.99975056e-07
      1.76352785e-07 -2.66404101e-07 -4.28360153e-07 -3.36876781e-07
      -1.14314361e-07 -1.32113556e-07 -2.03128863e-07 -2.13060730e-07
      -3.28826189e-07 -5.61801983e-07 -5.55042050e-07 -2.24148735e-07
      6.78270311e-08 1.06654134e-07 -7.09766113e-08 -3.19841632e-07
      -5.72090471e-07 -1.10743360e-06 -1.35822813e-06 -1.05840479e-06
      -7.23888036e-07 -3.80717267e-07 1.80326021e-09 2.63088424e-07
      1.72189019e-07 -2.80260313e-08 -1.50873518e-07 -1.57179500e-07
      8.41749923e-08 4.67609311e-07 6.83503401e-07 8.25094617e-07
      8.91041566e-07 9.85561314e-07 8.37847892e-07 5.54044107e-07
      3.12864273e-07 8.63336780e-08 -8.96191423e-08 -2.20031197e-07
      1.70041659e-07 -2.80658981e-07 -3.84872180e-07 -2.63422891e-07
      -7.33935508e-08 1.41523941e-07 1.72243404e-07 -1.04510018e-08
      -2.36917614e-07 -2.09528054e-07 8.65578187e-08 3.40755832e-07
