<?xml version="1.0"?>
<opencv_storage>
<my_svm type_id="opencv-ml-svm">
  <svm_type>C_SVC</svm_type>
  <kernel><type>LINEAR</type></kernel>
  <C>1.</C>
  <term_criteria><epsilon>2.2204460492503131e-16</epsilon>
    <iterations>1000000</iterations></term_criteria>
  <var_all>108160</var_all>
  <var_count>108160</var_count>
  <class_count>2</class_count>
  <class_labels type_id="opencv-matrix">
    <rows>1</rows>
    <cols>2</cols>
    <dt>i</dt>
    <data>
      0 1</data></class_labels>
  <sv_total>1</sv_total>
  <support_vectors>
    <_>
      2.86502222e-06 2.91578704e-06 2.87099920e-06 2.46621630e-06
      2.17868296e-06 2.28007184e-06 2.51466122e-06 2.91172046e-06
      3.70304679e-06 4.21811092e-06 4.52975246e-06 4.77842241e-06
      4.63995093e-06 4.06786739e-06 3.45624449e-06 2.54879706e-06
      1.72798241e-06 3.81543117e-07 -7.24415997e-07 -1.54296595e-06
      -2.12630812e-06 -2.41444582e-06 -2.55418399e-06 -2.55088912e-06
      -2.47933190e-06 -2.34086406e-06 -2.21592973e-06 -2.10669214e-06
      -1.84032626e-06 -1.43241095e-06 -8.51085986e-07 -1.97171602e-07
      4.75430312e-07 1.22857705e-06 2.04991534e-06 2.91927472e-06
      3.50431537e-06 3.66315612e-06 3.74921819e-06 3.53382075e-06
      3.33530397e-06 3.02157628e-06 2.46819582e-06 2.02167007e-06
      1.47212268e-06 5.44805630e-07 -3.64696547e-07 -1.22044787e-06
      -1.75600815e-06 -1.37260258e-06 -1.02448530e-06 -8.77848208e-07
      1.70872977e-06 1.56999022e-06 1.21458072e-06 7.19063848e-07
      2.94795228e-07 -2.54715289e-08 -2.01715494e-07 -2.25017203e-07
      -9.14961262e-08 1.88858834e-07 6.09080473e-07 1.06221455e-06
      1.47052560e-06 1.69209352e-06 1.67687892e-06 1.62739946e-06
      1.38189841e-06 1.03782406e-06 6.12262909e-07 1.92985794e-07
      -9.01178439e-08 -1.74846093e-07 -1.61545003e-07 -1.11624168e-07
      -8.24949140e-08 -8.48187298e-08 -1.22766835e-07 -1.61380868e-07
      -2.18112874e-07 -2.04000798e-07 -1.47705412e-08 2.60857831e-07
      6.48250648e-07 1.11294810e-06 1.50965423e-06 1.67248265e-06
      1.55901046e-06 1.27852616e-06 8.15313570e-07 4.30381903e-07
      2.75987986e-07 2.55600042e-07 3.14468963e-07 2.73887252e-07
      1.27353204e-07 -2.12362281e-07 -5.54067185e-07 -7.95316396e-07
      -6.93634377e-07 -2.81897485e-07 2.29700504e-07 4.34785619e-07
      1.61338357e-06 1.55102066e-06 1.27004478e-06 7.57193618e-07
      3.07237187e-08 -7.51015648e-07 -1.36685821e-06 -1.71275769e-06
      -1.80286872e-06 -1.62904041e-06 -1.19561400e-06 -6.13556153e-07
      -1.58681335e-08 3.64526898e-07 4.74947285e-07 4.26072319e-07
      3.68759999e-07 5.69340045e-07 8.47330227e-07 1.05109382e-06
      1.31141780e-06 1.57583463e-06 1.74911099e-06 1.83638770e-06
      1.91764229e-06 1.99393548e-06 2.06661093e-06 2.12578539e-06
      2.06175469e-06 1.92592347e-06 1.69425482e-06 1.40251359e-06
      1.14102090e-06 8.73094734e-07 5.03203182e-07 -4.12056416e-08
      -7.16864463e-07 -1.25912300e-06 -1.60195032e-06 -1.71855868e-06
      -1.64934568e-06 -1.45940078e-06 -1.25625354e-06 -1.07588835e-06
      -9.81306812e-07 -9.47504020e-07 -8.38050482e-07 -5.23918743e-07
      -1.08024622e-07 3.50496606e-07 7.64671427e-07 9.13657743e-07
      -6.35864581e-07 -4.98697375e-07 -1.09951664e-07 1.33563816e-07
      1.03220430e-07 1.74609767e-07 3.55697836e-07 5.52281108e-07
      8.89191654e-07 1.34872425e-06 1.81020232e-06 2.18990567e-06
      2.43039608e-06 2.36188862e-06 1.98569751e-06 1.43806972e-06
      3.82304393e-07 -6.19595880e-07 -1.32776427e-06 -1.59794706e-06
      -1.40233806e-06 -1.17858178e-06 -1.02597630e-06 -8.86472151e-07
      -7.78415256e-07 -6.05134517e-07 -3.31912872e-07 -8.26331998e-08
      3.49402640e-08 -2.90103532e-08 -2.62088662e-07 -5.48666605e-07
      -9.48927152e-07 -1.29994260e-06 -1.44364890e-06 -1.42270915e-06
      -1.38837231e-06 -1.20855861e-06 -9.31249076e-07 -5.46929186e-07
      -1.85052301e-07 -2.85842560e-07 -5.10856921e-07 -8.02867191e-07
      -1.22703273e-06 -1.62673291e-06 -1.80091092e-06 -1.75471166e-06
      -1.46515765e-06 -1.03743741e-06 -6.46455248e-07 -5.20949413e-07
      -1.20069774e-06 -1.20681045e-06 -1.24762255e-06 -1.25988140e-06
      -1.00090995e-06 -3.24118389e-07 7.06703418e-07 1.89488367e-06
      3.17649369e-06 4.38065535e-06 5.21365428e-06 5.42578755e-06
      5.22131631e-06 4.68072994e-06 3.81388395e-06 2.70531950e-06
      1.41754981e-06 -7.54318989e-08 -1.33363721e-06 -2.08057872e-06
      -2.40277177e-06 -2.18257060e-06 -1.69015800e-06 -1.34838592e-06
      -1.17894376e-06 -1.03624427e-06 -9.61668320e-07 -9.54889629e-07
      -9.84718781e-07 -1.18992489e-06 -1.59076694e-06 -2.04257117e-06
      -2.47465596e-06 -2.63436664e-06 -2.56853036e-06 -2.28416116e-06
      -1.90778178e-06 -1.25168913e-06 -5.25835105e-07 2.05631956e-08
      2.16470610e-07 2.60548262e-07 2.44508129e-07 1.58367172e-07
      -3.93133803e-07 -1.08436132e-06 -1.66565985e-06 -2.00943464e-06
      -2.09021118e-06 -2.03747186e-06 -1.98636121e-06 -1.98324801e-06
      -1.26030284e-06 -1.34986988e-06 -1.54617737e-06 -1.58003229e-06
      -1.16048818e-06 -1.26673129e-07 1.32707066e-06 2.89885179e-06
      4.34338654e-06 5.47259970e-06 6.25600342e-06 6.56678685e-06
      6.34940716e-06 5.66952349e-06 4.67309064e-06 3.53322775e-06
      2.35270022e-06 1.07961671e-06 -1.35926513e-07 -9.44448004e-07
      -1.09284656e-06 -7.95250003e-07 -1.59035210e-07 5.16014836e-07
      8.86154282e-07 9.50769675e-07 8.62651802e-07 7.74878288e-07
      7.54666701e-07 7.75731507e-07 5.59106411e-07 -1.01462518e-07
      -1.13107467e-06 -1.97966347e-06 -2.46447098e-06 -2.54499196e-06
      -2.29357897e-06 -1.85057877e-06 -1.37329573e-06 -7.64469007e-07
      -1.58811616e-07 1.61426115e-07 2.83704935e-07 1.67115360e-07
      -4.94909898e-07 -1.28353543e-06 -1.88214460e-06 -2.21991922e-06
      -2.37917152e-06 -2.49429763e-06 -2.55422742e-06 -2.58278828e-06
      -1.69745545e-06 -1.73303044e-06 -1.71780857e-06 -1.45199260e-06
      -7.76759748e-07 6.72534782e-07 2.46735385e-06 3.92686616e-06
      4.75651495e-06 5.26992699e-06 5.55336965e-06 5.55265933e-06
      5.39011671e-06 5.25662381e-06 4.96754501e-06 4.39162477e-06
      3.51079848e-06 2.26221619e-06 6.92440722e-07 -9.29348971e-07
      -2.11867723e-06 -2.12695977e-06 -1.58229579e-06 -1.26803752e-06
      -1.18393598e-06 -1.32391904e-06 -1.48105687e-06 -1.54559064e-06
      -1.44846388e-06 -1.28038448e-06 -1.15796854e-06 -1.16602621e-06
      -1.49750940e-06 -2.30452588e-06 -2.82596557e-06 -2.74524359e-06
      -2.14058514e-06 -1.14649083e-06 -1.61746016e-07 5.78874449e-07
      1.11211409e-06 1.58870694e-06 2.04701769e-06 2.31670379e-06
      1.51081417e-06 7.63296214e-07 5.53655184e-08 -7.00613612e-07
      -1.50771632e-06 -2.16031663e-06 -2.55912209e-06 -2.69125803e-06
      -4.07214111e-06 -3.99805458e-06 -3.63646700e-06 -2.70152964e-06
      -1.20091102e-06 5.45093656e-07 2.00883642e-06 2.72578040e-06
      3.09084999e-06 3.28556234e-06 3.22252231e-06 2.95757559e-06
      2.81630832e-06 3.02835747e-06 3.37485972e-06 3.50632195e-06
      3.19541709e-06 2.60659726e-06 1.78416542e-06 8.52161293e-07
      2.62957712e-07 1.60327687e-07 -9.18997856e-08 -7.63653460e-08
      5.14085947e-08 3.75163118e-08 -2.14748724e-07 -6.87397858e-07
      -1.40688462e-06 -2.13432577e-06 -2.85838746e-06 -3.40012934e-06
      -3.65794699e-06 -3.79663993e-06 -3.59888600e-06 -2.86074874e-06
      -1.83109091e-06 -3.17900202e-07 1.00957516e-06 2.00223690e-06
      2.69577390e-06 3.17492754e-06 3.17079207e-06 2.86649083e-06
      2.66512370e-06 2.50908965e-06 2.00466957e-06 1.30587364e-06
      4.49529097e-07 -4.34987186e-07 -1.11982661e-06 -1.37190170e-06
      -1.49088635e-06 -1.36448159e-06 -1.02282729e-06 -4.34115464e-07
      3.08300201e-07 1.10358292e-06 1.57752527e-06 1.57780892e-06
      1.05046729e-06 2.82877153e-07 -2.16998501e-07 -2.06555356e-07
      3.36964916e-07 1.52923053e-06 2.88902470e-06 4.03016156e-06
      4.76055538e-06 4.81466623e-06 4.39471796e-06 3.94348854e-06
      3.28347664e-06 2.64223604e-06 1.97948748e-06 9.95295068e-07
      4.12121011e-07 -1.10263116e-07 -7.36133472e-07 -1.43803459e-06
      -2.15387490e-06 -2.69284646e-06 -2.98700661e-06 -2.99565136e-06
      -2.79609003e-06 -2.34241588e-06 -1.36269045e-06 -4.06918076e-07
      1.45884172e-07 7.59951547e-07 1.43560260e-06 2.13082899e-06
      2.80342624e-06 3.08491872e-06 3.24660300e-06 3.18879938e-06
      2.70484225e-06 2.00759132e-06 1.26235022e-06 5.21869822e-07
      -4.80697963e-07 -1.33452704e-06 -1.86856596e-06 -2.07386734e-06
      1.33450419e-06 1.15942839e-06 6.95223491e-07 1.50284350e-07
      -1.62776104e-07 -7.77622972e-07 -1.46972411e-06 -2.00542650e-06
      -2.23596635e-06 -1.92926382e-06 -1.08237919e-06 2.40142469e-07
      1.65616223e-06 3.04634705e-06 4.16802686e-06 4.95889026e-06
      5.77587844e-06 6.24226413e-06 5.81087215e-06 4.50130847e-06
      3.05290564e-06 2.31415493e-06 1.81371479e-06 1.10347628e-06
      6.20307432e-08 -1.03830848e-06 -1.92140078e-06 -2.49217533e-06
      -2.68014128e-06 -2.45943897e-06 -1.87378316e-06 -1.07849633e-06
      -5.51950485e-08 8.68856148e-07 1.36510255e-06 1.38118548e-06
      1.42569991e-06 1.65347228e-06 2.02617662e-06 2.72005127e-06
      3.43630836e-06 3.67534062e-06 3.46676529e-06 2.90416347e-06
      2.23794723e-06 1.54195959e-06 9.53615881e-07 4.87525369e-07
      2.29675294e-07 9.00823167e-08 -5.36744409e-08 -1.02478133e-07
      -2.04954222e-06 -2.21473215e-06 -2.63122456e-06 -3.03635056e-06
      -3.19945548e-06 -3.03326942e-06 -2.42314377e-06 -1.55851535e-06
      -6.51953314e-07 5.25773658e-07 2.19402750e-06 3.74226465e-06
      4.81038614e-06 5.14964859e-06 4.82720679e-06 4.12540294e-06
      3.40890938e-06 2.87864054e-06 2.18090941e-06 1.24258588e-06
      3.94626142e-07 -1.46084730e-07 -5.08443520e-07 -8.73152260e-07
      -1.15895591e-06 -1.38757082e-06 -1.39241206e-06 -1.25147301e-06
      -9.97021971e-07 -7.08640300e-07 -3.59480481e-07 8.23567063e-08
      5.16357716e-07 7.68660527e-07 9.49947946e-07 8.25563234e-07
      1.04621267e-06 1.65716153e-06 2.33176706e-06 2.87165267e-06
      3.27346356e-06 3.40376209e-06 3.29976706e-06 2.72851025e-06
      2.02914543e-06 1.50598066e-06 1.42939678e-06 1.72532384e-06
      2.10010717e-06 2.19766457e-06 2.15830642e-06 2.13673047e-06
      -3.22534515e-06 -3.16266596e-06 -2.91340871e-06 -2.36359165e-06
      -1.64497931e-06 -9.01603187e-07 2.52098829e-07 9.49363198e-07
      1.53425060e-06 2.10622738e-06 2.61043283e-06 3.11899180e-06
      3.48703907e-06 3.62511378e-06 3.65625624e-06 3.50386949e-06
      3.04807031e-06 2.00889872e-06 7.91424270e-07 -3.75691769e-07
      -1.28677721e-06 -1.72414218e-06 -1.77674281e-06 -1.76755134e-06
      -1.75666219e-06 -1.81413600e-06 -1.98332577e-06 -1.95327993e-06
      -1.80179609e-06 -1.58250668e-06 -1.35704465e-06 -1.20548020e-06
      -1.22763333e-06 -1.28038516e-06 -1.03135301e-06 -5.06226229e-07
      9.46224255e-09 9.62296440e-07 1.90379740e-06 2.57276201e-06
      2.84569069e-06 2.46756622e-06 1.87310673e-06 1.37645293e-06
      1.00097100e-06 6.06970275e-07 1.14082432e-07 -5.91674336e-07
      -1.27644682e-06 -2.04359094e-06 -2.41390921e-06 -2.47576463e-06
      -5.59897126e-06 -5.47625541e-06 -4.81157895e-06 -3.71596730e-06
      -3.09324037e-06 -2.49136315e-06 -1.96253291e-06 -1.72307705e-06
      -1.52875305e-06 -1.30764374e-06 -9.75267653e-07 -9.17068689e-07
      -1.09315351e-06 -1.00548561e-06 -4.32052047e-07 4.46255939e-07
      1.15205637e-06 1.25950646e-06 5.55039321e-07 -3.23820792e-08
      -2.11933525e-07 -6.51461676e-07 -1.40448321e-06 -1.94299741e-06
      -2.38175971e-06 -2.64990308e-06 -2.93260314e-06 -3.18767229e-06
      -3.42905128e-06 -3.57704516e-06 -3.50270443e-06 -3.29257841e-06
      -3.03250567e-06 -2.31943318e-06 -1.29959619e-06 6.85494399e-08
      1.52213795e-06 2.65498579e-06 3.07635196e-06 3.00626334e-06
      2.36905180e-06 1.51341760e-06 9.48608943e-07 8.82881693e-07
      1.02076649e-06 7.45344380e-07 -7.35052197e-08 -1.05116953e-06
      -2.13947988e-06 -3.11769077e-06 -3.90185414e-06 -4.12199233e-06
      -8.29424334e-06 -8.23258961e-06 -8.01886927e-06 -7.32437547e-06
      -6.08233813e-06 -4.52822997e-06 -3.34030392e-06 -2.62043250e-06
      -1.84700957e-06 -9.36644994e-07 -4.52036204e-08 -1.71618986e-08
      -5.25447945e-07 -1.11909969e-06 -1.68500185e-06 -2.14007582e-06
      -2.21757864e-06 -2.07259973e-06 -2.35137350e-06 -2.83236523e-06
      -3.30032753e-06 -3.57596787e-06 -3.39862254e-06 -3.03478328e-06
      -2.63393758e-06 -2.25953090e-06 -1.97394434e-06 -1.93647929e-06
      -2.02110141e-06 -2.16624699e-06 -2.43923682e-06 -2.72318425e-06
      -2.84851308e-06 -2.89713307e-06 -2.51587494e-06 -1.55287262e-06
      -4.20877955e-09 1.66023221e-06 2.58330124e-06 2.60450179e-06
      2.21437267e-06 2.02191200e-06 2.30485034e-06 2.98908526e-06
      3.37321035e-06 3.09014922e-06 2.28888530e-06 8.95399694e-07
      -5.14755811e-07 -1.66469454e-06 -2.48198739e-06 -2.79393794e-06
      -5.20269805e-06 -5.26878830e-06 -5.58836928e-06 -5.77775245e-06
      -5.86495298e-06 -5.53497284e-06 -4.83612985e-06 -4.07238713e-06
      -3.13078704e-06 -2.22828726e-06 -1.09755604e-06 -1.94056575e-08
      5.96326686e-07 8.04827039e-07 6.72882720e-07 5.95644110e-07
      5.10281097e-07 -1.18129648e-07 -7.94231426e-07 -1.12315536e-06
      -1.37167297e-06 -1.66262953e-06 -1.99245028e-06 -1.92638049e-06
      -1.54563656e-06 -1.10479039e-06 -7.25810366e-07 -5.22937000e-07
      -2.79166017e-07 -3.92818947e-07 -7.58775400e-07 -1.23051336e-06
      -1.54789893e-06 -1.78531536e-06 -1.99204214e-06 -1.98046450e-06
      -1.34488801e-06 -4.13974078e-07 4.56309039e-07 1.22128199e-06
      1.76196784e-06 2.10507301e-06 2.51364804e-06 2.86719796e-06
      2.98597206e-06 2.81197276e-06 2.19604226e-06 1.31292882e-06
      1.68569514e-07 -5.58459476e-07 -7.82674761e-07 -8.45640727e-07
      -3.23007794e-06 -3.18195498e-06 -3.10848577e-06 -2.97235965e-06
      -3.01358523e-06 -3.06954576e-06 -2.72838929e-06 -2.15340242e-06
      -1.82010695e-06 -1.86870886e-06 -1.73396893e-06 -1.22053837e-06
      -3.36070627e-07 8.68500194e-07 2.08908432e-06 3.05812841e-06
      3.44638875e-06 3.23273571e-06 2.74772469e-06 2.02497949e-06
      1.02803995e-06 1.64587263e-07 -4.85845305e-07 -9.93229378e-07
      -1.33295055e-06 -1.57271154e-06 -1.78017797e-06 -1.97808049e-06
      -2.13402245e-06 -2.37775657e-06 -2.48197216e-06 -2.52580298e-06
      -2.40811687e-06 -2.17853881e-06 -2.01851321e-06 -1.97832674e-06
      -2.11625502e-06 -2.36682195e-06 -2.59049330e-06 -2.58770547e-06
      -2.36949131e-06 -2.10228200e-06 -1.83884913e-06 -1.66710288e-06
      -1.18749699e-06 -6.03616343e-07 -2.34309155e-07 -9.41456468e-10
      -1.12539498e-08 -1.63901433e-07 -1.70931841e-07 -1.89230761e-07
      -2.21241430e-06 -2.19372237e-06 -2.01099874e-06 -1.50995959e-06
      -6.66423148e-07 2.90427266e-07 1.17541344e-06 2.00502222e-06
      2.92427285e-06 3.22347205e-06 3.19124570e-06 2.85510191e-06
      2.57802003e-06 2.39415249e-06 2.16415560e-06 1.80029565e-06
      1.18054959e-06 5.58923773e-07 9.52324513e-08 -2.33420522e-07
      -4.57676947e-07 -5.40654355e-07 -6.54636438e-07 -8.30192505e-07
      -9.94902166e-07 -1.15384978e-06 -1.29292209e-06 -1.45872400e-06
      -1.83807856e-06 -2.19487288e-06 -2.47552089e-06 -2.62348999e-06
      -2.58536147e-06 -2.41075168e-06 -2.19813546e-06 -2.16487751e-06
      -2.51274332e-06 -2.80646145e-06 -3.03088564e-06 -3.09776942e-06
      -3.08863946e-06 -2.83669669e-06 -2.27513192e-06 -1.43601801e-06
      -3.84869878e-07 7.71524185e-07 1.53602343e-06 1.47057790e-06
      8.09056473e-07 3.30967652e-07 5.26990860e-08 -5.21368015e-08
      -4.97054941e-07 -5.42618068e-07 -7.18937429e-07 -1.00206933e-06
      -1.21639710e-06 -1.38004191e-06 -1.46459377e-06 -1.45767228e-06
      -1.60055777e-06 -1.74918853e-06 -2.01094122e-06 -2.38564417e-06
      -2.76309106e-06 -2.54461929e-06 -2.19572189e-06 -1.78899870e-06
      -1.65914105e-06 -1.31978186e-06 -1.05425795e-06 -6.74109458e-07
      -2.34413932e-07 2.37387397e-07 5.99190173e-07 7.20185710e-07
      6.94812911e-07 6.58462397e-07 5.86695364e-07 5.45893329e-07
      5.07659365e-07 5.72895999e-07 6.77955029e-07 8.69143662e-07
      1.01668365e-06 1.04636160e-06 9.45271211e-07 6.80065114e-07
      3.14932834e-07 -1.95050418e-07 -4.36785768e-07 -4.71377831e-07
      -3.35978143e-07 7.45560769e-08 9.59624685e-07 1.88098647e-06
      2.56557905e-06 2.82265864e-06 2.68511690e-06 2.37502013e-06
      2.06063419e-06 1.77856430e-06 1.59102979e-06 1.49635468e-06
      1.00818261e-06 9.19985951e-07 6.19482876e-07 1.59600901e-07
      -4.34593773e-07 -1.23957682e-06 -2.25863118e-06 -3.13358578e-06
      -3.66333529e-06 -3.87045066e-06 -4.00151612e-06 -4.07064090e-06
      -4.11472001e-06 -3.95031111e-06 -3.41987788e-06 -2.67727432e-06
      -1.87142109e-06 -1.03004788e-06 -4.46077792e-07 1.04657168e-07
      4.01439195e-07 5.17177455e-07 5.67056418e-07 6.15510828e-07
      6.34602486e-07 6.73329453e-07 6.60472381e-07 6.08816833e-07
      6.68702796e-07 7.08192488e-07 7.21942342e-07 7.31969408e-07
      7.24106428e-07 6.75888884e-07 5.38187294e-07 1.57776057e-07
      -4.72343601e-07 -1.19907122e-06 -1.88521904e-06 -2.22509084e-06
      -2.05933907e-06 -1.58912610e-06 -9.41447638e-07 -2.58587278e-07
      2.92938182e-07 5.65636299e-07 5.95911786e-07 6.32290835e-07
      7.50708352e-07 8.89089051e-07 9.61483693e-07 9.75231842e-07
      3.32944353e-07 3.48242821e-07 3.83320838e-07 3.98757692e-07
      3.11321571e-07 1.46009327e-07 -1.85652695e-07 -7.02991599e-07
      -1.10807377e-06 -1.27842839e-06 -1.31169418e-06 -1.11167856e-06
      -8.91413720e-07 -7.69590997e-07 -7.48902778e-07 -8.09112237e-07
      -8.97710549e-07 -9.28590850e-07 -1.09333416e-06 -1.24232292e-06
      -1.24817166e-06 -1.20949699e-06 -1.17927630e-06 -1.13112480e-06
      -1.09411997e-06 -9.76629508e-07 -7.95922404e-07 -6.38662982e-07
      -5.18516970e-07 -4.88387116e-07 -5.13520774e-07 -6.28932639e-07
      -8.07081449e-07 -1.07823894e-06 -1.31950844e-06 -1.49718323e-06
      -1.48105562e-06 -1.34929815e-06 -1.09988366e-06 -9.92468586e-07
      -9.61908881e-07 -9.08224365e-07 -9.00880423e-07 -1.08030440e-06
      -1.44596720e-06 -1.92593097e-06 -2.42737974e-06 -2.83796294e-06
      -3.10336850e-06 -3.21179323e-06 -3.28224905e-06 -3.29426325e-06
      -1.36644474e-06 -1.28840156e-06 -1.04280343e-06 -6.69727854e-07
      -3.49033115e-07 -2.23868128e-07 -2.92364575e-07 -6.23288713e-07
      -9.54437951e-07 -1.23345296e-06 -1.40976022e-06 -1.48065544e-06
      -1.46680827e-06 -1.37492327e-06 -1.34452284e-06 -1.45207684e-06
      -1.62198910e-06 -1.74814647e-06 -1.83735335e-06 -1.91591789e-06
      -1.90168657e-06 -1.82764370e-06 -1.74078104e-06 -1.63611458e-06
      -1.47528203e-06 -1.27099747e-06 -1.08257768e-06 -9.31120042e-07
      -8.64593346e-07 -8.51698076e-07 -8.49352944e-07 -9.12390647e-07
      -1.02214665e-06 -1.17669572e-06 -1.35517394e-06 -1.52959831e-06
      -1.61072740e-06 -1.64926405e-06 -1.58289572e-06 -1.19257356e-06
      -5.69942301e-07 -2.39398545e-09 1.60187824e-07 -1.42860316e-07
      -5.61718252e-07 -1.01370017e-06 -1.48561219e-06 -1.80021368e-06
      -2.01303919e-06 -2.19228468e-06 -2.23404618e-06 -2.24268297e-06
      -6.69096437e-07 -6.81530025e-07 -7.12797657e-07 -7.65330583e-07
      -9.36696154e-07 -1.21077312e-06 -1.47106391e-06 -1.78582422e-06
      -2.11603674e-06 -2.42867327e-06 -2.61370815e-06 -2.63168045e-06
      -2.35642256e-06 -1.81387168e-06 -1.25654924e-06 -8.56323538e-07
      -6.84382314e-07 -7.23017195e-07 -8.83756115e-07 -1.07238748e-06
      -1.24947348e-06 -1.31954960e-06 -1.27029318e-06 -1.13647957e-06
      -9.54795837e-07 -8.31988530e-07 -7.25912514e-07 -6.26461429e-07
      -6.03890271e-07 -6.42708130e-07 -7.55857570e-07 -9.84661938e-07
      -1.28365889e-06 -1.53780627e-06 -1.79044105e-06 -1.93750247e-06
      -1.94692848e-06 -1.79382130e-06 -1.53157100e-06 -1.27214332e-06
      -1.01287310e-06 -7.37427627e-07 -4.44866373e-07 -1.71508518e-07
      7.90602002e-08 2.59008061e-07 3.93909403e-07 4.70496246e-07
      5.00717931e-07 5.02386342e-07 5.17340254e-07 5.10818495e-07
      1.51961228e-06 1.51951213e-06 1.47888397e-06 1.32518562e-06
      1.02308934e-06 5.14018950e-07 -1.89080879e-07 -9.69276584e-07
      -1.73781052e-06 -2.36987853e-06 -2.75420371e-06 -2.84972612e-06
      -2.61381001e-06 -2.17523689e-06 -1.68542806e-06 -1.23866516e-06
      -9.31829902e-07 -7.95489655e-07 -8.08342008e-07 -9.04078036e-07
      -1.00252862e-06 -9.85511747e-07 -8.27582824e-07 -5.91041498e-07
      -3.61348441e-07 -2.03940530e-07 -2.74776291e-08 1.25849468e-07
      1.62274674e-07 6.19678744e-08 -2.05171830e-07 -5.98047961e-07
      -1.06134007e-06 -1.53522274e-06 -1.92930747e-06 -2.09134782e-06
      -1.97784493e-06 -1.57136344e-06 -1.00709235e-06 -4.55120215e-07
      1.75116615e-08 3.77397470e-07 5.50753384e-07 5.53613859e-07
      4.62213904e-07 3.35767851e-07 2.24502330e-07 9.47196028e-08
      -1.35697853e-09 -3.75707501e-08 -6.32754080e-08 -7.99554627e-08
      1.87891078e-06 1.86649595e-06 1.81353039e-06 1.64708251e-06
      1.35133519e-06 1.00286593e-06 6.27879047e-07 3.21202265e-07
      9.93122740e-08 -7.72327340e-08 -2.56540716e-07 -4.13595643e-07
      -5.10671043e-07 -5.43612202e-07 -5.20480739e-07 -4.99936107e-07
      -5.21208790e-07 -6.21666516e-07 -8.11900065e-07 -1.00806722e-06
      -1.10467602e-06 -1.03557261e-06 -8.33604872e-07 -5.54891471e-07
      -2.52367130e-07 1.58289915e-08 1.94743350e-07 3.64732074e-07
      4.95542395e-07 5.92325307e-07 5.80733513e-07 4.41558910e-07
      1.60979141e-07 -2.26453182e-07 -5.64802519e-07 -7.78355854e-07
      -8.29867929e-07 -7.85881298e-07 -7.83573626e-07 -7.97822111e-07
      -7.99395764e-07 -7.80415121e-07 -8.05426623e-07 -7.71693408e-07
      -6.75361036e-07 -4.79252378e-07 -2.23947126e-07 3.89105246e-08
      2.98762018e-07 5.29759973e-07 6.70831696e-07 7.29435612e-07
      1.00210275e-06 9.64401693e-07 8.64780873e-07 7.81237873e-07
      7.51325786e-07 8.29712519e-07 1.02595550e-06 1.25114536e-06
      1.40385646e-06 1.39694237e-06 1.27822955e-06 1.11197801e-06
      9.28762745e-07 7.92607807e-07 7.08694927e-07 7.18205115e-07
      8.12289841e-07 8.70347264e-07 8.22550078e-07 6.64472054e-07
      4.88782746e-07 3.43716863e-07 2.16220670e-07 1.23274503e-07
      6.16192324e-08 1.45073447e-08 -1.69208416e-08 5.13462020e-08
      2.00305976e-07 4.66707803e-07 8.48536502e-07 1.29189482e-06
      1.70325927e-06 2.04129174e-06 2.26848715e-06 2.23366123e-06
      2.03959235e-06 1.69166253e-06 1.24939606e-06 8.23966218e-07
      4.14209751e-07 6.61952200e-08 -1.96338462e-07 -1.49359664e-07
      3.81463146e-08 2.62410282e-07 4.64215020e-07 6.54200846e-07
      8.27746135e-07 1.02296178e-06 1.16942635e-06 1.21953178e-06
      2.40283072e-07 3.15564535e-07 5.12229292e-07 8.35985134e-07
      1.21556275e-06 1.48007450e-06 1.55988562e-06 1.47871640e-06
      1.25071665e-06 9.47461672e-07 6.53821303e-07 4.35107950e-07
      3.53903062e-07 4.19540015e-07 5.71513397e-07 8.54504947e-07
      1.20255766e-06 1.48683910e-06 1.61374044e-06 1.53697965e-06
      1.28731438e-06 1.02831325e-06 7.87643103e-07 4.99931900e-07
      1.45859929e-07 -1.69420247e-07 -3.22399472e-07 -3.60594612e-07
      -2.88838550e-07 -1.28461693e-07 1.70310855e-07 5.32363686e-07
      9.20756520e-07 1.38715541e-06 1.94462791e-06 2.60231946e-06
      3.12855946e-06 3.17590957e-06 2.90037656e-06 2.54146789e-06
      2.29265311e-06 2.15094951e-06 2.13635121e-06 2.14969782e-06
      2.11268639e-06 2.00642671e-06 1.91426943e-06 1.86008242e-06
      1.79087306e-06 1.76439619e-06 1.76569313e-06 1.74600916e-06
      9.52897153e-07 1.00659474e-06 1.15763032e-06 1.29791783e-06
      1.34911215e-06 1.29383966e-06 1.13516535e-06 9.56834469e-07
      7.61883030e-07 6.66652966e-07 6.47946138e-07 6.88442469e-07
      7.19336128e-07 6.48615185e-07 5.79199877e-07 5.46526678e-07
      4.61062513e-07 2.62572996e-07 5.38371800e-08 -1.12347237e-07
      -2.62043471e-07 -2.64230437e-07 -2.18217281e-07 -4.22624254e-07
      -6.43851990e-07 -8.06969240e-07 -9.07050548e-07 -9.73896704e-07
      -9.93999379e-07 -9.46829289e-07 -8.64792014e-07 -7.59149600e-07
      -5.54224300e-07 -2.65603092e-07 1.11886727e-07 6.49918547e-07
      1.26344833e-06 1.73925889e-06 1.97882150e-06 1.97746704e-06
      1.77708523e-06 1.46814534e-06 1.15196349e-06 8.91721925e-07
      6.68499354e-07 5.13827217e-07 4.88422074e-07 5.36365292e-07
      5.88467401e-07 5.90508478e-07 5.59842135e-07 5.41917814e-07
      8.78749972e-07 8.60831733e-07 8.25325515e-07 7.33361446e-07
      5.92614242e-07 4.57224559e-07 3.62743691e-07 3.17921575e-07
      3.01775515e-07 3.49433606e-07 4.58874297e-07 5.81204006e-07
      6.72381987e-07 7.72820840e-07 8.40719849e-07 8.15326587e-07
      7.46870114e-07 7.42803081e-07 7.83216421e-07 9.14536258e-07
      1.04777746e-06 1.12425471e-06 1.21910750e-06 1.20996526e-06
      1.10124790e-06 9.02484430e-07 6.00391445e-07 3.36054882e-07
      3.46097622e-08 -2.43088294e-07 -5.35122922e-07 -8.12819792e-07
      -9.61327601e-07 -9.27692838e-07 -6.72278077e-07 -3.43334875e-07
      -1.41760941e-08 3.35688952e-07 5.26359372e-07 5.36225286e-07
      3.21551681e-07 3.53021470e-08 -3.40884014e-07 -7.35679976e-07
      -1.04815103e-06 -1.21918038e-06 -1.28063311e-06 -1.23349594e-06
      -1.06030836e-06 -8.56012434e-07 -6.71078112e-07 -5.77683579e-07
      -7.09678602e-07 -7.27068709e-07 -7.20476066e-07 -6.60245178e-07
      -5.34474282e-07 -4.23000500e-07 -3.15946068e-07 -2.88875754e-07
      -2.99285119e-07 -3.26592158e-07 -2.10433797e-07 1.29608964e-07
      5.75931551e-07 1.08599477e-06 1.43217790e-06 1.63667676e-06
      1.62842912e-06 1.38632481e-06 1.02278511e-06 7.75110209e-07
      8.12726626e-07 9.86611667e-07 1.25653992e-06 1.49559855e-06
      1.73080355e-06 1.90924607e-06 1.97006239e-06 1.95104758e-06
      1.74839386e-06 1.42852753e-06 9.94412517e-07 5.23256574e-07
      1.98365040e-08 -3.91650133e-07 -6.53218535e-07 -7.22858260e-07
      -5.12231566e-07 3.85862009e-08 6.67143127e-07 1.09805933e-06
      1.27244266e-06 1.24293251e-06 1.01118053e-06 6.57421310e-07
      2.98813234e-07 -9.25563270e-09 -2.82192872e-07 -5.15729312e-07
      -6.83553310e-07 -7.77783498e-07 -8.24841948e-07 -8.32904675e-07
      -7.21932906e-07 -7.05324055e-07 -7.32953879e-07 -7.22815969e-07
      -6.77829462e-07 -6.12446911e-07 -5.29418799e-07 -4.09542992e-07
      -1.90848382e-07 1.15825834e-07 4.46480328e-07 7.68071629e-07
      1.06218965e-06 1.23110237e-06 1.33132551e-06 1.20210927e-06
      7.46849082e-07 4.91964691e-08 -7.31435705e-07 -1.27299177e-06
      -1.45628144e-06 -1.33473804e-06 -1.02915442e-06 -6.12211579e-07
      -8.65682779e-08 4.63749615e-07 9.05932154e-07 1.10326141e-06
      1.16916522e-06 1.08846882e-06 8.55632891e-07 5.38373911e-07
      2.48644540e-07 -7.86849270e-08 -4.25006164e-07 -5.95590734e-07
      -4.26236824e-07 1.56706221e-07 1.07168910e-06 2.04028765e-06
      2.81694315e-06 3.22115170e-06 3.36881862e-06 3.27387193e-06
      3.03638512e-06 2.73979958e-06 2.55041368e-06 2.39690121e-06
      2.25827966e-06 2.18359605e-06 2.18195373e-06 2.18039281e-06
      1.91062909e-07 1.93322293e-07 1.11128131e-07 3.74951306e-08
      -2.62125752e-08 -3.38018253e-08 4.54293243e-08 2.16984901e-07
      3.16159117e-07 3.45778261e-07 2.72844204e-07 1.04439920e-07
      -1.27009940e-07 -4.08489399e-07 -6.72813655e-07 -1.00481554e-06
      -1.45961712e-06 -1.94289714e-06 -2.26136694e-06 -2.37968857e-06
      -2.32817956e-06 -2.10971893e-06 -1.81969779e-06 -1.48191441e-06
      -1.16524529e-06 -7.92005835e-07 -4.51074669e-07 -3.14060060e-07
      -2.07030496e-07 -1.79690858e-07 -1.86866615e-07 -1.93997934e-07
      -3.08127235e-09 7.14211055e-08 1.51910129e-07 2.57093347e-07
      4.04002094e-07 7.91124592e-07 1.33238154e-06 1.46981461e-06
      1.23518646e-06 1.01476053e-06 1.02458660e-06 1.02790420e-06
      1.01412843e-06 1.03717082e-06 1.12548889e-06 1.17220407e-06
      1.17452407e-06 1.16742683e-06 1.14739078e-06 1.12811642e-06
      7.87617807e-07 7.22701941e-07 6.29022793e-07 4.64002255e-07
      2.85760876e-07 1.06116431e-07 -1.13928564e-07 -4.17155633e-07
      -7.68878806e-07 -1.09519260e-06 -1.37034237e-06 -1.64782284e-06
      -1.85670353e-06 -1.87953935e-06 -1.71870056e-06 -1.61711876e-06
      -1.51591655e-06 -1.35394862e-06 -1.16372644e-06 -6.94678533e-07
      -1.45998683e-07 1.83090435e-07 2.68729423e-07 1.18875874e-07
      -1.26278138e-07 -1.49286251e-07 -2.20608399e-07 -2.53477424e-07
      -1.45267379e-07 7.74589637e-08 4.17453492e-07 7.30764157e-07
      1.10319490e-06 1.47536525e-06 1.47821981e-06 1.65834138e-06
      1.74894819e-06 1.45019612e-06 5.42109831e-07 -6.73285513e-07
      -1.70401563e-06 -2.30314822e-06 -2.68279996e-06 -2.82265660e-06
      -2.68969802e-06 -2.36907181e-06 -1.98700991e-06 -1.59771434e-06
      -1.23160123e-06 -9.27090412e-07 -6.81011556e-07 -5.87522720e-07
      -2.57270500e-07 -2.10726540e-07 -7.89926702e-08 6.33530561e-08
      2.12928015e-07 2.65484289e-07 1.81192007e-07 -1.41624437e-08
      -1.89844897e-07 -4.03512729e-07 -6.89108219e-07 -9.08911716e-07
      -8.89465696e-07 -6.28972373e-07 -3.05159915e-07 2.94011588e-08
      8.28381488e-08 -1.03957518e-07 -7.27772601e-07 -8.34692457e-07
      -2.41801786e-07 3.86907431e-07 5.84488760e-07 4.24258474e-07
      1.86329814e-07 -6.52500205e-08 -2.60992834e-07 -2.33904800e-07
      1.35840521e-08 4.04811573e-07 5.58523084e-07 4.24065405e-07
      8.69778418e-08 -2.08233701e-07 -4.04719600e-07 -2.58831562e-07
      8.91548169e-08 4.13713252e-07 2.08224506e-07 -5.75891193e-08
      -2.85965029e-07 -3.75379557e-07 -3.24960837e-07 -1.98157792e-08
      2.28246165e-07 3.87197872e-07 4.91557842e-07 5.94760650e-07
      6.44185093e-07 6.65471248e-07 6.90144986e-07 6.94454855e-07
      -7.70123961e-07 -6.92187314e-07 -4.96473888e-07 -2.54917893e-07
      2.10549018e-08 2.84763360e-07 4.57592876e-07 5.73166574e-07
      6.07786262e-07 6.03453657e-07 7.27528118e-07 9.67513301e-07
      1.26506529e-06 1.41940643e-06 1.41093528e-06 1.32233242e-06
      1.35247228e-06 1.11947679e-06 1.00167631e-06 1.10657732e-06
      1.65976030e-06 2.10992357e-06 1.96798783e-06 1.31907495e-06
      4.30243574e-07 -4.33567806e-07 -6.78086735e-07 -5.38025915e-07
      -1.57756759e-07 1.95892170e-07 2.88941806e-07 1.33097060e-07
      -2.27057683e-07 -5.15197939e-07 -7.44779811e-07 -8.82099073e-07
      -1.06867276e-06 -1.14885665e-06 -5.79039011e-07 3.60317699e-07
      9.08743232e-07 1.13588555e-06 1.36893561e-06 1.23178484e-06
      8.81407232e-07 4.31459625e-07 1.12876268e-08 -1.79639187e-07
      -1.87853189e-07 -1.20705167e-07 -9.60592246e-08 -1.05020000e-07
      1.49977370e-06 1.48660865e-06 1.37119287e-06 1.17294405e-06
      8.98366920e-07 5.72867407e-07 2.66014808e-07 7.89344199e-08
      9.80272716e-08 3.28828492e-07 7.56314478e-07 1.25309020e-06
      1.62363608e-06 1.76789365e-06 1.97738450e-06 2.13922112e-06
      2.16855005e-06 2.09335303e-06 1.88642855e-06 1.87011324e-06
      1.88884258e-06 1.67071778e-06 1.24637154e-06 5.37020355e-07
      -2.10164742e-07 -5.64394156e-07 -3.62705975e-07 1.64961065e-07
      6.84282327e-07 9.14460543e-07 6.76189302e-07 1.06644393e-07
      -5.42988630e-07 -9.54707161e-07 -1.12095563e-06 -1.08805330e-06
      -1.02715887e-06 -1.08156166e-06 -1.25499162e-06 -1.08008146e-06
      -7.77721596e-07 -5.20644278e-07 -2.96343899e-07 -1.14776192e-07
      -8.53572502e-08 -1.69797147e-07 -2.80496607e-07 -2.84440688e-07
      -1.39883142e-07 5.50202941e-08 1.80309627e-07 2.05904797e-07
      1.48520894e-06 1.47644721e-06 1.39850533e-06 1.27182716e-06
      1.08058475e-06 8.46346950e-07 5.87412785e-07 4.80457118e-07
      4.35457196e-07 4.88603916e-07 5.33150398e-07 5.60762032e-07
      5.18972513e-07 3.69012355e-07 1.37175931e-07 -8.46014814e-08
      -3.69800489e-07 -7.05379364e-07 -8.95058690e-07 -7.73977206e-07
      -8.53241090e-07 -8.34122602e-07 -7.67953622e-07 -6.35127776e-07
      -6.60462717e-07 -7.87100987e-07 -7.23414246e-07 -4.25625302e-07
      -1.76074082e-07 -5.37964922e-07 -1.40434372e-06 -2.11321003e-06
      -2.34589425e-06 -2.15013506e-06 -1.59451270e-06 -9.50385527e-07
      -3.52663420e-07 1.58003619e-08 3.04197158e-07 4.42544490e-07
      4.91098319e-07 5.62839091e-07 5.22187065e-07 4.83107897e-07
      4.86922602e-07 5.64092659e-07 3.72559100e-07 -1.14831078e-08
      -3.09312298e-07 -5.55384872e-07 -6.90593879e-07 -7.40303847e-07
      -9.86701821e-07 -9.28665372e-07 -7.31500450e-07 -4.51773303e-07
      -1.25589864e-07 2.66200345e-07 6.47576371e-07 9.76305728e-07
      1.18293531e-06 1.14616591e-06 8.44886188e-07 4.32878664e-07
      -1.64268545e-08 -4.19514976e-07 -7.83965959e-07 -1.07161009e-06
      -1.26938789e-06 -1.32770526e-06 -1.31618174e-06 -1.36173207e-06
      -1.39654810e-06 -1.31059210e-06 -1.05604454e-06 -7.18491265e-07
      -4.05594250e-07 -2.13531990e-07 -1.55369378e-07 -2.27583499e-07
      -5.67090524e-07 -1.27080682e-06 -2.04976868e-06 -2.63176685e-06
      -2.72219518e-06 -2.41155681e-06 -1.82655367e-06 -1.07278163e-06
      -2.46112251e-07 6.14280168e-07 1.10077406e-06 1.25423219e-06
      1.17347827e-06 9.03161549e-07 4.90160062e-07 -1.84508949e-07
      -1.00717659e-06 -1.76634751e-06 -2.22555173e-06 -2.40426925e-06
      -2.64336359e-06 -2.80648851e-06 -2.89139325e-06 -2.93590870e-06
      -1.57335273e-06 -1.53595920e-06 -1.43332397e-06 -1.30792944e-06
      -1.02441982e-06 -6.50712707e-07 -2.09784844e-07 2.09480397e-08
      3.61857850e-08 -9.10324758e-08 -2.60333081e-07 -3.42738758e-07
      -2.27081458e-07 6.77038798e-08 4.41551947e-07 7.89893136e-07
      1.02055401e-06 1.06669074e-06 8.63403670e-07 3.98846964e-07
      -5.96207030e-08 -3.20859556e-07 -3.65312872e-07 -2.63444036e-07
      -1.16440539e-07 2.66835070e-08 1.08668857e-07 6.13268156e-08
      -1.40097185e-07 -4.10482613e-07 -6.49482502e-07 -7.84626764e-07
      -6.82226869e-07 -3.17770684e-07 9.73983276e-08 5.05821333e-07
      8.92790752e-07 1.27991700e-06 1.60011825e-06 1.76961157e-06
      1.70168767e-06 1.37495749e-06 8.76341915e-07 1.95851982e-07
      -3.60063268e-07 -6.74194553e-07 -6.83440703e-07 -5.66589904e-07
      -2.88780456e-07 -1.97988808e-08 6.66493563e-08 8.78807569e-08
      2.49342037e-07 2.17450491e-07 1.08588694e-07 -7.64221042e-08
      -3.15146423e-07 -6.27637576e-07 -9.95245273e-07 -1.27975011e-06
      -1.58803618e-06 -1.67694861e-06 -1.46647051e-06 -1.09831285e-06
      -6.04278455e-07 -6.74320972e-08 5.15643194e-07 9.87906446e-07
      1.19974288e-06 1.16993749e-06 9.59589215e-07 6.16256386e-07
      2.56691635e-07 -2.80986203e-08 -2.01794194e-07 -2.30663332e-07
      -2.18030351e-07 -1.74681048e-07 -9.11439528e-08 -4.68865409e-08
      -7.64958372e-08 3.20232765e-08 4.15978604e-07 1.03219611e-06
      1.63341622e-06 2.21130472e-06 2.42023430e-06 2.45196406e-06
      2.49126811e-06 2.50790799e-06 2.47316393e-06 2.42431338e-06
      2.34584832e-06 2.26645943e-06 2.20602260e-06 2.20064248e-06
      2.04394473e-06 1.99035526e-06 2.05129095e-06 2.23259303e-06
      2.42658416e-06 2.51106280e-06 2.46808622e-06 2.42213605e-06
      6.51066728e-07 5.77313301e-07 3.77668584e-07 1.10859631e-07
      -1.70733756e-07 -3.73875849e-07 -4.59992862e-07 -4.66644053e-07
      -3.82295013e-07 -1.25343774e-07 8.96660453e-08 1.58323473e-07
      1.62723808e-07 1.22799577e-07 8.78235085e-08 4.48339499e-08
      2.56245141e-08 -7.59890373e-09 -9.13792135e-08 -1.35218116e-07
      -8.59040838e-08 4.81113389e-08 2.28576738e-07 2.46197260e-07
      6.75480862e-08 -3.07526363e-07 -6.90261913e-07 -9.55658834e-07
      -1.02863066e-06 -9.54121447e-07 -8.78505205e-07 -7.71923226e-07
      -6.58527028e-07 -5.51217340e-07 -5.08424478e-07 -4.50511209e-07
      -2.28346181e-07 1.73664787e-07 7.19300601e-07 1.22795586e-06
      1.59832632e-06 1.80164318e-06 1.78325070e-06 1.64362416e-06
      1.45040542e-06 1.29503428e-06 1.32654634e-06 1.39060137e-06
      1.27051715e-06 1.03873924e-06 8.01304679e-07 7.12227290e-07
      -9.86810051e-07 -9.69657549e-07 -9.32192052e-07 -8.54971859e-07
      -7.21406025e-07 -4.68057834e-07 -1.57223099e-07 2.17125020e-07
      6.85117243e-07 1.03502316e-06 1.27600981e-06 1.52001064e-06
      1.68525867e-06 1.82099529e-06 2.00866816e-06 2.07896164e-06
      1.94468157e-06 1.53343160e-06 9.33248543e-07 3.98487146e-07
      -6.41402309e-08 -4.74965162e-07 -7.81001063e-07 -1.06152061e-06
      -1.30180672e-06 -1.42999238e-06 -1.33474043e-06 -1.11513589e-06
      -7.76685567e-07 -3.62549201e-07 2.95115949e-08 3.69043647e-07
      6.29847136e-07 7.48964055e-07 7.26091969e-07 6.10768609e-07
      3.69684216e-07 1.35139464e-08 -2.33803476e-07 -2.50506247e-07
      -7.90832289e-09 2.36776884e-07 3.49475272e-07 3.06147626e-07
      2.62748273e-07 4.09399178e-07 6.64442098e-07 8.01991575e-07
      6.29830083e-07 3.09745445e-07 6.13433855e-08 -3.90540578e-08
      1.34166445e-09 4.97043011e-08 1.39391844e-07 3.01078842e-07
      5.15272291e-07 6.62640218e-07 7.06899925e-07 7.97538064e-07
      7.86383509e-07 1.03561388e-06 1.32655271e-06 1.72164232e-06
      2.23199208e-06 2.80623954e-06 3.12155248e-06 3.28457531e-06
      3.27304201e-06 3.02788499e-06 2.60027946e-06 2.08026677e-06
      1.42462545e-06 7.46265584e-07 2.23213874e-07 -1.45263229e-07
      -4.23528320e-07 -6.80350183e-07 -8.37329026e-07 -8.70032579e-07
      -7.05624700e-07 -3.68498718e-07 2.50379088e-07 1.13006797e-06
      2.17669594e-06 3.17902186e-06 3.88995568e-06 4.18502577e-06
      4.12904637e-06 3.70206590e-06 3.07553773e-06 2.42907799e-06
      1.89349078e-06 1.46101945e-06 1.29204489e-06 1.52329847e-06
      1.90680726e-06 2.13903195e-06 1.78579353e-06 1.32861305e-06
      8.61422848e-07 5.16151943e-07 3.08543406e-07 2.37447594e-07
      1.66460518e-06 1.69312420e-06 1.76552953e-06 1.84448004e-06
      1.89791604e-06 1.79942822e-06 1.59100398e-06 1.36564381e-06
      1.14702766e-06 9.56698500e-07 7.46878982e-07 7.73414513e-07
      1.02560512e-06 1.18158448e-06 1.15830824e-06 1.19006290e-06
      1.32991761e-06 1.47357127e-06 1.70789860e-06 1.98774887e-06
      2.01353600e-06 1.73368949e-06 1.41666021e-06 9.95946721e-07
      4.47333434e-07 -2.82506790e-07 -1.03839682e-06 -1.51777829e-06
      -1.54102122e-06 -1.10107464e-06 -1.10690223e-07 1.41964256e-06
      3.08959238e-06 4.46480226e-06 5.18596289e-06 5.22650726e-06
      4.81580491e-06 4.18086756e-06 3.41334726e-06 2.72541615e-06
      1.92339962e-06 1.56585361e-06 1.57126669e-06 1.59063518e-06
      1.62540289e-06 1.19129459e-06 6.47860588e-07 1.00464291e-07
      -3.43427700e-07 -7.10254710e-07 -9.37246909e-07 -9.88952820e-07
      -9.53517599e-07 -9.99624945e-07 -1.00496834e-06 -9.54521056e-07
      -8.87716453e-07 -8.50169897e-07 -7.51357902e-07 -6.26226836e-07
      -4.47845593e-07 -4.11962134e-07 -5.76055413e-07 -6.53799589e-07
      -5.56875705e-07 -6.53627922e-07 -7.23027938e-07 -9.56097438e-07
      -1.06069842e-06 -1.10422991e-06 -6.50134439e-07 3.06497441e-07
      1.29249497e-06 1.55307782e-06 5.53349253e-07 -2.21148895e-07
      -7.02897694e-07 -1.08477855e-06 -1.28045872e-06 -1.15989565e-06
      -6.46739636e-07 2.25744145e-07 1.39046699e-06 2.77601112e-06
      4.18455011e-06 5.21866787e-06 5.04688887e-06 3.80000984e-06
      2.38602343e-06 1.13918099e-06 -1.35280445e-07 -1.09963594e-06
      -1.82577992e-06 -1.89316268e-06 -1.68457541e-06 -1.68533666e-06
      -1.52054190e-06 -1.03808293e-06 -6.91669698e-07 -6.69895769e-07
      -8.26058624e-07 -9.69524535e-07 -1.06313814e-06 -1.06259074e-06
      -2.85708870e-06 -2.89162699e-06 -2.82312203e-06 -2.69807060e-06
      -2.58170985e-06 -2.45530487e-06 -2.25680742e-06 -1.97734721e-06
      -1.50558185e-06 -1.14003217e-06 -8.89387309e-07 -4.55067550e-07
      1.28836703e-07 5.55477243e-07 5.76129423e-07 3.64045320e-07
      -3.33023166e-07 -1.33136382e-06 -1.77803258e-06 -2.03368427e-06
      -2.31855347e-06 -2.80774339e-06 -3.42163639e-06 -3.77555466e-06
      -3.73831449e-06 -3.32637569e-06 -2.68865438e-06 -1.94948689e-06
      -1.01002718e-06 8.60805471e-08 1.18318974e-06 1.93030201e-06
      2.35754965e-06 2.64924142e-06 2.42561691e-06 1.89253660e-06
      1.06023185e-06 -1.58198816e-07 -1.17858190e-06 -2.03723471e-06
      -2.37878476e-06 -2.58278033e-06 -2.14962392e-06 -1.47395269e-06
      -7.46154512e-07 -2.15862471e-07 1.61219276e-07 2.48498424e-07
      -1.08982015e-08 -1.79088573e-07 -2.48681459e-07 -2.76091185e-07
      -9.73683655e-07 -9.30397846e-07 -8.14542034e-07 -6.43334431e-07
      -4.44509567e-07 -2.55732516e-07 3.13484563e-08 4.74347104e-07
      8.43144846e-07 1.23175460e-06 1.83130624e-06 2.36385881e-06
      2.62922049e-06 2.83306872e-06 3.06999414e-06 2.98333748e-06
      1.32287562e-06 -4.61080049e-07 -2.02502724e-06 -3.21039624e-06
      -3.85431895e-06 -4.28398926e-06 -4.29561169e-06 -3.99115288e-06
      -3.60704348e-06 -2.81516827e-06 -1.83349880e-06 -6.88747321e-07
      5.54887890e-07 1.73288538e-06 2.73269802e-06 3.13163855e-06
      2.56812609e-06 1.35070252e-06 1.05676406e-06 9.29048781e-07
      8.26081248e-07 9.29436055e-07 1.18579874e-06 1.57460124e-06
      2.17979050e-06 3.24015855e-06 3.89817706e-06 3.18579237e-06
      2.29411717e-06 1.55068767e-06 7.43589339e-07 1.90480975e-07
      -2.04625380e-07 -5.64023310e-07 -7.97920165e-07 -9.03644377e-07
      1.91721043e-07 2.35906953e-07 3.13282413e-07 4.70476266e-07
      7.23461142e-07 1.05045353e-06 1.42619842e-06 1.74900208e-06
      2.06364871e-06 2.50182325e-06 2.80194831e-06 2.82031147e-06
      2.95932591e-06 3.41668465e-06 3.50216897e-06 2.56151270e-06
      8.56650388e-07 -6.67376014e-07 -2.11125871e-06 -3.07474988e-06
      -3.43659030e-06 -3.03656429e-06 -2.17577463e-06 -8.73517877e-07
      3.27518137e-07 1.40816962e-06 2.34387630e-06 3.36863786e-06
      4.27865371e-06 4.96255643e-06 5.17556009e-06 4.84559678e-06
      4.11937526e-06 3.04730975e-06 1.64574590e-06 8.20325681e-07
      1.12833527e-06 1.88877334e-06 2.65509516e-06 3.46731190e-06
      4.22105222e-06 4.70144823e-06 4.28677413e-06 3.09844700e-06
      1.73100500e-06 4.45331011e-07 -7.29735802e-07 -9.99640974e-07
      -7.33618947e-07 -4.05821766e-07 -1.26565013e-07 -2.29892070e-08
      -2.96308116e-07 -2.56664293e-07 -1.64892313e-07 -3.08439709e-08
      1.72569301e-07 5.08605581e-07 8.16352269e-07 1.00151226e-06
      1.04313358e-06 9.99758072e-07 9.78970775e-07 1.17122465e-06
      1.42183603e-06 1.84262740e-06 2.19961362e-06 2.00425529e-06
      1.12900204e-06 2.12616499e-07 -6.38883080e-07 -1.23257087e-06
      -1.01814715e-06 -6.11855683e-07 -1.72201126e-07 3.70199189e-07
      4.71175127e-07 6.08164100e-07 9.63555522e-07 1.23446682e-06
      1.46264631e-06 1.78521861e-06 2.33518267e-06 2.92959658e-06
      3.41797795e-06 3.69241070e-06 3.71972283e-06 3.47508740e-06
      3.21088669e-06 3.18391699e-06 3.94573817e-06 4.52797394e-06
      4.73262344e-06 4.32803927e-06 3.62419291e-06 2.65068843e-06
      1.63434652e-06 5.28639191e-07 -4.19380740e-07 -8.90342164e-07
      -8.76262789e-07 -6.45964803e-07 -4.56866985e-07 -3.77241719e-07
      -2.70135047e-07 -3.49812666e-07 -5.18582965e-07 -7.32830074e-07
      -9.02122110e-07 -9.05794252e-07 -7.49461151e-07 -2.98043034e-07
      3.41703611e-07 8.11210214e-07 1.26830787e-06 1.86879413e-06
      2.93485914e-06 4.35334732e-06 5.30684247e-06 5.07871073e-06
      4.14438227e-06 2.88856563e-06 1.71037323e-06 4.34293980e-07
      -4.29467832e-07 -7.47398644e-07 -1.06763309e-06 -1.40092004e-06
      -1.55965813e-06 -1.73240721e-06 -1.97245504e-06 -2.25078929e-06
      -2.40173722e-06 -2.47935600e-06 -2.39234396e-06 -1.83167242e-06
      -2.73011807e-07 1.03966818e-06 1.92685593e-06 2.65539052e-06
      3.35247728e-06 4.20034257e-06 4.60732326e-06 4.43869430e-06
      3.90109426e-06 3.26417398e-06 2.85449869e-06 2.75640946e-06
      2.84626299e-06 2.98002055e-06 2.76486389e-06 2.67784003e-06
      2.47389403e-06 2.29863531e-06 2.11214183e-06 2.03210288e-06
      -1.63432318e-07 -2.26351062e-07 -3.90655458e-07 -6.33235800e-07
      -8.00171847e-07 -7.53083157e-07 -4.67044345e-07 3.57485845e-08
      6.13300870e-07 1.08607151e-06 1.27917110e-06 1.32397781e-06
      1.24161181e-06 9.54026859e-07 3.65754119e-07 -6.38063966e-07
      -1.94012387e-06 -3.31640217e-06 -4.29767852e-06 -4.71379826e-06
      -4.97984274e-06 -5.26260237e-06 -5.05470371e-06 -4.08432152e-06
      -3.11273561e-06 -2.75703883e-06 -2.89357695e-06 -3.31446472e-06
      -3.85231669e-06 -4.66478241e-06 -5.42951830e-06 -5.81938366e-06
      -5.40717292e-06 -4.16887315e-06 -2.55425698e-06 -1.19802485e-06
      -7.12265802e-08 1.47617570e-07 -2.05268279e-07 -7.01943577e-07
      -1.21200878e-06 -1.46641719e-06 -1.20936227e-06 -2.93035669e-07
      9.91188585e-07 2.08764368e-06 2.92240111e-06 3.34191327e-06
      3.21653397e-06 2.88333194e-06 2.58030786e-06 2.46387299e-06
      -6.41824670e-07 -6.09749293e-07 -5.49894594e-07 -4.70641794e-07
      -3.41274983e-07 -2.50888689e-07 -3.17362009e-07 -4.07775588e-07
      -4.11619823e-07 -3.13874381e-07 -2.51889276e-07 -3.97967000e-07
      -8.74666739e-07 -1.63929781e-06 -2.60182946e-06 -3.65549045e-06
      -5.04476748e-06 -6.52262361e-06 -7.60512285e-06 -7.94922744e-06
      -7.40948553e-06 -6.13699467e-06 -4.05890614e-06 -1.76872265e-06
      -5.98077634e-07 2.98226190e-08 -1.29951196e-08 -5.65153584e-07
      -1.27507440e-06 -1.96140945e-06 -2.52370774e-06 -2.89202058e-06
      -2.78097832e-06 -2.47478488e-06 -2.62730214e-06 -3.00417287e-06
      -3.27280804e-06 -3.64494213e-06 -4.03250215e-06 -4.23968686e-06
      -4.01623993e-06 -3.29819204e-06 -2.35811740e-06 -1.32277000e-06
      -3.67751795e-07 2.91237114e-07 6.76510751e-07 8.94539141e-07
      9.38063465e-07 7.74134321e-07 5.87196382e-07 4.77279684e-07
      -1.51844449e-06 -1.40977829e-06 -9.79992024e-07 -6.38463916e-07
      -4.94756137e-07 -7.21143351e-07 -9.65176014e-07 -1.28899308e-06
      -1.21909113e-06 -1.31848776e-06 -1.35900063e-06 -1.23584118e-06
      -1.30204137e-06 -1.65661129e-06 -1.98009434e-06 -1.86668353e-06
      -2.15200566e-06 -3.07381538e-06 -4.71758631e-06 -5.11698454e-06
      -4.53046596e-06 -3.16043520e-06 -1.62271715e-06 6.82665018e-07
      3.09702159e-06 4.63971355e-06 5.22256141e-06 4.42109467e-06
      3.20095819e-06 1.90725257e-06 5.30853981e-07 -6.29069689e-07
      -1.37903669e-06 -1.47851392e-06 -1.81061773e-06 -2.34569848e-06
      -3.54568465e-06 -4.55099416e-06 -4.32711613e-06 -3.46490901e-06
      -2.15115665e-06 -1.44124999e-06 -8.77282275e-07 -8.60991690e-07
      -1.44884416e-06 -2.13305202e-06 -2.54827864e-06 -2.94175402e-06
      -2.95898508e-06 -2.80486620e-06 -2.89318859e-06 -3.02321973e-06
      -2.13205408e-06 -1.77424954e-06 -9.18469311e-07 -1.04752345e-07
      4.84898692e-07 5.39230427e-07 4.93907237e-07 5.70389318e-07
      4.38597908e-07 5.28536592e-09 -2.80077188e-07 -4.17313743e-07
      -9.39335905e-07 -1.62317781e-06 -2.19535968e-06 -2.74820195e-06
      -2.95634027e-06 -2.88179649e-06 -2.61548053e-06 -2.31635568e-06
      -2.21718415e-06 -2.35110133e-06 -2.21194546e-06 -2.08449410e-06
      -2.12787086e-06 -2.06609752e-06 -2.17562979e-06 -2.80502763e-06
      -3.41260488e-06 -3.52639836e-06 -3.50814230e-06 -3.14284625e-06
      -2.58411137e-06 -1.89014190e-06 -1.73662056e-06 -1.92827338e-06
      -2.14348893e-06 -1.83967575e-06 -1.13096428e-06 -1.02226431e-06
      -8.30802207e-07 -5.12752877e-07 -5.52034294e-07 -6.10485529e-07
      -3.48039890e-07 3.27131346e-07 1.01069998e-06 1.45364720e-06
      1.79163658e-06 2.00836848e-06 1.89507080e-06 1.73902004e-06
      -1.87119576e-06 -1.64229300e-06 -8.87321164e-07 -2.26551844e-08
      6.83793985e-07 8.31449711e-07 6.54963969e-07 4.47489498e-07
      5.05302239e-07 2.40277984e-07 -7.01503637e-08 -3.58037710e-07
      -6.59851878e-07 -1.00192449e-06 -1.53067867e-06 -2.23867187e-06
      -2.60094089e-06 -2.61539981e-06 -2.46663353e-06 -2.28074782e-06
      -2.29762918e-06 -2.46236846e-06 -2.40856775e-06 -2.28305771e-06
      -2.46230707e-06 -2.38536290e-06 -2.42150873e-06 -2.84307430e-06
      -3.14340900e-06 -3.16452383e-06 -3.09832694e-06 -2.98624332e-06
      -2.39251222e-06 -1.71155386e-06 -1.62397168e-06 -1.87421961e-06
      -2.09439622e-06 -1.81665052e-06 -1.24979613e-06 -1.22087476e-06
      -1.00625527e-06 -5.50597122e-07 -6.23792573e-07 -7.46014678e-07
      -7.17691478e-07 -1.41800797e-07 7.66381561e-07 1.31226739e-06
      1.57370334e-06 1.82254109e-06 1.82054339e-06 1.71291072e-06
      -1.00898023e-06 -1.03355865e-06 -4.79037340e-07 1.47285107e-07
      8.77587183e-07 1.05331480e-06 9.10984113e-07 5.27290013e-07
      3.77763172e-07 1.87903026e-07 1.55512652e-08 -2.23850975e-07
      -3.09557407e-07 -2.77736689e-07 -7.43933526e-07 -1.39805570e-06
      -1.79692518e-06 -1.86810576e-06 -1.75501873e-06 -1.83440159e-06
      -2.07899484e-06 -2.37964491e-06 -2.52236828e-06 -2.62076469e-06
      -3.03788329e-06 -3.05595927e-06 -3.08560516e-06 -3.40461952e-06
      -3.27459657e-06 -3.04605442e-06 -2.50492280e-06 -2.30972114e-06
      -1.85344334e-06 -1.24509188e-06 -1.30670651e-06 -1.63477887e-06
      -1.80626694e-06 -1.49183916e-06 -1.19406491e-06 -1.03913294e-06
      -7.99927420e-07 -4.12113650e-07 -5.93877814e-07 -8.85778661e-07
      -8.69373537e-07 -3.55243003e-07 4.16261571e-07 7.86318822e-07
      9.46161720e-07 1.28305351e-06 1.35851997e-06 1.43887655e-06
      -3.83130185e-08 1.77513058e-07 4.64875114e-07 6.65567541e-07
      9.80873097e-07 1.10550411e-06 9.06874391e-07 8.16244324e-07
      5.61387992e-07 1.89228516e-07 6.62846533e-09 -1.14420686e-07
      -3.81251652e-08 1.90910797e-07 -1.75948500e-07 -5.43164447e-07
      -8.02236912e-07 -9.80529308e-07 -1.09333200e-06 -1.25342831e-06
      -1.54694703e-06 -2.06675463e-06 -2.29310831e-06 -2.61625519e-06
      -3.36319749e-06 -3.61275852e-06 -3.59014507e-06 -3.84658824e-06
      -3.55249017e-06 -2.87785406e-06 -1.96461565e-06 -1.51219945e-06
      -1.23379482e-06 -8.48650529e-07 -6.49466187e-07 -9.16191709e-07
      -1.29693149e-06 -1.25563713e-06 -1.01739829e-06 -7.49589674e-07
      -3.57938461e-07 -2.39622977e-07 -5.10367954e-07 -6.74331829e-07
      -7.12596830e-07 -3.88210196e-07 3.11779246e-07 5.43382669e-07
      3.69100320e-07 3.79294448e-07 2.42275092e-07 4.49683711e-07
      3.11737807e-07 3.26895844e-07 5.86077533e-07 8.59318106e-07
      1.02245940e-06 8.18974002e-07 6.21952552e-07 6.63614742e-07
      6.36930508e-07 1.91108725e-07 -4.54255620e-08 -1.99537823e-07
      -9.16521614e-08 1.51958702e-07 8.75891999e-08 5.40750378e-08
      -5.49600685e-08 -3.06309687e-07 -4.87534351e-07 -6.97860230e-07
      -1.13582087e-06 -1.76395827e-06 -2.12353507e-06 -2.36051642e-06
      -3.23151448e-06 -3.73357648e-06 -3.72303316e-06 -3.80181223e-06
      -3.27572707e-06 -2.52616633e-06 -1.72057844e-06 -1.03092623e-06
      -7.40967153e-07 -3.45741427e-07 1.86665936e-08 -7.78441489e-08
      -6.19030402e-07 -7.33332570e-07 -7.00640669e-07 -5.65839230e-07
      -3.14481298e-07 -1.73400593e-07 -2.83588406e-07 -2.78674065e-07
      -3.89214193e-07 -2.95673658e-07 1.36614844e-07 4.06621211e-07
      5.30030491e-07 4.02015189e-07 2.28865005e-07 2.85382072e-07
      1.52287811e-07 3.42515762e-07 5.89167144e-07 6.49953051e-07
      6.89618503e-07 5.52015820e-07 1.69187430e-07 1.76685816e-07
      1.91672271e-07 -7.20720053e-08 -2.74752040e-07 -3.36053859e-07
      -2.70681824e-07 -8.11575376e-08 1.14151142e-07 2.01177230e-07
      2.55186421e-07 2.52016292e-07 1.52784466e-07 -1.29075275e-07
      -6.58275496e-07 -1.59553679e-06 -2.35162361e-06 -2.51662277e-06
      -2.99244653e-06 -3.50724667e-06 -3.36558583e-06 -3.10944029e-06
      -2.52938389e-06 -1.85932572e-06 -1.30252124e-06 -8.39243739e-07
      -5.89985575e-07 -1.74106304e-07 3.74736459e-07 9.04075179e-08
      -2.68741530e-07 -4.69014367e-07 -3.01542798e-07 -3.99573622e-07
      -3.49726832e-07 -7.18985689e-08 -1.02552924e-07 2.48084984e-08
      1.29938144e-07 -1.85421030e-07 -1.42348597e-07 3.89123642e-07
      7.20638184e-07 8.05171794e-07 8.44896817e-07 1.02469903e-06
      -5.65511243e-07 -1.73428774e-07 4.09276311e-07 6.29513465e-07
      6.02602654e-07 3.35818413e-07 -1.30192987e-07 -1.28378488e-07
      -1.06999522e-07 -5.95113193e-07 -6.40317296e-07 -5.22924040e-07
      -4.86769636e-07 -4.00009668e-07 -1.96063255e-07 7.93714694e-09
      2.38273955e-07 4.88585613e-07 6.56465431e-07 4.44948881e-07
      -1.72218918e-07 -1.13484373e-06 -2.37115523e-06 -2.67439850e-06
      -2.78228026e-06 -3.00279657e-06 -2.67398968e-06 -2.21306391e-06
      -1.76084313e-06 -1.18535138e-06 -8.31655541e-07 -8.88279374e-07
      -6.99920406e-07 -2.96254115e-07 -2.59625654e-08 -2.26228423e-07
      -3.71747831e-07 -4.17084493e-07 -3.84336030e-09 -7.25463067e-08
      -2.31050549e-07 -6.49172733e-08 9.72220278e-08 1.72690250e-07
      3.34176349e-07 7.02749858e-08 -2.25328407e-07 2.59578826e-07
      9.33456533e-07 1.15581815e-06 1.43145223e-06 1.76862568e-06
      -1.51365407e-06 -1.03232492e-06 -1.79696386e-07 4.54390658e-07
      4.47834651e-07 1.57554297e-07 2.11268059e-07 2.70096308e-07
      -1.52191575e-08 -6.42764007e-07 -6.80270773e-07 -5.56228485e-07
      -5.22504365e-07 -4.10944011e-07 -2.75838403e-07 -1.21401030e-07
      1.71652630e-07 2.60063160e-07 5.58381657e-07 7.67556173e-07
      2.03778740e-07 -6.09250435e-07 -1.54521001e-06 -2.28866793e-06
      -2.47445496e-06 -2.36461801e-06 -2.08089727e-06 -1.47411379e-06
      -1.02147385e-06 -8.78277831e-07 -8.78704782e-07 -9.75276748e-07
      -8.25318807e-07 -7.96484869e-07 -7.54996051e-07 -8.15955048e-07
      -9.66094490e-07 -6.66059691e-07 1.43471413e-08 1.83211881e-07
      -1.72135781e-08 6.02772587e-08 2.65126857e-07 2.48325364e-07
      4.08748036e-07 2.88298992e-07 7.72864084e-08 1.34668340e-07
      5.86476745e-07 1.03502589e-06 1.38335440e-06 1.87051864e-06
      -1.29749685e-06 -1.12636440e-06 -4.93007406e-07 1.51192182e-07
      5.35713184e-07 7.11251062e-07 8.54102268e-07 2.68923088e-07
      -2.79770603e-07 -6.17393937e-07 -5.52173049e-07 -5.63455899e-07
      -6.98918711e-07 -1.34570342e-07 2.26384500e-07 -6.47555609e-08
      -2.20840860e-07 -1.91112164e-07 -1.57205704e-07 8.93383412e-09
      -1.19894480e-07 -2.77160552e-07 -7.95172355e-07 -1.58517264e-06
      -1.86637317e-06 -1.81525979e-06 -1.58694809e-06 -1.12286989e-06
      -7.84665588e-07 -8.05164916e-07 -1.00587374e-06 -1.15670355e-06
      -1.35291475e-06 -1.61622143e-06 -1.50028745e-06 -1.55133284e-06
      -1.48000424e-06 -9.38643041e-07 -3.33431899e-07 4.93489338e-08
      2.27386479e-07 2.21580976e-07 4.54283196e-07 4.97032545e-07
      5.02579439e-07 4.92705169e-07 3.64929946e-07 2.77769004e-07
      4.98717441e-07 1.04831156e-06 1.56900308e-06 1.82928125e-06
      -2.04588659e-07 -6.90154849e-08 1.05939101e-07 2.68277347e-07
      4.88856642e-07 8.87312467e-07 9.19479589e-07 7.09107510e-08
      -7.73150362e-07 -8.97495624e-07 -8.37067091e-07 -7.16693819e-07
      -6.68652604e-07 2.17384070e-07 6.22768027e-07 3.02224976e-07
      -2.66329153e-07 -6.60753983e-07 -7.80942344e-07 -1.24137762e-06
      -1.41253236e-06 -8.58101259e-07 -9.45142460e-07 -1.57615864e-06
      -1.65674419e-06 -1.42464444e-06 -1.22562165e-06 -1.09726705e-06
      -9.17273667e-07 -9.27190172e-07 -1.20416053e-06 -1.42334011e-06
      -1.68042959e-06 -2.08188749e-06 -2.17774505e-06 -2.01599983e-06
      -1.60198442e-06 -1.15437058e-06 -7.58968213e-07 -2.68916523e-07
      2.07294349e-07 3.57249462e-07 5.02299088e-07 6.11612450e-07
      5.96957761e-07 7.19358297e-07 7.68521375e-07 5.90903880e-07
      8.44458270e-07 1.61742128e-06 2.18152422e-06 2.13064300e-06
      -2.09442248e-07 3.52431243e-07 4.48861442e-07 3.60167775e-07
      2.82472683e-07 3.78800024e-07 2.89466954e-07 -2.84649104e-07
      -6.57259932e-07 -8.18282444e-07 -1.28627505e-06 -1.01319199e-06
      -4.50687111e-07 4.75180173e-07 9.02851241e-07 4.86083707e-07
      -3.82148322e-08 -6.56444456e-07 -9.24970664e-07 -1.53324663e-06
      -1.91960112e-06 -1.47937840e-06 -1.17861816e-06 -1.61916682e-06
      -1.64176208e-06 -1.32203172e-06 -1.05631864e-06 -1.03024331e-06
      -1.02162767e-06 -1.19872152e-06 -1.54292820e-06 -1.83450845e-06
      -2.01574676e-06 -2.36422056e-06 -2.61428158e-06 -2.23698476e-06
      -1.74500462e-06 -1.17307661e-06 -7.49405274e-07 -1.10874069e-07
      1.96681228e-07 5.80698782e-07 7.46254614e-07 9.47060471e-07
      1.00594593e-06 1.03630168e-06 1.14142301e-06 1.34415313e-06
      1.66190728e-06 2.23893949e-06 2.73428941e-06 2.60931733e-06
      -1.37546962e-07 -2.18132552e-08 1.83159472e-07 1.92350811e-07
      -1.32947264e-07 -2.31881472e-07 -3.69581386e-07 -7.38830408e-07
      -6.45799616e-07 -7.25902623e-07 -1.40852387e-06 -1.52287316e-06
      -6.04613660e-07 1.72425786e-07 1.11285920e-06 5.15424290e-07
      -1.12632939e-07 -8.00643591e-07 -9.96269705e-07 -1.15241198e-06
      -1.70319186e-06 -1.47237881e-06 -9.98675205e-07 -1.09467476e-06
      -1.00281704e-06 -9.02770410e-07 -9.00968530e-07 -8.79925096e-07
      -8.50251979e-07 -1.05042909e-06 -1.49503717e-06 -1.76620756e-06
      -2.15922273e-06 -2.79875098e-06 -2.91447304e-06 -2.47279968e-06
      -2.04819048e-06 -1.44536932e-06 -7.88930834e-07 -3.07014751e-08
      6.38771496e-07 8.86827820e-07 7.82573807e-07 9.65089953e-07
      1.34205618e-06 1.50342737e-06 1.56295209e-06 1.76559558e-06
      1.79170661e-06 2.16548779e-06 2.77781623e-06 2.80764334e-06
      1.31653181e-07 -1.39278939e-07 -2.54797811e-07 -8.38058085e-08
      -7.66000170e-08 -2.53730150e-07 -4.08408340e-07 -6.55126769e-07
      -8.39778579e-07 -9.83694690e-07 -1.19685046e-06 -1.60236186e-06
      -1.16838714e-06 -5.30629450e-07 4.06377069e-07 2.81753529e-07
      -2.17821963e-07 -9.36189110e-07 -1.23176619e-06 -7.72793612e-07
      -1.24714791e-06 -1.25918052e-06 -5.20786784e-07 -2.66776624e-07
      -2.64874785e-07 -3.85466166e-07 -5.96985331e-07 -5.92167567e-07
      -3.00795335e-07 -3.63233141e-07 -8.62638103e-07 -1.24648921e-06
      -1.55033922e-06 -2.50204289e-06 -2.75997490e-06 -2.43200589e-06
      -1.99781789e-06 -1.40337659e-06 -6.13268639e-07 9.27902235e-08
      1.03326533e-06 1.09995744e-06 5.33302853e-07 4.16885996e-07
      1.01061914e-06 1.41619364e-06 1.55340001e-06 1.57061902e-06
      1.40653844e-06 1.51983966e-06 2.01659259e-06 2.33232186e-06
      1.22767176e-07 3.32425643e-08 -1.49441576e-07 2.12328839e-08
      1.62764024e-07 3.30904157e-07 6.87591566e-08 -6.85843347e-08
      -2.45961814e-07 -7.01937097e-07 -9.90016474e-07 -8.57349391e-07
      -8.65638640e-07 -3.93022333e-07 -4.69371564e-08 7.23153946e-08
      -2.41077004e-07 -9.77554691e-07 -1.30969727e-06 -6.36447794e-07
      -6.44634099e-07 -7.20960259e-07 1.68459067e-07 5.73852276e-07
      3.50483958e-07 -1.76861974e-07 -2.87177187e-07 -1.49185865e-07
      2.96781565e-07 3.58846222e-07 -6.64533104e-08 -4.28499874e-07
      -5.02121054e-07 -1.44786134e-06 -1.90855553e-06 -1.64063943e-06
      -1.44994635e-06 -9.22066022e-07 -1.40733604e-07 5.14345629e-07
      1.12694124e-06 1.49071752e-06 4.74137245e-08 -4.19300306e-07
      6.69174369e-08 7.09542633e-07 1.00588773e-06 1.22924337e-06
      1.32393131e-06 1.33396168e-06 1.41244925e-06 1.60663535e-06
      -1.48854539e-07 7.72905651e-08 -3.16081028e-08 1.00594029e-07
      2.44219393e-07 4.93099094e-07 3.52016229e-07 2.43604404e-07
      1.01698987e-07 -2.59467669e-07 -7.64784374e-07 -3.66089665e-07
      1.70532303e-07 7.48115326e-07 5.75846457e-07 2.78289406e-07
      9.85878046e-09 -7.47489423e-07 -1.21801372e-06 -6.73098327e-07
      -3.36540438e-07 -1.96210920e-07 7.59888394e-07 1.02380307e-06
      7.91185869e-07 -3.81145924e-08 -2.27143573e-07 1.68048032e-07
      7.60252817e-07 1.08319955e-06 8.77968318e-07 5.59269722e-07
      3.30156297e-07 -3.23211424e-07 -6.80424762e-07 -4.84273698e-07
      -5.39315010e-07 -1.88262973e-07 3.73830460e-07 9.03547061e-07
      1.41953581e-06 1.76786580e-06 6.46986905e-07 -5.22696553e-07
      -3.98952579e-07 -1.27672095e-07 4.49793333e-07 9.20443881e-07
      1.27477119e-06 1.25295003e-06 1.03120112e-06 1.05226638e-06
      -1.40329917e-07 9.00701238e-08 6.53366428e-08 8.32489278e-08
      3.60887896e-07 4.93205221e-07 3.89540588e-07 3.64406617e-07
      3.57374205e-07 -8.13898211e-08 -5.22256414e-07 -5.25190160e-07
      3.89397485e-07 1.20348682e-06 1.13255896e-06 5.67977281e-07
      1.33394479e-07 -2.65554291e-07 -6.77122387e-07 -2.18561496e-07
      7.52229852e-08 3.34354411e-07 1.11275745e-06 1.29029479e-06
      9.63492880e-07 -1.36671208e-09 -4.12931257e-07 8.61970122e-08
      7.95989820e-07 1.36301378e-06 1.61491346e-06 1.38174448e-06
      6.11460621e-07 3.26144544e-07 2.47830542e-07 3.76310737e-07
      4.08150584e-07 4.71726310e-07 6.06610740e-07 9.23471305e-07
      1.49964239e-06 2.07955418e-06 1.37232666e-06 -5.46213386e-08
      -5.21658080e-07 -7.58246188e-07 -2.91670005e-07 3.25026065e-07
      6.52562960e-07 1.18126377e-06 8.90336537e-07 5.96135976e-07
      4.42096251e-07 5.44484976e-07 3.20598588e-07 2.82829888e-07
      5.48287005e-07 7.31469072e-07 4.86559941e-07 4.47860742e-07
      5.01752197e-07 3.47955591e-07 -1.89808716e-07 -2.75625467e-07
      1.06349702e-07 6.24352026e-07 7.82650147e-07 7.91373452e-07
      2.08761350e-07 5.57368640e-09 2.87115313e-07 6.99881468e-07
      5.61101615e-07 9.57417910e-07 1.52061648e-06 1.35079335e-06
      7.02024010e-07 -2.43568309e-07 -6.92586468e-07 -2.11728150e-07
      5.25017413e-07 1.00357613e-06 1.65009146e-06 1.78077084e-06
      1.21098276e-06 5.26645692e-07 3.40882679e-07 4.05727718e-07
      5.79805999e-07 6.41882650e-07 5.70193095e-07 8.02830243e-07
      1.19790241e-06 1.71879378e-06 1.39191900e-06 1.33333472e-07
      -5.50859852e-07 -9.52367941e-07 -8.76207082e-07 -3.50059764e-07
      1.47716335e-07 6.26861663e-07 8.44804333e-07 6.50093000e-07
      1.55984208e-06 1.59876890e-06 1.03880041e-06 6.57138116e-07
      8.09872972e-07 9.28849090e-07 5.22615267e-07 4.24037040e-07
      4.77586184e-07 4.61873896e-07 1.07425713e-07 2.62497633e-08
      -4.04357188e-08 2.14800508e-07 2.85268470e-07 3.96216763e-07
      -7.44199236e-09 1.30477375e-07 4.70549935e-07 5.08368601e-07
      2.96038905e-07 8.31051636e-07 1.37257268e-06 9.95632035e-07
      2.51587096e-07 -3.62084933e-07 -6.96029304e-07 -2.80700618e-07
      2.64774997e-07 5.68997962e-07 1.40364284e-06 1.78712094e-06
      1.61412652e-06 1.22165102e-06 7.76662773e-07 4.75581032e-07
      2.53509853e-07 1.21365646e-08 1.72786741e-07 4.35793311e-07
      7.37794551e-07 9.29707767e-07 6.77801268e-07 1.35511030e-07
      -4.51980270e-07 -8.03735645e-07 -9.50642232e-07 -7.71340353e-07
      -1.46832448e-07 1.78328690e-07 5.32849924e-07 6.82980499e-07
      2.41849921e-06 2.49842537e-06 1.84628527e-06 1.06873870e-06
      1.01142780e-06 8.80447885e-07 5.36470395e-07 2.94278266e-07
      1.98738377e-07 2.16592909e-07 8.34593337e-08 1.07502558e-07
      -1.26963036e-08 1.04963817e-07 1.57979386e-07 3.15398232e-08
      -1.83694866e-07 5.04416349e-08 6.05118373e-08 -8.03003442e-09
      -2.08068727e-07 3.75164802e-07 9.14131988e-07 3.24973911e-07
      -1.50773630e-07 -4.29138112e-07 -6.16329316e-07 -2.85792282e-07
      1.76109637e-07 2.86849541e-07 1.07705921e-06 1.58371040e-06
      1.66808240e-06 1.50790254e-06 1.14573936e-06 8.65252105e-07
      6.61919614e-07 2.14388706e-07 2.60280775e-09 8.83437892e-08
      1.19263774e-07 2.06933365e-07 1.01128016e-07 -3.05359720e-08
      -2.74077905e-07 -6.63003561e-07 -8.83498899e-07 -8.25944539e-07
      -2.58756415e-07 2.77982934e-07 5.47023546e-07 6.92356139e-07
      2.42519036e-06 2.57820693e-06 2.17668389e-06 1.41854161e-06
      1.21739561e-06 8.54492157e-07 3.91113645e-07 1.69640046e-07
      6.15164808e-09 -3.79611897e-08 -9.56696269e-08 -5.65440459e-08
      -2.14802895e-07 -5.54544428e-08 2.97869498e-08 -2.01992975e-07
      -3.41326597e-07 1.72551307e-08 9.53401411e-08 7.67695170e-08
      -6.43675335e-08 9.74887513e-08 1.06986960e-07 -4.20388517e-07
      -7.31999194e-07 -7.30340105e-07 -8.32242847e-07 -5.73440047e-07
      -9.17253473e-08 2.94982776e-08 6.64088873e-07 1.17115871e-06
      1.32289654e-06 1.33193259e-06 1.17337811e-06 8.92008131e-07
      7.70213546e-07 5.98214854e-07 2.45151398e-07 -2.67949041e-08
      -1.00587521e-07 -2.33978255e-07 -3.17469727e-07 -1.50559686e-07
      -1.74298208e-07 -4.98909458e-07 -7.18344438e-07 -5.51675043e-07
      -2.75948850e-07 4.42385357e-07 7.83131554e-07 8.89012711e-07
      2.37148288e-06 2.33124183e-06 2.11161091e-06 1.50290123e-06
      1.46515777e-06 1.12834368e-06 4.87376667e-07 4.90098273e-08
      -5.49483552e-08 -2.01334075e-07 -2.15660521e-07 -3.23837099e-07
      -5.12177905e-07 -9.27519821e-08 5.38151745e-09 -2.23301342e-07
      -3.83476987e-07 -1.78717087e-07 -2.43367868e-08 1.78652812e-07
      1.78395410e-07 1.08942437e-07 3.41329276e-09 -4.44350775e-07
      -8.92258470e-07 -9.23995003e-07 -1.21477910e-06 -1.14527404e-06
      -6.84942108e-07 -4.34744607e-07 1.12568202e-07 5.97482369e-07
      7.80604068e-07 9.56270014e-07 9.18157866e-07 7.38034828e-07
      6.31751163e-07 6.46294097e-07 5.23573931e-07 1.01882584e-07
      -1.61959093e-07 -4.14780715e-07 -6.41169095e-07 -5.85378132e-07
      -3.37023124e-07 -4.85748046e-07 -5.82593941e-07 -4.29973625e-07
      -3.12523895e-07 2.14139490e-07 7.42420923e-07 7.00949272e-07
      2.83920053e-06 2.61277660e-06 2.11300039e-06 1.79822575e-06
      1.77527966e-06 1.39017823e-06 6.67694110e-07 2.43817482e-07
      1.34755311e-07 -1.22269128e-07 -2.45908012e-07 -3.75026474e-07
      -6.02944567e-07 -4.34846072e-07 -3.21350541e-07 -3.07417736e-07
      -4.38835428e-07 -5.04704815e-07 -2.54304695e-07 -5.51173578e-08
      8.81870150e-08 -1.06253530e-07 -2.57975387e-07 -4.75712824e-07
      -7.65006575e-07 -8.22009952e-07 -1.17101933e-06 -1.19124502e-06
      -9.88672241e-07 -8.91674119e-07 -3.90186017e-07 7.27697724e-08
      1.14929840e-07 3.27781606e-07 5.95123538e-07 5.47523825e-07
      5.17992817e-07 6.01474028e-07 4.93932475e-07 1.02755834e-07
      -5.98322316e-08 -2.46467039e-07 -5.32937918e-07 -7.43923863e-07
      -5.98402607e-07 -7.70639076e-07 -8.09427377e-07 -6.77335379e-07
      -4.83754718e-07 -2.75758708e-07 -7.62979582e-08 -1.69095543e-07
      3.17330773e-06 2.88478191e-06 2.34820095e-06 1.98744783e-06
      1.84239536e-06 1.46773664e-06 8.13742929e-07 4.49977080e-07
      3.81158515e-07 3.27056533e-08 -2.41918372e-07 -2.86186065e-07
      -6.14374528e-07 -7.52143251e-07 -8.18438195e-07 -8.07318997e-07
      -9.12072892e-07 -1.05031279e-06 -8.96010647e-07 -5.45667262e-07
      -3.35806845e-07 -5.58569241e-07 -6.96523045e-07 -6.92267008e-07
      -6.94804442e-07 -6.74440912e-07 -8.58374278e-07 -8.83152552e-07
      -9.12356768e-07 -1.10191422e-06 -7.98959150e-07 -4.17401338e-07
      -4.31588603e-07 -2.56112912e-07 -2.35869564e-08 -1.47787190e-07
      -7.11639174e-08 2.91176093e-07 3.07368566e-07 9.32274133e-08
      2.31731292e-08 -7.55409886e-08 -4.47072551e-07 -6.80134519e-07
      -6.50254606e-07 -9.21119977e-07 -1.01862611e-06 -8.79545667e-07
      -6.61216006e-07 -6.16931118e-07 -7.03632963e-07 -6.29369708e-07
      3.35495474e-06 3.04548121e-06 2.52272685e-06 1.99294482e-06
      1.61535570e-06 1.25001304e-06 8.87260967e-07 5.78865240e-07
      6.42174427e-07 2.84954154e-07 -1.66639495e-07 -2.25614443e-07
      -5.50085645e-07 -7.09427752e-07 -8.54582879e-07 -1.08279357e-06
      -1.45144440e-06 -1.66434381e-06 -1.51531219e-06 -1.10269377e-06
      -7.71392138e-07 -8.71894429e-07 -1.15398848e-06 -1.07613482e-06
      -7.40403152e-07 -5.66254187e-07 -4.83362385e-07 -4.50484691e-07
      -6.34574747e-07 -1.09412895e-06 -1.04433468e-06 -7.72669580e-07
      -8.47992794e-07 -8.14682778e-07 -7.41532688e-07 -9.28842837e-07
      -8.77599348e-07 -3.55240417e-07 -1.04077834e-07 -8.36230711e-08
      -8.54635474e-08 -1.33862670e-07 -3.79340378e-07 -6.08213497e-07
      -6.13443433e-07 -8.33688318e-07 -1.05346180e-06 -9.01931401e-07
      -6.38836184e-07 -5.65298933e-07 -5.61175511e-07 -4.08918993e-07
      3.40497036e-06 3.00386182e-06 2.43199725e-06 1.87218018e-06
      1.36668939e-06 7.89148999e-07 5.47832656e-07 4.36496691e-07
      6.42535838e-07 4.13696142e-07 -2.41052778e-08 -1.32120107e-07
      -4.14339780e-07 -5.00327928e-07 -7.39164591e-07 -1.03329808e-06
      -1.65633810e-06 -2.07154267e-06 -1.97828490e-06 -1.48008326e-06
      -9.42892598e-07 -1.05278025e-06 -1.35351240e-06 -1.36466292e-06
      -9.49904290e-07 -5.25332212e-07 -2.93731290e-07 -3.16121913e-07
      -4.51299144e-07 -7.30408431e-07 -9.71832378e-07 -1.04959827e-06
      -1.19551623e-06 -1.52629082e-06 -1.59534318e-06 -1.53782082e-06
      -1.45843831e-06 -9.14583097e-07 -5.04388311e-07 -2.39832644e-07
      -2.13847287e-07 -3.38040394e-07 -3.71497123e-07 -3.35698218e-07
      -3.65731125e-07 -6.45782279e-07 -8.18197918e-07 -8.18607987e-07
      -5.30847217e-07 -3.68238716e-07 -2.56923755e-07 -9.16861538e-08
      3.31349838e-06 2.84777343e-06 2.23992492e-06 1.64392043e-06
      1.05012043e-06 4.20888057e-07 1.37633947e-07 1.72572882e-07
      3.18616202e-07 2.79292180e-07 1.37280787e-09 -2.13058968e-07
      -4.40901033e-07 -4.41963152e-07 -6.83820474e-07 -1.07896517e-06
      -1.67151893e-06 -2.13028648e-06 -2.14523629e-06 -1.61550520e-06
      -1.13122246e-06 -1.14276020e-06 -1.26642715e-06 -1.23655866e-06
      -1.01363287e-06 -5.47808668e-07 -2.26345904e-07 -1.45858735e-07
      -2.62049497e-07 -4.57708353e-07 -7.71819145e-07 -8.68960853e-07
      -1.19315530e-06 -1.68918473e-06 -2.02289084e-06 -2.15604200e-06
      -1.88148670e-06 -1.18139235e-06 -5.89384229e-07 -1.63940626e-07
      -1.15689964e-07 -2.95963531e-07 -2.94873047e-07 -8.62780141e-08
      -2.91683691e-08 -3.19484769e-07 -6.00900137e-07 -7.18821582e-07
      -4.97134693e-07 -1.43456447e-07 1.36750288e-07 3.29971101e-07
      3.11053850e-06 2.75104799e-06 2.14688475e-06 1.57508680e-06
      9.39078177e-07 1.76387104e-07 -1.26843517e-07 6.93367710e-08
      9.17434164e-08 5.15496179e-09 -5.18198426e-08 -2.59676455e-07
      -4.74195929e-07 -3.67189131e-07 -3.80884103e-07 -5.28977523e-07
      -8.61032561e-07 -1.41109285e-06 -1.68406791e-06 -1.50917765e-06
      -1.13036151e-06 -8.14981377e-07 -9.11798566e-07 -9.48619856e-07
      -7.25985842e-07 -3.85608303e-07 -1.35901303e-07 9.61430828e-08
      5.28163679e-10 -2.67060670e-07 -5.56329098e-07 -7.02535147e-07
      -7.90525235e-07 -1.08713152e-06 -1.30301282e-06 -1.41847602e-06
      -1.34159484e-06 -8.34378227e-07 -1.63746748e-07 1.58835391e-07
      2.83957178e-07 1.52416760e-07 -4.31183480e-08 1.92125256e-07
      2.50582502e-07 5.82212749e-08 -2.29297825e-07 -3.61538952e-07
      -3.74188829e-07 -1.18570490e-07 2.25700532e-07 4.10467464e-07
      2.77048980e-06 2.53065718e-06 2.02052070e-06 1.55703196e-06
      1.09744428e-06 4.32760260e-07 -7.09362480e-09 7.67221024e-08
      2.60755915e-08 -1.80872064e-07 -4.24084803e-08 -2.08146389e-07
      -3.36132558e-07 -3.46071971e-07 -3.18115156e-07 1.22929634e-07
      3.27449811e-07 4.78085660e-08 -3.64840872e-07 -4.87203295e-07
      -3.57673230e-07 -3.30479935e-07 -2.73491480e-07 -3.18083380e-07
      -2.76043892e-07 -2.63924107e-07 -1.66599804e-07 1.12740111e-07
      1.18075697e-07 -2.28798413e-07 -5.40265887e-07 -6.29763008e-07
      -6.67662789e-07 -7.35639844e-07 -5.23534652e-07 -1.42940308e-07
      2.07046995e-07 4.48398453e-07 7.10470943e-07 8.46097350e-07
      8.60330942e-07 5.94397079e-07 9.14022777e-08 2.16106599e-07
      4.02611704e-07 2.34458611e-07 -3.47956117e-08 -1.90400982e-07
      -2.77931093e-07 -2.69990068e-07 3.61267638e-08 1.97259411e-07
      2.20355287e-06 2.11203883e-06 1.72761406e-06 1.29278612e-06
      9.66282414e-07 5.36323284e-07 2.20701708e-07 2.32626945e-07
      1.20408359e-07 -1.53870232e-07 -1.30479858e-08 -7.38055093e-08
      -1.82623140e-07 -4.25922735e-07 -4.17509256e-07 2.54791644e-07
      1.04100911e-06 1.34865070e-06 1.14324507e-06 6.03721787e-07
      1.97284976e-07 -6.99771130e-09 -4.13286578e-08 8.26675672e-10
      3.39313573e-07 -5.59059359e-08 -1.63008664e-07 1.07087509e-07
      1.29931195e-07 -1.58199526e-07 -3.88792046e-07 -3.97588167e-07
      -1.88354093e-07 -3.15054072e-09 9.29708577e-08 5.49675747e-07
      1.09876237e-06 1.49092921e-06 1.74029651e-06 1.72107730e-06
      1.57830016e-06 1.06970822e-06 2.12479819e-07 1.17733258e-07
      2.83445473e-07 9.40538172e-08 -3.42244668e-08 -1.35340173e-07
      -2.07875729e-07 -3.52672316e-07 -2.32983538e-07 -6.15678246e-08
      1.70441274e-06 1.62926824e-06 1.27817259e-06 7.48183538e-07
      4.51402371e-07 2.92820175e-07 2.58380936e-07 3.38662687e-07
      8.51455013e-08 -1.96415257e-07 -1.49405949e-07 -7.35209014e-08
      -4.31160629e-07 -9.95371693e-07 -1.18836886e-06 -4.21184893e-07
      6.94292794e-07 1.48297420e-06 1.69091834e-06 1.29125010e-06
      6.79083087e-07 1.15990829e-07 -7.49862821e-08 -5.28397557e-08
      1.89319440e-08 -1.68627992e-08 -1.89197280e-07 -6.36939390e-08
      1.25627849e-07 8.22544024e-08 6.45399894e-08 2.66465804e-07
      5.94213930e-07 8.73806243e-07 1.01428270e-06 1.38371502e-06
      1.83057546e-06 2.11016254e-06 2.21253822e-06 2.23362917e-06
      2.12615464e-06 1.47877336e-06 5.45771343e-07 1.91882748e-07
      3.50648037e-07 9.46427363e-08 -7.27428500e-08 -2.33460781e-07
      -3.07662305e-07 -4.24005123e-07 -4.15379873e-07 -2.49352638e-07
      1.19844663e-06 1.26317923e-06 9.06808452e-07 3.68273589e-07
      -2.55127777e-08 -1.11441729e-07 7.07837486e-08 2.63961084e-07
      -6.56536443e-08 -1.94576742e-07 -2.92988602e-07 -3.07755585e-07
      -7.52087317e-07 -1.76281173e-06 -2.10433745e-06 -1.71888780e-06
      -8.09604160e-07 2.26120335e-07 8.20519290e-07 9.77587433e-07
      1.14006389e-06 6.55305143e-07 2.90203616e-07 1.39584074e-07
      1.05210724e-07 -2.73392828e-07 -2.04583287e-07 -3.19327076e-09
      -6.32454844e-09 -6.64123405e-08 2.26847149e-07 5.22612595e-07
      1.13168255e-06 1.33885237e-06 1.03915784e-06 1.28997567e-06
      1.63382606e-06 1.74502486e-06 1.77776019e-06 1.79785957e-06
      1.79283086e-06 1.38163796e-06 7.95885512e-07 3.76482120e-07
      4.79727248e-07 1.43480378e-07 -9.70943006e-08 -3.99755777e-07
      -5.17030571e-07 -4.95181212e-07 -5.13167834e-07 -3.76146090e-07
      9.58629130e-07 1.10370854e-06 9.30204408e-07 4.90599234e-07
      5.53186865e-08 -1.81108859e-07 7.49017985e-08 2.83743589e-07
      -1.00121532e-07 -3.23425581e-07 -4.12350005e-07 -7.03989031e-07
      -1.18842433e-06 -2.17616412e-06 -3.08148810e-06 -3.07748883e-06
      -2.47616845e-06 -1.64484709e-06 -8.77606340e-07 -3.07884136e-07
      3.20746722e-07 6.80983817e-07 5.75630168e-07 5.34388050e-07
      3.59465133e-07 -7.48710036e-08 -9.41502520e-08 7.88485295e-08
      2.20503971e-08 -7.63332366e-08 1.49057499e-07 3.60851828e-07
      7.00886972e-07 6.46645617e-07 7.01725824e-08 -9.31064505e-08
      2.66898581e-07 3.73374917e-07 5.96645521e-07 8.14071598e-07
      9.59468252e-07 9.58661303e-07 6.32639001e-07 4.45331665e-07
      2.99296971e-07 5.60638931e-08 -2.25173977e-07 -6.84773852e-07
      -9.51297920e-07 -8.39049676e-07 -6.77639491e-07 -5.47135642e-07
      1.32817536e-06 1.30028172e-06 1.14624811e-06 8.33434740e-07
      4.58084031e-07 1.59195636e-07 3.07549982e-07 4.24420847e-07
      8.01287037e-09 -2.03905756e-07 -4.08395096e-07 -1.07390110e-06
      -1.83230952e-06 -2.54972406e-06 -3.04989521e-06 -3.32403533e-06
      -3.62818719e-06 -3.96653786e-06 -3.99401051e-06 -2.61119771e-06
      -1.09562325e-06 7.02048908e-08 5.85629550e-07 9.01897408e-07
      9.41057124e-07 3.98610780e-07 2.36025826e-07 3.43564381e-07
      3.28914666e-07 3.26047598e-07 2.75465766e-07 1.04466899e-07
      4.45633965e-08 -3.44717392e-07 -1.12813882e-06 -1.72882562e-06
      -1.74309241e-06 -1.42831755e-06 -8.49349249e-07 -4.07076129e-07
      2.42968290e-09 2.91055102e-07 2.59437087e-07 3.39603815e-07
      4.75852566e-08 -2.68920047e-07 -3.46676359e-07 -7.59387945e-07
      -1.17208856e-06 -1.17631100e-06 -9.75304147e-07 -8.87432975e-07
      1.70762985e-06 1.57888383e-06 1.31244974e-06 1.06208654e-06
      7.18482511e-07 4.75304518e-07 5.73935040e-07 5.99496104e-07
      2.98948237e-07 -8.05626001e-08 -5.98052281e-07 -1.54170277e-06
      -2.36656297e-06 -2.87526632e-06 -2.83978397e-06 -2.78432708e-06
      -3.13188139e-06 -3.69415579e-06 -4.19528351e-06 -3.84131181e-06
      -2.51787606e-06 -1.08240476e-06 1.62465895e-07 1.17147260e-06
      1.41538635e-06 1.04899709e-06 7.50174252e-07 6.07255231e-07
      4.58605371e-07 8.16823217e-07 9.33823969e-07 6.25690916e-07
      3.65978366e-07 -1.07591710e-07 -1.08700465e-06 -2.01635157e-06
      -2.29831039e-06 -2.18291984e-06 -1.50853566e-06 -9.14340205e-07
      -4.74547392e-07 -2.42282265e-08 -1.19701902e-08 2.47084927e-07
      4.01878708e-08 -2.60176222e-07 -3.88309132e-07 -7.37168591e-07
      -1.14250122e-06 -1.23912150e-06 -1.10700330e-06 -1.10599160e-06
      1.68684949e-06 1.61724552e-06 1.32512582e-06 1.08774520e-06
      7.80297228e-07 5.68736709e-07 6.09476729e-07 7.00673013e-07
      5.58563784e-07 1.70290420e-07 -5.44961438e-07 -1.64766868e-06
      -2.44935313e-06 -2.90808384e-06 -2.95120685e-06 -2.44705529e-06
      -2.10617850e-06 -2.36237702e-06 -2.75326329e-06 -2.61054015e-06
      -2.17522006e-06 -1.47854416e-06 -1.88689370e-07 9.67955316e-07
      1.48632148e-06 1.53779752e-06 1.40607210e-06 7.01478598e-07
      1.37258752e-07 3.33937663e-07 7.22973539e-07 7.73340616e-07
      9.36135848e-07 6.81169581e-07 -2.70405707e-07 -1.33000867e-06
      -1.58653347e-06 -1.52192433e-06 -1.27669989e-06 -1.13435829e-06
      -1.07165715e-06 -6.96377867e-07 -2.51963627e-07 6.23770120e-08
      -1.02168041e-09 3.08147925e-08 -5.28140838e-08 -4.16940964e-07
      -7.23577728e-07 -9.84941835e-07 -1.11343650e-06 -1.05956542e-06
      1.29218336e-06 1.20768038e-06 1.12910641e-06 9.48093373e-07
      6.51440473e-07 4.31304983e-07 4.54810447e-07 5.18823697e-07
      4.36356800e-07 2.31797472e-07 -2.85759882e-07 -1.18376965e-06
      -1.74060744e-06 -2.20679840e-06 -2.69600628e-06 -2.37366726e-06
      -1.54294389e-06 -9.95696496e-07 -9.21174546e-07 -9.64445690e-07
      -6.92271556e-07 -3.99803838e-07 -3.35107089e-08 9.08106188e-07
      1.56905230e-06 1.73775538e-06 1.78860671e-06 9.91352408e-07
      1.86256301e-07 -2.84543660e-08 -1.16710845e-08 1.25253791e-07
      5.74419744e-07 8.04039985e-07 2.28580717e-07 -5.18766001e-07
      -9.16994736e-07 -8.51135042e-07 -9.08204697e-07 -1.00953514e-06
      -1.36002700e-06 -1.26377972e-06 -6.45627210e-07 -1.26305594e-07
      -1.39594889e-07 2.38925310e-07 2.14460513e-07 -2.67788227e-08
      2.01681853e-08 -3.12257413e-07 -8.47148215e-07 -9.14583552e-07
      1.17739546e-06 8.55547682e-07 7.67901213e-07 6.31626051e-07
      3.83637570e-07 2.45845456e-07 3.20890109e-07 2.93300673e-07
      8.63095693e-08 -9.35602174e-08 -2.80569736e-07 -9.23344487e-07
      -1.25455517e-06 -1.46930677e-06 -1.94197969e-06 -2.07830340e-06
      -1.38109624e-06 -4.61281502e-07 8.98077559e-08 1.05772706e-07
      3.07806630e-07 5.10986126e-07 6.24421602e-07 8.51851780e-07
      1.38807923e-06 1.62115271e-06 1.73064336e-06 1.35568666e-06
      5.74475393e-07 9.42143998e-08 -1.53761675e-07 -3.08427872e-07
      4.98611143e-08 1.72381235e-07 -1.11989396e-08 -1.11369680e-07
      -4.89206343e-07 -4.07432140e-07 -5.71221904e-07 -5.54728558e-07
      -4.91255491e-07 -4.82461928e-07 -4.27802206e-07 -4.01320136e-07
      -4.21389643e-07 2.82158066e-08 1.14994087e-07 -1.64851066e-08
      2.81862128e-07 2.46891346e-07 -2.67441749e-07 -5.53439406e-07
      8.93553079e-07 5.49369929e-07 3.69585223e-07 2.45044447e-07
      7.37318384e-09 -1.54429387e-07 2.15802359e-07 2.39483256e-07
      -5.60303581e-09 -3.15285803e-07 -5.39833991e-07 -1.00370642e-06
      -1.26166776e-06 -1.12849773e-06 -1.28945430e-06 -1.42208194e-06
      -1.16871070e-06 -7.27077122e-07 2.08443524e-07 4.72942560e-07
      3.78642142e-07 6.51622940e-07 9.02324587e-07 6.97215057e-07
      6.94959624e-07 1.05156005e-06 1.44648732e-06 1.37488757e-06
      9.73106467e-07 5.30963860e-07 1.22528803e-07 -2.37642581e-07
      -1.17763825e-07 -1.74935892e-07 -4.69629100e-07 -6.36664481e-07
      -4.04782838e-07 -2.61723727e-07 -4.67193814e-07 -3.94113101e-07
      -6.16713702e-09 2.00099649e-07 1.48480012e-07 -4.92863030e-08
      -5.05328671e-07 -4.05051139e-07 -2.74772674e-07 -2.29721806e-07
      5.01702040e-08 3.99610968e-07 2.53459888e-07 -3.26866605e-08
      3.43936591e-07 1.27102410e-07 -4.89924012e-08 -1.55521604e-07
      -2.69571331e-07 -4.75616275e-07 -1.92259890e-07 2.50922795e-07
      4.45647004e-08 -2.61424816e-07 -7.41332201e-07 -1.31809679e-06
      -1.52655434e-06 -1.46308651e-06 -1.25681697e-06 -9.34989657e-07
      -8.63347452e-07 -6.12126314e-07 -1.79657150e-07 -3.35625949e-09
      3.07344067e-07 7.85704287e-07 9.39572487e-07 4.12008319e-07
      7.41545421e-08 5.04904904e-07 1.10391898e-06 1.32717844e-06
      1.34301877e-06 1.21395351e-06 7.96615495e-07 3.61968347e-07
      1.81473752e-07 -6.32890220e-08 -5.30367288e-07 -9.15932219e-07
      -1.10798271e-06 -1.16258764e-06 -1.36773338e-06 -1.05187360e-06
      -6.72909437e-07 -5.78891843e-07 -3.27510861e-07 -1.07154094e-07
      -5.71087639e-07 -8.26637404e-07 -7.49479170e-07 -6.44162810e-07
      -1.53889630e-07 3.45336105e-07 5.16606804e-07 4.02202176e-07
      -1.50090386e-07 -1.87781851e-07 -2.40390051e-07 -2.81643707e-07
      -3.51398000e-07 -4.92888660e-07 -1.58029664e-07 2.82865443e-07
      2.51723851e-08 -1.45904650e-07 -7.67488871e-07 -1.43586124e-06
      -1.64085054e-06 -1.61489947e-06 -1.28657109e-06 -5.65622827e-07
      -2.90129236e-07 -3.11208424e-07 -2.17808548e-07 -1.39010609e-07
      2.82272424e-07 6.84305007e-07 6.14950750e-07 2.67708007e-08
      -1.65543184e-07 2.63320175e-07 8.91572597e-07 1.32329251e-06
      1.53881047e-06 1.69778912e-06 1.53795952e-06 1.13437397e-06
      9.35898981e-07 4.97578469e-07 -2.26004644e-07 -8.84747976e-07
      -1.56981082e-06 -2.05489846e-06 -2.26725570e-06 -1.86312786e-06
      -1.54231191e-06 -1.35179664e-06 -9.10452286e-07 -5.23605159e-08
      -2.32397511e-07 -8.10686345e-07 -8.52249912e-07 -7.58420470e-07
      -3.40317570e-07 2.51939980e-07 3.87068127e-07 2.89765438e-07
      -1.88037390e-07 -1.33987442e-07 -2.73965099e-07 -3.22191141e-07
      -3.25516908e-07 -3.97738830e-07 -9.48383700e-08 1.91601785e-07
      1.25707826e-08 -8.19958288e-08 -4.81569373e-07 -1.10775318e-06
      -1.53091275e-06 -1.88986758e-06 -1.32461571e-06 -5.06458264e-07
      -1.08636407e-07 3.87968839e-08 1.06460590e-07 1.51336977e-07
      4.95819961e-07 6.05460514e-07 4.00349990e-07 -1.64757978e-07
      -2.39614849e-07 5.61649536e-08 5.48798596e-07 8.56754411e-07
      1.03288392e-06 1.47680453e-06 1.69631778e-06 1.50074595e-06
      1.15821024e-06 9.28047655e-07 2.84666243e-07 -6.05839716e-07
      -1.67957614e-06 -2.42818282e-06 -2.86896488e-06 -2.42499232e-06
      -1.97749091e-06 -1.80329050e-06 -1.34925006e-06 -3.23716790e-07
      1.90144675e-07 -4.49645343e-09 -1.62717001e-07 -1.05036108e-07
      7.76462628e-08 3.14190402e-07 3.55369195e-07 1.57073799e-07
      4.14824406e-08 9.58825552e-08 -2.02534707e-07 -3.67364208e-07
      -3.67482301e-07 -4.47206219e-07 -2.33974063e-07 -5.57441417e-08
      -3.01680416e-07 -3.05353069e-07 -4.37125038e-07 -5.83396115e-07
      -9.92580340e-07 -1.67645931e-06 -1.42469082e-06 -6.14560179e-07
      -2.02060434e-07 6.86804782e-08 3.69498963e-07 5.53840152e-07
      8.05967318e-07 7.49073990e-07 4.67957989e-07 1.54047413e-07
      7.80795375e-08 -2.29004993e-08 2.78490546e-07 4.92544473e-07
      5.99709551e-07 9.71091822e-07 1.18760602e-06 1.24023904e-06
      1.02050717e-06 9.94156153e-07 7.05639877e-07 2.68343836e-08
      -9.57251018e-07 -1.88260185e-06 -2.64917867e-06 -2.69984912e-06
      -2.31520471e-06 -2.05791730e-06 -1.64140397e-06 -8.24447341e-07
      -1.03268576e-07 2.82429880e-07 3.72810462e-07 6.59743762e-07
      7.00438818e-07 5.77243270e-07 4.76694879e-07 2.63103033e-07
      2.81708793e-07 2.78384817e-07 -2.52890491e-08 -3.35833732e-07
      -3.26024661e-07 -4.38539359e-07 -4.38730552e-07 -4.76428795e-07
      -8.38060373e-07 -8.40171026e-07 -7.54981158e-07 -3.06270351e-07
      -3.77092135e-07 -8.91162017e-07 -7.11303244e-07 -1.59545678e-07
      -1.76091845e-07 2.11330217e-07 8.61963656e-07 1.07253493e-06
      1.19522645e-06 1.19147637e-06 8.37628193e-07 3.81096555e-07
      2.16758579e-07 4.70433754e-08 1.62469348e-07 4.72206438e-07
      3.56880037e-07 1.30015721e-07 3.74213528e-07 7.49320009e-07
      7.53521192e-07 5.64893696e-07 5.55734744e-07 4.75420592e-07
      -8.01689026e-08 -8.48252057e-07 -1.54835789e-06 -2.25427243e-06
      -2.47001344e-06 -2.33860010e-06 -1.99429269e-06 -1.44160515e-06
      -7.00320186e-07 -4.03414973e-08 2.85110843e-07 9.29577766e-07
      1.05689310e-06 8.20203866e-07 6.90190404e-07 5.46198237e-07
      2.40900192e-07 2.81725647e-07 1.85319209e-07 6.43113722e-08
      -1.82050712e-07 -2.86545173e-07 -4.20571666e-07 -6.99916711e-07
      -1.26033933e-06 -1.36849189e-06 -1.16141473e-06 -5.50564550e-07
      -1.64740484e-07 -1.11496817e-07 2.58534442e-07 6.38559641e-07
      1.26464499e-07 3.69988300e-07 1.12663417e-06 1.44928310e-06
      1.76663923e-06 1.74304682e-06 1.40918178e-06 9.54117468e-07
      3.63721227e-07 -1.04834257e-07 8.89127847e-08 3.59422415e-07
      4.67761737e-07 1.83048286e-07 2.86388399e-07 2.78800542e-07
      1.56384800e-07 -5.51649784e-08 6.41930242e-09 4.19516823e-07
      3.92751247e-07 2.76180543e-07 -1.59049435e-07 -8.09359790e-07
      -1.51142558e-06 -1.76701099e-06 -1.79067217e-06 -1.58815044e-06
      -1.05769880e-06 -6.06757624e-07 -1.53984985e-07 6.36856839e-07
      1.17077866e-06 1.05423135e-06 8.32366311e-07 5.23345420e-07
      3.39746038e-07 3.62454983e-07 4.21885858e-07 3.58616177e-07
      -6.98116631e-09 -2.90146318e-07 -4.09256273e-07 -8.53414349e-07
      -1.06572998e-06 -1.11520387e-06 -1.01961075e-06 -6.08311097e-07
      7.27881888e-09 3.24482471e-07 8.93944616e-07 1.18142361e-06
      6.03332808e-07 5.35653328e-07 9.92056243e-07 1.20631876e-06
      1.54162410e-06 1.61240234e-06 1.66879931e-06 1.73306569e-06
      1.02000922e-06 2.33254553e-07 4.45394221e-07 7.08748075e-07
      8.11124778e-07 7.40106373e-07 8.84869337e-07 7.47849697e-07
      -7.69184680e-08 -6.11118821e-07 -3.25178831e-07 5.99461885e-08
      3.43428411e-07 5.61291017e-07 6.66607946e-07 4.18415766e-07
      -2.94425575e-07 -6.51944390e-07 -9.22407708e-07 -8.58615692e-07
      -6.39485108e-07 -5.20567596e-07 -2.11718401e-07 5.77178866e-07
      9.63189109e-07 1.09888026e-06 9.08687468e-07 4.40180742e-07
      7.26542737e-07 7.28029136e-07 8.17853504e-07 5.91234539e-07
      -2.66799720e-08 -5.68509904e-07 -8.04646731e-07 -9.07981928e-07
      -8.31440332e-07 -5.26977203e-07 -4.22467139e-07 -5.03520255e-07
      -2.12963968e-07 1.44968260e-08 6.93934851e-07 1.29031866e-06
      8.43414682e-07 7.27851841e-07 6.19101854e-07 6.66970948e-07
      8.44744022e-07 7.58167630e-07 1.04936169e-06 1.56964336e-06
      1.35919606e-06 8.67136350e-07 8.39516360e-07 9.94287348e-07
      8.22910408e-07 8.13342979e-07 9.88467150e-07 1.02937599e-06
      4.30636504e-07 -5.68981193e-07 -7.27929489e-07 -6.04445404e-07
      -2.35371232e-07 2.35543865e-07 2.42987937e-07 1.64720703e-07
      1.88371857e-07 7.05583716e-08 -1.49882382e-07 -2.59067662e-07
      -2.20594046e-07 2.66226365e-08 2.17837467e-07 8.51134644e-07
      1.20667755e-06 1.40606460e-06 1.31299987e-06 1.04559206e-06
      8.76316392e-07 9.09810979e-07 9.88522629e-07 8.32314981e-07
      -6.41648938e-08 -8.56273459e-07 -1.23410030e-06 -1.18734101e-06
      -8.98664211e-07 -3.70736160e-07 -7.36199501e-09 2.16116867e-08
      2.24191936e-08 -4.42420820e-08 1.12301727e-07 4.97643953e-07
      7.34396338e-07 8.92691958e-07 6.42921748e-07 4.96085306e-07
      2.90098313e-07 -2.47864538e-08 1.71961162e-07 7.87939882e-07
      1.13446470e-06 1.18050741e-06 1.21216829e-06 1.18198102e-06
      1.04329695e-06 6.48666571e-07 4.78043148e-07 7.70838483e-07
      5.49609695e-07 -3.29387206e-07 -9.94352717e-07 -9.82028496e-07
      -6.48684704e-07 -5.12285055e-07 -6.68437963e-07 -9.48022205e-07
      -8.62991612e-07 -3.28841196e-07 -6.85986166e-08 4.94522396e-08
      -1.54344704e-07 2.25642509e-07 7.36881930e-07 1.24804581e-06
      1.61223056e-06 1.84848238e-06 2.09558561e-06 2.04577759e-06
      1.09998325e-06 1.05474885e-06 1.01242415e-06 8.19121055e-07
      1.01978010e-07 -8.56417898e-07 -1.31286708e-06 -1.56944930e-06
      -1.43462523e-06 -8.40471955e-07 -1.98654845e-07 2.85428797e-07
      6.31767932e-07 3.95812918e-07 3.40625697e-08 2.15366178e-08
      4.93081309e-08 5.98548183e-07 8.61650847e-07 6.59670945e-07
      2.57798376e-07 -2.85073554e-07 -2.08348425e-07 -1.54117163e-08
      4.94464985e-07 9.22987454e-07 1.09596613e-06 1.00843886e-06
      8.43168834e-07 5.88127364e-07 2.40428648e-07 4.41994985e-07
      6.91363766e-07 6.67738647e-08 -5.85079079e-07 -8.49245907e-07
      -5.67741154e-07 -4.63192521e-07 -9.47818819e-07 -1.37982954e-06
      -1.46600269e-06 -1.52306143e-06 -1.09136079e-06 -5.13635484e-07
      -5.49640959e-07 3.13435322e-08 8.89691250e-07 1.49857067e-06
      1.99014744e-06 2.18594573e-06 2.20733932e-06 2.45850924e-06
      1.97791451e-06 1.62492506e-06 1.16145850e-06 8.34278978e-07
      2.99497657e-07 -5.91801722e-07 -1.16838612e-06 -1.79791391e-06
      -2.08407891e-06 -1.57524778e-06 -9.41089468e-07 -3.09256222e-07
      5.45816533e-07 6.53041184e-07 5.47420029e-08 -2.41002709e-07
      -1.06966070e-07 1.49085423e-07 5.56490363e-07 5.90147408e-07
      3.49835858e-07 6.31311252e-08 -7.09864310e-08 -9.23532184e-09
      3.21743869e-07 6.80459209e-07 8.17336343e-07 7.20756134e-07
      5.12547615e-07 4.97591031e-07 2.08540058e-07 3.59495772e-07
      6.20262426e-07 4.93674293e-07 2.82962901e-07 -1.06158254e-07
      -1.24737028e-07 5.23833954e-08 -2.38173627e-07 -5.84591930e-07
      -9.67329356e-07 -1.62857850e-06 -1.82828273e-06 -1.17882655e-06
      -1.05017477e-06 -3.71371414e-07 5.05874311e-07 1.60652542e-06
      2.33449509e-06 2.48625179e-06 2.43172803e-06 2.62650065e-06
      3.70265388e-06 3.03302295e-06 2.02557044e-06 1.14891725e-06
      5.12493330e-07 -2.15132047e-07 -9.22627237e-07 -1.61597529e-06
      -2.23286293e-06 -2.19424192e-06 -1.72946966e-06 -1.07661424e-06
      7.04856120e-08 6.47484967e-07 1.83852293e-07 -1.69000302e-07
      2.54701735e-08 2.07186389e-07 4.91997753e-07 5.32571619e-07
      6.25776835e-08 1.75345122e-07 3.96144003e-07 5.25017185e-07
      7.22975415e-07 7.26364988e-07 6.09072572e-07 6.93572360e-07
      5.99644011e-07 4.77613014e-07 3.94800054e-07 3.80079882e-07
      2.78624896e-07 4.10880489e-07 8.72781754e-07 7.99281281e-07
      4.55666054e-07 5.18101388e-07 7.27239865e-07 8.06639775e-07
      5.50177447e-07 -3.04465090e-07 -9.75221951e-07 -9.12809924e-07
      -1.01682974e-06 -5.75140291e-07 3.64210564e-07 1.66836242e-06
      2.50670314e-06 3.01570776e-06 3.13664964e-06 3.33747084e-06
      4.63301012e-06 4.10782604e-06 2.88730416e-06 1.72827345e-06
      8.74192267e-07 1.20875569e-07 -5.64266088e-07 -1.21531491e-06
      -1.79453014e-06 -2.04588628e-06 -2.03596392e-06 -1.80335587e-06
      -8.04915544e-07 2.63821335e-07 5.64983168e-07 3.50921511e-07
      3.35118386e-07 4.36510845e-07 5.64045422e-07 5.36272694e-07
      -2.63676725e-08 4.68063952e-08 6.49789683e-07 1.05319043e-06
      8.80270306e-07 6.86897636e-07 5.52829988e-07 7.28573525e-07
      7.04687693e-07 6.16922421e-07 6.08209916e-07 3.41443496e-07
      -2.84443988e-08 1.68454459e-08 6.35588776e-07 8.78523508e-07
      8.50439847e-07 9.59830118e-07 1.27231363e-06 1.54313261e-06
      1.41565476e-06 1.03582033e-06 3.36887581e-07 -2.22550753e-07
      -7.00327746e-07 -5.87542388e-07 2.79901542e-07 1.57651050e-06
      2.59809053e-06 3.33847038e-06 3.85363182e-06 4.26125735e-06
      4.97311703e-06 4.67011614e-06 3.43892543e-06 2.12178520e-06
      1.08341840e-06 2.58769603e-07 -4.18055151e-07 -8.89062960e-07
      -1.27722160e-06 -1.35116125e-06 -1.61915068e-06 -1.79007657e-06
      -1.24277085e-06 -1.31505388e-07 3.93202924e-07 3.61137808e-07
      5.65852361e-07 7.30603972e-07 5.33747425e-07 4.07989177e-07
      -6.78539962e-08 -4.73351172e-08 6.47837737e-07 1.10133249e-06
      8.75905585e-07 6.86757744e-07 6.26563804e-07 7.12276972e-07
      7.32944898e-07 5.73459602e-07 5.42121029e-07 4.18039576e-07
      -2.04573940e-08 -2.43784456e-07 1.87670267e-07 4.59732405e-07
      6.16798957e-07 9.52731511e-07 1.28198599e-06 1.52340704e-06
      1.41992075e-06 9.68868676e-07 3.37462239e-07 -2.12762288e-07
      -4.98678730e-07 -5.54424389e-07 -1.88368343e-09 1.11876284e-06
      2.28376939e-06 3.29285604e-06 4.11815154e-06 4.60371666e-06
      3.90026543e-07 3.80670002e-07 6.59199770e-07 8.83097016e-07
      6.97123767e-07 3.45293955e-07 2.08787014e-07 1.85376209e-07
      8.74674768e-08 2.08431061e-07 2.53655685e-07 2.78338092e-07
      2.13558792e-07 1.25943117e-07 -3.30410854e-09 -8.42520294e-08
      -3.04156060e-07 -4.91421815e-07 -5.77282094e-07 -6.59361660e-07
      -5.02684827e-07 -1.50171658e-07 -6.32560386e-08 -1.82955333e-07
      -1.98056611e-07 -7.38333767e-08 3.01428216e-10 1.14640876e-07
      -4.81433311e-08 -3.83945292e-07 -5.68711926e-07 -6.80495134e-07
      -7.19544801e-07 -8.23181040e-07 -9.53709218e-07 -9.91126058e-07
      -9.32070634e-07 -7.87506110e-07 -5.61741501e-07 -2.41498213e-07
      1.16319271e-07 -2.04320223e-08 -1.93871685e-07 -1.56426552e-07
      -1.18456242e-07 -1.39333494e-07 1.30979004e-07 5.44697286e-07
      8.49515573e-07 9.52607820e-07 8.37575499e-07 7.46739715e-07
      4.00192079e-07 2.63893185e-07 2.20535668e-07 3.61592470e-07
      4.98451925e-07 3.77907469e-07 2.39047864e-07 1.42101101e-07
      5.50954837e-09 -1.90534621e-07 -4.53152538e-08 6.83000891e-08
      6.57731363e-08 2.21893430e-07 1.77573440e-07 9.43991125e-08
      -1.69396301e-08 -2.94570754e-07 -4.69199819e-07 -4.39428675e-07
      -4.96866903e-07 -4.71214065e-07 -3.28169875e-07 -2.83954392e-07
      -3.47812744e-07 -2.94240550e-07 -1.94033888e-07 -7.75354394e-08
      3.58733452e-08 -1.19045673e-07 -4.47668839e-07 -6.23935591e-07
      -6.91882008e-07 -7.00366797e-07 -7.14090163e-07 -7.92148512e-07
      -7.86945407e-07 -7.06314268e-07 -5.23898279e-07 -2.96461792e-07
      -2.27117205e-08 2.09701213e-07 1.27401208e-07 2.92073778e-08
      9.34431696e-08 1.50766795e-07 1.54672193e-07 4.24879630e-07
      7.71301018e-07 1.06360665e-06 1.03460093e-06 7.67757967e-07
      4.99621649e-07 2.35941158e-07 1.12158695e-07 -2.81292833e-09
      8.92975009e-08 1.84272622e-07 2.02445889e-07 4.51169164e-08
      -1.33158963e-07 -3.07626294e-07 -4.36828429e-07 -2.07750858e-07
      -7.58633618e-08 7.68223245e-08 2.39538906e-07 1.49047906e-07
      4.15981098e-08 -8.13160739e-08 -2.87535869e-07 -3.05863608e-07
      -2.58400348e-07 -4.10359974e-07 -5.60436774e-07 -5.32012564e-07
      -5.11423480e-07 -4.98436407e-07 -3.91648825e-07 -3.19167668e-07
      -2.32439930e-07 -1.02117291e-07 -2.37472108e-07 -4.72315008e-07
      -5.93138793e-07 -5.71740713e-07 -6.22527182e-07 -6.37542655e-07
      -5.85467035e-07 -5.25604889e-07 -4.26909082e-07 -2.44483658e-07
      -6.86849262e-08 7.16346662e-08 2.13057362e-07 2.05666566e-07
      1.54317107e-07 3.29755608e-07 4.39028867e-07 4.36743932e-07
      5.70376187e-07 8.60463217e-07 1.00728801e-06 7.95832193e-07
      6.79028403e-07 3.21937080e-07 9.00153481e-08 -8.25910220e-08
      -1.91306057e-07 -8.62679528e-08 1.45632370e-07 1.25648995e-07
      -1.78393705e-07 -4.40273965e-07 -5.97956557e-07 -5.38944676e-07
      -3.34748876e-07 -1.99074506e-07 1.21536203e-07 1.21871253e-07
      7.91493804e-08 -5.18203507e-08 -1.84456638e-07 -2.98699746e-07
      -2.64829396e-07 -1.96802233e-07 -4.97603082e-07 -6.75211481e-07
      -6.59876719e-07 -6.11330961e-07 -6.03812850e-07 -5.22491916e-07
      -5.31276669e-07 -4.79508856e-07 -2.40991255e-07 -2.62192174e-07
      -4.20904684e-07 -4.38302322e-07 -4.27341377e-07 -5.97900339e-07
      -5.36149230e-07 -3.85694051e-07 -3.43862041e-07 -1.95384786e-07
      -9.03893991e-08 -8.62473470e-09 -2.06898960e-08 1.43774500e-07
      1.34277627e-07 1.92257573e-07 4.21035111e-07 5.90583909e-07
      5.20351080e-07 6.90031186e-07 7.57201292e-07 6.88721798e-07
      5.49679669e-07 4.45190267e-07 1.22480770e-07 1.72882875e-09
      -2.43471533e-07 -2.99921822e-07 -8.64046115e-08 1.35863885e-07
      -2.72551515e-09 -4.27069807e-07 -6.89700244e-07 -6.74630655e-07
      -6.30387603e-07 -4.81037546e-07 -1.33869847e-07 1.76574559e-08
      8.51746478e-08 5.13974676e-08 -1.14910300e-07 -2.03484348e-07
      -3.46739881e-07 -2.67143633e-07 -2.77590487e-07 -5.89502065e-07
      -7.27130896e-07 -6.77614310e-07 -6.65712776e-07 -7.28351552e-07
      -7.92075639e-07 -8.48465731e-07 -7.00789826e-07 -3.26598183e-07
      -2.26722619e-07 -2.76564265e-07 -2.78197973e-07 -3.92054716e-07
      -5.28411363e-07 -4.26433587e-07 -2.73102273e-07 -2.47190798e-07
      -9.49293408e-08 -1.35206557e-08 -4.96780714e-08 -5.58808004e-08
      4.95300085e-08 4.06383229e-08 7.15080404e-08 5.31084709e-07
      6.99034445e-07 5.72386341e-07 6.53124005e-07 5.30404407e-07
      9.83222606e-08 3.74597590e-07 2.29877756e-07 -8.24232771e-09
      -2.37604098e-07 -4.74329966e-07 -3.47104560e-07 -1.14124949e-08
      5.41786633e-08 -1.56926859e-07 -5.23570009e-07 -7.20093510e-07
      -7.24639222e-07 -6.89926026e-07 -4.87203693e-07 -1.69676113e-07
      -6.90948809e-08 1.48953049e-07 6.89249831e-08 -8.67128520e-08
      -2.27575015e-07 -3.51119155e-07 -3.14986721e-07 -4.10769957e-07
      -5.65798302e-07 -5.87284546e-07 -5.57610633e-07 -7.31945306e-07
      -9.21674484e-07 -1.07724975e-06 -1.10662256e-06 -8.27488918e-07
      -4.12434247e-07 -1.36940514e-07 -1.54489115e-07 -2.23237066e-07
      -3.17564599e-07 -4.22985266e-07 -3.54683550e-07 -2.73288805e-07
      -2.33782345e-07 -8.19852772e-08 -4.15272332e-08 -3.57833194e-08
      -2.78011960e-08 5.19767296e-09 -2.04335606e-08 2.66469016e-07
      7.60131229e-07 7.38274366e-07 5.53193729e-07 5.65677794e-07
      -2.74272878e-07 -6.47824976e-08 2.00799931e-07 4.10078371e-08
      -2.32509365e-07 -5.31706860e-07 -6.07984248e-07 -2.22295228e-07
      1.22966711e-07 3.28642855e-08 -1.50532870e-07 -3.60085863e-07
      -5.78954086e-07 -7.25967482e-07 -7.41705207e-07 -4.69068084e-07
      -2.63577675e-07 -1.26872237e-07 9.97508849e-08 9.15269567e-08
      -1.40846993e-07 -4.18956347e-07 -4.36270085e-07 -3.65293829e-07
      -3.29062431e-07 -3.28476574e-07 -3.60963980e-07 -5.06670574e-07
      -8.34003231e-07 -1.16969181e-06 -1.30330932e-06 -1.19022422e-06
      -9.11820337e-07 -4.02912519e-07 -7.46037685e-08 -1.81365451e-07
      -2.49459845e-07 -3.11863772e-07 -3.74999502e-07 -3.69583631e-07
      -2.93236042e-07 -2.41875313e-07 -8.85756180e-08 8.70875070e-08
      1.43484272e-07 6.06793620e-08 3.13495008e-08 1.60292757e-07
      6.07526601e-07 7.89507510e-07 6.26043686e-07 4.58493389e-07
      -1.37429865e-07 -3.89888783e-07 -2.26511560e-07 4.52336977e-08
      -1.21772075e-07 -3.53395620e-07 -6.27415659e-07 -5.02308126e-07
      -7.49669766e-08 2.14838181e-07 1.01895914e-07 1.24086128e-07
      5.50226389e-08 -3.62853484e-07 -6.83576843e-07 -8.04470687e-07
      -5.60293756e-07 -4.52922620e-07 -2.50474244e-07 -3.00940606e-08
      -6.93847397e-08 -4.00029279e-07 -5.60858723e-07 -3.60282598e-07
      -1.61973631e-07 -6.60591439e-08 -1.12297613e-07 -3.44731291e-07
      -6.50209586e-07 -1.04096785e-06 -1.39030146e-06 -1.38907387e-06
      -1.17999468e-06 -8.30298177e-07 -3.65346040e-07 -1.15105607e-07
      -2.61520427e-07 -3.27738036e-07 -2.59281023e-07 -3.41710091e-07
      -3.41686842e-07 -2.42643665e-07 -4.21866666e-08 2.30135967e-07
      4.45499353e-07 3.88694133e-07 1.13063763e-07 1.19778662e-07
      4.57874819e-07 5.85143539e-07 5.33598381e-07 4.20846845e-07
      3.37700442e-07 -2.32365593e-07 -4.89926549e-07 -2.74402623e-07
      -4.02750331e-08 -2.42882237e-07 -4.77312653e-07 -6.56137274e-07
      -4.09877543e-07 -2.86992652e-08 1.36583978e-07 1.31486217e-07
      2.26527703e-07 8.98524917e-08 -1.69710248e-07 -5.25255359e-07
