<?xml version="1.0"?>
<opencv_storage>
<my_svm type_id="opencv-ml-svm">
  <svm_type>C_SVC</svm_type>
  <kernel><type>LINEAR</type></kernel>
  <C>1.</C>
  <term_criteria><epsilon>2.2204460492503131e-16</epsilon>
    <iterations>1000000</iterations></term_criteria>
  <var_all>108160</var_all>
  <var_count>108160</var_count>
  <class_count>2</class_count>
  <class_labels type_id="opencv-matrix">
    <rows>1</rows>
    <cols>2</cols>
    <dt>i</dt>
    <data>
      0 1</data></class_labels>
  <sv_total>1</sv_total>
  <support_vectors>
    <_>
      1.40417546e-06 1.39256542e-06 1.34326137e-06 1.21533219e-06
      8.21441915e-07 3.50659150e-07 -1.43476669e-07 -8.46740477e-07
      -1.42160320e-06 -1.79100209e-06 -2.15561226e-06 -2.48616971e-06
      -2.96631538e-06 -3.33082198e-06 -3.04026389e-06 -2.19904700e-06
      -1.10270753e-06 -9.13176237e-08 7.35254673e-07 1.01064029e-06
      1.09315386e-06 1.13357464e-06 1.14152795e-06 1.20064738e-06
      1.37035659e-06 1.49247091e-06 1.46390846e-06 1.32900357e-06
      1.08173106e-06 7.01297381e-07 1.53468420e-07 -3.29087612e-07
      -7.24084202e-07 -8.52391906e-07 -6.75407762e-07 -3.82719151e-07
      7.47753575e-08 3.79818090e-07 5.06039328e-07 2.66209526e-07
      -1.36119866e-07 -7.27746624e-07 -1.24909434e-06 -1.43016962e-06
      -1.59075432e-06 -1.51873382e-06 -1.17583375e-06 -4.97233145e-07
      3.87246700e-07 9.50010246e-07 1.25766917e-06 1.37732013e-06
      5.07859511e-07 5.17718888e-07 4.52450450e-07 2.51102875e-07
      -1.22580355e-08 -4.08105677e-07 -8.83416931e-07 -1.33162769e-06
      -1.62047422e-06 -1.72356579e-06 -1.75449202e-06 -1.84364615e-06
      -2.03643458e-06 -2.25702138e-06 -2.40247573e-06 -2.16353942e-06
      -1.59279227e-06 -8.99768906e-07 -1.76249060e-07 3.63462419e-07
      6.28643761e-07 7.00924375e-07 6.16881096e-07 4.49023872e-07
      2.40623564e-07 -1.05105773e-08 -2.54012036e-07 -4.65456651e-07
      -6.48323919e-07 -8.04505305e-07 -9.23970049e-07 -9.37151299e-07
      -8.15875865e-07 -5.80215385e-07 -2.47160443e-07 1.35124196e-07
      4.49177975e-07 6.47155105e-07 6.52815970e-07 4.02593287e-07
      -1.24149821e-07 -7.45311581e-07 -1.28029023e-06 -1.62561128e-06
      -1.75774369e-06 -1.66053985e-06 -1.29076989e-06 -7.73965894e-07
      -2.58272138e-07 1.22916262e-07 2.92070041e-07 3.27142629e-07
      8.53417589e-07 7.99581642e-07 6.06518370e-07 2.47007108e-07
      -1.55287367e-07 -5.79223524e-07 -9.50699246e-07 -1.18782430e-06
      -1.21615869e-06 -1.05842309e-06 -8.08821824e-07 -6.18919273e-07
      -6.06889955e-07 -7.94556399e-07 -1.18251239e-06 -1.60374611e-06
      -1.94931295e-06 -2.07425978e-06 -1.81699863e-06 -1.38008681e-06
      -8.12483734e-07 -3.94034089e-07 -3.27360681e-07 -5.24954885e-07
      -8.34382263e-07 -1.10927579e-06 -1.23560449e-06 -1.13055796e-06
      -8.32369665e-07 -3.44686015e-07 2.24181719e-07 7.92461890e-07
      1.21119217e-06 1.46721129e-06 1.51358427e-06 1.42691397e-06
      1.24436883e-06 9.79480433e-07 6.29822807e-07 1.80709904e-07
      -3.29269824e-07 -8.10791164e-07 -1.20109132e-06 -1.36830033e-06
      -1.32254559e-06 -1.08103143e-06 -6.29338501e-07 -7.03855321e-08
      3.01209838e-07 5.41980455e-07 6.42250598e-07 6.67970141e-07
      1.97392546e-06 1.93488404e-06 1.86205068e-06 1.47120954e-06
      7.90529100e-07 5.31362332e-07 3.10338692e-07 8.30503382e-08
      -7.88385748e-08 -1.74999542e-07 -2.11511960e-07 -2.65812872e-07
      -4.06512697e-07 -7.26222709e-07 -1.19762751e-06 -1.66846735e-06
      -2.26327620e-06 -2.73233127e-06 -3.03062575e-06 -3.07033270e-06
      -2.57998499e-06 -1.84812075e-06 -1.21296455e-06 -7.72012697e-07
      -5.56571308e-07 -4.17031742e-07 -2.60528509e-07 -4.18106545e-08
      1.93058469e-07 3.90073524e-07 4.51212401e-07 2.84346470e-07
      -9.07182596e-08 -5.27739132e-07 -8.57278906e-07 -9.33857393e-07
      -9.88367105e-07 -1.14577006e-06 -1.36085760e-06 -1.49438210e-06
      -1.47032642e-06 -1.38429004e-06 -1.24034966e-06 -9.83782115e-07
      -6.51191044e-07 -2.63061935e-07 2.92989426e-07 8.42143891e-07
      1.23205587e-06 1.50789970e-06 1.67715314e-06 1.72515604e-06
      3.78015102e-06 3.65333040e-06 3.13453961e-06 2.10363055e-06
      1.74007187e-06 1.55630789e-06 1.20897164e-06 7.29088811e-07
      2.05431178e-07 -2.69133722e-07 -5.53630741e-07 -7.02968464e-07
      -7.46630462e-07 -8.01670978e-07 -8.81973335e-07 -8.93404149e-07
      -8.80030996e-07 -9.16582394e-07 -9.59282488e-07 -1.02580941e-06
      -1.19374636e-06 -9.27375766e-07 -1.69782126e-07 2.63587140e-07
      4.76677457e-07 5.83906854e-07 5.71301712e-07 4.71395083e-07
      3.25966823e-07 8.61955769e-08 -2.65293806e-07 -7.71472969e-07
      -1.28264207e-06 -1.65206575e-06 -1.94306290e-06 -2.18700211e-06
      -2.44403896e-06 -2.63449920e-06 -2.65437529e-06 -2.48639640e-06
      -2.13924886e-06 -1.76822994e-06 -1.38464395e-06 -9.56147801e-07
      -5.43627664e-07 -2.35095712e-07 1.53278236e-07 5.05979870e-07
      6.63287153e-07 7.48371519e-07 7.94335620e-07 8.00664964e-07
      4.24938980e-06 4.04776665e-06 3.52829079e-06 3.11241524e-06
      3.28396209e-06 3.52873599e-06 3.47325363e-06 3.05676576e-06
      2.25334588e-06 1.23402958e-06 4.00051277e-07 -1.55876819e-07
      -3.57847057e-07 -3.06851717e-07 -1.36196888e-07 1.02146402e-07
      2.58345977e-07 3.60178404e-07 4.47559216e-07 2.36314818e-07
      -1.21263710e-07 -2.29333011e-07 5.06989606e-09 2.42402450e-07
      4.11464413e-07 5.68123312e-07 7.42020177e-07 9.12298390e-07
      1.02876186e-06 1.05474794e-06 1.03609921e-06 1.02458307e-06
      6.64285380e-07 7.06533285e-08 -3.63006336e-07 -7.53295296e-07
      -1.32649689e-06 -1.80698748e-06 -2.11213114e-06 -2.27938654e-06
      -2.32297566e-06 -2.09573864e-06 -1.87525188e-06 -1.71183365e-06
      -1.40773500e-06 -9.50144511e-07 -3.62051424e-07 1.48661059e-07
      4.07741084e-07 4.28236575e-07 4.28685894e-07 4.45816482e-07
      3.80043502e-06 3.74517799e-06 3.67821531e-06 3.70072325e-06
      3.96503765e-06 4.31419039e-06 4.15063414e-06 3.36434982e-06
      2.17532101e-06 1.09659379e-06 3.60328414e-07 -1.15340786e-08
      -7.06528667e-08 1.71675495e-07 5.61836032e-07 9.37262030e-07
      1.04613525e-06 8.26829762e-07 3.44998597e-07 -4.31555009e-07
      -1.28689737e-06 -1.52121368e-06 -1.37452435e-06 -1.19183767e-06
      -9.64380774e-07 -7.12067219e-07 -4.52605832e-07 -2.26664355e-07
      -3.24381908e-08 1.99537610e-07 4.71914120e-07 6.68797611e-07
      5.99275154e-07 3.36101664e-07 -3.55797916e-08 -4.27555563e-07
      -7.93182210e-07 -1.20703316e-06 -1.65736299e-06 -2.17311594e-06
      -2.73492742e-06 -3.16573141e-06 -3.30182525e-06 -3.16187811e-06
      -2.75395996e-06 -1.99955821e-06 -1.04617322e-06 -1.26857501e-07
      5.42158659e-07 8.76314289e-07 8.70281610e-07 8.43748921e-07
      1.81274686e-06 1.85928934e-06 1.99440228e-06 2.23702182e-06
      2.41383236e-06 2.32186699e-06 1.88412616e-06 1.33386061e-06
      7.78674348e-07 3.38790898e-07 1.63903650e-07 2.50820449e-07
      4.93798098e-07 7.88082957e-07 1.04143749e-06 1.15031082e-06
      9.59861268e-07 5.65493167e-07 -5.43213075e-09 -7.18790716e-07
      -1.33748824e-06 -1.69140185e-06 -1.63824973e-06 -1.33417984e-06
      -1.00339162e-06 -7.16099407e-07 -4.37420482e-07 -1.66596152e-07
      1.33722637e-07 3.13319333e-07 2.68847089e-07 -2.60285002e-08
      -5.28480427e-07 -1.14833028e-06 -1.69254338e-06 -1.92265134e-06
      -1.91310028e-06 -1.83056579e-06 -1.99609281e-06 -2.46345326e-06
      -3.14186741e-06 -3.92310722e-06 -4.69032602e-06 -5.32483000e-06
      -5.48475964e-06 -4.93833431e-06 -4.15477552e-06 -3.16375167e-06
      -2.02069464e-06 -1.14365457e-06 -6.62988100e-07 -5.15443389e-07
      1.69572547e-06 1.87842022e-06 2.31472245e-06 2.72983198e-06
      2.66698385e-06 2.16893682e-06 1.31128547e-06 5.16975035e-07
      -1.23374903e-07 -2.47405040e-07 2.16340624e-07 1.18209039e-06
      2.39911969e-06 3.52066877e-06 4.09418953e-06 3.86676857e-06
      3.08783069e-06 2.11000997e-06 1.17983836e-06 2.14530601e-07
      -7.00863211e-07 -1.15876537e-06 -1.34478091e-06 -1.37514576e-06
      -1.30630133e-06 -1.18141418e-06 -1.00919999e-06 -8.13599911e-07
      -5.44424154e-07 -3.36931066e-07 -2.70002687e-07 -5.22092023e-07
      -1.13618955e-06 -1.84838609e-06 -2.23117286e-06 -2.46890863e-06
      -2.37131917e-06 -2.26442808e-06 -2.35216089e-06 -2.50432868e-06
      -2.66697998e-06 -2.78370203e-06 -2.69667089e-06 -2.37935774e-06
      -1.79093968e-06 -1.22107053e-06 -9.08377160e-07 -7.73773081e-07
      -8.77012610e-07 -9.53742074e-07 -9.87117801e-07 -9.75411353e-07
      1.70547264e-06 1.70506621e-06 1.61523656e-06 1.38198141e-06
      1.03979187e-06 1.74155105e-07 -5.82603263e-07 -8.18002320e-07
      -9.85382258e-07 -7.72261785e-07 -2.05915618e-09 1.30564808e-06
      2.86829140e-06 4.31652870e-06 5.28784039e-06 5.10270365e-06
      4.31600893e-06 3.21972971e-06 2.04148068e-06 9.26589735e-07
      1.75484871e-07 -1.22632926e-07 -1.52116002e-07 -2.65056968e-07
      -3.67663887e-07 -4.37987836e-07 -4.46985524e-07 -4.04978692e-07
      -3.20035753e-07 -1.99726202e-07 -5.64774183e-08 6.19848777e-08
      2.03520869e-07 -2.58119911e-07 -5.66799372e-07 -7.42072302e-07
      -6.61963725e-07 -3.00504155e-07 -1.45042440e-08 -4.20907440e-07
      -7.88007640e-07 -8.49099877e-07 -5.33202012e-07 1.22392734e-07
      8.94587345e-07 1.64562368e-06 2.14750435e-06 2.37218296e-06
      2.41156931e-06 2.30634146e-06 2.14114334e-06 2.08909933e-06
      -3.05441716e-07 -2.75103361e-07 -1.86898646e-07 -1.86370897e-07
      -2.55620336e-07 -2.84220647e-07 -2.29960236e-07 -3.99349886e-07
      -7.32779142e-07 -8.61325134e-07 -5.14528949e-07 2.10447681e-07
      1.19724905e-06 2.16753756e-06 2.86332033e-06 3.16851515e-06
      3.08800895e-06 2.51254028e-06 1.42987631e-06 3.51604797e-07
      -1.49461002e-07 -2.29707396e-07 -7.04223311e-08 1.36411643e-07
      2.09026624e-07 1.67379000e-07 1.19304758e-07 1.23194255e-07
      1.82299985e-07 3.16723060e-07 5.13331202e-07 5.39084567e-07
      2.47922202e-07 1.20921499e-07 4.23390446e-07 7.36214588e-07
      1.21893618e-06 1.77674588e-06 2.10925714e-06 2.01912326e-06
      1.52438895e-06 1.02583090e-06 7.54133339e-07 9.21611104e-07
      1.43676561e-06 2.14358147e-06 2.74047602e-06 3.07117443e-06
      3.21177959e-06 3.24913162e-06 3.23181621e-06 3.26147006e-06
      -9.47082697e-07 -9.29654334e-07 -6.63823187e-07 -2.72213583e-07
      1.80467239e-07 5.32935246e-07 5.79936284e-07 4.49825336e-07
      1.66016974e-07 -2.11944908e-07 -3.30150755e-07 -2.00178889e-07
      2.61900169e-07 8.64544404e-07 1.43542093e-06 1.86147838e-06
      2.10702933e-06 2.19706158e-06 1.67047699e-06 1.06601658e-06
      7.98204326e-07 8.27679003e-07 9.16200861e-07 9.97012080e-07
      1.10850090e-06 1.24060512e-06 1.36435892e-06 1.49744164e-06
      1.60287402e-06 1.66069003e-06 1.57221518e-06 1.42461715e-06
      1.29870148e-06 1.16890124e-06 1.10790290e-06 1.39300880e-06
      1.56699991e-06 2.04822527e-06 2.45917818e-06 2.39922838e-06
      1.97035251e-06 1.43081002e-06 8.55781309e-07 6.25648227e-07
      8.84775261e-07 1.35763980e-06 1.65926963e-06 1.70314593e-06
      1.51953247e-06 1.09378277e-06 6.92293781e-07 6.16316072e-07
      2.24195460e-07 2.64565216e-07 4.42607501e-07 2.83540260e-07
      2.36665141e-08 3.84647990e-07 8.98161943e-07 9.97738198e-07
      6.36216782e-07 -9.77639036e-09 -5.39406983e-07 -9.38683854e-07
      -9.76643719e-07 -7.66708638e-07 -5.51459891e-07 -3.32853716e-07
      2.67753553e-09 2.38951884e-07 2.80958318e-07 5.91990386e-07
      1.28869317e-06 1.84276121e-06 2.05923902e-06 1.92380480e-06
      1.76435947e-06 1.67485075e-06 1.59289050e-06 1.59978686e-06
      1.63823643e-06 1.63165259e-06 1.46067646e-06 1.20923175e-06
      1.06111202e-06 7.79769607e-07 5.00517217e-07 6.03548642e-07
      1.19572496e-06 1.93557912e-06 2.23449138e-06 2.05863944e-06
      1.58317528e-06 1.21811524e-06 1.22634833e-06 1.43687464e-06
      1.74651507e-06 1.80450843e-06 1.64316327e-06 1.35281448e-06
      9.68432118e-07 5.07414086e-07 1.76327948e-08 -1.09189713e-07
      1.83066879e-06 1.60023103e-06 8.81672918e-07 4.31950951e-07
      -5.97429803e-08 3.32072204e-07 1.18670778e-06 1.30841920e-06
      1.06120035e-06 7.96345830e-07 6.29824854e-07 3.83499270e-07
      4.32387424e-07 6.54152416e-07 8.26751545e-07 8.04894853e-07
      7.86103612e-07 6.05944535e-07 3.29860796e-07 2.95609065e-10
      -3.31994528e-07 -7.00691203e-07 -7.99150371e-07 -6.77047410e-07
      -6.74558407e-07 -7.05690013e-07 -6.69833867e-07 -6.06284971e-07
      -5.93748837e-07 -5.97636756e-07 -4.68688711e-07 -2.32898941e-07
      -8.28751965e-08 9.79320358e-09 2.88815727e-07 8.69587723e-07
      1.59266312e-06 2.27846363e-06 2.85885085e-06 3.34922811e-06
      3.76247840e-06 4.06232448e-06 4.49585605e-06 5.02080866e-06
      5.50898176e-06 5.33681805e-06 4.53784151e-06 3.37442452e-06
      2.31648369e-06 1.66692939e-06 1.40086070e-06 1.38987480e-06
      9.14764200e-07 5.91814853e-07 -2.04604817e-07 -9.33198180e-07
      -1.16112676e-06 -9.31453712e-07 -1.86784220e-07 4.84490329e-07
      9.12497171e-07 6.91199205e-07 2.27847693e-07 -7.45678435e-08
      -3.46884761e-08 3.70961914e-07 7.91882428e-07 1.26735119e-06
      1.57682393e-06 1.44856494e-06 1.17184322e-06 9.29540647e-07
      5.32078388e-07 -1.87962044e-07 -1.07955020e-06 -1.55001533e-06
      -1.67238625e-06 -1.70008150e-06 -1.69518160e-06 -1.73033743e-06
      -1.72899740e-06 -1.69362204e-06 -1.59924923e-06 -1.51310940e-06
      -1.45160368e-06 -1.19626020e-06 -8.33827983e-07 -6.09999006e-07
      -2.05678376e-07 6.83908922e-07 1.64782159e-06 2.56858129e-06
      3.33012440e-06 3.91884987e-06 4.70872010e-06 5.42977796e-06
      5.49103470e-06 5.14687235e-06 4.27038640e-06 3.17049671e-06
      2.07448943e-06 1.49932714e-06 1.56580290e-06 1.68521922e-06
      9.97541633e-07 1.02661159e-06 1.03299340e-06 9.41935411e-07
      6.14726105e-07 -1.15367101e-07 -7.49251399e-07 -1.17824197e-06
      -1.77638299e-06 -2.45079627e-06 -3.04673426e-06 -3.52010261e-06
      -3.74865749e-06 -3.60177592e-06 -3.14835097e-06 -2.53319172e-06
      -2.15298951e-06 -1.87830460e-06 -1.66547500e-06 -1.58939315e-06
      -1.68302051e-06 -1.65207689e-06 -1.40959889e-06 -1.05518961e-06
      -6.19281138e-07 -2.28807608e-07 -8.61954419e-08 -1.50905393e-07
      -2.26315379e-07 -4.02354203e-07 -7.27478664e-07 -1.20576078e-06
      -1.67465214e-06 -2.12904456e-06 -2.66752909e-06 -3.22271785e-06
      -3.72407112e-06 -3.80118831e-06 -3.79082485e-06 -3.51094718e-06
      -3.20876552e-06 -3.02197918e-06 -2.64262690e-06 -1.92385096e-06
      -1.01533863e-06 -2.00550119e-07 3.46211891e-07 6.78258175e-07
      9.33719662e-07 9.70657197e-07 1.11176428e-06 1.22055508e-06
      2.34597633e-06 2.41382986e-06 2.44182252e-06 2.53524149e-06
      2.76529909e-06 2.95630775e-06 2.49370896e-06 1.69467660e-06
      8.68523557e-07 -2.95929006e-08 -9.44006445e-07 -1.66899156e-06
      -2.24308155e-06 -2.64325831e-06 -2.72819170e-06 -2.42488204e-06
      -2.00427667e-06 -1.51590064e-06 -1.07315986e-06 -7.81708309e-07
      -5.09870574e-07 -1.62580307e-07 1.28733745e-07 3.79089272e-07
      6.13508746e-07 8.70115400e-07 1.02094521e-06 1.03173079e-06
      9.46177579e-07 7.22296363e-07 3.65160560e-07 -7.51232321e-08
      -5.70502777e-07 -1.09328107e-06 -1.48899994e-06 -1.64651044e-06
      -1.74292893e-06 -1.96291421e-06 -2.36047822e-06 -2.78719358e-06
      -3.17377885e-06 -3.44125488e-06 -3.44542741e-06 -3.27583484e-06
      -2.95774771e-06 -2.26746261e-06 -1.07389644e-06 -2.82883761e-09
      6.77953551e-07 1.34826735e-06 1.80309439e-06 1.96946212e-06
      1.43749708e-06 1.54080897e-06 1.79592018e-06 2.22527842e-06
      2.66751022e-06 3.00586021e-06 3.10353857e-06 2.83456507e-06
      2.46001878e-06 1.97952613e-06 1.57261218e-06 1.13375597e-06
      6.92965330e-07 3.50448715e-07 3.14064692e-07 3.84413937e-07
      5.57020542e-07 9.59213367e-07 1.19561741e-06 1.25601434e-06
      1.23907728e-06 1.15949751e-06 1.09412508e-06 9.65264690e-07
      8.41420274e-07 7.65666869e-07 7.25006259e-07 7.04446620e-07
      6.31792261e-07 5.22119251e-07 3.89027235e-07 2.86033838e-07
      1.15694412e-07 -1.51488436e-07 -4.94277401e-07 -3.79393668e-07
      -1.42106671e-07 -7.73194984e-08 -5.15385290e-09 7.52822638e-10
      -6.41310933e-08 -4.93557764e-08 1.17556574e-07 4.32941420e-07
      8.64858805e-07 1.26444559e-06 1.63456730e-06 1.73180069e-06
      1.86842124e-06 2.11479551e-06 2.31661079e-06 2.36384881e-06
      4.66847467e-07 4.87558395e-07 5.39409143e-07 5.71586895e-07
      6.30086618e-07 7.50783443e-07 1.12380962e-06 1.75714706e-06
      2.39905262e-06 2.97315751e-06 3.43295733e-06 3.64281141e-06
      3.54898225e-06 3.21878883e-06 2.83404006e-06 2.42457418e-06
      2.01939770e-06 1.63246250e-06 1.26580755e-06 9.86189093e-07
      7.84132624e-07 5.80321171e-07 3.54635915e-07 1.44494336e-07
      -6.93174096e-09 -1.08998989e-07 -1.27916664e-07 -7.90983776e-08
      -1.89892067e-08 4.67865036e-08 1.13857240e-07 2.11943856e-07
      2.46427049e-07 2.30910899e-07 1.65420161e-07 7.26844860e-08
      -1.69958994e-07 -5.21367269e-07 -7.98220071e-07 -7.36934567e-07
      -5.09252459e-07 -2.34976866e-07 -2.85889517e-08 1.40451505e-07
      2.19336357e-07 2.39648188e-07 1.36169334e-07 2.03386179e-07
      3.63975715e-07 3.49660354e-07 2.67635414e-07 2.04981305e-07
      6.75027422e-07 6.53962104e-07 6.00471537e-07 5.39921530e-07
      4.71729493e-07 3.98239223e-07 3.22883977e-07 2.89929545e-07
      5.35834715e-07 8.80882112e-07 1.15132275e-06 1.27640044e-06
      1.17373463e-06 8.02125840e-07 2.94150851e-07 -2.66799503e-07
      -6.79334903e-07 -9.40429913e-07 -1.21814060e-06 -1.37332881e-06
      -1.40940381e-06 -1.33623007e-06 -1.20909954e-06 -1.01186811e-06
      -7.77913328e-07 -5.37496135e-07 -3.34736370e-07 -2.01084589e-07
      -1.80482715e-07 -2.27700994e-07 -3.20909322e-07 -4.02620117e-07
      -4.46058834e-07 -3.99103925e-07 -2.49437505e-07 1.88856220e-08
      3.98163820e-07 8.25473421e-07 1.27331623e-06 1.62887989e-06
      1.78074788e-06 1.44033959e-06 8.41064320e-07 2.68464476e-07
      -2.43852327e-07 -6.82141263e-07 -1.06549408e-06 -1.29569275e-06
      -1.33810443e-06 -1.23853476e-06 -1.07779783e-06 -1.02220190e-06
      2.61035183e-07 2.32594317e-07 1.91066675e-07 1.59380420e-07
      6.50745520e-08 -1.10338142e-07 -3.62966318e-07 -6.78725542e-07
      -9.58035571e-07 -1.14547322e-06 -1.20678794e-06 -1.12710097e-06
      -9.43958355e-07 -6.95453252e-07 -5.15533202e-07 -5.70251302e-07
      -7.78969309e-07 -1.03234311e-06 -1.21342828e-06 -1.34542950e-06
      -1.37998745e-06 -1.28405759e-06 -1.09705604e-06 -8.52215123e-07
      -5.81626693e-07 -3.27200610e-07 -1.62895233e-07 -4.74110955e-08
      -9.76700676e-09 -3.66563953e-08 -1.11372749e-07 -2.45629479e-07
      -3.22946363e-07 -2.53449087e-07 -3.16538902e-08 3.25457790e-07
      7.68159111e-07 1.21644860e-06 1.62569620e-06 1.92411630e-06
      1.99851411e-06 1.82213103e-06 1.48054210e-06 1.18619073e-06
      1.15283717e-06 1.34603545e-06 1.55914768e-06 1.63084337e-06
      1.62430922e-06 1.59078047e-06 1.58014291e-06 1.57251043e-06
      -4.04332269e-07 -4.01818312e-07 -4.31615376e-07 -4.94977655e-07
      -5.85135240e-07 -6.91318860e-07 -8.24971266e-07 -9.57574798e-07
      -1.03600610e-06 -1.02519027e-06 -8.51586321e-07 -4.88438900e-07
      -8.17058865e-09 5.00977478e-07 9.28750183e-07 1.07599408e-06
      1.08571010e-06 1.01418914e-06 9.29819691e-07 8.53750976e-07
      7.84544795e-07 7.22072514e-07 6.41145448e-07 5.22823939e-07
      4.27567386e-07 3.34961101e-07 2.92398056e-07 3.07522043e-07
      4.58990826e-07 6.50168488e-07 7.94848575e-07 8.11888412e-07
      6.78022218e-07 4.44208695e-07 1.45082169e-07 -1.27528935e-07
      -3.09444800e-07 -3.21336358e-07 -1.17208288e-07 3.29395334e-07
      6.40396081e-07 8.75351986e-07 1.18330036e-06 1.40484315e-06
      1.62728873e-06 1.92336688e-06 2.20928177e-06 2.31187664e-06
      2.23880852e-06 2.05366155e-06 1.88108152e-06 1.83733164e-06
      3.37444476e-07 3.59821286e-07 3.76421781e-07 3.82608903e-07
      3.50501807e-07 2.71633240e-07 1.87687633e-07 7.75696378e-08
      -8.12201506e-08 -2.47679964e-07 -3.29215794e-07 -2.97599172e-07
      -1.14158013e-07 1.61990286e-07 4.51489342e-07 6.70545262e-07
      8.40030964e-07 1.00245313e-06 1.08833012e-06 1.09009102e-06
      1.03278080e-06 9.08221921e-07 7.67944414e-07 6.42177497e-07
      5.43540125e-07 4.79150287e-07 4.85297790e-07 5.01262150e-07
      5.81398012e-07 6.65046400e-07 7.34823914e-07 7.95418885e-07
      7.24965844e-07 4.78661434e-07 7.79425804e-08 -3.02282530e-07
      -4.89973331e-07 -3.97955205e-07 -1.21771521e-07 2.41883299e-07
      5.80037863e-07 8.65410300e-07 1.13325325e-06 1.43253840e-06
      1.78967571e-06 2.06899517e-06 2.14364763e-06 2.07426069e-06
      1.88489912e-06 1.66015957e-06 1.50217818e-06 1.46352090e-06
      5.15756312e-07 4.89536774e-07 4.45955635e-07 3.92019530e-07
      3.16118417e-07 2.45853840e-07 1.95695534e-07 1.02402183e-07
      -3.63187214e-09 -1.45891789e-07 -2.79310512e-07 -3.55625332e-07
      -3.58784007e-07 -2.27854386e-07 -2.75757301e-08 1.35758569e-07
      2.28428917e-07 1.99116911e-07 2.27450023e-08 -2.17926527e-07
      -3.98348959e-07 -5.33337698e-07 -5.65861626e-07 -5.20827996e-07
      -4.79486573e-07 -4.83329586e-07 -6.10174652e-07 -8.11979021e-07
      -1.06500283e-06 -1.27600015e-06 -1.38169287e-06 -1.34987727e-06
      -1.20623520e-06 -9.72823386e-07 -6.52770382e-07 -2.93193011e-07
      1.00816926e-07 4.77298386e-07 7.58120507e-07 8.06804792e-07
      7.23258893e-07 5.34620881e-07 2.56477620e-07 2.21395702e-08
      -1.07204080e-07 -1.37210236e-07 -3.66254049e-08 1.36705410e-07
      3.15038932e-07 4.33652616e-07 5.26579640e-07 5.34776973e-07
      -7.69532960e-07 -7.62734885e-07 -7.30995339e-07 -6.83711107e-07
      -6.03683418e-07 -4.81545214e-07 -3.82613536e-07 -2.97965499e-07
      -2.42518695e-07 -2.22273528e-07 -2.53093788e-07 -3.10864380e-07
      -3.59832171e-07 -3.87412456e-07 -4.14839491e-07 -4.03424565e-07
      -3.53912640e-07 -3.63258010e-07 -3.48655988e-07 -2.61022024e-07
      -1.07752577e-07 1.55508673e-07 4.23269256e-07 6.81448000e-07
      8.98810526e-07 1.02024717e-06 1.02534534e-06 9.54493089e-07
      7.52172525e-07 4.60923417e-07 1.45827940e-07 -2.27308377e-07
      -5.85903194e-07 -8.19157549e-07 -8.71865950e-07 -7.51608354e-07
      -5.49442007e-07 -2.84354741e-07 -2.84461539e-08 1.38015963e-07
      1.51904459e-07 -9.80512471e-09 -3.33758237e-07 -5.47025593e-07
      -6.74403623e-07 -7.28708017e-07 -6.47923116e-07 -4.82707094e-07
      -2.79571026e-07 -8.82175115e-08 2.91836919e-08 6.06446946e-08
      -1.54771186e-07 -1.28110244e-07 -4.99663351e-08 5.85836730e-08
      1.87344369e-07 3.21138714e-07 3.74170213e-07 4.12525907e-07
      4.21343998e-07 4.03608908e-07 3.13999465e-07 2.16898627e-07
      1.06694316e-07 -3.21650617e-08 -1.33825324e-07 -1.59188275e-07
      -6.07424795e-08 1.30229154e-07 3.99732841e-07 7.21962010e-07
      1.01394835e-06 1.30938247e-06 1.55329951e-06 1.69513396e-06
      1.71965075e-06 1.73449837e-06 1.73996477e-06 1.68164729e-06
      1.58778687e-06 1.49006200e-06 1.38980806e-06 1.21191408e-06
      9.50816116e-07 6.50294169e-07 3.47798164e-07 1.26174498e-07
      -3.91668173e-08 -1.44189258e-07 -1.86336976e-07 -1.95904036e-07
      -1.91157184e-07 -1.89953397e-07 -2.01769822e-07 -2.67903317e-07
      -3.40524821e-07 -4.05622671e-07 -3.78906236e-07 -2.87666637e-07
      -1.86427798e-07 -7.74186049e-08 -1.24780613e-08 3.54636320e-09
      1.03795514e-06 1.05342031e-06 1.08901793e-06 1.13331964e-06
      1.17946638e-06 1.15784587e-06 1.09296809e-06 9.81563289e-07
      8.09157712e-07 6.10205007e-07 4.38593247e-07 3.13971668e-07
      1.89466050e-07 1.19365197e-07 1.54346765e-07 2.62318963e-07
      3.80943902e-07 4.90752313e-07 6.20964670e-07 8.14455348e-07
      9.92136279e-07 1.08068502e-06 1.13198735e-06 1.10806650e-06
      1.02233207e-06 9.23408948e-07 7.50137531e-07 5.76307855e-07
      4.19160386e-07 3.52458613e-07 3.23181979e-07 3.33982285e-07
      3.86698019e-07 3.95842733e-07 2.98240479e-07 1.18643904e-07
      -6.63630502e-08 -2.77244652e-07 -5.27807060e-07 -7.95552353e-07
      -1.07341816e-06 -1.31487798e-06 -1.53444466e-06 -1.61051003e-06
      -1.59006254e-06 -1.41942473e-06 -1.20098207e-06 -9.23102505e-07
      -6.49667754e-07 -4.57090124e-07 -3.29482788e-07 -2.78480229e-07
      9.22630306e-07 8.62656179e-07 6.96649408e-07 4.11528163e-07
      2.29546906e-08 -4.03897815e-07 -7.40337271e-07 -1.00547049e-06
      -1.20349512e-06 -1.34962693e-06 -1.38509688e-06 -1.44886360e-06
      -1.48801257e-06 -1.43687100e-06 -1.29215152e-06 -1.13096144e-06
      -9.45302077e-07 -6.65053676e-07 -3.48187200e-07 -3.35857386e-08
      2.18505775e-07 4.33958036e-07 5.83592737e-07 6.34798880e-07
      6.62608500e-07 6.13379484e-07 5.38694167e-07 5.47387572e-07
      5.89604156e-07 6.40893006e-07 6.55603628e-07 5.22015227e-07
      2.54037587e-07 -1.59907607e-08 -2.25482836e-07 -4.14836933e-07
      -4.97533620e-07 -4.38795240e-07 -3.88006725e-07 -3.55319912e-07
      -3.62940852e-07 -3.53082328e-07 -4.37536784e-07 -5.69722999e-07
      -6.98616020e-07 -7.90341801e-07 -7.86520786e-07 -6.34774324e-07
      -3.61104554e-07 -5.92943294e-08 1.65983536e-07 2.64411483e-07
      -7.30295483e-07 -8.36970457e-07 -1.10115434e-06 -1.39790541e-06
      -1.65720382e-06 -1.82544488e-06 -1.88709123e-06 -1.84334408e-06
      -1.68714223e-06 -1.42850615e-06 -1.12558962e-06 -8.33367437e-07
      -5.44675402e-07 -3.59377793e-07 -3.43745967e-07 -3.79735098e-07
      -4.64924483e-07 -5.39293467e-07 -5.87002376e-07 -6.17046680e-07
      -6.34334128e-07 -6.40206110e-07 -5.86010970e-07 -5.30652869e-07
      -4.10938554e-07 -3.25884145e-07 -2.15586525e-07 -5.45011432e-08
      1.22134338e-07 1.72202292e-07 2.17344152e-07 1.95449232e-07
      7.02001941e-08 -1.93173804e-07 -5.69118640e-07 -8.46255716e-07
      -8.10399683e-07 -5.07409823e-07 -4.02780032e-08 3.70650355e-07
      6.39820371e-07 7.56633142e-07 8.33703666e-07 7.24752226e-07
      5.93308130e-07 4.60489588e-07 3.53674352e-07 2.51100488e-07
      2.02617926e-07 2.43164180e-07 2.94741596e-07 3.09717024e-07
      8.84627354e-07 8.50062520e-07 7.24116262e-07 5.58992724e-07
      4.41518210e-07 3.44247439e-07 3.07662702e-07 3.45483272e-07
      4.62545160e-07 6.37320227e-07 7.17388161e-07 7.30251827e-07
      7.37796313e-07 6.53806524e-07 4.75453902e-07 2.10849890e-07
      -1.05471834e-07 -4.20261728e-07 -6.69289136e-07 -9.50979882e-07
      -1.15830278e-06 -1.23250459e-06 -1.14928048e-06 -9.60911393e-07
      -7.23396113e-07 -4.99617670e-07 -2.52964014e-07 -9.53902557e-08
      -1.39609808e-08 -9.83159794e-08 -2.85714975e-07 -5.07672837e-07
      -7.13762176e-07 -9.18755688e-07 -1.20233278e-06 -1.51862037e-06
      -1.70333465e-06 -1.65291738e-06 -1.28682655e-06 -6.72381816e-07
      -9.17611800e-08 3.11507648e-07 5.89707952e-07 7.21957292e-07
      7.20068272e-07 6.79673519e-07 6.30469003e-07 6.29946499e-07
      6.63157266e-07 7.25542463e-07 8.03731155e-07 8.50451045e-07
      1.16493015e-06 1.16238459e-06 1.12833686e-06 1.11159864e-06
      1.15225043e-06 1.23545817e-06 1.42536294e-06 1.68705913e-06
      1.86196883e-06 1.85536180e-06 1.68608153e-06 1.35395987e-06
      8.48213972e-07 2.95757815e-07 -1.32848029e-07 -4.80531696e-07
      -7.42142049e-07 -1.02246736e-06 -1.10588894e-06 -1.01882529e-06
      -8.19854563e-07 -5.58830493e-07 -3.42799837e-07 -1.24975855e-07
      8.08471441e-08 2.99889990e-07 4.32571881e-07 4.07161025e-07
      3.42677936e-07 2.25687103e-07 -2.65501523e-08 -3.60347428e-07
      -7.74863622e-07 -1.20299796e-06 -1.61501691e-06 -1.87393687e-06
      -1.95986672e-06 -1.84867008e-06 -1.53415772e-06 -1.16174738e-06
      -9.25310815e-07 -7.70507938e-07 -6.00968065e-07 -3.75000127e-07
      -2.15021132e-07 -6.13923845e-08 4.17669312e-08 1.09058504e-07
      1.11200720e-07 7.24341547e-08 3.24267830e-08 1.71384915e-08
      -3.66783127e-07 -3.67182338e-07 -3.47187580e-07 -2.44394442e-07
      -6.50879031e-08 2.13847073e-07 4.49494337e-07 5.79811854e-07
      6.27961583e-07 6.07940194e-07 5.21100731e-07 3.09801379e-07
      4.01040872e-08 -8.45545713e-08 -1.17214405e-07 -8.56679279e-08
      -5.41971943e-08 -1.35871133e-07 -3.16208087e-07 -3.53324765e-07
      -3.44497664e-07 -2.31298230e-07 -1.15368771e-07 -1.97003995e-08
      5.63783580e-08 9.60762989e-08 5.87958588e-08 6.22187386e-08
      1.63474127e-07 2.39177723e-07 1.49490063e-07 -8.10698069e-08
      -4.48223801e-07 -9.02586919e-07 -1.41913006e-06 -1.75114224e-06
      -1.70692317e-06 -1.39948975e-06 -1.11547263e-06 -1.03445416e-06
      -1.04899391e-06 -1.04649746e-06 -8.95951132e-07 -6.27618192e-07
      -3.08362047e-07 -2.52648373e-08 2.37322936e-07 4.41811466e-07
      6.31866726e-07 7.76748209e-07 8.40976725e-07 8.42699308e-07
      -5.81872314e-07 -5.82737641e-07 -5.40988253e-07 -4.76192469e-07
      -4.22911313e-07 -3.58527444e-07 -3.25588587e-07 -3.87639005e-07
      -4.94579297e-07 -5.88803800e-07 -7.55685676e-07 -8.31900309e-07
      -6.81186464e-07 -3.86716749e-07 -4.80026578e-08 2.70502454e-07
      3.39021568e-07 1.58255730e-07 -1.91552001e-08 -2.71996527e-07
      -4.48036218e-07 -4.83883184e-07 -5.87831266e-07 -7.35130413e-07
      -8.01145063e-07 -7.12651797e-07 -6.15880197e-07 -4.23693308e-07
      -2.00365406e-07 -1.21118660e-07 -3.16160595e-07 -7.34098307e-07
      -1.25927511e-06 -1.73371893e-06 -2.07183666e-06 -1.93164169e-06
      -1.60605930e-06 -8.65116135e-07 -1.92125729e-08 7.64741230e-07
      9.99507051e-07 8.98959684e-07 6.70994893e-07 4.45236338e-07
      3.58071446e-07 3.31664779e-07 4.81864959e-07 7.27939721e-07
      1.03743014e-06 1.35414552e-06 1.58012540e-06 1.68939778e-06
      -2.49343827e-07 -2.48878791e-07 -2.36052458e-07 -2.92782829e-07
      -3.97265495e-07 -5.66173242e-07 -8.27126826e-07 -1.13061185e-06
      -1.37916913e-06 -1.59599585e-06 -1.76326751e-06 -1.74491993e-06
      -1.50853123e-06 -1.19468939e-06 -9.17085174e-07 -7.15958322e-07
      -4.37783655e-07 -1.21896278e-07 2.67824532e-07 3.89889379e-07
      -3.44763329e-08 -3.57391400e-07 -7.37624589e-07 -1.13210797e-06
      -1.00109821e-06 -6.46656986e-07 -2.41994570e-07 4.98519945e-08
      9.05637663e-08 -6.38753690e-08 -3.55944053e-07 -6.94556036e-07
      -1.09384803e-06 -1.20925756e-06 -9.74164777e-07 -5.82003906e-07
      -3.17423883e-07 -2.82224335e-07 -6.51781349e-08 3.99921475e-07
      7.07009178e-07 6.65077266e-07 2.81159231e-07 -4.14892128e-07
      -1.14672741e-06 -1.73653007e-06 -2.12656005e-06 -2.29635680e-06
      -2.35349262e-06 -2.29141324e-06 -2.19301864e-06 -2.13440444e-06
      9.78820822e-07 9.58968712e-07 8.60323041e-07 7.00019598e-07
      5.12825807e-07 2.77275575e-07 -3.15928972e-08 -3.21314474e-07
      -5.72407487e-07 -7.62279114e-07 -8.05951913e-07 -6.54525536e-07
      -3.93475801e-07 -6.47881961e-08 4.08701396e-07 8.33642730e-07
      1.09158123e-06 1.04025321e-06 8.68952498e-07 7.53433596e-07
      9.36589061e-07 6.85744340e-07 2.12769010e-07 -7.24217131e-08
      7.18828304e-08 5.31364890e-07 8.67553808e-07 8.33757667e-07
      5.52656104e-07 3.12923078e-07 1.68279669e-07 1.60957995e-07
      2.31329167e-07 4.91848368e-07 7.26247720e-07 7.27611678e-07
      5.68970279e-07 4.32394614e-07 3.73907511e-07 3.21885636e-07
      2.15280068e-07 -5.02202582e-08 -4.32833758e-07 -8.97211521e-07
      -1.38938321e-06 -1.78875518e-06 -2.09462792e-06 -2.24470841e-06
      -2.31435774e-06 -2.36080291e-06 -2.30415958e-06 -2.29697753e-06
      8.39634140e-07 8.63294247e-07 9.02979195e-07 9.51545417e-07
      9.61923206e-07 9.20164155e-07 8.91418892e-07 9.18210333e-07
      9.19253011e-07 1.00072180e-06 1.15745843e-06 1.34085064e-06
      1.45083982e-06 1.33008268e-06 9.40861071e-07 3.17367380e-07
      -4.08503013e-07 -1.02301908e-06 -1.36376605e-06 -1.38618350e-06
      -1.30929129e-06 -1.09928510e-06 -8.60405009e-07 -5.12990539e-07
      -6.32922053e-08 4.67945398e-07 9.30463727e-07 1.20146308e-06
      1.27042972e-06 1.09426003e-06 7.77549246e-07 5.44568934e-07
      4.20190958e-07 4.12869383e-07 6.18542174e-07 8.68546408e-07
      1.02351703e-06 1.08648169e-06 8.58798842e-07 5.74297587e-07
      4.48601554e-07 4.09864185e-07 3.68783446e-07 2.96381756e-07
      2.44787714e-07 2.10234219e-07 1.20410675e-07 -4.67215777e-09
      -7.77675169e-08 -2.03516549e-07 -2.85979098e-07 -3.31493936e-07
      -8.36860181e-07 -7.86320072e-07 -6.24903066e-07 -3.75864346e-07
      -8.62930918e-08 2.27564314e-07 6.05606999e-07 9.86301075e-07
      1.37659799e-06 1.67360099e-06 1.71350825e-06 1.44706507e-06
      8.41676865e-07 6.08956512e-08 -7.02388775e-07 -1.41522764e-06
      -1.96336487e-06 -2.26407246e-06 -2.36661936e-06 -2.26613588e-06
      -1.99466444e-06 -1.61962043e-06 -1.14679779e-06 -6.09216386e-07
      -1.40426295e-07 2.93611066e-07 5.90659795e-07 7.37037283e-07
      6.61887157e-07 3.78086327e-07 -1.46442085e-08 -3.98238285e-07
      -6.89673584e-07 -9.20457296e-07 -9.92438345e-07 -8.57471207e-07
      -6.77208050e-07 -4.32465782e-07 -9.72137855e-08 1.89709112e-07
      5.12380836e-07 8.76238062e-07 1.17131106e-06 1.15599858e-06
      9.29667920e-07 5.56972566e-07 2.31978618e-07 -8.55753584e-08
      -4.22608849e-07 -6.50517336e-07 -8.42978011e-07 -9.27280155e-07
      -1.32624643e-06 -1.32078014e-06 -1.29323416e-06 -1.24295502e-06
      -1.10248538e-06 -8.62013337e-07 -5.59370108e-07 -2.80892721e-07
      -5.24369881e-08 1.32673293e-07 1.98204276e-07 1.48126986e-07
      1.79028135e-08 -1.18442429e-07 -2.57686736e-07 -4.02138909e-07
      -5.37604592e-07 -6.58021293e-07 -6.76166621e-07 -6.04947786e-07
      -3.95009266e-07 -1.14675480e-07 2.67510956e-07 6.35830361e-07
      8.57379518e-07 9.36533695e-07 8.69049586e-07 6.95287383e-07
      3.98595773e-07 -1.76553634e-08 -4.98566521e-07 -8.50692629e-07
      -1.10968699e-06 -1.19453068e-06 -1.15827459e-06 -9.45365798e-07
      -5.73340117e-07 -6.36900097e-08 6.24420522e-07 1.33810556e-06
      1.89628713e-06 2.25317945e-06 2.37588824e-06 2.27115152e-06
      2.11009569e-06 1.90364608e-06 1.70185422e-06 1.11956706e-06
      6.00998874e-07 2.71543968e-07 3.42577913e-08 -5.81172372e-08
      -1.45485345e-07 -1.33067800e-07 -1.06187755e-07 -7.54063478e-08
      -7.21105664e-08 -9.53778141e-08 -1.60677715e-07 -6.63446187e-08
      8.21772019e-08 2.88260338e-07 6.12105225e-07 9.75867579e-07
      1.28595946e-06 1.56262934e-06 1.83900897e-06 2.05138508e-06
      2.07459811e-06 2.03952641e-06 2.02302431e-06 1.99253304e-06
      1.95417101e-06 1.88151068e-06 1.86638954e-06 1.82612814e-06
      1.79043627e-06 1.70962539e-06 1.56222154e-06 1.37378231e-06
      1.24146959e-06 1.15231228e-06 1.12586906e-06 1.13754402e-06
      1.18939715e-06 1.24441533e-06 1.25704821e-06 1.20889956e-06
      1.20412233e-06 1.17131970e-06 1.13527381e-06 1.13810620e-06
      1.05795561e-06 9.48322338e-07 9.46206228e-07 1.01236697e-06
      1.02000160e-06 1.12929001e-06 1.30447086e-06 1.47309640e-06
      1.56632962e-06 1.50184371e-06 1.40020290e-06 1.35308937e-06
      5.02817443e-07 5.80437927e-07 6.90846548e-07 8.01160525e-07
      8.68860241e-07 9.07672586e-07 9.31726163e-07 9.80768277e-07
      1.11860982e-06 1.38124483e-06 1.62253968e-06 1.76421293e-06
      1.82471706e-06 1.83259544e-06 1.88903346e-06 2.06259892e-06
      2.26730367e-06 2.40980171e-06 2.48259926e-06 2.54495194e-06
      2.53393205e-06 2.46321861e-06 2.32148045e-06 2.11136080e-06
      1.87064848e-06 1.58489581e-06 1.32828188e-06 1.05639594e-06
      8.53428389e-07 7.62219656e-07 7.39329835e-07 7.27451720e-07
      7.33154479e-07 8.18046715e-07 9.47103331e-07 1.07406254e-06
      1.14473119e-06 1.15844500e-06 1.05486424e-06 9.04456101e-07
      7.04923423e-07 4.11917966e-07 1.03183176e-07 -1.50619726e-07
      -3.35580950e-07 -4.63761808e-07 -4.48713138e-07 -4.22955026e-07
      -4.17056299e-07 -4.77216531e-07 -5.44974796e-07 -5.42773307e-07
      6.19593052e-08 1.09609580e-07 1.86932525e-07 2.66925213e-07
      3.34638457e-07 3.33696477e-07 3.32937674e-07 3.85567404e-07
      5.36621826e-07 7.75447404e-07 9.62837134e-07 1.05160495e-06
      1.08628171e-06 1.11210261e-06 1.20575487e-06 1.33903336e-06
      1.42460590e-06 1.37533823e-06 1.13373960e-06 8.36557831e-07
      5.20527635e-07 2.62591897e-07 8.15531038e-08 3.04492325e-08
      3.98330329e-08 7.03579772e-08 1.12578668e-07 1.54271120e-07
      2.41937641e-07 4.04752967e-07 5.93687787e-07 8.41020153e-07
      1.13969395e-06 1.46413788e-06 1.76444496e-06 2.02290698e-06
      2.16511739e-06 2.21036976e-06 2.09679138e-06 1.74120555e-06
      1.27184239e-06 7.63347430e-07 2.47923367e-07 -1.44426892e-07
      -4.49983986e-07 -6.31511853e-07 -6.21088702e-07 -6.01179863e-07
      -5.82422729e-07 -5.16400519e-07 -5.07363268e-07 -5.44241118e-07
      8.94770764e-08 6.15425435e-08 -2.94029423e-08 -1.88734134e-07
      -3.53708060e-07 -6.01807074e-07 -8.17231353e-07 -7.66142932e-07
      -4.70667430e-07 9.19475251e-09 4.70178833e-07 8.60119769e-07
      1.06990717e-06 1.12577482e-06 1.09609118e-06 1.01066200e-06
      8.78915898e-07 6.85644522e-07 3.72757654e-07 -7.10526606e-08
      -6.97097846e-07 -1.34424670e-06 -1.64875814e-06 -1.64197286e-06
      -1.47270339e-06 -1.17132686e-06 -7.43308419e-07 -1.77328786e-07
      4.31359098e-07 9.38291919e-07 1.31595948e-06 1.59109504e-06
      1.88203194e-06 2.10681424e-06 2.27702003e-06 2.39498991e-06
      2.48296533e-06 2.46611353e-06 2.33502419e-06 2.02015167e-06
      1.69058762e-06 1.51778602e-06 1.47796845e-06 1.52874634e-06
      1.50454139e-06 1.29419175e-06 1.03336242e-06 8.54491020e-07
      6.56559848e-07 5.58958163e-07 4.89266711e-07 4.20963289e-07
      -1.74290705e-07 -2.42166919e-07 -3.86669342e-07 -6.20889637e-07
      -9.09957407e-07 -1.20106859e-06 -1.35775213e-06 -1.31156696e-06
      -1.01398382e-06 -6.35605204e-07 -3.35913057e-07 -2.03988108e-07
      -2.52039428e-07 -7.54177734e-07 -8.38225787e-07 -6.01648139e-07
      -1.14065060e-07 5.56141288e-07 1.27277463e-06 1.96616929e-06
      2.35834477e-06 2.05950255e-06 1.74418835e-06 1.40293275e-06
      1.06420987e-06 8.15924864e-07 7.26680867e-07 8.58361489e-07
      1.10695396e-06 1.38958001e-06 1.72215107e-06 1.85815975e-06
      2.05209835e-06 2.19493722e-06 2.21649748e-06 2.04578578e-06
      1.82494239e-06 1.66984228e-06 1.44488729e-06 1.11328848e-06
      7.75301260e-07 8.15008264e-07 1.10971337e-06 1.35335222e-06
      1.44906915e-06 1.60920081e-06 1.63731443e-06 1.33586218e-06
      8.61499302e-07 4.76682743e-07 2.19819043e-07 1.56317768e-07
      -4.24883467e-07 -4.86136855e-07 -6.22354150e-07 -8.12890448e-07
      -1.02351908e-06 -1.18139837e-06 -1.14592774e-06 -9.68611062e-07
      -5.41077839e-07 -7.07852479e-08 2.74937946e-07 2.46500321e-07
      -2.35886333e-07 -7.29912529e-07 -5.82080929e-07 1.51333921e-07
      8.45657269e-07 1.81674704e-06 3.06683683e-06 4.52007725e-06
      5.63943286e-06 5.40580731e-06 4.16981129e-06 2.72915599e-06
      1.48150912e-06 4.60386332e-07 -1.44561653e-07 -2.42342139e-07
      4.48834427e-08 5.94242920e-07 1.31756246e-06 1.92879725e-06
      2.35725452e-06 2.69424663e-06 2.62129447e-06 2.00365002e-06
      1.26881798e-06 5.59036550e-07 -3.73029422e-07 -1.35190066e-06
      -2.10759754e-06 -2.24106748e-06 -1.81831967e-06 -8.64820322e-07
      -9.28263972e-08 3.92791378e-07 5.92075537e-07 4.75931301e-07
      1.50434971e-07 -3.11269048e-07 -6.24489758e-07 -6.59321017e-07
      1.30526564e-06 1.27554858e-06 1.22751658e-06 1.14617899e-06
      1.03833543e-06 9.57228508e-07 8.84349163e-07 8.24068422e-07
      1.10554413e-06 1.48345032e-06 1.59414890e-06 1.37158031e-06
      7.79084814e-07 2.57353832e-07 1.01215448e-07 1.69061849e-07
      9.25519885e-07 2.12681789e-06 3.50100572e-06 4.60823094e-06
      5.20162030e-06 5.00139686e-06 4.03468357e-06 2.67475934e-06
      1.39484712e-06 3.71270829e-07 -1.85318086e-07 -1.47864995e-07
      4.18726387e-07 1.37141808e-06 2.60924458e-06 3.47979835e-06
      4.01670604e-06 4.11413748e-06 3.81889140e-06 3.06917354e-06
      1.93366986e-06 4.81905886e-07 -9.73830424e-07 -2.42215901e-06
      -3.37701340e-06 -3.73414105e-06 -3.14812155e-06 -1.67254530e-06
      -7.83491383e-10 5.77912033e-07 5.59850264e-07 3.92056847e-07
      3.69311664e-07 4.39791023e-07 5.66474171e-07 6.36343543e-07
      2.12849932e-06 2.17394745e-06 2.29423381e-06 2.45456863e-06
      2.65732160e-06 2.86633394e-06 3.02882859e-06 3.06411630e-06
      2.84606654e-06 2.17087677e-06 1.49256687e-06 9.79337074e-07
      4.52228733e-07 7.34408356e-09 1.17744719e-07 7.02401223e-07
      1.44438241e-06 2.31739250e-06 3.07292612e-06 3.64360085e-06
      3.83202223e-06 3.52808888e-06 2.70602209e-06 1.44213482e-06
      1.08820380e-07 -9.88701345e-07 -1.64221103e-06 -1.72066689e-06
      -1.13041290e-06 -3.99180244e-08 1.52214864e-06 3.16155911e-06
      4.30950604e-06 4.72415650e-06 4.64143704e-06 4.08583401e-06
      3.06487982e-06 2.04264711e-06 1.11051065e-06 3.85891752e-07
      -9.64826512e-08 -3.73363065e-07 -4.21002085e-07 -2.10754536e-07
      4.13394588e-07 8.81374490e-07 9.12373309e-07 7.95789788e-07
      8.12645624e-07 9.58514306e-07 1.10483597e-06 1.12824864e-06
      3.98838438e-07 4.07307027e-07 4.59604820e-07 5.44275565e-07
      6.47146237e-07 7.82355244e-07 9.26341158e-07 9.97149755e-07
      9.82075676e-07 9.27235817e-07 8.50787501e-07 5.76157845e-07
      6.88528189e-07 1.03290256e-06 1.38853341e-06 1.30494129e-06
      1.13656404e-06 1.41591840e-06 2.03382660e-06 2.56866247e-06
      2.92286336e-06 2.93433754e-06 2.59840908e-06 1.90824221e-06
      9.86953523e-07 1.20841847e-07 -3.50178340e-07 -2.66985239e-07
      4.44865833e-07 1.62965671e-06 3.10854875e-06 4.45370461e-06
      5.18254365e-06 5.09645906e-06 4.35524043e-06 3.26816689e-06
      2.25909139e-06 1.53146573e-06 1.18876835e-06 1.08607492e-06
      1.13957196e-06 1.32196317e-06 1.53050371e-06 1.45523109e-06
      1.49355844e-06 1.69834789e-06 1.80344227e-06 1.76857486e-06
      1.55975670e-06 1.38709731e-06 1.26027510e-06 1.20996719e-06
      8.55397502e-07 7.78179469e-07 5.92740548e-07 3.87188663e-07
      2.12759232e-07 1.33320697e-07 1.28414896e-07 1.21717264e-07
      2.25975569e-07 6.29600152e-07 8.41001849e-07 5.43688486e-07
      2.49689947e-07 5.15969305e-07 7.99806173e-07 9.06592390e-07
      6.99689622e-07 6.31428350e-07 1.10211170e-06 1.40547343e-06
      1.62314859e-06 1.76427943e-06 1.78737241e-06 1.70733335e-06
      1.38350708e-06 1.07127005e-06 1.02283207e-06 1.32338448e-06
      1.82152257e-06 2.33813307e-06 2.82421615e-06 3.06036372e-06
      2.90796879e-06 2.43629233e-06 1.71621764e-06 1.19887147e-06
      1.04409889e-06 1.09223981e-06 1.20655955e-06 1.41036753e-06
      1.87810235e-06 2.28855401e-06 2.52072914e-06 2.79933624e-06
      2.45675096e-06 2.34731510e-06 2.19196181e-06 1.92814423e-06
      1.54948668e-06 1.22714948e-06 1.01153569e-06 9.16920555e-07
      1.38693360e-06 1.29893715e-06 1.05170295e-06 8.05589991e-07
      6.95363951e-07 6.42746727e-07 5.66106849e-07 5.56255259e-07
      5.85165822e-07 5.10395068e-07 4.72046708e-07 5.84894735e-07
      1.39648876e-06 2.54545262e-06 3.27903444e-06 3.10888618e-06
      2.57065585e-06 1.97569511e-06 1.47794606e-06 1.19925903e-06
      2.03260129e-07 -7.92798232e-07 -1.39836015e-06 -1.74425497e-06
      -1.76704339e-06 -1.52288112e-06 -1.20983179e-06 -1.02550268e-06
      -1.08839481e-06 -1.42370527e-06 -1.83329485e-06 -2.13811813e-06
      -2.22178119e-06 -2.33020182e-06 -2.04431581e-06 -1.08065501e-06
      -1.11887584e-06 -9.57899488e-07 -4.79439223e-07 -1.16460065e-07
      -5.91168003e-08 1.22791723e-08 9.32918027e-08 1.81981818e-07
      3.68860356e-07 9.81077164e-07 1.74140541e-06 1.88108424e-06
      1.50054882e-06 9.79350716e-07 6.09600647e-07 4.50639305e-07
      1.40941296e-07 1.31847614e-07 1.08824878e-07 1.28353832e-07
      2.45233139e-07 3.57133359e-07 3.87364935e-07 3.39640650e-07
      2.44356812e-07 2.55983139e-07 5.05770913e-07 8.84686813e-07
      1.35450023e-06 1.94465906e-06 2.46153422e-06 2.58630621e-06
      2.16707804e-06 1.37227607e-06 2.12636678e-07 -1.11617339e-06
      -2.46905552e-06 -3.84588293e-06 -4.47757384e-06 -4.18256650e-06
      -3.48495860e-06 -2.58303339e-06 -1.75277137e-06 -1.24438066e-06
      -1.19501306e-06 -1.50636697e-06 -2.03981472e-06 -2.53224039e-06
      -2.77077265e-06 -2.64548271e-06 -2.21488585e-06 -1.55267719e-06
      -8.40360258e-07 -6.20187279e-07 -4.18724966e-07 -2.65571316e-07
      -3.67826402e-07 -6.79917378e-07 -1.25462236e-06 -1.98023781e-06
      -1.96275209e-06 -1.52332893e-06 -8.76089700e-07 -2.69719095e-07
      7.14132398e-08 1.38820326e-07 1.49039195e-07 1.55371509e-07
      -9.04031310e-07 -9.72560542e-07 -1.12999044e-06 -1.30789385e-06
      -1.43718682e-06 -1.50149037e-06 -1.54811244e-06 -1.62568665e-06
      -1.57572163e-06 -1.28207864e-06 -8.59760121e-07 -4.71424670e-07
      -2.44630399e-07 -2.87385632e-07 -4.96157384e-07 -7.23634855e-07
      -8.78806929e-07 -1.17436070e-06 -1.65073095e-06 -1.79445794e-06
      -1.79735446e-06 -1.75167384e-06 -1.62368508e-06 -1.74872730e-06
      -1.70677140e-06 -1.02037041e-06 -1.91209494e-07 4.99916041e-07
      9.37666812e-07 1.15660043e-06 1.33868286e-06 1.75696823e-06
      2.00446266e-06 2.07767198e-06 1.75768980e-06 1.02389663e-06
      5.58067427e-07 7.21788354e-07 1.07897586e-06 1.48319828e-06
      1.54543636e-06 2.13498950e-07 -1.09618077e-06 -2.13600674e-06
      -2.79019400e-06 -3.10897667e-06 -3.11304416e-06 -2.81299322e-06
      -2.31799436e-06 -1.74719651e-06 -1.33239189e-06 -1.17779541e-06
      -1.47727860e-06 -1.57110537e-06 -1.82777126e-06 -2.11920042e-06
      -2.52770610e-06 -2.93047810e-06 -3.47154673e-06 -3.84672785e-06
      -3.96366522e-06 -3.87900809e-06 -3.46503430e-06 -2.87981607e-06
      -2.34368599e-06 -2.26316047e-06 -2.75260072e-06 -3.26999725e-06
      -3.70811790e-06 -3.68910241e-06 -3.44824957e-06 -2.45478191e-06
      -1.68082977e-06 -1.02373656e-06 -5.27295981e-07 5.59768353e-07
      1.31649483e-06 1.14273371e-06 1.03689661e-06 1.23740847e-06
      1.57167574e-06 2.00735053e-06 2.38080679e-06 2.33529181e-06
      2.46119021e-06 2.55343070e-06 2.14036322e-06 2.04958314e-06
      1.81634778e-06 1.90483433e-06 1.76559911e-06 1.18513810e-06
      2.24904298e-07 -8.15070791e-07 -1.84438807e-06 -2.89267018e-06
      -3.97409485e-06 -4.82203313e-06 -5.21137417e-06 -5.05168100e-06
      -4.71055864e-06 -4.29904458e-06 -3.96970199e-06 -3.76371918e-06
      -2.48666265e-06 -2.36443088e-06 -2.08953725e-06 -1.69889245e-06
      -1.25182930e-06 -8.80188338e-07 -6.84471274e-07 -3.92496048e-07
      -3.95792313e-07 -7.70006579e-07 -8.34818650e-07 -4.85862699e-07
      -1.07083615e-07 3.73057318e-08 1.10747273e-07 -9.90392479e-08
      -4.68870695e-07 -8.84122471e-07 -1.44167745e-06 -1.87720616e-06
      -2.21569530e-06 -2.43749628e-06 -2.50248718e-06 -2.36862479e-06
      -1.86912257e-06 -1.50106814e-06 -1.34207403e-06 -1.35241680e-06
      -1.42260262e-06 -1.43719137e-06 -1.25256099e-06 -1.19250660e-06
      -1.31424974e-06 -1.04176240e-06 -1.09559505e-06 -1.50029371e-06
      -1.71169063e-06 -1.54128873e-06 -1.36864458e-06 -1.27192254e-06
      -1.25132715e-06 -1.33974663e-06 -1.42820727e-06 -1.30507942e-06
      -1.08617564e-06 -7.79872437e-07 -4.80003052e-07 -1.13196762e-07
      3.64082325e-07 6.64424647e-07 6.09502877e-07 5.72080069e-07
      -2.48807123e-06 -2.24373639e-06 -2.06660707e-06 -1.92528296e-06
      -1.41328394e-06 -7.40765074e-07 -4.46687835e-07 -2.61280405e-07
      -4.10732895e-07 -7.45436978e-07 -7.38003394e-07 -4.75851039e-07
      -2.02828247e-07 -1.72364754e-08 1.64046156e-07 9.83104513e-08
      -3.36131308e-07 -7.77114678e-07 -1.30507556e-06 -1.82842052e-06
      -2.08946199e-06 -2.22858898e-06 -2.34657546e-06 -2.37381801e-06
      -2.02807655e-06 -1.70825751e-06 -1.51739755e-06 -1.30206445e-06
      -1.32726825e-06 -1.42320334e-06 -9.98682822e-07 -9.86058240e-07
      -1.22382755e-06 -9.47553644e-07 -8.65081233e-07 -1.36024289e-06
      -1.73192655e-06 -1.58171486e-06 -1.37568134e-06 -1.26722523e-06
      -1.15230932e-06 -1.20649895e-06 -1.40812517e-06 -1.43915145e-06
      -1.38588450e-06 -1.06805055e-06 -7.04674903e-07 -3.63364052e-07
      1.33078231e-07 5.10741359e-07 6.36225252e-07 6.82179291e-07
      -2.37376958e-06 -2.12843156e-06 -1.92010339e-06 -1.81125426e-06
      -1.54949635e-06 -7.84548490e-07 -2.01330579e-07 -6.68307152e-08
      -3.49444321e-07 -5.17155627e-07 -4.05601668e-07 -3.28142221e-07
      -2.72787418e-07 -5.34220241e-08 1.14421447e-07 1.68216104e-07
      -1.53130486e-07 -5.90928664e-07 -1.04615106e-06 -1.53917279e-06
      -1.87998126e-06 -1.96010319e-06 -1.97768873e-06 -1.97033773e-06
      -1.84173336e-06 -1.75576986e-06 -1.67673704e-06 -1.38420182e-06
      -1.33908952e-06 -1.44258968e-06 -9.77139734e-07 -8.44339752e-07
      -1.03544460e-06 -7.83760868e-07 -4.95416600e-07 -1.02833872e-06
      -1.62176070e-06 -1.54609859e-06 -1.23418897e-06 -1.10270378e-06
      -9.39834365e-07 -9.61578394e-07 -1.28246995e-06 -1.55144824e-06
      -1.60979243e-06 -1.29186856e-06 -8.76563547e-07 -6.77784442e-07
      -3.88193456e-07 -6.41117097e-08 1.04752864e-07 2.14194557e-07
      -1.91374443e-06 -1.80774771e-06 -1.74047932e-06 -1.54359975e-06
      -1.37502605e-06 -8.45541535e-07 -1.97367399e-07 6.38719371e-08
      -1.67380577e-07 -2.13119137e-07 -1.31470301e-08 -1.13700565e-07
      -2.13685155e-07 -9.49239336e-08 1.29023789e-07 2.51088267e-07
      1.39027918e-08 -3.93815952e-07 -7.09077653e-07 -9.61588171e-07
      -1.44376781e-06 -1.82574126e-06 -1.70319288e-06 -1.51503298e-06
      -1.43850957e-06 -1.59885940e-06 -1.62168294e-06 -1.43934926e-06
      -1.40189616e-06 -1.50619212e-06 -1.21202265e-06 -8.88185127e-07
      -6.94617086e-07 -5.54382382e-07 -3.00937415e-07 -7.91856792e-07
      -1.38859946e-06 -1.40380837e-06 -8.63117975e-07 -7.44280953e-07
      -7.16638567e-07 -8.23518349e-07 -1.18924322e-06 -1.45966419e-06
      -1.63106870e-06 -1.33534331e-06 -9.33553451e-07 -9.00472855e-07
      -8.84910889e-07 -7.41089821e-07 -7.09898700e-07 -5.71295686e-07
      -1.77693653e-06 -1.61066043e-06 -1.35120513e-06 -1.16877550e-06
      -9.67949404e-07 -6.64952665e-07 -2.50376559e-07 5.37246265e-08
      -1.70212928e-07 -8.77959039e-08 1.66750837e-07 -9.58843671e-09
      -2.78216163e-07 -2.96598841e-07 -4.97866246e-08 6.48852216e-09
      -1.15662104e-07 -1.38159507e-07 -2.49151668e-07 -3.92649127e-07
      -7.57587941e-07 -1.31581601e-06 -1.47268190e-06 -1.23710265e-06
      -1.12925352e-06 -1.37185395e-06 -1.40291229e-06 -1.24533983e-06
      -1.38210021e-06 -1.60100114e-06 -1.46558216e-06 -1.03058676e-06
      -6.88705427e-07 -4.21416814e-07 -2.72774514e-07 -5.81365839e-07
      -1.04383764e-06 -9.43619796e-07 -3.81622073e-07 -3.86106876e-07
      -6.38176061e-07 -8.02797274e-07 -1.00790157e-06 -1.25598240e-06
      -1.45519220e-06 -1.27291344e-06 -9.80841151e-07 -9.44987164e-07
      -1.05378581e-06 -1.04198432e-06 -9.74327122e-07 -9.01633427e-07
      -1.83050611e-06 -1.92447692e-06 -1.70122235e-06 -1.17653110e-06
      -7.11010614e-07 -3.78291588e-07 -3.22320830e-07 -1.92975619e-07
      -3.48741025e-07 -1.20297599e-07 2.35839181e-07 2.05696971e-08
      -2.96336822e-07 -3.09898354e-07 -1.10213676e-07 -2.37922094e-07
      -3.27566340e-07 -2.07667881e-07 1.17587353e-08 1.12440709e-07
      -7.35260528e-08 -6.58203476e-07 -1.09361827e-06 -1.03790978e-06
      -9.57733164e-07 -1.24552196e-06 -1.20816651e-06 -9.99966574e-07
      -1.25039037e-06 -1.52595533e-06 -1.56537601e-06 -1.31458205e-06
      -9.39427252e-07 -5.63748870e-07 -3.90029783e-07 -5.43325882e-07
      -7.70532324e-07 -7.52940082e-07 -3.25463049e-07 -3.46839101e-07
      -5.69503811e-07 -5.76355433e-07 -7.55249062e-07 -8.98688086e-07
      -1.07314906e-06 -1.08321717e-06 -1.00776663e-06 -9.70809879e-07
      -1.00027739e-06 -8.52579774e-07 -7.18111380e-07 -7.12152485e-07
      -1.71741931e-06 -1.73603109e-06 -1.65075653e-06 -1.49056052e-06
      -1.09940595e-06 -7.72926285e-07 -7.59139141e-07 -6.47060688e-07
      -6.36085701e-07 -3.37137919e-07 -5.99104055e-08 -1.29664656e-07
      -3.77458235e-07 -3.08469993e-07 -1.00776752e-07 -3.03502361e-07
      -4.53060380e-07 -4.36431947e-07 -8.17249273e-08 3.63664753e-07
      3.09426753e-07 -2.26504241e-07 -7.51685889e-07 -7.33885486e-07
      -6.78396077e-07 -9.66393827e-07 -9.73501528e-07 -7.63109199e-07
      -9.53173071e-07 -1.25987663e-06 -1.50703056e-06 -1.63641869e-06
      -1.37387099e-06 -8.65210552e-07 -3.86283062e-07 -4.63276592e-07
      -6.17825265e-07 -7.11687221e-07 -5.48203843e-07 -5.91347373e-07
      -6.86054079e-07 -5.77956200e-07 -5.57974715e-07 -7.31928480e-07
      -8.17275179e-07 -9.61672981e-07 -8.24712799e-07 -7.35690605e-07
      -7.32088324e-07 -7.24795882e-07 -5.32053434e-07 -4.28053369e-07
      -1.70608382e-06 -1.60726916e-06 -1.76378512e-06 -1.87659191e-06
      -1.72006787e-06 -1.35303219e-06 -9.62617833e-07 -9.40408142e-07
      -8.48718912e-07 -5.10180485e-07 -3.11636796e-07 -3.52705911e-07
      -3.64184388e-07 -2.96331251e-07 -2.68732549e-07 -3.57985925e-07
      -4.75082345e-07 -6.12355961e-07 -4.25685329e-07 9.45751424e-08
      3.42761979e-07 -6.96794089e-08 -3.68962986e-07 -2.77879536e-07
      -2.33617911e-07 -5.09279459e-07 -6.92647689e-07 -6.49201695e-07
      -7.28318071e-07 -8.36366496e-07 -1.17293348e-06 -1.64604057e-06
      -1.69135637e-06 -1.38333280e-06 -7.99681573e-07 -5.80263531e-07
      -6.02816044e-07 -6.13065197e-07 -5.73412251e-07 -7.87096724e-07
      -1.01183048e-06 -9.26683583e-07 -7.63952926e-07 -7.88573118e-07
      -7.98905432e-07 -8.98318604e-07 -5.27866746e-07 -2.69097427e-07
      -8.48143173e-08 3.74204419e-08 -3.92617103e-08 -1.53676865e-07
      -6.25722691e-07 -1.11832662e-06 -1.72321461e-06 -2.05506581e-06
      -1.89407911e-06 -1.60133766e-06 -1.42388353e-06 -1.33824494e-06
      -1.08234792e-06 -6.81775305e-07 -4.79443315e-07 -5.60925741e-07
      -3.05393087e-07 7.87500625e-08 1.36549630e-07 -2.58971909e-07
      -4.43747894e-07 -6.35856509e-07 -7.27806423e-07 -4.76942546e-07
      -1.45242993e-07 -3.04104475e-07 -3.21958936e-07 -5.23113819e-08
      1.46792331e-07 -1.41204254e-07 -4.63457638e-07 -5.79044354e-07
      -5.43766532e-07 -4.99261546e-07 -6.13985094e-07 -9.83599307e-07
      -1.47761307e-06 -1.53422923e-06 -1.19103913e-06 -7.50991944e-07
      -8.59365230e-07 -7.03071123e-07 -4.59733201e-07 -6.32965225e-07
      -1.04492881e-06 -1.21571657e-06 -1.07278368e-06 -9.23786160e-07
      -9.10283916e-07 -9.44023157e-07 -5.86457588e-07 -6.43520153e-08
      3.40300460e-07 7.15474243e-07 9.33668559e-07 8.37392690e-07
      2.77136877e-07 -8.48643325e-08 -7.25411667e-07 -1.29907801e-06
      -1.62138213e-06 -1.61880951e-06 -1.65693609e-06 -1.84222074e-06
      -1.62988840e-06 -9.75453190e-07 -5.54293820e-07 -5.93231846e-07
      -2.31245664e-07 3.97985417e-07 7.09811786e-07 4.19649979e-07
      -2.13756035e-08 -3.79930952e-07 -6.25964958e-07 -8.19711317e-07
      -6.18541776e-07 -5.90618185e-07 -6.90889010e-07 -2.75140962e-07
      1.04621812e-07 2.09272315e-07 -2.46971553e-07 -6.17018202e-07
      -5.80403082e-07 -4.27410896e-07 -1.27444920e-07 -1.35005251e-07
      -7.78537526e-07 -1.16298997e-06 -1.08102131e-06 -8.01909664e-07
      -7.85056613e-07 -6.57051430e-07 -4.51000602e-07 -3.81857802e-07
      -6.58291299e-07 -9.91466095e-07 -1.16068088e-06 -1.14670490e-06
      -1.08269785e-06 -1.05379218e-06 -7.21949334e-07 -2.31764602e-07
      2.92335216e-07 9.83646487e-07 1.53602582e-06 1.64179175e-06
      3.33709721e-07 3.14141829e-07 1.32497064e-07 -3.53780962e-07
      -1.17007289e-06 -1.47584183e-06 -1.62618585e-06 -2.02407296e-06
      -2.01230114e-06 -1.44538069e-06 -7.82951020e-07 -6.54081816e-07
      -4.29515779e-07 1.12582036e-07 5.45124863e-07 4.34376176e-07
      2.86173105e-07 1.39383076e-07 -3.53676235e-08 -4.12945838e-07
      -5.45814260e-07 -6.59444026e-07 -9.02378133e-07 -8.07372942e-07
      -2.49854224e-07 1.51414213e-07 -4.05276745e-09 -5.65431037e-07
      -6.66091523e-07 -4.54676723e-07 2.48672762e-07 4.45513422e-07
      3.86519439e-08 -4.34646751e-07 -7.32314220e-07 -8.28461225e-07
      -8.65008246e-07 -5.32356580e-07 -3.42113168e-07 -2.10501923e-07
      -1.83661882e-07 -3.48026134e-07 -8.44570025e-07 -1.21789333e-06
      -1.33187268e-06 -1.33526407e-06 -1.05386380e-06 -4.67389924e-07
      2.69412381e-09 6.08479468e-07 1.12876410e-06 1.37515133e-06
      -5.04520813e-07 2.27827197e-08 3.84993257e-07 2.75729718e-07
      -8.16021213e-07 -1.45415356e-06 -1.61174216e-06 -1.69132477e-06
      -1.61737921e-06 -1.47765456e-06 -1.05583513e-06 -9.85457405e-07
      -1.07394203e-06 -8.53085226e-07 -3.98071705e-07 -5.53912400e-07
      -5.73626039e-07 -4.55232197e-07 -2.66522164e-07 -2.09903746e-07
      -3.94168183e-07 -5.63598007e-07 -6.98092833e-07 -8.39344182e-07
      -5.69380518e-07 -1.16279921e-07 -1.14987913e-07 -4.64268993e-07
      -4.53916783e-07 -1.07144572e-07 4.21581149e-07 6.68100313e-07
      4.07124077e-07 5.35078861e-08 -3.64318822e-07 -8.28507837e-07
      -1.17917773e-06 -1.06115033e-06 -6.01078398e-07 -1.27206135e-07
      1.19755853e-07 1.13105145e-07 -4.23456328e-07 -9.93326125e-07
      -1.39067390e-06 -1.55108023e-06 -1.38998553e-06 -9.23615914e-07
      -5.77978881e-07 6.72618512e-08 4.39324964e-07 4.90863044e-07
      -1.69101270e-06 -9.35589128e-07 -2.03262630e-07 2.16743601e-07
      -2.75412589e-07 -1.14459203e-06 -1.56424233e-06 -1.61261835e-06
      -1.42510680e-06 -1.14779630e-06 -9.34968512e-07 -9.13619886e-07
      -1.25119857e-06 -1.43401394e-06 -1.38338135e-06 -1.59101637e-06
      -1.71001557e-06 -1.52133703e-06 -1.14850241e-06 -8.52136679e-07
      -7.93828178e-07 -7.61670549e-07 -5.23142148e-07 -4.76941693e-07
      -5.24128154e-07 -2.67561973e-07 -2.22939022e-07 -4.66463831e-07
      -3.10621829e-07 -5.01874311e-08 2.29764012e-07 5.25763369e-07
      3.97401720e-07 1.48348164e-07 -3.17824600e-07 -7.72134968e-07
      -1.11756231e-06 -1.46401806e-06 -1.64552307e-06 -1.13807869e-06
      -3.06495508e-07 1.09744519e-07 -4.50408720e-07 -1.15894886e-06
      -1.47195476e-06 -1.56715112e-06 -1.66419147e-06 -1.21806670e-06
      -8.12749533e-07 -8.11535585e-07 -5.19171408e-07 -2.93812036e-07
      -2.17479237e-06 -1.76341382e-06 -1.12846487e-06 -3.53751801e-07
      1.05268143e-07 -3.49948323e-07 -9.69548523e-07 -1.24886583e-06
      -1.26648172e-06 -1.15319312e-06 -8.69364442e-07 -5.04965044e-07
      -7.09551898e-07 -1.32742014e-06 -1.62097990e-06 -2.04186813e-06
      -2.34496270e-06 -2.25429494e-06 -1.94079416e-06 -1.50764743e-06
      -1.41622172e-06 -1.36505798e-06 -7.92004755e-07 -3.63833237e-07
      -2.79874968e-07 -2.23949755e-07 -1.19127286e-07 -3.70722518e-07
      -2.43648600e-07 2.06398347e-08 1.59817773e-07 1.31968221e-07
      3.20476602e-07 -9.86771909e-08 -6.59490809e-07 -9.95360665e-07
      -1.08978622e-06 -1.60036973e-06 -2.06419963e-06 -2.29899842e-06
      -1.52322173e-06 -4.37988518e-07 -8.57792429e-07 -1.52988912e-06
      -1.55263808e-06 -1.45382455e-06 -1.81182645e-06 -1.45963202e-06
      -9.94143534e-07 -8.90666115e-07 -8.46416356e-07 -6.04909417e-07
      -2.50188032e-06 -2.18830678e-06 -1.53673875e-06 -1.02359604e-06
      -3.99023946e-07 1.91540266e-07 -2.43550630e-07 -6.48369507e-07
      -9.47124477e-07 -1.13717010e-06 -1.19336221e-06 -6.94251298e-07
      -2.45819738e-08 -3.77718152e-07 -1.17696379e-06 -1.69673672e-06
      -2.15567798e-06 -2.31564286e-06 -2.11915039e-06 -1.79141011e-06
      -1.72407999e-06 -1.75293872e-06 -1.08343431e-06 -4.91934713e-07
      -2.47038969e-07 -2.58979384e-07 -2.00217087e-07 -2.44899923e-07
      -9.73812178e-08 6.81641055e-08 2.27216631e-07 2.06996717e-07
      2.72799724e-07 -1.75708990e-07 -9.44174189e-07 -1.36368317e-06
      -1.54504164e-06 -1.79098504e-06 -1.98493149e-06 -2.09152495e-06
      -1.75620005e-06 -1.02463980e-06 -8.52327844e-07 -1.40755969e-06
      -1.54660529e-06 -1.16870251e-06 -1.24986968e-06 -1.20848438e-06
      -9.05578190e-07 -7.79540301e-07 -6.27026111e-07 -2.96890391e-07
      -2.67318342e-06 -2.61048740e-06 -2.11185170e-06 -1.55424709e-06
      -9.71661507e-07 -2.18672270e-07 8.12262329e-08 -1.73774012e-07
      -4.50164322e-07 -8.15358419e-07 -1.17920047e-06 -1.21161747e-06
      -4.99339876e-07 1.72442000e-07 -1.14653581e-07 -1.01772991e-06
      -1.39584802e-06 -1.73337276e-06 -1.64279004e-06 -1.39293093e-06
      -1.37535721e-06 -1.46438344e-06 -8.67495885e-07 -5.93953416e-07
      -2.92724479e-07 -2.53240074e-07 -4.31532413e-07 -5.51521339e-07
      -2.73324446e-07 -1.62745081e-07 -7.77550468e-08 1.14842869e-07
      -1.90908467e-09 -1.27217334e-07 -6.78394258e-07 -1.26998418e-06
      -1.62515653e-06 -1.68437225e-06 -1.60628917e-06 -1.50350809e-06
      -1.20082166e-06 -7.56826410e-07 -6.01355623e-07 -9.69582970e-07
      -1.23292250e-06 -7.90899605e-07 -5.91932746e-07 -5.10570885e-07
      -5.41754559e-07 -5.44907778e-07 -3.16513280e-07 -5.61543061e-08
      -2.32770935e-06 -2.39903989e-06 -2.09347195e-06 -1.68150393e-06
      -1.22620656e-06 -7.41168549e-07 -3.39145402e-07 -1.91569114e-07
      -2.64124481e-07 -4.63759335e-07 -8.52663618e-07 -1.15157866e-06
      -9.99584699e-07 -4.45336610e-07 2.00857812e-07 -2.81482329e-07
      -9.49085234e-07 -1.33094886e-06 -1.02993920e-06 -4.64251627e-07
      -4.13792208e-07 -5.04790592e-07 -3.42021195e-07 -5.52497113e-07
      -3.59427077e-07 -2.08594457e-07 -4.18530334e-07 -7.96613278e-07
      -7.77639173e-07 -7.48017555e-07 -6.95278288e-07 -3.61265819e-07
      -3.35798518e-07 -5.40641167e-07 -8.56563531e-07 -1.18447588e-06
      -1.40239172e-06 -1.28675163e-06 -1.04783066e-06 -7.83584028e-07
      -4.63598496e-07 -2.95660357e-07 -2.99417337e-07 -9.22385027e-07
      -1.08792676e-06 -6.08362427e-07 -2.85130511e-07 -2.27481081e-07
      -1.91331139e-07 -1.68462023e-07 -4.59371954e-08 1.39351357e-07
      -1.75572313e-06 -1.74948968e-06 -1.57955913e-06 -1.32139576e-06
      -9.95967184e-07 -8.56629811e-07 -8.50710819e-07 -6.48764399e-07
      -3.99951830e-07 -3.29469117e-07 -5.20931962e-07 -8.03097976e-07
      -9.74872819e-07 -7.44462966e-07 -2.09855585e-07 -4.81310778e-08
      -1.94033646e-07 -6.36063930e-07 -6.81394965e-07 -1.55201704e-07
      2.70011355e-07 3.17529185e-07 1.09350438e-07 -3.64841185e-07
      -3.77226968e-07 -2.64604353e-07 -3.80108787e-07 -9.16124804e-07
      -1.30468698e-06 -1.52113910e-06 -1.50971721e-06 -1.04944570e-06
      -5.80337201e-07 -5.89795093e-07 -8.40021187e-07 -9.24408312e-07
      -1.02936065e-06 -9.37894640e-07 -4.23969027e-07 -7.52687797e-08
      3.58751855e-08 1.49014070e-07 -8.26900362e-08 -6.91192156e-07
      -1.03166997e-06 -6.08557968e-07 -4.91443700e-07 -5.31712203e-07
      -2.72157934e-07 1.58927421e-07 2.87988939e-07 3.00613664e-07
      -1.04175854e-06 -1.06026312e-06 -9.11608538e-07 -7.32097192e-07
      -4.75755087e-07 -5.59285411e-07 -8.71880559e-07 -9.44429075e-07
      -7.08941059e-07 -4.18925140e-07 -3.46781377e-07 -5.12364636e-07
      -5.25127291e-07 -3.93314366e-07 -2.59197009e-07 -1.06450528e-07
      6.28414440e-08 8.37976728e-08 -8.37130258e-08 -2.90276709e-08
      1.61135489e-07 1.77243649e-07 9.18804730e-08 -3.24091900e-07
      -3.58645707e-07 -2.93619109e-07 -4.26346674e-07 -1.01628029e-06
      -1.60123852e-06 -2.19259482e-06 -2.31385320e-06 -1.86390525e-06
      -1.02771571e-06 -6.44796842e-07 -4.34395474e-07 -4.65190993e-07
      -4.83010922e-07 -3.70831287e-07 -2.16184716e-07 5.86989088e-08
      5.66906984e-08 9.51532115e-08 1.14088728e-07 -2.83217958e-07
      -4.94997323e-07 -4.69834077e-07 -8.18599972e-07 -9.62575086e-07
      -4.13528909e-07 2.60511598e-07 4.94178380e-07 4.73264322e-07
      -8.79265144e-07 -8.86504097e-07 -6.46502315e-07 -3.87181217e-07
      -7.10969985e-08 -8.70223502e-08 -4.22362660e-07 -5.90132402e-07
      -5.75548086e-07 -4.04025798e-07 -2.03993466e-07 -2.48733869e-07
      -1.77743587e-07 -8.58706386e-08 -1.26943931e-07 7.71922046e-08
      2.31089700e-07 1.48794456e-07 3.13936283e-07 4.26151701e-07
      4.32633385e-07 1.61871299e-07 -1.01318761e-07 -3.20917820e-07
      -2.89728376e-07 -1.79448065e-07 -2.27028963e-07 -8.96702886e-07
      -1.64682069e-06 -2.33264655e-06 -2.86612703e-06 -2.54029305e-06
      -1.58296689e-06 -1.00923273e-06 -6.05359844e-07 -1.71477822e-07
      -3.13991357e-08 1.61078376e-07 1.73522039e-07 -1.61046913e-07
      -2.98701877e-07 -6.00587953e-08 1.04080961e-07 -2.22383711e-08
      -2.18124026e-08 -6.50591687e-08 -5.16654836e-07 -9.19821389e-07
      -3.88296485e-07 3.12696216e-07 3.86974733e-07 3.38289851e-07
      -7.08330333e-07 -6.11347104e-07 -4.42473691e-07 -2.79806869e-07
      5.89165552e-08 3.68362514e-08 -1.84161721e-07 -2.77175729e-07
      -3.18481909e-07 -2.45868023e-07 -1.88024401e-07 -9.02123531e-08
      1.52118048e-07 1.34079485e-07 2.36775179e-07 3.37877111e-07
      4.79868334e-07 2.99246068e-07 1.60883701e-07 2.97003908e-07
      2.59992191e-07 7.75745761e-08 -2.94672664e-09 -4.48780391e-08
      1.25189459e-07 2.89824357e-07 3.67723231e-07 -3.69386385e-07
      -1.33686251e-06 -2.04213575e-06 -2.65719450e-06 -2.74137142e-06
      -1.89929722e-06 -1.13592444e-06 -7.19928096e-07 -2.79523221e-07
      1.77306362e-07 4.40664678e-07 4.44278129e-07 7.20311455e-09
      -2.10847190e-07 -2.18135625e-07 -1.18411421e-07 -2.54633186e-08
      8.51920063e-08 2.91402746e-09 -2.64094638e-07 -3.75571403e-07
      -8.20644388e-08 2.59020140e-07 2.20475854e-07 1.27775309e-07
      -4.39944017e-07 -4.31719116e-07 -3.12346174e-07 -1.04319575e-07
      6.54079670e-08 1.18129499e-07 -2.32480240e-08 -9.15744209e-08
      -9.39710816e-08 -1.95524223e-07 -3.59970329e-07 -4.69206697e-07
      -3.26214291e-07 9.78739294e-08 3.94786582e-07 6.14041483e-07
      6.92309300e-07 3.32066151e-07 6.46383782e-08 -4.38552625e-08
      -1.70696509e-07 -2.81138483e-07 -5.48964607e-08 2.99650935e-07
      6.98897509e-07 1.04096262e-06 1.05960919e-06 2.97759982e-07
      -6.94948199e-07 -1.44049829e-06 -2.00818977e-06 -2.25243184e-06
      -1.70914882e-06 -9.83295195e-07 -5.58286956e-07 -2.61330911e-07
      2.94258538e-08 3.41483059e-07 3.48195613e-07 4.36423946e-08
      -1.39463282e-07 -2.91619017e-07 -3.69105720e-07 -3.10302255e-07
      -3.85644086e-08 6.96798896e-10 -2.04821617e-07 -8.80124063e-08
      1.29533873e-07 1.59836389e-07 -1.04083583e-07 -1.46512690e-07
      -1.81706611e-07 -2.48418502e-07 -2.05752755e-07 -1.27886466e-07
      -5.37933929e-08 6.62029365e-08 1.56784282e-07 1.42220983e-07
      1.88312427e-07 4.62184140e-08 -3.02950696e-07 -4.60350520e-07
      -5.24842392e-07 -1.27612125e-07 3.92249177e-07 7.25487212e-07
      9.32173350e-07 6.47202626e-07 3.47456506e-07 1.03452415e-07
      -2.16255046e-07 -4.55647722e-07 -3.61930645e-08 6.36778566e-07
      1.10930682e-06 1.58444300e-06 1.54277222e-06 8.35705066e-07
      -1.52901237e-07 -7.78898539e-07 -1.15729028e-06 -1.46107698e-06
      -1.02113688e-06 -3.76886504e-07 -1.08639078e-07 -7.72232553e-08
      6.77125334e-09 1.33246573e-07 2.24251067e-07 -4.40800676e-08
      -7.78144482e-08 -3.01023022e-07 -4.92652134e-07 -4.38678200e-07
      -2.05414665e-07 -1.22108963e-08 -9.39245410e-08 -2.69437717e-09
      1.75254556e-07 8.53739692e-08 -2.91463039e-07 -4.46012308e-07
      -7.94237351e-08 -1.66035989e-07 -1.28013369e-07 -1.33005997e-07
      -1.01956005e-07 2.25566907e-08 1.88839948e-07 1.44890635e-07
      3.49651344e-07 2.74842677e-07 -4.25864073e-08 -1.13331602e-07
      -2.70266469e-07 -7.52032250e-08 3.88564558e-08 4.88637284e-07
      1.21042763e-06 1.27189071e-06 1.08034646e-06 7.65668005e-07
      -1.25944011e-08 -5.36085224e-07 -4.08688891e-07 9.90860940e-08
      6.49561002e-07 1.14320608e-06 1.20404536e-06 9.02876650e-07
      2.06832738e-07 -5.26901943e-07 -7.34872742e-07 -7.21425124e-07
      -2.87400638e-07 3.28604727e-07 5.92146421e-07 5.00404042e-07
      3.68949230e-07 3.41601606e-07 2.87634748e-07 9.36395281e-08
      4.74569148e-08 -2.10825277e-07 -3.95748543e-07 -3.85349267e-07
      -2.70277241e-07 -5.00648980e-08 6.90837609e-08 1.96665127e-07
      3.05373106e-07 1.66607379e-07 -2.54262602e-07 -4.10643111e-07
      1.74992650e-07 2.25103562e-08 -4.56772291e-08 -1.31571838e-07
      -1.88062046e-07 -4.98612529e-08 3.25336238e-08 1.74275030e-08
      2.05216935e-07 2.06312905e-07 -2.60397321e-08 2.26033279e-07
      2.38994488e-07 1.86030093e-07 -2.00403800e-08 3.12811665e-07
      1.04556682e-06 1.36090398e-06 1.33175104e-06 1.07253743e-06
      2.68941193e-07 -3.02431857e-07 -5.11943767e-07 -5.42920247e-07
      -2.00875917e-07 2.71581854e-07 2.75335452e-07 3.49187872e-07
      1.50645405e-07 -5.02597061e-07 -7.36797006e-07 -3.70715810e-07
      2.08801623e-07 7.13590509e-07 1.05882418e-06 1.11185966e-06
      8.85321640e-07 6.00795033e-07 4.64704129e-07 3.37651585e-07
      1.80432238e-07 -1.20440419e-07 -1.86633741e-07 -9.85690036e-08
      -1.32238384e-07 -6.75843239e-08 1.68498076e-07 3.45971813e-07
      4.14470975e-07 3.20565022e-07 9.51062251e-09 -1.32047049e-07
      5.03619049e-07 2.68353887e-07 1.04308064e-07 -2.16377014e-08
      -2.10142545e-07 -1.13247232e-07 1.46082035e-08 3.20382654e-08
      1.49873340e-08 -1.60709277e-08 -3.58530485e-08 1.57724273e-07
      2.00525704e-07 1.31113637e-07 7.11693033e-08 3.59739289e-07
      7.81306369e-07 1.04193509e-06 1.13298893e-06 9.79905622e-07
      5.54675808e-07 1.55320478e-07 -1.57025696e-07 -3.94738009e-07
      -4.35444008e-07 -2.97599513e-07 -3.91095426e-07 -2.61571785e-07
      -2.93450256e-07 -7.12814028e-07 -8.81917174e-07 -4.33971678e-07
      1.98989465e-08 5.67284985e-07 1.19268122e-06 1.46707089e-06
      1.37498398e-06 9.53427389e-07 6.62375669e-07 5.12490146e-07
      2.51873104e-07 -1.26591658e-07 -1.11625047e-08 2.16288271e-07
      2.06233310e-07 2.10193832e-07 2.63135746e-07 3.19680396e-07
      3.20538220e-07 3.36408846e-07 2.46320070e-07 1.67654377e-07
      7.61523381e-07 5.01081445e-07 2.00453712e-07 1.40384095e-08
      -2.07346943e-07 -2.61969376e-07 -1.04143773e-07 1.86628242e-07
      7.64262111e-08 -6.85054715e-08 1.00452667e-07 1.41660323e-07
      1.34719897e-07 1.37223779e-07 2.91465540e-07 6.26142196e-07
      7.02515592e-07 6.21218589e-07 6.05892126e-07 5.84408099e-07
      4.32607294e-07 4.76326903e-07 3.94826600e-07 1.35733515e-07
      -1.29035087e-07 -2.77965199e-07 -3.89097238e-07 -3.44396483e-07
      -3.12900369e-07 -5.98304553e-07 -4.21610679e-07 -1.57348850e-07
      -5.18730614e-09 2.77276143e-07 8.33156605e-07 1.48256970e-06
      1.66865902e-06 1.24405449e-06 8.74966645e-07 5.76360037e-07
      1.71807216e-07 -2.61928648e-07 2.99541298e-08 2.06731940e-07
      3.26230719e-07 5.59286889e-07 5.31828448e-07 4.19893325e-07
      3.05518938e-07 2.67393432e-07 2.46512343e-07 2.23595791e-07
      7.78599713e-07 6.11409803e-07 2.74822924e-07 7.03072942e-08
      -9.97140575e-08 -2.37118272e-07 -2.30166208e-07 3.42851401e-08
      8.19510859e-08 3.41163258e-08 2.78785109e-07 2.46693759e-07
      1.86759550e-07 3.47699427e-07 5.85583052e-07 8.32223748e-07
      7.56840109e-07 3.93595087e-07 1.13456359e-07 -5.43477476e-08
      5.78969406e-08 9.85837403e-08 2.94151988e-07 4.37351787e-07
      2.30595901e-07 -7.37099839e-08 -2.21673687e-07 -1.90102938e-07
      -5.79013886e-08 -9.34706677e-08 2.76736017e-07 6.49661729e-07
      7.61124284e-07 7.19924913e-07 9.17180330e-07 1.60801892e-06
      1.98129487e-06 1.65808558e-06 1.09668906e-06 6.36337631e-07
      1.93977257e-07 -1.94558623e-07 2.69928702e-08 5.82107376e-08
      1.85496603e-07 5.13030955e-07 5.69351130e-07 4.42574361e-07
      3.35534281e-07 2.15358867e-07 1.58721889e-07 1.66758781e-07
      6.48215234e-07 5.71050236e-07 2.70261324e-07 5.98827370e-08
      -6.73033185e-08 -2.42638350e-07 -4.91156186e-07 -2.92380633e-07
      -2.61175721e-08 9.29132469e-08 2.74265773e-07 3.29279146e-07
      2.99695159e-07 5.90309810e-07 8.08681818e-07 8.92253354e-07
      7.66701021e-07 2.24648801e-07 -2.06791938e-07 -6.57070473e-07
      -7.87346721e-07 -6.59891896e-07 -4.97748545e-07 -1.98019805e-07
      1.70714031e-07 8.45930170e-09 -1.32727962e-07 -2.00492806e-07
      -4.60272283e-08 -4.19148849e-09 3.11359287e-07 8.29440637e-07
      1.42063448e-06 1.57695229e-06 1.75555624e-06 2.15649993e-06
      2.29870079e-06 2.02830688e-06 1.54212091e-06 1.00299837e-06
      3.79571304e-07 -1.54461603e-07 -2.27218333e-08 -1.15550492e-07
      -7.04849157e-08 2.41596922e-07 4.42246602e-07 3.51720189e-07
      2.78533292e-07 1.18811791e-07 1.09878926e-07 1.73064691e-07
      6.14514988e-07 5.55658062e-07 2.76270697e-07 3.06717816e-08
      -1.25535507e-07 -2.43743642e-07 -5.84425663e-07 -5.36682137e-07
      -3.52119230e-07 -9.76197256e-08 1.11310001e-07 3.69786903e-07
      4.07904565e-07 5.82830125e-07 9.48349907e-07 9.27191820e-07
      4.74036511e-07 -2.46662410e-07 -7.91013406e-07 -1.14150203e-06
      -1.46057801e-06 -1.77596439e-06 -1.74742763e-06 -1.38601513e-06
      -8.76254205e-07 -5.26056454e-07 -4.17882205e-07 -4.52383347e-07
      -8.37839167e-08 -3.25082294e-09 2.80409665e-07 7.44949659e-07
      1.39020017e-06 2.00453633e-06 2.47446951e-06 2.72366265e-06
      2.57402189e-06 2.03981654e-06 1.50858921e-06 1.09120003e-06
      4.55247317e-07 -7.09221979e-08 -1.14143237e-08 -2.58898751e-07
      -2.98135859e-07 -1.96765848e-09 1.65691077e-07 3.89448900e-08
      8.62921965e-08 8.82398865e-08 1.13192726e-07 1.97793213e-07
      7.10196048e-07 6.82531947e-07 4.79705591e-07 2.27031762e-07
      -3.82666059e-08 -2.52302328e-07 -5.31582941e-07 -5.15831857e-07
      -5.53568498e-07 -4.51664874e-07 -1.76649252e-07 2.93995043e-07
      2.10419302e-07 1.74868646e-07 6.07747154e-07 7.69832411e-07
      6.13393496e-08 -7.28632074e-07 -1.23207030e-06 -1.47906519e-06
      -1.51754921e-06 -1.81599819e-06 -2.13142562e-06 -2.08014103e-06
      -1.63444099e-06 -1.24926419e-06 -8.31311525e-07 -6.78608558e-07
      -1.99265344e-07 9.53949524e-08 4.40418859e-07 7.93007644e-07
      1.45938611e-06 2.05871402e-06 2.41537191e-06 2.75546449e-06
      2.56544809e-06 1.88020465e-06 1.12735052e-06 5.07865366e-07
      1.35581871e-07 -1.44810272e-07 -1.83950462e-07 -3.13936027e-07
      -4.37924740e-07 -1.17146740e-07 -5.71784184e-08 -2.14896048e-07
      -1.00862160e-07 1.05290852e-07 1.92165587e-07 1.96924901e-07
      8.00179066e-07 7.93816127e-07 7.49980529e-07 5.76048990e-07
      2.83110978e-07 6.47534559e-09 -3.19822590e-07 -3.94820688e-07
      -4.92185620e-07 -3.68490646e-07 -2.36515262e-07 1.01383662e-07
      -6.48532179e-08 -5.00242493e-07 -2.19742688e-07 1.87298369e-07
      -3.52356921e-07 -1.08892857e-06 -1.37240932e-06 -1.37876543e-06
      -1.30343972e-06 -1.43712725e-06 -1.64055245e-06 -1.59056947e-06
      -1.56772251e-06 -1.37284621e-06 -1.02479532e-06 -1.02792956e-06
      -7.16324962e-07 -1.83705509e-07 4.37960864e-07 7.72383601e-07
      1.21134997e-06 1.84639089e-06 1.95593657e-06 2.21057985e-06
      2.22212020e-06 1.56274007e-06 6.78576043e-07 -9.06375703e-08
      -1.92679167e-07 -3.80175607e-07 -4.56206266e-07 -4.94348910e-07
      -6.06386720e-07 -2.92518138e-07 -1.55398610e-07 -2.76556108e-07
      -1.63374196e-07 9.08406648e-08 3.09766733e-07 2.86261269e-07
      9.96964900e-07 9.19754370e-07 9.21559604e-07 8.68022028e-07
      5.71429723e-07 2.97189558e-07 7.37459782e-09 -1.95263596e-07
      -2.90003442e-07 -7.38787094e-08 9.84109789e-08 1.51374152e-07
      5.10480263e-08 -5.19939135e-07 -5.11350152e-07 -4.41855491e-07
      -1.06142193e-06 -1.56324666e-06 -1.60164041e-06 -1.26213922e-06
      -9.94859988e-07 -1.11345457e-06 -1.24039923e-06 -9.19644322e-07
      -7.58276201e-07 -9.12691064e-07 -9.63868956e-07 -9.36596848e-07
      -8.21715105e-07 -6.34344246e-07 -1.27612466e-07 3.11265268e-07
      6.87468059e-07 1.10645465e-06 8.11547352e-07 7.08805715e-07
      7.66556241e-07 4.84882037e-07 -1.07037446e-08 -6.05057437e-07
      -5.46583692e-07 -3.56018887e-07 -3.08317254e-07 -4.79461789e-07
      -6.86429757e-07 -5.26261431e-07 -2.80898064e-07 -2.49542779e-07
      -1.29825168e-07 1.13812014e-07 3.54348828e-07 3.24026416e-07
      1.21521020e-06 1.02676881e-06 9.34286447e-07 8.79725633e-07
      6.72640795e-07 5.15174008e-07 3.67628729e-07 1.17342445e-07
      -2.97958369e-08 8.95600323e-08 1.97204088e-07 1.93739950e-07
      1.89166443e-07 -9.37008195e-08 -2.25755755e-07 -4.00121621e-07
      -9.84499366e-07 -1.60574746e-06 -1.69762347e-06 -1.17997809e-06
      -8.05519221e-07 -8.34576610e-07 -9.07250410e-07 -6.02535238e-07
      -1.82126186e-07 -2.58768580e-07 -4.78209586e-07 -4.96995710e-07
      -2.98084416e-07 -2.25077216e-07 -4.45441486e-07 -2.34010784e-07
      1.54680905e-07 6.90361105e-07 1.40850759e-07 -2.35991152e-07
      -3.27265298e-07 -6.43659575e-07 -1.01547073e-06 -1.20676225e-06
      -8.26220742e-07 -3.58109247e-07 -2.85757551e-07 -4.21280220e-07
      -5.95282302e-07 -5.34174433e-07 -4.02465730e-07 -3.52419818e-07
      -1.71164174e-07 7.51183507e-08 2.33346540e-07 2.82116304e-07
      9.64324386e-07 8.30935278e-07 6.49583740e-07 5.70543534e-07
      4.82015423e-07 5.51361154e-07 5.78176241e-07 4.54800272e-07
      4.32880483e-07 6.60144849e-07 4.22584350e-07 1.32907076e-07
      3.34340342e-08 5.54293784e-08 1.99953107e-07 -5.47345245e-08
      -4.22033082e-07 -8.22055597e-07 -9.23245238e-07 -5.35599725e-07
      -4.85943872e-07 -5.22365099e-07 -4.99721409e-07 -2.50339525e-07
      5.16989758e-08 2.34468743e-07 1.55426164e-07 1.30774950e-07
      3.67064388e-07 2.93638180e-07 -1.30935646e-07 -1.88213193e-07
      8.00251314e-08 6.11506437e-07 3.27873551e-07 -5.45831362e-08
      -1.42017541e-07 -5.38501865e-07 -9.22411914e-07 -1.20450704e-06
      -1.06323841e-06 -6.76236255e-07 -4.71166771e-07 -4.96112648e-07
      -6.17627677e-07 -4.39937253e-07 -3.58992111e-07 -3.39074262e-07
      -2.10677413e-07 6.56827197e-08 1.31653536e-07 2.12157076e-07
      5.98489123e-07 5.41038105e-07 3.27705379e-07 2.18449642e-07
      1.45421936e-07 2.07149327e-07 3.28470094e-07 5.40646340e-07
      9.17051693e-07 1.19789547e-06 9.14975658e-07 2.87573471e-07
      1.00416948e-07 1.01320381e-07 1.21276329e-07 -7.72321513e-08
      -3.09371053e-08 -5.80268242e-08 -1.38075677e-07 -2.91392208e-08
      -1.88222756e-07 -2.09125005e-07 -2.54151303e-07 2.41762130e-08
      2.44876844e-07 4.21265128e-07 6.30935233e-07 6.68400162e-07
      6.86959766e-07 3.15505019e-07 -1.01028348e-07 1.80530307e-07
      6.81379504e-07 1.13644342e-06 8.70862380e-07 4.65519037e-07
      4.66301088e-07 1.82165152e-07 -3.26020086e-07 -5.17735941e-07
      -6.47225590e-07 -6.95545623e-07 -6.62324680e-07 -5.87004024e-07
      -6.07728055e-07 -4.72870823e-07 -5.48863454e-07 -4.46129150e-07
      -1.41212510e-07 1.40623456e-07 2.51053194e-07 4.27125912e-07
      3.23500132e-07 2.44312503e-07 1.88411235e-07 7.47994235e-08
      -1.15205602e-07 -2.73558385e-07 -2.19436444e-07 -2.21582113e-08
      5.12502538e-07 9.32219734e-07 8.83973939e-07 4.08317277e-07
      6.53910348e-08 -1.16280630e-08 7.68432287e-08 -4.26981472e-08
      -8.75633503e-08 -5.42321921e-08 -3.16024995e-07 -4.40344479e-07
      -3.64314502e-07 -1.67146723e-07 -1.26543256e-07 -7.92220760e-08
      1.22798866e-07 3.08528143e-07 4.58922329e-07 7.56851819e-07
      7.44932208e-07 3.19939602e-07 -5.92395359e-08 2.80278499e-07
      7.16697514e-07 9.74170348e-07 8.31342788e-07 8.50342644e-07
      9.71762120e-07 7.65584389e-07 2.32441664e-07 -4.16664534e-08
      -2.10523211e-07 -4.35838530e-07 -4.59455180e-07 -4.91181936e-07
      -5.83643327e-07 -4.12234016e-07 -5.18937441e-07 -4.99423720e-07
      -1.67531027e-07 2.06982023e-07 5.23042331e-07 7.78709648e-07
      7.27429921e-08 -6.29366852e-08 -5.23164587e-08 -3.42494459e-08
      -1.96304754e-07 -4.87020657e-07 -5.32532908e-07 -5.16865043e-07
      -3.52931750e-07 -9.23460988e-08 -6.50314576e-08 -2.74185282e-07
      -3.63718584e-07 -3.46935451e-07 -1.55622658e-07 3.86404722e-08
      9.20204215e-08 -3.98648332e-08 -3.78916212e-07 -7.71736950e-07
      -1.00896546e-06 -8.39418362e-07 -3.97772254e-07 -1.92169765e-07
      -1.24764981e-07 4.19217869e-08 1.82673418e-07 5.45029991e-07
      5.71236058e-07 3.65690283e-07 3.25184502e-08 2.04607730e-07
      6.01606985e-07 7.80634593e-07 4.55772721e-07 6.79126572e-07
      9.24459243e-07 7.18288788e-07 1.30454907e-07 -1.58859478e-07
      -1.01395813e-07 -9.11398388e-08 -5.80545070e-08 -8.02899223e-08
      -3.86935398e-07 -4.02778738e-07 -3.55942007e-07 -2.70800399e-07
      -3.65714179e-08 4.97076940e-07 8.51147774e-07 9.54738766e-07
      -5.68496539e-08 -2.87668257e-07 -3.76304911e-07 -3.76316081e-07
      -4.32750227e-07 -5.95588233e-07 -6.85929820e-07 -7.23397591e-07
      -8.15034241e-07 -9.60807483e-07 -1.33243941e-06 -1.59665001e-06
      -1.49477364e-06 -1.18196783e-06 -7.36350785e-07 -2.28371306e-07
      -3.82974014e-10 -7.45865858e-09 -3.93282306e-07 -9.03337650e-07
      -1.11206327e-06 -1.15084538e-06 -9.43328189e-07 -5.18632987e-07
      -1.88624753e-07 2.37726105e-08 6.89299924e-08 2.08446835e-07
      3.50356885e-07 3.82821014e-07 2.28445359e-07 3.47707442e-07
      5.99042551e-07 6.65708228e-07 2.70101680e-07 6.84049368e-08
      2.15052125e-07 4.47062121e-08 -3.98398385e-07 -7.11989742e-07
      -7.75674494e-07 -6.37159076e-07 -3.51669740e-07 -1.01203582e-07
      -1.90590669e-07 -4.87048851e-07 -5.22659946e-07 -1.54862690e-07
      3.12957525e-07 7.77984724e-07 1.24106703e-06 1.41937801e-06
      -1.59444369e-07 -3.78475505e-07 -5.71150906e-07 -6.20477124e-07
      -7.17142484e-07 -8.23294783e-07 -7.75182400e-07 -6.83619305e-07
      -9.21123558e-07 -1.27513601e-06 -1.94064296e-06 -2.43535601e-06
      -2.43440172e-06 -2.15021237e-06 -1.49633877e-06 -8.35348771e-07
      -4.70011770e-07 -3.63415865e-07 -4.37616080e-07 -8.58776446e-07
      -9.41017959e-07 -7.75629871e-07 -8.03915952e-07 -7.43771579e-07
      -4.36650225e-07 1.65563080e-07 4.11752950e-07 3.33455517e-07
      1.04389386e-07 2.96265142e-07 2.92858459e-07 4.01704114e-07
      4.66022499e-07 3.46377220e-07 -2.34499780e-07 -4.33706759e-07
      -3.27500743e-07 -4.22069490e-07 -7.07267532e-07 -9.53936706e-07
      -1.09119060e-06 -1.08273218e-06 -7.64772835e-07 -1.06798844e-07
      4.48667699e-08 -2.59260133e-07 -6.20439778e-07 -3.22275923e-07
      1.54283583e-07 6.95346159e-07 1.31771287e-06 1.61224284e-06
      -3.09546778e-07 -3.89711033e-07 -5.84359896e-07 -7.83899623e-07
      -9.56686335e-07 -1.05556785e-06 -8.88663919e-07 -7.02065449e-07
      -9.32110538e-07 -1.23132793e-06 -1.73713102e-06 -2.22744984e-06
      -2.50090852e-06 -2.45444085e-06 -1.89863965e-06 -1.36574533e-06
      -1.20197876e-06 -9.96004133e-07 -7.75526701e-07 -8.72457861e-07
      -8.16836632e-07 -5.43169222e-07 -3.63484361e-07 -3.54827449e-07
      -2.89744776e-07 5.62764946e-08 4.95876975e-07 4.30328271e-07
      2.65641177e-07 4.34816371e-07 4.57432122e-07 2.60478402e-07
      9.73068381e-08 -2.37831141e-08 -3.83463401e-07 -5.13678003e-07
      -4.27220129e-07 -3.75342040e-07 -4.45810372e-07 -3.89983796e-07
      -5.02018906e-07 -7.56078975e-07 -7.79674338e-07 -2.41140953e-07
      1.04300177e-07 -4.09260394e-08 -4.71929866e-07 -3.53140024e-07
      -7.40347730e-08 2.27758974e-07 8.67368215e-07 1.26206419e-06
      -5.46946637e-07 -5.89099500e-07 -8.02253624e-07 -9.16178465e-07
      -1.02399201e-06 -1.05571985e-06 -9.74716500e-07 -7.54565633e-07
      -9.04682622e-07 -9.50481933e-07 -1.41459350e-06 -1.79215203e-06
      -1.97230884e-06 -1.99494002e-06 -1.63574032e-06 -1.31049023e-06
      -1.46802358e-06 -1.42296346e-06 -9.86160103e-07 -7.79683035e-07
      -6.07441621e-07 -6.30063766e-07 -2.59764903e-07 1.96982882e-07
      2.12963059e-07 1.67544854e-07 5.51613937e-07 4.72031360e-07
      -1.43503742e-08 8.72975860e-08 5.78225297e-07 4.60037000e-07
      3.31762102e-08 -6.56382610e-08 -1.97075607e-07 -2.11888917e-07
      -9.47677208e-08 -1.14432581e-07 -3.19132511e-07 -2.19968086e-07
      -3.00863121e-07 -4.48699893e-07 -6.54137807e-07 -3.47445450e-07
      -1.18120717e-07 -1.46365892e-07 -3.90897299e-07 -1.95933438e-07
      9.34888345e-09 2.10283968e-08 2.81029855e-07 6.56310533e-07
      -8.84281974e-07 -8.99728605e-07 -1.04807975e-06 -1.02116303e-06
      -9.35726177e-07 -8.86253588e-07 -1.03001946e-06 -1.06327752e-06
      -1.13123224e-06 -9.62627382e-07 -1.06467382e-06 -1.33863034e-06
      -1.39644465e-06 -1.40456848e-06 -1.03568789e-06 -8.23139032e-07
      -1.19026322e-06 -1.25555164e-06 -8.80806965e-07 -7.05617254e-07
      -5.39457062e-07 -6.79744346e-07 -4.47866370e-07 3.03137284e-07
      4.43997124e-07 1.12167221e-07 3.54301875e-07 5.21172069e-07
      -1.06055211e-07 -2.38979084e-07 2.69611945e-07 2.67865232e-07
      -1.23070564e-07 -1.45891022e-07 1.83272575e-09 9.73230101e-08
      1.71555911e-07 1.07533090e-07 -8.44158237e-08 -2.04892430e-07
      -5.32571107e-07 -7.41320207e-07 -8.16120632e-07 -5.35154982e-07
      -2.27082154e-07 -2.26306668e-07 -3.03930335e-07 -1.20730761e-07
      1.74133163e-07 -2.45788776e-08 -1.95787521e-07 5.07931261e-08
      -1.34915297e-06 -1.29449620e-06 -1.37276345e-06 -1.18675598e-06
      -9.02194415e-07 -7.89756541e-07 -9.61596015e-07 -1.19423532e-06
      -1.41056250e-06 -1.16702893e-06 -1.05315792e-06 -1.02506931e-06
      -9.36694676e-07 -8.54732207e-07 -6.09300969e-07 -4.90251239e-07
      -7.28968075e-07 -5.35315280e-07 -3.71223308e-07 -2.61914096e-07
      -2.12577547e-07 -5.64453899e-07 -5.67571476e-07 -2.47306076e-07
      -1.92716072e-07 -3.35533116e-07 -1.43918058e-07 7.44190700e-08
      -1.00626266e-07 -2.01082727e-07 2.69637667e-07 2.84945344e-07
      -1.39491718e-07 -1.33138855e-07 2.95297369e-08 1.58504321e-07
      2.06710936e-07 3.86388223e-07 3.66731683e-07 1.01910615e-07
      -4.92035667e-07 -1.16366255e-06 -1.44315891e-06 -1.03962861e-06
      -5.40555277e-07 -1.59680525e-07 -6.94573927e-08 9.08917457e-08
      1.14060249e-07 -1.81264383e-07 -7.03924457e-07 -8.15851820e-07
      -2.51804636e-06 -2.24157043e-06 -1.97401641e-06 -1.48530910e-06
      -1.04597973e-06 -7.89078115e-07 -6.76769503e-07 -8.97432074e-07
      -1.29307352e-06 -1.23219945e-06 -1.02068498e-06 -9.77606192e-07
      -5.60172850e-07 -4.48046734e-07 -4.92261790e-07 -4.36665715e-07
      -4.17005083e-07 1.08164286e-07 3.48924971e-07 1.97739055e-07
      6.75864911e-08 -1.90120559e-07 -4.98769396e-07 -7.32447575e-07
      -8.76840772e-07 -9.72988801e-07 -7.11304438e-07 -5.31670878e-07
      -4.68695617e-07 -5.18810680e-07 -2.03825934e-07 1.28192866e-07
      -1.74444267e-07 -1.29608878e-07 9.87763027e-09 -2.06701518e-08
      -4.86729235e-08 1.62273736e-07 2.18382610e-07 6.11775448e-08
      -4.93564528e-07 -1.11867053e-06 -1.40701059e-06 -1.25333054e-06
      -9.07195897e-07 -3.01993765e-07 4.43673684e-08 7.76770079e-08
      -1.49584878e-08 -9.97384504e-08 -5.55171596e-07 -1.17827585e-06
      -3.12262227e-06 -2.92910431e-06 -2.58116347e-06 -1.85434055e-06
      -1.31629656e-06 -9.90248054e-07 -5.50897880e-07 -4.50972919e-07
      -8.08991388e-07 -9.11890027e-07 -7.92478716e-07 -7.16934210e-07
      -3.43477296e-07 -7.73782034e-08 -2.73321206e-07 -6.07403649e-07
      -3.92094563e-07 3.34904570e-07 5.80250003e-07 4.11699887e-07
      3.73862889e-07 1.29468049e-07 -2.93182524e-07 -6.86883652e-07
      -1.15008845e-06 -1.26410021e-06 -9.50904450e-07 -6.22368702e-07
      -7.81716324e-07 -1.00028035e-06 -8.43638588e-07 -4.94603739e-07
      -5.41874158e-07 -5.05870901e-07 -2.10821071e-07 -2.87242756e-07
      -3.47149324e-07 -4.02006719e-07 -4.07943503e-07 -5.24066138e-07
      -8.56483496e-07 -1.27286432e-06 -1.32506966e-06 -1.27718124e-06
      -1.31860656e-06 -9.53228948e-07 -4.61764415e-07 -1.81773885e-07
      -2.49897369e-07 -7.40510089e-08 -8.97054093e-08 -4.02931960e-07
      -3.18133789e-06 -3.06405991e-06 -2.68535109e-06 -2.10174107e-06
      -1.56367139e-06 -1.28486704e-06 -7.15930639e-07 -3.94604683e-07
      -5.21773075e-07 -3.81789164e-07 -1.91618383e-07 -1.71310958e-07
      1.11212444e-07 1.84495647e-07 -1.46521955e-07 -7.00744863e-07
      -6.49348408e-07 -8.53706172e-09 1.75175657e-07 3.13282470e-07
      5.28556484e-07 3.49950739e-07 -3.64600012e-08 -3.79143529e-07
      -6.49400533e-07 -1.05939523e-06 -9.71580903e-07 -6.56165639e-07
      -5.50426932e-07 -9.77917466e-07 -1.14180091e-06 -9.93902290e-07
      -1.08163817e-06 -9.04431943e-07 -5.04875175e-07 -5.37044457e-07
      -7.38777146e-07 -1.03786977e-06 -1.34648849e-06 -1.33073081e-06
      -1.33972651e-06 -1.38584971e-06 -1.12505325e-06 -1.20092295e-06
      -1.66242910e-06 -1.54016061e-06 -1.05771949e-06 -7.47806325e-07
      -7.25152518e-07 -3.84040476e-07 -8.13804490e-08 -1.36667623e-07
      -2.53127814e-06 -2.67725727e-06 -2.42124042e-06 -1.91655613e-06
      -1.61997582e-06 -1.45853210e-06 -1.04994547e-06 -7.47712704e-07
      -7.77898208e-07 -4.66918124e-07 7.29736849e-09 1.08056099e-07
      3.23330596e-07 2.07501998e-07 -1.75029044e-07 -5.80111305e-07
      -6.33951970e-07 -3.91353495e-07 -4.39092140e-09 1.75028021e-07
      3.76522934e-07 2.51898570e-07 7.95291726e-08 1.48455342e-07
      2.98173887e-07 -1.32653923e-07 -6.01710667e-07 -4.47380728e-07
      -5.59339632e-08 -5.04680031e-07 -1.05095683e-06 -1.30924195e-06
      -1.48635979e-06 -1.58085845e-06 -1.25991278e-06 -7.51979371e-07
      -9.04634362e-07 -1.49378911e-06 -2.16445301e-06 -2.07530275e-06
      -1.89987020e-06 -1.78713867e-06 -1.28633098e-06 -1.16543458e-06
      -1.47792753e-06 -1.45498939e-06 -1.37246514e-06 -1.30205660e-06
      -1.12949920e-06 -9.98915425e-07 -8.49143873e-07 -7.51181517e-07
      -1.32402999e-06 -1.77890217e-06 -1.83784130e-06 -1.61218634e-06
      -1.44574790e-06 -1.39816416e-06 -1.17692900e-06 -1.08753022e-06
      -1.28986267e-06 -9.84189796e-07 -6.21572667e-07 -3.25991067e-07
      8.01412270e-09 8.51921478e-10 -3.63791173e-07 -5.41032421e-07
      -5.82822338e-07 -7.03421506e-07 -2.62713115e-07 3.03611841e-07
      3.99100088e-07 1.76356032e-08 -2.29777655e-08 2.78725793e-07
      6.02000398e-07 3.61248567e-07 -7.83317446e-08 -1.51455495e-07
      -4.53158719e-08 -1.96195401e-07 -7.91201785e-07 -1.28099828e-06
      -1.46177103e-06 -1.68981194e-06 -1.84065527e-06 -1.46420552e-06
      -1.06157427e-06 -1.51358461e-06 -2.23255324e-06 -2.37981158e-06
      -2.30106116e-06 -2.30378623e-06 -1.75622267e-06 -1.27321186e-06
      -1.54006318e-06 -1.44488263e-06 -1.41869418e-06 -1.40242366e-06
      -1.18292826e-06 -1.12161320e-06 -9.89024898e-07 -1.00165187e-06
      -9.63437401e-08 -8.22447646e-07 -1.41076634e-06 -1.64969754e-06
      -1.68550525e-06 -1.63381515e-06 -1.48711104e-06 -1.46111381e-06
      -1.50459744e-06 -1.40133659e-06 -1.07247456e-06 -9.66759330e-07
      -6.83373969e-07 -4.19465806e-07 -6.43561236e-07 -6.39685595e-07
      -4.29491081e-07 -4.83516658e-07 -3.46737778e-07 1.14591579e-07
      2.34402151e-07 1.34676075e-08 6.93464415e-08 2.89897031e-07
      2.58901849e-07 1.74090729e-07 2.78321166e-09 -5.09365599e-08
      1.15581550e-07 1.05424270e-07 -2.86392435e-07 -7.10605320e-07
      -9.50561457e-07 -1.28175475e-06 -1.77195511e-06 -1.76551066e-06
      -1.31672698e-06 -1.54152940e-06 -2.06476989e-06 -2.21884443e-06
      -2.26962129e-06 -2.33053606e-06 -1.95720918e-06 -1.52588484e-06
      -1.84599241e-06 -1.80407847e-06 -1.56691146e-06 -1.52336679e-06
      -1.05833067e-06 -7.55847111e-07 -4.13666640e-07 -3.35559093e-07
      6.43228361e-07 -2.50796916e-07 -1.29239868e-06 -2.03873628e-06
      -2.33821106e-06 -2.13508838e-06 -1.89149694e-06 -1.87373701e-06
      -1.83824682e-06 -1.56570457e-06 -1.21344624e-06 -1.09174573e-06
      -9.49113314e-07 -7.70413521e-07 -7.43547218e-07 -7.42806037e-07
      -6.19820923e-07 -3.89684942e-07 -7.32935916e-08 1.84303516e-07
      3.28975638e-08 1.68664940e-08 2.84218117e-07 5.11420978e-07
      2.91826836e-07 6.46739409e-08 -1.11581436e-07 -1.50086848e-07
      2.53260013e-09 1.44192512e-07 5.70096610e-08 -1.90120502e-07
      -5.16146770e-07 -9.55236828e-07 -1.50259621e-06 -1.69155362e-06
      -1.25810834e-06 -1.29094349e-06 -1.70332805e-06 -1.72185480e-06
      -1.67695680e-06 -1.71544809e-06 -1.89175807e-06 -1.95785265e-06
      -2.09512336e-06 -2.34707500e-06 -2.07142875e-06 -1.76261642e-06
      -1.27060730e-06 -5.98438930e-07 1.40118402e-07 4.86957845e-07
      6.22532241e-07 9.64702629e-09 -1.16101512e-06 -2.26255406e-06
      -2.86045884e-06 -2.66935581e-06 -2.41178986e-06 -2.31072590e-06
      -2.13594262e-06 -1.64979292e-06 -1.31560944e-06 -1.08280847e-06
      -8.99556255e-07 -8.86959015e-07 -1.05627203e-06 -1.05174638e-06
      -9.21005324e-07 -6.86464546e-07 -2.46150648e-07 1.43530173e-07
      -5.23635109e-08 -8.02743827e-08 2.61658016e-07 5.26294400e-07
      4.33272561e-07 1.78446811e-07 -1.22899266e-07 -2.32279760e-07
      -7.62732455e-08 7.55829177e-08 1.10541514e-07 -5.16272785e-08
      -4.48429745e-07 -9.43322050e-07 -1.36258973e-06 -1.59593276e-06
      -1.42455212e-06 -9.61895012e-07 -1.06166647e-06 -1.00077250e-06
      -9.70303745e-07 -1.11430279e-06 -1.59162494e-06 -1.97055419e-06
      -2.27865576e-06 -2.60779075e-06 -2.58757109e-06 -2.19727667e-06
      -1.70030160e-06 -8.87423198e-07 8.72298358e-08 7.52241647e-07
      -1.23935990e-07 -2.12942211e-07 -9.52226884e-08 4.04810656e-08
      5.04875821e-08 -1.41013432e-08 -1.80150323e-07 -2.96887464e-07
      -3.24879750e-07 -2.59099210e-07 -3.24552246e-07 -2.74696276e-07
      -1.17739496e-07 7.36912824e-08 1.82149549e-07 1.76401883e-07
      1.82690840e-07 6.41270290e-08 -1.42326456e-07 -3.37590308e-07
      -2.90261767e-07 -2.70593148e-07 -1.88085792e-07 -2.79618291e-07
      -4.30436586e-07 -4.23742449e-07 -2.40390420e-07 -7.74217028e-08
      5.26155972e-08 8.34670288e-09 -1.01611526e-07 -1.35263278e-07
      -1.72007674e-07 -2.43700327e-07 -1.45106398e-07 -9.43916518e-08
      -3.81642309e-07 -4.05464448e-07 -3.22688493e-07 -2.06540491e-07
      -5.46322525e-08 -3.62754875e-08 -4.11036716e-08 -9.16594161e-08
      -1.19629220e-07 -1.07011637e-07 -9.64176436e-08 -9.50975547e-08
      -1.63648544e-08 9.70310339e-08 1.58034311e-07 1.85416937e-07
      -2.27224263e-07 -1.39359642e-07 -3.59738683e-09 8.97604693e-08
      1.03891864e-07 8.40542143e-08 -1.23437927e-08 -7.63735386e-08
      -1.64812135e-07 -1.61129321e-07 -5.78536010e-08 -1.51079803e-07
      8.57686366e-09 1.16182704e-07 1.50580647e-07 1.45279870e-07
      1.21065341e-07 -3.14959401e-08 -2.79668200e-07 -4.14569229e-07
      -4.69507796e-07 -4.13548975e-07 -4.00894493e-07 -3.04246782e-07
      -3.26691691e-07 -4.75416527e-07 -4.21156443e-07 -2.12430820e-07
      -5.87950666e-09 5.17767020e-08 -2.93878131e-08 -1.52463613e-07
      -1.87458781e-07 -2.22282040e-07 -1.85271062e-07 -9.87327642e-09
      -1.05187027e-07 -3.84878035e-07 -4.35937352e-07 -4.51727033e-07
      -3.54589503e-07 -2.48103078e-07 -1.39220916e-07 -7.66859216e-08
      1.42069831e-08 1.11351106e-07 1.43640364e-07 1.00887249e-07
      7.22687972e-08 1.19041289e-07 1.89626633e-07 2.10219085e-07
      -3.63104760e-07 -1.97318329e-07 -4.04328198e-08 1.27926384e-07
      8.89663170e-08 4.22705995e-08 3.31690835e-08 -9.44122913e-09
      -1.31120771e-07 -1.84211316e-07 -9.77502523e-08 1.50665382e-08
      1.01514761e-08 1.54010479e-07 1.91683156e-07 2.08094306e-07
      1.15769772e-07 -3.18116413e-08 -3.41355843e-07 -5.59622208e-07
      -6.01722604e-07 -5.56364910e-07 -4.62819997e-07 -4.27897845e-07
      -3.01866038e-07 -3.38424485e-07 -4.44112629e-07 -4.20291855e-07
      -2.34551237e-07 -7.13042496e-08 -1.22405226e-07 -1.96364468e-07
      -2.92779930e-07 -3.27310460e-07 -3.27862210e-07 -2.71878434e-07
      -1.34546681e-07 -3.02480288e-07 -4.56122990e-07 -5.03206763e-07
      -5.21592312e-07 -4.80218887e-07 -3.34662502e-07 -1.81521813e-07
      5.07010967e-08 2.69289870e-07 3.26685125e-07 2.82966710e-07
      2.34310392e-07 2.19061249e-07 2.69602737e-07 2.90444831e-07
      -1.62347803e-07 -1.59772995e-07 -4.05599963e-08 7.33319139e-09
      3.15163753e-08 -7.99029891e-08 -1.97127761e-07 -1.47825915e-07
      -1.30430990e-07 -2.90510513e-07 -3.19304206e-07 -9.21490155e-08
      -3.98489668e-08 -4.91108771e-08 1.52613495e-07 2.37482666e-07
      2.33548803e-07 2.57441641e-08 -2.29996289e-07 -5.72793283e-07
      -7.75382830e-07 -6.98410304e-07 -5.61044828e-07 -4.56932497e-07
      -3.84307754e-07 -2.70686883e-07 -3.01378037e-07 -3.91522917e-07
      -4.68480636e-07 -3.27696966e-07 -2.47520944e-07 -3.34305412e-07
      -3.64957117e-07 -3.84270891e-07 -4.03510171e-07 -4.47973974e-07
      -4.53798691e-07 -3.82955591e-07 -4.68920803e-07 -4.70001766e-07
      -4.62889545e-07 -4.67978424e-07 -4.80791073e-07 -3.11466550e-07
      -1.28931141e-08 2.86854174e-07 3.74950929e-07 2.79714584e-07
      2.30361806e-07 3.38657514e-07 3.64946800e-07 3.96879955e-07
      1.25722337e-07 5.34166418e-08 3.91266148e-08 2.42407179e-08
      -5.12221732e-08 -1.10008848e-07 -3.10474718e-07 -4.41031830e-07
      -2.95566707e-07 -3.25174057e-07 -4.32462542e-07 -3.55232117e-07
      -1.52792907e-07 -1.18441051e-07 -3.91486061e-08 1.41712576e-07
      3.21014198e-07 2.14543320e-07 -7.64601111e-08 -3.09166069e-07
      -6.12290251e-07 -7.35949811e-07 -6.61303602e-07 -5.62476032e-07
      -4.83657630e-07 -3.67187994e-07 -2.57288974e-07 -2.85239139e-07
      -4.38810332e-07 -5.60899423e-07 -4.85981786e-07 -4.46598790e-07
      -4.59879857e-07 -4.00160644e-07 -3.83075616e-07 -4.69792496e-07
      -5.73161856e-07 -6.50404615e-07 -6.24759139e-07 -5.93249979e-07
      -4.62016004e-07 -3.37730626e-07 -4.08680336e-07 -4.48803235e-07
      -2.69724410e-07 1.25437225e-07 2.69983389e-07 2.00591387e-07
      2.49827341e-08 1.32039176e-07 3.54086211e-07 4.65538136e-07
      2.91278667e-07 3.05384049e-07 1.91547642e-07 1.10008536e-07
      -6.43604281e-08 -2.13324654e-07 -3.08819523e-07 -4.72428724e-07
      -5.01330078e-07 -4.05503840e-07 -4.41866860e-07 -4.42632597e-07
      -3.47053799e-07 -1.53076257e-07 -1.11232765e-07 2.86317553e-10
      2.02861187e-07 3.61012411e-07 2.19805870e-07 -1.82460411e-08
      -2.35201199e-07 -4.54578043e-07 -5.18638899e-07 -5.66555684e-07
      -4.79603784e-07 -3.81896456e-07 -3.42265793e-07 -2.94610459e-07
      -3.40273402e-07 -5.59505565e-07 -7.22626680e-07 -6.34702872e-07
      -5.86984584e-07 -4.49556069e-07 -3.64132688e-07 -3.49091636e-07
      -4.41260028e-07 -6.65791390e-07 -7.59408749e-07 -7.15291606e-07
      -5.96944119e-07 -4.33489987e-07 -4.05389898e-07 -4.48949180e-07
      -4.86525835e-07 -3.19850471e-07 -7.21068290e-08 1.99568682e-08
      -1.77519098e-07 -2.18657163e-07 4.73942983e-08 2.67307882e-07
      2.07227117e-07 3.52385086e-07 3.94028262e-07 1.57893695e-07
      3.68595927e-08 -2.46911782e-07 -4.18773908e-07 -4.36981111e-07
      -4.11043544e-07 -4.38726005e-07 -3.93777668e-07 -3.31643889e-07
      -3.57061339e-07 -3.04617259e-07 -2.03096050e-07 -1.57236798e-07
      2.58548716e-09 1.92577872e-07 3.16471500e-07 2.42034076e-07
      1.16390709e-07 -1.03166634e-07 -2.75183368e-07 -4.25058545e-07
      -3.69382491e-07 -2.60461093e-07 -2.52078166e-07 -2.92100481e-07
      -2.67046971e-07 -3.98664326e-07 -7.25601467e-07 -8.27927579e-07
      -7.03557021e-07 -5.65298933e-07 -3.93251781e-07 -2.84524390e-07
      -2.84648166e-07 -4.36603756e-07 -6.64860067e-07 -7.13395480e-07
      -7.21641243e-07 -6.73578086e-07 -6.57014652e-07 -6.05441244e-07
      -6.37210405e-07 -6.93780407e-07 -5.53469931e-07 -3.16301652e-07
      -2.40603470e-07 -3.44700027e-07 -2.88245360e-07 9.64414113e-08
      2.23176087e-07 2.03797612e-07 2.87532856e-07 2.10850885e-07
      -4.43005312e-08 -2.47368092e-07 -4.12300892e-07 -5.66129074e-07
      -4.26257969e-07 -3.20775456e-07 -3.95981914e-07 -3.06598878e-07
      -3.68440624e-07 -5.05798937e-07 -5.34015896e-07 -4.89185652e-07
      -2.57586521e-07 -4.82114579e-08 8.92021390e-08 1.48370574e-07
      9.26875785e-08 -1.54978730e-09 -1.24107416e-07 -2.26602694e-07
      -3.50246296e-07 -2.40582068e-07 -1.08321565e-07 -1.23037481e-07
      -2.11167304e-07 -2.68656180e-07 -5.10801726e-07 -7.88398211e-07
      -8.11248924e-07 -5.54666485e-07 -3.89737835e-07 -2.70920253e-07
      -1.65706723e-07 -2.42647616e-07 -4.15743102e-07 -5.60708884e-07
      -6.54170890e-07 -8.79150889e-07 -9.38584378e-07 -9.50247340e-07
      -8.85518489e-07 -9.61337037e-07 -8.58465512e-07 -6.55819690e-07
