<?xml version="1.0"?>
<opencv_storage>
<my_svm type_id="opencv-ml-svm">
  <svm_type>C_SVC</svm_type>
  <kernel><type>LINEAR</type></kernel>
  <C>1.</C>
  <term_criteria><epsilon>2.2204460492503131e-16</epsilon>
    <iterations>1000000</iterations></term_criteria>
  <var_all>108160</var_all>
  <var_count>108160</var_count>
  <class_count>2</class_count>
  <class_labels type_id="opencv-matrix">
    <rows>1</rows>
    <cols>2</cols>
    <dt>i</dt>
    <data>
      0 1</data></class_labels>
  <sv_total>1</sv_total>
  <support_vectors>
    <_>
      1.80945642e-06 1.57967236e-06 8.33393983e-07 8.19336137e-08
      -6.52061431e-07 -1.13896135e-06 -1.16279068e-06 -8.84197789e-07
      -4.17159868e-07 -2.25785755e-08 2.19070756e-07 5.73102398e-07
      6.25713596e-07 3.96053082e-07 5.82800226e-07 1.10033420e-06
      1.47250034e-06 1.38177734e-06 1.13535168e-06 9.89235446e-07
      8.53733411e-07 7.52031781e-07 7.88693001e-07 9.54507755e-07
      1.20205107e-06 1.51417055e-06 1.59659396e-06 1.42313729e-06
      1.07533958e-06 4.08557383e-07 -6.60841749e-07 -1.50176118e-06
      -2.14984084e-06 -2.44478088e-06 -2.37622112e-06 -2.15717228e-06
      -1.59751471e-06 -1.22684503e-06 -1.10121903e-06 -1.13994759e-06
      -1.10970529e-06 -8.12148073e-07 -5.34222295e-07 -7.14659052e-07
      -1.16668014e-06 -1.78716232e-06 -2.53441499e-06 -2.88963292e-06
      -2.51998631e-06 -1.82603208e-06 -1.59390538e-06 -1.48737513e-06
      2.21100052e-07 1.55243626e-07 -3.61889398e-08 -3.67347127e-07
      -7.55721658e-07 -1.12412408e-06 -1.24585631e-06 -1.23436166e-06
      -1.12523344e-06 -9.09180869e-07 -7.70190582e-07 -7.53976167e-07
      -8.35408855e-07 -1.01108253e-06 -1.20468235e-06 -1.10567248e-06
      -8.24358494e-07 -5.42153145e-07 -3.16281671e-07 -2.52377276e-07
      -2.79581144e-07 -3.46962196e-07 -4.09720911e-07 -4.00339843e-07
      -3.02232110e-07 -1.46056223e-07 -2.09188808e-08 7.52674154e-08
      8.02881388e-08 -5.58846018e-08 -3.00485823e-07 -5.26085614e-07
      -6.81465906e-07 -6.57692112e-07 -4.70711598e-07 -1.59014505e-07
      1.24859056e-07 3.47454858e-07 4.27596717e-07 6.48476941e-07
      9.45209536e-07 1.19976676e-06 1.39220288e-06 1.44838612e-06
      1.27559758e-06 8.30829720e-07 2.31665638e-07 -3.57488773e-07
      -7.22096559e-07 -4.78195716e-07 -1.79850616e-07 -8.96620875e-08
      9.12307314e-07 9.65704089e-07 1.15512319e-06 1.32532239e-06
      1.56174906e-06 1.64986784e-06 1.49414393e-06 1.23032567e-06
      9.60135139e-07 8.00762734e-07 5.58416389e-07 1.55175371e-07
      -3.27574668e-07 -9.22783727e-07 -1.52287589e-06 -2.02822775e-06
      -2.38251096e-06 -2.57371812e-06 -2.42816009e-06 -2.14858642e-06
      -1.82981955e-06 -1.55398004e-06 -1.34554523e-06 -1.08793972e-06
      -7.09512108e-07 -2.69163564e-07 2.35442343e-07 8.55936833e-07
      1.53932308e-06 2.25848657e-06 2.93590574e-06 3.39125518e-06
      3.49494917e-06 3.17606418e-06 2.60792535e-06 2.03302716e-06
      1.44309445e-06 1.10111887e-06 1.12115390e-06 1.49669825e-06
      2.10100279e-06 2.75908315e-06 3.33523167e-06 3.71792430e-06
      3.84147006e-06 3.63665754e-06 3.20602271e-06 2.99069688e-06
      2.93073435e-06 2.97315250e-06 3.03698835e-06 3.06299899e-06
      2.58424348e-06 2.63518973e-06 2.90210210e-06 3.45779745e-06
      3.67848725e-06 3.64695688e-06 3.13771670e-06 2.24888345e-06
      1.38645055e-06 8.07482365e-07 2.86663379e-07 -2.62149968e-07
      -7.88232626e-07 -1.43145314e-06 -2.09606583e-06 -2.64549021e-06
      -3.24021721e-06 -3.59421983e-06 -3.68498331e-06 -3.77617789e-06
      -3.47406467e-06 -2.74995659e-06 -1.90553203e-06 -1.12895259e-06
      -4.56981297e-07 1.27494076e-07 7.39397080e-07 1.39426584e-06
      2.01302714e-06 2.51022857e-06 2.69738916e-06 2.42701071e-06
      1.84304076e-06 1.20049674e-06 6.35733898e-07 8.52536459e-08
      -3.88304642e-07 -5.63932019e-07 -4.05097410e-07 9.87074742e-08
      8.79794641e-07 1.80054417e-06 2.56019575e-06 2.88493516e-06
      2.81130156e-06 2.45270257e-06 2.07055041e-06 1.59028423e-06
      1.22419181e-06 1.19597507e-06 1.28411818e-06 1.30241051e-06
      1.98814928e-06 1.90050810e-06 1.48207107e-06 1.02034107e-06
      1.09788402e-06 1.13370857e-06 6.09436427e-07 -4.25382645e-08
      -4.80012034e-07 -8.74524915e-07 -1.13839394e-06 -1.24271651e-06
      -1.20466143e-06 -1.29881732e-06 -1.49337711e-06 -1.58866737e-06
      -1.59510523e-06 -1.66753523e-06 -1.80085431e-06 -1.93958249e-06
      -1.92827588e-06 -1.25606812e-06 -4.59609112e-07 7.38577626e-08
      3.63784750e-07 4.96691598e-07 5.69674967e-07 6.23915753e-07
      6.73368618e-07 6.40596909e-07 4.32487127e-07 6.13966549e-08
      -3.14875933e-07 -6.72809449e-07 -9.46367948e-07 -1.28375666e-06
      -1.52062489e-06 -1.53905330e-06 -1.23510438e-06 -6.10129121e-07
      2.53519914e-07 9.98714086e-07 1.48243510e-06 1.59537967e-06
      1.20740538e-06 3.42209859e-07 -6.94846790e-07 -1.69641294e-06
      -2.36796700e-06 -2.91095898e-06 -3.23984909e-06 -3.36897551e-06
      1.16109015e-06 1.30218450e-06 1.79146332e-06 2.69837597e-06
      3.68710994e-06 4.06721620e-06 4.01302714e-06 3.59862702e-06
      2.99132284e-06 2.31401532e-06 1.57588499e-06 8.01295187e-07
      2.64847927e-07 -5.68633816e-08 -2.24928186e-07 -2.64444878e-07
      -1.73350259e-07 7.76629960e-08 -9.11497082e-08 -2.02418761e-07
      3.04447809e-07 9.88016609e-07 1.50603125e-06 1.50006986e-06
      1.17315790e-06 8.69904341e-07 6.43296744e-07 5.50061202e-07
      5.66347978e-07 6.99092084e-07 9.81458470e-07 1.34744607e-06
      1.30615979e-06 1.06198092e-06 2.86817539e-07 -5.60448825e-07
      -1.59189221e-06 -2.33181868e-06 -2.68473059e-06 -2.67482005e-06
      -2.40582222e-06 -1.87241540e-06 -1.59992203e-06 -1.75750677e-06
      -2.06168306e-06 -2.47805519e-06 -2.94348865e-06 -3.33069102e-06
      -3.39517146e-06 -3.19300079e-06 -2.91654851e-06 -2.79535016e-06
      3.67181815e-06 3.88694934e-06 4.75204524e-06 6.01173861e-06
      6.65924836e-06 6.78915967e-06 6.32154070e-06 5.16915816e-06
      3.57195472e-06 2.45073034e-06 1.77190145e-06 1.22632650e-06
      7.63470211e-07 3.52843102e-07 9.88126025e-09 -2.64736912e-07
      -5.40463816e-07 -8.32929402e-07 -7.41496535e-07 -1.00702937e-06
      -1.23144059e-06 -1.48992865e-06 -1.13875967e-06 -7.14853456e-07
      -4.69141753e-07 -3.99158921e-07 -4.65231778e-07 -5.65781022e-07
      -5.51713470e-07 -3.69933730e-07 -8.92212915e-10 4.25036319e-07
      6.82925702e-07 8.71548821e-07 5.73219666e-07 -5.20612616e-07
      -2.19375806e-06 -3.48446974e-06 -4.11548172e-06 -4.28485237e-06
      -4.25566623e-06 -3.82965254e-06 -3.08502604e-06 -2.27464557e-06
      -1.63236427e-06 -1.05536162e-06 -1.04091146e-06 -1.22142569e-06
      -1.30776391e-06 -1.33308072e-06 -1.13938415e-06 -1.05402046e-06
      2.72676925e-06 2.79486972e-06 2.98989676e-06 3.19914761e-06
      3.27822613e-06 3.16903538e-06 2.78369021e-06 2.22712492e-06
      1.51824145e-06 1.00769921e-06 5.42800137e-07 2.23345708e-07
      1.50796538e-07 3.07263520e-07 5.16897728e-07 5.94430219e-07
      3.20327729e-07 -6.30081445e-07 -1.55101611e-06 -2.38444841e-06
      -3.12648558e-06 -3.59932233e-06 -3.67243911e-06 -3.29851900e-06
      -2.57426836e-06 -1.77705226e-06 -1.11129668e-06 -5.99982172e-07
      -1.50593181e-07 -4.02024227e-08 -2.45550154e-07 -6.14346277e-07
      -9.09082814e-07 -1.19766673e-06 -1.76900619e-06 -2.39173096e-06
      -2.98782470e-06 -3.52781421e-06 -3.99322334e-06 -4.02848855e-06
      -3.65360484e-06 -2.84191196e-06 -1.98904763e-06 -1.38182941e-06
      -9.35253979e-07 -4.20785170e-07 -3.68089616e-07 -5.92597701e-07
      -6.12198619e-07 -4.49077731e-07 -3.77226229e-07 -3.83292843e-07
      1.55624082e-06 1.68063616e-06 1.99231840e-06 2.28599788e-06
      2.38181724e-06 2.07573930e-06 1.59809179e-06 1.43114494e-06
      1.26575526e-06 1.17961042e-06 1.17679986e-06 1.26532427e-06
      1.37831114e-06 1.55892633e-06 1.62023480e-06 1.42185672e-06
      9.79534775e-07 3.92980922e-07 -2.06818299e-07 -7.46484943e-07
      -1.60990942e-06 -1.99662031e-06 -1.81469102e-06 -1.26869190e-06
      -5.66071378e-07 9.25569097e-08 5.23315350e-07 7.53089012e-07
      8.92937635e-07 8.77251239e-07 6.81209087e-07 2.37980530e-07
      -4.67958046e-07 -1.18769094e-06 -1.82290603e-06 -2.36398978e-06
      -2.69368093e-06 -2.61275068e-06 -2.02737101e-06 -9.47401929e-07
      2.81444784e-07 1.51409711e-06 2.69196289e-06 3.55794305e-06
      3.94332073e-06 3.95417783e-06 3.56788246e-06 2.89411946e-06
      1.85000715e-06 7.47219019e-07 1.16329046e-09 -2.23772204e-07
      6.46851902e-07 6.14188764e-07 4.71185217e-07 1.74763827e-07
      -1.28984396e-07 -6.63515038e-07 -7.28250086e-07 3.25764660e-08
      1.41944975e-06 2.92210984e-06 4.15106933e-06 5.06623883e-06
      5.59049249e-06 5.78493427e-06 5.61036268e-06 4.58008753e-06
      3.24518169e-06 1.93186520e-06 8.41349504e-07 6.87198209e-08
      -2.79837735e-07 -3.94242136e-07 -3.74855063e-07 -3.28190282e-07
      -1.87510807e-07 -2.51781245e-08 1.01335353e-07 1.89958300e-07
      2.80105269e-07 3.89907768e-07 4.14317071e-07 4.21943497e-07
      4.71964142e-07 -5.19723891e-08 -4.41660291e-07 -5.91899664e-07
      -1.58914631e-07 9.63946832e-07 2.60974662e-06 3.89040724e-06
      5.15811507e-06 6.58909812e-06 7.80011305e-06 8.47068259e-06
      8.35422634e-06 7.46672958e-06 6.02335513e-06 4.51250526e-06
      3.30680632e-06 2.32826346e-06 1.65145525e-06 1.49020536e-06
      -1.52471989e-06 -1.51140705e-06 -1.61815478e-06 -1.94955078e-06
      -2.29176021e-06 -2.40749910e-06 -1.58595299e-06 -6.23823780e-07
      4.37359915e-07 1.79379185e-06 2.97151473e-06 3.94655626e-06
      4.56858379e-06 4.76761352e-06 4.66653819e-06 4.27131408e-06
      3.67526332e-06 2.89677018e-06 1.79994220e-06 9.51685081e-07
      7.73186514e-07 6.71400528e-07 4.58227760e-07 3.27903365e-07
      2.65069559e-07 1.63241978e-07 1.26866169e-07 1.81340539e-07
      3.27196346e-07 6.33132572e-07 1.05433003e-06 1.29462262e-06
      1.20573759e-06 1.05760057e-06 1.19759738e-06 1.75866478e-06
      3.01935506e-06 4.85447526e-06 6.54038149e-06 7.29165731e-06
      7.35755521e-06 7.33027991e-06 7.27786983e-06 6.79427649e-06
      6.11544920e-06 5.07127925e-06 3.54671033e-06 2.08512165e-06
      1.19236813e-06 9.72306680e-07 9.44677709e-07 9.87887461e-07
      -4.68049421e-07 -3.82848640e-07 -1.98286870e-07 -6.11724502e-08
      2.62418780e-07 2.05747142e-07 -1.68094388e-07 -7.25347149e-07
      -1.26658699e-06 -1.48484457e-06 -1.06170580e-06 -5.05175592e-07
      6.68354332e-08 4.43761280e-07 5.93282209e-07 7.52772337e-07
      1.05394088e-06 1.79083918e-06 2.07885819e-06 1.91592949e-06
      2.01873581e-06 2.24488963e-06 1.97401414e-06 1.81967323e-06
      1.82363624e-06 1.93202345e-06 2.01935745e-06 2.09604400e-06
      2.06115214e-06 1.89964089e-06 1.62265826e-06 1.43135560e-06
      1.38376879e-06 1.30317972e-06 1.54636894e-06 2.17266575e-06
      2.71353042e-06 3.21422613e-06 3.65111214e-06 3.81977361e-06
      3.74533056e-06 3.48347544e-06 2.97756173e-06 2.35289781e-06
      1.76162337e-06 1.05995048e-06 3.03407575e-07 -1.94657318e-07
      -5.79243135e-07 -7.83748817e-07 -1.09606287e-06 -1.19494041e-06
      2.03085779e-06 2.08745905e-06 2.50741550e-06 2.47030471e-06
      1.66017310e-06 5.88976718e-07 -4.91538742e-07 -1.36137555e-06
      -2.17271918e-06 -2.69989323e-06 -2.74727131e-06 -2.92593586e-06
      -3.11711528e-06 -3.05702292e-06 -2.90315757e-06 -2.50044809e-06
      -1.74268564e-06 -8.00137514e-07 1.00687309e-07 1.32638093e-06
      2.46172226e-06 3.26008194e-06 3.42850967e-06 3.24725374e-06
      2.99249427e-06 2.85432725e-06 2.69080783e-06 2.48674587e-06
      2.36490382e-06 2.27004966e-06 2.04890193e-06 1.63736740e-06
      1.09021528e-06 3.58067382e-07 3.49306362e-08 1.37967945e-07
      4.99331577e-07 8.80113703e-07 1.03526406e-06 9.93695721e-07
      8.73274871e-07 6.84725649e-07 4.80663971e-07 1.41192871e-07
      -1.88691388e-07 -4.77756373e-07 -8.12922735e-07 -9.19291494e-07
      -1.10501071e-06 -1.18607466e-06 -1.34129277e-06 -1.42123145e-06
      2.28310637e-06 2.02969068e-06 1.32149785e-06 1.89216735e-07
      -1.02717297e-06 -1.33655908e-06 -8.96155086e-07 -8.27031215e-07
      -1.49046173e-06 -2.19687058e-06 -2.21938194e-06 -2.30509136e-06
      -2.01004718e-06 -1.48560571e-06 -1.10218934e-06 -7.86919031e-07
      -3.68464271e-07 1.22851944e-07 5.32770684e-07 6.91811067e-07
      6.76807531e-07 4.80838878e-07 1.30155883e-07 1.85383129e-07
      3.70166134e-07 5.00648696e-07 6.12166218e-07 6.82451059e-07
      7.67470397e-07 7.38633162e-07 8.05627735e-07 9.45051170e-07
      1.24097608e-06 1.63559616e-06 1.90150956e-06 1.89962168e-06
      1.87890839e-06 1.91054210e-06 2.12464397e-06 2.48929882e-06
      2.85905526e-06 3.01143541e-06 2.93008134e-06 2.70861551e-06
      2.50554899e-06 2.02595334e-06 1.04928051e-06 9.27401373e-08
      -4.28347448e-07 -5.39590758e-07 -4.47034836e-07 -4.72234802e-07
      7.47823037e-07 4.82339772e-07 -2.11606391e-07 -1.16751903e-06
      -1.88933916e-06 -2.08975825e-06 -1.59375861e-06 -1.19253332e-06
      -9.43527596e-07 -8.19559432e-07 -6.94287053e-07 -4.99246198e-07
      -5.56002782e-08 6.15745307e-07 1.09717587e-06 1.40080999e-06
      1.74122283e-06 1.66301777e-06 1.52798259e-06 1.44008811e-06
      1.05853269e-06 4.43278054e-07 -4.77324647e-07 -9.47454055e-07
      -1.00696843e-06 -8.96817880e-07 -8.24881511e-07 -6.68681650e-07
      -5.35186473e-07 -5.09759445e-07 -3.53765671e-07 -1.92827756e-07
      -1.18185284e-08 2.39098739e-07 4.38724243e-07 3.78173610e-07
      2.31439188e-07 4.10940288e-07 7.51908715e-07 1.09220525e-06
      1.21786263e-06 1.13434623e-06 1.39455710e-06 1.68761539e-06
      1.57426780e-06 1.20501772e-06 4.01863844e-07 -4.79772041e-07
      -8.80942480e-07 -8.45336729e-07 -5.85462544e-07 -5.15722775e-07
      1.49171683e-06 1.52440430e-06 1.51554730e-06 1.30582998e-06
      8.57793168e-07 7.66919612e-08 -5.34154594e-07 -1.14630427e-06
      -1.75708760e-06 -2.44367061e-06 -3.20137178e-06 -3.81861037e-06
      -4.27588293e-06 -4.43118097e-06 -4.35320771e-06 -4.02069554e-06
      -3.35136065e-06 -2.53113717e-06 -1.82885776e-06 -1.30578428e-06
      -9.26088774e-07 -6.54071130e-07 -5.58848740e-07 -3.06206402e-07
      7.17340072e-08 4.97459951e-07 7.03040996e-07 7.78667811e-07
      7.40615349e-07 6.02806836e-07 2.58881215e-07 -1.54954847e-07
      -4.81433574e-07 -8.53118934e-07 -1.31262846e-06 -1.86063573e-06
      -2.76596893e-06 -3.70930411e-06 -4.54334395e-06 -4.95930180e-06
      -4.93345669e-06 -4.81927373e-06 -4.53840130e-06 -3.81527434e-06
      -2.94941810e-06 -2.20301877e-06 -1.79391134e-06 -1.57411864e-06
      -1.34720551e-06 -1.18551509e-06 -9.42433076e-07 -7.73214538e-07
      2.75663183e-06 2.75976572e-06 2.70449004e-06 2.63770903e-06
      2.51403276e-06 2.44521993e-06 2.15763475e-06 2.01582998e-06
      2.11758493e-06 2.14449074e-06 2.04311345e-06 2.01371654e-06
      1.85018541e-06 1.69300108e-06 1.69968689e-06 1.99216333e-06
      2.20401807e-06 2.33083847e-06 2.16532089e-06 1.57747422e-06
      1.13871408e-06 6.88951332e-07 6.27705276e-07 5.84057034e-07
      5.70996292e-07 6.71030023e-07 7.54104178e-07 7.79375512e-07
      8.16614090e-07 8.12523353e-07 6.38717324e-07 5.10905750e-07
      4.45603206e-07 5.60943533e-07 9.76488423e-07 1.69099064e-06
      2.16378135e-06 1.92476523e-06 1.00000079e-06 3.65782910e-07
      -2.15095710e-07 -7.03868182e-07 -8.60746582e-07 -9.13578674e-07
      -9.05619572e-07 -4.62274755e-07 1.99787550e-07 4.38392277e-07
      7.42621182e-07 1.58391174e-06 2.13416297e-06 2.40508462e-06
      1.28044144e-06 1.33014748e-06 1.46078526e-06 1.70669762e-06
      2.09659379e-06 2.60761476e-06 3.15728630e-06 3.82482267e-06
      4.38421512e-06 4.84142538e-06 5.20592857e-06 5.26805798e-06
      5.01827753e-06 4.55592908e-06 3.86661804e-06 2.89356331e-06
      1.99107581e-06 1.25546183e-06 5.71109524e-07 2.64159343e-08
      -4.24259042e-07 -6.99991176e-07 -7.73961517e-07 -8.33549905e-07
      -8.07474180e-07 -7.33279592e-07 -5.21385630e-07 -3.09693263e-07
      -1.23519783e-07 9.51049461e-09 1.27255248e-07 1.86064980e-07
      8.87464111e-08 -5.43470264e-08 -1.58540018e-07 6.52443305e-07
      2.22816834e-06 3.89241040e-06 5.30450097e-06 6.57741202e-06
      7.75355056e-06 8.50635024e-06 8.81950564e-06 8.57485156e-06
      7.59178192e-06 6.32599767e-06 4.99051293e-06 3.52644952e-06
      2.27550959e-06 1.76846413e-06 1.66067719e-06 1.66319035e-06
      -2.16310738e-07 -2.43178107e-07 -3.37469885e-07 -4.99317423e-07
      -6.02591456e-07 -4.90958485e-07 1.24158788e-07 1.26018438e-06
      2.33787046e-06 3.12400425e-06 3.68904375e-06 3.84854866e-06
      3.44534055e-06 2.62316394e-06 1.75749346e-06 9.08120285e-07
      2.78165881e-08 -7.64824961e-07 -1.27292958e-06 -1.42182489e-06
      -1.45264983e-06 -1.39463134e-06 -1.32693924e-06 -1.26872737e-06
      -1.21928417e-06 -1.19604761e-06 -1.09669872e-06 -1.03119885e-06
      -1.05444292e-06 -1.06283028e-06 -1.02199897e-06 -1.00398290e-06
      -9.77016953e-07 -9.05397485e-07 -8.38222945e-07 -7.96256757e-07
      -7.65326149e-07 -6.30723093e-07 -1.26997264e-07 7.18980232e-07
      1.69108489e-06 2.58330874e-06 3.00821489e-06 2.78226594e-06
      2.03370496e-06 1.23515724e-06 4.70274472e-07 -7.37930748e-08
      -2.94006497e-07 -3.30173492e-07 -2.91968917e-07 -2.88701358e-07
      1.58376132e-10 -1.19613608e-08 -1.34218547e-08 5.76055044e-08
      1.53901155e-07 2.74505652e-07 4.33599809e-07 5.86311899e-07
      7.15081967e-07 7.91334742e-07 7.27779479e-07 5.56195687e-07
      1.45882552e-07 -4.09971449e-07 -8.76311958e-07 -1.15738112e-06
      -1.11057227e-06 -9.21610706e-07 -9.07426170e-07 -9.56550821e-07
      -1.05716560e-06 -1.16280535e-06 -1.26145449e-06 -1.31813476e-06
      -1.36899666e-06 -1.35755181e-06 -1.40468183e-06 -1.51066899e-06
      -1.69291150e-06 -1.81701375e-06 -1.86254999e-06 -1.73570299e-06
      -1.43058492e-06 -1.01112778e-06 -5.38492202e-07 -5.56395321e-08
      3.82413333e-07 7.75530793e-07 1.14361785e-06 1.53194173e-06
      1.86565615e-06 1.77417519e-06 1.61150535e-06 1.48820084e-06
      1.12901637e-06 5.35172092e-07 -9.89871722e-08 -4.66979003e-07
      -5.33343155e-07 -3.66829568e-07 -1.67449699e-07 -1.02610194e-07
      8.86640578e-07 8.67149708e-07 8.79216032e-07 9.31218779e-07
      9.23354833e-07 8.14391115e-07 6.49508536e-07 5.15491763e-07
      4.15977127e-07 3.53961866e-07 3.61919774e-07 4.39030089e-07
      6.44757506e-07 9.83413202e-07 1.32091452e-06 1.43930686e-06
      1.32416164e-06 9.78799676e-07 5.15045599e-07 3.23729985e-08
      -4.08601124e-07 -7.42231862e-07 -9.09030973e-07 -9.16254010e-07
      -7.97382597e-07 -6.17717262e-07 -4.50071525e-07 -3.51448278e-07
      -3.33753746e-07 -4.11868001e-07 -5.25109044e-07 -6.03667957e-07
      -5.56697444e-07 -2.42733222e-07 3.19897936e-07 1.09062466e-06
      1.93174242e-06 2.64480764e-06 3.06139782e-06 3.08884000e-06
      2.80804193e-06 2.29878560e-06 1.74524655e-06 1.37626375e-06
      1.34202867e-06 1.53564201e-06 1.65058748e-06 1.52448911e-06
      1.30655326e-06 1.14512295e-06 1.06391178e-06 1.01679097e-06
      3.06607689e-07 3.38168036e-07 3.53616230e-07 3.36244227e-07
      2.97290825e-07 2.64262326e-07 2.64807056e-07 2.84775496e-07
      4.09240528e-07 6.12828558e-07 9.53156871e-07 1.40686825e-06
      1.85625402e-06 2.20135462e-06 2.32210346e-06 2.12235591e-06
      1.79880749e-06 1.41847613e-06 1.00308296e-06 6.54485405e-07
      4.19164650e-07 2.81779620e-07 2.19986617e-07 1.96535055e-07
      2.33949905e-07 2.50832102e-07 2.92789622e-07 3.42498765e-07
      4.62123609e-07 5.30239845e-07 5.09463348e-07 3.53963543e-07
      1.02173303e-07 -1.02900152e-07 -2.33325196e-07 -2.24488645e-07
      2.12144275e-08 5.07861898e-07 1.24138330e-06 2.06723871e-06
      2.29895750e-06 2.16979788e-06 2.06037384e-06 1.88278159e-06
      1.74547733e-06 1.62733750e-06 1.47721403e-06 1.27760609e-06
      1.01613387e-06 6.94369589e-07 4.69802444e-07 3.99145762e-07
      -6.06605056e-07 -5.25345911e-07 -3.56622991e-07 -1.39186227e-07
      5.84992357e-08 2.33484030e-07 4.44091143e-07 5.92908066e-07
      7.20480216e-07 7.67323911e-07 7.62751881e-07 7.29137753e-07
      6.53640427e-07 6.14452858e-07 5.32846514e-07 3.98057978e-07
      2.80880926e-07 2.66571959e-07 2.74248379e-07 2.66948092e-07
      2.87419539e-07 3.00959925e-07 3.01606320e-07 3.45832433e-07
      3.98459662e-07 4.61012888e-07 4.59828271e-07 4.96459165e-07
      5.33156197e-07 5.37196740e-07 4.60402191e-07 3.24590644e-07
      1.24674884e-07 -1.65232024e-07 -4.97751955e-07 -7.72938449e-07
      -8.54559914e-07 -6.85395264e-07 -3.54527515e-07 4.47872779e-08
      3.58309507e-07 7.16485090e-07 1.19016659e-06 1.81647545e-06
      2.54616657e-06 3.08429276e-06 3.14930026e-06 2.93064886e-06
      2.56680823e-06 2.15500313e-06 1.86593832e-06 1.80661755e-06
      -8.94520667e-07 -9.07713229e-07 -8.62259185e-07 -7.63836113e-07
      -5.72104170e-07 -2.77440051e-07 8.82686706e-08 4.31727585e-07
      7.33066258e-07 8.22415359e-07 7.35164576e-07 5.40456597e-07
      3.49511566e-07 2.69221488e-07 2.74482261e-07 2.47753803e-07
      2.11945917e-07 1.40018855e-07 4.93817431e-09 -1.04681519e-07
      -9.02763873e-08 1.88919760e-08 2.25943779e-07 4.70824943e-07
      7.14200098e-07 8.85850511e-07 8.74008265e-07 7.52705660e-07
      5.41800546e-07 2.87042013e-07 5.26596047e-08 -8.36230001e-08
      -1.33048246e-07 -1.48178657e-07 -1.16348993e-07 -3.36735155e-08
      8.25747080e-08 1.94352523e-07 2.41582512e-07 1.61183905e-07
      3.19604254e-08 -1.27110980e-07 -2.78243618e-07 -3.20476403e-07
      -1.73159094e-07 1.28012815e-07 5.78605693e-07 1.01069816e-06
      1.33146568e-06 1.50212622e-06 1.58598402e-06 1.60405784e-06
      -9.39731024e-07 -9.14975033e-07 -8.02031877e-07 -5.97946268e-07
      -2.63672717e-07 8.53887698e-08 2.49044490e-07 3.04865381e-07
      2.97213887e-07 3.06075066e-07 3.07196785e-07 2.30576717e-07
      1.59724848e-07 5.50018378e-08 -1.03299620e-07 -2.98777906e-07
      -4.18187028e-07 -5.52071697e-07 -6.04852119e-07 -4.60243740e-07
      -1.65363332e-07 3.16018742e-07 8.64942933e-07 1.33894207e-06
      1.71474915e-06 1.97116356e-06 2.12231225e-06 2.15565660e-06
      2.10182634e-06 1.90051583e-06 1.71560066e-06 1.45593458e-06
      1.12869157e-06 8.38878691e-07 7.02784178e-07 7.12465237e-07
      7.66075630e-07 8.28438317e-07 8.38701510e-07 7.08253481e-07
      4.70598593e-07 9.94729064e-08 -3.21684553e-07 -5.12943018e-07
      -4.87429759e-07 -3.14660781e-07 6.07096595e-09 3.56398630e-07
      6.91238199e-07 9.57061275e-07 1.10896815e-06 1.14385966e-06
      1.13913143e-06 1.16927345e-06 1.26154134e-06 1.34614163e-06
      1.37263373e-06 1.36972017e-06 1.27577823e-06 1.15834825e-06
      9.46541149e-07 7.04964748e-07 4.10091985e-07 1.27313186e-07
      -6.89586059e-08 -2.57775781e-07 -4.01311695e-07 -4.51009527e-07
      -3.28866918e-07 -5.66371519e-08 3.56200104e-07 8.97433495e-07
      1.41541727e-06 1.78526909e-06 1.95514144e-06 1.95052644e-06
      1.83232987e-06 1.72689511e-06 1.77397669e-06 1.80676977e-06
      1.83328552e-06 1.83681902e-06 1.84371163e-06 1.73894375e-06
      1.45128638e-06 1.14037675e-06 8.78830519e-07 7.90139040e-07
      6.46766807e-07 4.78254037e-07 2.78658717e-07 4.69511932e-08
      -1.57577034e-07 -3.83216786e-07 -5.68325390e-07 -7.44697729e-07
      -7.92877302e-07 -6.64713582e-07 -3.80618673e-07 6.49916521e-09
      3.78772285e-07 6.24364304e-07 7.44738827e-07 7.71696875e-07
      2.16194485e-06 2.16641820e-06 2.17565412e-06 2.16278340e-06
      2.03078639e-06 1.75566572e-06 1.43445027e-06 1.09239261e-06
      7.23917708e-07 4.07536817e-07 2.13099057e-07 1.37400036e-07
      9.68771161e-08 1.23998930e-07 2.85308573e-07 6.11573569e-07
      9.83790869e-07 1.35592143e-06 1.73179455e-06 2.05308129e-06
      2.18732021e-06 2.02557408e-06 1.68136137e-06 1.27114311e-06
      8.58711019e-07 5.24817096e-07 3.41382957e-07 2.90809083e-07
      3.06351097e-07 5.20745346e-07 8.05403261e-07 1.08527979e-06
      1.32934815e-06 1.45661079e-06 1.33304502e-06 1.05076049e-06
      7.58629199e-07 4.48820543e-07 2.93066869e-08 -4.32771515e-07
      -6.86384908e-07 -9.31606962e-07 -1.26219345e-06 -1.57991758e-06
      -1.88918682e-06 -2.04410435e-06 -2.14142483e-06 -2.11354586e-06
      -1.99721876e-06 -1.90049786e-06 -1.82578788e-06 -1.78079961e-06
      1.34663071e-06 1.27857561e-06 1.03551224e-06 6.27354211e-07
      8.31726155e-08 -4.77994149e-07 -9.25452355e-07 -1.23983250e-06
      -1.46326067e-06 -1.61226524e-06 -1.64835615e-06 -1.66753046e-06
      -1.66762140e-06 -1.52557288e-06 -1.24318160e-06 -9.05384240e-07
      -5.82893392e-07 -2.70575441e-07 -5.10856735e-09 2.93383152e-07
      5.42811279e-07 6.94870664e-07 7.55809026e-07 6.95930964e-07
      5.78387528e-07 4.33880388e-07 2.48401278e-07 2.62682875e-07
      4.10040684e-07 7.66185224e-07 1.18808282e-06 1.56438773e-06
      1.82679491e-06 1.84204339e-06 1.58226840e-06 1.05933452e-06
      5.01373108e-07 9.73646905e-08 -1.53499940e-07 -2.67245184e-07
      -3.29729346e-07 -1.97680322e-07 -1.46433379e-07 -1.13251943e-07
      -1.04796200e-07 -1.22761946e-07 -6.55763515e-08 5.34703481e-08
      1.98779659e-07 3.59789482e-07 5.04676507e-07 5.64468849e-07
      2.27883262e-07 1.65005289e-07 -8.24498514e-09 -2.30102259e-07
      -5.09706013e-07 -8.11817358e-07 -1.06388575e-06 -1.24693884e-06
      -1.33303695e-06 -1.29259752e-06 -1.17065360e-06 -1.02770446e-06
      -8.87073043e-07 -8.02833142e-07 -8.61162619e-07 -9.85100769e-07
      -1.18741718e-06 -1.26697921e-06 -1.22025153e-06 -1.12956445e-06
      -1.01026433e-06 -9.03238572e-07 -8.04780655e-07 -7.43718999e-07
      -5.94240703e-07 -4.66417760e-07 -3.85199456e-07 -1.51026640e-07
      1.67933706e-07 4.68187011e-07 7.69202870e-07 1.01203602e-06
      1.15282535e-06 1.12591715e-06 9.92648438e-07 7.75317574e-07
      5.45640091e-07 3.27372646e-07 2.03768209e-07 1.69215397e-07
      1.58557725e-07 2.43514592e-07 5.28564613e-07 7.93837330e-07
      1.09840596e-06 1.36279925e-06 1.57821410e-06 1.65867425e-06
      1.67782321e-06 1.68325926e-06 1.62739957e-06 1.57288605e-06
      1.03988930e-06 9.56352096e-07 6.74771456e-07 2.68573899e-07
      -8.76243931e-08 -3.74137329e-07 -5.22158928e-07 -5.53804398e-07
      -4.42899591e-07 -2.26908796e-07 -1.06160691e-07 -1.02535608e-07
      -1.34268944e-07 -2.70388597e-07 -5.21509321e-07 -7.65917207e-07
      -1.02273361e-06 -1.30475985e-06 -1.53288966e-06 -1.75814591e-06
      -1.84336989e-06 -1.83170755e-06 -1.70233113e-06 -1.44451906e-06
      -1.14317152e-06 -8.75255807e-07 -5.37972483e-07 -1.75057878e-07
      1.27314891e-07 1.86348856e-07 -4.25323137e-08 -4.72942304e-07
      -1.01949433e-06 -1.61589116e-06 -2.17309935e-06 -2.57139209e-06
      -2.68666940e-06 -2.39914812e-06 -1.82399674e-06 -1.15593775e-06
      -5.84696409e-07 -2.44405840e-07 5.12732434e-08 2.52399900e-07
      2.96404323e-07 3.19748835e-07 3.10968062e-07 3.23480748e-07
      4.05747386e-07 4.88511830e-07 5.14321073e-07 5.34133619e-07
      -5.80957590e-07 -6.20606443e-07 -7.20634205e-07 -7.90940817e-07
      -7.17890828e-07 -5.32574177e-07 -2.08253184e-07 2.70902149e-07
      7.23817834e-07 1.02030322e-06 1.11331258e-06 1.02510592e-06
      8.25224106e-07 6.25487473e-07 5.34782828e-07 4.78163315e-07
      3.93158956e-07 1.75743509e-07 -5.09335294e-08 -2.10466013e-07
      -2.95047784e-07 -3.59308274e-07 -4.37773792e-07 -4.00542348e-07
      -2.46148545e-07 1.05508366e-08 2.53594152e-07 3.73386996e-07
      3.97424060e-07 2.74073898e-07 -1.14859048e-07 -6.65464029e-07
      -1.37776237e-06 -2.13501880e-06 -2.78635184e-06 -3.09864026e-06
      -2.97926954e-06 -2.44285752e-06 -1.81075086e-06 -1.30595799e-06
      -9.53093661e-07 -7.60934256e-07 -6.96692325e-07 -5.55506233e-07
      -4.69877762e-07 -4.21078681e-07 -3.37897632e-07 -1.55321374e-07
      4.05148661e-08 2.00115210e-07 3.27082262e-07 3.85472106e-07
      -1.87456317e-06 -1.87289993e-06 -1.78965001e-06 -1.55875989e-06
      -1.17675029e-06 -6.53461029e-07 -1.91468615e-07 1.71441741e-07
      4.03866153e-07 5.02035675e-07 5.08467451e-07 4.15231170e-07
      3.83468830e-07 6.11647579e-07 1.19518086e-06 1.96977658e-06
      2.57563761e-06 2.81868415e-06 2.87289367e-06 2.77922027e-06
      2.20853235e-06 1.82408689e-06 1.51986899e-06 1.23514587e-06
      9.48833645e-07 7.43832516e-07 5.99250086e-07 5.16220382e-07
      5.95323343e-07 7.47866807e-07 7.92536298e-07 6.70559587e-07
      2.74024131e-07 -3.80864833e-07 -1.00514160e-06 -1.05167783e-06
      -4.72686907e-07 4.44020316e-07 7.78499555e-07 7.27239239e-07
      5.86924386e-07 3.30896768e-07 1.16139461e-07 -2.44805385e-08
      -4.80043560e-08 -1.00990007e-07 -1.11410891e-07 -1.13968831e-07
      -9.34583468e-08 -6.66327153e-08 -3.11132062e-08 -5.60743416e-08
      2.52174743e-07 2.42707301e-07 2.26394093e-07 1.63542367e-07
      8.62512053e-08 -1.46616372e-08 -1.10631163e-07 -3.51136890e-07
      -6.25120435e-07 -9.66834136e-07 -1.33974208e-06 -1.62775120e-06
      -1.67652229e-06 -1.51084078e-06 -1.07077938e-06 -2.52018651e-07
      2.06122820e-07 5.23932044e-07 7.08670939e-07 6.02088164e-07
      4.71905423e-07 4.77381320e-07 4.89528020e-07 4.32037865e-07
      3.46698727e-07 5.25481255e-07 6.08048254e-07 6.40231463e-07
      8.13459110e-07 1.02032209e-06 1.10160022e-06 8.89562557e-07
      2.01178395e-07 -6.03953708e-07 -1.07794278e-06 -8.17701562e-07
      -5.10496250e-07 -3.45206104e-07 -7.91476182e-08 2.45574398e-07
      4.93599089e-07 6.52790789e-07 6.90492755e-07 4.20617511e-07
      -3.24024469e-08 -5.31507681e-07 -8.95488768e-07 -1.16452861e-06
      -1.33160734e-06 -1.42652823e-06 -1.41090618e-06 -1.39329541e-06
      1.72623504e-06 1.61757509e-06 1.32922037e-06 8.72609633e-07
      3.56845675e-07 -2.39197078e-07 -7.79489142e-07 -1.28673150e-06
      -1.66434700e-06 -2.02165006e-06 -2.26122620e-06 -2.40876875e-06
      -2.45080400e-06 -2.47139155e-06 -2.50268658e-06 -2.47554067e-06
      -2.39087649e-06 -1.89595767e-06 -1.08619543e-06 -8.03266175e-07
      -1.31045692e-06 -1.62210404e-06 -1.66822508e-06 -1.41182795e-06
      -9.26105713e-07 -1.65183380e-07 2.10837371e-07 4.37152266e-07
      4.57254657e-07 4.49479387e-07 4.85298528e-07 4.24344279e-07
      6.11155855e-08 -4.47866938e-07 -4.98322095e-07 -1.72197204e-07
      -4.85995422e-08 -2.92727776e-07 -3.32435917e-07 -1.95318364e-07
      -1.61089034e-07 -3.15245103e-07 -6.19413356e-07 -1.00943259e-06
      -1.41671023e-06 -1.71697809e-06 -1.85419651e-06 -1.86758882e-06
      -1.83595182e-06 -1.78022447e-06 -1.74252750e-06 -1.70652390e-06
      1.17525019e-06 1.15302907e-06 1.06272489e-06 9.60672651e-07
      8.19689376e-07 6.09844108e-07 3.38231473e-07 1.28188901e-07
      -3.76799427e-08 -1.43918754e-07 -2.07890423e-07 -1.70068660e-07
      -5.12883247e-08 2.67140933e-07 8.08572452e-07 1.33666924e-06
      1.79286076e-06 2.05964034e-06 2.14979173e-06 2.20999050e-06
      2.72482498e-06 2.52876021e-06 1.50738629e-06 6.39333223e-07
      9.07748188e-08 -8.24886683e-08 -1.47029922e-07 -2.49215105e-07
      -3.60203785e-07 -3.39649375e-07 -1.01210865e-07 3.38790869e-07
      1.05602271e-06 2.15943055e-06 3.13509213e-06 3.22936762e-06
      2.73019805e-06 2.06631989e-06 1.33723131e-06 7.58305418e-07
      2.65276270e-07 -2.04270890e-07 -6.19166599e-07 -8.96734889e-07
      -1.03507568e-06 -1.08674919e-06 -9.98356427e-07 -7.98401402e-07
      -6.62772891e-07 -6.47314323e-07 -7.08728351e-07 -7.51946743e-07
      1.07204482e-06 1.09340169e-06 1.15129410e-06 1.21956054e-06
      1.32698801e-06 1.56340559e-06 1.82873271e-06 2.22189669e-06
      2.45929073e-06 2.59978219e-06 2.57032320e-06 2.51912047e-06
      2.49163213e-06 2.34897834e-06 1.95392226e-06 1.33810465e-06
      6.19118680e-07 2.73202918e-08 -2.52893074e-07 -2.11040160e-07
      -9.74239214e-08 -1.84175207e-07 -5.69974191e-07 -8.93569052e-07
      -1.04797118e-06 -8.43212604e-07 -5.43734643e-07 -2.98442899e-07
      -2.28735445e-07 -2.85596286e-07 -3.60767530e-07 -3.81799140e-07
      -2.54075616e-07 4.40172414e-08 5.34356047e-07 9.46798195e-07
      9.35197590e-07 7.26700534e-07 5.37166386e-07 2.80802141e-07
      1.14604688e-07 -6.45800711e-08 -2.50702527e-07 -2.88181496e-07
      -2.01421372e-07 -1.63979152e-07 -8.09079523e-08 1.27995605e-07
      3.67838396e-07 5.29229681e-07 6.20509866e-07 5.96667633e-07
      -5.74522289e-07 -5.86066506e-07 -6.14366741e-07 -6.33937475e-07
      -5.28865371e-07 -2.31430434e-07 2.10108510e-07 7.61576700e-07
      1.35263008e-06 1.92639641e-06 2.24194969e-06 2.17774459e-06
      1.62313381e-06 6.46278011e-07 -5.71200076e-07 -1.79298968e-06
      -2.76335845e-06 -3.34565470e-06 -3.56472628e-06 -3.32120544e-06
      -2.90024627e-06 -2.49650475e-06 -2.18001651e-06 -2.00006889e-06
      -1.66181678e-06 -1.27220653e-06 -9.43761563e-07 -7.03723742e-07
      -5.92923470e-07 -5.60805915e-07 -6.61077991e-07 -8.27169117e-07
      -9.86354280e-07 -1.02306160e-06 -8.56935173e-07 -9.53957169e-07
      -9.41221629e-07 -6.81725510e-07 -1.65972921e-07 3.42972555e-07
      7.75036597e-07 1.17299044e-06 1.39588531e-06 1.21411938e-06
      7.00647945e-07 9.39484224e-08 -3.63660234e-07 -7.28927205e-07
      -1.01668081e-06 -1.18629839e-06 -1.30743217e-06 -1.38670634e-06
      -1.24858013e-06 -1.26378939e-06 -1.28748570e-06 -1.28926604e-06
      -1.01518697e-06 -5.31890407e-07 3.73156617e-08 5.74174578e-07
      9.82127290e-07 1.12118050e-06 9.82326242e-07 6.14044438e-07
      4.67381867e-08 -5.67292318e-07 -1.08420772e-06 -1.41910652e-06
      -1.58602427e-06 -1.61352330e-06 -1.44452520e-06 -1.27878445e-06
      -1.31070351e-06 -1.52712346e-06 -1.65114716e-06 -1.70162537e-06
      -1.62945719e-06 -1.38293649e-06 -1.02592833e-06 -8.31769967e-07
      -8.65825257e-07 -1.06463699e-06 -1.33725564e-06 -1.59892068e-06
      -1.76286358e-06 -1.70097360e-06 -1.47536844e-06 -1.07873120e-06
      -5.52715051e-07 2.62166875e-08 7.41173153e-07 1.45990873e-06
      1.92602533e-06 2.14138140e-06 1.90443825e-06 1.28215891e-06
      6.13333782e-07 1.30752440e-08 -4.82307712e-07 -1.33268486e-06
      -2.02435854e-06 -2.42292617e-06 -2.66908091e-06 -2.71703266e-06
      -6.02758632e-07 -6.12516033e-07 -5.62228706e-07 -4.28681290e-07
      -2.56038362e-07 -2.31560691e-07 -3.01006480e-07 -3.45304073e-07
      -4.48795191e-07 -5.41423276e-07 -4.63483076e-07 -1.93859975e-07
      2.16873886e-07 7.97437110e-07 1.55837506e-06 2.17544925e-06
      2.44003991e-06 2.41664679e-06 2.12202440e-06 1.44418561e-06
      5.81743564e-07 -2.01694903e-07 -7.24348297e-07 -1.04354820e-06
      -1.19063316e-06 -1.22740028e-06 -1.25917097e-06 -1.41387613e-06
      -1.61033722e-06 -1.76999549e-06 -1.75381126e-06 -1.57549312e-06
      -1.23425127e-06 -8.21121034e-07 -3.33914613e-07 1.09131378e-07
      4.81239226e-07 6.81502740e-07 7.32868955e-07 8.55220662e-07
      9.62120680e-07 1.05174638e-06 1.17287345e-06 1.26175996e-06
      1.18557580e-06 1.08179950e-06 9.80412892e-07 8.78504068e-07
      7.86388966e-07 6.81105405e-07 5.75239369e-07 5.85247278e-07
      1.55733085e-06 1.64523453e-06 1.76411061e-06 1.83218901e-06
      1.69976465e-06 1.41402245e-06 1.02228171e-06 5.22745779e-07
      8.15683521e-08 -1.05147855e-07 5.28649231e-08 5.14007297e-07
      1.18742753e-06 1.90311994e-06 2.61202899e-06 3.19142441e-06
      3.42654266e-06 3.28931151e-06 2.76640276e-06 2.16244894e-06
      1.69039072e-06 1.45769491e-06 1.33738808e-06 1.31459058e-06
      1.31142792e-06 1.25987935e-06 1.16182207e-06 9.36957406e-07
      6.43918611e-07 3.49514778e-07 1.58624900e-07 1.57210295e-07
      3.63362687e-07 7.26220549e-07 1.17850300e-06 1.67781138e-06
      2.01906437e-06 2.17273873e-06 2.10655821e-06 1.93419987e-06
      1.66534221e-06 1.22550352e-06 8.85088753e-07 6.56010570e-07
      4.98898032e-07 3.69883026e-07 4.00693352e-07 4.53162215e-07
      4.75715211e-07 4.11406916e-07 3.85012299e-07 4.03063325e-07
      8.76096578e-07 9.11063978e-07 9.12600512e-07 7.97973144e-07
      6.63984906e-07 5.65799155e-07 5.89065962e-07 8.00968905e-07
      1.20069649e-06 1.79577648e-06 2.36415667e-06 3.00165038e-06
      3.52207053e-06 3.61940147e-06 3.31747378e-06 2.86942759e-06
      2.30396631e-06 1.69951966e-06 1.08689937e-06 6.09438132e-07
      3.15683167e-07 2.35946175e-07 2.37485438e-07 4.26931138e-07
      6.45635737e-07 7.86017040e-07 7.88558680e-07 7.19993807e-07
      6.48521223e-07 6.31378327e-07 6.88693035e-07 9.93884214e-07
      1.51641791e-06 2.14043416e-06 2.74769627e-06 3.30755847e-06
      3.71134865e-06 3.97416215e-06 4.11194878e-06 3.87102909e-06
      3.25826841e-06 2.49630330e-06 1.75026855e-06 1.05073957e-06
      4.61668463e-07 4.51333060e-09 -4.64906435e-07 -1.19956121e-06
      -1.85162833e-06 -2.32912589e-06 -2.64343748e-06 -2.81089206e-06
      -1.02403840e-06 -1.10647477e-06 -1.34616255e-06 -1.68527288e-06
      -1.89269610e-06 -2.01101579e-06 -1.94103495e-06 -1.56018632e-06
      -8.46349053e-07 8.91639189e-08 5.94502808e-07 8.16636941e-07
      7.32443993e-07 3.41993967e-07 9.56919699e-09 -2.34533388e-07
      -4.71487368e-07 -7.72545206e-07 -1.14492161e-06 -1.57708439e-06
      -1.97749114e-06 -2.09387940e-06 -1.69191458e-06 -9.21749745e-07
      -4.60130245e-08 8.87405463e-07 1.69070609e-06 2.32374919e-06
      2.71584599e-06 2.74785930e-06 2.46020932e-06 2.04115759e-06
      1.56816088e-06 1.01023011e-06 4.93464142e-07 1.12687744e-07
      -6.36821724e-08 -4.62185881e-08 9.44791623e-08 1.24172786e-07
      8.17030497e-08 1.46361472e-07 2.78271074e-07 4.74559812e-07
      5.31697992e-07 2.93664584e-07 -1.08961665e-07 -4.75140837e-07
      -8.15979206e-07 -1.00975194e-06 -1.13398778e-06 -1.22039751e-06
      2.37290465e-07 1.76765070e-07 3.23410028e-08 -1.85186323e-07
      -4.68701273e-07 -7.85549275e-07 -9.78948265e-07 -1.07358903e-06
      -1.02186652e-06 -9.63471507e-07 -9.98986707e-07 -1.10440214e-06
      -1.31719389e-06 -1.91491335e-06 -2.16281433e-06 -2.11745737e-06
      -1.75550770e-06 -1.29314878e-06 -1.02293347e-06 -1.03902073e-06
      -1.28103750e-06 -1.55214968e-06 -1.35049356e-06 -8.17332193e-07
      -1.32526509e-07 6.18145975e-07 1.28803356e-06 1.72042382e-06
      1.80253323e-06 1.53492715e-06 1.01805483e-06 4.17046522e-07
      -3.89667122e-07 -1.17272532e-06 -1.73442038e-06 -2.14246256e-06
      -2.24472456e-06 -2.07751464e-06 -2.03772606e-06 -2.19546291e-06
      -2.16252806e-06 -1.54953693e-06 -5.78917081e-07 1.99537425e-07
      3.91998981e-07 5.76083607e-07 5.99738371e-07 3.90208868e-07
      -9.73289147e-08 -5.88684998e-07 -9.50057085e-07 -1.02338936e-06
      1.51049073e-06 1.40959310e-06 1.14940224e-06 8.08472009e-07
      4.21549657e-07 1.70102425e-07 2.29007640e-07 4.62100417e-07
      7.76690456e-07 1.15827743e-06 1.58101568e-06 1.74512400e-06
      1.37564871e-06 3.05292843e-07 -4.42290286e-07 -5.73842613e-07
      -3.58211764e-07 -2.49530352e-08 2.40578686e-07 -2.78769026e-08
      -2.12086519e-07 -5.70622717e-07 -1.16418209e-06 -1.53854262e-06
      -1.72996454e-06 -1.90692458e-06 -1.97870850e-06 -2.00737668e-06
      -2.04060598e-06 -2.04443654e-06 -1.97101394e-06 -1.70156147e-06
      -1.47379490e-06 -1.36152005e-06 -1.18132164e-06 -6.95342010e-07
      -5.12153633e-07 -5.58539966e-07 -9.46401542e-07 -1.73426656e-06
      -2.44893340e-06 -2.47119829e-06 -1.82947372e-06 -7.43907719e-07
      -2.49616534e-07 -2.06599580e-07 -2.96155264e-07 -5.34042101e-07
      -8.40358780e-07 -1.15598289e-06 -1.40902887e-06 -1.46481739e-06
      6.80169819e-07 6.06597666e-07 3.98378319e-07 1.26455546e-07
      -1.38539463e-07 -2.97778712e-07 -3.61695413e-07 -3.93697007e-07
      -2.12188695e-07 1.34112739e-07 3.05092499e-07 -1.66725087e-07
      -1.20086759e-06 -2.00956720e-06 -2.14300076e-06 -1.55362932e-06
      -3.08906124e-07 1.00532804e-06 1.79290419e-06 1.82951783e-06
      1.38487610e-06 7.90045590e-07 1.34516158e-08 -4.85582348e-07
      -9.20863101e-07 -1.31730508e-06 -1.53348287e-06 -1.60041225e-06
      -1.44394801e-06 -1.10472263e-06 -6.66132223e-07 -4.45875997e-07
      -2.95246451e-07 8.08233409e-08 7.33532659e-07 1.09258872e-06
      8.66382948e-07 -2.94359381e-07 -1.93550068e-06 -3.75259947e-06
      -5.10431255e-06 -5.55935912e-06 -4.85525061e-06 -2.88622186e-06
      -7.16231511e-07 -1.81499278e-08 6.17884268e-08 -5.05918045e-08
      -3.11066684e-09 1.30494996e-07 2.92449812e-07 3.51396238e-07
      2.85131733e-07 3.20446759e-07 4.43860756e-07 6.25628104e-07
      8.86789792e-07 1.16258263e-06 1.35473613e-06 1.36784649e-06
      1.09906193e-06 9.38981017e-08 -1.03671914e-06 -1.50526398e-06
      -1.77233187e-06 -1.69327313e-06 -1.05471054e-06 -6.98264415e-08
      1.12335999e-06 2.34848608e-06 2.90231856e-06 2.96308394e-06
      2.77403774e-06 2.47279968e-06 1.65107531e-06 5.41928671e-07
      -3.85009400e-07 -1.15176510e-06 -1.65600841e-06 -1.87021305e-06
      -1.75138814e-06 -1.36553251e-06 -7.44448812e-07 -2.59532342e-08
      7.63860328e-07 1.79797462e-06 2.56705357e-06 2.83454870e-06
      2.12154873e-06 9.84120447e-07 -1.38318728e-06 -3.45284229e-06
      -4.64826917e-06 -4.78736365e-06 -4.37721837e-06 -3.37450410e-06
      -1.79129268e-06 -4.09520453e-07 5.08397477e-07 1.16263993e-06
      1.76428057e-06 2.31610647e-06 2.69574502e-06 2.79497817e-06
      -7.45091597e-07 -7.11009420e-07 -6.06683670e-07 -4.75539423e-07
      -3.51817306e-07 -1.86249878e-07 1.46849322e-09 1.99363797e-07
      5.22200651e-07 7.96750385e-07 7.01133501e-07 6.59711475e-07
      1.37460654e-06 1.98061593e-06 2.02989372e-06 1.77138554e-06
      1.66983307e-06 2.02574211e-06 3.24183429e-06 3.97338636e-06
      4.09598260e-06 3.42062390e-06 2.49070808e-06 1.64064602e-06
      9.00442615e-07 3.11516658e-07 -2.97977891e-08 -1.13957505e-07
      4.80436562e-08 3.60856120e-07 8.26183452e-07 1.39857934e-06
      2.00139925e-06 2.54300267e-06 3.02837748e-06 3.28848228e-06
      2.97549036e-06 1.68167355e-06 4.73365560e-07 -2.05514965e-07
      -6.54347218e-07 -1.25468625e-06 -1.39353756e-06 -1.39460644e-06
      -1.04762034e-06 -3.20917167e-07 4.80107929e-07 1.05700371e-06
      1.40073826e-06 1.59573335e-06 1.60641628e-06 1.59180763e-06
      -8.74139062e-07 -8.93335425e-07 -9.98175096e-07 -1.10858150e-06
      -1.13075168e-06 -1.01175817e-06 -6.66154222e-07 -1.60513522e-07
      5.16914497e-07 1.24190524e-06 1.41076532e-06 1.06943389e-06
      6.36852064e-07 1.72420854e-07 -1.68631701e-07 -3.57814713e-07
      -2.46330302e-07 5.01273519e-07 2.27605597e-06 3.64742164e-06
      3.41212308e-06 2.35441735e-06 1.26713599e-06 4.12110154e-07
      -2.47858537e-07 -4.81430504e-07 -3.08852691e-07 2.15066194e-07
      6.72040528e-07 8.05137006e-07 7.32591047e-07 6.10236896e-07
      6.60646833e-07 8.81641427e-07 1.22389304e-06 2.47519779e-06
      2.72127772e-06 2.61054402e-06 2.29298007e-06 2.07235053e-06
      1.99258329e-06 1.70391149e-06 1.18501623e-06 1.46718696e-06
      1.01949331e-06 9.03433943e-07 5.68275368e-07 7.77492772e-08
      -3.52683941e-07 -7.23894175e-07 -9.20842467e-07 -1.03526440e-06
      -4.16992151e-07 -5.16585033e-07 -7.48287221e-07 -1.01202113e-06
      -1.09927316e-06 -1.09011808e-06 -9.98830387e-07 -6.10345069e-07
      -1.70670219e-07 1.44611505e-07 6.50863058e-07 1.42708154e-06
      1.31079821e-06 5.03646447e-07 -3.41337284e-07 -1.18450259e-06
      -1.29438513e-06 -8.53481765e-08 1.07221524e-06 1.72344312e-06
      3.69127491e-07 -1.49192203e-06 -2.65080507e-06 -3.34531683e-06
      -3.58172747e-06 -3.33899766e-06 -2.84786393e-06 -2.32893808e-06
      -1.93581059e-06 -1.86893328e-06 -2.20900029e-06 -2.85820920e-06
      -3.95059942e-06 -4.87762463e-06 -4.67432892e-06 -2.79612141e-06
      -1.62748631e-06 -4.65488739e-07 4.77169181e-07 1.04409298e-06
      1.41328860e-06 1.66702193e-06 1.78933908e-06 7.35711865e-07
      -3.96337242e-07 -6.02231921e-07 -4.37312707e-07 -5.64320715e-07
      -1.19262722e-06 -1.83410327e-06 -2.19047843e-06 -2.34392428e-06
      -8.27629037e-07 -8.85586303e-07 -1.04038736e-06 -1.23683685e-06
      -1.41208704e-06 -1.49108973e-06 -1.40230361e-06 -1.03464072e-06
      -4.71534634e-07 1.16004465e-07 3.72280454e-07 -1.01286496e-07
      -7.79399898e-07 -1.49390337e-06 -1.97812619e-06 -2.06020650e-06
      -1.68235852e-06 -9.53785616e-07 -1.19073252e-06 -1.78486368e-06
      -2.47241587e-06 -3.70893554e-06 -5.07431469e-06 -5.46842784e-06
      -5.40392830e-06 -4.90363391e-06 -4.28733665e-06 -3.78220375e-06
      -3.50387336e-06 -3.36932180e-06 -3.54888311e-06 -3.78491700e-06
      -4.05356786e-06 -4.22254925e-06 -3.62663354e-06 -2.57229317e-06
      -1.65200368e-06 -1.16892886e-06 -9.71927079e-07 -1.00493014e-06
      -1.09017367e-06 -1.11841894e-06 -1.58374587e-06 -2.49774098e-06
      -3.23646623e-06 -3.40172005e-06 -3.30768830e-06 -3.06158086e-06
      -2.89009768e-06 -2.82993688e-06 -2.78419520e-06 -2.76299943e-06
      -1.28886381e-06 -1.34171705e-06 -1.45093168e-06 -1.52833275e-06
      -1.54868360e-06 -1.40582199e-06 -1.15937826e-06 -9.20755269e-07
      -6.80386336e-07 -5.72578244e-07 -5.90858065e-07 -7.92596950e-07
      -1.11016197e-06 -1.45560057e-06 -1.68358270e-06 -1.74072875e-06
      -1.83390080e-06 -2.24432324e-06 -2.76073001e-06 -2.67090218e-06
      -2.33741503e-06 -1.88881302e-06 -1.22268966e-06 -9.84100211e-07
      -9.31895329e-07 -9.09706102e-07 -6.37329492e-07 -1.40084765e-07
      5.65136929e-07 1.25353824e-06 1.80490667e-06 2.23437610e-06
      2.19475533e-06 1.72444459e-06 4.01523721e-07 -9.75796866e-07
      -1.66902248e-06 -1.44523278e-06 -7.91441096e-07 -1.74201293e-08
      3.63247921e-07 -5.50727464e-07 -1.48914830e-06 -2.34821709e-06
      -3.13698843e-06 -3.56919350e-06 -3.64693892e-06 -3.36556764e-06
      -2.88738693e-06 -2.24227369e-06 -1.75820696e-06 -1.57464365e-06
      -8.71545069e-07 -8.24991048e-07 -5.95473068e-07 -2.08804522e-07
      1.44367149e-08 1.67749320e-07 8.40081427e-08 -2.34426707e-07
      -9.16786917e-07 -1.50179221e-06 -1.62734432e-06 -1.31081822e-06
      -6.34598848e-07 -6.65540867e-08 6.50286269e-09 -1.14037505e-06
      -2.43054387e-06 -3.05386516e-06 -3.62147784e-06 -3.44007685e-06
      -2.65258927e-06 -1.33358617e-06 5.38742825e-07 2.95970631e-06
      5.08463381e-06 5.08237827e-06 4.98458076e-06 5.55969245e-06
      6.39145810e-06 7.07453137e-06 7.06586070e-06 6.36126060e-06
      6.59797297e-06 4.72364263e-06 2.70758164e-06 9.30040926e-07
      -8.74479440e-08 -2.48186126e-07 -5.62703860e-07 -4.98577720e-07
      -6.94808648e-07 -6.38564359e-07 -8.03532373e-07 -1.04093488e-06
      -9.62072477e-07 -8.84392023e-07 -4.64167897e-07 2.90154389e-08
      8.18350685e-08 1.18526941e-07 3.13069336e-07 4.76885702e-07
      -1.01551836e-06 -9.35440426e-07 -8.81635174e-07 -8.50969627e-07
      -9.55557539e-07 -1.13026829e-06 -1.17718616e-06 -1.35135531e-06
      -1.54905558e-06 -1.64284734e-06 -1.49075913e-06 -1.17933894e-06
      -5.11103337e-07 -2.96080653e-08 2.95910894e-07 5.05259379e-07
      4.33881212e-07 2.29551901e-07 -5.05446280e-07 -1.55038151e-06
      -2.18046694e-06 -2.72700026e-06 -3.20797631e-06 -3.18674711e-06
      -3.10117389e-06 -3.15506463e-06 -3.21804259e-06 -3.52521488e-06
      -4.14595115e-06 -4.51305186e-06 -4.27650593e-06 -3.87533328e-06
      -3.52450820e-06 -2.82512383e-06 -2.20146762e-06 -1.99426677e-06
      -2.14203646e-06 -2.00079671e-06 -2.16187959e-06 -2.28100589e-06
      -2.16620765e-06 -2.13155658e-06 -2.03847026e-06 -1.79196729e-06
      -1.62222477e-06 -1.42298893e-06 -1.37771440e-06 -1.32059608e-06
      -1.08906886e-06 -9.01151054e-07 -8.15014232e-07 -8.09645258e-07
      -1.16572835e-06 -1.15097953e-06 -1.04090475e-06 -9.43375255e-07
      -7.93832839e-07 -6.66282403e-07 -7.77877517e-07 -1.10305837e-06
      -1.41370583e-06 -1.75883770e-06 -1.66368648e-06 -1.50511960e-06
      -9.03138982e-07 -3.14334955e-07 5.02698612e-08 5.53893585e-07
      6.33068055e-07 3.32155338e-07 -4.29153658e-07 -1.55586520e-06
      -2.34054050e-06 -2.78384277e-06 -3.04131800e-06 -3.22471260e-06
      -3.36754943e-06 -3.39648386e-06 -3.25812562e-06 -3.33821458e-06
      -3.92334277e-06 -4.43157887e-06 -4.05929859e-06 -3.48314393e-06
      -3.14305362e-06 -2.75465754e-06 -1.81781411e-06 -1.41389705e-06
      -1.67042128e-06 -1.76700053e-06 -1.93162737e-06 -2.11491238e-06
      -2.07022799e-06 -1.99795886e-06 -1.86783961e-06 -1.71869942e-06
      -1.80293171e-06 -1.68442239e-06 -1.35427774e-06 -9.53990138e-07
      -7.15796432e-07 -4.70223853e-07 -1.68169024e-07 5.35570130e-08
      -1.28564534e-06 -1.40246459e-06 -1.28215277e-06 -9.80736331e-07
      -5.42201576e-07 -1.59600603e-07 -1.23694946e-07 -4.53839505e-07
      -8.63686068e-07 -1.15533294e-06 -1.32502851e-06 -1.40944542e-06
      -1.18968387e-06 -5.45163743e-07 -4.85244200e-08 3.85410516e-07
      7.22868322e-07 7.09455776e-07 1.27431960e-07 -8.94480763e-07
      -1.95159600e-06 -2.56828639e-06 -2.80976087e-06 -3.00020315e-06
      -3.25497285e-06 -3.41040754e-06 -3.24628400e-06 -3.14384033e-06
      -3.55382736e-06 -3.99961209e-06 -3.78681284e-06 -3.36238281e-06
      -2.98455620e-06 -2.64209484e-06 -1.54416171e-06 -8.29790451e-07
      -1.12364023e-06 -1.46439345e-06 -1.64986602e-06 -1.96148471e-06
      -1.94389077e-06 -1.86870489e-06 -1.93585856e-06 -2.00358136e-06
      -2.18517221e-06 -2.17470279e-06 -1.56532406e-06 -9.54568577e-07
      -7.78298158e-07 -3.73271575e-07 2.76929740e-07 6.83075314e-07
      -1.83925101e-06 -1.56042938e-06 -1.19971526e-06 -8.09478081e-07
      -3.55349073e-07 2.80118940e-07 2.44858427e-07 1.60168323e-08
      -3.57789645e-07 -4.53841608e-07 -7.34726029e-07 -1.12437294e-06
      -1.24248879e-06 -6.60895182e-07 -6.52213075e-08 1.26876600e-07
      4.64088316e-07 6.82856239e-07 4.24590667e-07 -2.91797306e-07
      -1.13643318e-06 -1.78694756e-06 -2.12198825e-06 -2.34168533e-06
      -2.66819643e-06 -2.91362539e-06 -2.77884874e-06 -2.60466345e-06
      -2.93089943e-06 -3.39381222e-06 -3.61291904e-06 -3.41725081e-06
      -2.86581621e-06 -2.33902006e-06 -1.28416139e-06 -6.80108371e-07
      -7.76301931e-07 -1.09549069e-06 -1.12912039e-06 -1.41893690e-06
      -1.56352473e-06 -1.67659596e-06 -2.05858646e-06 -2.25875442e-06
      -2.54758015e-06 -2.49942173e-06 -1.90657147e-06 -1.38549626e-06
      -1.60207992e-06 -1.46729326e-06 -9.53620429e-07 -2.48637235e-07
      -1.28906095e-06 -1.17111608e-06 -9.79399488e-07 -5.75448382e-07
      -1.43412024e-07 5.60836668e-07 5.03984324e-07 2.56914717e-07
      -1.41115535e-07 -1.82839756e-07 -3.91490573e-07 -7.85023985e-07
      -1.10355040e-06 -7.42737598e-07 -3.15348530e-07 -3.53578343e-07
      -2.68796015e-07 1.58737080e-07 2.76900494e-07 -1.62334175e-07
      -5.71653629e-07 -8.59149509e-07 -1.21411995e-06 -1.49837331e-06
      -1.80448285e-06 -2.22663630e-06 -1.86609475e-06 -1.63322613e-06
      -2.25376152e-06 -2.83565737e-06 -3.18269690e-06 -3.28458714e-06
      -2.85358965e-06 -2.14043553e-06 -1.07977337e-06 -5.71153123e-07
      -5.70099189e-07 -6.03776300e-07 -4.92409583e-07 -7.11349742e-07
      -1.03627815e-06 -1.23823384e-06 -1.66660766e-06 -2.11504494e-06
      -2.41639964e-06 -2.28056865e-06 -1.79755762e-06 -1.41368662e-06
      -1.80745565e-06 -1.92443144e-06 -1.51195536e-06 -1.15345858e-06
      -5.56501334e-07 -6.57690691e-07 -7.86238445e-07 -8.90730178e-07
      -2.91968519e-07 7.15392105e-07 6.50282288e-07 4.86045508e-07
      4.18210000e-08 3.17951994e-08 -1.54954137e-07 -6.37288338e-07
      -8.09857227e-07 -5.32571278e-07 -2.48678134e-07 -5.87750094e-07
      -7.02886837e-07 -5.90455670e-07 -1.98228989e-07 -2.57589932e-07
      -4.03473848e-07 -3.97144021e-07 -4.33030237e-07 -6.77278763e-07
      -8.32959245e-07 -1.51267545e-06 -1.24177222e-06 -7.04375680e-07
      -1.47999299e-06 -2.36572987e-06 -2.64503274e-06 -2.69260909e-06
      -2.45442425e-06 -1.93596725e-06 -1.18627713e-06 -7.00804435e-07
      -5.28863325e-07 -4.94376195e-07 -2.03616793e-07 -2.58073271e-07
      -5.55885151e-07 -6.03122146e-07 -8.23521475e-07 -1.23927862e-06
      -1.75086689e-06 -1.75788728e-06 -1.42544866e-06 -1.17774971e-06
      -1.35838434e-06 -1.33156743e-06 -8.55786254e-07 -6.82967197e-07
      -9.25754136e-07 -5.81398581e-07 -4.12878052e-07 -8.27703161e-07
      -9.50495007e-07 2.53700772e-09 5.65793755e-07 5.11542282e-07
      2.63057530e-07 2.85189572e-07 7.94694621e-09 -4.78166612e-07
      -6.94315645e-07 -3.41110990e-07 8.48484749e-09 -3.12898891e-07
      -6.55778763e-07 -6.96877748e-07 -4.36935778e-07 -1.85128101e-07
      -4.50210962e-07 -4.58493815e-07 -1.13345152e-07 -1.10843459e-07
      -1.85275638e-07 -7.76470188e-07 -7.60494459e-07 -4.38933569e-07
      -9.76732053e-07 -2.03076820e-06 -2.44143780e-06 -2.22645235e-06
      -1.85278827e-06 -1.41557553e-06 -8.50650792e-07 -4.12897833e-07
      -3.73560511e-07 -2.67693054e-07 5.69845948e-09 -1.20275004e-07
      -3.78256743e-07 -3.90789182e-07 -3.86825576e-07 -6.35898061e-07
      -1.07700237e-06 -1.30018043e-06 -1.04163337e-06 -1.03802165e-06
      -9.92477680e-07 -8.40699158e-07 -3.75878642e-07 -2.04838642e-07
      -1.54224631e-06 -9.27170447e-07 -5.16292857e-07 -9.97879738e-07
      -1.38656617e-06 -7.43918918e-07 2.31543524e-07 4.70436731e-07
      3.78440149e-07 4.16029138e-07 2.97370804e-07 -4.42951830e-07
      -6.37921801e-07 -2.85334892e-07 2.16272085e-07 1.69970789e-07
      -1.35606896e-07 -4.34113872e-07 -3.24924315e-07 7.05094934e-08
      -1.70760501e-07 -3.14037635e-07 7.92385180e-08 2.52978310e-07
      2.93905259e-07 -3.46578844e-07 -6.38930089e-07 -6.95779249e-07
      -1.08844063e-06 -1.79166818e-06 -2.15303635e-06 -1.88197362e-06
      -1.23236737e-06 -9.07763649e-07 -3.26593891e-07 1.12568756e-07
      2.88346431e-08 3.01652364e-07 5.68488417e-07 3.06916604e-07
      -2.59101881e-07 -4.36837922e-07 -5.21997038e-07 -7.23811752e-07
      -8.16166278e-07 -8.57929422e-07 -5.48173603e-07 -5.52858182e-07
      -5.37466349e-07 -2.11763293e-07 4.18676960e-09 -1.10937933e-07
      -7.96142331e-07 -7.64594802e-07 -6.89079684e-07 -1.06013431e-06
      -1.25926670e-06 -8.05871878e-07 -1.11062676e-07 3.31220804e-07
      5.96216069e-07 7.75128058e-07 6.53391169e-07 -1.99403914e-07
      -4.83105168e-07 1.35142358e-07 8.52004064e-07 5.30166972e-07
      1.95264391e-07 -9.20473120e-09 6.46639435e-08 3.66909092e-07
      1.85823424e-07 -2.64317173e-08 4.57476062e-07 7.51730170e-07
      6.73927673e-07 -7.66793136e-08 -8.57441705e-07 -9.56743406e-07
      -1.10824715e-06 -1.65607992e-06 -1.78052005e-06 -1.28337740e-06
      -8.77180184e-07 -7.90058664e-07 -3.81447194e-07 4.72115971e-07
      4.08504860e-07 8.89613261e-07 1.02170134e-06 5.70256361e-07
      1.20908481e-07 -1.96750676e-07 -2.85584264e-07 -4.66573852e-07
      -4.43382419e-07 -4.92264576e-07 -2.65620571e-07 1.03536571e-07
      2.58070401e-07 5.97318831e-07 8.02016643e-07 7.29645933e-07
      8.79404638e-08 2.09859763e-07 -8.87286067e-09 -3.41121279e-07
      -4.52762805e-07 -7.83395464e-08 3.06944514e-07 3.43944919e-07
      7.24026336e-07 9.54953180e-07 1.04541027e-06 4.13969360e-07
      1.49416906e-07 8.46224452e-07 1.54932229e-06 1.42125691e-06
      8.99345480e-07 6.02598675e-07 4.26683982e-07 3.13735086e-07
      2.84127761e-08 -1.24016154e-07 4.09245189e-07 1.03755281e-06
      1.01383023e-06 2.21916338e-07 -9.61392402e-07 -1.46766467e-06
      -1.44294108e-06 -1.58552780e-06 -1.26641828e-06 -3.40441403e-07
      3.03945953e-08 -2.17256655e-07 -6.55015953e-08 7.04459865e-07
      7.72125475e-07 1.26499629e-06 1.45216734e-06 8.99226393e-07
      6.56246186e-08 -1.41753318e-07 8.11949175e-09 2.81928493e-07
      3.84624627e-07 1.13969058e-07 1.72059899e-07 4.25188489e-07
      5.31106366e-07 9.76598926e-07 1.52148061e-06 1.65090114e-06
      8.05090963e-07 1.01916748e-06 9.73603733e-07 7.80428536e-07
      6.71226815e-07 1.08637403e-06 1.02930562e-06 8.96634958e-07
      1.08361621e-06 1.11614224e-06 1.27766452e-06 1.00689226e-06
      7.18249169e-07 9.58498504e-07 1.58374053e-06 1.59874605e-06
      1.45176898e-06 1.34180243e-06 8.47850231e-07 3.97866842e-07
      -1.92491598e-07 -4.90736738e-07 -2.56879389e-07 4.30112493e-07
      7.20046273e-07 2.73486762e-07 -7.47093679e-07 -1.62700155e-06
      -1.84936880e-06 -1.94779659e-06 -1.17090599e-06 -1.78355364e-07
      6.84160511e-07 4.68585853e-07 3.87264919e-07 7.02439252e-07
      9.03723105e-07 1.29924922e-06 1.58406124e-06 1.52150540e-06
      5.93322397e-07 -2.11305874e-07 -3.22983396e-07 5.61543612e-09
      3.41784556e-07 3.64134650e-07 4.23026734e-07 5.34406126e-07
      4.33697267e-07 5.49943934e-07 8.71710938e-07 1.09331609e-06
      6.38609947e-07 1.20960090e-06 1.40642669e-06 1.27930571e-06
      8.29988551e-07 9.94451966e-07 1.34592074e-06 1.64565165e-06
      1.71770853e-06 1.44982630e-06 1.42065619e-06 1.07924870e-06
      5.26644953e-07 3.13645501e-07 7.66384517e-07 6.50551328e-07
      6.30019827e-07 7.07447896e-07 5.68116945e-07 3.17577900e-07
      -2.29263748e-07 -7.46311628e-07 -6.24692177e-07 -2.58086203e-07
      6.64345876e-08 -1.44193308e-07 -1.02260924e-06 -1.82188626e-06
      -1.86502496e-06 -1.79723554e-06 -1.30220758e-06 -4.65600152e-07
      3.79720547e-07 5.93824439e-07 7.13745465e-07 9.09220660e-07
      9.81038966e-07 1.08194695e-06 1.34001368e-06 1.73405033e-06
      1.28006468e-06 3.10723266e-07 -5.60989918e-07 -5.43368628e-07
      -2.78605057e-07 -3.89376282e-08 1.60129744e-07 3.00152543e-08
      -2.92282920e-07 7.70601805e-09 3.13181765e-08 -1.81969668e-07
      -8.48594027e-07 -2.38923462e-07 4.59029764e-07 9.75300054e-07
      7.55103542e-07 6.69202109e-07 9.42918746e-07 1.40200871e-06
      1.75635557e-06 1.76002106e-06 1.50708104e-06 1.44156002e-06
      -2.97763698e-08 -6.25191603e-07 -4.31979998e-07 -5.97895450e-07
      -6.90612410e-07 -6.54096254e-07 -5.95292420e-07 -5.30026625e-07
      -6.82672919e-07 -9.42265331e-07 -7.20181731e-07 -4.95011534e-07
      -3.78490540e-07 -5.21227378e-07 -1.27192732e-06 -2.06285267e-06
      -1.84938642e-06 -1.78484322e-06 -1.55146711e-06 -9.16476893e-07
      -2.83260391e-07 1.16001488e-07 4.26505636e-07 9.41070311e-07
      1.11051884e-06 8.01636475e-07 5.72355134e-07 1.02355739e-06
      1.46076695e-06 8.75044293e-07 -1.81907765e-07 -9.75234229e-07
      -1.11295572e-06 -7.72569877e-07 -4.85337239e-07 -3.40807929e-07
      -6.58229510e-07 -1.19048241e-06 -1.09054383e-06 -1.13537021e-06
      -2.04666617e-06 -1.78622702e-06 -1.09857660e-06 -1.70538058e-07
      5.06278468e-07 5.47799232e-07 5.08863423e-07 8.12936776e-07
      1.15821763e-06 1.56166698e-06 1.08942356e-06 1.34755055e-06
      3.33110080e-07 -1.27378553e-06 -1.33898027e-06 -1.55226678e-06
      -1.98346379e-06 -2.07725748e-06 -1.93062442e-06 -1.52761174e-06
      -1.54969598e-06 -1.33624894e-06 -9.34493301e-07 -6.72254146e-07
      -4.89990839e-07 -5.68994494e-07 -1.07579854e-06 -1.66617360e-06
      -1.67477492e-06 -1.63523453e-06 -1.59198066e-06 -1.41636951e-06
      -8.24010726e-07 -5.83671465e-07 -2.91877996e-07 5.21915979e-07
      1.03189325e-06 5.87507657e-07 1.55654234e-07 1.15505134e-08
      9.44864780e-07 1.29431919e-06 3.99160228e-07 -3.20858504e-07
      -1.09448638e-06 -1.19461049e-06 -1.34470747e-06 -1.03789603e-06
      -8.21771152e-07 -1.41037560e-06 -1.51947813e-06 -1.44800299e-06
      -2.77483491e-06 -2.59919989e-06 -1.75925265e-06 -1.15272940e-06
      -2.39523246e-07 2.37883654e-07 2.02213766e-08 1.03532933e-07
      3.69332440e-07 7.16008003e-07 8.81344931e-07 4.27766537e-07
      2.83140935e-07 -1.09228370e-06 -1.73931255e-06 -1.84460578e-06
      -2.54423776e-06 -2.96850408e-06 -2.79783217e-06 -2.26691031e-06
      -2.13312319e-06 -1.90727201e-06 -1.33478090e-06 -9.58495662e-07
      -6.71128646e-07 -5.28277042e-07 -7.20703383e-07 -1.14916475e-06
      -1.15287310e-06 -1.29638408e-06 -1.37559164e-06 -1.37052314e-06
      -1.20186212e-06 -1.05609661e-06 -8.88185014e-07 -1.56404099e-07
      3.26692600e-07 9.06034288e-08 -1.47886922e-07 -2.81753415e-07
      4.76761386e-07 1.20907282e-06 8.68345523e-07 5.60842182e-07
      -3.18463606e-07 -4.63905707e-07 -1.04709602e-06 -1.48446816e-06
      -1.29993407e-06 -1.23619816e-06 -1.00387115e-06 -8.43574071e-07
      -3.15365992e-06 -3.15411216e-06 -2.08945448e-06 -1.27988267e-06
      -7.95661435e-07 -3.13639141e-08 -2.39443210e-07 -4.29380037e-07
      -3.21125725e-07 -2.40079459e-07 -3.31341113e-07 -4.32541697e-07
      -4.98167879e-07 -6.67458835e-07 -8.77362424e-07 -1.64534742e-06
      -2.20136121e-06 -2.92895106e-06 -2.79803203e-06 -2.11907422e-06
      -1.77748711e-06 -1.61573200e-06 -1.15500825e-06 -1.14516729e-06
      -9.05887703e-07 -5.12485030e-07 -3.74776050e-07 -5.54433200e-07
      -7.17252135e-07 -9.09642722e-07 -1.20510720e-06 -1.23565690e-06
      -1.57934437e-06 -1.48127026e-06 -1.09247355e-06 -4.33426237e-07
      -1.13652732e-07 -1.78116892e-07 -2.43905504e-07 -4.38529241e-07
      -9.51587538e-08 8.12047006e-07 8.57868429e-07 5.58988688e-07
      -6.45015430e-10 1.91601970e-07 -1.33436288e-07 -6.82471921e-07
      -1.23690256e-06 -1.17930051e-06 -6.14338148e-07 -2.58922682e-07
      -3.17352965e-06 -3.27148246e-06 -2.19769368e-06 -1.21155449e-06
      -7.17502871e-07 -3.10891011e-07 -2.14899913e-07 -5.65748167e-07
      -7.33642025e-07 -8.56828819e-07 -1.07186520e-06 -1.09424207e-06
      -1.04540675e-06 -8.55056953e-07 -5.46612739e-07 -6.02792056e-07
      -1.38229893e-06 -2.36835217e-06 -2.24281030e-06 -1.17190018e-06
      -5.25535881e-07 -3.92209358e-07 -2.24111986e-07 -7.38001233e-07
      -7.16314503e-07 -2.91755327e-07 -1.41506206e-07 -2.05455251e-07
      -3.82802654e-07 -6.22002915e-07 -1.04824346e-06 -1.19155754e-06
      -1.57394425e-06 -2.15697969e-06 -1.98456837e-06 -1.09567088e-06
      -4.04009597e-07 -1.40759610e-07 6.56906174e-09 -1.23998845e-07
      -1.75132982e-07 2.34106466e-07 5.13372811e-07 1.40087892e-07
      -4.95053776e-09 3.72398915e-07 1.84396072e-07 -4.34861505e-07
      -6.72117039e-07 -8.32018486e-07 -4.29807727e-07 9.17570233e-08
      -2.91386209e-06 -2.82045312e-06 -2.07655944e-06 -1.09990856e-06
      -5.71343776e-07 -3.79375422e-07 -3.32252171e-07 -5.34009928e-07
      -7.88648265e-07 -9.81664812e-07 -1.08963832e-06 -1.17783759e-06
      -9.26768564e-07 -5.22447920e-07 -1.16816388e-07 1.26407684e-07
      1.31812641e-07 -9.95204005e-07 -1.64193580e-06 -7.98109113e-07
      3.77780282e-07 6.76715274e-07 7.64279889e-07 2.51578825e-07
      1.12437490e-07 2.65807614e-07 2.79943123e-07 1.08371950e-07
      -2.11896221e-07 -5.83544761e-07 -1.01013825e-06 -1.22130825e-06
      -1.26555562e-06 -1.87408784e-06 -2.23593406e-06 -1.74058368e-06
      -1.12762564e-06 -4.57764258e-07 6.82667789e-08 2.07914056e-07
      1.57532156e-07 2.58537398e-07 1.21420797e-07 2.01044004e-09
      1.57489577e-08 3.80696804e-07 -5.30595088e-08 -6.66745734e-07
      -4.90895559e-07 -7.77317766e-08 1.53596389e-07 4.07120183e-07
      -2.44967805e-06 -2.28799558e-06 -1.66003804e-06 -1.02927379e-06
      -4.48781691e-07 -1.98979947e-07 -2.77466881e-07 -3.63615328e-07
      -5.56992120e-07 -7.68449070e-07 -7.90858167e-07 -7.73128818e-07
      -5.07107927e-07 -1.79022962e-07 1.26060087e-07 3.35711462e-07
      6.11388202e-07 1.79283518e-07 -6.00009969e-07 -5.44362706e-07
      2.39307496e-07 6.00978694e-07 1.07687822e-06 1.11722670e-06
      1.12613736e-06 1.07966457e-06 7.70129020e-07 5.04585159e-07
      6.41011013e-08 -6.42486498e-07 -1.06197012e-06 -1.41929149e-06
      -1.23034704e-06 -1.38040889e-06 -1.50729545e-06 -1.31673903e-06
      -9.08090612e-07 -2.90210295e-07 -2.46184424e-08 2.67342870e-07
      2.31948377e-07 1.52538604e-07 3.22510658e-08 -1.79564140e-07
      -8.69334382e-09 3.61927533e-07 -2.56064283e-07 -8.63510820e-07
      -5.01240379e-07 3.39287993e-07 5.74704188e-07 6.39059181e-07
      -2.75099001e-06 -2.50604535e-06 -1.79565393e-06 -1.13394458e-06
      -5.22314110e-07 -7.87074299e-08 -5.72223442e-08 -2.19500471e-08
      -1.93617979e-07 -3.62948612e-07 -3.29879271e-07 -1.20331450e-07
      8.19803887e-08 -2.97347125e-08 -1.40050830e-07 4.93017076e-08
      3.36889173e-07 1.18213876e-07 -2.04087286e-07 -1.75591566e-07
      4.78123297e-07 6.31147259e-07 1.00352770e-06 1.64861240e-06
      1.92836887e-06 1.75296168e-06 1.31299203e-06 7.10255676e-07
      9.67156453e-08 -7.58813997e-07 -1.33901881e-06 -1.45250192e-06
      -1.36922779e-06 -1.23531743e-06 -1.17383479e-06 -7.96560187e-07
      -2.42807090e-07 3.02463576e-07 3.87070259e-07 -4.46274910e-08
      -2.54641719e-07 -1.68559055e-07 1.69203975e-08 -6.86694435e-08
      2.24352476e-07 4.51921238e-07 -3.91302081e-07 -8.17222485e-07
      -3.47962839e-07 3.13790252e-07 3.51301253e-07 4.45147492e-07
      -2.84374255e-06 -2.45047454e-06 -1.82561928e-06 -1.31292586e-06
      -7.00489750e-07 -3.44269523e-07 -2.28188330e-08 6.58245227e-08
      -1.02219552e-07 -2.43252714e-07 -2.06561225e-07 1.74661182e-07
      5.19141224e-07 1.56161946e-07 1.13738645e-08 -2.27728183e-08
      -2.27511681e-08 -4.21781920e-07 -7.48126126e-07 -5.11396820e-07
      9.98365266e-08 4.59181905e-07 1.09235680e-06 1.91340609e-06
      2.40784698e-06 2.30662590e-06 1.91284471e-06 9.57309226e-07
      -6.87666057e-09 -1.16200079e-06 -1.85641090e-06 -1.84966996e-06
      -1.66671100e-06 -1.18075150e-06 -8.56915563e-07 -4.88033777e-07
      1.31046804e-07 6.06487333e-07 5.44585475e-07 -1.03047412e-07
      -6.22421851e-07 -5.55233726e-07 -2.81260668e-07 -2.11282125e-09
      2.98072138e-07 3.39696726e-07 -3.31234844e-07 -4.73777845e-07
      6.34429966e-08 4.98585280e-07 2.62241684e-07 7.42152224e-08
      -2.82295605e-06 -2.45720958e-06 -1.72912894e-06 -1.21662561e-06
      -9.04753904e-07 -5.89867625e-07 -1.98544285e-07 -1.12343379e-07
      -1.12715291e-07 -2.41225734e-07 -4.93371658e-07 -4.07622849e-07
      -1.96580814e-07 -1.42418244e-07 6.84671164e-08 2.38056614e-07
      6.97116533e-08 -7.51881203e-07 -1.48204890e-06 -1.42436500e-06
      -1.02080344e-06 -3.00763304e-07 6.66160929e-07 1.62518950e-06
      2.27135160e-06 2.46222226e-06 2.28317913e-06 1.43231318e-06
      3.84392621e-07 -9.37468997e-07 -2.07563698e-06 -2.30109663e-06
      -2.22003723e-06 -1.50511266e-06 -6.91940443e-07 -2.80166120e-07
      1.13176810e-07 5.49348954e-07 4.26222215e-07 -2.33479923e-07
      -8.06683090e-07 -7.28258158e-07 -6.41340364e-07 -4.82548444e-07
      1.92804901e-08 1.82037596e-07 -2.59113762e-07 -2.19079851e-07
      9.92604754e-08 3.38931471e-07 1.12261311e-07 4.68197499e-08
      -2.47682556e-06 -2.29337888e-06 -1.59924662e-06 -1.11476845e-06
      -8.71053089e-07 -5.28748501e-07 -2.04434599e-07 -1.27898858e-07
      -5.12845091e-08 -9.90230262e-08 -3.57793880e-07 -4.27457934e-07
      -4.98994439e-07 -3.70534735e-07 2.09948698e-08 4.93086532e-07
      4.48105794e-07 -4.07811200e-07 -1.30344017e-06 -1.67842074e-06
      -1.71074112e-06 -1.11622626e-06 -3.40839379e-09 1.07853009e-06
      1.65870938e-06 2.14135002e-06 2.10661960e-06 1.73120611e-06
      8.69104497e-07 1.46494195e-08 -1.29380044e-06 -1.94772747e-06
      -2.06218124e-06 -1.55492626e-06 -9.02025477e-07 -5.68631492e-07
      -3.02896098e-07 3.25460583e-08 2.20949332e-07 -3.28983617e-07
      -6.06027697e-07 -5.54074973e-07 -7.25817813e-07 -7.73825718e-07
      -3.98075116e-07 -2.98601037e-08 -1.84710984e-07 -1.71676703e-07
      -5.35858291e-08 -1.93830004e-07 -5.78607228e-07 -5.93749917e-07
      -1.78457401e-06 -1.79365577e-06 -1.33304172e-06 -8.17692637e-07
      -6.12883298e-07 -3.45333120e-07 -9.28025159e-08 -3.54913823e-08
      8.48971595e-08 2.81901222e-08 -9.00718504e-08 -3.24490372e-08
      -3.30313128e-07 -5.08443918e-07 -3.19688496e-07 2.88089268e-07
      6.95240658e-07 3.15768574e-07 -3.22543826e-07 -9.15124247e-07
      -1.42327542e-06 -1.39931842e-06 -7.82579775e-07 4.56756339e-08
      5.52194138e-07 1.08515690e-06 1.36666313e-06 1.31081401e-06
      8.35774642e-07 2.93743796e-07 -4.53638762e-07 -7.79841059e-07
      -8.64328115e-07 -7.27341046e-07 -5.19020205e-07 -4.39777153e-07
      -4.65266027e-07 -3.12578038e-07 -6.38301358e-08 -2.61486065e-07
      -3.71790918e-07 -2.09354468e-07 -3.93837610e-07 -6.63050571e-07
      -5.99899181e-07 -1.93046972e-07 -4.46216539e-08 -1.22097514e-08
      -1.51989909e-07 -5.25310043e-07 -1.07677204e-06 -1.11959741e-06
      -5.14887915e-07 -7.54996847e-07 -7.16948989e-07 -6.53745246e-07
      -5.69392114e-07 -2.71247245e-07 -1.09561661e-07 -1.47707899e-08
      1.80097416e-07 1.77895501e-07 8.67957084e-08 2.55974953e-07
      -2.24912835e-08 -4.39107993e-07 -4.61108073e-07 -5.13049159e-08
      3.53771412e-07 3.89621505e-07 2.06990638e-08 -3.51150334e-07
      -1.02857666e-06 -1.42357590e-06 -1.24232974e-06 -9.34641605e-07
      -5.03497347e-07 8.29750491e-08 3.45251919e-07 4.51592769e-07
      3.46722032e-07 -1.77475812e-08 -4.98414238e-07 -2.23058365e-07
      -6.05505264e-08 -1.31539757e-08 1.67615710e-07 1.36810456e-07
      -5.51524870e-08 -2.68054407e-07 -1.98004201e-07 -8.55222666e-08
      -2.80629337e-07 -1.29167944e-07 -1.09900093e-07 -2.62022610e-07
      -4.22648071e-07 -2.06854438e-07 8.24796942e-08 1.38314164e-07
      -9.68412976e-08 -4.97538565e-07 -1.01758985e-06 -1.20566528e-06
      6.07255004e-07 2.85330799e-07 6.29223251e-08 -1.39516786e-07
      -3.98957923e-07 -2.52086721e-07 -1.13427930e-07 4.93667827e-08
      1.92627596e-07 2.24578770e-07 3.23969203e-07 3.64493502e-07
      3.04986010e-08 -2.80684901e-07 -2.85261223e-07 -1.74388560e-07
      -1.87373761e-09 1.34701892e-07 -3.91589339e-08 -4.10975446e-07
      -7.47701506e-07 -1.19119443e-06 -1.28771524e-06 -1.10642668e-06
      -7.87295619e-07 -5.03988474e-07 -4.07351479e-07 -1.46139257e-07
      -2.13155928e-07 -5.26173608e-07 -9.18982494e-07 -5.22297285e-07
      -2.50359989e-07 -1.72786212e-08 5.65108792e-07 7.24573908e-07
      5.91294395e-07 1.90623354e-07 -2.24046044e-08 1.11893044e-07
      -1.32561070e-07 -2.52320177e-07 7.96468835e-10 1.30886342e-08
      -3.17449604e-08 4.90336056e-08 2.27694144e-07 1.80188650e-07
      -1.23832550e-07 -4.02094571e-07 -7.59497368e-07 -1.01582521e-06
      1.15041837e-06 8.70188558e-07 5.10951679e-07 2.70701037e-07
      -1.81012723e-07 -2.50482742e-07 -5.52086838e-08 2.43575499e-07
      3.11542919e-07 3.21509646e-07 6.44386546e-07 5.83430165e-07
      2.23944795e-07 1.44041309e-07 1.18696384e-07 1.33590348e-07
      3.61012797e-09 -1.10984111e-07 -2.73891601e-07 -6.16178284e-07
      -1.06660013e-06 -1.04140076e-06 -9.39219888e-07 -8.09176868e-07
      -6.79151526e-07 -5.97639144e-07 -7.01528222e-07 -2.11502751e-07
      -1.68755932e-07 -4.92922425e-07 -8.00692078e-07 -6.78855429e-07
      -5.05577418e-07 -2.99951864e-07 3.34306634e-07 1.00565182e-06
      1.26238194e-06 9.62902732e-07 5.75212425e-07 3.65785098e-07
      -1.36708318e-11 -3.44997602e-07 1.13728671e-08 7.93443036e-08
      1.01309155e-07 3.29258341e-07 3.67187880e-07 1.71052534e-07
      -7.19320212e-08 -3.11663229e-07 -6.54848009e-07 -8.73341492e-07
      7.90440083e-07 8.16091131e-07 4.69295600e-07 2.61803990e-07
      -2.59571475e-08 -7.36198515e-08 1.04780341e-07 2.18157552e-07
      3.68378693e-07 4.67066258e-07 7.17357580e-07 6.99586963e-07
      4.90780678e-07 7.09841913e-07 6.06159517e-07 4.56350477e-07
      1.20289897e-07 -3.05220539e-07 -6.92959247e-07 -1.00165096e-06
      -1.18760943e-06 -1.17430375e-06 -8.38073049e-07 -6.09484914e-07
      -5.48307639e-07 -5.37001824e-07 -6.78045126e-07 -1.17121886e-07
      1.65872777e-07 9.22498984e-08 -1.53245068e-07 -2.16331451e-08
      2.90787000e-07 2.09855799e-07 4.47284691e-07 1.13077147e-06
      1.70238127e-06 1.74548688e-06 1.32914852e-06 9.07956348e-07
      4.20361630e-07 -8.84315270e-08 9.86977184e-08 5.87712501e-09
      4.28510383e-08 2.58006509e-07 2.34672200e-07 -4.11199288e-08
      -3.39314340e-07 -4.32819604e-07 -6.36209336e-07 -8.16742784e-07
      6.83164174e-08 1.75467022e-07 2.30614077e-07 9.28015140e-08
      -2.70606080e-08 -2.36326656e-08 -8.86319285e-08 -1.08493381e-07
      2.94372654e-07 5.39446262e-07 6.74085754e-07 7.40977839e-07
      7.04838158e-07 1.11965642e-06 1.05110712e-06 7.70043528e-07
      1.17509813e-07 -7.09842595e-07 -1.35555672e-06 -1.62649042e-06
      -1.48825029e-06 -1.11262239e-06 -9.26790904e-07 -7.40081987e-07
      -5.39326265e-07 -4.79629932e-07 -5.92070705e-07 -2.78538351e-07
      -7.07119585e-10 2.10279325e-07 4.86277770e-07 6.75410945e-07
      1.24056896e-06 1.09779182e-06 9.96247763e-07 1.51367158e-06
      1.97930990e-06 2.15837713e-06 1.92402126e-06 1.55740770e-06
      1.05288996e-06 4.13439409e-07 3.36308204e-07 2.03573780e-08
      -7.17829565e-08 1.42663183e-07 1.71575692e-07 -1.66974232e-07
      -5.63845958e-07 -7.32847809e-07 -8.49899607e-07 -9.12991936e-07
      -3.55999703e-07 -2.72913354e-07 -1.14219795e-07 2.91730782e-08
      7.09455534e-08 3.71118816e-08 -3.78237303e-07 -4.98063059e-07
      -7.25401605e-08 3.98084723e-07 5.21575714e-07 8.36025265e-07
      9.30194176e-07 1.26775501e-06 1.47813648e-06 1.08699169e-06
      -1.83604101e-08 -1.16272508e-06 -1.92273092e-06 -2.16142939e-06
      -1.85726628e-06 -1.48256527e-06 -1.18737000e-06 -1.17642924e-06
      -1.10216945e-06 -7.89993464e-07 -6.43133035e-07 -5.36614493e-07
      -2.33703602e-07 -1.08453184e-08 3.64705699e-07 7.96825248e-07
      1.65817494e-06 1.67206917e-06 1.42451734e-06 1.61612638e-06
      1.82545932e-06 1.79674896e-06 1.60549087e-06 1.54606960e-06
      1.25976669e-06 8.66277560e-07 7.05096568e-07 2.27425801e-07
      -1.14200787e-07 1.38863623e-08 1.15478869e-07 -2.24461218e-07
      -5.85471923e-07 -8.50111178e-07 -1.03153729e-06 -1.05360073e-06
      -1.67732608e-07 -1.03305155e-07 -3.94903985e-08 1.05124670e-07
      1.87361621e-07 1.41718758e-07 -4.47455079e-07 -5.35873767e-07
      -1.65011215e-07 1.98158091e-07 4.29104858e-07 9.96644872e-07
      9.60019861e-07 1.00387240e-06 1.34323818e-06 1.26209000e-06
      -2.23451451e-07 -1.48441188e-06 -2.23476627e-06 -2.44860621e-06
      -2.29415764e-06 -2.11801353e-06 -1.85824968e-06 -1.57145644e-06
      -1.45380875e-06 -1.06896357e-06 -7.73730164e-07 -7.10604468e-07
      -4.18595221e-07 -2.28691846e-07 -9.19802616e-08 1.09466164e-07
      1.05027925e-06 1.70860574e-06 1.56473288e-06 1.71417457e-06
      1.65135202e-06 1.22212225e-06 6.27356940e-07 5.13683062e-07
      6.43418673e-07 7.82048403e-07 6.52406015e-07 3.82508574e-07
      -1.08387091e-07 -1.18854587e-07 2.62232369e-08 -2.89787437e-07
      -6.89222020e-07 -9.17787474e-07 -1.02546858e-06 -1.04420553e-06
      5.04051172e-07 3.95888264e-07 3.58929583e-07 2.93356123e-07
      2.45725602e-07 1.02505219e-07 -4.64008252e-07 -5.91022456e-07
      -2.87069124e-08 3.57690737e-07 6.24374081e-07 1.11486543e-06
      9.27634858e-07 5.12261977e-07 6.03490491e-07 7.92199899e-07
      -7.82839749e-08 -1.02400031e-06 -1.59554179e-06 -1.98935550e-06
      -2.18387936e-06 -2.08400843e-06 -1.75430284e-06 -1.29683963e-06
      -1.19144352e-06 -8.73033571e-07 -6.29629596e-07 -8.59541842e-07
      -7.13889506e-07 -5.37375740e-07 -3.44249685e-07 -3.36060566e-07
      1.36202928e-07 7.91648915e-07 8.82775794e-07 1.38244775e-06
      1.55128964e-06 1.04792196e-06 2.03121701e-07 -2.47543255e-07
      2.16571294e-08 3.76196226e-07 4.62756759e-07 3.24795337e-07
      -3.93259505e-08 -1.46312345e-07 -3.27562510e-08 -3.59909308e-07
      -7.29672593e-07 -9.28021848e-07 -9.20761124e-07 -8.78084109e-07
      1.18553999e-06 1.02056788e-06 9.24887615e-07 5.28759415e-07
      2.81785844e-07 5.57722792e-08 -4.46713528e-07 -6.44698559e-07
      -9.11845532e-08 3.44732996e-07 6.15790952e-07 9.70249175e-07
      8.66691039e-07 2.19720704e-07 -1.69956760e-08 -1.51523054e-07
      -9.77274340e-07 -1.38835378e-06 -1.18905962e-06 -9.96714903e-07
      -1.39423446e-06 -1.57198269e-06 -1.35480093e-06 -8.59116085e-07
      -5.05589298e-07 -2.89990311e-07 -3.11296048e-07 -5.10192422e-07
      -5.86117210e-07 -7.32093838e-07 -5.28183875e-07 -3.00143029e-07
      -1.96617833e-07 3.42316469e-08 -4.20383117e-07 -4.17843836e-07
      -1.70975255e-07 -1.90249040e-07 -3.99531729e-07 -6.19770276e-07
      -3.63306611e-07 2.05589856e-07 4.85756914e-07 3.41886846e-07
      4.96069141e-09 -2.48319964e-07 -1.58725300e-07 -3.90726058e-07
      -7.31051443e-07 -8.72974340e-07 -7.73347097e-07 -8.45065813e-07
      1.94928225e-06 1.73558396e-06 1.40234795e-06 8.36053687e-07
      3.94551051e-07 1.97482208e-07 -2.74745219e-07 -4.28218328e-07
      -1.34827545e-07 -7.46543876e-08 6.32694963e-08 3.16855704e-07
      4.42209682e-07 1.15151018e-07 -2.28449380e-07 -6.33683612e-07
      -1.73572266e-06 -2.44860871e-06 -1.94023210e-06 -9.77639047e-07
      -9.39268659e-07 -1.22787230e-06 -1.11642385e-06 -6.24352481e-07
      -9.23317600e-08 2.48357281e-07 2.27172436e-07 2.36986665e-07
      3.50098730e-07 -4.15717913e-08 -5.60138346e-07 -5.93706488e-07
      -4.77684694e-07 1.22022072e-08 -6.87717602e-07 -1.31507943e-06
      -1.60499951e-06 -1.70281419e-06 -1.55793475e-06 -1.19012202e-06
      -5.94828066e-07 -2.72610929e-08 2.07743767e-07 5.24786508e-08
      -1.25729215e-07 -3.87366839e-07 -4.57131733e-07 -5.86018757e-07
      -7.65755999e-07 -7.36174684e-07 -6.93958611e-07 -7.08660252e-07
      2.24769951e-06 1.97730969e-06 1.48824199e-06 9.70453470e-07
      4.25868791e-07 2.69952722e-07 8.04733489e-08 3.87844423e-08
      1.31826909e-07 -7.88480321e-08 -3.41060314e-07 -4.31820126e-07
      -4.50107507e-07 -3.19943808e-07 -3.45427253e-07 -8.01149270e-07
      -1.67609528e-06 -2.36537608e-06 -2.32878847e-06 -1.41891917e-06
      -1.00615750e-06 -9.18336582e-07 -6.95981100e-07 -2.65134958e-07
      1.74540162e-07 6.56405348e-07 8.05719139e-07 1.04396679e-06
      1.27609610e-06 8.37077437e-07 -5.06716233e-08 -6.29904775e-07
      -7.09395238e-07 -1.95673664e-07 -2.79816419e-07 -9.34817706e-07
      -1.22400638e-06 -1.55197620e-06 -1.53559006e-06 -1.53733686e-06
      -1.03024240e-06 -4.43847654e-07 3.21623830e-08 -1.69605542e-07
      -3.34885158e-07 -4.99288262e-07 -5.88963474e-07 -6.82058044e-07
      -8.37700327e-07 -6.69232975e-07 -6.51902667e-07 -5.59389491e-07
      2.20099673e-06 1.94193649e-06 1.33736000e-06 7.18488138e-07
      1.94192864e-07 1.08860760e-07 1.48753287e-07 4.30871665e-07
      6.73758279e-07 6.38384208e-08 -4.07227674e-07 -7.61832666e-07
      -8.77992136e-07 -7.77843809e-07 -9.18295541e-07 -1.32440255e-06
      -1.56922169e-06 -1.87127193e-06 -1.80013444e-06 -1.45467368e-06
      -1.30034869e-06 -7.24651102e-07 -3.13918946e-07 1.49255868e-07
      6.37811752e-07 8.62627587e-07 1.15405987e-06 1.39122483e-06
      1.60645743e-06 1.12999021e-06 3.51943811e-07 -5.39542562e-08
      -3.22605388e-07 -6.18886631e-08 7.67437385e-08 -3.17087142e-07
      -5.32838271e-07 -6.72685076e-07 -6.42123041e-07 -8.26335281e-07
      -6.55357155e-07 -2.69173228e-07 -1.68783902e-08 -7.31177252e-08
      -2.86656757e-07 -3.53837265e-07 -6.39679570e-07 -6.58254010e-07
      -6.46321212e-07 -6.31787941e-07 -6.00610861e-07 -3.86169290e-07
      1.65017934e-06 1.44988064e-06 1.09087989e-06 4.24870422e-07
      -1.30287191e-07 -2.78693136e-07 -1.13145923e-07 2.24990799e-07
      5.63067715e-07 -1.94524397e-09 -4.31262208e-07 -8.41635369e-07
      -1.26922635e-06 -1.33954279e-06 -1.33790377e-06 -1.59447086e-06
      -1.91393633e-06 -2.11429119e-06 -2.27849614e-06 -2.08004417e-06
      -1.65000722e-06 -1.17745583e-06 -2.31861733e-07 2.67802989e-07
      4.83880058e-07 6.45518810e-07 8.68412769e-07 1.14780505e-06
      1.39702797e-06 1.12277871e-06 6.20661353e-07 3.86431338e-07
      6.41021813e-08 -1.64563772e-07 3.28604074e-07 2.17140126e-07
      1.43940809e-07 -1.13269634e-08 -1.43653537e-07 -3.19513219e-07
      -1.13951408e-07 4.00534702e-07 5.20665196e-07 3.01964974e-07
      -1.56060707e-07 -1.93326230e-07 -3.98291974e-07 -4.89277284e-07
      -4.85073258e-07 -4.17547824e-07 -2.84511003e-07 -8.53725624e-09
      9.31300463e-07 9.29130692e-07 6.53053576e-07 8.61121663e-08
      -4.45603348e-07 -5.68082669e-07 -4.62518841e-07 -1.90003917e-07
      -1.30263373e-07 -4.56678720e-07 -7.28664190e-07 -1.07563983e-06
      -1.48723700e-06 -1.60063496e-06 -1.54223494e-06 -1.43396107e-06
      -1.45371973e-06 -1.82390636e-06 -2.19986100e-06 -2.36771416e-06
      -2.22192944e-06 -1.81086853e-06 -9.25141023e-07 -6.15658990e-08
      2.99969031e-07 3.35694864e-07 4.14056046e-07 5.52644053e-07
      7.05847697e-07 7.31800640e-07 5.04083516e-07 3.08930794e-07
      1.00405977e-07 -5.61034170e-08 2.59743530e-07 7.66366327e-07
      7.51465905e-07 3.80359381e-07 -6.31867394e-08 -4.64781721e-07
      -1.37727966e-07 6.65403945e-07 9.19183378e-07 8.46238265e-07
      6.65654412e-08 -1.70034468e-07 -8.87114879e-08 -7.72464759e-08
      -1.21779181e-07 4.26744755e-08 1.06693410e-08 4.10319529e-08
      4.04782156e-07 2.32923895e-07 -9.96314853e-09 -4.47925288e-07
      -9.05120942e-07 -9.28773829e-07 -8.98346798e-07 -8.32469254e-07
      -8.30674139e-07 -9.54439315e-07 -1.17695299e-06 -1.71881982e-06
      -1.94451650e-06 -1.81690689e-06 -1.45931813e-06 -1.11887039e-06
      -1.03348577e-06 -1.14199031e-06 -1.64032986e-06 -2.16459580e-06
      -2.37611016e-06 -2.07414382e-06 -1.58194041e-06 -7.18150716e-07
      -1.26910749e-07 1.30894875e-07 2.81500064e-07 1.22524195e-08
      2.58439368e-08 1.08310488e-07 8.67072885e-08 9.01799382e-08
      1.13756728e-08 -2.25847803e-08 2.98619426e-07 5.46032936e-07
      6.02134264e-07 4.22583923e-07 -2.62514632e-08 -7.37264600e-07
      -7.47759316e-07 -5.43051613e-08 4.89885281e-07 6.14085650e-07
      2.51296797e-08 -3.33956962e-07 -2.97022098e-07 1.87381374e-07
      3.90965596e-07 4.90282389e-07 4.28060218e-07 2.20293245e-07
      4.17184481e-07 2.05203534e-07 -1.15639885e-07 -6.31583305e-07
      -1.25417455e-06 -1.30659794e-06 -1.18577339e-06 -1.22593076e-06
      -1.27436920e-06 -1.11528493e-06 -1.34305253e-06 -2.00392742e-06
      -2.29672332e-06 -2.32079333e-06 -1.90520109e-06 -1.21578910e-06
      -7.47127785e-07 -5.07817731e-07 -7.94106654e-07 -1.50215465e-06
      -1.81975429e-06 -1.84537203e-06 -1.54116663e-06 -1.23546909e-06
      -6.92015476e-07 -1.20653368e-07 2.34176710e-07 3.12646531e-09
      -4.74600739e-07 -5.82410678e-07 -4.44078182e-07 -9.14592206e-08
      1.61437725e-07 9.74938814e-08 -7.26283034e-08 -2.23261793e-07
      -1.41968385e-07 1.01527284e-08 -4.54814497e-08 -3.38776829e-07
      -5.40701421e-07 -2.77293424e-07 4.07308143e-08 4.19676894e-07
      -1.85607121e-08 -3.83016925e-07 -5.51571986e-07 1.10090369e-07
      2.44875309e-07 3.79949000e-07 3.83998298e-07 2.81288777e-07
      1.08617667e-06 8.80647917e-07 4.51768329e-07 -2.56405258e-07
      -1.00628301e-06 -1.30790102e-06 -1.24953749e-06 -1.36731376e-06
      -1.45022204e-06 -1.26349687e-06 -1.50242192e-06 -1.94702284e-06
      -2.15527143e-06 -2.40345798e-06 -2.18030982e-06 -1.45754984e-06
      -7.64633569e-07 -2.55616982e-07 -2.90653702e-07 -7.42323209e-07
      -1.03089110e-06 -1.00446562e-06 -8.54739426e-07 -9.59338422e-07
      -9.30173996e-07 -5.65839514e-07 -6.94459388e-08 -2.61282537e-07
      -6.82186965e-07 -8.99725080e-07 -8.84842450e-07 -5.32534557e-07
      -1.56220409e-07 -1.07452074e-07 -4.13393082e-07 -6.30728039e-07
      -5.07828190e-07 -6.83854964e-08 1.91003124e-07 3.21267180e-07
      2.17302869e-07 2.26493754e-07 2.13587981e-07 1.86948327e-07
      -3.85055756e-08 -2.81276357e-07 -6.78606625e-07 -1.43597958e-07
      6.08676416e-08 -1.16721985e-07 -2.92860420e-07 -3.99619097e-07
      1.68340796e-06 1.53422434e-06 9.92898094e-07 2.55395179e-07
      -4.56021525e-07 -9.18497278e-07 -1.19387721e-06 -1.15070770e-06
      -1.12918303e-06 -1.08401412e-06 -1.60056038e-06 -1.74223817e-06
      -1.62733500e-06 -1.83486213e-06 -1.87696037e-06 -1.57072850e-06
      -1.15748094e-06 -5.45470812e-07 1.00251214e-07 1.76752749e-07
      -1.25849752e-07 -1.83769785e-07 -1.31450918e-07 -2.66650716e-07
      -5.89014007e-07 -6.76632055e-07 -4.00296159e-07 -4.43159450e-07
      -7.97018572e-07 -6.84146926e-07 -2.68145499e-07 -3.20276030e-07
      -5.41014231e-07 -4.56825461e-07 -5.18482011e-07 -5.14446867e-07
      -2.21053881e-07 2.21138151e-07 4.54443153e-07 5.56923396e-07
      5.62531739e-07 7.25891425e-07 3.56991762e-07 1.67904346e-07
      1.23999953e-07 1.39348488e-08 -4.69437111e-07 -1.74318700e-07
      1.49070559e-07 -2.15144922e-07 -6.56228906e-07 -8.17649720e-07
      2.07776634e-06 1.81640473e-06 1.34997777e-06 6.80082792e-07
      7.38324246e-08 -5.64797290e-07 -1.06916104e-06 -1.12187388e-06
      -1.06918412e-06 -1.00099555e-06 -1.25416364e-06 -1.46019852e-06
      -1.08576933e-06 -1.09664722e-06 -1.08735765e-06 -1.25979045e-06
      -1.23719599e-06 -8.22794846e-07 1.62183980e-07 7.57278315e-07
      6.33871196e-07 2.83368763e-07 8.21218791e-08 1.35111563e-07
      -1.07847889e-07 -4.86542433e-07 -3.96699647e-07 -4.47909429e-07
      -1.03786692e-06 -5.59585544e-07 2.48833743e-07 1.34111943e-07
      -3.63709148e-07 -2.91057518e-07 -9.10812403e-08 -1.37402239e-07
      9.86330946e-08 3.54941506e-07 5.87012266e-07 7.36367440e-07
      5.11686608e-07 4.62304143e-07 1.49078019e-07 6.68170870e-08
      2.24754714e-07 1.98552826e-07 -5.60151392e-08 -6.03617636e-08
      3.43419430e-07 -1.95761061e-08 -8.07016136e-07 -1.03011314e-06
      1.68522513e-06 1.50062692e-06 1.15616729e-06 6.67232086e-07
      1.05452216e-07 -5.86662168e-07 -1.09279756e-06 -1.25344332e-06
      -1.28824911e-06 -1.31389481e-06 -1.25402744e-06 -1.06154857e-06
      -7.95278311e-07 -5.06996855e-07 -5.28609633e-07 -3.43002313e-07
      -2.39577929e-07 -7.64256214e-08 3.79620246e-07 9.23402922e-07
      1.07333801e-06 4.93056518e-07 -3.89221562e-08 -9.39488842e-08
      -4.02734315e-07 -5.99949033e-07 -4.00729277e-07 -2.65436142e-07
      -6.94305697e-07 -3.84447503e-07 4.74125301e-07 4.91379467e-07
      9.98888297e-08 6.69962716e-08 3.29631149e-07 4.06086514e-07
      3.57383584e-07 4.65189459e-07 7.39444260e-07 8.87109479e-07
      5.49963829e-07 4.50612525e-08 -4.20236177e-07 -4.52782160e-07
      -1.29739618e-07 -4.44479049e-08 -2.31323952e-07 -2.50507526e-07
      7.72661490e-09 -3.39595886e-07 -1.12121836e-06 -1.58466185e-06
      -3.05201837e-07 -1.71860833e-07 -1.68656896e-07 -2.47431700e-07
      -3.84652054e-07 -8.63584091e-07 -1.15460136e-06 -1.46637171e-06
      -1.90344952e-06 -2.11222346e-06 -1.85513159e-06 -1.48290758e-06
      -6.69763381e-07 -3.87666915e-07 -6.35727474e-07 -8.77032278e-08
      5.15778481e-07 1.11870293e-06 9.82290885e-07 1.05783135e-06
      1.44441958e-06 1.30879323e-06 8.33197021e-07 2.35623489e-07
      -1.78736073e-07 -5.90994205e-07 -4.85957401e-07 -6.66856693e-07
      -6.67475547e-07 -3.65484595e-07 7.52528493e-08 3.82570363e-07
      2.25269673e-07 1.35962893e-07 3.37600795e-07 6.43591022e-07
      4.71724434e-07 1.14231639e-07 1.37332961e-07 5.68243820e-07
      2.60168747e-07 -4.04519227e-07 -6.26805331e-07 -8.50594688e-07
      -9.59223712e-07 -8.06273647e-07 -7.48585990e-07 -7.48952573e-07
      -5.18518164e-07 -5.78483252e-07 -1.11969177e-06 -1.81510973e-06
      -2.12212399e-06 -1.94627023e-06 -1.70001761e-06 -1.27667772e-06
      -1.07560118e-06 -1.33997128e-06 -1.16634237e-06 -1.17474133e-06
      -1.83417217e-06 -2.18686682e-06 -2.04626031e-06 -1.74169406e-06
      -9.48423519e-07 -1.45126194e-07 -2.63687639e-07 -1.50441934e-07
      3.72296398e-07 8.28765167e-07 7.08131211e-07 6.36693926e-07
      1.21371329e-06 1.60619209e-06 1.47595165e-06 1.21674088e-06
      7.76372474e-07 4.57315593e-07 1.49598506e-07 -2.92801303e-07
      -8.60501643e-07 -9.14466852e-07 -6.40802909e-07 -3.62823982e-07
      -1.71146496e-07 -1.36698105e-07 7.82661758e-08 2.46524479e-07
      2.20175977e-07 -1.29053021e-07 -2.41762876e-07 8.54694875e-08
      -3.35902655e-07 -1.21238043e-06 -1.37971267e-06 -1.45539468e-06
      -1.83782709e-06 -1.77021104e-06 -1.44499484e-06 -1.11470217e-06
      -7.38753499e-07 -5.84319878e-07 -5.49907725e-07 -7.00397891e-07
      -2.96394478e-06 -2.83985446e-06 -2.45008391e-06 -1.95904136e-06
      -1.56284671e-06 -1.80495783e-06 -1.58807620e-06 -1.36146775e-06
      -1.69105908e-06 -1.72414013e-06 -1.58390708e-06 -1.50906783e-06
      -1.06006780e-06 -4.02070668e-07 2.38429692e-07 1.46898799e-07
      4.68662478e-08 1.51385919e-07 -2.32628324e-07 -1.05932443e-07
      5.91527282e-07 1.23055884e-06 1.33955439e-06 1.41403166e-06
      1.73906017e-06 1.42718864e-06 1.00225031e-06 5.82515099e-07
      1.66839513e-07 -4.82195446e-07 -8.83266239e-07 -9.26793518e-07
      -7.39353482e-07 -3.90049223e-07 -2.37482212e-07 -5.73705336e-07
      -7.32345143e-07 -9.02496481e-07 -8.97268535e-07 -6.14604517e-07
      -1.05188838e-06 -1.88786407e-06 -1.98681732e-06 -2.29287343e-06
      -2.82855353e-06 -2.64420100e-06 -1.96654082e-06 -1.43936620e-06
      -1.00114835e-06 -7.77623313e-07 -5.50693585e-07 -2.60467516e-07
      -2.69785846e-06 -2.66520988e-06 -2.27753708e-06 -1.95505709e-06
      -1.72774867e-06 -1.87600392e-06 -1.91552363e-06 -1.96162659e-06
      -2.16125204e-06 -1.77846232e-06 -1.31044487e-06 -1.38301664e-06
      -1.16522290e-06 -5.75869024e-07 2.08333589e-07 4.13724848e-07
      2.98965290e-07 5.09674067e-07 1.53951646e-07 -9.33394304e-08
      5.33963998e-07 7.91681430e-07 9.19423599e-07 1.13788371e-06
      1.54955433e-06 1.51258257e-06 1.25790746e-06 1.19616209e-06
      1.21749906e-06 4.47093299e-07 -4.36671201e-07 -9.88555485e-07
      -1.22212839e-06 -1.25685347e-06 -1.31494789e-06 -1.06006553e-06
      -1.12093733e-06 -1.64622509e-06 -2.12347368e-06 -1.69347254e-06
      -1.81059943e-06 -2.57832926e-06 -2.63222296e-06 -2.87199509e-06
      -3.21880975e-06 -2.93342737e-06 -2.22412405e-06 -1.61657942e-06
      -1.17507614e-06 -9.70346377e-07 -1.07369010e-06 -1.08818188e-06
      -1.92161178e-06 -1.92599259e-06 -1.74411400e-06 -1.60448849e-06
      -1.47879825e-06 -1.50414405e-06 -1.56421504e-06 -1.80961945e-06
      -2.60771549e-06 -2.39947144e-06 -1.69777650e-06 -1.47917001e-06
      -1.35637970e-06 -8.50173478e-07 -2.33966205e-07 2.87318301e-07
      6.38753988e-07 7.44793340e-07 4.77131152e-07 1.30712948e-07
      4.19349817e-07 4.08430026e-07 4.41578152e-07 7.60636965e-07
      1.07178846e-06 9.02424972e-07 5.21321454e-07 7.09871586e-07
      9.74488216e-07 5.64946617e-07 1.49038655e-07 -5.98597694e-07
      -1.38638518e-06 -1.57358852e-06 -1.72417549e-06 -1.26198665e-06
      -9.31712634e-07 -1.72804675e-06 -2.56726594e-06 -2.40615668e-06
      -2.20709398e-06 -2.73700039e-06 -2.87833973e-06 -2.85930673e-06
      -3.21356879e-06 -2.93053813e-06 -2.43912586e-06 -1.62565357e-06
      -1.07970379e-06 -8.96900531e-07 -1.24201335e-06 -1.36292772e-06
      -1.16820092e-06 -1.48262882e-06 -1.70070928e-06 -1.81882547e-06
      -1.62538231e-06 -1.40051429e-06 -1.38779922e-06 -1.36898666e-06
      -2.07363314e-06 -2.43964314e-06 -1.79473147e-06 -1.33346771e-06
      -8.68292830e-07 -4.90102650e-07 -1.51912758e-07 3.19995280e-07
      1.03707316e-06 1.54595705e-06 1.19267520e-06 4.63171489e-07
      1.74305441e-07 2.07519705e-07 3.38500058e-07 5.69264216e-07
      6.18475951e-07 4.60719320e-07 2.57258876e-07 3.71198439e-07
      7.38830920e-07 7.26811834e-07 5.51937262e-07 5.08056139e-08
      -5.34032495e-07 -5.34430853e-07 -4.95486063e-07 -3.69252973e-07
      -1.17587184e-07 -1.02566378e-06 -2.22273070e-06 -2.25821191e-06
      -2.00970339e-06 -2.27686155e-06 -2.31170202e-06 -2.30467072e-06
      -2.87647549e-06 -2.79310734e-06 -2.32429693e-06 -1.74451634e-06
      -1.00167358e-06 -6.05103367e-07 -7.35025310e-07 -8.84560393e-07
      -7.89333740e-07 -1.38827659e-06 -2.03873697e-06 -2.47311573e-06
      -2.27344162e-06 -1.79326787e-06 -1.46793036e-06 -1.32182151e-06
      -1.84278667e-06 -2.05504557e-06 -1.47610285e-06 -9.52806658e-07
      -2.66875020e-07 2.95253670e-07 5.18073136e-07 8.33755337e-07
      1.45623005e-06 2.08071879e-06 1.96004703e-06 1.06061236e-06
      3.05433758e-07 2.23904152e-07 3.14634832e-07 4.79318487e-07
      3.97467005e-07 2.05034780e-07 1.48682290e-07 2.37265752e-07
      5.63506319e-07 7.66262815e-07 8.83789653e-07 6.08391531e-07
      1.63232485e-07 3.87724697e-07 7.76321031e-07 9.54881443e-07
      1.03584784e-06 3.28510623e-07 -9.36612537e-07 -1.23638995e-06
      -1.23807501e-06 -1.50269409e-06 -1.73179490e-06 -1.82269991e-06
      -2.30020441e-06 -2.52641826e-06 -2.17145248e-06 -1.71186070e-06
      -1.05375148e-06 -4.82227335e-07 -2.27573423e-07 -1.59268623e-07
      -9.63983666e-07 -1.34013942e-06 -2.19021877e-06 -2.89819332e-06
      -2.82972519e-06 -2.38329881e-06 -2.00919430e-06 -1.76297863e-06
      -2.08923416e-06 -2.08797883e-06 -1.40428676e-06 -6.37995640e-07
      4.40566836e-08 6.82795644e-07 9.71011673e-07 1.13203021e-06
      1.54397173e-06 2.00637351e-06 2.07144149e-06 1.42970839e-06
      7.41744032e-07 4.72230255e-07 3.27150076e-07 2.70425289e-07
      1.21905330e-07 -1.99379375e-08 9.42596117e-08 2.42041381e-07
      4.72859853e-07 5.94983419e-07 8.20563400e-07 7.63525350e-07
      3.15842016e-07 4.00542092e-07 1.00641478e-06 1.48130130e-06
      1.35488938e-06 8.83333257e-07 -4.20589323e-08 -3.35391690e-07
      -5.01036197e-07 -8.49030243e-07 -1.01610829e-06 -1.41190401e-06
      -2.05318293e-06 -2.30454998e-06 -2.17571119e-06 -1.77022275e-06
      -1.21778362e-06 -5.84100860e-07 -2.30982550e-07 1.46774468e-08
      -3.72038755e-07 -2.19683017e-07 2.09247986e-07 4.46282087e-07
      2.81814380e-07 -4.99843615e-08 -3.50773234e-07 -3.80583373e-07
      -4.03256109e-07 -4.91876619e-07 -6.38827032e-07 -4.40271947e-07
      -4.26065526e-07 -3.11979534e-07 1.43588545e-08 -3.02812531e-08
      -2.90275779e-07 -3.02315925e-07 -1.80164804e-07 -8.75750459e-08
      -1.52987969e-08 -7.86291352e-08 -1.22593406e-07 -2.32392793e-07
      -3.96060784e-07 -4.84427858e-07 -3.53033499e-07 -1.48983844e-07
      -5.44406298e-08 -5.23778795e-07 -9.43097518e-07 -8.24218034e-07
      -3.68238176e-07 -1.06067112e-07 -1.01426238e-07 -2.05183085e-07
      -3.28681779e-07 -1.24884082e-07 -1.62038731e-07 -2.58286150e-07
      -1.61536775e-07 -1.64303543e-07 -7.69171464e-08 -6.61687167e-08
      4.83018177e-08 3.37084941e-07 3.81855330e-07 1.07140295e-07
      1.22769261e-08 1.85751674e-07 2.97356934e-07 3.32693986e-07
      -2.40080738e-07 -3.35077090e-07 -5.43729151e-08 3.20649292e-07
      3.58997056e-07 1.91582970e-07 -1.53329637e-07 -3.50196245e-07
      -2.18972303e-07 -2.17254822e-07 -3.72752538e-07 -4.10359320e-07
      -1.38944301e-07 -2.30871805e-07 -4.77603557e-08 2.30050233e-07
      4.42890205e-08 -3.54043976e-07 -4.47887430e-07 -4.07755920e-07
      -2.64839258e-07 -2.67675773e-07 -3.34317264e-07 -3.47109335e-07
      -3.97747584e-07 -5.64889717e-07 -5.70408531e-07 -4.83542578e-07
      -2.02222608e-07 -1.40845145e-07 -6.12435031e-07 -9.81098424e-07
      -6.98933775e-07 -3.54666128e-07 -1.21344925e-07 -1.36902528e-07
      -4.92252127e-07 -5.74561966e-07 -4.21691766e-07 -4.69824016e-07
      -4.28056239e-07 -2.55432781e-07 -1.49922982e-07 -9.83645592e-08
      -8.03586475e-10 3.05987498e-07 6.24913923e-07 2.87898928e-07
      -2.72624572e-08 -3.67381396e-08 1.73692868e-07 2.99510390e-07
      -1.34621736e-08 -1.91377225e-07 -1.40096645e-07 1.73992376e-07
      2.79926070e-07 1.91042275e-07 4.46589112e-08 -1.54165164e-07
      -2.15514717e-07 -4.63998795e-08 1.32425013e-08 -1.65438209e-07
      -4.97651413e-08 8.99734758e-08 -3.50657592e-09 2.09732661e-07
      2.76531125e-07 -1.17187689e-07 -5.21304230e-07 -6.24645224e-07
      -6.04894979e-07 -4.10685914e-07 -3.63227173e-07 -4.37226134e-07
      -4.40881337e-07 -5.37425535e-07 -6.49499384e-07 -6.95659764e-07
      -6.38009169e-07 -3.18777666e-07 -3.32506204e-07 -7.12129463e-07
      -1.01894227e-06 -7.68286441e-07 -4.39326271e-07 -2.03579944e-07
      -3.98830338e-07 -7.76822219e-07 -7.82456823e-07 -5.36640812e-07
      -4.76357542e-07 -4.20234073e-07 -7.33917815e-08 -5.82942512e-08
      6.31913792e-08 3.14134098e-07 6.34890569e-07 6.78358901e-07
      9.53385921e-08 -1.32428127e-07 -1.13327367e-07 1.37991591e-07
      1.04059659e-07 1.50867109e-07 3.43005055e-08 -9.43016776e-10
      1.47053314e-07 1.49036310e-07 -2.66168509e-08 -1.81132791e-07
      -2.46771492e-07 -1.44368769e-07 6.01490058e-08 7.16780519e-08
      -1.08019073e-07 6.44495088e-08 2.09029309e-07 1.48472452e-07
      2.54809834e-07 1.65453727e-07 -3.71076140e-07 -7.55283850e-07
      -8.63044420e-07 -7.22668460e-07 -4.49441501e-07 -3.40317115e-07
      -4.14142335e-07 -4.34535849e-07 -5.48680134e-07 -6.59253544e-07
      -8.30335978e-07 -7.50592051e-07 -4.60021027e-07 -5.19058744e-07
      -8.75650528e-07 -1.05255049e-06 -7.73607155e-07 -4.81598818e-07
      -4.46583670e-07 -7.00742135e-07 -9.74467298e-07 -7.72395651e-07
      -3.65962507e-07 -2.49014448e-07 -1.61908673e-07 3.35579458e-08
      2.27938088e-07 5.07581206e-07 6.45346915e-07 8.07203946e-07
      3.52173544e-07 -1.48139293e-07 -2.94872166e-07 -2.69642555e-07
      -1.25770782e-07 1.99487630e-07 3.60505453e-07 1.60972789e-07
      1.65601008e-08 3.40017259e-08 -6.00294712e-08 -1.61229508e-07
      -2.46631515e-07 -1.97715508e-07 -3.46019497e-08 1.04432488e-07
      -2.59732946e-08 -5.81776938e-08 1.38550845e-07 2.60593396e-07
      2.99527841e-07 3.15488563e-07 1.28363782e-08 -5.52938218e-07
      -9.31756517e-07 -9.37515551e-07 -7.31035811e-07 -5.08228936e-07
      -3.87131820e-07 -3.79159928e-07 -4.08271291e-07 -5.04657692e-07
      -6.75815443e-07 -8.80748303e-07 -7.79774552e-07 -5.32464355e-07
      -5.16401940e-07 -8.90096089e-07 -9.31763225e-07 -6.88514433e-07
      -5.49333890e-07 -7.16492139e-07 -9.71373652e-07 -1.00510090e-06
      -5.55184727e-07 -4.61542946e-08 -4.91098504e-08 -9.55424113e-08
      2.16662642e-07 7.12288738e-07 8.51249695e-07 7.90174283e-07
      4.74857103e-07 -8.72746426e-08 -4.33471229e-07 -5.05907053e-07
      -2.96690814e-07 -1.11459400e-07 2.60388560e-07 4.26670596e-07
      7.04926393e-08 -1.99357089e-07 -2.44985500e-07 -2.64618990e-07
      -2.32601906e-07 -1.55601384e-07 5.25839727e-09 2.39321594e-07
      7.78145193e-08 3.33954304e-08 1.00844964e-07 2.70030938e-07
      4.09108935e-07 4.86350245e-07 4.07157358e-07 -2.30820838e-08
      -4.77462038e-07 -8.57856435e-07 -8.12980034e-07 -7.27068027e-07
      -5.56302041e-07 -3.45548528e-07 -3.36910404e-07 -2.89565037e-07
      -3.72302821e-07 -6.48249852e-07 -8.09589380e-07 -6.92611707e-07
      -4.86151691e-07 -5.30525369e-07 -7.73435318e-07 -7.69822691e-07
      -5.52232734e-07 -6.04631623e-07 -9.06114963e-07 -1.03431046e-06
      -7.46592548e-07 -2.23835855e-07 -2.53288812e-09 -1.05128088e-07
      2.62090492e-08 4.47295207e-07 8.46226555e-07 8.18610829e-07
      4.53587973e-07 -3.49416922e-08 -4.93137918e-07 -7.66631445e-07
      -8.98903991e-08 -3.64285910e-07 -7.79502969e-08 1.77209046e-07
      2.63476238e-07 -2.22137984e-07 -4.56486418e-07 -3.94674373e-07
      -2.32081433e-07 -1.83434238e-07 -6.24155803e-08 3.72168387e-07
      3.72367822e-07 1.40402847e-07 2.33026867e-07 4.56875966e-07
      4.80296080e-07 5.04881257e-07 5.61476213e-07 3.06347971e-07
      8.11263448e-08 -2.67345882e-07 -5.79432708e-07 -6.24406425e-07
      -5.63092271e-07 -4.50350313e-07 -2.26256475e-07 -2.00228882e-07
      -1.72350497e-07 -3.01967219e-07 -5.65704283e-07 -5.89263777e-07
      -4.66642234e-07 -4.30030752e-07 -5.05864364e-07 -6.56139150e-07
      -6.25489747e-07 -4.46077223e-07 -6.02952809e-07 -7.93949198e-07
      -6.94664607e-07 -3.95428998e-07 -2.33281483e-07 -1.02223375e-07
      -1.00456269e-07 6.40852846e-08 5.26448389e-07 7.51545997e-07
      5.22225491e-07 1.19528593e-07 -3.71560191e-07 -6.92435435e-07
      3.28756755e-07 -1.61279246e-07 -3.08038210e-07 -2.43945777e-07
      -1.26876486e-07 -2.58117694e-07 -4.76311328e-07 -5.22530684e-07
      -1.84750363e-07 -5.75021559e-08 -1.76128083e-07 5.52300605e-08
      4.88805938e-07 3.57879571e-07 1.76271143e-07 4.24409222e-07
      6.91338414e-07 5.25888424e-07 3.88350998e-07 3.02442459e-07
      5.90614846e-08 1.27267768e-07 -1.50981180e-07 -4.42344600e-07
      -5.06268066e-07 -5.23057906e-07 -3.54257452e-07 -8.48020107e-08
      -8.52992201e-08 -1.35477620e-07 -3.34474748e-07 -5.08274525e-07
      -3.92277457e-07 -1.55603004e-07 -2.12100019e-07 -3.75332490e-07
      -4.55077668e-07 -4.19408877e-07 -3.55160125e-07 -4.80417270e-07
      -5.45603541e-07 -5.12254644e-07 -3.06992945e-07 -2.98180481e-07
      -8.65675673e-08 -7.86714480e-08 1.94670278e-07 6.08954451e-07
      5.78214213e-07 1.97173932e-07 -9.01377675e-08 -3.93082161e-07
      4.42210109e-07 4.15456576e-08 -2.63950341e-07 -4.99734881e-07
