<?xml version="1.0"?>
<opencv_storage>
<my_svm type_id="opencv-ml-svm">
  <svm_type>C_SVC</svm_type>
  <kernel><type>LINEAR</type></kernel>
  <C>1.</C>
  <term_criteria><epsilon>2.2204460492503131e-16</epsilon>
    <iterations>1000000</iterations></term_criteria>
  <var_all>108160</var_all>
  <var_count>108160</var_count>
  <class_count>2</class_count>
  <class_labels type_id="opencv-matrix">
    <rows>1</rows>
    <cols>2</cols>
    <dt>i</dt>
    <data>
      0 1</data></class_labels>
  <sv_total>1</sv_total>
  <support_vectors>
    <_>
      -9.49355297e-07 -1.33129436e-06 -2.41336920e-06 -3.77731794e-06
      -4.80144854e-06 -4.87826946e-06 -4.69229008e-06 -3.81932887e-06
      -2.99759336e-06 -2.63185620e-06 -2.31388572e-06 -2.26555903e-06
      -1.91058962e-06 -1.59422427e-06 -8.03182161e-07 1.48630930e-08
      4.82269456e-07 6.07792117e-07 5.08571532e-07 2.85819851e-07
      -1.49425375e-07 -7.26723385e-07 -1.01581782e-06 -1.21611095e-06
      -1.47763001e-06 -1.52467749e-06 -1.34315303e-06 -1.11280713e-06
      -8.18707917e-07 -7.60728255e-07 -1.01751459e-06 -1.23990731e-06
      -1.42140163e-06 -1.77688923e-06 -2.49031200e-06 -3.32609102e-06
      -4.14862006e-06 -4.55262534e-06 -4.34607591e-06 -4.03101558e-06
      -3.12868656e-06 -1.85413762e-06 -4.61442596e-07 2.16205152e-08
      5.72686986e-07 1.11674080e-06 1.18825631e-06 8.34386071e-07
      4.95431856e-08 -4.60690188e-07 -5.66781466e-07 -5.81965480e-07
      -1.02803949e-06 -1.17348975e-06 -1.50972767e-06 -1.73907642e-06
      -1.46556010e-06 -7.79371533e-07 1.74664962e-07 1.04564685e-06
      1.59536569e-06 1.64202322e-06 1.25879421e-06 6.58698582e-07
      -6.76031604e-08 -5.33547620e-07 -6.26161750e-07 -2.00780249e-07
      2.12996653e-07 5.12837971e-07 6.13732198e-07 5.47742559e-07
      3.41825171e-07 6.36534381e-08 -1.29694484e-07 -1.39660017e-07
      4.72976502e-08 4.45602751e-07 8.71712302e-07 1.21770859e-06
      1.43389298e-06 1.35963944e-06 9.63982870e-07 3.52949286e-07
      -4.20967353e-07 -1.17757668e-06 -1.84623229e-06 -2.32331035e-06
      -2.52759764e-06 -2.40823783e-06 -2.04257890e-06 -1.31870149e-06
      -3.57738770e-07 4.82554526e-07 1.18163564e-06 1.79448989e-06
      2.17493994e-06 2.19400977e-06 1.80436768e-06 1.23685481e-06
      6.63200581e-07 1.85966542e-07 -7.50576064e-08 -1.39603330e-07
      -6.46939327e-07 -4.46868853e-07 1.77929692e-07 1.32926016e-06
      2.85122633e-06 4.46493914e-06 5.88741568e-06 6.83928420e-06
      7.25913742e-06 7.03512478e-06 6.19587991e-06 4.98527061e-06
      3.80750998e-06 2.84908424e-06 2.25320537e-06 1.99123360e-06
      2.00267368e-06 2.00011527e-06 1.80331710e-06 1.58698390e-06
      1.26288421e-06 8.48785248e-07 7.15520798e-07 8.48927868e-07
      1.17097716e-06 1.48627294e-06 1.62513368e-06 1.59154320e-06
      1.45106003e-06 1.17911964e-06 8.35486219e-07 3.51624152e-07
      -2.39392705e-07 -7.09714868e-07 -6.68952339e-07 -2.32874896e-07
      3.43994714e-07 1.05606216e-06 1.89195543e-06 2.71420868e-06
      3.41493501e-06 3.87723594e-06 4.32344223e-06 4.68205781e-06
      4.78002812e-06 4.49498930e-06 3.87050159e-06 3.04545415e-06
      2.32019283e-06 1.79648555e-06 1.45970432e-06 1.36965571e-06
      2.16402009e-06 2.19394542e-06 2.25433723e-06 2.49857385e-06
      2.94363031e-06 3.03832576e-06 3.05006483e-06 2.79485243e-06
      2.40349095e-06 1.87656804e-06 1.25235101e-06 5.80757956e-07
      4.10199377e-08 -1.68393754e-07 4.67443018e-09 4.26581494e-07
      1.25148244e-06 1.99833266e-06 2.47879234e-06 2.23860411e-06
      1.79054518e-06 1.34437437e-06 9.92797595e-07 7.35383765e-07
      4.85697171e-07 4.50879512e-08 -4.40645636e-07 -8.62014872e-07
      -1.05843424e-06 -8.42500810e-07 -2.12641410e-07 5.51724838e-07
      1.46096488e-06 2.27230385e-06 2.88834667e-06 2.97109477e-06
      2.75334878e-06 2.45244382e-06 2.09837299e-06 1.58566684e-06
      1.23133691e-06 1.69664747e-06 2.38833172e-06 2.95978839e-06
      3.41280611e-06 3.65735150e-06 3.59497790e-06 3.29186514e-06
      2.91540118e-06 2.49613117e-06 2.15096907e-06 2.02839647e-06
      2.17214087e-08 -1.05991369e-07 -3.39024751e-07 -1.94060647e-07
      -8.33261311e-07 -1.83705367e-06 -2.88440970e-06 -3.96453788e-06
      -4.93719790e-06 -5.68869746e-06 -5.99186660e-06 -5.70397151e-06
      -5.16988848e-06 -4.55337567e-06 -3.80405368e-06 -2.96432881e-06
      -1.98372049e-06 -9.64504352e-07 -7.86075915e-08 6.77802802e-07
      1.32605578e-06 1.41732573e-06 9.88814350e-07 5.81318943e-07
      1.62648973e-07 -3.59370802e-07 -6.72262956e-07 -7.31786088e-07
      -5.34473202e-07 2.29213715e-09 8.64390017e-07 1.88645413e-06
      2.84475618e-06 3.13276587e-06 3.11264012e-06 2.96545045e-06
      2.61517062e-06 1.85884073e-06 9.72956059e-07 1.00783559e-07
      -4.62942324e-07 -9.17918157e-07 -1.27097712e-06 -1.40058160e-06
      -1.17618436e-06 -7.53941663e-07 -4.59461660e-07 -3.81002366e-07
      -5.24111385e-07 -7.83708970e-07 -1.01111880e-06 -1.13804640e-06
      -2.29755096e-06 -2.12893519e-06 -1.65489826e-06 -1.37742677e-06
      -1.80042480e-06 -2.70965006e-06 -3.53413679e-06 -4.20271499e-06
      -4.57146734e-06 -4.71856038e-06 -4.86795807e-06 -5.02127205e-06
      -5.00938768e-06 -4.72677993e-06 -4.25347571e-06 -3.78787058e-06
      -3.22964593e-06 -2.37349991e-06 -1.22112021e-06 9.95108849e-08
      1.14393390e-06 1.51427128e-06 8.06006767e-07 -2.65307051e-07
      -1.16534170e-06 -1.61002311e-06 -1.89749005e-06 -2.07657604e-06
      -2.06456730e-06 -1.84480268e-06 -1.24731957e-06 -5.70506188e-07
      1.86700262e-07 8.05550599e-07 1.24315704e-06 1.61082505e-06
      1.53197902e-06 1.09795781e-06 6.35427511e-07 3.70545798e-08
      -6.38674976e-07 -1.04179935e-06 -1.10831945e-06 -9.79776473e-07
      -9.02683439e-07 -1.15278294e-06 -1.70177816e-06 -2.35576408e-06
      -2.79843925e-06 -2.92491131e-06 -2.93613630e-06 -2.96945109e-06
      -1.74399622e-06 -1.45920797e-06 -7.96736629e-07 -1.55656267e-07
      -3.07156938e-07 -1.14780141e-06 -1.86114380e-06 -2.05598189e-06
      -1.61875414e-06 -1.05317565e-06 -7.53036204e-07 -7.89412638e-07
      -1.17691548e-06 -2.17593697e-06 -3.22974324e-06 -3.75011246e-06
      -3.64598691e-06 -2.80814720e-06 -1.31887816e-06 5.86330827e-07
      2.33596802e-06 2.84701559e-06 2.53700023e-06 2.29053580e-06
      2.02694036e-06 1.79365350e-06 1.51768847e-06 1.28886882e-06
      1.01254159e-06 6.71797693e-07 2.82450543e-07 1.01519673e-08
      5.65929597e-08 5.13575060e-07 6.35701952e-07 4.81616553e-07
      1.77207767e-07 1.27635658e-07 1.42994750e-07 4.38460745e-07
      1.05527397e-06 1.86380339e-06 2.48452079e-06 2.67149585e-06
      2.53004123e-06 1.85419253e-06 7.19619891e-07 -7.32513399e-07
      -2.07717221e-06 -3.08397557e-06 -3.36364951e-06 -3.42884869e-06
      2.96832172e-06 2.96150097e-06 2.79255346e-06 2.13961175e-06
      8.45191494e-07 -6.30335421e-07 -1.41540590e-06 -1.27346107e-06
      -7.63018818e-07 -1.27545178e-07 2.05644270e-07 1.15281580e-07
      -4.85996736e-07 -1.62362039e-06 -3.01471573e-06 -4.01459874e-06
      -4.01128955e-06 -3.40308975e-06 -2.26161615e-06 -1.00838577e-06
      -1.46013036e-07 4.96761139e-08 2.23175164e-07 2.26454844e-07
      1.12476961e-08 -2.66308149e-07 -4.69602838e-07 -5.44238674e-07
      -2.99591107e-07 -4.12030303e-08 1.74900663e-07 2.85781567e-07
      2.81897229e-07 6.20638104e-07 8.88391924e-07 6.13539328e-07
      2.42918475e-07 -6.31675050e-07 -1.38041526e-06 -1.36044673e-06
      -5.30473642e-07 8.19998832e-07 2.47031494e-06 3.89512070e-06
      4.37844164e-06 3.82137978e-06 2.99973499e-06 1.68926726e-06
      -9.72159953e-08 -1.75137552e-06 -2.81963321e-06 -3.18039883e-06
      2.45364845e-07 1.60725179e-07 -5.66381466e-08 -4.08008788e-07
      -7.76754575e-07 -6.95870597e-07 -1.10678684e-07 6.99466966e-07
      1.68811357e-06 2.33790547e-06 2.26610405e-06 1.37819666e-06
      -1.23140993e-07 -2.07683934e-06 -3.97612803e-06 -5.09152369e-06
      -5.25798623e-06 -4.78268066e-06 -3.91484355e-06 -2.70934424e-06
      -1.79514075e-06 -1.32816388e-06 -1.31386821e-06 -1.26908719e-06
      -1.02075921e-06 -8.82902896e-07 -9.07393712e-07 -9.19967590e-07
      -8.35430399e-07 -7.04649040e-07 -5.49399260e-07 -3.65459499e-07
      -3.14328787e-07 -2.07942549e-07 -2.10622858e-07 -4.08123213e-07
      -1.23364498e-06 -2.02396723e-06 -2.35496259e-06 -2.30060436e-06
      -1.65193910e-06 -8.02887087e-07 -1.63339593e-07 8.90839900e-08
      -2.17550564e-08 -3.50435670e-07 -8.53264225e-07 -1.42242561e-06
      -1.82683516e-06 -2.20614106e-06 -2.42747228e-06 -2.54101701e-06
      -2.80788345e-06 -2.67198448e-06 -2.29860507e-06 -1.76919525e-06
      -1.25256031e-06 -2.25158743e-07 9.50648712e-07 2.18266587e-06
      3.65759638e-06 4.44079524e-06 4.12059353e-06 2.69231418e-06
      6.67264999e-07 -1.49015239e-06 -3.19064679e-06 -3.81599602e-06
      -3.94417111e-06 -3.58338821e-06 -2.78462426e-06 -1.82869258e-06
      -1.29393538e-06 -1.13530746e-06 -1.21453434e-06 -1.22734889e-06
      -1.09938935e-06 -9.23120410e-07 -9.06109562e-07 -9.87622457e-07
      -1.26470138e-06 -1.69883617e-06 -2.11370457e-06 -2.39104952e-06
      -2.65212475e-06 -2.72780449e-06 -2.84338716e-06 -2.75897605e-06
      -2.74236891e-06 -2.79285655e-06 -2.52013842e-06 -1.92316702e-06
      -1.58050921e-06 -1.11853603e-06 -7.92092408e-07 -7.11453538e-07
      -8.59949182e-07 -1.24951077e-06 -1.95944290e-06 -2.71374370e-06
      -3.35749110e-06 -3.80390020e-06 -3.97009353e-06 -4.00180397e-06
      -4.33835687e-08 1.13428534e-07 4.02922524e-07 1.02899730e-06
      1.78254732e-06 2.39215797e-06 2.92606228e-06 3.35557047e-06
      3.80254164e-06 3.83351789e-06 3.22837673e-06 2.10230837e-06
      6.95853146e-07 -4.73253891e-07 -1.18141168e-06 -1.49264088e-06
      -1.36372432e-06 -8.47097454e-07 -1.65223231e-08 8.50411823e-07
      9.37638333e-07 4.95574227e-07 2.30497221e-08 -3.85802224e-07
      -6.49719425e-07 -7.88635987e-07 -8.47381671e-07 -9.23418554e-07
      -1.05428194e-06 -1.20605534e-06 -1.36491929e-06 -1.43451246e-06
      -1.18305900e-06 -1.28859358e-06 -1.82695294e-06 -2.13861540e-06
      -2.50126027e-06 -2.90309390e-06 -2.75365187e-06 -1.92201446e-06
      -9.12942141e-07 2.19439002e-07 1.07779158e-06 1.23730092e-06
      1.05117203e-06 5.91637104e-07 -4.04397582e-07 -1.47600042e-06
      -2.34645108e-06 -2.79214828e-06 -3.10108840e-06 -3.18950038e-06
      4.03272588e-06 4.11545534e-06 3.96883615e-06 3.67203620e-06
      3.48266894e-06 3.49698780e-06 3.41366058e-06 3.32724085e-06
      3.09347297e-06 2.54592123e-06 1.67923793e-06 7.25077086e-07
      -1.21003225e-07 -8.28927682e-07 -1.42393299e-06 -1.71932845e-06
      -1.76614674e-06 -1.61198238e-06 -1.03001059e-06 -4.34035456e-07
      -1.20274962e-07 1.27541595e-08 1.23804654e-07 3.99806140e-07
      7.32985654e-07 9.33172203e-07 1.07580843e-06 8.82030747e-07
      5.35222455e-07 1.82382848e-07 -1.52997245e-07 -4.31824958e-07
      -6.22730113e-07 -8.56674376e-07 -1.04043795e-06 -1.59064041e-06
      -1.98178327e-06 -2.44396551e-06 -3.00807233e-06 -3.40256474e-06
      -3.15615466e-06 -2.12083387e-06 -1.09304517e-06 -6.15601436e-07
      -8.24717915e-07 -1.38308508e-06 -1.42043109e-06 -8.32630064e-07
      -1.99042091e-07 7.92050855e-07 1.44302749e-06 1.63593302e-06
      3.10634005e-06 3.03818115e-06 2.41210523e-06 2.01969078e-06
      2.81991561e-06 2.84677640e-06 2.37568065e-06 1.93068104e-06
      1.43319926e-06 1.21174662e-06 1.00770137e-06 7.88613477e-07
      4.54876783e-07 2.19925496e-07 3.00280583e-08 5.84834652e-08
      1.41212567e-07 1.08838570e-07 1.43324641e-07 -8.61860840e-08
      -4.63013720e-07 -4.48088429e-07 1.04878751e-07 8.84685107e-07
      1.33074741e-06 1.51995562e-06 1.50073834e-06 1.28291515e-06
      9.07248534e-07 3.96070618e-07 -3.00799847e-08 -2.26122467e-07
      -4.64192283e-07 -5.08577841e-07 -4.41200058e-07 -9.54642928e-07
      -1.84653413e-06 -2.70398436e-06 -3.49052357e-06 -4.31997887e-06
      -4.62487969e-06 -4.22996300e-06 -3.59878254e-06 -3.21131802e-06
      -3.02911167e-06 -2.86218278e-06 -2.33167407e-06 -1.29237128e-06
      5.34493196e-08 1.61908292e-06 2.90837534e-06 3.41557302e-06
      3.15727334e-06 3.07609366e-06 2.71258227e-06 2.18058608e-06
      1.61537457e-06 9.11325003e-07 -3.45368164e-07 -1.61078663e-06
      -2.87089279e-06 -3.74651154e-06 -4.34850517e-06 -4.51765254e-06
      -4.32501520e-06 -3.69330360e-06 -2.74673130e-06 -1.32931314e-06
      1.72029345e-07 1.17872958e-06 1.62045649e-06 2.08933147e-06
      2.18871878e-06 2.15023397e-06 1.90387857e-06 1.48810466e-06
      1.27463079e-06 1.11252302e-06 7.85167572e-07 3.95418795e-07
      -8.56479065e-09 -3.86441656e-07 -5.04710101e-07 -3.94186742e-07
      -6.49851861e-09 8.19863146e-07 1.54914528e-06 1.52369046e-06
      6.19468835e-07 -6.85172608e-07 -2.11105203e-06 -3.54639451e-06
      -4.60917363e-06 -5.05074422e-06 -5.41905774e-06 -5.68149153e-06
      -5.96061818e-06 -5.82863413e-06 -4.46809963e-06 -2.28459839e-06
      1.26319478e-07 1.88264744e-06 2.76948890e-06 3.10694645e-06
      4.26815996e-06 4.53753046e-06 4.92175332e-06 4.75506658e-06
      3.64014795e-06 2.03471882e-06 3.97212204e-07 -9.31954276e-07
      -2.00345175e-06 -2.18725791e-06 -1.84218516e-06 -1.18327694e-06
      -8.21067260e-07 -9.77144282e-07 -1.14035936e-06 -1.34671996e-06
      -1.13512374e-06 -5.05077992e-07 8.61398206e-08 4.50607786e-07
      4.43448471e-07 4.64007115e-07 6.39642053e-07 6.11329426e-07
      3.67933552e-07 1.63895436e-07 1.37955155e-07 1.58815041e-07
      1.09759050e-07 1.87566727e-07 3.36009521e-07 6.86189992e-07
      1.03465095e-06 1.26906991e-06 1.38939026e-06 1.38798453e-06
      8.58146961e-07 -1.01670373e-07 -1.49139669e-06 -3.06870061e-06
      -4.44330044e-06 -5.40812243e-06 -6.24232143e-06 -7.07597519e-06
      -7.78566755e-06 -7.87070894e-06 -6.41305405e-06 -3.81064456e-06
      -9.61479600e-07 9.84833946e-07 1.83740246e-06 2.15573232e-06
      2.93963103e-06 2.92320397e-06 2.91041783e-06 2.88020874e-06
      2.12050304e-06 1.09710459e-06 1.07110232e-07 -9.70872065e-07
      -9.77269337e-07 -2.75088667e-07 3.52793649e-07 7.35551566e-07
      6.95321091e-07 1.61604405e-07 -6.55051622e-07 -1.22763868e-06
      -1.16723288e-06 -8.36322670e-07 -4.57421834e-07 4.25424176e-08
      7.78852609e-07 1.04251842e-06 6.12449128e-07 2.95409226e-08
      -4.81684765e-07 -9.06316984e-07 -1.10052963e-06 -1.06790981e-06
      -9.65852678e-07 -7.88116211e-07 -5.14712440e-07 -1.16461749e-07
      1.65509121e-07 4.11553827e-07 6.24930465e-07 8.11973962e-07
      1.10372218e-06 1.13087776e-06 1.21778419e-06 1.39767599e-06
      1.64605115e-06 1.84266014e-06 1.77156221e-06 1.50391077e-06
      5.65543075e-07 -3.03961457e-07 -6.83304222e-07 -6.77447474e-07
      -4.80948188e-07 -4.85497367e-07 -5.75083959e-07 -5.05392165e-07
      8.62614229e-07 6.39426389e-07 2.08287446e-07 -4.81961990e-07
      -1.33561639e-06 -2.38373650e-06 -3.20763752e-06 -3.70454154e-06
      -4.19582011e-06 -3.92552647e-06 -3.03503884e-06 -2.18579248e-06
      -1.72625960e-06 -1.44916351e-06 -1.12346834e-06 -6.39215898e-07
      9.95385108e-08 8.94162497e-07 1.46637808e-06 1.63932702e-06
      1.36249776e-06 6.27195902e-07 6.58929222e-09 -3.73669508e-07
      -6.55936276e-07 -9.01826468e-07 -1.05139736e-06 -1.06420157e-06
      -9.49626042e-07 -7.40771895e-07 -4.23714852e-07 -1.10356588e-07
      2.46705071e-07 6.27360805e-07 7.76759748e-07 6.91800494e-07
      7.33318927e-07 8.85414977e-07 1.29007810e-06 2.17018783e-06
      3.48690355e-06 4.62454500e-06 5.30549642e-06 5.48993421e-06
      5.22685923e-06 4.48718038e-06 3.38413179e-06 2.36852293e-06
      1.87821718e-06 1.09650568e-06 6.23914161e-07 4.92860920e-07
      6.38909853e-07 5.01006753e-07 1.39398466e-07 -4.48089452e-07
      -1.15243904e-06 -1.72569776e-06 -1.78714640e-06 -1.38195708e-06
      -8.50115285e-08 1.27525323e-06 2.13089993e-06 3.01184764e-06
      3.82261078e-06 4.20177275e-06 4.14706892e-06 4.19364369e-06
      4.37738436e-06 3.67667849e-06 2.91809579e-06 2.05393440e-06
      1.20801315e-06 5.59348848e-07 1.06348338e-07 -7.07828463e-08
      -8.06325957e-08 -4.28437481e-08 8.22567969e-08 2.00422392e-07
      3.99934095e-07 6.71200667e-07 9.19129036e-07 1.11804945e-06
      1.47542562e-06 2.03372770e-06 2.72122452e-06 2.92416439e-06
      2.86934801e-06 2.85083456e-06 2.64848813e-06 2.53835401e-06
      2.54273027e-06 2.54563065e-06 2.44538455e-06 2.09496375e-06
      1.72782916e-06 1.53952726e-06 1.23733446e-06 1.07707785e-06
      1.09492885e-06 9.56950998e-07 7.03300714e-07 6.09549545e-07
      -4.82167479e-07 -3.50760985e-07 6.46827516e-08 7.77787989e-07
      1.53661210e-06 2.10113762e-06 2.18178707e-06 1.71477575e-06
      8.27011263e-07 1.82606726e-07 4.01335427e-08 3.61979801e-07
      1.06822881e-06 1.80169218e-06 2.02854130e-06 1.70209557e-06
      1.13037061e-06 5.80221581e-07 9.99912046e-08 -2.50434084e-07
      -5.21495963e-07 -6.91106152e-07 -7.12206088e-07 -6.95338827e-07
      -6.56026145e-07 -6.21357231e-07 -6.15181420e-07 -6.00485976e-07
      -5.76160289e-07 -5.53544794e-07 -5.41548332e-07 -5.48582477e-07
      -4.13274222e-07 -1.19146002e-07 3.51004218e-07 1.01102898e-06
      1.95282473e-06 2.92500977e-06 3.74379988e-06 3.89053548e-06
      3.32548348e-06 2.49130790e-06 2.36314690e-06 2.27793862e-06
      2.07923176e-06 1.97307372e-06 2.03298555e-06 1.76327262e-06
      1.26160944e-06 1.04939693e-06 9.73438205e-07 9.48606896e-07
      2.10539966e-07 1.93834381e-07 1.90540305e-07 1.81402783e-07
      1.70540005e-07 1.76632298e-07 9.68104104e-08 -1.24413845e-07
      -5.03366778e-07 -8.84511508e-07 -1.10396263e-06 -1.13980889e-06
      -8.66741743e-07 -3.79768721e-07 1.87617317e-07 6.49449589e-07
      9.15163241e-07 1.04555295e-06 1.08296058e-06 9.89182240e-07
      7.62016100e-07 4.78690254e-07 2.11275889e-07 -9.36957676e-08
      -3.41922771e-07 -5.55047507e-07 -7.39298457e-07 -8.31936802e-07
      -8.06974128e-07 -7.12399867e-07 -5.79889729e-07 -4.84070085e-07
      -4.76920093e-07 -5.56143505e-07 -7.16234183e-07 -9.20462242e-07
      -1.06320954e-06 -8.93465597e-07 -4.56546701e-07 -3.97393549e-08
      4.60143383e-07 1.15325884e-06 1.91110939e-06 2.59180183e-06
      3.18487628e-06 3.63916774e-06 3.88559010e-06 3.90390596e-06
      3.64761377e-06 3.40580345e-06 3.24627104e-06 3.16540741e-06
      1.01868341e-06 9.60937541e-07 7.58745273e-07 4.22410295e-07
      2.16149644e-07 1.16660701e-07 4.70366004e-08 1.40613594e-07
      2.39131623e-07 2.33611885e-07 5.50172494e-08 -5.90852594e-08
      3.85033481e-08 2.84457798e-07 6.45491411e-07 1.05152458e-06
      1.36279482e-06 1.53239080e-06 1.50794676e-06 1.33191134e-06
      1.08076506e-06 7.77362231e-07 5.38126358e-07 3.65978394e-07
      2.20703100e-07 7.07110459e-08 -2.04682671e-08 -1.28978371e-07
      -2.79143791e-07 -3.72939240e-07 -4.39009284e-07 -4.17466424e-07
      -4.15371943e-07 -4.54796862e-07 -5.30606656e-07 -6.81747508e-07
      -9.67479082e-07 -1.31985530e-06 -1.71261433e-06 -1.98166231e-06
      -1.94603172e-06 -1.74815352e-06 -1.52808957e-06 -1.27939870e-06
      -9.98901896e-07 -5.65300979e-07 5.55131585e-08 7.29045041e-07
      1.31814159e-06 1.80607151e-06 2.08454298e-06 2.17704110e-06
      1.44812631e-07 1.73039325e-07 3.13649963e-07 5.64503523e-07
      9.00034195e-07 1.15298076e-06 1.21772757e-06 1.20895447e-06
      1.18180037e-06 1.15855323e-06 1.01357796e-06 7.57067880e-07
      3.22888297e-07 -2.31975136e-07 -7.97287612e-07 -1.17379614e-06
      -1.45246975e-06 -1.67720259e-06 -1.88184958e-06 -2.06624964e-06
      -2.09607970e-06 -1.95885673e-06 -1.65560823e-06 -1.23839322e-06
      -8.46955231e-07 -5.00017450e-07 -2.73467890e-07 -2.19320924e-07
      -4.28748308e-07 -7.62158493e-07 -1.11246015e-06 -1.30899730e-06
      -1.26686257e-06 -1.05956076e-06 -6.88825025e-07 -2.33184963e-07
      2.42908328e-07 6.18377612e-07 8.41844837e-07 8.30645376e-07
      7.63261596e-07 5.19260425e-07 4.25339408e-08 -5.22056155e-07
      -1.18971559e-06 -1.80589393e-06 -2.12268515e-06 -1.90067203e-06
      -1.45343142e-06 -9.96575295e-07 -6.77144669e-07 -5.68328630e-07
      -8.88230943e-07 -8.98095948e-07 -8.70172528e-07 -7.75716387e-07
      -6.07578443e-07 -3.56121092e-07 -2.27951507e-08 3.15034953e-07
      6.22275479e-07 8.18841556e-07 9.10406925e-07 7.98661063e-07
      3.80525194e-07 -1.50604976e-07 -6.67023414e-07 -1.14912211e-06
      -1.60215620e-06 -2.08130905e-06 -2.52951486e-06 -2.87518128e-06
      -3.06077004e-06 -3.05404365e-06 -2.92123741e-06 -2.64898995e-06
      -2.20758920e-06 -1.69900636e-06 -1.30079979e-06 -1.00727470e-06
      -8.37871880e-07 -8.41473593e-07 -9.83626933e-07 -1.20783682e-06
      -1.35639652e-06 -1.31918205e-06 -1.07995777e-06 -7.47460774e-07
      -4.35563948e-07 -2.43516240e-07 -1.26854701e-07 -2.68748064e-08
      5.67915173e-08 8.42176320e-08 1.16069202e-07 7.59455716e-08
      -1.48718215e-07 -5.43112208e-07 -1.02354943e-06 -1.47690605e-06
      -1.87683781e-06 -2.19002027e-06 -2.38692155e-06 -2.44154444e-06
      -1.33707579e-06 -1.32649848e-06 -1.34111940e-06 -1.34932975e-06
      -1.33172375e-06 -1.33489618e-06 -1.34340928e-06 -1.34499771e-06
      -1.33639799e-06 -1.29044975e-06 -1.08603558e-06 -8.69604833e-07
      -6.54884218e-07 -5.39051655e-07 -5.15968622e-07 -4.62460577e-07
      -3.58010936e-07 -1.79996164e-07 5.07336573e-08 2.32539236e-07
      3.33382218e-07 4.44588380e-07 5.18690911e-07 4.49192754e-07
      2.97835044e-07 8.23536013e-08 1.05037445e-08 5.48095507e-08
      2.44666666e-07 5.08828577e-07 7.93025777e-07 1.02135914e-06
      1.20028062e-06 1.26855912e-06 1.14632212e-06 8.61888623e-07
      4.84939335e-07 1.35453746e-07 -1.76816926e-07 -3.64800087e-07
      -4.19267565e-07 -4.00431617e-07 -2.54119811e-07 -1.34276974e-07
      -1.07683256e-07 -2.12867974e-07 -5.20741025e-07 -9.37313757e-07
      -1.36433357e-06 -1.74384616e-06 -2.00267550e-06 -2.07478752e-06
      6.31731666e-07 5.34758215e-07 3.15256159e-07 -6.21315692e-08
      -5.94785774e-07 -1.20625805e-06 -1.77219908e-06 -2.13369617e-06
      -2.16093781e-06 -1.83904217e-06 -1.31427907e-06 -7.44226611e-07
      -1.79705935e-07 2.54150706e-07 6.07985555e-07 8.68682434e-07
      1.09112159e-06 1.33214633e-06 1.51232598e-06 1.57718932e-06
      1.59951742e-06 1.51527991e-06 1.29785963e-06 9.11945619e-07
      4.30044764e-07 -6.98394942e-08 -4.18547472e-07 -6.74574380e-07
      -7.51877792e-07 -6.70291513e-07 -3.89223203e-07 4.50854749e-08
      5.73865464e-07 1.02772935e-06 1.33634785e-06 1.47209516e-06
      1.41128839e-06 1.12718408e-06 7.60782768e-07 3.16549489e-07
      -5.92797740e-08 -3.44041013e-07 -4.48435344e-07 -4.60459603e-07
      -3.69475316e-07 -2.17158515e-07 -1.31113310e-07 -1.41493373e-07
      -2.19742759e-07 -4.26718714e-07 -5.93861444e-07 -6.66405128e-07
      9.24144047e-07 8.29620376e-07 5.95055610e-07 1.78254297e-07
      -3.10048677e-07 -6.25033465e-07 -6.19376124e-07 -4.30972278e-07
      -1.15816569e-07 2.30838893e-07 5.17108049e-07 7.70742929e-07
      9.26517032e-07 1.01965747e-06 1.01029161e-06 8.85807651e-07
      6.18495505e-07 1.93845779e-07 -3.03966914e-07 -7.89018827e-07
      -1.17831428e-06 -1.47407536e-06 -1.61863602e-06 -1.55762757e-06
      -1.33264723e-06 -1.00516604e-06 -6.87914564e-07 -3.61597415e-07
      -1.55031159e-07 -9.42386791e-08 -1.42262735e-07 -1.81750792e-07
      -1.83740497e-07 -2.00837249e-07 -3.16712459e-07 -4.13662832e-07
      -5.35325398e-07 -3.98328723e-07 -1.32691325e-08 2.44730415e-07
      2.71065119e-07 1.34292051e-07 -1.24304634e-07 -3.81174829e-07
      -5.37271262e-07 -6.08466109e-07 -5.93599964e-07 -5.73018042e-07
      -6.31943351e-07 -8.11077996e-07 -9.94354536e-07 -1.05934589e-06
      -2.08250412e-06 -1.99428632e-06 -1.76374522e-06 -1.30235958e-06
      -6.08143125e-07 2.12433577e-07 9.26118105e-07 1.43939656e-06
      1.71259842e-06 1.72669445e-06 1.51125801e-06 1.19073752e-06
      8.51698246e-07 5.91871469e-07 3.41974726e-07 1.10330504e-07
      -1.72117339e-07 -5.73734951e-07 -1.14205795e-06 -1.74027934e-06
      -2.15742170e-06 -2.27033274e-06 -2.19839535e-06 -1.97078998e-06
      -1.57817931e-06 -1.03556749e-06 -4.60040070e-07 7.18309963e-08
      4.26334509e-07 5.28833823e-07 4.59541553e-07 3.64010219e-07
      2.98674848e-07 3.68694231e-07 5.26766371e-07 7.00864405e-07
      8.10782694e-07 9.48738375e-07 1.18926187e-06 1.52442237e-06
      2.06219829e-06 2.44460875e-06 2.54653014e-06 2.33185870e-06
      1.91552795e-06 1.35398045e-06 7.93751269e-07 2.25900720e-07
      -2.87878152e-07 -6.13742543e-07 -7.77681407e-07 -8.36384402e-07
      -8.93426886e-07 -7.05213210e-07 -2.55172949e-07 4.79292396e-07
      1.29173736e-06 2.04157482e-06 2.48186234e-06 2.58962609e-06
      2.50144376e-06 2.24432847e-06 1.91478466e-06 1.60056277e-06
      1.24452879e-06 7.72924125e-07 2.24221978e-07 -3.72022726e-07
      -1.06919640e-06 -1.76544540e-06 -2.17697584e-06 -2.12609893e-06
      -1.89547268e-06 -1.70126293e-06 -1.54250688e-06 -1.30724379e-06
      -1.06536879e-06 -8.77130901e-07 -7.29879389e-07 -6.83873736e-07
      -6.65298217e-07 -6.44953104e-07 -5.60886292e-07 -2.94226624e-07
      8.90419543e-08 4.46264238e-07 8.59661100e-07 1.24345388e-06
      1.42914246e-06 1.42388501e-06 1.40674467e-06 1.39254030e-06
      1.38492032e-06 1.42697695e-06 1.52180769e-06 1.62017511e-06
      1.56681062e-06 1.42206159e-06 1.20912250e-06 8.75534965e-07
      4.06479387e-07 -5.72654031e-08 -4.05877699e-07 -5.52820666e-07
      1.94487643e-06 2.08673805e-06 2.37593213e-06 2.63038510e-06
      2.64723781e-06 2.47002845e-06 2.17131742e-06 1.81029577e-06
      1.42103499e-06 1.01788862e-06 6.26782196e-07 3.19074474e-07
      2.74943304e-08 -3.52517475e-07 -6.65986988e-07 -9.13510291e-07
      -1.12730038e-06 -1.18778098e-06 -9.99798999e-07 -4.28983043e-07
      3.93011916e-08 3.02386837e-07 3.56240747e-07 2.76418461e-07
      3.39254624e-09 -3.45261498e-07 -7.33184379e-07 -1.08190000e-06
      -1.29099328e-06 -1.26026657e-06 -1.09812925e-06 -8.21523940e-07
      -3.53801170e-07 2.60377192e-07 9.71324766e-07 1.56121234e-06
      1.71702152e-06 1.29122986e-06 3.94521891e-07 -6.68383734e-07
      -1.47721369e-06 -1.69205839e-06 -1.54753855e-06 -1.08441736e-06
      -5.44171598e-07 1.42752175e-08 5.65395396e-07 1.08380118e-06
      1.46517641e-06 1.66199607e-06 1.72718285e-06 1.74706383e-06
      1.75196783e-06 1.60957745e-06 1.34168033e-06 8.77472985e-07
      3.83418552e-07 -9.63611200e-08 -5.14734495e-07 -8.48354205e-07
      -1.12651446e-06 -1.28435147e-06 -1.35021708e-06 -1.26875636e-06
      -1.09088330e-06 -7.47605895e-07 -2.23552746e-07 3.19160449e-07
      9.07667129e-07 1.52297957e-06 2.01304488e-06 2.34817480e-06
      2.45068986e-06 2.28467479e-06 1.82444637e-06 1.20493428e-06
      4.32739085e-07 -2.57225309e-07 -9.78074581e-07 -1.46565969e-06
      -1.66859479e-06 -1.57719273e-06 -1.21137452e-06 -6.30016473e-07
      1.50207981e-07 1.02300874e-06 1.85184410e-06 2.49679920e-06
      2.81118855e-06 2.59497347e-06 1.73141473e-06 4.63105494e-07
      -8.27872725e-07 -1.71244858e-06 -2.07762514e-06 -1.95894586e-06
      -1.41688122e-06 -7.79838217e-07 -2.53466993e-07 7.35432266e-08
      2.90340211e-07 3.84035502e-07 3.50933220e-07 3.34292167e-07
      -7.80735945e-07 -9.46928878e-07 -1.25275824e-06 -1.76819970e-06
      -2.28622548e-06 -2.70596342e-06 -2.96216467e-06 -3.04125729e-06
      -2.92659161e-06 -2.54100451e-06 -1.95988082e-06 -1.19500476e-06
      -1.27238124e-07 1.08469658e-06 2.09302493e-06 2.78613174e-06
      3.24448365e-06 3.51927451e-06 3.52096140e-06 3.27972270e-06
      2.84348403e-06 2.25103076e-06 1.51823087e-06 6.70489442e-07
      -2.58602569e-07 -1.10394126e-06 -1.71422755e-06 -1.88754177e-06
      -1.78143966e-06 -1.44010926e-06 -8.67845870e-07 -2.31739406e-07
      3.23636357e-07 8.26412247e-07 1.28474392e-06 1.56562533e-06
      1.67144185e-06 1.47422475e-06 1.07644792e-06 7.29585906e-07
      4.71777298e-07 3.23099471e-07 7.24175635e-08 -1.79721866e-07
      -4.20138662e-07 -7.22415393e-07 -1.00519242e-06 -1.22342556e-06
      -1.32214939e-06 -1.35519758e-06 -1.31942886e-06 -1.30408455e-06
      3.06087955e-09 2.72173164e-08 -3.82549388e-08 -1.87838083e-07
      -3.49218226e-07 -4.76539327e-07 -6.12570318e-07 -7.15404894e-07
      -7.06305400e-07 -6.20918115e-07 -4.81427094e-07 -2.79314889e-07
      1.19529048e-07 5.76728553e-07 1.01712260e-06 1.44287833e-06
      1.92288007e-06 2.39388305e-06 2.58218938e-06 2.16469448e-06
      1.61294929e-06 1.02067679e-06 5.81662107e-07 8.07911462e-08
      -5.35804816e-07 -1.09479618e-06 -1.36092012e-06 -1.42143335e-06
      -1.35583150e-06 -1.09405858e-06 -5.86772671e-07 -2.30988668e-08
      5.44321040e-07 1.17329250e-06 1.85800252e-06 2.13670160e-06
      2.08967140e-06 1.76583285e-06 1.80239329e-06 2.03547393e-06
      2.26178940e-06 2.31359354e-06 1.98629527e-06 1.65319523e-06
      1.12261466e-06 4.00134240e-07 -3.58013466e-07 -9.07120807e-07
      -1.28372858e-06 -1.45074455e-06 -1.44516616e-06 -1.40900261e-06
      2.38153552e-06 2.42619376e-06 2.45943374e-06 2.53814642e-06
      2.57992428e-06 2.49595269e-06 2.31721833e-06 2.08595316e-06
      1.84489943e-06 1.53317353e-06 1.22921870e-06 9.12373935e-07
      5.16942805e-07 1.39333238e-07 -2.68148057e-07 -5.63885521e-07
      -6.60542412e-07 -4.05987720e-07 2.81845900e-07 1.13622889e-06
      1.38941641e-06 1.10615940e-06 7.64384652e-07 5.44560919e-07
      4.61825636e-07 3.90935554e-07 3.05567170e-07 -1.47708867e-08
      -3.30261827e-07 -5.21812581e-07 -3.27305059e-07 2.74467084e-07
      1.05491063e-06 1.78321045e-06 2.44619309e-06 2.85050351e-06
      2.60650336e-06 1.90683704e-06 1.42986835e-06 6.87266208e-07
      2.11179284e-07 -1.54420565e-08 -1.80411320e-07 -4.94976518e-07
      -1.08953986e-06 -1.62331753e-06 -2.00884597e-06 -2.21395521e-06
      -2.13885301e-06 -2.01456623e-06 -1.83874113e-06 -1.77577203e-06
      2.73276839e-07 2.73363412e-07 2.60247788e-07 3.43637140e-07
      4.64988204e-07 6.03496687e-07 8.38137964e-07 1.15011164e-06
      1.45782667e-06 1.74204354e-06 2.04720254e-06 2.31870422e-06
      2.31494209e-06 2.00409931e-06 1.38440055e-06 4.89672857e-07
      -4.79156142e-07 -8.57871896e-07 -9.73521310e-07 -1.04531046e-06
      -7.98874964e-07 -5.26380973e-07 -1.91464750e-07 3.22956168e-07
      5.34018000e-07 7.64630158e-07 7.88859040e-07 5.72157944e-07
      2.46704587e-07 -3.56640513e-08 1.89611271e-07 8.29504131e-07
      1.63293737e-06 2.01675039e-06 1.90594312e-06 1.58814419e-06
      1.40381906e-06 9.34771833e-07 -1.03352981e-07 -1.01537580e-06
      -1.60091815e-06 -1.76400738e-06 -1.40319298e-06 -6.62877085e-07
      2.52096413e-07 1.01890146e-06 1.55440773e-06 1.81371331e-06
      1.92178777e-06 1.97752865e-06 2.13225144e-06 2.15325554e-06
      -1.23324503e-06 -1.10608312e-06 -7.58495503e-07 -3.08988035e-07
      1.34303832e-07 5.59183889e-07 9.43599730e-07 1.28563704e-06
      1.50531741e-06 1.72785917e-06 1.93684377e-06 2.00935960e-06
      1.79435540e-06 1.37537188e-06 7.59461955e-07 9.45904901e-08
      -6.32469948e-07 -9.17950445e-07 -1.02058038e-06 -1.06218374e-06
      -5.39463770e-07 3.52898553e-07 1.21240123e-06 1.73151386e-06
      1.72270404e-06 1.32692139e-06 1.12346743e-06 1.19238882e-06
      1.44459386e-06 2.01202556e-06 2.86366367e-06 3.68592305e-06
      4.18477202e-06 3.99177998e-06 3.05294043e-06 1.61004994e-06
      1.46966997e-07 -9.48677894e-07 -1.35939001e-06 -1.42451245e-06
      -1.07731614e-06 -4.35431616e-07 1.76814424e-07 8.42980967e-07
      1.52108919e-06 1.98227008e-06 2.28472732e-06 2.35836023e-06
      2.29295256e-06 2.06815980e-06 1.75850630e-06 1.66458142e-06
      2.34713229e-06 2.31433501e-06 2.26300199e-06 2.06738287e-06
      1.85400620e-06 1.70569740e-06 1.54897270e-06 1.41853218e-06
      1.40962311e-06 1.38115831e-06 1.26890177e-06 1.00287230e-06
      5.52932249e-07 -3.19005657e-08 -5.78272477e-07 -9.83250516e-07
      -1.05952768e-06 -6.02835769e-07 1.85865872e-07 1.29407363e-06
      2.35814105e-06 3.07670484e-06 3.51921767e-06 3.29667432e-06
      2.56433600e-06 1.74251306e-06 1.27691931e-06 1.11598979e-06
      1.33564015e-06 2.22573999e-06 3.50449477e-06 4.55452118e-06
      5.05278467e-06 4.68299959e-06 3.36797802e-06 1.82914141e-06
      3.82079037e-07 -4.26728548e-07 -9.06481773e-07 -7.94001551e-07
      -2.20940976e-07 2.00660992e-07 4.44181694e-07 5.37953611e-07
      5.06917388e-07 2.80857591e-07 3.56776475e-08 1.19918298e-07
      4.02311173e-07 7.77583750e-07 1.05840911e-06 1.22908750e-06
      4.26112729e-06 4.12276722e-06 3.79689163e-06 3.27449857e-06
      2.64049322e-06 1.91332788e-06 1.17718059e-06 5.63034632e-07
      1.87268896e-07 2.60351207e-08 4.64214374e-08 1.08535552e-07
      2.41510065e-07 3.95223765e-07 4.99652742e-07 4.51249775e-07
      2.66946671e-07 2.87838844e-07 7.28668169e-07 1.53095789e-06
      2.31785111e-06 2.84012981e-06 3.14691852e-06 3.14224212e-06
      2.57732313e-06 2.00477893e-06 1.67744577e-06 1.46992363e-06
      1.52176142e-06 2.15721116e-06 3.28979718e-06 4.45604701e-06
      5.36064408e-06 5.87566819e-06 5.78727759e-06 5.00118722e-06
      3.77769948e-06 2.47517210e-06 1.57168381e-06 1.10565293e-06
      8.75747958e-07 7.18064939e-07 7.19728291e-07 9.47546084e-07
      1.26891234e-06 1.69800774e-06 2.00966178e-06 2.33725541e-06
      2.60561933e-06 2.81233406e-06 2.99221733e-06 3.05785852e-06
      1.82865540e-06 1.77004745e-06 1.57017689e-06 1.34572065e-06
      1.08519430e-06 7.23886728e-07 2.07661074e-07 -2.71389098e-07
      -7.59362877e-07 -1.14220575e-06 -1.44849071e-06 -1.57298905e-06
      -1.37989559e-06 -1.04212256e-06 -7.05780508e-07 -2.88747799e-07
      1.85794804e-07 8.17198440e-07 1.41422549e-06 1.97021609e-06
      2.24850533e-06 2.32964703e-06 2.08237361e-06 1.60007005e-06
      1.16701142e-06 8.51426876e-07 6.63714616e-07 7.52742892e-07
      1.04515573e-06 1.50584788e-06 2.21432833e-06 2.98292593e-06
      3.47720288e-06 3.85700241e-06 3.97856229e-06 3.72543877e-06
      3.16471028e-06 2.24099858e-06 1.07574760e-06 -8.10154717e-08
      -1.03464413e-06 -1.66371547e-06 -1.98362318e-06 -2.03988725e-06
      -2.01275657e-06 -1.89170032e-06 -1.70966632e-06 -1.37980544e-06
      -9.60163675e-07 -6.79856157e-07 -5.49781987e-07 -5.16512216e-07
      -1.44083390e-06 -1.42559804e-06 -1.36151755e-06 -1.15720206e-06
      -8.60949740e-07 -5.73883085e-07 -3.61367256e-07 -3.96590195e-07
      -5.88478144e-07 -8.84497979e-07 -1.19312392e-06 -1.15673504e-06
      -9.68713380e-07 -6.82781945e-07 -3.96210822e-07 1.76253909e-08
      6.71477551e-07 1.34909317e-06 1.69580312e-06 1.57873581e-06
      1.02120941e-06 2.52301447e-07 -6.59426121e-07 -1.57658440e-06
      -2.37559266e-06 -2.94190181e-06 -3.20707818e-06 -3.22686446e-06
      -2.99493718e-06 -2.58886098e-06 -2.12265240e-06 -1.76349363e-06
      -1.45298850e-06 -1.03078696e-06 -4.81540553e-07 -3.77766485e-09
      3.24673806e-07 4.60136704e-07 3.38648988e-07 1.35561296e-08
      -3.52047408e-07 -7.78274170e-07 -1.24430301e-06 -1.68223164e-06
      -1.98350585e-06 -2.20522634e-06 -2.35422431e-06 -2.47388084e-06
      -2.47419825e-06 -2.41914245e-06 -2.38994039e-06 -2.37129484e-06
      -2.17399975e-06 -2.19026151e-06 -2.12213649e-06 -1.99082706e-06
      -1.82143708e-06 -1.62387266e-06 -1.36748770e-06 -1.18783680e-06
      -1.03502305e-06 -9.56540248e-07 -7.31171042e-07 -3.39136392e-07
      1.99115192e-07 9.93751996e-07 1.90970127e-06 2.70202736e-06
      3.27659268e-06 3.50878099e-06 3.36044309e-06 2.81533516e-06
      2.01655735e-06 1.08638449e-06 2.02219766e-07 -5.48395860e-07
      -1.12392979e-06 -1.41693226e-06 -1.42966712e-06 -1.28528177e-06
      -1.10535666e-06 -8.64347783e-07 -5.55397492e-07 -2.64165152e-07
      9.08781601e-08 4.25043567e-07 7.95590779e-07 1.21057292e-06
      1.59580179e-06 1.92792686e-06 2.17322236e-06 2.28332465e-06
      2.32508773e-06 2.25156805e-06 1.98597672e-06 1.57870090e-06
      1.11841928e-06 7.37701271e-07 4.60457841e-07 3.94048726e-07
      4.60853812e-07 4.94541325e-07 4.90344917e-07 4.89581680e-07
      1.56839874e-07 1.42525096e-07 1.79984625e-07 1.97174046e-07
      2.16613586e-07 2.10321033e-07 9.11255214e-08 -1.61919530e-07
      -5.35072388e-07 -9.39623988e-07 -1.14010982e-06 -9.29869259e-07
      -4.31474604e-07 2.36691406e-07 1.07920607e-06 1.88465367e-06
      2.66436291e-06 3.41755936e-06 4.12880854e-06 4.58223121e-06
      4.72375723e-06 4.67035306e-06 4.58662771e-06 4.57863234e-06
      4.63109382e-06 4.50396237e-06 4.15075783e-06 3.57717749e-06
      2.81770576e-06 2.11363272e-06 1.72986506e-06 1.70535020e-06
      2.00527529e-06 2.51366350e-06 3.04206856e-06 3.50483288e-06
      3.83642555e-06 4.05487299e-06 4.13537282e-06 4.05612309e-06
      3.73368516e-06 3.32477293e-06 2.91744050e-06 2.53730582e-06
      2.22115773e-06 1.99374995e-06 1.79773519e-06 1.64962944e-06
      1.53751012e-06 1.54875011e-06 1.53954932e-06 1.56917531e-06
      -1.32642029e-07 -9.94456926e-08 -4.74735451e-08 -3.94659985e-08
      -6.13425897e-08 -8.17601418e-08 -1.43887377e-07 -3.69484894e-07
      -6.31265891e-07 -8.39080940e-07 -1.14080160e-06 -1.38494113e-06
      -1.25165536e-06 -1.01459784e-06 -5.76610887e-07 -1.20622332e-07
      2.39105162e-07 5.99011969e-07 9.60347620e-07 1.33441438e-06
      1.83358725e-06 2.41039743e-06 2.79506366e-06 3.13553414e-06
      3.57785893e-06 3.99863166e-06 4.08232290e-06 3.71888336e-06
      3.05459707e-06 2.43180057e-06 1.85968770e-06 1.35435766e-06
      8.89269415e-07 5.91758976e-07 3.77321612e-07 3.43054012e-07
      3.61910395e-07 4.99468285e-07 8.42832378e-07 1.39249335e-06
      1.89119419e-06 2.16668400e-06 2.10679696e-06 1.70192322e-06
      1.24033784e-06 9.42083659e-07 7.16953934e-07 6.22821005e-07
      3.92862518e-07 8.09993210e-08 -1.35714771e-07 -1.74872966e-07
      1.98186186e-07 2.31036111e-07 2.50318863e-07 3.23824423e-07
      5.11794326e-07 8.08555001e-07 1.07778919e-06 1.22067820e-06
      1.18051753e-06 1.14339480e-06 1.32692526e-06 1.75157686e-06
      2.13799080e-06 2.56546809e-06 2.38270036e-06 1.79732524e-06
      9.89655973e-07 1.52084265e-08 -1.15342823e-06 -2.54574502e-06
      -3.77922242e-06 -4.17901038e-06 -4.21357345e-06 -3.84702980e-06
      -3.17391709e-06 -2.29315765e-06 -1.46009381e-06 -9.91592856e-07
      -8.54695315e-07 -8.22788593e-07 -9.44458577e-07 -8.73842964e-07
      -1.02450110e-06 -1.24534427e-06 -1.40066186e-06 -1.45997001e-06
      -1.40100167e-06 -1.18192986e-06 -5.50893787e-07 5.11502321e-07
      2.02852061e-06 3.28573924e-06 3.89095339e-06 3.76545995e-06
      2.98117152e-06 2.32663797e-06 1.75038122e-06 1.17879699e-06
      6.44759893e-07 2.92738747e-07 2.13600700e-07 2.20867818e-07
      2.38541111e-06 2.35031962e-06 2.27280134e-06 2.26196335e-06
      2.30895307e-06 2.45192018e-06 2.61849164e-06 2.92539403e-06
      3.35264849e-06 3.67113626e-06 3.97929443e-06 4.43053250e-06
      5.03281217e-06 5.14746989e-06 4.15206114e-06 2.12662371e-06
      3.29455446e-07 -1.27996975e-06 -2.78029393e-06 -4.28022804e-06
      -5.35053778e-06 -5.41548707e-06 -4.24382961e-06 -2.63018501e-06
      -1.10822646e-06 1.74838249e-07 9.50469826e-07 1.00260354e-06
      5.15344198e-07 -2.06090988e-07 -9.73320880e-07 -1.52692587e-06
      -1.82295616e-06 -2.04036223e-06 -1.78899631e-06 -1.24639007e-06
      -7.62626939e-07 -2.29980614e-07 8.23742425e-07 2.32773209e-06
      4.04505045e-06 5.34137780e-06 5.87343766e-06 5.35009985e-06
      4.23197753e-06 2.97949896e-06 2.00176578e-06 1.27207682e-06
      8.92990272e-07 1.19227605e-06 1.44331852e-06 1.50107587e-06
      6.45084640e-07 5.87408294e-07 4.12288330e-07 2.52657202e-07
      9.10139804e-08 5.95860321e-08 2.42653300e-07 6.69744736e-07
      1.57439808e-06 2.85174610e-06 4.00020554e-06 4.23649317e-06
      3.36559219e-06 2.20389961e-06 7.31496698e-07 -1.07383335e-06
      -2.64399500e-06 -3.60703189e-06 -3.63157665e-06 -3.27893304e-06
      -2.70145074e-06 -1.46148591e-06 5.49056722e-07 2.57750912e-06
      4.07032121e-06 4.92938943e-06 5.08293306e-06 4.64892628e-06
      3.53115115e-06 1.88659203e-06 7.59615126e-09 -1.65422500e-06
      -2.80616678e-06 -3.34962374e-06 -3.31283331e-06 -3.03933643e-06
      -2.38412895e-06 -1.22393180e-06 2.10553793e-07 1.83357065e-06
      3.20670711e-06 4.56051521e-06 5.22630944e-06 4.69960332e-06
      3.32403738e-06 2.03171408e-06 1.09758571e-06 5.63063622e-07
      4.22312667e-07 4.73032685e-07 6.37636390e-07 7.11889243e-07
      -3.01106843e-06 -3.05910748e-06 -3.25793371e-06 -3.56455394e-06
      -3.91131516e-06 -4.25446615e-06 -4.49091476e-06 -4.35113816e-06
      -3.64552307e-06 -2.49721234e-06 -1.66591531e-06 -1.54594784e-06
      -1.73128319e-06 -2.32915522e-06 -3.76621301e-06 -5.24247253e-06
      -5.25549876e-06 -4.69334555e-06 -3.58624493e-06 -2.62747244e-06
      -1.91474260e-06 -7.89963565e-07 3.10182116e-07 1.28623208e-06
      1.97533655e-06 2.15040154e-06 1.90558433e-06 1.25974816e-06
      4.23814512e-08 -1.53162750e-06 -3.29715931e-06 -4.79885875e-06
      -5.36455445e-06 -4.90619277e-06 -4.64592949e-06 -4.21687355e-06
      -3.65473534e-06 -3.17331887e-06 -2.78601374e-06 -2.44213538e-06
      -2.30179558e-06 -2.34131971e-06 -2.20247875e-06 -8.30017086e-07
      -4.09810070e-07 -3.67392232e-07 -1.69358614e-07 1.44218120e-07
      1.77749143e-07 1.48803892e-07 2.22767582e-07 2.60390607e-07
      -7.12039139e-07 -7.55692042e-07 -9.18680144e-07 -1.26990744e-06
      -1.61908463e-06 -1.92195193e-06 -2.13947601e-06 -2.11753468e-06
      -2.05523793e-06 -2.33191417e-06 -2.67001951e-06 -2.96413168e-06
      -3.50809387e-06 -4.38019379e-06 -4.93750031e-06 -4.37898507e-06
      -3.29996647e-06 -3.01202726e-06 -2.46436571e-06 -1.49088612e-06
      -9.57772386e-07 -9.50599372e-07 -1.07642597e-06 -1.33994934e-06
      -1.78921152e-06 -2.14392367e-06 -2.20852553e-06 -2.43413206e-06
      -3.17225977e-06 -4.15737213e-06 -5.18490015e-06 -5.90330501e-06
      -5.94286439e-06 -5.16643149e-06 -3.60170179e-06 -1.65791778e-06
      -8.01502438e-07 -6.55054862e-07 -9.34053162e-07 -1.29655859e-06
      -1.51828874e-06 -1.37167069e-06 -8.33301556e-07 2.16762885e-07
      1.21591188e-06 1.81249800e-06 2.39154429e-06 2.31274544e-06
      1.95281996e-06 1.58132309e-06 1.26739576e-06 1.16387753e-06
      6.85396451e-09 8.83017321e-08 3.16124954e-07 5.89330114e-07
      9.78964181e-07 1.36058759e-06 1.70777537e-06 1.93541950e-06
      1.93976052e-06 1.22648066e-06 -7.62426211e-08 -1.39379097e-06
      -2.65870995e-06 -4.32874685e-06 -5.76383809e-06 -6.54565702e-06
      -6.51932305e-06 -6.25938492e-06 -5.93662344e-06 -5.42980524e-06
      -5.05253456e-06 -4.15677869e-06 -3.10919791e-06 -2.12856162e-06
      -5.70768918e-07 1.17035404e-06 2.42138526e-06 3.01620526e-06
      2.76162473e-06 1.73876469e-06 -2.16163642e-07 -2.36925007e-06
      -4.11308201e-06 -5.21881157e-06 -5.06258993e-06 -4.49695335e-06
      -4.36489972e-06 -4.39183214e-06 -4.60742558e-06 -4.43292538e-06
      -3.75175250e-06 -3.13712917e-06 -2.50555263e-06 -1.38971438e-06
      -9.06762878e-08 9.25480208e-07 1.68724773e-06 1.81053213e-06
      1.68502163e-06 1.34357310e-06 1.04215803e-06 9.74694558e-07
      -1.34804623e-06 -1.16539297e-06 -6.18562296e-07 2.02916496e-07
      1.05837273e-06 1.86717398e-06 2.46127229e-06 2.34952290e-06
      1.51617974e-06 2.75674950e-07 -1.20086054e-06 -2.65441918e-06
      -4.99367343e-06 -7.34686091e-06 -8.77594630e-06 -8.79651270e-06
      -7.59828663e-06 -5.79420475e-06 -4.14320948e-06 -3.30067564e-06
      -2.82096039e-06 -2.39782071e-06 -2.03569107e-06 -1.46163165e-06
      -9.48541583e-07 -4.75956881e-07 1.63023103e-07 9.72453677e-07
      1.68957513e-06 2.16720696e-06 2.16792114e-06 1.32830371e-06
      -4.35417235e-07 -2.10280837e-06 -3.48850972e-06 -4.26600673e-06
      -4.38994493e-06 -5.26106260e-06 -5.83020983e-06 -5.86607530e-06
      -5.06994866e-06 -4.30453019e-06 -3.53497421e-06 -3.08880840e-06
      -2.56144381e-06 -2.14747320e-06 -1.83940097e-06 -1.84316025e-06
      -2.06782829e-06 -2.32538946e-06 -2.48315882e-06 -2.51963115e-06
      -6.82584641e-07 -7.18478361e-07 -7.70580016e-07 -6.87272404e-07
      -5.74906494e-07 -5.20612787e-07 -6.19981620e-07 -7.99651957e-07
      -1.11802183e-06 -1.78534401e-06 -2.79903566e-06 -3.83056522e-06
      -4.58983004e-06 -4.98784766e-06 -4.64568711e-06 -3.33631601e-06
      -9.17108309e-07 2.21736104e-06 5.34429546e-06 7.83318228e-06
      9.31924660e-06 9.73871101e-06 8.45703016e-06 6.38250049e-06
      4.08847927e-06 2.40648228e-06 1.68705344e-06 1.95327675e-06
      2.95047221e-06 4.59450075e-06 6.43256317e-06 7.47313425e-06
      7.19362561e-06 6.15494491e-06 5.11216558e-06 3.67071380e-06
      1.34657944e-06 -5.29867975e-07 -1.88089916e-06 -2.72075658e-06
      -2.71494832e-06 -1.99081273e-06 -9.72766657e-07 -2.40145624e-07
      -4.12511866e-07 -9.63188540e-07 -1.63043626e-06 -2.15160298e-06
      -2.23505322e-06 -2.10584449e-06 -2.03186278e-06 -2.04092680e-06
      1.77012009e-06 1.69201780e-06 1.47530727e-06 1.10245389e-06
      6.57317287e-07 3.40371713e-07 4.29747587e-07 7.03180717e-07
      8.09143728e-07 6.80525261e-07 4.52826612e-07 3.70692618e-07
      4.74859405e-07 8.88925229e-07 1.65514655e-06 2.70238070e-06
      4.01410853e-06 5.51089443e-06 6.79695404e-06 7.39083271e-06
      7.30811553e-06 6.77626076e-06 5.79737934e-06 4.58918839e-06
      3.28634587e-06 1.37775237e-06 2.20163159e-07 2.21345402e-07
      9.32301077e-07 2.03790955e-06 3.10083442e-06 3.56891428e-06
      3.44803652e-06 2.62138929e-06 1.70893350e-06 1.06025675e-06
      6.51621008e-07 -4.35669349e-08 -4.07096650e-07 -4.55995661e-07
      -2.37660174e-07 3.99253423e-07 9.16407998e-07 1.28322665e-06
      1.36057929e-06 1.35050880e-06 1.28174042e-06 1.17036666e-06
      1.09340294e-06 1.04595267e-06 9.69240887e-07 9.47540912e-07
      2.79629649e-06 2.77814297e-06 2.73766341e-06 2.67681230e-06
      2.50979724e-06 2.46166428e-06 2.50896596e-06 2.75802086e-06
      2.73808746e-06 2.63772517e-06 2.66066763e-06 2.49664890e-06
      2.63855350e-06 3.07544155e-06 3.52845518e-06 3.11754820e-06
      2.51834854e-06 2.33061860e-06 2.26338557e-06 1.73492981e-06
      6.07434743e-07 -5.60613785e-07 -1.28073043e-06 -2.74694889e-06
      -3.32368859e-06 -2.85300416e-06 -3.66455743e-06 -3.13817804e-06
      -2.30308660e-06 -1.67848737e-06 -1.41475709e-06 -1.16903811e-06
      -1.58312389e-06 -2.35381344e-06 -2.85186047e-06 -3.56833880e-06
      -1.80734617e-06 8.59842686e-08 6.16854152e-07 1.21210894e-06
      1.42196200e-06 1.94647509e-06 2.69137354e-06 3.49383845e-06
      4.39887026e-06 5.31250635e-06 5.65249638e-06 5.72542331e-06
      5.33932780e-06 4.60845376e-06 4.53966322e-06 4.59019520e-06
      8.06633409e-07 7.11890834e-07 4.07190583e-07 2.28519745e-08
      -6.20010042e-07 -1.02072647e-06 -1.27700446e-06 -1.40054476e-06
      -1.08487370e-06 -3.91591982e-07 1.44576276e-07 3.89427328e-07
      6.01728686e-07 1.00381783e-06 1.08481936e-06 1.16835452e-06
      1.34382583e-06 1.36681979e-06 1.46347702e-06 1.64331300e-06
      1.77963454e-06 1.77624918e-06 1.65289566e-06 1.66912616e-06
      1.84717385e-06 2.15622686e-06 2.40746999e-06 2.62820686e-06
      2.58860155e-06 2.38437315e-06 2.21597520e-06 2.21766345e-06
      2.16321632e-06 1.30155547e-06 1.16771184e-06 1.52249424e-06
      1.73224839e-06 1.39668532e-06 9.28839427e-07 1.01348212e-06
      1.49623736e-06 1.90295953e-06 1.85585543e-06 1.62737444e-06
      1.54627003e-06 1.06273387e-06 2.75741428e-07 -4.44907585e-07
      -1.01314936e-06 -1.25543079e-06 -7.93838183e-07 -4.69104236e-07
      9.88991133e-07 5.85149280e-07 3.91139366e-07 2.09209787e-07
      -5.41280315e-07 -1.21661003e-06 -1.34228310e-06 -1.33680464e-06
      -1.08803204e-06 -7.26413532e-07 -3.69856394e-07 3.71691677e-09
      3.47871890e-07 8.66126868e-07 8.93113679e-07 9.06290438e-07
      1.23761720e-06 1.39949771e-06 1.57318129e-06 1.79450194e-06
      1.84392479e-06 1.78218806e-06 1.70569069e-06 1.96418659e-06
      2.24196560e-06 2.42685337e-06 2.76477931e-06 2.76399874e-06
      2.61906939e-06 2.35688753e-06 1.89974594e-06 2.13351609e-06
      2.01599005e-06 1.16295348e-06 1.12032342e-06 1.71517593e-06
      2.07231960e-06 1.64766629e-06 1.12216253e-06 1.08303141e-06
      1.36921642e-06 1.72900877e-06 1.80535756e-06 1.74975594e-06
      1.86483464e-06 1.54963277e-06 5.12913914e-07 -2.78811598e-07
      -8.08881452e-07 -1.06725224e-06 -8.63580851e-07 -7.17344847e-07
      8.25417544e-07 6.70092220e-07 6.44306738e-07 5.70163422e-07
      -5.25650954e-08 -7.98068811e-07 -1.11474935e-06 -1.03158425e-06
      -8.04989838e-07 -7.78767969e-07 -8.41608085e-07 -5.84190047e-07
      -7.78408378e-08 2.25496464e-07 2.63870874e-07 2.68333935e-07
      7.76089394e-07 1.18744515e-06 1.34280901e-06 1.75420382e-06
      1.81286759e-06 1.64761764e-06 1.50563449e-06 1.90487935e-06
      2.49490631e-06 2.84478324e-06 3.27655471e-06 3.28886745e-06
      3.00411330e-06 2.67527889e-06 1.96038764e-06 2.03373702e-06
      1.77689287e-06 1.10420854e-06 1.08381835e-06 1.75070909e-06
      2.12369605e-06 1.72461364e-06 1.36303299e-06 1.15604735e-06
      1.26907048e-06 1.38556936e-06 1.63240111e-06 1.69410839e-06
      1.77099173e-06 1.57016007e-06 7.14231760e-07 3.36250622e-07
      2.38318961e-07 -1.38873546e-07 -3.03836998e-07 -3.81161243e-07
      1.92069407e-07 3.29083349e-07 8.36947152e-07 8.86012231e-07
      5.64781715e-07 3.99083007e-08 -6.85439488e-07 -9.88517741e-07
      -7.90793763e-07 -7.97630150e-07 -1.12774956e-06 -9.85667043e-07
      -3.34311324e-07 -2.12905562e-07 -3.79997715e-07 -4.89115735e-07
      1.23808533e-07 8.15743135e-07 1.04366075e-06 1.22276367e-06
      1.51550364e-06 1.58963849e-06 1.14328896e-06 1.26583609e-06
      2.22762469e-06 2.92566529e-06 3.32517970e-06 3.57506929e-06
      3.41900522e-06 2.96322924e-06 2.19499452e-06 1.88720935e-06
      1.51695906e-06 1.22699123e-06 9.67645406e-07 1.39487452e-06
      1.72092439e-06 1.59333376e-06 1.31145646e-06 1.08139523e-06
      1.12706402e-06 1.30185447e-06 1.40571592e-06 1.34242305e-06
      1.32777848e-06 1.16388321e-06 5.97315591e-07 5.81788242e-07
      7.25242785e-07 5.55130953e-07 5.80739879e-07 5.56019302e-07
      3.62189979e-07 4.58571179e-07 6.09019025e-07 7.97400048e-07
      5.96921154e-07 3.98023616e-07 -2.04805303e-07 -7.19250863e-07
      -6.32599381e-07 -6.08709399e-07 -1.12419286e-06 -1.00477189e-06
      -4.29228550e-07 -1.89325576e-07 -4.49500959e-07 -6.66734650e-07
      -3.15647696e-07 2.67070703e-07 5.65326616e-07 5.78145773e-07
      8.61766637e-07 1.14931913e-06 7.88726595e-07 5.62714092e-07
      1.39889926e-06 2.18678611e-06 2.63359834e-06 3.06396942e-06
      3.00789634e-06 2.62011486e-06 2.06443110e-06 1.68749921e-06
      1.50082280e-06 1.28612328e-06 1.08229881e-06 8.42688223e-07
      1.08527104e-06 9.90766921e-07 6.68655787e-07 6.41287500e-07
      1.00398358e-06 1.18161279e-06 1.04711694e-06 8.84189717e-07
      9.40060204e-07 8.62738545e-07 4.51923086e-07 4.45708139e-07
      5.48390688e-07 6.27246209e-07 7.16492423e-07 6.92588912e-07
      1.17751142e-06 1.06162724e-06 7.14853797e-07 3.43090164e-07
      8.28886684e-08 -8.38033856e-08 1.27327965e-07 3.66732493e-08
      -3.01660137e-08 -2.81540395e-07 -8.43391888e-07 -8.64714934e-07
      -4.54396513e-07 -1.49780504e-07 -4.06386675e-07 -6.83161659e-07
      -6.05883599e-07 -1.70092974e-07 1.37429808e-07 2.19411653e-08
      2.10857010e-07 8.02265504e-07 9.52925802e-07 5.92338608e-07
      9.64337346e-07 1.47181993e-06 1.41341332e-06 1.65557947e-06
      1.78098071e-06 1.52930420e-06 1.22605672e-06 1.25367944e-06
      1.57537704e-06 1.30759145e-06 9.53108156e-07 7.28372981e-07
      6.78460481e-07 8.62913510e-07 3.46129156e-07 2.84968138e-07
      7.23938570e-07 8.62356785e-07 8.20521052e-07 5.26330439e-07
      5.22074799e-07 6.73475938e-07 2.94028013e-07 -3.71020903e-08
      -5.33071081e-08 4.50296440e-08 2.50201794e-07 3.24854284e-07
      1.56342423e-06 1.26373573e-06 1.09346627e-06 6.23073447e-07
      -9.38390810e-10 -2.17946166e-07 2.60084960e-07 3.95014723e-07
      1.54337968e-07 1.00070828e-07 -8.99575099e-08 -3.77604664e-07
      -2.62229349e-07 7.11927157e-08 -1.44074292e-07 -5.39317227e-07
      -7.86374585e-07 -4.94087942e-07 -2.81879778e-07 -4.91273681e-07
      -3.08282011e-07 4.71640988e-07 1.21222968e-06 9.00645773e-07
      7.47923252e-07 1.09835776e-06 7.92251740e-07 4.81211032e-07
      5.49563140e-07 3.62663485e-07 4.42042904e-07 9.73007218e-07
      1.29771615e-06 1.15658327e-06 7.60862576e-07 7.73100680e-07
      5.02544651e-07 6.19140849e-07 2.25043394e-07 1.71970285e-07
      5.27952579e-07 8.73724218e-07 7.91546881e-07 4.67450178e-07
      3.17907791e-07 6.12707822e-07 2.67564872e-07 -5.28230942e-07
      -7.16825809e-07 -4.01237060e-07 -3.55744703e-07 -3.07256784e-07
      1.78345567e-06 1.36069536e-06 1.14821967e-06 1.04148387e-06
      6.18575712e-07 3.14205664e-07 2.55823807e-07 3.46577281e-07
      5.40852731e-08 2.48304019e-07 4.92965796e-07 2.51989206e-07
      -4.43892354e-08 -3.31790844e-08 1.32733319e-07 -2.27658745e-07
      -5.02681019e-07 -3.28513579e-07 -4.12666679e-07 -8.01349017e-07
      -6.82529787e-07 1.75223391e-07 7.78022752e-07 6.19619072e-07
      5.78104107e-07 7.38332687e-07 6.88905345e-07 4.84089959e-08
      -3.59953361e-07 -4.29645240e-07 -8.31930720e-08 6.03704052e-07
      8.14639293e-07 1.01299497e-06 1.02178922e-06 9.55803898e-07
      6.58105023e-07 4.15064818e-07 1.94868235e-07 3.19550708e-07
      5.71709677e-07 8.82548818e-07 9.14650911e-07 6.61920240e-07
      5.69337601e-07 6.51475830e-07 1.08539375e-07 -5.24729671e-07
      -1.00148213e-06 -1.12990119e-06 -1.07452422e-06 -9.82676738e-07
      9.46443265e-07 1.03137768e-06 1.06893037e-06 8.95901394e-07
      5.99875818e-07 5.51244966e-07 5.97504027e-07 8.62985075e-07
      5.33623165e-07 5.80482549e-07 7.92528908e-07 6.83000394e-07
      1.36610154e-07 -6.87536328e-07 -7.04900742e-07 -1.86092478e-07
      7.35453938e-08 3.34550464e-07 4.37653910e-07 1.13849609e-07
      2.03295656e-08 3.03305711e-07 6.10186760e-07 3.01831278e-07
      1.54109401e-07 4.77291564e-07 4.80512142e-07 1.91551752e-08
      -2.63428007e-07 -3.44765738e-07 -2.72304902e-07 9.35285485e-08
      6.78933418e-07 1.05372283e-06 1.24736425e-06 1.22270364e-06
      1.18505659e-06 9.82499841e-07 8.13482075e-07 6.10965344e-07
      7.75483784e-07 1.05350250e-06 1.07723588e-06 9.19575939e-07
      8.24803124e-07 6.94119933e-07 2.18794781e-07 -3.33579834e-07
      -9.37570348e-07 -1.46268405e-06 -1.86762668e-06 -2.04112439e-06
      7.56980626e-07 5.29809540e-07 2.43974426e-07 -1.10487308e-09
      -4.49301076e-08 2.36522496e-07 7.03853004e-07 1.17807440e-06
      1.16127637e-06 8.44771307e-07 9.87418161e-07 8.87094814e-07
      1.22769592e-07 -1.43566137e-06 -1.99998908e-06 -1.23331461e-06
      -4.00251992e-07 4.35752611e-07 1.00425609e-06 1.41752639e-06
      1.59797003e-06 1.51300810e-06 1.51224162e-06 9.61514957e-07
      5.36553216e-07 3.81856381e-07 2.98049827e-07 1.13277103e-07
      -5.45488987e-08 -3.36151973e-09 -2.79112040e-08 8.43583550e-08
      6.95949780e-07 1.01859644e-06 1.40274835e-06 1.58859518e-06
      1.59536899e-06 1.49685900e-06 1.26086309e-06 8.85494785e-07
      7.82631730e-07 1.09964003e-06 1.38495409e-06 1.35450625e-06
      1.03512139e-06 6.00507008e-07 1.21698307e-07 -4.35384521e-07
      -1.42878048e-06 -2.13572775e-06 -2.49489767e-06 -2.76674041e-06
      1.58861621e-06 6.63024821e-07 -1.68441986e-07 -5.33601451e-07
      -4.93503421e-07 -1.34996299e-07 1.71171862e-07 7.00962858e-07
      9.48903960e-07 9.15466558e-07 9.29182761e-07 8.48020989e-07
      3.37882312e-07 -1.43412854e-06 -2.51371762e-06 -2.14084912e-06
      -1.40631641e-06 -2.25441354e-07 9.03001705e-07 1.53146789e-06
      2.03707350e-06 2.55398527e-06 2.86924706e-06 2.44919761e-06
      1.51639233e-06 9.55883593e-07 3.87831705e-07 2.44332313e-07
      1.20159058e-07 2.21578588e-07 1.74883667e-07 4.41892837e-07
      6.28135524e-07 8.38858909e-07 1.33665480e-06 1.49259176e-06
      1.51448614e-06 1.12060854e-06 7.94471759e-07 3.07171945e-07
      5.35687604e-07 6.42560110e-07 1.07679568e-06 1.28259433e-06
      1.05446236e-06 7.65330697e-07 2.52456971e-07 -7.82237976e-07
      -1.63983088e-06 -2.29852481e-06 -2.61496325e-06 -2.83857048e-06
      2.35967536e-06 1.41931719e-06 3.69450163e-07 -2.06580722e-07
      3.91492790e-07 5.77737922e-07 3.90241979e-07 3.16078456e-07
      1.70990958e-07 3.40178559e-07 5.72747410e-07 7.33704439e-07
      6.08762832e-07 -5.18367585e-07 -1.86381999e-06 -1.76989909e-06
      -1.33885146e-06 -1.86417111e-07 1.01571584e-06 1.46671607e-06
      1.93107689e-06 2.82348037e-06 3.33852086e-06 3.14155704e-06
      2.18213904e-06 1.53135716e-06 9.08691845e-07 5.32169850e-07
      1.14814007e-07 -7.68959794e-08 4.62167513e-08 3.49975210e-07
      2.44462143e-07 5.00406031e-07 1.11073746e-06 1.19946480e-06
      1.06372227e-06 5.47974878e-07 -2.36811516e-07 -9.70781798e-07
      -9.27887413e-07 -1.52750872e-07 5.43092654e-07 1.07195831e-06
      9.96251856e-07 5.55960298e-07 4.30688942e-08 -7.83003998e-07
      -1.15878470e-06 -1.51870699e-06 -1.77727100e-06 -2.03421837e-06
      1.85569581e-06 1.24438338e-06 7.22892651e-07 4.50360773e-07
      1.07581366e-06 1.56412284e-06 1.28561919e-06 6.94574169e-07
      -6.35221298e-08 -2.49507707e-07 -2.55402199e-07 2.46198113e-07
      6.41258112e-07 4.08412461e-07 -6.84585132e-07 -1.02122215e-06
      -9.15731789e-07 1.39410929e-07 1.18995763e-06 1.54791371e-06
      1.89102093e-06 2.79751998e-06 3.01709656e-06 2.79094661e-06
      2.29902298e-06 1.67637313e-06 1.37128825e-06 1.04794640e-06
      3.17427236e-07 -2.01643587e-07 -2.03148559e-07 4.40450876e-08
      -2.65330840e-07 -2.31216202e-08 6.00612111e-07 6.46263459e-07
      4.56422526e-07 2.59790937e-07 -1.01849075e-07 -9.16482236e-07
      -1.78860614e-06 -1.22199538e-06 1.48011367e-07 1.18440016e-06
      1.12646410e-06 6.11658265e-07 2.49277321e-07 -4.56660928e-07
      -9.09524715e-07 -1.10399390e-06 -1.17931347e-06 -1.05414915e-06
      9.52494474e-07 3.35783312e-07 2.01935634e-07 1.44860152e-07
      5.70935299e-07 1.35451160e-06 1.57320176e-06 1.18029675e-06
      2.70770158e-07 -3.58164414e-07 -5.41599434e-07 -7.50519575e-07
      1.73327912e-08 3.68556329e-07 2.05457411e-07 -2.74271002e-07
      -4.44551773e-07 8.65452066e-08 9.10850247e-07 1.07807136e-06
      1.47267008e-06 2.66863981e-06 2.81891789e-06 2.25163058e-06
      1.82211488e-06 1.47210210e-06 1.28449710e-06 1.08421045e-06
      2.78586526e-07 -4.32075723e-07 -6.68847292e-07 -5.13116674e-07
      -1.03125967e-06 -6.88748571e-07 -6.54269101e-08 -3.17137356e-08
      -1.65603950e-07 -1.20901305e-07 -8.55771276e-08 -2.14312763e-07
      -9.09837354e-07 -1.67470114e-06 -2.24284690e-07 1.15579962e-06
      9.11167376e-07 4.77981303e-07 6.33991135e-07 4.45435404e-08
      -5.52382858e-07 -8.62683294e-07 -7.51635298e-07 -6.08170808e-07
      9.36779657e-07 5.44467298e-07 1.42552906e-07 -1.97305454e-07
      5.59794948e-08 3.50916991e-07 9.15627481e-07 1.13185001e-06
      7.56398890e-07 5.69136027e-08 -1.79311769e-07 -7.34908497e-07
      -1.25008307e-06 -4.38250055e-07 9.48365937e-08 8.23423250e-08
      -1.44462263e-07 -1.10052795e-07 1.38665342e-07 1.82091284e-07
      7.71281691e-07 1.97853115e-06 2.40397026e-06 1.93387905e-06
      1.30927742e-06 1.07886376e-06 9.95432856e-07 8.55186158e-07
      2.59250594e-08 -7.30431736e-07 -1.17548257e-06 -1.22768495e-06
      -1.67231781e-06 -1.47760829e-06 -7.29545036e-07 -5.31589876e-07
      -4.90165178e-07 -4.08382164e-07 -3.70101020e-07 -1.62279036e-07
      -4.43194438e-07 -8.01281487e-07 -5.64898016e-07 3.82098250e-07
      4.98722670e-07 2.22174776e-07 1.96190300e-07 2.25277166e-08
      -3.47765308e-07 -2.36871088e-07 1.53438307e-07 -1.64277665e-07
      8.03927605e-07 8.04951753e-07 7.38348547e-07 3.86441513e-07
      1.07398668e-08 2.71119063e-07 3.69105891e-07 7.21255446e-07
      7.39273048e-07 5.00386761e-07 6.65902888e-08 -1.11605969e-08
      -1.08586903e-06 -1.06943719e-06 -2.88804660e-08 6.37343192e-07
      5.44473266e-07 -1.34682480e-07 -3.43850616e-07 -4.54525519e-07
      1.17165285e-07 1.09988650e-06 1.56177248e-06 1.74657634e-06
      1.10956660e-06 8.49827700e-07 9.72415137e-07 1.01807427e-06
      3.29814100e-07 -3.81383757e-07 -9.12086875e-07 -1.24455289e-06
      -1.39244571e-06 -1.54532404e-06 -8.73536919e-07 -3.79984243e-07
      -3.29953309e-07 -4.14470321e-07 -5.55263114e-07 -3.99888933e-07
      -3.04734385e-07 -4.08092291e-07 -4.63852587e-07 -1.91430516e-08
      1.81715087e-08 1.87175274e-07 -6.68392346e-08 -3.26719061e-07
      1.68607961e-09 3.74805950e-07 1.03743264e-06 8.77868956e-07
      7.22694097e-07 8.10247116e-07 8.78737467e-07 7.76586944e-07
      4.06479728e-07 5.63923948e-07 5.50590357e-07 5.12724171e-07
      5.39481277e-07 4.86571366e-07 2.04918038e-07 -4.07582812e-09
      -3.81544822e-07 -6.55238978e-07 -3.22335325e-07 5.20466529e-07
      1.14950592e-06 1.06631217e-06 7.65785515e-08 -5.85028715e-07
      -2.41794709e-07 2.96981369e-07 1.08276492e-06 1.80279937e-06
      1.54035467e-06 1.32377863e-06 1.37403242e-06 1.36616700e-06
      1.02107686e-06 6.59932482e-07 1.91053743e-07 -4.49694511e-07
      -7.49807839e-07 -7.19262289e-07 -4.55546783e-08 3.32712517e-07
      3.61145396e-07 2.54199307e-07 -1.29014921e-07 -3.39316983e-07
      -1.94601895e-07 -7.62102559e-08 -2.25465499e-07 3.49037890e-07
      5.39046255e-07 1.70419227e-07 -2.38455357e-07 -5.19081595e-07
      -5.09047652e-07 3.24035597e-07 1.36901451e-06 1.65712993e-06
      7.60396176e-07 6.06185893e-07 7.06352353e-07 5.88283967e-07
      4.27866837e-07 5.87120951e-07 8.20741093e-07 6.55068561e-07
      3.38490196e-07 3.13842946e-07 1.10914243e-07 -7.92022448e-08
      -1.56004788e-07 -2.71301303e-07 -2.58699146e-07 2.39277700e-08
      6.66044173e-07 9.10724680e-07 8.30813519e-07 4.26073484e-07
      2.60078792e-07 3.56497111e-07 1.15782564e-06 1.93409755e-06
      2.01515763e-06 1.66573250e-06 1.64175958e-06 1.52491452e-06
      1.68686438e-06 1.79698043e-06 1.47967546e-06 6.58100362e-07
      -2.26549332e-07 -2.79824889e-07 2.94255955e-07 7.01902081e-07
      8.48789739e-07 1.08900110e-06 5.87049783e-07 1.50573669e-07
      1.04424934e-07 2.44861525e-07 2.43209655e-07 7.25483289e-07
      1.30128035e-06 7.47834861e-07 7.11644006e-08 -3.28196933e-07
      -7.50341030e-07 -4.30639631e-07 5.94208700e-07 1.18394769e-06
      -4.65648391e-08 -7.67794148e-08 1.33903768e-07 2.28711613e-07
      8.80610429e-08 3.63699286e-07 8.10647919e-07 8.81820938e-07
      5.55713598e-07 3.01016371e-07 1.26909612e-07 -1.69345540e-07
      -5.82981308e-08 -3.99400619e-07 -6.59020145e-07 -2.45091144e-07
      2.46602561e-08 2.40409914e-08 2.04504587e-07 4.54485502e-07
      6.39841574e-07 7.13327211e-07 1.24443943e-06 2.06057007e-06
      2.09466202e-06 1.62051288e-06 1.35424909e-06 1.30503508e-06
      1.79539893e-06 2.47854678e-06 2.48759648e-06 1.77926051e-06
      4.46039451e-07 -3.02757826e-07 -1.77411025e-07 3.11115315e-07
      3.53975565e-07 6.81848462e-07 9.95658638e-07 8.72901410e-07
      9.12942312e-07 6.73362990e-07 4.82648545e-07 8.04099329e-07
      1.17124125e-06 1.07294306e-06 6.94409380e-07 2.48020143e-07
      -5.09322717e-07 -1.07138248e-06 -5.43339695e-07 -2.19159858e-07
      -5.00073270e-07 -3.61775136e-07 -2.75524428e-07 -1.15118304e-07
      -3.19420167e-07 -7.44726805e-08 5.68558733e-07 7.09704977e-07
      6.23438495e-07 5.32945592e-07 2.69711222e-07 -4.95323960e-09
      9.89909879e-08 -1.61723399e-08 -2.15425246e-07 -2.00387461e-07
      -3.94745314e-07 -5.71338262e-07 -8.26780081e-07 -8.97301675e-07
      -4.88500689e-07 2.10150873e-07 1.07458175e-06 1.92505581e-06
      2.02183537e-06 1.59913793e-06 1.15808666e-06 1.13511339e-06
      1.58296609e-06 2.36170536e-06 2.78815082e-06 2.36710707e-06
      1.06946993e-06 9.77996351e-08 -8.96465977e-08 -6.85478483e-08
      4.25567777e-08 3.36727709e-07 7.62920820e-07 1.25987776e-06
      1.26665407e-06 8.60903697e-07 6.52942560e-07 7.06250660e-07
      5.56032205e-07 2.79796382e-07 5.01140789e-07 7.00564954e-07
      -2.16224407e-07 -1.39243332e-06 -1.39294582e-06 -1.25501754e-06
      -7.88958346e-07 -7.01021293e-07 -5.93250036e-07 -3.01187384e-07
      -6.26167264e-07 -2.58293682e-07 3.17295559e-07 5.48355843e-07
      4.37739772e-07 4.85727242e-07 3.62075497e-07 1.07686020e-07
      5.13850011e-08 1.62533425e-07 1.69907324e-07 9.83132438e-08
      -2.99249024e-07 -7.31922228e-07 -1.16568253e-06 -1.49635378e-06
      -1.19711990e-06 -3.10376691e-07 3.77980399e-07 9.59425961e-07
      1.27656745e-06 1.07798860e-06 8.23621576e-07 1.01926980e-06
      1.39670942e-06 1.88958404e-06 2.18617902e-06 2.18488481e-06
      1.03942318e-06 5.02586595e-08 -1.29707303e-07 8.58011495e-10
      8.67441852e-09 1.08986491e-07 3.48712064e-07 9.11881841e-07
      8.84198641e-07 6.43657756e-07 7.08605000e-07 7.35709420e-07
      3.35123531e-07 -3.17389706e-08 2.36358488e-07 6.05801290e-07
      -3.79007083e-08 -1.22322672e-06 -1.67740313e-06 -1.54713427e-06
      -1.12800683e-06 -9.35124604e-07 -8.17206114e-07 -6.98258759e-07
      -6.15272370e-07 -3.36769233e-07 1.39407362e-07 4.12080198e-07
      2.61045898e-07 3.65846944e-07 4.17398155e-07 2.38202631e-07
      2.65163436e-07 2.59583715e-07 2.11558699e-07 -6.25880858e-08
      -2.96121868e-07 -5.45259184e-07 -1.03724562e-06 -1.41887551e-06
      -1.25004192e-06 -3.35425568e-07 3.93557741e-07 4.86041984e-07
      2.93984328e-07 -2.94630436e-08 2.80028569e-08 5.24225641e-07
      9.55762403e-07 1.38172607e-06 1.45116769e-06 1.41460055e-06
      5.34456319e-07 -2.81085448e-07 -5.46822321e-07 -3.01023420e-07
      -2.07721698e-08 1.14015513e-07 2.47065145e-07 7.26388350e-07
      5.47046795e-07 3.41305849e-07 5.94143899e-07 7.52822018e-07
      4.86315116e-07 3.39251926e-07 6.20825517e-07 7.22173866e-07
      2.39468477e-07 -5.34145215e-07 -7.28561474e-07 -5.76269031e-07
      -1.50379867e-06 -1.35132814e-06 -1.12563566e-06 -8.12307576e-07
      -5.78774063e-07 -3.25823407e-07 -4.70639883e-08 8.33667784e-08
      -1.36974634e-07 4.63845993e-08 3.45095685e-07 7.28907921e-08
      4.61686625e-07 5.01043985e-07 7.30155492e-09 -5.94607002e-07
      -9.80087862e-07 -9.37777429e-07 -1.11243730e-06 -1.25907252e-06
      -8.31879106e-07 2.07309199e-07 4.25647016e-07 2.71973732e-07
      -2.25603074e-07 -8.41852852e-07 -8.21841979e-07 -2.52918227e-07
      4.18434240e-07 7.75462979e-07 7.57043949e-07 5.72748206e-07
      -2.61451220e-07 -1.11194572e-06 -1.25422355e-06 -6.88028479e-07
      -2.38426935e-07 -9.19612049e-08 1.38319933e-07 6.75751892e-07
      5.32197134e-07 3.62741588e-07 6.58803287e-07 9.36346794e-07
      6.56397219e-07 6.28453733e-07 8.02318993e-07 8.35068761e-07
      4.96708253e-07 1.17747028e-07 2.74953010e-07 5.50801531e-07
      -1.60333923e-06 -1.40403426e-06 -1.26914745e-06 -8.77055470e-07
      -5.41686916e-07 -3.07566779e-07 -1.41399042e-07 -7.87499488e-09
      -4.01446641e-07 -3.61321781e-07 -1.72953094e-07 -3.03384013e-07
      1.43318928e-07 2.10735209e-07 -9.66676339e-08 -8.67887934e-07
      -1.83188638e-06 -2.00374870e-06 -1.88521403e-06 -1.50337769e-06
      -4.42120722e-07 9.41118799e-07 1.37047869e-06 9.45372449e-07
      8.90748524e-08 -6.48889454e-07 -8.85113366e-07 -6.96195571e-07
      -1.62588634e-07 5.44002489e-07 5.16452815e-07 8.63108909e-08
      -6.51453888e-07 -1.56855174e-06 -1.93788833e-06 -1.43637942e-06
      -8.14708926e-07 -5.67186305e-07 -2.07179255e-07 4.42366257e-07
      5.79222331e-07 5.23131348e-07 6.81935319e-07 1.02125705e-06
      7.96866914e-07 6.62137097e-07 7.13521558e-07 5.68201870e-07
      3.70888444e-07 4.47195106e-07 7.90287913e-07 1.06594052e-06
      -1.90094738e-06 -1.52090570e-06 -1.18477647e-06 -8.03312275e-07
      -4.06281231e-07 -1.53592083e-07 -2.24736123e-08 3.33324728e-08
      -2.58516053e-07 -3.00832625e-07 -3.60167974e-07 -7.07740469e-07
      -3.96232480e-07 -3.72084315e-07 -5.04846355e-07 -1.18195612e-06
      -2.00662112e-06 -2.40381542e-06 -2.39172095e-06 -1.92558605e-06
      -8.17456907e-07 4.99703901e-07 1.40338011e-06 1.76059973e-06
      1.05913318e-06 1.31497714e-07 -2.34878343e-07 -3.92199127e-07
      -3.24372252e-07 2.75428050e-07 5.66099175e-07 1.38149332e-07
      -7.36689174e-07 -1.59923570e-06 -2.15598357e-06 -2.24011774e-06
      -1.53422559e-06 -9.19317245e-07 -5.82942675e-07 2.61750195e-08
      4.41605977e-07 5.02218654e-07 5.35339325e-07 6.16469208e-07
      5.23605195e-07 5.29377985e-07 4.75419910e-07 2.95111306e-07
      1.03964155e-07 3.13362563e-07 6.78637548e-07 8.63117009e-07
      -2.25406325e-06 -1.75457490e-06 -1.20494474e-06 -8.22403990e-07
      -3.14621388e-07 -1.18538175e-07 -7.83938248e-08 -3.83154415e-08
      1.51797208e-09 5.68232430e-08 -2.03871366e-07 -3.41846487e-07
      -2.14014619e-07 -4.07933868e-07 -6.94646019e-07 -1.24002440e-06
      -1.90726621e-06 -2.19142589e-06 -2.12972918e-06 -1.95836515e-06
      -1.42894373e-06 -4.63239019e-07 5.95542701e-07 1.25110182e-06
      1.29668661e-06 7.63511025e-07 3.40069306e-07 2.62065711e-08
      -3.95035471e-08 2.09248981e-07 5.58413092e-07 2.08157942e-07
      -5.96198845e-07 -1.40600605e-06 -1.94033419e-06 -2.27949317e-06
      -2.09540940e-06 -1.45348656e-06 -9.18869546e-07 -5.29452336e-07
      8.06688583e-09 1.90874289e-07 1.74204231e-07 5.33418252e-08
      -7.37860191e-08 5.53835164e-08 1.95832484e-07 2.50847791e-07
      5.84404276e-08 -3.60442121e-10 1.22284206e-07 2.29366648e-07
      -2.45122101e-06 -2.05766378e-06 -1.38677854e-06 -8.31985005e-07
      -3.45353953e-07 -3.46977447e-10 -7.86142706e-09 -2.35403917e-07
      5.21795984e-09 2.28543286e-07 -2.01642916e-08 -3.28466854e-08
      1.24600206e-07 -1.08178220e-07 -5.25425378e-07 -1.26476152e-06
      -1.81853204e-06 -1.80437371e-06 -1.59475769e-06 -1.43191653e-06
      -1.42870101e-06 -1.10772544e-06 -4.28990177e-07 1.67232443e-07
      4.27341121e-07 5.06682738e-07 3.30802692e-07 1.15301461e-07
      9.65651239e-08 3.86034969e-07 6.36194670e-07 4.76409099e-07
      -3.18095630e-07 -1.14168313e-06 -1.75427431e-06 -2.30851902e-06
      -2.38440680e-06 -1.89533398e-06 -1.22189999e-06 -6.66713674e-07
      -1.81634590e-07 -1.51787880e-08 -3.08173497e-07 -5.64634547e-07
      -6.00120586e-07 -4.82493306e-07 -2.46153803e-07 -6.85578598e-08
      2.71623648e-08 -9.61194146e-08 -1.62982687e-07 -5.19285059e-08
      -2.47538287e-06 -2.22388280e-06 -1.47859760e-06 -9.35516425e-07
      -5.34907201e-07 -1.26716671e-07 3.46536710e-09 -1.44272008e-07
      -1.24769471e-07 6.14299367e-08 -1.70112045e-07 -1.08943423e-08
      1.67332090e-07 -4.52410269e-08 -2.81899190e-07 -9.88810939e-07
      -1.58242415e-06 -1.56327440e-06 -1.16197373e-06 -8.95026005e-07
      -8.55076621e-07 -7.26841733e-07 -5.76655907e-07 -4.68906364e-07
      -3.73515746e-07 3.82793459e-08 2.80748367e-07 1.64152908e-07
      1.19805819e-07 2.51969368e-07 4.90308707e-07 6.67103166e-07
      3.94876849e-07 -1.57672403e-07 -8.60243119e-07 -2.03046011e-06
      -2.89107220e-06 -2.67440782e-06 -1.78897244e-06 -8.44921658e-07
      -2.57489830e-07 -2.47120067e-08 -3.09089131e-07 -7.19897173e-07
      -7.46960893e-07 -5.72329839e-07 -4.09113426e-07 -1.47037511e-07
      2.31422934e-08 -4.70840149e-08 -2.12360959e-07 -1.21560674e-07
      -2.27101350e-06 -2.17600927e-06 -1.45359809e-06 -7.53603786e-07
      -4.85703822e-07 -1.60604472e-07 1.59161345e-07 -1.95806429e-08
      -3.16709219e-07 -4.22705995e-07 -6.52759013e-07 -3.22662771e-07
      -1.61850622e-08 -4.82720210e-08 -1.82617441e-07 -5.73758257e-07
      -1.05320782e-06 -1.27237968e-06 -9.43523958e-07 -3.45902663e-07
      -6.32131076e-08 1.41471659e-07 3.23477792e-07 -1.63179550e-08
      -4.01872711e-07 3.28468843e-08 3.35333567e-07 2.32938220e-07
      2.93680586e-07 2.59533238e-07 3.37347956e-07 5.22421999e-07
      4.62263728e-07 1.23013550e-07 -6.29174451e-07 -1.65922393e-06
      -2.52403106e-06 -2.78558832e-06 -2.40730196e-06 -1.54699364e-06
      -7.67564757e-07 -2.97512059e-07 -3.07772467e-07 -5.62901334e-07
      -4.88696855e-07 -2.36347219e-07 -2.70950011e-07 1.23263675e-07
      3.13535082e-07 2.86685207e-07 -1.63270464e-08 -2.81037646e-08
      -1.95310122e-06 -1.96257565e-06 -1.39133454e-06 -5.51515541e-07
      -1.08404876e-07 5.19789580e-08 3.18720538e-07 2.66662710e-07
      -9.64950999e-08 -4.97844155e-07 -7.83077951e-07 -5.19706930e-07
      -1.02173068e-07 1.37007220e-07 -8.36196001e-09 -1.44605323e-07
      -4.34734545e-07 -7.20294167e-07 -4.68490299e-07 -1.53156350e-08
      4.34187626e-07 1.07804442e-06 1.39977055e-06 1.14050249e-06
      6.75266506e-07 5.20141555e-07 6.67275231e-07 5.95512688e-07
      4.07185183e-07 2.95568611e-07 1.76714408e-07 5.21225907e-08
      2.63698041e-08 -2.39581169e-07 -1.03324317e-06 -2.02106253e-06
      -2.65762810e-06 -2.64987557e-06 -2.38491111e-06 -1.90114361e-06
      -1.30041940e-06 -7.46413889e-07 -5.70714690e-07 -4.58933982e-07
      -3.83116060e-07 -1.18330323e-08 -2.85290924e-09 3.91662013e-07
      6.96586540e-07 6.37928565e-07 3.56981985e-07 3.21928667e-07
      -1.42913620e-06 -1.52910980e-06 -1.14571208e-06 -5.67353936e-07
      1.02493756e-08 2.78067631e-07 4.61709135e-07 5.26084250e-07
      3.61896753e-07 8.08843623e-08 -1.81544749e-07 2.27117667e-08
      3.74816068e-07 8.17783359e-07 4.50399114e-07 2.52584272e-07
      2.14681251e-07 -3.81667576e-07 -3.35758216e-07 2.27414347e-07
      2.32889533e-07 5.08053461e-07 1.06269658e-06 1.16102171e-06
      9.96141239e-07 1.11684130e-06 1.12388716e-06 1.04925095e-06
      7.01947215e-07 2.85036492e-07 -6.93052300e-08 -4.06473561e-07
      -6.35287222e-07 -8.21241599e-07 -8.14516341e-07 -1.52623284e-06
      -2.04185199e-06 -2.05791821e-06 -1.85116971e-06 -1.42842691e-06
      -1.08105132e-06 -7.89297758e-07 -6.23422466e-07 -4.87744046e-07
      -5.34566141e-07 -2.39944086e-07 6.81148222e-08 3.63098309e-07
      7.65244920e-07 7.25224822e-07 5.63189701e-07 5.22473897e-07
      -7.60675960e-07 -1.00923899e-06 -1.00830584e-06 -7.49950516e-07
      -3.00731642e-07 6.76774405e-08 2.66707161e-07 5.65229755e-07
      5.66157780e-07 3.87379373e-07 3.88571465e-07 5.39920165e-07
      7.96857591e-07 1.35320067e-06 1.45049262e-06 1.20844993e-06
      1.00653040e-06 7.13310385e-07 5.40903443e-07 7.56303393e-07
      5.34872527e-07 -2.30147403e-08 -3.97776390e-08 4.51942768e-08
      3.67886258e-07 7.25603002e-07 9.85845759e-07 1.21460016e-06
      1.04792218e-06 4.19093311e-07 -2.48106147e-07 -6.70156226e-07
      -5.53595612e-07 -1.79386447e-07 6.50082484e-07 6.70136501e-07
      2.44537972e-07 6.11700841e-08 6.13619164e-08 2.48689105e-07
      2.88299393e-08 -1.91059300e-07 -3.11626053e-07 -3.45102393e-07
      -3.05822368e-07 -2.97544915e-07 -4.22653557e-08 2.74097459e-07
      6.61355045e-07 7.34973980e-07 5.84228360e-07 5.09917186e-07
      -7.24151278e-07 -7.46662522e-07 -8.42653606e-07 -9.09907101e-07
      -6.21820107e-07 -2.04577660e-07 5.36205320e-08 5.27961618e-07
      6.96576592e-07 4.45375292e-07 2.66893039e-07 4.29295142e-07
      4.94050312e-07 1.01461285e-06 1.16326044e-06 1.50110475e-06
      2.18740661e-06 2.25593362e-06 1.93291908e-06 1.39849612e-06
      1.00818488e-06 3.49902734e-07 -3.46300880e-07 -7.64914375e-07
      -6.58170507e-07 -1.59793842e-07 3.22431390e-07 6.13763063e-07
      7.45626835e-07 7.00528858e-07 3.02720444e-08 -5.92461674e-07
      -2.36885271e-07 7.01220529e-07 2.36006326e-06 3.34370020e-06
      3.41943405e-06 3.14935573e-06 2.79921574e-06 2.40398049e-06
      1.49407413e-06 5.54455255e-07 1.70993939e-08 -3.92070518e-07
      -3.78455752e-07 -1.67037115e-07 -1.42251025e-07 1.22760994e-07
      4.20087190e-07 5.38657844e-07 4.67277204e-07 5.52258996e-07
      -8.28513862e-07 -6.36179379e-07 -5.44852981e-07 -7.07959884e-07
      -6.69345013e-07 -3.74597448e-07 -2.39433433e-07 2.68526378e-07
      7.83115922e-07 4.11500707e-07 6.71479654e-08 1.05271020e-07
      1.00036708e-07 3.13690492e-07 1.44669386e-07 2.30025321e-07
      1.23254335e-06 2.43209342e-06 2.67199403e-06 2.04354023e-06
      1.34383129e-06 9.88530132e-07 3.33831480e-07 -6.25368216e-07
      -1.33314495e-06 -1.17638911e-06 -6.28104658e-07 -2.72850883e-07
      -1.95755305e-07 -8.74051622e-08 -3.37119310e-08 -6.12600672e-07
      -5.36673383e-07 -1.86765448e-07 1.59625893e-06 3.33867683e-06
      3.99245846e-06 4.27083705e-06 4.11847213e-06 3.39544545e-06
      2.18545006e-06 8.22679624e-07 -2.33582924e-07 -9.85549150e-07
      -1.07227129e-06 -8.39852760e-07 -5.64861978e-07 -1.25738808e-07
      2.17554089e-07 3.99256493e-07 5.32941101e-07 6.41845475e-07
      -2.64085060e-07 -3.90852222e-07 -1.48449885e-07 -1.37587975e-07
      -3.05512657e-07 -3.87891390e-07 -3.01493714e-07 1.74522825e-07
      6.27958855e-07 1.89513813e-07 -2.71408794e-07 -8.26345214e-08
      -1.72442398e-07 -2.44530725e-07 -3.84174257e-07 -4.33535348e-07
      -1.01592910e-07 8.75304977e-07 1.46002469e-06 9.70735869e-07
      9.09559276e-07 1.10686130e-06 8.28311499e-07 -2.74166752e-07
      -1.35402070e-06 -1.77181710e-06 -1.62681852e-06 -1.37325219e-06
      -9.59853992e-07 -3.58354669e-07 -4.92171239e-07 -1.08923803e-06
      -1.26616328e-06 -1.55403723e-06 -6.72918191e-07 1.03008279e-06
      2.05712627e-06 2.74689023e-06 2.93534845e-06 2.55734744e-06
      1.77012646e-06 6.83014832e-07 -4.64205726e-07 -1.31128991e-06
      -1.42749559e-06 -1.41763940e-06 -1.16832325e-06 -6.86132182e-07
      -2.85307209e-07 1.46052258e-07 3.66014149e-07 5.38081110e-07
      3.37518998e-07 1.63302374e-07 1.46196427e-07 2.58028763e-07
      3.05689014e-07 1.63064399e-07 1.27247560e-07 4.46093651e-07
      3.01955708e-07 -9.04920583e-08 -4.63414352e-07 -4.67453503e-07
      -6.59729267e-07 -8.96759559e-07 -6.98937527e-07 -3.93778294e-07
      -5.71007206e-07 -3.79713157e-07 -1.30240679e-07 -1.72371642e-07
      -2.83324908e-07 1.70784546e-07 5.45775833e-07 -2.20276434e-07
      -1.20038783e-06 -1.72237787e-06 -2.27432065e-06 -2.25829149e-06
      -1.49567973e-06 -4.79944333e-07 -8.22656503e-08 -7.79335096e-07
      -1.49201173e-06 -2.09464565e-06 -1.87889214e-06 -7.07319487e-07
      3.21564386e-07 1.11169925e-06 1.52586676e-06 1.36181143e-06
      1.28184899e-06 8.00686905e-07 -1.24135111e-08 -6.32616150e-07
      -7.74383125e-07 -8.69695441e-07 -7.01891054e-07 -5.04520472e-07
      -5.71499299e-07 -1.56070442e-07 1.58417450e-07 1.44020746e-07
      3.91003255e-07 4.38237777e-07 3.87054087e-07 4.79009543e-07
      7.19563104e-07 8.03226555e-07 9.53490542e-07 1.16825061e-06
      4.37287383e-07 -1.24843979e-07 -4.16863571e-07 -4.96087182e-07
      -9.58238161e-07 -1.60356024e-06 -1.57422710e-06 -7.56367285e-07
      -5.29407998e-07 -5.36503933e-07 -3.53464429e-07 -2.64174275e-07
      -4.80638562e-07 -5.33403693e-07 -1.53451481e-07 -1.69366857e-07
      -6.04216098e-07 -1.15640114e-06 -1.97159056e-06 -2.35025936e-06
      -1.83047098e-06 -1.07088078e-06 -2.96388663e-07 -2.69231919e-07
      -8.21686797e-07 -1.41637031e-06 -1.39656072e-06 -1.15229602e-06
      -5.87197178e-07 -1.02908309e-07 4.37312394e-07 4.76044306e-07
      3.98607256e-07 4.03503265e-07 2.57812758e-07 2.11087126e-07
      3.66770792e-07 3.22995390e-07 4.29295682e-07 4.41980745e-07
      1.73082597e-07 3.05405791e-07 3.95362747e-07 2.53129571e-07
      5.77348317e-07 8.39714517e-07 8.93403353e-07 9.00240082e-07
      1.13239014e-06 1.53533495e-06 1.65967265e-06 1.80304414e-06
      9.58581950e-07 3.93520821e-07 1.77175366e-07 8.14666521e-08
      -4.19757100e-07 -1.57565057e-06 -2.07300832e-06 -1.57483805e-06
      -1.06398932e-06 -6.87079137e-07 -4.10284258e-07 -8.45083505e-08
      -6.14122584e-08 -2.17310841e-07 -2.71049373e-07 -7.54737997e-08
      3.16139108e-07 -1.40790377e-07 -1.17604020e-06 -1.75469177e-06
      -1.67115354e-06 -1.47431558e-06 -9.08698894e-07 -4.45157752e-07
      -6.14525902e-07 -8.52584037e-07 -5.68512917e-07 -4.97988822e-07
      -6.65915536e-07 -3.29341503e-07 4.48010979e-07 5.31781154e-07
      1.85083238e-07 -1.02948903e-07 -2.08650931e-07 -3.68833875e-09
      7.30501142e-07 1.21509959e-06 1.43044292e-06 1.56450665e-06
      1.27370777e-06 9.58490659e-07 8.34488048e-07 8.27843508e-07
      1.03269713e-06 1.45854267e-06 1.60660466e-06 1.65496829e-06
      1.77997879e-06 2.11017914e-06 2.21385949e-06 2.01534976e-06
      1.54909344e-06 1.28046304e-06 1.35623497e-06 1.36077267e-06
      8.19563354e-07 -2.00269014e-07 -1.33075105e-06 -1.78275479e-06
      -1.41578698e-06 -9.62188892e-07 -3.56088634e-07 6.39817870e-08
      -9.99558338e-08 -1.39110611e-07 -2.72972382e-08 2.62423839e-07
      6.26415613e-07 4.08576369e-07 -3.11470586e-07 -7.26766075e-07
      -9.93643425e-07 -1.36653489e-06 -1.37309155e-06 -8.28616123e-07
      -8.66958601e-07 -9.24909273e-07 -2.97660506e-07 1.37088094e-07
      3.11610258e-08 3.90019892e-07 1.12667180e-06 1.23185930e-06
      9.91958814e-07 6.67571612e-07 7.83164040e-08 -3.47458922e-07
      2.73404282e-07 1.11394604e-06 1.57579427e-06 1.61533410e-06
      1.29128364e-06 9.37330810e-07 6.93110564e-07 6.01374097e-07
      1.26285977e-06 1.73134742e-06 2.15237492e-06 2.38657049e-06
      2.60632896e-06 2.77004142e-06 2.38845178e-06 2.07086259e-06
      1.97187205e-06 2.00096679e-06 2.37468885e-06 2.42317628e-06
      1.90436481e-06 1.01420756e-06 -1.89511738e-07 -1.09727011e-06
      -1.11923839e-06 -7.67426798e-07 -2.42470634e-07 2.01786293e-07
      1.28685969e-07 -5.16601801e-08 3.20959998e-07 8.51067625e-07
      7.41693555e-07 1.11513799e-07 -1.78999670e-07 -2.61205003e-07
      -2.10612953e-07 -6.30486852e-07 -9.20145794e-07 -8.45039267e-07
      -7.34767411e-07 -7.45025318e-07 -5.67216247e-08 2.76487725e-07
      3.31892323e-07 6.57416649e-07 1.05465620e-06 1.13864712e-06
      1.19468245e-06 1.22532765e-06 4.15537556e-07 -8.34768173e-07
      -7.13953568e-07 3.65654557e-07 1.10663507e-06 1.39724989e-06
      9.77522063e-07 4.57153789e-07 1.00108174e-07 -1.87194171e-08
      1.28372653e-06 1.52622806e-06 2.22474046e-06 2.71368322e-06
      3.08437029e-06 3.36263088e-06 2.76241849e-06 2.10521534e-06
      2.19881395e-06 2.25764302e-06 2.30505088e-06 2.21168966e-06
      1.98287603e-06 1.51928691e-06 3.15258973e-07 -3.78601754e-07
      -4.71014346e-07 -3.91159176e-07 -5.48731229e-08 3.98819566e-07
      5.64313154e-07 4.19553260e-07 6.72086514e-07 1.03289108e-06
      7.48401874e-07 1.30474660e-07 -1.28894882e-07 -3.92419572e-08
      6.85641339e-08 -1.76015519e-07 -4.86901058e-07 -3.89498155e-07
      -3.44827896e-07 -1.80858393e-07 3.29633991e-07 3.79411347e-07
      3.00559520e-07 2.92744488e-07 3.43240401e-07 9.36423490e-08
      1.68424961e-07 5.37185883e-07 2.81252994e-07 -9.59208705e-07
      -1.44541832e-06 -6.82343966e-07 2.63413654e-07 9.23745006e-07
      1.02551030e-06 6.45266653e-07 -7.48083622e-08 -4.20205424e-07
      1.10657220e-06 1.11663098e-06 2.00759587e-06 2.71526619e-06
      3.08513040e-06 3.34137872e-06 2.86479599e-06 2.12307918e-06
      2.36047708e-06 2.31027889e-06 2.07752987e-06 1.56886097e-06
      1.25928523e-06 9.95296318e-07 2.25258091e-07 -2.54110773e-07
      5.49396582e-08 5.93900573e-08 -1.33506290e-07 4.15311803e-08
      5.39474854e-07 1.12601583e-06 1.16470233e-06 7.32233673e-07
      4.20600742e-07 5.57104045e-07 4.83552185e-07 4.74702034e-07
      2.95875822e-07 2.13015880e-07 8.58530953e-08 -1.69734392e-07
      -1.73602217e-07 2.05803190e-07 6.19988725e-07 5.43275348e-07
      4.48152207e-07 4.21972004e-08 -1.77963443e-07 -5.69756708e-07
      -4.71181409e-07 -2.42945845e-07 -9.16078307e-08 -7.23560845e-07
      -1.12245402e-06 -6.34614366e-07 2.41033661e-07 7.01551357e-07
      1.13039312e-06 1.38573876e-06 7.60062676e-07 -1.09201821e-07
      1.32071932e-06 1.19771403e-06 1.82605049e-06 2.34682534e-06
      2.49256391e-06 2.62395565e-06 2.49813638e-06 2.18623700e-06
      2.42384499e-06 2.09558243e-06 1.57523652e-06 9.54221946e-07
      6.26027486e-07 3.79843328e-07 -3.15069798e-07 -3.98107829e-07
      3.13432963e-07 2.25559518e-07 -2.65191915e-07 -2.19469996e-07
      3.70529847e-07 1.23177915e-06 1.67265625e-06 1.08595339e-06
      8.12263124e-07 1.27392582e-06 1.64407152e-06 1.51969380e-06
      1.47584876e-06 1.54572012e-06 1.42214810e-06 8.33377214e-07
      4.63672620e-07 1.04607841e-06 1.22659878e-06 9.53997414e-07
      6.52812616e-07 1.35401521e-07 -2.61885560e-07 -4.02084254e-07
      -1.79868792e-07 -6.79074077e-08 -2.75371104e-08 -1.37253821e-07
      -3.09143530e-07 -6.78647254e-08 3.90140229e-07 5.77131800e-07
      9.85725478e-07 1.73791545e-06 1.75093464e-06 8.23222194e-07
      1.96355131e-06 1.62288393e-06 1.97316263e-06 2.03204581e-06
      1.84160479e-06 1.82513668e-06 1.85396243e-06 1.67464202e-06
      1.77892639e-06 1.52066002e-06 1.14290924e-06 4.05705634e-07
      -1.33139384e-08 -2.06701642e-07 -4.34125724e-07 -1.47114420e-07
      5.66771462e-07 4.65341174e-07 -4.47532571e-08 -1.04596666e-07
      1.07316644e-08 7.19963964e-07 1.57049726e-06 2.10320331e-06
      2.59347507e-06 3.18589332e-06 3.13958162e-06 2.76905712e-06
      2.35450420e-06 2.51034817e-06 2.37823474e-06 1.99468650e-06
      1.41279213e-06 1.78067444e-06 2.13970361e-06 1.78874814e-06
      1.21129051e-06 3.03755229e-07 -3.00175714e-07 -3.58864156e-07
      1.81787811e-07 5.27445309e-07 6.67501467e-07 6.79958816e-07
      5.35766105e-07 3.16563444e-07 3.63271312e-07 2.52864311e-07
      6.98128076e-07 1.62628294e-06 2.20319725e-06 1.82171891e-06
      2.97969291e-06 2.53585654e-06 2.25409030e-06 1.83927625e-06
      1.54182396e-06 1.44722503e-06 1.12620739e-06 9.59193812e-07
      7.53200425e-07 6.06925653e-07 5.66639415e-07 2.89960298e-07
      -3.84117243e-07 -5.23308870e-07 -2.08549736e-07 2.27459893e-07
      8.06102719e-07 7.61819592e-07 4.97298913e-07 5.36441860e-07
      4.37227982e-07 5.50864343e-07 1.27015437e-06 2.22089579e-06
      3.28113197e-06 4.24358723e-06 4.19655044e-06 3.92137599e-06
      3.46458432e-06 3.31415754e-06 3.01175828e-06 2.56583803e-06
      2.31845320e-06 2.25071494e-06 2.32663410e-06 2.34398249e-06
      1.95261873e-06 1.18023650e-06 4.87563170e-07 2.04523786e-07
      4.25791285e-07 5.45916862e-07 9.23278662e-07 1.08032975e-06
      1.15649220e-06 5.79759558e-07 7.34826315e-08 -1.85683291e-07
      3.13014453e-07 9.93401386e-07 1.69603038e-06 2.07359426e-06
      3.16243541e-06 2.92454547e-06 2.52548330e-06 1.85974909e-06
      1.67579140e-06 1.61541436e-06 1.00945954e-06 3.83649365e-07
      -4.61865071e-08 -2.23389833e-07 -1.24110272e-07 7.08683245e-08
      -1.42199340e-07 -3.53167138e-07 9.60634168e-08 8.25606833e-07
      1.23488940e-06 1.03302364e-06 1.05235551e-06 1.23300833e-06
      9.83516770e-07 1.16421654e-06 1.77156426e-06 2.17496085e-06
      3.10472797e-06 3.97402118e-06 4.05030823e-06 3.88588933e-06
      4.06030586e-06 4.18412128e-06 3.96131463e-06 3.54931490e-06
      3.08372091e-06 2.74442323e-06 2.37184736e-06 2.45360707e-06
      2.09223072e-06 1.87701596e-06 1.47925311e-06 1.21147025e-06
      1.00040722e-06 6.63262767e-07 7.13652582e-07 1.26250359e-06
      1.79900485e-06 1.17719742e-06 2.95086551e-07 -9.69540821e-08
      5.16292360e-08 1.42699051e-07 6.07437698e-07 1.07498033e-06
      2.48954188e-06 2.40461850e-06 2.01239573e-06 1.53201654e-06
      1.67913709e-06 1.67230985e-06 1.00807836e-06 4.11559483e-07
      -7.75785978e-08 -4.73946841e-07 -3.57944515e-07 -2.46387430e-07
      -3.66226061e-07 -3.75420456e-07 3.07592046e-07 1.02719207e-06
      1.22003803e-06 1.13456474e-06 1.36138715e-06 1.31603178e-06
      1.19468143e-06 1.49298307e-06 2.21083019e-06 2.54865586e-06
      2.54092629e-06 2.80190761e-06 3.02039052e-06 3.05288791e-06
      3.30574153e-06 4.15111435e-06 4.54745532e-06 4.37087283e-06
      3.81688415e-06 3.25883479e-06 2.83123268e-06 2.40708528e-06
      1.94736231e-06 2.21512437e-06 2.28912040e-06 2.08152096e-06
      1.80736367e-06 1.27205533e-06 6.02670355e-07 9.41870155e-07
      1.89530647e-06 1.54358611e-06 5.91832702e-07 4.24313356e-07
      4.26695919e-07 -1.33863097e-07 -6.11227563e-07 -4.42234409e-07
      1.22967140e-06 1.49097673e-06 1.30707883e-06 9.49958462e-07
      1.27558405e-06 1.47939693e-06 1.09362554e-06 6.62094010e-07
      3.62269617e-07 -6.29431582e-08 -4.81210122e-07 -5.31235287e-07
      -6.35726849e-07 -5.44503905e-07 4.30299423e-07 1.08678444e-06
      1.43904379e-06 1.62199001e-06 1.48171944e-06 1.18427101e-06
      1.17824948e-06 1.49073651e-06 2.11915244e-06 2.49957702e-06
      2.21004166e-06 2.12934174e-06 2.16887520e-06 2.12362829e-06
      2.32906746e-06 3.34435049e-06 4.30337150e-06 4.61242780e-06
      4.05030005e-06 3.63755066e-06 3.21261655e-06 2.62973026e-06
      2.21551431e-06 2.42185956e-06 2.98196278e-06 3.06494690e-06
      2.75638058e-06 2.22806898e-06 1.45940021e-06 1.02647425e-06
      1.40350153e-06 1.25130589e-06 7.57931105e-07 9.70548285e-07
      9.81003950e-07 5.37171672e-07 -2.32498721e-07 -7.59839963e-07
      8.65424852e-08 4.48134386e-07 6.30441718e-07 3.50308596e-07
      5.57822602e-07 7.76950515e-07 6.91534183e-07 5.97586734e-07
      8.79918105e-07 7.26015116e-07 2.79565143e-07 -2.61620642e-07
      -5.44201896e-07 -3.91214570e-07 5.18172669e-07 1.33547462e-06
      1.77606978e-06 2.31661761e-06 2.00218619e-06 1.15560306e-06
      1.21433663e-06 1.75076082e-06 2.00739009e-06 2.15077694e-06
      2.06007371e-06 1.85667466e-06 1.64903065e-06 1.38373525e-06
      1.69850466e-06 2.42548504e-06 3.62018841e-06 4.38394818e-06
      4.12526424e-06 3.71194869e-06 3.37069037e-06 3.17686295e-06
      2.80172617e-06 2.93012545e-06 3.46381717e-06 3.66194854e-06
      3.32365039e-06 2.98068994e-06 2.29193984e-06 1.48507036e-06
      1.49690402e-06 1.28561339e-06 1.16574404e-06 1.37148800e-06
      1.26888835e-06 1.02493539e-06 4.19161125e-07 -1.15729584e-07
      -1.35158461e-06 -6.76479544e-07 9.07851714e-08 2.65632309e-07
      4.54336799e-07 5.60098044e-07 5.31762566e-07 5.71515500e-07
      1.08685572e-06 1.41946146e-06 1.13341503e-06 7.90796435e-07
      3.22150470e-07 1.61005445e-07 8.37694301e-07 1.25455506e-06
      1.71850695e-06 2.29535658e-06 2.24767564e-06 1.25309430e-06
      1.09141229e-06 1.48324943e-06 1.46228797e-06 1.43501882e-06
      1.72675243e-06 1.82607630e-06 1.53382086e-06 1.05697234e-06
      1.00790828e-06 1.56819317e-06 2.62367757e-06 3.52578058e-06
      3.88542185e-06 3.92661013e-06 3.58878287e-06 3.37659208e-06
      3.15286297e-06 3.18229377e-06 3.07475943e-06 3.06961624e-06
      2.75668685e-06 2.48298534e-06 2.10914664e-06 1.54286045e-06
      1.61723347e-06 1.70101305e-06 1.57472289e-06 1.62639958e-06
      1.24819655e-06 1.00327441e-06 4.05491335e-07 -1.73598764e-07
      -2.00943964e-06 -1.17962418e-06 2.75829970e-10 7.25860502e-07
      1.22588438e-06 1.15893386e-06 1.12165162e-06 1.31316335e-06
      2.03792570e-06 2.56894214e-06 2.60826437e-06 2.38738403e-06
      1.83652708e-06 1.25688155e-06 1.33605988e-06 1.55493512e-06
      1.96637302e-06 2.47326329e-06 2.45623255e-06 1.59186823e-06
      1.47730043e-06 1.45201125e-06 1.16592798e-06 8.46551870e-07
      1.32842194e-06 1.78958214e-06 1.82224039e-06 1.35341008e-06
      1.10328710e-06 1.26640782e-06 1.94951804e-06 2.87009084e-06
      3.45098169e-06 3.85092881e-06 3.86254169e-06 3.66431459e-06
      3.30348712e-06 2.78609582e-06 2.26881230e-06 1.84458054e-06
      1.58643070e-06 1.28145757e-06 1.45133561e-06 1.36885478e-06
      1.38544715e-06 2.09059522e-06 2.04672187e-06 1.86930527e-06
      1.41435294e-06 1.01154501e-06 1.31867083e-07 -5.36963398e-07
      -1.91939421e-06 -1.11021109e-06 1.43782216e-07 1.17892705e-06
      2.11921292e-06 2.01313196e-06 1.66155701e-06 1.75961441e-06
      2.64612640e-06 3.15264128e-06 3.50249525e-06 3.49409675e-06
      2.98185455e-06 2.14243414e-06 2.19728804e-06 2.32705679e-06
      2.49499362e-06 2.77400773e-06 2.84842281e-06 2.31321815e-06
      2.06602590e-06 1.96619703e-06 1.44463161e-06 9.68256700e-07
      1.25091242e-06 1.72372984e-06 1.97307759e-06 1.71602994e-06
      1.44831563e-06 1.57636566e-06 2.07001608e-06 2.49668142e-06
      3.02896865e-06 3.64328343e-06 3.95567167e-06 3.90119430e-06
      3.51376252e-06 2.65064432e-06 1.89698710e-06 1.12386442e-06
      6.89252602e-07 5.69548831e-07 9.89077648e-07 1.23133725e-06
      1.28255454e-06 2.04021057e-06 2.46187233e-06 2.23357074e-06
      1.78389860e-06 1.25399424e-06 9.16861893e-08 -7.41097324e-07
      -2.91110069e-07 -2.16288967e-07 -2.51229011e-07 -2.57063306e-07
      -1.91502949e-07 8.29651086e-08 5.05819287e-07 7.15525744e-07
      5.62734328e-07 3.39141451e-07 5.02496107e-07 3.39921684e-07
      1.28485610e-07 4.37640608e-08 1.88291793e-07 1.31389996e-07
      -1.66221113e-07 -1.82439663e-07 1.92587805e-07 5.24585971e-07
      4.72532008e-07 3.27829156e-07 2.41821823e-07 3.64606450e-07
      4.33263978e-07 1.25461497e-07 -1.65761392e-07 -3.10604634e-07
      -2.40757117e-07 -2.03337777e-07 -1.47732948e-07 8.74526123e-08
      4.21959129e-07 6.03170349e-07 6.05562548e-07 6.85174427e-07
      9.85600082e-07 1.04056198e-06 9.18375008e-07 6.32120475e-07
      4.15050181e-07 6.32515366e-07 6.77233913e-07 3.77570416e-07
      2.93777646e-07 3.85893486e-07 2.68700205e-07 7.17845765e-08
      -1.31337970e-07 -2.29099612e-07 -3.23582299e-07 -4.14683882e-07
      -1.77366260e-07 -1.93023070e-07 -2.71878520e-07 -1.70817444e-07
      -8.32593443e-08 -7.36784003e-08 -3.94634050e-08 1.98103606e-07
      4.19845037e-07 2.98329638e-07 1.45154829e-07 3.75607272e-07
      1.84746142e-07 -1.67336847e-08 -6.68054838e-08 5.88758098e-10
      -5.10707423e-08 -1.06507926e-07 6.15667659e-08 3.51079478e-07
      5.46190734e-07 4.62795867e-07 3.61324510e-07 3.32865255e-07
      4.24748549e-07 4.21524362e-07 1.11143287e-07 -1.41486083e-07
      -1.91372038e-07 -8.69131540e-08 -4.83293334e-08 -5.86876787e-08
      2.26444214e-07 5.44589170e-07 6.62188313e-07 5.28776923e-07
      6.11798271e-07 8.79761728e-07 9.17982561e-07 7.78380581e-07
      5.83558403e-07 5.59542229e-07 5.27286659e-07 3.72219517e-07
      5.08898985e-08 9.10499232e-09 1.42892674e-07 4.45050539e-08
      -1.13551479e-07 -2.98264951e-07 -3.99775217e-07 -3.28836563e-07
      -1.76618293e-08 -1.64587860e-07 -2.17824280e-07 -8.24433499e-08
      8.62922462e-08 1.62263348e-07 3.99679827e-08 1.60700075e-08
      2.08934239e-07 3.34442916e-07 2.14779377e-07 1.22882696e-07
      2.51971471e-07 6.86546855e-08 -1.56853517e-07 -2.79347091e-07
      -1.37156590e-07 -6.67438940e-08 6.83535575e-08 1.55713266e-07
      3.66264487e-07 5.28461214e-07 4.12891211e-07 4.13586008e-07
      3.91079027e-07 5.47102672e-07 4.88762510e-07 1.80120949e-07
      5.33318953e-08 7.35605283e-08 1.72268784e-07 4.88265570e-08
      1.24728246e-07 3.59531299e-07 6.49590106e-07 7.98308918e-07
      6.04751335e-07 7.22773109e-07 8.23056723e-07 7.48528976e-07
      6.10983591e-07 5.86882550e-07 5.68431119e-07 2.44836798e-07
      -6.50992220e-08 -3.17060142e-07 -1.91815715e-07 -3.13217319e-09
      -7.76914959e-08 -2.78521952e-07 -4.92725007e-07 -4.40344706e-07
      -1.25591257e-07 -6.37914397e-08 -2.72121468e-07 -3.49718263e-08
      2.16426841e-07 3.94871307e-07 3.73295080e-07 2.25291515e-07
      1.81060102e-07 3.43271552e-07 4.70657397e-07 2.40748335e-07
      2.56327297e-07 2.58347256e-07 -2.87324387e-08 -3.21109326e-07
      -3.90842075e-07 -7.21990929e-08 1.49808869e-07 2.31155809e-07
      2.42440734e-07 4.22038823e-07 5.51602227e-07 5.25187602e-07
      5.57947772e-07 6.35832123e-07 8.09737458e-07 6.59698287e-07
      4.47021534e-07 3.85834113e-07 3.33313636e-07 2.63987346e-07
      1.99564397e-07 2.22410748e-07 3.78727322e-07 7.38257484e-07
      8.66562459e-07 7.07908669e-07 7.62249613e-07 6.88921034e-07
      5.69029908e-07 4.31440526e-07 5.75817921e-07 3.53695668e-07
      -7.71619639e-08 -3.40650928e-07 -4.11669106e-07 -1.67506983e-07
      -1.67123897e-08 -2.66919415e-07 -4.52343755e-07 -5.74961803e-07
      -2.40474041e-08 -1.03874790e-07 -1.65263941e-07 -1.48717234e-07
      3.06764377e-07 5.97005396e-07 6.86278952e-07 6.26944654e-07
      3.33822527e-07 4.49959060e-07 6.26221436e-07 5.47030936e-07
      3.69364017e-07 2.89392545e-07 1.33636044e-08 -1.74249692e-07
      -5.03522813e-07 -3.71612145e-07 1.48058035e-07 2.97249358e-07
      2.65333540e-07 2.64403127e-07 4.21705522e-07 6.08282107e-07
      6.81844824e-07 7.64620950e-07 8.90583124e-07 1.08317397e-06
      9.83834411e-07 7.44374461e-07 7.06385208e-07 4.38235645e-07
      2.66925724e-07 1.78184422e-07 1.44244964e-07 3.10877084e-07
      7.03751994e-07 9.11978645e-07 7.35070728e-07 6.65716243e-07
      4.49464181e-07 3.04782077e-07 3.12744163e-07 3.61458206e-07
      1.55552627e-07 -2.10732608e-07 -2.72268693e-07 -3.26623734e-07
      -1.21380864e-07 -8.17178147e-08 -4.19662342e-07 -5.76561149e-07
      2.47578726e-07 -4.38710179e-09 -7.28653475e-08 -4.44716086e-08
      2.43566234e-07 7.35875290e-07 8.77053481e-07 8.17791374e-07
      6.79123673e-07 5.21765799e-07 6.40121584e-07 6.94621178e-07
      6.64963068e-07 3.71664470e-07 1.01800751e-07 -2.05239743e-07
      -3.46010637e-07 -5.55207521e-07 -1.96684454e-07 2.79437529e-07
      4.31337867e-07 3.14100191e-07 1.83678068e-07 3.98658045e-07
      6.20191770e-07 6.78125957e-07 8.14020382e-07 1.05318315e-06
      1.21031655e-06 1.17855598e-06 1.06459152e-06 8.82193262e-07
      5.63658546e-07 1.38822884e-07 -1.17798227e-09 6.38563691e-08
      3.08953901e-07 7.88813281e-07 9.02579472e-07 6.41286192e-07
      4.27622552e-07 1.90830775e-07 1.92020565e-07 1.59116595e-07
      1.79609472e-07 5.46326469e-08 -2.94832869e-08 -1.76950834e-07
      -2.13013209e-07 -3.15306110e-08 -7.60433991e-08 -3.97181537e-07
      3.29221791e-07 2.22099032e-07 3.01324548e-08 1.57811201e-07
      3.10997933e-07 6.21217225e-07 1.02775232e-06 9.87448288e-07
      7.02053569e-07 6.01766033e-07 5.69120800e-07 5.15417071e-07
      7.15445310e-07 7.52316907e-07 4.35579466e-07 5.75067673e-08
      -3.36849610e-07 -4.47985798e-07 -4.09285661e-07 -3.31706538e-08
      4.30201396e-07 6.27307656e-07 4.20422310e-07 2.24446339e-07
      2.75306007e-07 4.15299525e-07 4.94796154e-07 6.11509847e-07
      8.56489748e-07 1.19863216e-06 1.33950914e-06 1.17265461e-06
      9.63987191e-07 4.84544273e-07 -6.71784548e-08 -1.84029645e-07
      7.49060902e-08 4.68138524e-07 8.91856303e-07 8.77998673e-07
      6.85680277e-07 3.97722260e-07 2.64666568e-07 2.10381856e-07
      1.60450085e-07 1.74475446e-07 2.35016273e-07 1.78084093e-07
      1.54106683e-08 1.10418682e-07 2.62422930e-07 8.88130458e-08
      -2.18002597e-07 2.64262326e-07 2.76973452e-07 3.16807188e-07
      4.11541947e-07 4.33775796e-07 8.12451674e-07 1.12231896e-06
      8.95556866e-07 4.87133718e-07 4.55046461e-07 2.41508957e-07
      4.11765484e-07 9.27667031e-07 9.45838110e-07 6.55807355e-07
      2.79015655e-09 -4.51588278e-07 -4.35231129e-07 -2.71636878e-07
      1.48598104e-07 6.34659955e-07 7.25358063e-07 3.72030343e-07
      1.06677952e-07 -5.05044850e-09 1.59378146e-07 1.46576610e-07
      2.61089724e-07 6.57369128e-07 1.12737030e-06 1.26604675e-06
      1.14282795e-06 7.54198481e-07 2.19138187e-07 -2.50973329e-07
      -1.95803750e-07 2.78568422e-07 6.70576128e-07 9.36408981e-07
      9.38508720e-07 8.67564722e-07 6.12971235e-07 4.24632731e-07
      3.52788675e-07 4.04625496e-07 4.64284994e-07 4.23294807e-07
      2.02529336e-07 3.19630743e-07 4.97882695e-07 4.71883425e-07
      -6.16115528e-07 -2.83491861e-08 3.74682998e-07 4.74034209e-07
      4.02064273e-07 1.70543061e-07 4.87622231e-07 1.02210606e-06
      1.29778311e-06 8.33137790e-07 3.67672726e-07 2.77700394e-07
      3.19365000e-07 7.58610838e-07 1.07466030e-06 1.13655369e-06
      6.81531844e-07 -9.26460046e-08 -4.02662238e-07 -3.54999344e-07
      -2.00527865e-07 3.75920109e-07 8.37124787e-07 7.55429141e-07
      2.90590435e-07 -2.50855887e-08 -1.48854269e-07 -9.22654309e-08
      8.98605901e-09 2.36334174e-07 6.10485472e-07 9.84281769e-07
      1.05081199e-06 7.69927624e-07 4.00081717e-07 -3.16562812e-08
      -3.05470564e-07 -2.37719426e-08 3.63051726e-07 6.90455408e-07
      8.24309211e-07 1.10776648e-06 1.07756807e-06 7.93595973e-07
      4.74314106e-07 3.52224305e-07 6.18235049e-07 6.89746287e-07
      3.95550103e-07 3.30865959e-07 4.53065297e-07 5.74987780e-07
      -3.45740006e-07 -4.28049304e-07 1.25771251e-07 2.60093941e-07
      1.91661982e-07 -9.13121383e-08 -1.08967100e-07 5.19858929e-07
