<?xml version="1.0"?>
<opencv_storage>
<my_svm type_id="opencv-ml-svm">
  <svm_type>C_SVC</svm_type>
  <kernel><type>LINEAR</type></kernel>
  <C>1.</C>
  <term_criteria><epsilon>2.2204460492503131e-16</epsilon>
    <iterations>1000000</iterations></term_criteria>
  <var_all>108160</var_all>
  <var_count>108160</var_count>
  <class_count>2</class_count>
  <class_labels type_id="opencv-matrix">
    <rows>1</rows>
    <cols>2</cols>
    <dt>i</dt>
    <data>
      0 1</data></class_labels>
  <sv_total>1</sv_total>
  <support_vectors>
    <_>
      -3.67197208e-06 -3.47972014e-06 -2.97153724e-06 -2.60318188e-06
      -2.16577087e-06 -1.28237195e-06 -5.76357138e-07 3.43165681e-07
      9.35654668e-07 1.49332152e-06 1.78448443e-06 1.57040768e-06
      8.75640069e-07 -4.38201972e-08 -1.29356579e-06 -2.24801556e-06
      -2.75561752e-06 -2.94860592e-06 -2.71005069e-06 -2.54849260e-06
      -2.52976611e-06 -2.66812526e-06 -2.95373275e-06 -3.46962247e-06
      -4.18007949e-06 -4.84760130e-06 -5.18282332e-06 -5.25959194e-06
      -5.05955768e-06 -4.67929976e-06 -4.23959682e-06 -3.86958754e-06
      -3.69018858e-06 -3.87227647e-06 -4.50845755e-06 -5.24326833e-06
      -6.18379045e-06 -7.17650710e-06 -7.77929290e-06 -8.25942607e-06
      -8.14964551e-06 -7.29530848e-06 -6.07383981e-06 -4.57563738e-06
      -3.14726844e-06 -1.57313684e-06 3.86667978e-08 1.44197656e-06
      3.01512682e-06 3.69442637e-06 4.36010259e-06 4.58835711e-06
      7.43533292e-07 7.74521709e-07 8.18518799e-07 8.41974327e-07
      9.21622529e-07 1.00334933e-06 1.25472627e-06 1.36808001e-06
      1.48663992e-06 1.52320763e-06 1.39770953e-06 1.02525644e-06
      4.62733141e-07 -4.26785078e-08 -2.04256196e-07 -1.15173052e-07
      3.29954091e-08 5.44508055e-07 1.14423835e-06 1.58946455e-06
      1.75375339e-06 1.63771915e-06 1.29445402e-06 8.62404534e-07
      4.23408210e-07 3.81657514e-08 -2.58332534e-07 -4.23853521e-07
      -4.45271326e-07 -3.68186136e-07 -2.91837694e-07 -2.44174032e-07
      -1.66310414e-07 -2.67579452e-08 1.44602822e-07 3.00457231e-07
      3.18731963e-07 1.06976998e-07 -5.29628153e-07 -1.39917825e-06
      -1.96058431e-06 -2.33798210e-06 -2.38433358e-06 -2.03769468e-06
      -1.51249344e-06 -8.83247196e-07 -2.80444027e-07 2.99590653e-07
      6.73798638e-07 1.12686575e-06 1.47310664e-06 1.58765397e-06
      2.53634357e-06 2.48789479e-06 2.28345812e-06 2.16786566e-06
      2.09261043e-06 2.07280414e-06 2.07896051e-06 1.90635137e-06
      1.66897871e-06 1.12593261e-06 4.87604666e-07 -9.90065061e-08
      -4.79997311e-07 -5.70355780e-07 -3.77763826e-07 1.00436850e-07
      8.31853981e-07 1.65223560e-06 2.13717317e-06 2.43425234e-06
      2.58052796e-06 2.53629150e-06 2.36978462e-06 2.19492040e-06
      2.05644164e-06 1.97263034e-06 1.86873899e-06 1.76495303e-06
      1.68163638e-06 1.69062025e-06 1.85719830e-06 2.27547775e-06
      2.98567807e-06 3.58126636e-06 4.29404508e-06 4.66972642e-06
      4.53546181e-06 4.11180508e-06 3.59366618e-06 3.02256103e-06
      2.61378909e-06 2.68720783e-06 3.12720363e-06 3.61842149e-06
      3.48879598e-06 3.22802384e-06 2.78462767e-06 1.86763066e-06
      8.16813611e-07 8.33883789e-08 -3.17065229e-07 -4.22320682e-07
      1.95160874e-06 1.74434763e-06 1.10744452e-06 1.72054683e-07
      -8.88303532e-07 -2.13977887e-06 -2.95292307e-06 -3.41152622e-06
      -3.66866425e-06 -3.87354567e-06 -3.91800359e-06 -3.89858496e-06
      -3.78062191e-06 -3.26659301e-06 -2.30191563e-06 -1.09615110e-06
      -2.35546921e-07 2.88966930e-07 5.71274370e-07 5.03632691e-07
      1.94509777e-08 -5.62144180e-07 -9.08905179e-07 -6.08606115e-07
      -1.62574267e-07 1.47237571e-07 3.07025431e-07 2.14360341e-07
      -6.83312684e-10 -2.08989448e-07 -1.60876652e-07 -1.69230940e-08
      2.58041339e-08 4.24393392e-08 4.12210454e-07 5.99508269e-07
      3.77795459e-07 -5.68381786e-08 -5.50165225e-07 -1.02651052e-06
      -1.16172862e-06 -2.74971484e-07 9.13651888e-07 2.07572566e-06
      2.96754183e-06 3.43288434e-06 3.26062514e-06 2.74318541e-06
      2.11121164e-06 1.46393825e-06 9.52686037e-07 7.74823491e-07
      -9.81955054e-07 -1.22434176e-06 -1.80529025e-06 -2.36939991e-06
      -3.82207600e-06 -5.16095497e-06 -6.07809034e-06 -6.83706412e-06
      -7.50359322e-06 -7.93248182e-06 -7.78132471e-06 -6.94800610e-06
      -5.83483370e-06 -4.54889278e-06 -3.32741320e-06 -2.40751956e-06
      -1.84501641e-06 -1.56775798e-06 -1.37409029e-06 -1.11990016e-06
      -5.65224525e-07 -7.16351451e-07 -1.05296442e-06 -1.03611717e-06
      -7.11913799e-07 -3.78362074e-07 -5.13386809e-08 1.66814431e-07
      1.95190992e-07 -9.07794639e-09 -3.87256705e-07 -1.03709488e-06
      -1.71439717e-06 -2.26064617e-06 -2.94185634e-06 -3.28269175e-06
      -3.61342859e-06 -4.18631407e-06 -4.66477786e-06 -4.72217835e-06
      -4.22595713e-06 -3.42077578e-06 -2.47217145e-06 -1.45313095e-06
      -5.21413369e-07 1.36522345e-07 2.87878891e-07 3.16975672e-07
      3.88628479e-07 4.28024521e-07 4.49375335e-07 4.45614432e-07
      -2.31630702e-06 -2.44207922e-06 -2.56408657e-06 -3.16397836e-06
      -4.31412627e-06 -5.16369573e-06 -6.05029936e-06 -6.78252763e-06
      -7.31927594e-06 -7.57447560e-06 -7.47609192e-06 -7.08456355e-06
      -6.44920601e-06 -5.40052906e-06 -4.18814625e-06 -3.34613082e-06
      -2.93760309e-06 -2.71494469e-06 -1.60120783e-06 1.84284133e-07
      1.55133989e-06 1.82434803e-06 1.33864410e-06 7.11807957e-07
      2.72583947e-07 3.93824813e-08 -2.59144372e-07 -6.15209615e-07
      -1.15070770e-06 -1.84082080e-06 -2.23189932e-06 -1.96920359e-06
      -1.75379728e-06 -1.84612998e-06 -1.48505353e-06 -1.08260531e-06
      -1.09367249e-06 -1.39997053e-06 -1.53486917e-06 -1.60485740e-06
      -1.55351290e-06 -1.08515962e-06 -3.98570364e-07 3.05502539e-07
      8.52590119e-07 1.23590701e-06 1.40839268e-06 1.37978668e-06
      1.05155061e-06 6.02471459e-07 2.38651523e-07 8.31318161e-08
      -5.04409400e-07 -5.93764184e-07 -1.05138349e-06 -2.00724890e-06
      -3.06408742e-06 -4.50437392e-06 -5.81850009e-06 -6.57274268e-06
      -6.74161720e-06 -6.43942985e-06 -6.09713516e-06 -5.82757684e-06
      -5.63243611e-06 -5.37851474e-06 -5.02383728e-06 -4.53952907e-06
      -3.84700888e-06 -2.69375232e-06 -1.30884803e-06 1.79237205e-07
      1.55779708e-06 2.56681233e-06 2.32885918e-06 1.95735993e-06
      1.59300316e-06 1.20965933e-06 8.35455353e-07 3.03817586e-07
      -4.74032134e-07 -1.19971799e-06 -1.68768895e-06 -1.79274434e-06
      -1.53352687e-06 -1.18211597e-06 -1.03916693e-06 -7.28020098e-07
      -3.27250177e-07 -2.84847133e-08 -5.96316383e-08 5.91581433e-08
      3.30899269e-07 5.37088511e-07 5.43160297e-07 3.86890747e-07
      3.68578498e-07 1.85036626e-07 3.22599533e-07 4.54529015e-07
      2.56611941e-07 7.83781928e-08 -8.29635809e-08 -1.34224067e-07
      3.77866307e-08 1.08042777e-07 -7.33338155e-08 -8.56999748e-07
      -1.98262728e-06 -3.12563543e-06 -4.02294245e-06 -4.55882173e-06
      -4.45551177e-06 -3.67277289e-06 -2.80899121e-06 -2.13121871e-06
      -1.88955642e-06 -2.22069866e-06 -3.02927333e-06 -3.63825484e-06
      -3.51790254e-06 -2.24174710e-06 -6.62654998e-07 7.11027837e-07
      1.18655635e-06 1.28328020e-06 1.56809222e-06 1.41694477e-06
      9.57497377e-07 4.45399706e-07 4.09057428e-08 -3.26835959e-07
      -3.18344746e-07 -1.52213232e-07 1.25792951e-07 3.22434545e-07
      2.09515164e-07 1.05872004e-07 -1.82481557e-07 -5.55753672e-07
      -8.12245332e-07 -1.26807481e-06 -1.80889731e-06 -2.03946411e-06
      -2.09945256e-06 -2.50040694e-06 -3.07952905e-06 -3.74391311e-06
      -4.29920829e-06 -4.93501557e-06 -4.96106532e-06 -4.61515583e-06
      -3.92409447e-06 -3.26664099e-06 -2.94103938e-06 -2.84604675e-06
      -2.52127097e-06 -2.38516714e-06 -2.11981228e-06 -1.88338652e-06
      -1.62598792e-06 -1.06934567e-06 -4.97902931e-07 4.68077239e-08
      7.84232384e-07 1.45009210e-06 1.67952749e-06 1.53413021e-06
      1.01210026e-06 -1.79879024e-07 -1.78684547e-06 -3.25478254e-06
      -4.01575608e-06 -3.69497479e-06 -2.51517804e-06 -1.26782152e-06
      9.26090422e-08 6.01216527e-07 4.68936037e-07 3.47834742e-07
      2.96736317e-07 3.73478315e-07 7.38649987e-07 1.21852247e-06
      1.61078935e-06 1.79209405e-06 1.64589835e-06 1.20479251e-06
      4.44538557e-07 -2.80742938e-07 -9.17035834e-07 -1.24957296e-06
      -1.31019260e-06 -1.49304913e-06 -1.61047763e-06 -1.82472513e-06
      -2.08978418e-06 -2.65824951e-06 -3.65382493e-06 -4.92510480e-06
      -5.97650933e-06 -6.54094083e-06 -6.87799820e-06 -6.84294355e-06
      -6.05168998e-06 -4.60587489e-06 -3.39537110e-06 -2.98841428e-06
      -2.46882382e-06 -2.15494333e-06 -1.26432406e-06 -8.90644358e-08
      7.85181044e-07 7.63068215e-07 -3.58058614e-08 -1.39867075e-06
      -3.13634609e-06 -4.84672364e-06 -6.28794714e-06 -7.41653139e-06
      -7.70997576e-06 -7.47790773e-06 -6.95138260e-06 -6.31220564e-06
      -5.53038672e-06 -4.50313655e-06 -2.80023073e-06 -7.74639545e-07
      6.39203279e-07 1.37223878e-06 1.94682207e-06 2.30960541e-06
      2.49672576e-06 2.66044663e-06 2.77015761e-06 2.76548667e-06
      2.44601370e-06 1.79799406e-06 1.05844902e-06 2.54273175e-07
      -6.40860435e-07 -1.57700447e-06 -1.95436064e-06 -1.83301177e-06
      -1.34738593e-06 -9.14541545e-07 -1.02145918e-06 -1.94822746e-06
      -3.29842305e-06 -4.53105258e-06 -6.00486601e-06 -7.36361108e-06
      -8.11252721e-06 -7.78738649e-06 -7.23642324e-06 -6.79887626e-06
      -6.58375120e-06 -6.14123201e-06 -5.44380327e-06 -5.17045783e-06
      3.66226686e-06 3.66142649e-06 3.81149880e-06 4.11796600e-06
      3.95876350e-06 3.14318618e-06 1.74385218e-06 -9.18752576e-08
      -2.52005862e-06 -5.34504807e-06 -7.16887553e-06 -8.24391373e-06
      -8.27452823e-06 -7.52627648e-06 -6.44788224e-06 -5.21201400e-06
      -3.97750182e-06 -3.05112121e-06 -1.94012523e-06 -3.72200134e-07
      5.89934075e-07 1.32451737e-06 2.05332549e-06 2.75051070e-06
      3.26709255e-06 3.36544235e-06 3.10672590e-06 2.63964785e-06
      2.04000321e-06 1.28025385e-06 4.58184019e-07 -4.52230182e-07
      -1.38613450e-06 -2.25261442e-06 -3.12261477e-06 -4.14957140e-06
      -5.08728954e-06 -5.73255920e-06 -5.96518839e-06 -5.68297401e-06
      -5.66925473e-06 -5.35144272e-06 -4.82266023e-06 -4.69197630e-06
      -4.63640163e-06 -4.11496876e-06 -3.59464161e-06 -3.16646742e-06
      -2.89446393e-06 -2.57267152e-06 -2.39892347e-06 -2.39221731e-06
      5.71877126e-06 5.51165340e-06 4.86777071e-06 3.93849268e-06
      3.23923541e-06 3.53090627e-06 3.46156526e-06 2.99342742e-06
      1.94485119e-06 2.92535304e-07 -1.11144334e-06 -2.35978564e-06
      -3.31264391e-06 -3.54791518e-06 -3.06822972e-06 -2.26156203e-06
      -1.48045058e-06 -7.06978312e-07 -5.35092184e-08 9.34859088e-07
      1.43673435e-06 1.17054981e-06 1.41578437e-06 1.76452977e-06
      2.16019839e-06 2.60271509e-06 2.92276331e-06 2.94985693e-06
      2.90311868e-06 2.78833591e-06 2.28922113e-06 1.45931836e-06
      4.01652215e-07 -1.12568887e-06 -2.72341435e-06 -4.46273862e-06
      -5.21945458e-06 -5.18428806e-06 -4.70641453e-06 -4.10183611e-06
      -3.30899024e-06 -2.10507028e-06 -1.38380324e-06 -8.38662800e-07
      -3.84977795e-07 -1.52736881e-08 5.45581713e-07 1.17042737e-06
      9.67580149e-07 6.83629423e-07 1.04856838e-06 1.15186674e-06
      4.50259586e-06 4.34168760e-06 2.97561519e-06 2.08988126e-06
      3.67757048e-06 4.98224381e-06 5.89802812e-06 6.21054551e-06
      6.31810281e-06 6.40995950e-06 5.74324849e-06 4.83950271e-06
      3.65546998e-06 2.32271327e-06 1.26229929e-06 6.39444863e-07
      3.82067697e-07 5.78879167e-07 8.61399428e-07 8.39891811e-07
      1.14754278e-06 1.44365629e-06 1.68539702e-06 2.12117698e-06
      2.29481839e-06 2.26731618e-06 2.35309881e-06 2.42611668e-06
      2.44513490e-06 2.40904205e-06 2.36476126e-06 2.31518834e-06
      1.78660343e-06 1.07047288e-06 -6.56750032e-08 -1.34737252e-06
      -2.33170226e-06 -2.93947051e-06 -3.40871316e-06 -3.46978027e-06
      -2.93029439e-06 -1.86417458e-06 -4.73813088e-07 5.61478203e-07
      1.21974517e-06 1.46988316e-06 2.07764788e-06 3.35468326e-06
      4.17176034e-06 4.57171427e-06 4.79505161e-06 4.90459797e-06
      2.98221562e-06 3.11904842e-06 3.35927211e-06 4.21319237e-06
      5.30507577e-06 6.32160481e-06 6.11368296e-06 4.76401920e-06
      3.40889301e-06 2.17468460e-06 1.56666488e-06 1.37440566e-06
      1.12007979e-06 7.29418332e-07 6.30889119e-08 -7.19444699e-07
      -1.52366454e-06 -1.99347301e-06 -1.91177583e-06 -1.04562253e-06
      -4.60753796e-07 5.13913392e-07 1.55072757e-06 2.09663290e-06
      2.39235828e-06 2.29606212e-06 2.08131587e-06 1.98026783e-06
      1.86245995e-06 1.87230307e-06 2.10286635e-06 2.12198779e-06
      2.20370907e-06 2.30465321e-06 2.12614873e-06 1.58404009e-06
      1.26583615e-07 -1.87952162e-06 -3.69070381e-06 -5.17092849e-06
      -5.83540032e-06 -5.69386384e-06 -5.06776860e-06 -4.31220633e-06
      -3.42056705e-06 -2.23691382e-06 -6.11369160e-08 2.01646685e-06
      3.57498743e-06 4.70015630e-06 5.05344633e-06 5.22917571e-06
      3.88934677e-06 3.92206402e-06 4.04665025e-06 4.30717682e-06
      4.24331984e-06 4.19193202e-06 3.73519401e-06 3.34205401e-06
      2.80741165e-06 2.18391324e-06 2.00787349e-06 1.81651149e-06
      1.65424933e-06 1.61657908e-06 1.55101839e-06 1.52889902e-06
      9.03303544e-07 2.83583404e-07 -3.39182719e-07 -5.49098900e-07
      -6.68923292e-07 -4.63122205e-07 2.18034657e-07 5.26249835e-07
      5.81746974e-07 5.99121790e-07 5.14786223e-07 3.26633625e-07
      5.37360620e-07 1.01687874e-06 1.48195295e-06 2.20060701e-06
      2.82473184e-06 2.95729751e-06 2.45537058e-06 1.61771425e-06
      4.52684333e-07 -6.46497597e-07 -1.72139175e-06 -2.96940061e-06
      -3.93954542e-06 -4.38932102e-06 -4.44637681e-06 -4.38837606e-06
      -4.46258264e-06 -4.11717429e-06 -2.66315965e-06 -7.43351734e-07
      8.58347221e-07 1.64174821e-06 1.77297295e-06 1.83111831e-06
      3.89645766e-06 3.79966423e-06 3.72727732e-06 3.62202786e-06
      3.24465964e-06 3.31542947e-06 3.64143330e-06 3.89573142e-06
      3.93301980e-06 3.79082621e-06 3.59077558e-06 3.44743376e-06
      3.38660493e-06 3.19742912e-06 3.09304482e-06 3.21085417e-06
      3.36537460e-06 3.12418865e-06 3.02266699e-06 3.11539225e-06
      3.44743921e-06 3.43510555e-06 2.73055184e-06 1.80717541e-06
      9.92722335e-07 5.03408842e-07 4.31157986e-07 6.11427822e-07
      1.03833065e-06 1.33109052e-06 1.78830010e-06 2.43893442e-06
      2.85358055e-06 3.09368897e-06 3.11721442e-06 2.99770136e-06
      3.11424947e-06 2.85289184e-06 2.75779598e-06 3.18796992e-06
      3.37354868e-06 3.34230549e-06 2.83928239e-06 2.22200197e-06
      1.20292066e-06 4.71528011e-07 -3.75118638e-08 -4.96515440e-07
      -1.33083574e-06 -2.17470392e-06 -2.82848032e-06 -2.97513657e-06
      1.11111785e-06 1.01247247e-06 9.68998620e-07 9.00859845e-07
      7.21190361e-07 6.40497547e-07 1.11319628e-06 1.15111527e-06
      5.98766576e-07 3.64325707e-08 -5.33947969e-07 -1.53826795e-06
      -2.61804234e-06 -3.49885931e-06 -3.91948515e-06 -3.76012827e-06
      -3.05345566e-06 -2.32552361e-06 -1.53081248e-06 -9.47210140e-07
      -8.07775962e-07 -7.07055449e-07 -2.68821026e-07 2.64586788e-07
      6.32164927e-07 7.00239127e-07 7.52032122e-07 9.14112093e-07
      7.95500398e-07 5.97645737e-07 3.70038151e-07 -7.79181235e-08
      -8.09869164e-07 -1.72705518e-06 -2.57073953e-06 -3.35334630e-06
      -3.51836343e-06 -3.01562659e-06 -1.63086384e-06 1.12808493e-07
      1.83081193e-06 3.22477467e-06 3.46862726e-06 2.81297207e-06
      1.82471308e-06 6.11791336e-07 -8.97890970e-07 -1.96601286e-06
      -2.61649848e-06 -4.26179849e-06 -5.34196079e-06 -5.74645173e-06
      -2.38367625e-06 -2.44355874e-06 -2.50012567e-06 -2.59465151e-06
      -2.86601971e-06 -2.95763698e-06 -1.95893563e-06 -3.96707946e-07
      1.51468623e-06 2.79176584e-06 3.09533584e-06 3.22963979e-06
      3.07730693e-06 2.46439299e-06 2.29087345e-06 3.01689124e-06
      3.56810256e-06 3.27700559e-06 2.38671737e-06 1.49582274e-06
      1.05347317e-06 9.54399979e-07 1.06362370e-06 1.31267552e-06
      1.52007362e-06 1.52954510e-06 1.41619319e-06 1.24054952e-06
      9.50663889e-07 8.25743825e-07 5.94573976e-07 4.02562591e-07
      3.60137875e-07 3.63185677e-07 3.33722539e-07 -3.56763138e-07
      -1.55547548e-06 -2.37566906e-06 -2.66003235e-06 -2.70557052e-06
      -2.94911638e-06 -3.32713489e-06 -4.05609308e-06 -4.91637275e-06
      -5.53252312e-06 -6.01785769e-06 -6.51057098e-06 -6.19201819e-06
      -5.62970763e-06 -5.85014914e-06 -6.08275377e-06 -6.11901760e-06
      -4.28698513e-06 -4.12663894e-06 -3.55292332e-06 -2.60845241e-06
      -1.40046848e-06 -1.08358940e-07 1.21108269e-06 1.86687112e-06
      2.17814477e-06 2.41721159e-06 2.94654660e-06 3.58932220e-06
      4.00899626e-06 3.94678045e-06 3.35484310e-06 2.33873357e-06
      1.26901659e-06 5.88375087e-07 6.96244115e-07 8.88722923e-07
      1.17431182e-06 1.33092499e-06 1.32732941e-06 1.17194656e-06
      8.43217038e-07 5.03256160e-07 1.63351629e-07 -1.58151067e-07
      -2.64055899e-07 -2.22084267e-07 1.91993643e-09 4.53848827e-07
      1.17689478e-06 2.09923246e-06 3.07873688e-06 4.02767864e-06
      4.78411903e-06 5.22688470e-06 5.07372306e-06 4.52296763e-06
      3.30394187e-06 1.52340601e-06 -2.95678774e-07 -1.79042695e-06
      -2.69984730e-06 -3.15508123e-06 -3.28756346e-06 -3.06633456e-06
      -2.80407448e-06 -2.40573740e-06 -2.21920436e-06 -2.12148302e-06
      -9.51862830e-07 -9.25331278e-07 -8.12269150e-07 -6.21783158e-07
      -2.17708276e-07 3.68760368e-07 1.14460636e-06 1.53414180e-06
      1.52929113e-06 1.39754582e-06 1.12882503e-06 7.56654686e-07
      4.68786027e-07 3.25055879e-07 4.01524716e-07 7.91291541e-07
      1.41112230e-06 1.85394754e-06 2.06584923e-06 2.19159278e-06
      2.22946483e-06 2.11679753e-06 1.85847534e-06 1.46941386e-06
      1.04806986e-06 6.10535665e-07 2.46948588e-07 -1.53532920e-08
      -5.21739629e-08 4.80684079e-08 3.12911965e-07 6.00762291e-07
      9.48729507e-07 1.31276249e-06 1.69906593e-06 2.12600639e-06
      2.70465216e-06 3.69855138e-06 4.77486628e-06 5.38812446e-06
      5.66667950e-06 5.99562372e-06 6.13772181e-06 6.04442221e-06
      5.93382993e-06 5.69961503e-06 5.40206020e-06 5.19921832e-06
      5.04437230e-06 4.79065693e-06 4.56911630e-06 4.47174489e-06
      1.39830763e-06 1.31802074e-06 9.66804009e-07 4.10357870e-07
      2.07273857e-07 4.53931989e-07 8.30311137e-07 1.10627150e-06
      1.15963030e-06 1.05353104e-06 8.80248535e-07 7.74429452e-07
      8.44125054e-07 1.04470553e-06 1.20687184e-06 1.40630186e-06
      1.72095645e-06 2.01262901e-06 2.24547648e-06 2.51132246e-06
      2.79914298e-06 3.08139875e-06 3.22381948e-06 3.19822993e-06
      3.13895293e-06 2.99282988e-06 2.83970166e-06 2.75359275e-06
      2.75946218e-06 2.85734495e-06 2.95197583e-06 2.97206884e-06
      2.91093920e-06 2.71056865e-06 2.44344756e-06 2.03547188e-06
      1.53515748e-06 1.00986324e-06 6.54625012e-07 5.50804543e-07
      7.88771786e-07 1.10417034e-06 1.59829722e-06 2.18086575e-06
      2.63807419e-06 2.81695588e-06 2.88871729e-06 3.09406232e-06
      3.39633971e-06 3.68240126e-06 3.85049907e-06 3.90054038e-06
      1.07769301e-06 1.05220806e-06 1.06234916e-06 1.15443834e-06
      1.32404989e-06 1.51512950e-06 1.55563862e-06 1.45885986e-06
      1.20191476e-06 8.41772703e-07 3.82420552e-07 -1.43621790e-07
      -6.80724042e-07 -1.09651103e-06 -1.28931720e-06 -1.15742728e-06
      -8.38823553e-07 -3.73742211e-07 1.63884806e-07 7.02960165e-07
      1.18141259e-06 1.57092279e-06 1.91083609e-06 2.13950716e-06
      2.34244385e-06 2.50826974e-06 2.57194711e-06 2.61547598e-06
      2.52220366e-06 2.39253905e-06 2.31903846e-06 2.31680497e-06
      2.32616844e-06 2.22932204e-06 2.01469561e-06 1.64550090e-06
      1.19152367e-06 6.17465389e-07 5.30504281e-08 -4.54510655e-07
      -6.89196327e-07 -7.26099472e-07 -7.39212567e-07 -7.04418539e-07
      -7.21065931e-07 -9.86951363e-07 -1.34714787e-06 -1.27380690e-06
      -1.10807014e-06 -9.35137109e-07 -8.35354626e-07 -8.05517288e-07
      -5.16851060e-07 -5.68412702e-07 -5.98376005e-07 -5.34169544e-07
      -3.56837688e-07 -5.32889395e-08 2.82076968e-07 6.21016738e-07
      8.05695436e-07 7.73776264e-07 6.38042309e-07 3.43433896e-07
      -8.04021099e-08 -5.25561120e-07 -8.03428065e-07 -9.70704036e-07
      -1.08542713e-06 -1.20697257e-06 -1.26517511e-06 -1.27899852e-06
      -1.31966806e-06 -1.37754012e-06 -1.43708678e-06 -1.46675052e-06
      -1.25941233e-06 -9.97868710e-07 -7.55041469e-07 -6.24030918e-07
      -6.46823992e-07 -7.55423571e-07 -8.40584846e-07 -9.22767242e-07
      -9.54343818e-07 -9.02886313e-07 -7.72742624e-07 -5.57972783e-07
      -3.95699658e-07 -3.46052701e-07 -3.06857856e-07 -2.11474585e-07
      -7.54047491e-08 5.95203087e-09 -1.00303403e-07 -4.78167578e-07
      -1.06140226e-06 -1.57487534e-06 -1.79484664e-06 -1.76049014e-06
      -1.66603400e-06 -1.53204553e-06 -1.43432476e-06 -1.40190525e-06
      -2.91939671e-07 -3.04247834e-07 -4.05479909e-07 -5.12439442e-07
      -6.01708905e-07 -7.00876626e-07 -7.92298351e-07 -9.04182968e-07
      -1.00600175e-06 -1.00233842e-06 -8.37854202e-07 -5.19276739e-07
      -1.34064621e-07 1.31781093e-07 1.72934577e-07 1.10631184e-07
      -5.89805396e-08 -2.74886787e-07 -4.37910813e-07 -7.23199037e-07
      -1.18398714e-06 -1.79463984e-06 -2.47542380e-06 -3.07067899e-06
      -3.57516888e-06 -3.88660146e-06 -3.93593382e-06 -3.89291972e-06
      -3.71421015e-06 -3.39603298e-06 -3.00057422e-06 -2.58678551e-06
      -2.07533753e-06 -1.56011345e-06 -1.17343086e-06 -8.90631839e-07
      -6.97795258e-07 -5.42481359e-07 -4.88260014e-07 -4.94412063e-07
      -5.51296466e-07 -6.59147588e-07 -6.65606933e-07 -6.59306693e-07
      -7.35161620e-07 -8.80760240e-07 -1.15594435e-06 -1.36720575e-06
      -1.47161916e-06 -1.52863095e-06 -1.56025817e-06 -1.56416900e-06
      -5.02137105e-08 -5.69206620e-08 -9.66705187e-08 -1.70500925e-07
      -3.48606591e-07 -5.50165623e-07 -6.28280418e-07 -5.73396107e-07
      -3.42215401e-07 6.24826058e-08 5.31797582e-07 1.06656967e-06
      1.44183798e-06 1.66611346e-06 1.65131087e-06 1.47595563e-06
      1.14145769e-06 8.97793370e-07 6.59289924e-07 3.45214545e-07
      -6.43763300e-08 -5.62603191e-07 -1.00943225e-06 -1.28176725e-06
      -1.46132004e-06 -1.49208620e-06 -1.47010803e-06 -1.46590128e-06
      -1.45491106e-06 -1.45882075e-06 -1.58569514e-06 -1.64034714e-06
      -1.58967339e-06 -1.42296835e-06 -1.09016571e-06 -7.37149151e-07
      -4.64231306e-07 -2.36304530e-07 -6.88174637e-08 7.78274298e-08
      2.38020718e-07 3.77780509e-07 6.18654724e-07 6.28000862e-07
      5.73444595e-07 5.84485406e-07 5.26366307e-07 3.92274160e-07
      2.26818841e-07 -4.89472995e-09 -1.80784312e-07 -2.52858626e-07
      -1.47510309e-06 -1.48397487e-06 -1.44053035e-06 -1.33580943e-06
      -1.17387708e-06 -8.40049381e-07 -3.31640507e-07 1.79075258e-07
      7.08558161e-07 1.14717602e-06 1.51174720e-06 1.76661797e-06
      1.80650261e-06 1.72053797e-06 1.50644462e-06 1.13253748e-06
      6.73722127e-07 2.17361659e-07 -2.44914247e-07 -5.69899441e-07
      -6.48387356e-07 -4.75773078e-07 -2.37763373e-08 5.61704610e-07
      1.20492814e-06 1.79691551e-06 2.18350874e-06 2.39165024e-06
      2.38880943e-06 2.09761652e-06 1.43534385e-06 6.48510309e-07
      -1.54784615e-07 -1.03976640e-06 -1.96834435e-06 -2.73937076e-06
      -3.06601714e-06 -2.75067600e-06 -1.93340134e-06 -9.79183710e-07
      -1.35979676e-07 4.94253868e-07 8.33317245e-07 9.86511623e-07
      8.84009694e-07 6.62249988e-07 2.44585436e-07 -3.91284658e-07
      -1.03430466e-06 -1.54841143e-06 -1.91764343e-06 -2.04179742e-06
      -2.39654742e-06 -2.28746126e-06 -1.97701002e-06 -1.49118773e-06
      -8.57504062e-07 -1.51627816e-07 4.21956912e-07 7.17305625e-07
      7.69091571e-07 5.48240678e-07 1.66877712e-07 -2.87853794e-07
      -5.35950051e-07 -7.03898820e-07 -6.84450811e-07 -6.91463185e-07
      -5.97997598e-07 -5.09675544e-07 -4.00290759e-07 -1.45703865e-07
      1.16390453e-07 2.47647336e-07 2.79647594e-07 3.91204793e-07
      6.47133561e-07 8.88883847e-07 1.23324992e-06 1.47203457e-06
      1.70578915e-06 1.81430948e-06 1.77287563e-06 1.54602299e-06
      1.15239618e-06 6.05172431e-07 -1.32269065e-07 -1.05448964e-06
      -1.95900793e-06 -2.45963565e-06 -2.27456417e-06 -1.68928898e-06
      -8.45615943e-07 9.58667723e-09 6.70471536e-07 1.18237892e-06
      1.46443392e-06 1.48463664e-06 1.37089160e-06 1.16580816e-06
      8.43554119e-07 5.45239118e-07 3.57956623e-07 2.89537326e-07
      2.11140582e-06 2.16813146e-06 2.24669020e-06 2.34817890e-06
      2.41327052e-06 2.33855621e-06 2.05931678e-06 1.67317899e-06
      1.30979583e-06 1.02867671e-06 7.49018739e-07 4.75095931e-07
      2.59644565e-07 -1.12638247e-07 -5.33289665e-07 -9.46590774e-07
      -1.31610580e-06 -1.61902153e-06 -1.74718934e-06 -1.75485161e-06
      -1.85075942e-06 -1.98141106e-06 -2.13123712e-06 -2.16285116e-06
      -2.11591964e-06 -2.05633410e-06 -1.82444819e-06 -1.61391802e-06
      -1.31014053e-06 -1.00166187e-06 -6.51792675e-07 -3.14644836e-07
      1.33518068e-08 3.44203102e-07 4.29237218e-07 3.11982035e-07
      6.22229521e-08 -2.15524025e-07 -4.47095630e-07 -7.11332689e-07
      -7.56631550e-07 -5.89649119e-07 -2.38693843e-07 2.29670277e-07
      6.82613461e-07 9.49734442e-07 1.04779690e-06 1.05101162e-06
      8.44947181e-07 5.31809405e-07 2.18180077e-07 6.30514947e-08
      1.77575339e-06 1.69315410e-06 1.36290032e-06 8.18180467e-07
      2.53261987e-07 -2.65779022e-07 -6.54329995e-07 -8.44410920e-07
      -8.24325355e-07 -6.57111514e-07 -5.09257177e-07 -4.81564030e-07
      -6.91603418e-07 -9.95007440e-07 -1.32520051e-06 -1.63009429e-06
      -1.80962502e-06 -1.91092431e-06 -2.02415390e-06 -2.25339500e-06
      -2.57564625e-06 -2.89005288e-06 -3.16180262e-06 -3.30312992e-06
      -3.50320784e-06 -3.65765209e-06 -3.86775355e-06 -3.98243310e-06
      -3.87654427e-06 -3.50021628e-06 -3.02917942e-06 -2.53096687e-06
      -2.00002410e-06 -1.49445816e-06 -1.02732713e-06 -6.48201421e-07
      -6.62229695e-07 -1.27003216e-06 -2.13531894e-06 -2.89164632e-06
      -3.43504075e-06 -3.63611866e-06 -3.48912749e-06 -3.00265287e-06
      -2.32392631e-06 -1.57076101e-06 -8.65183324e-07 -2.28332823e-07
      2.62291650e-07 5.93671984e-07 7.92069386e-07 8.69180440e-07
      6.45460545e-07 5.58511033e-07 3.95543168e-07 1.62429401e-07
      -1.08155490e-07 -3.67498899e-07 -6.33346076e-07 -8.87718329e-07
      -1.23418533e-06 -1.71030797e-06 -2.14790657e-06 -2.47738444e-06
      -2.78163952e-06 -2.81446887e-06 -2.52702171e-06 -2.00683871e-06
      -1.28743272e-06 -5.34302671e-07 2.11704830e-07 5.63951630e-07
      4.37118729e-07 6.47259455e-08 -3.73707763e-07 -8.24121344e-07
      -1.42008594e-06 -2.01300440e-06 -2.74201170e-06 -3.29801992e-06
      -3.72427280e-06 -3.77586707e-06 -3.34001857e-06 -2.55076907e-06
      -1.23840005e-06 3.31037739e-07 1.75454136e-06 2.62458548e-06
      2.72135844e-06 1.87150499e-06 2.37944391e-07 -1.60616457e-06
      -3.08225344e-06 -3.83634369e-06 -4.08615188e-06 -3.89562729e-06
      -3.26988811e-06 -2.58736395e-06 -2.03600985e-06 -1.64341759e-06
      -1.33109631e-06 -1.16121589e-06 -1.06552454e-06 -1.03499690e-06
      4.46951532e-07 3.59140785e-07 2.50502211e-07 6.39585949e-08
      -1.83225382e-07 -3.78727037e-07 -6.07220613e-07 -9.44587782e-07
      -1.23729785e-06 -1.48892252e-06 -1.63046946e-06 -1.67536723e-06
      -1.68742554e-06 -1.71998033e-06 -1.51225743e-06 -1.00425746e-06
      -3.12057978e-07 4.05022917e-07 1.07725998e-06 1.41141481e-06
      1.47455671e-06 1.45111335e-06 1.46836260e-06 1.41750616e-06
      1.08610243e-06 6.03058766e-07 8.69507630e-08 -2.46553839e-07
      -4.59021408e-07 -3.54360907e-07 2.59435268e-07 1.02610795e-06
      1.88584409e-06 2.80868881e-06 3.35175469e-06 3.12058773e-06
      2.12810278e-06 5.85961232e-07 -9.69792950e-07 -1.81384269e-06
      -1.90157266e-06 -1.64397557e-06 -1.18529192e-06 -8.90242234e-07
      -6.69585972e-07 -5.72802776e-07 -6.84060126e-07 -9.70024530e-07
      -1.21979213e-06 -1.47280377e-06 -1.69701923e-06 -1.78951598e-06
      -1.18970775e-06 -1.13859699e-06 -1.01290573e-06 -8.61550859e-07
      -7.62624779e-07 -7.80296261e-07 -7.21930348e-07 -6.24891243e-07
      -4.61281928e-07 -1.85502245e-07 1.78030646e-07 5.93345135e-07
      1.00543741e-06 1.23573273e-06 1.10603696e-06 7.81289714e-07
      4.63227110e-07 7.35583328e-08 -5.45601495e-07 -8.06449236e-07
      -1.37294909e-09 4.91402204e-07 6.97099381e-07 9.38649578e-07
      1.17917727e-06 1.10571079e-06 1.15823912e-06 1.22619031e-06
      1.30917601e-06 1.36930134e-06 1.49379400e-06 1.59810304e-06
      1.60628167e-06 1.72175885e-06 1.09700989e-06 -4.79277844e-07
      -2.08774918e-06 -3.02827948e-06 -2.85457668e-06 -1.77379229e-06
      -5.27132158e-07 6.61542060e-07 1.56808755e-06 2.08303527e-06
      2.10557778e-06 1.74478748e-06 1.20958123e-06 6.33920763e-07
      6.44002043e-08 -3.07246040e-07 -5.76737818e-07 -6.43740862e-07
      5.75598847e-07 5.86516080e-07 5.44624299e-07 4.57945163e-07
      3.40687507e-07 2.01166173e-07 9.67734408e-08 -1.44355115e-08
      -1.26480813e-07 -7.72783793e-08 1.24369265e-07 5.22236576e-07
      9.82325673e-07 1.35765572e-06 1.53034932e-06 1.25093550e-06
      7.53862537e-07 2.84390836e-07 4.73339867e-07 1.04398043e-06
      1.39037263e-06 1.55521889e-06 1.62385174e-06 1.31671459e-06
      7.58270573e-07 6.76514489e-08 -2.63111332e-07 -3.26506324e-07
      -2.88111778e-07 -4.34494950e-07 -6.73357079e-07 -5.58615397e-07
      -1.10221663e-07 3.69360322e-07 4.59765829e-07 7.55239114e-07
      1.08323559e-06 1.36442407e-06 2.11665088e-06 2.87862053e-06
      2.90803428e-06 2.34899426e-06 1.54261863e-06 5.32109141e-07
      -2.79529843e-07 -7.68017571e-07 -8.17452758e-07 -5.76147329e-07
      -2.74036040e-07 3.58928780e-08 2.59677421e-07 3.37464030e-07
      -1.81007192e-06 -1.72139994e-06 -1.54561599e-06 -1.25940994e-06
      -9.45193221e-07 -6.13093789e-07 -3.55235755e-07 -1.86729636e-07
      6.82206860e-08 3.73319864e-07 6.23761139e-07 7.91182799e-07
      8.08147831e-07 7.71026862e-07 6.03706894e-07 2.95913850e-07
      -7.01408638e-08 1.46420192e-07 4.17969545e-07 6.48718242e-07
      8.79945844e-07 1.20208563e-06 1.26998930e-06 7.59881345e-07
      -4.44720207e-08 -5.78053687e-07 -5.55373390e-07 -4.89482716e-07
      -4.45173413e-07 -6.40405972e-07 -8.83053929e-07 -1.02432091e-06
      -8.53585391e-07 -5.24335178e-07 -6.29546207e-07 -1.19316644e-06
      -1.41714338e-06 -1.20091124e-06 -9.10936592e-07 -4.34006921e-07
      3.99282101e-07 1.54849909e-06 2.47383991e-06 3.04871946e-06
      3.32451737e-06 3.34036258e-06 3.08943663e-06 2.59789567e-06
      1.96857150e-06 1.28231341e-06 8.74944760e-07 7.00213604e-07
      -2.87748617e-06 -2.83866393e-06 -2.68554663e-06 -2.35397624e-06
      -1.91945946e-06 -1.40751956e-06 -9.33848980e-07 -5.61669538e-07
      -2.15571461e-07 -4.34754703e-08 -9.07427467e-09 -8.82057094e-08
      -2.56077556e-07 -6.33290995e-07 -1.40663531e-06 -2.06973436e-06
      -2.44374701e-06 -2.23315897e-06 -1.65746280e-06 -1.38457210e-06
      -1.78408061e-06 -1.65731853e-06 -7.90876470e-07 -2.32233958e-07
      -9.97354732e-09 -2.35604659e-07 -2.30487174e-07 -6.57476704e-08
      -8.89887488e-08 -4.60532334e-07 -1.04605601e-06 -1.64406049e-06
      -2.46772424e-06 -3.69403642e-06 -4.92706795e-06 -5.43914439e-06
      -5.56283612e-06 -5.64736956e-06 -5.17240233e-06 -4.14234455e-06
      -2.68330132e-06 -9.64893616e-07 6.65258369e-07 2.05027436e-06
      2.91950732e-06 3.06688526e-06 2.65217841e-06 1.98230623e-06
      1.34917752e-06 8.21745004e-07 5.28744238e-07 4.30034277e-07
      2.67763062e-06 2.48055630e-06 1.99771557e-06 1.40971201e-06
      8.41655890e-07 3.66480862e-07 1.10578810e-07 8.69599646e-08
      3.28418764e-07 6.41401755e-07 9.27605697e-07 9.61935712e-07
      6.07901427e-07 -6.23419041e-08 -7.78656556e-07 -1.37989036e-06
      -1.59846502e-06 -1.29559544e-06 -8.08625884e-07 -4.48112615e-07
      5.93994756e-08 6.76476304e-07 1.23538280e-06 1.37108464e-06
      1.61172466e-06 1.67640712e-06 1.57453462e-06 1.33621370e-06
      7.96295012e-07 6.00043109e-07 6.61337481e-07 5.67810218e-07
      3.28458412e-07 -1.37689781e-07 -1.07293852e-06 -2.09597852e-06
      -2.92093114e-06 -3.15390457e-06 -2.96565736e-06 -2.34430127e-06
      -1.67318240e-06 -1.21190715e-06 -8.17341856e-07 -6.93290076e-07
      -7.29659973e-07 -9.02103125e-07 -1.04106527e-06 -1.06553932e-06
      -9.82109896e-07 -7.95803714e-07 -6.73704733e-07 -5.27828774e-07
      4.08363530e-06 3.92828997e-06 3.50974665e-06 2.88094520e-06
      2.15928435e-06 1.47671426e-06 8.57133386e-07 4.92136280e-07
      2.70663236e-07 3.96200726e-08 -1.82020571e-07 -3.64661901e-07
      -5.29812553e-07 -7.41378983e-07 -9.45577312e-07 -1.14252396e-06
      -1.24945643e-06 -1.15005560e-06 -7.12615133e-07 1.10747131e-07
      1.04681851e-06 1.82290796e-06 2.14578404e-06 2.42153646e-06
      2.34867571e-06 2.23524853e-06 2.11627412e-06 1.91402933e-06
      1.69396242e-06 1.70931366e-06 2.03610512e-06 2.33009882e-06
      2.42285773e-06 2.31718991e-06 1.56193028e-06 9.43408736e-07
      3.93602818e-07 -1.46675006e-07 -4.91205128e-07 -3.72915423e-07
      3.60352388e-08 4.92048684e-07 9.57798648e-07 1.38986309e-06
      1.69440534e-06 1.83900568e-06 1.69746852e-06 1.37185930e-06
      8.77781531e-07 4.70515687e-07 2.14550710e-07 1.76735810e-07
      4.47272498e-07 3.22303976e-07 4.32368665e-08 -3.19543688e-07
      -8.47982449e-07 -1.40960390e-06 -1.92057450e-06 -2.31018817e-06
      -2.54782935e-06 -2.43070940e-06 -2.13378848e-06 -1.88347019e-06
      -1.53631970e-06 -1.14128022e-06 -7.34380592e-07 -2.74083419e-07
      2.99114021e-07 1.04283788e-06 1.80003451e-06 2.53416488e-06
      3.05728076e-06 3.29971999e-06 3.09465599e-06 2.59807257e-06
      1.97639133e-06 1.28710781e-06 6.87667182e-07 3.79616893e-07
      3.82454886e-07 6.68703819e-07 1.23033146e-06 1.93657570e-06
      2.55246368e-06 2.89226364e-06 2.87273360e-06 2.54617566e-06
      1.99386568e-06 1.10194594e-06 5.39315259e-08 -9.97526854e-07
      -1.57827856e-06 -1.60810987e-06 -1.20425716e-06 -4.98022814e-07
      1.58242173e-07 6.79453592e-07 8.41050905e-07 9.77769560e-07
      7.14346641e-07 1.83129117e-07 -2.69025094e-07 -5.10761765e-07
      8.96700158e-07 8.57988084e-07 6.65112339e-07 3.52236611e-07
      -9.54071595e-08 -5.31175431e-07 -8.21867729e-07 -1.03583466e-06
      -1.08475024e-06 -1.12420787e-06 -1.06260518e-06 -9.01979035e-07
      -7.48817627e-07 -6.11501719e-07 -4.08218483e-07 8.35449114e-08
      8.09282824e-07 1.75966170e-06 2.68268104e-06 3.37462575e-06
      3.71317606e-06 3.54828967e-06 2.75464186e-06 1.57919544e-06
      2.65693188e-07 -8.21378535e-07 -1.47956132e-06 -1.66388531e-06
      -1.39826136e-06 -8.71408929e-07 -3.71823091e-07 1.02603181e-07
      5.09379220e-07 8.90258264e-07 1.33283163e-06 1.68013617e-06
      1.77166692e-06 1.53796691e-06 9.82183451e-07 1.08042642e-07
      -7.33840068e-07 -1.45058539e-06 -1.95417715e-06 -2.05256151e-06
      -1.76730850e-06 -1.18537173e-06 -4.76839546e-07 1.38618816e-07
      4.64187536e-07 2.96858417e-07 1.68229874e-07 5.98691301e-08
      -2.09901145e-06 -2.00901309e-06 -1.78367020e-06 -1.55247994e-06
      -1.19206084e-06 -7.45283785e-07 -1.58115270e-07 5.50212576e-07
      1.23118525e-06 1.62798267e-06 1.74340119e-06 1.57316822e-06
      1.11859424e-06 5.80811957e-07 1.14671600e-07 -6.09386461e-08
      2.18211142e-07 8.38270296e-07 1.50600511e-06 1.91091431e-06
      1.86633895e-06 1.27447129e-06 2.49669597e-07 -9.11349275e-07
      -1.86389912e-06 -2.37610220e-06 -2.45834735e-06 -2.14788020e-06
      -1.59694707e-06 -8.65865672e-07 -1.17526568e-07 5.35981201e-07
      1.02058027e-06 1.28194563e-06 1.41919998e-06 1.40290922e-06
      1.17532818e-06 8.52069604e-07 4.87030661e-07 4.75240682e-08
      -3.48104777e-07 -6.12427016e-07 -7.89826743e-07 -7.88505020e-07
      -6.84931990e-07 -4.53049410e-07 -2.09011006e-07 -9.95447351e-08
      -3.60605043e-07 -4.52420153e-07 -5.26621648e-07 -5.88848820e-07
      -2.44300236e-06 -2.35710536e-06 -2.08809342e-06 -1.75661580e-06
      -1.28026716e-06 -7.32420403e-07 -4.35290303e-07 -3.09259008e-07
      -3.23411683e-07 -4.96502196e-07 -7.61668559e-07 -1.23587881e-06
      -1.75557261e-06 -2.07760172e-06 -2.11785527e-06 -1.97033569e-06
      -1.50713026e-06 -8.52982737e-07 -4.98794392e-08 6.48245759e-07
      9.89985779e-07 8.73035503e-07 4.70050907e-07 3.34913288e-08
      -2.49876223e-07 -4.69685972e-07 -6.11928215e-07 -6.86295266e-07
      -8.04158049e-07 -1.08273707e-06 -1.35837536e-06 -1.71720069e-06
      -2.10317626e-06 -2.42939700e-06 -2.63773859e-06 -2.81638563e-06
      -3.05133699e-06 -3.25779979e-06 -3.44847945e-06 -3.57650219e-06
      -3.62710443e-06 -3.51738390e-06 -3.18278012e-06 -2.66748384e-06
      -2.12805230e-06 -1.73990304e-06 -1.57486397e-06 -1.46791001e-06
      -1.42938063e-06 -1.34869458e-06 -1.34082063e-06 -1.30575177e-06
      1.06211166e-06 1.06284824e-06 1.08875054e-06 1.02047147e-06
      8.47650369e-07 5.72363433e-07 2.68315830e-07 -1.36744887e-07
      -5.03073579e-07 -1.00177726e-06 -1.43396221e-06 -1.94278527e-06
      -2.48308993e-06 -3.19665241e-06 -3.72653085e-06 -4.21859795e-06
      -4.61589480e-06 -4.68457165e-06 -4.30542195e-06 -3.61181696e-06
      -2.91503329e-06 -2.48702622e-06 -2.42108308e-06 -2.40485065e-06
      -2.33607034e-06 -2.30761179e-06 -2.34252366e-06 -2.55685950e-06
      -2.98281748e-06 -3.47340892e-06 -4.00865338e-06 -4.57250962e-06
      -5.05223261e-06 -5.25857013e-06 -5.29048475e-06 -5.19499235e-06
      -5.20469439e-06 -5.29003000e-06 -5.24742927e-06 -4.85585542e-06
      -4.15156182e-06 -3.22447841e-06 -2.18551713e-06 -1.23382119e-06
      -4.20387352e-07 8.78472619e-08 4.92999391e-07 5.27243230e-07
      3.07632433e-07 -1.10774394e-08 -2.66862429e-07 -3.03805081e-07
      6.39860673e-07 5.59635453e-07 2.86730881e-07 -5.84595761e-10
      -3.50140112e-07 -7.58841793e-07 -1.10495648e-06 -1.35847301e-06
      -1.61288040e-06 -1.72162481e-06 -1.78969105e-06 -1.76834374e-06
      -1.94927838e-06 -2.77294976e-06 -3.75871082e-06 -4.74588842e-06
      -5.68373662e-06 -6.34496246e-06 -6.46825129e-06 -6.05860623e-06
      -5.30669058e-06 -4.55202144e-06 -4.33659761e-06 -4.30990440e-06
      -4.35026232e-06 -4.34784715e-06 -4.23247729e-06 -4.21668165e-06
      -4.37679637e-06 -4.64767436e-06 -4.93065272e-06 -4.91218134e-06
      -4.52646464e-06 -3.89103343e-06 -3.38773111e-06 -3.13458304e-06
      -3.26166696e-06 -3.66437121e-06 -3.90521518e-06 -3.57549447e-06
      -2.69213774e-06 -1.58839248e-06 -5.13568125e-07 6.77793537e-07
      1.85923682e-06 2.63283778e-06 2.90022831e-06 2.66655798e-06
      2.31970830e-06 1.96622022e-06 1.71177976e-06 1.65433948e-06
      5.27048030e-07 5.14559758e-07 3.70243328e-07 1.92668182e-07
      -6.81340069e-08 -4.25768803e-07 -1.02198510e-06 -1.31877050e-06
      -1.70319129e-06 -2.23882193e-06 -2.57843408e-06 -2.78496509e-06
      -3.17718718e-06 -3.11962549e-06 -3.77326865e-06 -4.57664828e-06
      -5.07250206e-06 -4.91494120e-06 -4.11936890e-06 -2.98600298e-06
      -1.95738835e-06 -1.23969130e-06 -1.44023102e-06 -1.64283222e-06
      -1.93826691e-06 -2.08528081e-06 -2.19033132e-06 -2.46942955e-06
      -2.93871676e-06 -3.54134659e-06 -3.95776169e-06 -3.92106222e-06
      -3.29810905e-06 -2.23028314e-06 -1.94712788e-06 -2.52842801e-06
      -3.62163746e-06 -4.76996274e-06 -5.38856466e-06 -4.94139567e-06
      -3.53627388e-06 -2.08304982e-06 -1.16412161e-06 -4.12956922e-07
      2.43410625e-07 4.16722344e-07 1.34845052e-07 -2.19408435e-07
      -4.08595326e-07 -5.19819025e-07 -4.89602485e-07 -4.65890963e-07
      1.05478341e-06 1.04840171e-06 1.11111910e-06 1.17611705e-06
      1.10194082e-06 9.55003998e-07 7.45689874e-07 6.17600563e-07
      6.94741914e-07 1.02490378e-06 1.54986276e-06 1.99075453e-06
      1.91716913e-06 5.28780504e-07 -1.77808295e-06 -4.48567607e-06
      -6.22825701e-06 -6.42677287e-06 -5.05873140e-06 -3.05219464e-06
      -1.28836166e-06 6.45586127e-08 1.10671499e-06 1.90966375e-06
      2.46105583e-06 2.79607116e-06 2.86516752e-06 2.44543389e-06
      1.79836320e-06 6.74637931e-07 -5.82387145e-07 -1.51190318e-06
      -1.73257479e-06 -1.30255239e-06 -9.60126044e-07 -1.01355840e-06
      -1.89818286e-06 -3.20452727e-06 -3.85674412e-06 -2.95049608e-06
      -1.53143344e-06 3.24157590e-09 7.14640009e-07 2.41047644e-07
      -9.59317276e-07 -2.16670901e-06 -3.07670598e-06 -3.16178944e-06
      -2.56910630e-06 -1.92606967e-06 -1.35331823e-06 -1.20366815e-06
      -1.52251243e-06 -1.55676457e-06 -1.65643087e-06 -1.82262511e-06
      -2.05623883e-06 -2.29806869e-06 -2.45754700e-06 -2.41925613e-06
      -1.93531105e-06 -6.80737969e-07 5.54126530e-07 1.06453410e-06
      7.47471233e-07 -1.26635507e-06 -4.01101715e-06 -6.58848512e-06
      -7.40929863e-06 -6.72156330e-06 -4.75866182e-06 -2.70576675e-06
      -1.15373575e-06 -1.60694967e-07 1.05697961e-06 2.58252862e-06
      4.19399657e-06 5.24551933e-06 5.68783798e-06 5.46330284e-06
      4.54932024e-06 2.93597441e-06 1.10082931e-06 -4.44290350e-07
      -1.37113602e-06 -1.76691606e-06 -2.19787694e-06 -2.32590287e-06
      -2.30731825e-06 -3.41479836e-06 -4.12443296e-06 -4.18799073e-06
      -4.02960859e-06 -3.93168739e-06 -3.65389837e-06 -2.51440906e-06
      -2.11135398e-06 -2.55188957e-06 -3.12552197e-06 -3.41951022e-06
      -3.35696154e-06 -3.03873458e-06 -2.75661773e-06 -2.69671455e-06
      -7.01973704e-07 -7.96379425e-07 -1.17997649e-06 -1.71430054e-06
      -2.17681463e-06 -2.51365645e-06 -2.69962129e-06 -2.58393106e-06
      -2.39518067e-06 -2.40080067e-06 -2.10889107e-06 -1.77343691e-06
      -2.76830951e-06 -4.54904921e-06 -5.57238673e-06 -6.07858055e-06
      -5.89314868e-06 -5.39737130e-06 -4.77144204e-06 -3.75684635e-06
      -2.49782033e-06 -1.06572338e-06 4.27757527e-08 7.60993089e-07
      1.36489996e-06 2.03555896e-06 2.74759509e-06 2.94820302e-06
      2.55235091e-06 1.54941097e-06 3.73094394e-07 -8.30261172e-07
      -2.04529761e-06 -3.29552813e-06 -4.31358740e-06 -4.99953740e-06
      -6.25975508e-06 -7.74110231e-06 -8.62517027e-06 -9.03363070e-06
      -8.49161552e-06 -6.74957300e-06 -4.10835673e-06 -1.70827047e-06
      2.42405008e-07 1.19301842e-06 1.83321447e-06 1.58489058e-06
      8.94267885e-07 1.65630013e-07 -3.74020061e-07 -5.37520066e-07
      -9.17599266e-07 -9.03910404e-07 -8.07981849e-07 -6.60081696e-07
      -4.10396268e-07 -1.21196067e-07 1.56817137e-07 3.70789962e-07
      3.00609543e-07 5.27340305e-09 -8.89822047e-07 -1.91762842e-06
      -3.21525113e-06 -5.05352227e-06 -6.28540192e-06 -6.79211507e-06
      -6.51083019e-06 -6.35417973e-06 -6.00870317e-06 -5.65885011e-06
      -4.95133781e-06 -4.03389049e-06 -3.60198806e-06 -3.89965089e-06
      -3.58691796e-06 -2.76528021e-06 -1.81669225e-06 -1.29787611e-06
      -1.23355881e-06 -1.55127009e-06 -2.18930359e-06 -3.00814986e-06
      -3.94045765e-06 -4.71564545e-06 -5.57188105e-06 -7.37050232e-06
      -9.16476347e-06 -1.04264536e-05 -1.09427892e-05 -1.02511003e-05
      -8.65867878e-06 -6.27674763e-06 -3.53746077e-06 -1.12684029e-06
      8.10816175e-07 2.14843953e-06 2.80057702e-06 2.69334737e-06
      2.27457940e-06 1.80215523e-06 1.43657576e-06 1.39032409e-06
      -1.46501168e-06 -1.33192282e-06 -9.10073766e-07 -2.32183666e-07
      5.67407938e-07 1.42148747e-06 2.05005131e-06 1.97127906e-06
      1.21470487e-06 -2.70012549e-07 -2.73221258e-06 -6.22911512e-06
      -8.63816604e-06 -9.97779625e-06 -1.06110538e-05 -1.05081335e-05
      -9.26420307e-06 -7.29201292e-06 -4.62383650e-06 -2.63992547e-06
      -8.93672336e-07 5.36568791e-07 7.63630169e-07 5.67001280e-07
      -1.35313476e-08 -4.62636649e-07 -5.01920908e-07 -2.72418788e-07
      4.79035407e-08 4.58213947e-07 8.72360260e-07 9.59015551e-07
      2.09421046e-07 -6.03052285e-07 -2.01061357e-06 -4.20140395e-06
      -5.98889210e-06 -7.95105370e-06 -8.68129337e-06 -8.59576267e-06
      -8.11379687e-06 -7.23463563e-06 -6.19594493e-06 -4.12197232e-06
      -1.88843603e-06 -3.34505245e-07 9.30555984e-07 1.34158699e-06
      1.20337984e-06 9.77292757e-07 8.25915095e-07 8.21389108e-07
      -1.39796009e-06 -1.27813234e-06 -9.65595291e-07 -5.41358588e-07
      -1.81093938e-07 -1.82732478e-08 -2.51743160e-07 -7.57334703e-07
      -1.58880607e-06 -3.00494412e-06 -4.64009918e-06 -5.28329520e-06
      -5.99183659e-06 -6.42913938e-06 -6.65172365e-06 -6.71304997e-06
      -5.65783603e-06 -3.22614983e-06 7.28005716e-07 3.78116374e-06
      5.51242465e-06 6.27395184e-06 5.87900377e-06 4.05988703e-06
      2.10198073e-06 1.18124240e-06 1.03068476e-06 1.41411385e-06
      2.14095144e-06 3.17078320e-06 4.32709021e-06 5.31771184e-06
      5.79865218e-06 5.55709676e-06 4.66022084e-06 3.30097214e-06
      1.25884071e-06 -9.11370478e-07 -2.43823888e-06 -3.12618363e-06
      -2.45718797e-06 -1.17584148e-06 1.79655771e-07 4.27476579e-07
      -1.21095496e-07 -3.96656645e-07 9.18510779e-08 6.39419511e-07
      1.14047305e-06 1.41671876e-06 1.45338402e-06 1.39308565e-06
      -1.59029625e-07 -1.67437719e-07 -2.06504168e-07 -2.44104399e-07
      -3.17974781e-07 -5.22525170e-07 -8.26602218e-07 -1.07369772e-06
      -1.38463349e-06 -1.56812723e-06 -1.61785886e-06 -1.44797514e-06
      -1.26445525e-06 -1.08795598e-06 -8.11226130e-07 -1.53210394e-07
      1.28561885e-06 3.04198943e-06 4.28834392e-06 4.57907117e-06
      4.25015787e-06 3.27372800e-06 1.39424128e-06 2.08141646e-08
      -1.29856994e-06 -1.79377241e-06 -1.60026912e-06 -1.04895696e-06
      -3.91994774e-07 4.41909293e-07 1.47119783e-06 2.97235761e-06
      4.41946531e-06 5.65255777e-06 6.05653941e-06 5.27882958e-06
      3.75545005e-06 2.25796816e-06 1.20998118e-06 6.39318898e-07
      5.13661803e-07 1.78074853e-08 -2.43619127e-07 -2.19744990e-07
      5.96446839e-08 2.62518341e-07 5.99910720e-07 8.94367247e-07
      1.14435363e-06 1.27331475e-06 1.29334114e-06 1.23673601e-06
      6.63261517e-07 5.87749867e-07 2.50642103e-07 -5.05787966e-07
      -1.29171224e-06 -1.90009041e-06 -2.11748670e-06 -2.24463633e-06
      -2.31425815e-06 -1.89673165e-06 -1.40358713e-06 -1.20713332e-06
      -1.36645019e-06 -1.44575324e-06 -1.22405720e-06 -5.27032036e-08
      9.77066748e-07 1.96473570e-06 2.60714705e-06 2.18130344e-06
      1.07248127e-06 -1.46055513e-07 -7.03290539e-07 -1.40553368e-06
      -2.56885482e-06 -1.78193147e-06 -1.34698860e-06 -5.04229035e-07
      7.76910767e-08 4.95126187e-07 1.02762033e-06 1.47139224e-06
      3.65245370e-07 1.01170235e-06 6.64366610e-07 1.02464685e-06
      1.50597441e-06 1.45363902e-06 1.61045790e-07 -1.71238457e-06
      -3.33853654e-06 -4.30144610e-06 -4.24336986e-06 -4.00753652e-06
      -3.73636749e-06 -2.56300132e-06 -1.89469245e-06 -1.11359088e-06
      1.46465495e-09 5.10665700e-07 1.13584326e-06 1.37871314e-06
      2.79792243e-06 2.67443056e-06 2.37677500e-06 2.26106954e-06
      1.93153824e-06 1.69049315e-06 1.46246634e-06 1.34890911e-06
      9.94687412e-07 4.45334592e-07 3.22416497e-07 4.51667319e-07
      8.45170064e-07 1.53762710e-06 1.53865687e-06 1.12608416e-06
      1.21048845e-06 7.21241918e-07 6.24796087e-07 1.44112914e-06
      2.34213144e-06 3.12537804e-06 3.84665736e-06 4.43808267e-06
      5.21603579e-06 6.14232204e-06 6.59614716e-06 6.34808157e-06
      5.89354659e-06 5.30810439e-06 4.88734895e-06 5.01118848e-06
      5.62003561e-06 5.28521923e-06 4.69643874e-06 4.26507950e-06
      3.45558487e-06 2.51984943e-06 2.03192235e-06 1.99192323e-06
      2.21756250e-06 2.36796495e-06 1.87588000e-06 1.11957900e-06
      6.72331339e-07 7.38148913e-07 2.35869777e-07 -3.09756530e-07
      -4.41423879e-07 -1.04845661e-07 3.85783324e-07 5.87533236e-07
      2.87206967e-06 2.57276110e-06 2.28496788e-06 2.08095798e-06
      1.56056467e-06 1.04759556e-06 1.17170362e-06 1.46030197e-06
      1.10224084e-06 2.53517896e-07 -8.05715317e-08 2.60709982e-07
      6.30340821e-07 1.18081311e-06 1.28876809e-06 9.57780230e-07
      1.27899648e-06 1.01406113e-06 8.52902986e-07 1.52947950e-06
      2.52762379e-06 3.23255722e-06 3.69920372e-06 4.48408628e-06
      5.48687785e-06 6.21760455e-06 6.64148001e-06 6.48142532e-06
      6.04193474e-06 5.34330138e-06 4.58630120e-06 4.64677214e-06
      5.01669547e-06 4.82696669e-06 4.39119185e-06 4.20240985e-06
      3.70605380e-06 2.84841576e-06 2.22560425e-06 2.22445260e-06
      2.23254233e-06 2.11943575e-06 1.70888745e-06 1.23977247e-06
      1.16259412e-06 1.29997989e-06 4.32076007e-07 -5.68072949e-07
      -7.19435263e-07 -3.84786802e-07 -1.94490077e-08 -1.32917066e-07
      2.34391246e-06 2.24536143e-06 2.02977822e-06 1.61762375e-06
      8.39242205e-07 2.83441523e-07 6.04770491e-07 1.25884947e-06
      1.08482197e-06 4.11411847e-08 -2.90525122e-07 1.73746798e-07
      5.95473125e-07 7.05286368e-07 6.62587240e-07 8.09369055e-07
      1.18535718e-06 1.18148114e-06 9.09823143e-07 1.32179741e-06
      2.35155426e-06 3.02803892e-06 3.31395086e-06 4.25210874e-06
      5.56413215e-06 6.36052664e-06 6.53457664e-06 6.57423652e-06
      6.35187325e-06 5.62900595e-06 4.64104960e-06 4.61426907e-06
      4.50296602e-06 4.14638407e-06 3.93744904e-06 3.83804854e-06
      3.64833772e-06 3.15119564e-06 2.49315076e-06 2.36252185e-06
      2.24808241e-06 1.65492213e-06 1.35997368e-06 1.33992023e-06
      1.43609066e-06 1.81833764e-06 9.38116273e-07 -2.99512010e-07
      -4.14779493e-07 -2.66523870e-07 1.47231161e-08 -4.44634225e-07
      1.55575981e-06 1.57476791e-06 1.57512636e-06 1.04345747e-06
      2.76175086e-07 -4.19289904e-07 -2.34964546e-07 2.91277445e-07
      4.08616131e-07 -3.14300848e-07 -4.29727152e-07 1.66651461e-07
      7.08154857e-07 3.53111261e-07 2.06872357e-07 4.86817328e-07
      9.67506026e-07 1.08762788e-06 8.66710479e-07 1.03904608e-06
      1.88274385e-06 2.58736782e-06 2.84485895e-06 3.49122047e-06
      4.95685708e-06 5.96287964e-06 6.26902420e-06 6.43975500e-06
      6.28084217e-06 5.60354874e-06 4.59556577e-06 4.63018796e-06
      4.21273444e-06 3.78400136e-06 3.24002963e-06 3.31906085e-06
      3.25620817e-06 3.39084409e-06 2.79867686e-06 2.30132673e-06
      2.08612164e-06 1.61628782e-06 1.40458360e-06 1.31530362e-06
      1.48160427e-06 1.94149288e-06 1.23631150e-06 3.78847602e-08
      -9.54973416e-08 2.70420600e-07 7.88343698e-07 9.00005688e-08
      1.62868650e-06 1.48738172e-06 7.29743874e-07 2.36013818e-07
      -3.86185775e-07 -8.90720628e-07 -7.71362977e-07 -5.86398812e-07
      -4.37170200e-07 -7.34699540e-07 -6.35422964e-07 8.82250077e-08
      5.87217812e-07 2.43201328e-07 1.80421704e-08 1.29636206e-07
      6.36547441e-07 1.01672538e-06 7.86133796e-07 6.83027338e-07
      1.44428873e-06 2.11071847e-06 2.26622114e-06 2.36107212e-06
      3.66080440e-06 4.91348692e-06 5.25247697e-06 5.55764927e-06
      5.45402600e-06 4.83537951e-06 3.82434564e-06 4.01260786e-06
      3.86346073e-06 3.23532709e-06 2.32801290e-06 1.84802718e-06
      2.11763836e-06 2.47419666e-06 2.31432637e-06 1.69306918e-06
      1.77836182e-06 1.85204692e-06 1.61102435e-06 1.31121260e-06
      1.26640634e-06 1.49586697e-06 1.05001868e-06 9.04280881e-08
      -4.57870044e-08 1.96312598e-07 3.59145275e-07 2.13810367e-07
      9.40849134e-07 8.14897476e-07 6.50006697e-08 -3.38189011e-07
      -5.17771809e-07 -1.11209181e-06 -1.13808926e-06 -1.01194246e-06
      -8.77391983e-07 -8.29970134e-07 -6.60489604e-07 2.05099951e-07
      4.91946025e-07 3.20598730e-07 -1.84336159e-07 -2.58197332e-07
      -1.44472780e-08 5.99549082e-07 6.82469647e-07 4.86183694e-07
      1.01582486e-06 1.74736817e-06 1.79802566e-06 1.44306432e-06
      2.22259723e-06 3.56500141e-06 3.77681476e-06 3.73094031e-06
      3.91627555e-06 3.65473420e-06 2.83888176e-06 2.78363791e-06
      2.85943906e-06 2.23601887e-06 1.28319800e-06 6.10604104e-07
      8.03727005e-07 1.59082992e-06 1.32552202e-06 6.48112518e-07
      1.15335672e-06 1.32780872e-06 1.04120659e-06 7.09616188e-07
      7.45910370e-07 9.50962033e-07 6.04647369e-07 1.07643224e-07
      -9.05427378e-09 -2.29997013e-07 -7.62516379e-07 -1.12227724e-06
      -8.90693386e-08 -2.46422701e-07 -4.56736160e-07 -1.11821173e-07
      7.71513200e-08 -5.59907278e-07 -1.30206365e-06 -1.46145339e-06
      -1.15573232e-06 -6.36026698e-07 -3.05048900e-07 3.41886448e-07
      6.84897998e-07 4.40670192e-07 -3.17226316e-08 -5.17734065e-07
      -5.42702537e-07 -2.33614742e-07 -9.82440724e-08 8.60885763e-09
      6.75863191e-07 1.24936480e-06 1.46455125e-06 1.04620472e-06
      1.29807404e-06 2.54145266e-06 2.66673533e-06 2.38960888e-06
      2.67465612e-06 2.72814100e-06 2.42371630e-06 1.89515538e-06
      1.43585248e-06 1.12263081e-06 6.21715344e-07 -3.35604042e-08
      3.38989764e-07 1.18889716e-06 7.85304735e-07 3.49853281e-07
      7.76446200e-07 8.39388349e-07 5.45898956e-07 1.96095826e-07
      3.99447316e-07 7.77755872e-07 3.49082029e-07 1.68964462e-07
      3.65717455e-07 1.73930118e-07 -8.09674304e-07 -1.47051685e-06
      4.52498142e-07 -4.74991459e-08 -3.27100224e-07 2.83443207e-08
      8.33303716e-07 4.12575048e-07 -9.14702809e-07 -1.35744449e-06
      -9.63488219e-07 -4.48849676e-07 -1.67011720e-07 3.12816411e-07
      5.59785747e-07 1.93586530e-07 -1.16429355e-07 -5.07672326e-07
      -6.10160328e-07 -2.10049222e-07 -5.59734929e-07 -6.78012441e-07
      4.53779080e-07 1.00551415e-06 1.08754955e-06 9.29147120e-07
      1.02989554e-06 1.94030918e-06 2.30289925e-06 1.89246384e-06
      1.71751662e-06 1.93764140e-06 2.02878641e-06 1.40904433e-06
      4.53727154e-07 5.37157462e-07 2.86987358e-07 -2.24844641e-07
      4.96642883e-07 9.52611970e-07 5.65605148e-07 3.55098251e-07
      7.49592459e-07 6.50321226e-07 2.83131698e-07 3.32507938e-07
      5.48217031e-07 7.94031848e-07 2.91552396e-07 2.14305288e-07
      6.43734495e-07 8.44661599e-07 3.93798274e-07 5.84715876e-09
      -1.05802781e-06 -1.18826074e-06 -1.03601474e-06 -4.81406005e-07
      3.82277079e-07 4.55229440e-07 -3.54534734e-07 -4.95723214e-07
      -1.65653944e-07 2.73877845e-07 4.02905783e-07 6.22587834e-07
      6.75319143e-07 -2.38301965e-07 -7.69704286e-07 -2.33914619e-07
      -2.57948662e-10 4.01283359e-07 1.31274717e-07 -3.97389044e-07
      4.43709951e-07 1.04246135e-06 9.44692204e-07 1.06301445e-06
      1.27654778e-06 1.81183646e-06 2.30054548e-06 1.98159296e-06
      1.69782049e-06 2.14090483e-06 2.11650331e-06 1.31383865e-06
      8.13986219e-07 9.12497114e-07 5.66988092e-07 -6.55829240e-08
      1.03411776e-06 9.83602263e-07 6.17075045e-07 3.94458311e-07
      6.07387392e-07 6.29567410e-07 3.67701091e-07 4.65693489e-07
      4.47083551e-07 4.02628018e-07 1.34561958e-07 -3.20712381e-08
      3.75937049e-07 5.71010844e-07 5.77544313e-07 6.75527588e-07
      -1.62344327e-06 -2.25213580e-06 -2.33504284e-06 -2.02391516e-06
      -1.12955479e-06 -7.28670955e-07 -9.38419987e-07 -2.29840992e-07
      3.67962855e-07 5.75622778e-07 8.23885500e-07 1.26355121e-06
      1.29708405e-06 -1.89613218e-07 -1.16680519e-06 -6.38915310e-07
      2.44236304e-07 8.02988211e-07 1.03278956e-06 8.18303704e-07
      1.04490778e-06 1.34981815e-06 1.06038851e-06 7.32784656e-07
      1.23995733e-06 2.06967502e-06 2.85291071e-06 2.96460371e-06
      2.51614188e-06 2.55827126e-06 2.21755727e-06 1.36686879e-06
      9.98866653e-07 1.16531896e-06 4.80226220e-07 -4.76594209e-07
      3.53084715e-07 8.15255305e-07 4.89518015e-07 1.44440051e-07
      1.55379908e-07 1.65541621e-07 -1.34945267e-07 -3.38957847e-07
      -3.23682258e-07 -3.78292214e-07 -4.82176233e-07 -3.09843671e-07
      -5.81906988e-07 -6.22971754e-07 -6.00941462e-07 -2.49566398e-07
      -1.54865086e-06 -2.47585558e-06 -3.13580381e-06 -3.29893737e-06
      -2.82506517e-06 -2.52574864e-06 -1.99763781e-06 -9.70271117e-07
      -1.73603780e-07 2.75569306e-07 6.49333970e-07 1.50005314e-06
      1.83797113e-06 1.78376382e-07 -1.12463101e-06 -8.69958626e-07
      9.20813736e-09 1.09347286e-06 2.08572351e-06 1.97364352e-06
      1.84728970e-06 1.93259734e-06 1.67681185e-06 9.86290502e-07
      8.98227711e-07 1.69027578e-06 2.62010872e-06 3.13423197e-06
      2.91696983e-06 2.82765973e-06 2.09096311e-06 1.52309201e-06
      1.24348060e-06 1.29132195e-06 5.80508299e-07 -6.92080391e-07
      -4.09592587e-07 1.54583034e-07 1.33504599e-07 -1.47032722e-07
      7.37729167e-08 6.49184650e-10 -6.04921411e-07 -1.17731349e-06
      -1.44717797e-06 -1.46501088e-06 -1.27105011e-06 -6.53878999e-07
      -5.58152578e-07 -8.89482521e-07 -1.19420918e-06 -1.03075297e-06
      -7.28402824e-07 -1.61190428e-06 -2.61583637e-06 -3.19400260e-06
      -2.77166532e-06 -2.58603723e-06 -2.37184599e-06 -1.83698603e-06
      -1.22296967e-06 -7.37096627e-07 -3.46505828e-07 6.14392036e-07
      1.22773099e-06 2.36658735e-07 -9.42165627e-07 -1.16569049e-06
      -5.72349393e-07 5.06602248e-07 1.94337645e-06 2.20557740e-06
      2.20216043e-06 2.70534429e-06 2.59364879e-06 1.59858871e-06
      9.02934516e-07 1.36096355e-06 2.34695676e-06 2.62697813e-06
      1.97868485e-06 1.69027840e-06 1.47757635e-06 1.23908831e-06
      1.17540549e-06 1.55311216e-06 7.11996904e-07 -4.25959712e-07
      -9.38800042e-07 -1.22090614e-06 -1.21465678e-06 -6.73058253e-07
      8.25441404e-08 6.25733435e-07 1.62044941e-07 -7.00039379e-07
      -1.41479222e-06 -1.71530121e-06 -1.73913600e-06 -8.99081556e-07
      7.71046942e-08 4.09908694e-07 1.34482903e-07 -2.11767372e-07
      -2.90359338e-07 -5.06785284e-07 -1.24307041e-06 -1.91830418e-06
      -1.70997873e-06 -1.52712971e-06 -1.84226724e-06 -2.19180924e-06
      -2.32661819e-06 -1.84679072e-06 -1.75407797e-06 -1.59347212e-06
      -4.16225305e-07 -3.66606685e-07 -1.16320564e-06 -1.52660823e-06
      -1.42237946e-06 -3.47168594e-07 1.06636219e-06 1.65069434e-06
      1.92856123e-06 2.81709731e-06 2.89188711e-06 1.78679943e-06
      6.26796179e-07 9.38254004e-07 2.01125840e-06 2.23673146e-06
      1.08435268e-06 6.80913956e-07 6.13258749e-07 7.85314626e-07
      4.46731462e-07 1.21379674e-06 1.17848515e-06 2.39824629e-07
      -6.63367189e-07 -1.32318746e-06 -1.66987411e-06 -1.40152906e-06
      -1.99508392e-07 1.27006808e-06 1.38074552e-06 8.71957866e-07
      -2.61257043e-07 -8.40059499e-07 -1.02424519e-06 -9.11811583e-07
      4.39450019e-07 1.35449682e-06 1.90952801e-06 1.66085056e-06
      -2.78382458e-07 -2.11206626e-07 -7.66849155e-07 -1.66586938e-06
      -1.14393322e-06 -6.39016832e-07 -1.07438541e-06 -1.69271300e-06
      -2.36187680e-06 -2.73078240e-06 -2.56298358e-06 -3.68321798e-06
      -2.56205954e-06 -1.68502334e-06 -1.58888633e-06 -1.76120636e-06
      -1.71511658e-06 -1.06692653e-06 -2.46980907e-08 5.10849986e-07
      1.05524941e-06 2.22496078e-06 2.46692457e-06 1.46734430e-06
      3.46721265e-08 5.62248630e-08 9.23684695e-07 1.14496095e-06
      3.99687508e-07 1.25076740e-08 -1.67272290e-07 1.08190648e-07
      -1.01216465e-07 5.01954048e-07 1.22431663e-06 6.90952788e-07
      -1.80607600e-07 -8.83669031e-07 -1.17969932e-06 -1.37425513e-06
      -1.09560767e-06 1.97989010e-07 1.01240107e-06 6.65328628e-07
      -1.07452003e-07 -1.85280740e-07 5.93962080e-09 -4.56685996e-07
      -1.88563547e-07 1.31245952e-06 2.30165097e-06 2.55667555e-06
      -3.18488190e-07 1.19017720e-07 -1.09518865e-07 -9.30064573e-07
      -1.25637223e-06 -4.57897329e-07 -6.66016774e-07 -9.94914558e-07
      -1.40682448e-06 -2.19063099e-06 -3.02626427e-06 -4.01671014e-06
      -3.95874531e-06 -2.54634915e-06 -1.97811778e-06 -1.70621615e-06
      -1.33583796e-06 -8.32286844e-07 -5.87985312e-07 -5.31179410e-07
      1.14598549e-07 1.34059019e-06 1.79339520e-06 9.56261033e-07
      -4.64658427e-07 -7.63546495e-07 -5.10664506e-07 -4.56335094e-08
      -2.38308417e-07 -2.87722969e-07 -4.65800582e-07 -3.60777022e-07
      -1.13707323e-07 3.07781505e-07 1.04134142e-06 7.95060146e-07
      3.61453118e-07 -6.26128696e-08 -5.17781473e-07 -8.33796037e-07
      -1.39477413e-06 -9.11414304e-07 -2.13703842e-07 -5.21117954e-07
      -1.48560332e-06 -1.15124885e-06 -3.97743605e-07 -2.05740548e-07
      -2.54582687e-07 7.60339105e-07 1.63769653e-06 2.07308176e-06
      2.92470332e-07 6.79794823e-07 6.23655126e-07 4.21651869e-08
      -6.47877471e-07 -6.62533068e-07 -7.23855749e-07 -8.21936680e-07
      -9.50429865e-07 -1.07173366e-06 -1.38046539e-06 -2.72170678e-06
      -3.54599501e-06 -2.48835795e-06 -1.42744898e-06 -8.14014300e-07
      -4.00911375e-07 7.03644929e-08 -2.30400971e-07 -8.78848198e-07
      -3.64914541e-07 8.52327901e-07 1.26398197e-06 8.74948796e-07
      -2.16854119e-07 -7.29630017e-07 -1.06227594e-06 -1.06682739e-06
      -4.65044280e-07 -2.28719358e-07 -3.08118793e-08 -2.10527645e-07
      1.54871259e-07 7.30764839e-07 1.31815091e-06 8.51479456e-07
      6.17926503e-07 5.55491908e-07 9.69823120e-08 -5.39454732e-07
      -1.25870633e-06 -1.43354464e-06 -7.92319327e-07 -5.76938021e-07
      -1.56378189e-06 -1.61961339e-06 -1.07220183e-06 -9.56723397e-07
      1.17493919e-07 6.20539026e-07 1.08433505e-06 1.14566546e-06
      1.14600709e-06 1.28241902e-06 1.05969605e-06 5.97445876e-07
      -8.92302623e-08 -4.52676460e-07 -7.98840290e-07 -1.03366403e-06
      -1.16252534e-06 -1.09845553e-06 -7.31283819e-07 -6.46090029e-07
      -1.34849245e-06 -1.34607876e-06 -7.77084551e-07 -6.38312486e-07
      -1.20449215e-08 9.22000197e-07 2.61587417e-07 -6.70500469e-07
      -2.80163164e-07 5.98170402e-07 1.11629993e-06 1.26328041e-06
      6.63964215e-07 1.29835271e-07 -2.64349097e-07 -7.35891092e-07
      -1.12098512e-07 5.05824232e-07 9.04535455e-07 6.76643936e-07
      7.85171949e-07 1.46182992e-06 1.84699866e-06 1.20464153e-06
      6.27269117e-07 7.97677330e-07 5.86189856e-07 1.17509096e-08
      -9.76101205e-07 -1.53167900e-06 -8.81075323e-07 -6.33207176e-09
      -2.77664810e-07 -8.79741549e-07 -9.15843486e-07 -1.08224071e-06
      -9.43581142e-07 4.33976197e-07 1.00653779e-06 8.85917643e-07
      1.34749450e-06 1.17979857e-06 1.09713767e-06 5.78165839e-07
      2.85480354e-07 8.60811156e-08 -2.52706428e-07 -8.54884036e-07
      -1.33985975e-06 -1.39702604e-06 -1.06096934e-06 -1.17659205e-07
      -1.90320051e-07 -4.18323282e-07 -2.69650883e-07 -5.15783427e-07
      -5.25100518e-07 4.11668339e-07 8.54744314e-07 4.54836737e-07
      5.48160983e-07 8.89699663e-07 1.57855095e-06 1.92795164e-06
      1.35428525e-06 6.02241812e-07 1.82260820e-07 -2.29710110e-07
      4.31726704e-07 1.50449159e-06 2.13151770e-06 1.99885994e-06
      1.40329257e-06 1.92255948e-06 2.12965665e-06 1.41812518e-06
      7.48986906e-07 7.07181641e-07 6.92754668e-07 5.85227895e-07
      -9.63194822e-08 -8.98226347e-07 -7.16441036e-07 -1.89386871e-08
      5.88064950e-07 1.62229597e-07 -3.27062224e-07 -8.21863694e-07
      -1.17750346e-06 -2.02600006e-07 6.70841416e-07 8.15240526e-07
      1.05289951e-06 8.16877503e-07 5.12070358e-07 3.46208481e-07
      2.76291473e-07 2.96183373e-07 1.54138036e-07 -3.36789356e-07
      -1.09533937e-06 -1.41656892e-06 -1.26565203e-06 -7.65905838e-07
      -6.00453745e-07 -4.91274307e-07 -1.67433868e-07 -2.59684541e-08
      -2.54710358e-07 -1.68855749e-07 7.25161328e-07 1.24160454e-06
      1.29730836e-06 1.69995087e-06 2.03136528e-06 2.28756448e-06
      1.47612241e-06 4.18402834e-07 5.27831467e-08 -3.65843022e-07
      2.56680721e-07 1.73917715e-06 2.73884484e-06 3.11754161e-06
      2.20351649e-06 1.91344179e-06 1.70693045e-06 1.02172316e-06
      3.50472192e-07 3.02955669e-07 5.47947195e-07 8.74443913e-07
      7.93913500e-07 1.97692085e-08 -1.42843916e-07 -1.18969112e-07
      1.91791713e-07 1.60895709e-07 1.75771277e-07 -2.45158731e-07
      -8.74139971e-07 -7.80753282e-07 -2.24266572e-07 -1.04456909e-07
      8.48855564e-07 7.85787222e-07 4.58518571e-07 3.38086210e-07
      2.65823104e-07 2.94200163e-07 2.75460707e-07 -6.56784636e-08
      -4.65604728e-07 -7.43448879e-07 -8.02914485e-07 -1.07340031e-06
      -1.16429226e-06 -2.13901629e-07 5.88662715e-07 6.96594668e-07
      2.23148959e-07 -1.38971332e-08 9.78453301e-08 8.46226612e-07
      1.04589833e-06 1.66381915e-06 2.27012924e-06 2.46280251e-06
      1.61870696e-06 6.04879745e-07 1.40149410e-07 -3.10282161e-07
      -4.55291378e-08 1.41595558e-06 2.64399296e-06 3.39835105e-06
      3.09361667e-06 2.24516907e-06 1.65716517e-06 8.56140844e-07
      2.07337976e-07 -6.83881467e-08 1.30041769e-07 8.34255957e-07
      9.52052119e-07 3.21015136e-07 -1.39287579e-07 5.65172664e-09
      6.32521946e-09 -2.25420678e-07 3.83369837e-07 3.78842117e-07
      -1.81782497e-07 -1.01092917e-06 -1.08148868e-06 -1.21719484e-06
      3.47927312e-07 3.83978772e-07 3.13782351e-07 2.37831003e-07
      -5.64758862e-09 3.58670150e-07 3.38649102e-07 8.41782750e-08
      2.70442246e-08 4.72432475e-08 -1.25534086e-07 -6.79915729e-07
      -8.30713020e-07 4.16673174e-07 1.39301756e-06 1.58777766e-06
      1.15505088e-06 6.11251608e-07 3.13874921e-07 3.83660961e-07
      3.60161124e-07 7.42618056e-07 1.38777716e-06 1.51183622e-06
      8.88781585e-07 3.24470875e-07 2.52758383e-07 1.65220527e-07
      6.72607854e-08 1.31336594e-06 2.30542150e-06 3.01338150e-06
      3.07443747e-06 2.46171226e-06 1.78946163e-06 1.10386600e-06
      4.61492448e-07 -2.26351169e-08 1.45886659e-07 6.34624939e-07
      6.09934091e-07 -4.12240775e-09 -2.53352965e-07 -4.19035686e-08
      -7.40139043e-08 -2.46415848e-08 6.74803573e-07 9.00355474e-07
      4.18261521e-07 -8.11521659e-07 -1.19195226e-06 -1.11111888e-06
      -1.16116063e-07 -8.96634678e-09 -1.58725193e-08 -2.17087816e-07
      -1.74792333e-07 3.05082324e-07 2.44298121e-07 2.02040454e-07
      3.24356847e-07 5.16397677e-07 5.85687303e-07 3.38903419e-07
      2.86499528e-07 9.34785589e-07 1.29076227e-06 1.46470529e-06
      1.77767174e-06 1.78279981e-06 1.51088466e-06 1.11789120e-06
      5.91781316e-07 4.28352877e-07 4.38668053e-07 2.35381009e-07
      -3.08197599e-07 -4.90539549e-07 -1.39199358e-07 1.25311630e-07
      -7.62186545e-08 1.07521771e-06 2.11566703e-06 2.62155663e-06
      2.86183831e-06 2.48870697e-06 1.87097851e-06 1.38843473e-06
      8.35361902e-07 7.00213221e-08 1.82560413e-07 8.71711677e-07
      6.64447384e-07 -2.26204904e-08 9.12272924e-08 3.55102941e-07
      2.01482706e-07 2.86450046e-07 1.09615814e-06 1.17771117e-06
      6.52303299e-07 4.50265141e-08 3.08850154e-08 -7.23825408e-08
      -2.43135844e-07 -2.83576242e-07 -4.13109262e-07 -4.96548807e-07
      -3.76033483e-07 6.00016818e-08 2.67634960e-07 1.35631325e-07
      2.19756089e-07 5.27964744e-07 7.68702876e-07 8.49988169e-07
      1.29285286e-06 1.43508282e-06 1.07981884e-06 6.74985756e-07
      1.13242515e-06 1.94758832e-06 2.29941588e-06 2.11443012e-06
      1.55671739e-06 1.48426852e-06 9.08235336e-07 1.04764624e-07
      -4.54262505e-07 -8.63880359e-07 -4.84909492e-07 -1.93013690e-07
      -2.43830044e-07 3.01388582e-07 1.53262408e-06 2.10385133e-06
      2.47225648e-06 2.40972759e-06 2.41029124e-06 2.45128467e-06
      2.01348939e-06 8.92251819e-07 5.55933354e-07 1.13071144e-06
      7.49868605e-07 1.37414649e-08 3.48794060e-07 8.35645551e-07
      6.52335189e-07 6.85061593e-07 1.09090763e-06 1.22178881e-06
      8.37375012e-07 6.92177764e-07 1.15682167e-06 1.08304471e-06
      -1.52925097e-07 -9.56090958e-08 -4.33585541e-07 -6.91333412e-07
      -4.40004925e-07 -7.48740092e-08 2.67180837e-07 1.19862037e-07
      -1.50636552e-08 2.20958356e-07 4.31808644e-07 7.05366347e-07
      1.43249804e-06 1.43086174e-06 1.21315395e-06 6.98494034e-07
      6.22863126e-07 1.20708114e-06 1.69882924e-06 1.81576422e-06
      1.49113521e-06 1.82041379e-06 1.87668695e-06 7.54643395e-07
      1.63329034e-07 -2.70414205e-07 -3.03349026e-07 -1.85581385e-07
      -2.37777556e-07 2.09537845e-07 1.08989752e-06 1.25354029e-06
      1.26645239e-06 1.88282729e-06 2.47148955e-06 2.80422410e-06
      2.71740578e-06 1.74234970e-06 1.11147381e-06 1.35675919e-06
      8.23856396e-07 1.33143478e-08 2.02529606e-07 8.47560557e-07
      8.41790325e-07 6.98608233e-07 8.82452298e-07 1.01621788e-06
      8.21498531e-07 9.84745611e-07 1.49499976e-06 1.60501133e-06
      -6.54423161e-07 -2.02786197e-07 -2.50872034e-07 -4.80244580e-07
      -3.12120619e-07 8.58790941e-08 4.03570340e-07 1.87248887e-07
      5.10502112e-08 4.31112682e-07 4.66008686e-07 4.23685492e-07
      1.03170828e-06 1.34132006e-06 1.35767209e-06 1.06482094e-06
      1.12962391e-06 1.32738785e-06 1.31573086e-06 1.26891666e-06
      9.81685844e-07 1.32031744e-06 1.62696733e-06 1.40285545e-06
      8.20610182e-07 4.44766727e-07 7.95349138e-08 -6.44021512e-08
      -2.66793705e-07 6.34947313e-08 1.21036067e-06 1.32810351e-06
      1.10884412e-06 1.50971823e-06 1.90732089e-06 2.23267489e-06
      2.53121766e-06 2.07193966e-06 1.10287044e-06 1.07914286e-06
      7.75000444e-07 5.96652754e-08 1.99008525e-07 5.57397072e-07
      5.95429526e-07 5.87847865e-07 6.76138598e-07 8.40368330e-07
      8.12963606e-07 1.07787480e-06 1.48162223e-06 1.58005287e-06
      -1.82005272e-06 -9.85696943e-07 -4.62250682e-07 -4.57194517e-07
      -1.48725363e-07 2.01420178e-07 5.19970911e-07 2.64324456e-07
      1.86611359e-07 8.21674575e-07 8.02598890e-07 7.93553284e-07
      1.19786512e-06 1.49522032e-06 1.72006844e-06 1.70272301e-06
      1.96324959e-06 1.97611121e-06 1.72838600e-06 1.23777158e-06
      7.81190863e-07 6.88207251e-07 7.74734360e-07 1.10335634e-06
      1.04701940e-06 5.75337651e-07 3.38569578e-07 -9.32900832e-08
      -5.08443861e-07 -3.09191506e-07 8.65181448e-07 1.09042844e-06
      8.63491493e-07 1.32899117e-06 1.72159480e-06 1.95067378e-06
      2.29648867e-06 2.26164184e-06 1.30547483e-06 5.90534967e-07
      3.30765545e-07 -7.29868148e-08 4.23296669e-08 2.46072176e-07
      2.82091750e-09 2.38917806e-07 4.02227499e-07 7.88218131e-07
      8.91961236e-07 9.78487606e-07 1.26544728e-06 1.41347130e-06
      -2.88893079e-06 -2.15420823e-06 -1.12507917e-06 -5.99102748e-07
      -1.52762539e-07 2.79417804e-07 4.45458795e-07 9.77353238e-08
      1.73749143e-07 8.22450716e-07 7.89825265e-07 8.71083898e-07
      1.36805272e-06 1.57366276e-06 1.86036448e-06 1.74732918e-06
      2.12900818e-06 2.37327163e-06 2.21118557e-06 1.81775113e-06
      1.34446725e-06 9.93265758e-07 8.48649904e-07 7.61947433e-07
      7.09870108e-07 4.46015690e-07 6.49049525e-07 -1.97874854e-07
      -9.28588975e-07 -7.42848613e-07 1.63910201e-07 4.21126231e-07
      1.28342961e-07 8.21116544e-07 1.33292144e-06 1.49367816e-06
      1.72501245e-06 1.88486240e-06 1.28226804e-06 4.64796130e-07
      -1.50388985e-07 -4.46982284e-07 -3.73716233e-07 -2.45586705e-07
      -3.98579772e-07 -1.30113563e-07 1.18268083e-07 4.87759678e-07
      7.58730209e-07 8.64756714e-07 1.12131806e-06 1.36267670e-06
      -3.04865421e-06 -2.61216906e-06 -1.40216184e-06 -6.21326649e-07
      -6.46181562e-08 1.82026980e-07 9.94989122e-08 -2.36353983e-07
      -6.20973424e-08 4.75503128e-07 3.83142947e-07 5.38704057e-07
      1.11188695e-06 1.22062545e-06 1.56943440e-06 1.25918211e-06
      1.34440506e-06 1.85937938e-06 2.22051312e-06 2.20405309e-06
      1.82893916e-06 1.30576916e-06 1.36300639e-06 1.25932661e-06
      6.27747056e-07 1.67277250e-07 3.34662360e-07 -4.60397814e-07
      -1.03045238e-06 -1.21908909e-06 -8.57479733e-07 -5.98106396e-07
      -7.47237266e-07 -2.17785342e-07 3.82683822e-08 -8.27240072e-08
      2.99984784e-08 2.27970958e-07 6.90590198e-08 -3.07048992e-07
      -5.95826293e-07 -7.20048774e-07 -6.93257562e-07 -3.83631260e-07
      -3.64339684e-07 -2.39267820e-07 -1.73516895e-07 2.33658852e-07
      5.84064480e-07 7.96075369e-07 1.12612111e-06 1.48087531e-06
      -2.60175716e-06 -2.35249604e-06 -1.40523287e-06 -3.21318936e-07
      1.44733733e-07 1.83022706e-07 7.79066980e-08 -2.44824605e-07
      -1.56782164e-07 -2.70430238e-08 -1.68754994e-07 -7.55832161e-08
      5.23238725e-07 8.62042384e-07 8.59737781e-07 3.91135643e-07
      2.00830314e-07 5.30691466e-07 1.30432522e-06 1.90078902e-06
      1.67799476e-06 1.34449954e-06 1.42444117e-06 1.41348312e-06
      9.98224436e-07 1.70371592e-07 -7.44131938e-08 -9.22189884e-07
      -1.15473074e-06 -1.35378184e-06 -1.85000317e-06 -2.03571130e-06
      -2.42394935e-06 -1.89501213e-06 -1.65022607e-06 -1.79634219e-06
      -1.73368971e-06 -1.46994205e-06 -1.33605386e-06 -1.28061617e-06
      -1.18546927e-06 -1.10283963e-06 -9.25279551e-07 -3.10624017e-07
      -1.80275677e-07 -4.10071195e-08 -9.20343766e-08 1.43752416e-07
      5.53238863e-07 8.34166542e-07 1.18234686e-06 1.41018381e-06
      -2.44370358e-06 -2.15228647e-06 -1.28282954e-06 -3.09986717e-07
      2.00955597e-07 3.64019286e-07 5.14125588e-07 4.33417085e-07
      2.86230602e-07 -1.29382357e-07 -3.17176045e-07 -5.11958945e-07
      -3.83911072e-08 7.71176701e-07 8.35003618e-07 -9.43047453e-08
      -4.09339947e-07 -3.84871100e-07 -4.60422385e-08 3.60941442e-07
      6.86478643e-07 8.93799438e-07 1.03885247e-06 1.10944268e-06
      9.25172571e-07 2.70798665e-07 -2.09269814e-07 -8.64225171e-07
      -1.15648254e-06 -1.34055972e-06 -1.97227018e-06 -2.87756484e-06
      -3.83698989e-06 -3.58700322e-06 -3.46705883e-06 -3.68980795e-06
      -3.77906190e-06 -3.44584646e-06 -2.83614304e-06 -2.35247239e-06
      -2.07754988e-06 -1.74063211e-06 -1.38009784e-06 -4.16526944e-07
      -8.81639934e-08 1.67705920e-07 2.42490728e-07 3.17861264e-07
      5.79040602e-07 9.63810749e-07 1.25412271e-06 1.27682415e-06
      -2.64590449e-06 -2.31173749e-06 -1.51922814e-06 -6.32617002e-07
      3.29976935e-08 2.59027814e-07 7.97749294e-07 1.02341846e-06
      6.01112788e-07 1.65329752e-07 1.22536816e-08 -4.60978242e-07
      -1.98531200e-08 8.94326661e-07 1.28949728e-06 8.79086144e-07
      7.39580059e-07 5.10477435e-07 1.78492670e-07 -3.30769225e-08
      -2.18934005e-07 -1.26271985e-07 6.05495416e-07 1.01581088e-06
      8.55706674e-07 3.94440690e-07 1.37892613e-07 -8.45467412e-08
      -3.62019819e-07 -7.99406450e-07 -1.58539035e-06 -2.48498395e-06
      -3.42246130e-06 -3.88740409e-06 -3.44785576e-06 -3.85380008e-06
      -4.26552879e-06 -4.15060458e-06 -3.49601805e-06 -2.72263787e-06
      -2.51236543e-06 -2.17974593e-06 -1.81064570e-06 -1.00958687e-06
      -4.53825550e-07 3.73768145e-08 2.59960018e-07 3.95791176e-07
      5.41361317e-07 1.00678733e-06 1.37612483e-06 1.30855915e-06
      -3.02418266e-06 -2.55946884e-06 -1.93570168e-06 -1.26580073e-06
      -5.69035308e-07 -8.98973767e-08 4.67076745e-07 8.98982705e-07
      2.98385743e-07 5.22192778e-08 1.49404499e-07 -1.57692185e-07
      1.59611929e-07 1.13196427e-06 1.90625701e-06 2.29806301e-06
      2.71845101e-06 2.85391638e-06 2.05842912e-06 1.25080032e-06
      9.08172353e-07 3.02574747e-08 -2.68103577e-07 -2.10575863e-07
      2.03511433e-07 2.32683391e-07 1.75563670e-07 4.16175766e-07
      3.74315732e-07 -8.54060005e-08 -1.02417835e-06 -1.79770370e-06
      -2.20885931e-06 -2.22798053e-06 -1.29928503e-06 -9.93083518e-07
      -1.54476288e-06 -1.88224499e-06 -1.75158584e-06 -1.37965219e-06
      -1.45978925e-06 -1.68103031e-06 -1.61009916e-06 -1.23762675e-06
      -7.00995372e-07 -4.18964788e-07 -9.72243015e-08 3.59819779e-07
      6.09178016e-07 9.19057243e-07 1.50506787e-06 1.53186863e-06
      -3.39605367e-06 -2.94643814e-06 -2.60917932e-06 -2.06708864e-06
      -1.40007398e-06 -7.61539297e-07 -1.63272276e-07 4.04491971e-07
      -8.06662186e-08 -2.32850951e-07 -4.28262759e-08 8.03369531e-08
      4.84749307e-07 1.58137630e-06 2.22693075e-06 2.47947901e-06
      3.46913976e-06 4.17583260e-06 3.87213777e-06 2.48325796e-06
      2.06559480e-06 1.01464514e-06 -4.42210876e-07 -1.34417860e-06
      -1.18216815e-06 -7.84429062e-07 -4.28809841e-07 -1.54777922e-07
      2.25370314e-07 1.22911203e-07 -4.87995464e-07 -1.02342119e-06
      -1.09245127e-06 -8.17592877e-07 8.14752809e-07 1.94009817e-06
      2.10597182e-06 1.91738718e-06 1.70294391e-06 1.15091632e-06
      2.60918824e-07 -2.83008632e-07 -8.79135428e-07 -1.12895304e-06
      -7.91943876e-07 -6.14031819e-07 -4.48721153e-07 1.12820821e-07
      5.42449470e-07 9.09443656e-07 1.48026754e-06 1.66138454e-06
      -3.82824010e-06 -3.42831686e-06 -3.08525409e-06 -2.71153363e-06
      -2.09240443e-06 -1.54212535e-06 -8.87489023e-07 -3.21684155e-07
      -6.27198688e-07 -4.77153492e-07 -2.11779128e-09 7.06415449e-07
      1.11312477e-06 2.05220385e-06 2.41595603e-06 1.74787522e-06
      2.69578845e-06 4.37145673e-06 4.47261345e-06 3.19399351e-06
      2.31800550e-06 1.46002469e-06 -1.20265355e-07 -1.60623813e-06
      -2.13453200e-06 -1.97325153e-06 -1.38848497e-06 -1.07415053e-06
      -8.63594266e-07 -5.14419071e-07 -8.59594991e-07 -9.06048456e-07
      -8.89086323e-07 -1.40863574e-06 4.29637282e-07 2.72118814e-06
      3.61231673e-06 3.83738779e-06 3.51819472e-06 2.65288190e-06
      1.31161744e-06 6.76449872e-07 -2.10393111e-07 -8.59391150e-07
      -7.95881590e-07 -6.62350374e-07 -5.81299787e-07 6.84487915e-08
      5.09779284e-07 8.46771002e-07 1.43155239e-06 1.54159397e-06
      -3.09249344e-06 -3.08917083e-06 -2.86683076e-06 -2.66361076e-06
      -2.20132392e-06 -1.94742165e-06 -1.56251258e-06 -1.01539001e-06
      -1.33858043e-06 -8.31212219e-07 2.11210590e-07 1.42342003e-06
      2.04118624e-06 2.61449736e-06 3.06115930e-06 2.65593644e-06
      2.04740627e-06 2.80004338e-06 3.41999294e-06 2.34848176e-06
      1.56175702e-06 1.31909894e-06 -1.08777080e-07 -1.49770756e-06
      -2.33128276e-06 -2.69786688e-06 -2.34145318e-06 -1.89241064e-06
      -1.37118093e-06 -8.07139770e-07 -1.21327855e-06 -1.42921988e-06
      -1.16202966e-06 -1.71605677e-06 -1.34100321e-06 1.05939228e-06
      2.44273519e-06 3.06170909e-06 3.27340194e-06 2.92599907e-06
      1.73110402e-06 1.01401918e-06 1.11863692e-07 -4.90529601e-07
      -5.22883795e-07 -6.39526377e-07 -7.42476914e-07 -1.48515966e-07
      4.40889607e-07 6.94344692e-07 1.03985565e-06 1.06537448e-06
      -2.10680287e-06 -2.23636607e-06 -2.31351373e-06 -2.14742840e-06
      -1.73622857e-06 -1.83187876e-06 -1.93443134e-06 -1.48123081e-06
      -2.03990294e-06 -1.20632728e-06 3.04679844e-07 1.50346546e-06
      2.14606916e-06 2.67277233e-06 3.45614899e-06 3.86144166e-06
      3.01882642e-06 1.87370961e-06 1.40929319e-06 9.63604748e-07
      2.43045832e-07 -1.43430841e-08 3.41823352e-08 -1.20494212e-06
      -2.25290250e-06 -2.71941258e-06 -2.96911912e-06 -2.63294532e-06
      -1.67243502e-06 -7.09875735e-07 -6.94975938e-07 -1.33728111e-06
      -1.12407497e-06 -1.26019290e-06 -1.35611663e-06 2.33507095e-07
      1.63733046e-06 2.42020883e-06 2.43221734e-06 2.41812518e-06
      1.86169245e-06 1.17050820e-06 4.01454884e-07 -4.76715734e-08
      -6.93963500e-08 -4.01975200e-07 -5.61582056e-07 -4.44258802e-07
      -3.99355038e-09 2.85346488e-07 5.55884469e-07 5.22371693e-07
      -1.44801936e-06 -1.55987595e-06 -1.84234625e-06 -1.67322867e-06
      -1.23859365e-06 -1.39819576e-06 -1.66180621e-06 -1.39874714e-06
      -2.03827199e-06 -1.30207366e-06 2.06455056e-07 1.01475030e-06
      1.71341401e-06 2.18614741e-06 3.03246156e-06 4.14985789e-06
      4.08262258e-06 2.93658309e-06 1.71892282e-06 9.88135412e-07
      7.80085543e-08 -2.40345827e-07 -3.18633823e-07 -7.29072440e-07
      -1.39183078e-06 -2.19078674e-06 -2.59048079e-06 -2.98497139e-06
      -2.39889869e-06 -1.51577535e-06 -8.08757875e-07 -9.20792615e-07
      -3.77589942e-07 1.03255902e-08 -7.07982906e-07 -2.63282089e-08
      1.18235596e-06 1.95278426e-06 2.18721061e-06 2.30784713e-06
      2.01297962e-06 1.37345467e-06 9.01921226e-07 7.35148490e-07
      7.52140522e-07 3.24094003e-07 1.26023778e-07 -1.31750369e-07
      -1.55661851e-07 -9.38594980e-08 1.88315241e-07 3.69441864e-07
      -9.61234718e-07 -1.24964765e-06 -1.38877283e-06 -1.13869828e-06
      -6.39092150e-07 -6.98613746e-07 -1.11432701e-06 -9.48359116e-07
      -1.38876703e-06 -8.75719593e-07 1.08635589e-07 4.16166813e-07
      7.23484618e-07 1.10430551e-06 1.82700444e-06 2.85891997e-06
      3.54966483e-06 3.23247446e-06 2.18550781e-06 1.28861939e-06
      6.60821001e-07 -3.76897553e-08 -4.11758066e-07 -6.49663036e-07
      -9.29231817e-07 -1.49580751e-06 -2.05106039e-06 -2.52544964e-06
      -2.49276650e-06 -2.12357304e-06 -1.35684513e-06 -9.03405066e-07
      -1.23538371e-07 5.93019024e-07 -1.34140180e-07 -1.81040335e-07
      3.86592831e-07 1.28186127e-06 2.00561226e-06 2.37834502e-06
      2.02083584e-06 9.68562290e-07 4.35512504e-07 4.51987830e-07
      7.34567436e-07 7.75935575e-07 8.84282144e-07 6.09844506e-07
      3.85129283e-07 2.41376995e-07 2.81088688e-07 6.96489735e-07
      -4.11571705e-07 -6.35079402e-07 -9.85333600e-07 -8.12950816e-07
      -2.22959741e-07 6.25410763e-08 -1.58390478e-07 -2.39078503e-07
      -3.29079768e-07 -8.65940848e-08 3.48273375e-07 5.85987038e-07
      5.21862034e-07 6.81450103e-07 7.38936137e-07 9.35777564e-07
      1.60272680e-06 2.12320015e-06 2.27897954e-06 1.98760608e-06
      1.08115262e-06 1.88132006e-07 -5.33660000e-07 -7.87696933e-07
      -7.77778723e-07 -1.23678672e-06 -1.75012690e-06 -1.72671810e-06
      -1.91066101e-06 -1.89826369e-06 -1.57769841e-06 -9.09144376e-07
      -1.93253953e-07 2.57394106e-07 -3.11952164e-07 -2.57345334e-07
      1.65556955e-07 9.74208888e-07 1.71839906e-06 2.22559015e-06
      1.89651450e-06 1.11055192e-06 1.35565756e-07 -3.90629623e-07
      -3.27128134e-07 1.76371145e-07 7.59736167e-07 6.92232504e-07
      4.04965306e-07 3.81007851e-07 5.17798185e-07 9.98646328e-07
      -6.67530458e-08 -3.95302465e-07 -8.76375111e-07 -8.15716760e-07
      -4.66547547e-08 3.74207218e-07 4.02972063e-07 6.00198803e-07
      9.68788640e-07 9.05419085e-07 6.91908042e-07 9.21184210e-07
      1.14992292e-06 9.97457732e-07 2.92770267e-07 -4.44754960e-07
      1.06961807e-07 6.16273326e-07 1.32490084e-06 1.74814522e-06
      1.29069520e-06 6.47858712e-07 5.49816193e-08 -2.11808000e-07
      -5.30907016e-07 -1.13145018e-06 -1.44042770e-06 -1.24280189e-06
      -9.41555300e-07 -9.78937919e-07 -1.02855677e-06 -8.59128306e-07
      -3.72687481e-07 -3.02713588e-08 -1.83868877e-07 2.21306806e-07
      8.53478639e-07 1.33406172e-06 1.78267351e-06 1.89210800e-06
      1.65200720e-06 1.16374963e-06 3.94426166e-07 -7.37218954e-07
      -9.53872473e-07 -5.90484888e-07 1.21218648e-07 2.43315526e-07
      1.58345628e-07 1.54999285e-07 3.79845488e-07 9.59774070e-07
      2.21757418e-07 -1.50410926e-07 -6.82177301e-07 -6.92532012e-07
      -7.91073873e-08 5.24485131e-07 4.58695069e-07 9.26545852e-07
      1.62474896e-06 1.85083866e-06 1.55623172e-06 1.45952504e-06
      1.82567385e-06 1.75892319e-06 6.49899050e-07 -3.10171288e-07
      -3.32072602e-07 -3.40797364e-08 3.44892442e-07 8.33362151e-07
      7.72998419e-07 4.28136701e-07 4.10813243e-07 5.65375160e-07
      1.92317060e-07 -4.58040859e-07 -7.23819142e-07 -5.77153401e-07
      -1.10094192e-07 3.65143308e-07 -5.42490142e-08 -3.15830647e-07
      -1.49814170e-07 -7.30169392e-09 2.39950964e-07 6.87688896e-07
      1.56751207e-06 1.89163097e-06 2.00430850e-06 1.83360646e-06
      1.53370331e-06 1.14174475e-06 3.08920846e-07 -6.62989066e-07
      -1.25103463e-06 -1.42135673e-06 -6.28737041e-07 -3.71062129e-07
      -3.83552162e-07 -1.01824277e-07 6.21029406e-09 4.26147437e-07
      7.39958539e-09 -2.46219457e-07 -5.15334193e-07 -4.34515556e-07
      -2.98394482e-08 5.28902660e-07 3.52414787e-07 4.51082599e-07
      1.19738161e-06 1.55262921e-06 1.71283250e-06 1.76186677e-06
      2.23325992e-06 2.38618486e-06 1.56290923e-06 8.08126174e-07
      8.03166586e-07 4.42221818e-07 -3.13396811e-07 -2.72774969e-07
      -1.83792792e-09 -3.29165516e-07 -4.74882675e-08 3.83738666e-07
      3.60817296e-07 1.76675670e-07 4.57260370e-07 6.08491860e-07
      2.54831974e-07 1.82484058e-07 3.38904783e-07 4.75676174e-08
      8.99448551e-08 3.49959748e-07 4.81774691e-07 8.15103078e-07
      1.59292779e-06 1.87671753e-06 1.94054587e-06 1.94706763e-06
      1.60110562e-06 6.53163454e-07 1.38614425e-07 -4.42991279e-07
      -1.27583496e-06 -1.71241834e-06 -1.18513265e-06 -1.21294988e-06
      -1.09502116e-06 -5.78429535e-07 -7.74706280e-07 -7.73064073e-07
      2.44915896e-07 -6.55370158e-08 -5.43359249e-07 -6.13014663e-07
      -5.46325396e-07 -9.86986777e-08 -7.42750785e-08 -1.31681105e-07
      4.50685576e-07 5.69514043e-07 6.41092868e-07 1.14042734e-06
      1.68528231e-06 2.19287267e-06 1.67897349e-06 1.58778516e-06
      1.98326734e-06 1.08275890e-06 -8.54211976e-07 -1.40265058e-06
      -1.06775815e-06 -1.46074251e-06 -7.90356296e-07 -1.28155420e-07
      1.00256905e-07 -1.08637765e-08 8.01021031e-07 1.38525570e-06
      9.59089107e-07 3.46006914e-07 2.40719515e-07 3.52673368e-07
      2.66619594e-07 7.31444800e-07 6.77765570e-07 8.74469151e-07
      1.37490338e-06 1.55063549e-06 1.47660728e-06 1.79444351e-06
      1.75006528e-06 7.95335097e-07 -5.69087248e-08 -6.65420544e-07
      -1.50311155e-06 -2.10532085e-06 -1.78376206e-06 -1.84936630e-06
      -1.80384109e-06 -1.25609131e-06 -1.13806448e-06 -1.56433157e-06
      1.78515074e-06 9.03210946e-07 -1.86705407e-07 -8.33348793e-07
      -1.12557655e-06 -9.26286248e-07 -8.21668891e-07 -8.45713032e-07
      -1.77423729e-07 -1.31326104e-07 -4.35914927e-07 -1.65792628e-07
      7.03922467e-07 9.74247087e-07 1.24580663e-06 1.55429257e-06
      1.71050237e-06 8.13110034e-07 -8.11901828e-07 -1.23486541e-06
      -1.39110250e-06 -1.86094121e-06 -1.44863668e-06 -5.45323530e-07
      3.77407133e-07 4.72717090e-07 5.24040559e-07 8.11162977e-07
      2.35632541e-07 -9.67160290e-08 -2.62578936e-08 4.35965035e-07
      4.25430500e-07 8.00558894e-07 8.25553229e-07 6.39742609e-07
      9.50562594e-07 1.11696477e-06 1.11049781e-06 1.21237474e-06
      1.19463687e-06 4.27215269e-07 -4.88586181e-07 -1.10536553e-06
      -1.78100322e-06 -2.28343970e-06 -2.26138809e-06 -2.15332057e-06
      -1.79743358e-06 -8.88437796e-07 -3.61815808e-07 -5.22756295e-07
      3.63732124e-06 2.74275590e-06 1.02283968e-06 -2.88410945e-07
      -1.08026143e-06 -1.16615706e-06 -1.25541578e-06 -1.13512647e-06
      -5.62163450e-07 -3.39614786e-07 -5.96923769e-07 -5.46810838e-07
      -4.94969413e-07 -1.99203754e-07 5.57890530e-07 1.13446924e-06
      1.17652166e-06 7.00438285e-09 -6.80340520e-07 -7.99477903e-07
      -1.00513671e-06 -1.71508384e-06 -1.71154659e-06 -6.39051848e-07
      2.74350271e-07 8.65806669e-07 5.88583703e-07 6.50703839e-07
      8.83151188e-07 3.18046858e-07 -1.75403329e-07 -1.01635287e-08
      4.92024640e-07 9.04735145e-07 7.06376966e-07 2.70980934e-07
      4.37552529e-07 7.83849885e-07 8.16052193e-07 8.80637685e-07
      9.18492390e-07 2.03716468e-07 -7.82789982e-07 -1.74503896e-06
      -2.16376316e-06 -2.53266626e-06 -2.66280745e-06 -2.55486316e-06
      -1.89614411e-06 -9.50924857e-07 -8.92449563e-08 1.68409883e-07
      4.22922994e-06 3.69222971e-06 2.00144382e-06 4.82609494e-07
      -2.60902937e-07 -2.93829004e-07 -5.51959658e-07 -6.49012009e-07
      -5.02860416e-07 -4.21806362e-07 -6.03037790e-07 -4.23448284e-07
      -6.49015249e-07 -9.44734495e-07 -5.00298938e-07 1.76607358e-07
      9.79233505e-07 3.76905291e-07 -2.07595022e-07 -1.87057111e-07
      -2.32763242e-07 -6.05129514e-07 -5.60595311e-07 -1.13356840e-07
      3.08345562e-07 2.92865280e-07 3.33060569e-07 5.32175306e-07
      1.30137187e-06 1.65617359e-06 9.75134185e-07 4.06844009e-07
      3.14755539e-07 4.25093958e-07 1.83406996e-07 -6.84698307e-08
      -1.08099897e-07 2.10514330e-07 3.86610481e-07 5.54367148e-07
      8.99236909e-07 6.90974844e-07 -5.85639981e-08 -1.34481854e-06
      -1.70634314e-06 -2.04425464e-06 -2.42308329e-06 -2.59896342e-06
      -2.53244275e-06 -2.21184246e-06 -1.63390371e-06 -1.38609096e-06
      3.57098224e-06 3.44277146e-06 2.31181571e-06 9.34072204e-07
      3.79536715e-07 7.05609807e-07 6.47902937e-07 6.49969138e-07
      6.41333088e-07 2.82085665e-07 9.62735669e-08 -1.69007464e-07
      -2.90564145e-07 -7.88762577e-07 -1.22671258e-06 -7.86057456e-07
      4.59502942e-08 3.63932259e-07 3.30069071e-07 -7.26996774e-08
      -5.24347108e-08 -5.24508650e-08 2.36802535e-07 3.30178324e-07
      4.13570866e-09 -4.30880135e-07 -5.63002232e-07 -9.33596169e-08
      9.42312226e-07 2.14387092e-06 2.44329999e-06 1.65461245e-06
      9.78844810e-07 6.19612024e-07 1.88946331e-07 -3.81322764e-07
      -5.70722932e-07 -1.77232906e-07 1.56310609e-08 4.55354638e-07
      1.27907026e-06 1.60554009e-06 8.90402532e-07 2.02836592e-08
      -3.17467254e-07 -8.79476318e-07 -1.60940556e-06 -1.83087343e-06
      -1.88521369e-06 -2.37920744e-06 -2.80995960e-06 -2.96586086e-06
      1.47806452e-06 1.87653484e-06 1.42746785e-06 8.63554533e-07
      4.84310988e-07 1.08844756e-06 1.47113769e-06 1.53851875e-06
      1.88428521e-06 1.54810402e-06 6.88165187e-07 2.11963282e-07
      -1.40009959e-07 -5.21049628e-07 -1.05903223e-06 -1.02797549e-06
      -5.40509120e-07 -3.35972089e-07 -1.71625203e-07 -3.86316373e-07
      -6.36513619e-07 -3.40222385e-07 -1.11702638e-08 -1.19218022e-08
      -1.03642286e-08 -3.98996605e-07 -8.26520193e-07 -1.00038312e-06
      -4.26009279e-07 1.37044162e-06 2.77705067e-06 2.60737556e-06
      2.02747356e-06 1.73002468e-06 1.51595043e-06 4.19446593e-07
      -2.19976883e-07 1.05610376e-07 5.02522767e-07 9.76496494e-07
      1.83723250e-06 2.36529490e-06 2.31794525e-06 1.46574064e-06
      4.42757880e-07 -9.44009670e-08 -4.88743922e-07 -3.79393526e-07
      -3.55992995e-07 -7.66493599e-07 -1.09194173e-06 -1.44976786e-06
      -9.65421009e-07 -1.87402790e-07 4.25770054e-07 2.28282900e-07
      1.53300661e-07 7.59738214e-07 1.29842851e-06 1.46890341e-06
      2.35722473e-06 2.30701062e-06 1.21652647e-06 5.02629860e-07
      1.65574448e-07 -4.58305493e-07 -7.88245870e-07 -8.24733036e-07
      -4.16813265e-07 2.13426176e-07 5.83155440e-07 1.78670902e-07
      -1.50935492e-07 -1.88333971e-07 -3.90750643e-07 -5.12945633e-07
      -1.34713318e-07 -2.91379365e-07 -5.03457898e-07 -1.24015355e-06
      -1.20227514e-06 1.91841110e-07 2.01400462e-06 3.15076409e-06
      3.41708915e-06 3.15032776e-06 2.59926082e-06 1.55032637e-06
      1.14441093e-06 1.68883685e-06 1.92390189e-06 1.89598950e-06
      1.94463473e-06 2.22877907e-06 2.49982008e-06 2.10846815e-06
      1.08029315e-06 5.59905857e-07 3.72670428e-07 5.24434142e-07
      9.33699255e-07 1.15895648e-06 1.55767896e-06 1.34149116e-06
      -2.77624486e-06 -1.91128993e-06 -4.16672776e-07 2.17104230e-07
      2.48741685e-07 4.63864922e-07 8.68784923e-07 8.87856118e-07
      1.70002659e-06 2.16684384e-06 1.41402745e-06 5.58846523e-07
      -2.98557097e-07 -7.48840023e-07 -7.64530739e-07 -8.89836656e-07
      -4.01040893e-07 5.46276453e-07 1.10705639e-06 6.52453878e-07
      5.50237246e-07 2.59531845e-07 -4.37938525e-07 -6.59962893e-07
      -3.08279681e-07 -3.73115711e-07 -6.02312184e-07 -1.14231261e-06
      -1.63815298e-06 -6.47615593e-07 8.60098453e-07 2.53392477e-06
      3.87126875e-06 3.92373840e-06 2.94024721e-06 1.93876849e-06
      1.85403269e-06 2.63726452e-06 3.09058419e-06 2.91284414e-06
      2.49810091e-06 1.83924647e-06 1.55115322e-06 1.14729312e-06
      7.95824576e-07 8.61678814e-07 8.18631918e-07 8.28455597e-07
      1.30404044e-06 2.02663114e-06 2.88141359e-06 2.83765053e-06
      -4.19445450e-06 -2.97907968e-06 -9.53452854e-07 4.66188737e-07
      8.90211993e-07 9.32159367e-07 1.00081354e-06 7.46981186e-07
      1.38887697e-06 1.99823762e-06 1.81793098e-06 1.04592391e-06
      -2.38160666e-07 -1.10567373e-06 -1.03284538e-06 -7.75095884e-07
      -1.12442152e-07 1.16618594e-06 1.61679748e-06 1.12731846e-06
      1.29508214e-06 7.94980849e-07 -1.27897062e-08 -3.45398490e-07
      1.69544322e-07 8.72822099e-08 -2.82106981e-07 -6.86931628e-07
      -8.80552193e-07 -3.48048161e-07 4.64083939e-07 2.00475756e-06
      3.60822787e-06 3.98030897e-06 3.24566417e-06 2.30342607e-06
      2.03197669e-06 2.14794227e-06 2.64388791e-06 2.99953558e-06
      2.78042489e-06 1.68991357e-06 7.03067656e-07 -9.43126039e-08
      -2.78328631e-08 8.12443318e-07 9.04719514e-07 8.93855997e-07
      1.13033525e-06 1.92914581e-06 2.79526466e-06 3.12243878e-06
      -4.48710898e-06 -3.23528434e-06 -1.19055358e-06 4.62499543e-07
      1.37124562e-06 1.65662027e-06 1.48932327e-06 9.90908461e-07
      1.58571277e-06 2.08077313e-06 2.05959873e-06 1.27644216e-06
      -1.83942839e-09 -1.24639814e-06 -1.19253707e-06 -6.16998079e-07
      4.21523424e-07 1.61701075e-06 2.06526829e-06 1.66235759e-06
      1.54424424e-06 9.59559202e-07 3.36949171e-07 1.81208122e-07
      7.53446329e-07 5.34447111e-07 -2.81060494e-07 -9.01443627e-07
      -6.80462733e-07 1.73793410e-07 7.37977075e-07 1.48006075e-06
      3.02125773e-06 3.72616432e-06 3.63065942e-06 2.63224456e-06
      2.01642661e-06 1.87717546e-06 2.34833897e-06 2.72051011e-06
      2.63147604e-06 1.62664981e-06 2.50540779e-07 -6.93856748e-07
      -7.14311227e-07 3.61036911e-07 7.82504969e-07 8.69895757e-07
      1.20858647e-06 1.83841746e-06 2.49032064e-06 3.15413126e-06
      7.54769076e-07 7.01702561e-07 4.73722054e-07 2.02266250e-07
      1.90290535e-07 4.24790301e-07 7.22097525e-07 7.79229765e-07
      8.78819264e-07 7.74789044e-07 8.49143305e-07 5.97609244e-07
      4.51399842e-07 2.67427907e-07 1.54270509e-07 3.00997385e-07
      3.12570847e-07 2.38483437e-07 2.79352065e-07 5.30974482e-08
      -1.12845953e-07 1.09019332e-07 5.44189902e-07 7.33197453e-07
      7.57093460e-07 6.42770601e-07 4.40162097e-07 3.02564274e-07
      5.68421171e-07 8.62021807e-07 9.86961027e-07 8.91256775e-07
      5.84253712e-07 5.48431217e-07 9.33731712e-07 1.10671454e-06
      9.92018045e-07 8.28834231e-07 8.40679832e-07 6.88196280e-07
      3.92215412e-07 4.21538743e-07 5.57546969e-07 5.09006270e-07
      5.00642670e-07 4.11736664e-07 1.27119620e-07 -3.08240942e-07
      -5.01366912e-07 -4.72428383e-07 -2.81782462e-07 -6.32082759e-08
      6.97763255e-07 6.12215331e-07 4.26902858e-07 2.29825716e-07
      1.74288942e-07 3.79574431e-07 5.79473578e-07 8.45188197e-07
      8.48491766e-07 8.31493082e-07 7.88837212e-07 8.45053989e-07
      5.61561819e-07 4.55354296e-07 2.66010858e-07 1.07435540e-07
      3.04894002e-07 4.15231113e-07 4.10921302e-07 3.26220174e-07
      1.00082637e-07 1.33413138e-07 3.16462661e-07 6.80145945e-07
      7.97059613e-07 7.63131993e-07 5.91006994e-07 4.64507735e-07
      3.26136956e-07 5.11307007e-07 6.98536383e-07 7.56818110e-07
      6.63380831e-07 5.83329211e-07 5.84278780e-07 8.55156657e-07
      9.68231575e-07 6.98184465e-07 3.93882829e-07 2.99239957e-07
      1.98176849e-07 1.52793802e-07 1.21630023e-07 2.71876900e-07
      4.13086894e-07 4.91493495e-07 4.90677280e-07 1.74635915e-07
      -3.14350302e-07 -6.11755240e-07 -6.38855965e-07 -3.01531770e-07
      4.63160774e-07 4.84731345e-07 4.15400081e-07 2.05657713e-07
      8.74733317e-08 2.95008789e-07 6.45509374e-07 8.52719268e-07
      8.20619732e-07 7.05891750e-07 7.15934846e-07 7.37327355e-07
      6.02254261e-07 4.15787582e-07 3.61644794e-07 1.74383004e-07
      3.14988796e-07 6.04751165e-07 7.19979596e-07 5.20279855e-07
      3.79432691e-07 2.49316088e-07 2.39825624e-07 4.60380875e-07
      7.71729106e-07 9.67391429e-07 7.89245235e-07 6.81190215e-07
      7.19791501e-07 5.49534320e-07 5.25449479e-07 4.96585756e-07
      6.50376535e-07 7.56461645e-07 7.23195740e-07 7.00701321e-07
      9.39749270e-07 9.98301516e-07 5.66911694e-07 6.49156249e-08
      -1.41548014e-07 -1.36892652e-07 -1.50778519e-07 -1.01930048e-07
      5.60533415e-08 2.44877725e-07 5.68156793e-07 5.65776645e-07
      2.85255112e-07 -3.28226122e-07 -6.25205814e-07 -6.54985740e-07
      3.14367668e-07 2.70596530e-07 3.29825212e-07 4.55680208e-07
      2.14894342e-07 1.26076969e-07 4.67026268e-07 9.84008921e-07
      1.10512167e-06 6.93184631e-07 6.16060333e-07 6.07064351e-07
      6.36677100e-07 4.29229488e-07 2.16124420e-07 3.42686974e-07
      4.05135495e-07 6.74827845e-07 1.00636998e-06 1.03511525e-06
      6.66222888e-07 4.34583512e-07 2.65239606e-07 3.16924911e-07
      6.52377082e-07 9.26701944e-07 1.09196810e-06 9.07669119e-07
      9.87119961e-07 1.02926435e-06 6.88098339e-07 4.37821598e-07
      5.40274755e-07 7.15013584e-07 8.12017618e-07 8.09839037e-07
      8.57406349e-07 1.09973769e-06 1.02971990e-06 4.44407220e-07
      -1.46136003e-07 -4.77139793e-07 -3.73435910e-07 -3.59962485e-07
      -3.50852616e-07 -7.08286194e-08 1.22772832e-07 5.19651792e-07
      7.44928570e-07 2.83486031e-07 -2.30869915e-07 -3.40170942e-07
      6.82454413e-07 2.84845953e-07 1.71657291e-07 4.11228143e-07
      5.95110578e-07 3.98205259e-07 3.73794649e-07 6.83440703e-07
      1.01417527e-06 8.98816836e-07 5.83173971e-07 4.26413209e-07
      5.18835805e-07 4.06419161e-07 1.22402540e-07 9.54897033e-08
      3.86708166e-07 5.73647071e-07 1.00059515e-06 1.28098884e-06
      1.26546456e-06 8.37778487e-07 4.26305320e-07 4.08382249e-07
      5.79817652e-07 8.02976558e-07 1.03486218e-06 1.15590512e-06
      1.20733307e-06 1.26715736e-06 1.18541902e-06 6.01833221e-07
      3.32530902e-07 5.73151112e-07 6.47768331e-07 7.33250829e-07
      7.42692123e-07 9.51793879e-07 1.04961134e-06 7.32369813e-07
      1.85387123e-07 -4.60869984e-07 -5.98470024e-07 -5.19941977e-07
      -5.93607808e-07 -5.06419042e-07 -3.11791666e-07 -3.23541762e-08
      5.30616774e-07 7.34044988e-07 2.76142856e-07 -2.70535239e-08
      6.81076131e-07 7.18985007e-07 3.28940700e-07 1.32358963e-07
      4.74462894e-07 7.15077192e-07 6.20207516e-07 4.60898633e-07
      7.53603331e-07 7.88305840e-07 5.67733423e-07 2.42700025e-07
      3.12629339e-07 3.46609113e-07 9.96489433e-08 -2.19558132e-07
      -7.06622094e-09 3.22347120e-07 5.83772419e-07 1.12479620e-06
      1.43354555e-06 1.38939924e-06 9.19954857e-07 5.45026808e-07
      7.05591845e-07 8.21094090e-07 8.63257696e-07 8.65234540e-07
      1.21473681e-06 1.44068633e-06 1.35764651e-06 1.02657282e-06
      5.44179500e-07 4.06014124e-07 3.73833814e-07 6.14395503e-07
      6.38292704e-07 7.12506790e-07 8.52784865e-07 6.33132800e-07
      1.82899896e-07 -2.87489684e-07 -5.02551018e-07 -5.71659996e-07
      -6.40057465e-07 -6.27129339e-07 -4.74449990e-07 -5.14025089e-07
      -8.76809665e-08 4.79046150e-07 5.87955469e-07 3.07067324e-07
      -2.12591559e-07 6.65144228e-07 7.57371083e-07 2.97650956e-07
      2.59730427e-07 6.20429660e-07 7.86212468e-07 5.38908353e-07
      3.17433205e-07 6.07305878e-07 5.48227376e-07 2.34086613e-07
      1.71420524e-07 3.97048126e-07 2.59266926e-07 -1.79666770e-07
      -3.80775788e-07 -4.51492888e-08 1.96479277e-07 6.34016089e-07
      1.17976867e-06 1.54262364e-06 1.36714880e-06 9.04842238e-07
      5.57867111e-07 8.03980811e-07 7.22325240e-07 6.29706562e-07
      7.82299480e-07 1.37345080e-06 1.55061844e-06 1.18174137e-06
      7.77520654e-07 5.83160613e-07 2.70815832e-07 2.61124796e-07
      5.11014946e-07 4.82398548e-07 5.79099208e-07 4.68653923e-07
      9.05882374e-08 -1.62287620e-07 -3.35326376e-07 -4.77014055e-07
      -5.41332497e-07 -5.17179501e-07 -5.11738165e-07 -4.20379166e-07
      -3.93371067e-07 8.73791617e-09 3.67871081e-07 4.94615222e-07
      -1.23566645e-06 -3.05993666e-07 4.78051561e-07 6.12191968e-07
      2.52719673e-07 3.20737485e-07 7.42956786e-07 7.34554192e-07
      1.88809139e-07 1.08882674e-07 3.52405465e-07 2.25351059e-07
      1.71106990e-07 4.87806346e-07 6.60655530e-07 4.20050355e-07
      -3.15269062e-07 -4.32669253e-07 -1.37942706e-07 2.16260702e-07
      7.25649443e-07 1.17589286e-06 1.56222927e-06 1.23653444e-06
      7.00269993e-07 5.29476097e-07 6.58721888e-07 4.99369719e-07
      4.59197167e-07 9.67098458e-07 1.64225696e-06 1.54961685e-06
      9.31599686e-07 4.80097981e-07 3.41654555e-07 2.72947034e-07
      2.99232795e-07 4.05755401e-07 4.12931769e-07 3.57474221e-07
      1.88244385e-07 5.96884249e-08 -1.89880282e-07 -3.91186319e-07
      -6.65592268e-07 -4.53259759e-07 -4.20730629e-07 -6.11185158e-07
      -5.21967763e-07 -1.81850737e-07 1.49086446e-07 3.48025196e-07
      -1.21850917e-06 -8.59285763e-07 -1.51865308e-07 5.14000988e-07
      3.94676363e-07 4.74864166e-08 5.37904100e-07 9.31633110e-07
      6.60301964e-07 -1.79539388e-08 -1.08098291e-07 -1.07519726e-08
      9.75906005e-08 4.00873006e-07 7.09765629e-07 7.81903964e-07
      3.15214947e-07 -3.74785117e-07 -3.77422595e-07 -1.25843499e-07
      2.22980404e-07 7.78687479e-07 1.19621086e-06 1.37668815e-06
      9.92546916e-07 4.66266897e-07 4.49656397e-07 4.41044193e-07
      3.87861576e-07 7.71661632e-07 1.42183035e-06 1.77998299e-06
      1.46109926e-06 6.34459411e-07 1.26836767e-07 1.23318372e-07
      2.69420980e-07 3.71136451e-07 4.88129615e-07 5.18660443e-07
      2.99782187e-07 7.79684868e-08 -1.02294763e-07 -4.25703689e-07
