<?xml version="1.0"?>
<opencv_storage>
<my_svm type_id="opencv-ml-svm">
  <svm_type>C_SVC</svm_type>
  <kernel><type>LINEAR</type></kernel>
  <C>1.</C>
  <term_criteria><epsilon>2.2204460492503131e-16</epsilon>
    <iterations>1000000</iterations></term_criteria>
  <var_all>108160</var_all>
  <var_count>108160</var_count>
  <class_count>2</class_count>
  <class_labels type_id="opencv-matrix">
    <rows>1</rows>
    <cols>2</cols>
    <dt>i</dt>
    <data>
      0 1</data></class_labels>
  <sv_total>1</sv_total>
  <support_vectors>
    <_>
      2.70172063e-06 2.80435529e-06 3.06079573e-06 3.31622005e-06
      3.29356999e-06 2.75177331e-06 2.04184084e-06 1.34707591e-06
      6.70176007e-07 1.21967759e-07 -5.94490245e-07 -1.31562535e-06
      -1.91503455e-06 -2.25771100e-06 -2.52129644e-06 -2.56451335e-06
      -2.38466851e-06 -2.11463907e-06 -1.65695610e-06 -1.42585952e-06
      -1.13799854e-06 -7.99926511e-07 -5.17498734e-07 -2.86146729e-07
      -1.16833782e-07 -1.38202225e-07 -3.19919195e-07 -4.99989312e-07
      -5.22776418e-07 -3.50979860e-07 -1.76519620e-07 -1.48115163e-07
      -2.84731499e-07 -4.49688542e-07 -5.51936694e-07 -5.04132117e-07
      -2.53090207e-07 -1.46793099e-07 8.80149429e-08 2.41643079e-07
      3.52694684e-07 3.38567503e-07 3.41163144e-07 6.13584007e-07
      7.33818354e-07 7.06745084e-07 6.65942650e-07 1.08186225e-06
      1.69769010e-06 2.07651692e-06 2.25421309e-06 2.30684623e-06
      1.16111426e-06 1.18275773e-06 1.17802381e-06 1.02795536e-06
      6.19930347e-07 6.41290896e-08 -4.80773622e-07 -9.19250738e-07
      -1.10793258e-06 -9.99579356e-07 -8.19733771e-07 -7.40562314e-07
      -6.96703808e-07 -6.39953498e-07 -5.78533616e-07 -6.31501962e-07
      -6.42554483e-07 -4.80347069e-07 -2.03941667e-07 5.36633742e-08
      2.10520355e-07 2.49146836e-07 1.68001492e-07 -7.75732545e-09
      -2.54180605e-07 -5.36514165e-07 -7.77466880e-07 -9.16588760e-07
      -9.29602891e-07 -8.38084986e-07 -6.83737710e-07 -5.13940108e-07
      -3.72210479e-07 -3.31311838e-07 -3.09208900e-07 -2.68098404e-07
      -1.98079036e-07 -1.09347319e-07 -1.65591487e-08 2.88909376e-08
      -1.06402460e-08 -6.78999328e-08 -9.42739717e-08 -1.40430117e-07
      -2.47521626e-07 -2.11915506e-07 6.50438423e-08 4.50463830e-07
      7.96252039e-07 1.01846001e-06 1.09834605e-06 1.12426358e-06
      3.94079649e-07 2.77401909e-07 -6.83835779e-08 -5.97350493e-07
      -1.16723425e-06 -1.71193028e-06 -2.13915473e-06 -2.31342551e-06
      -2.22309995e-06 -1.84269641e-06 -1.25271299e-06 -6.41252370e-07
      -1.73402015e-07 9.64783524e-08 1.14429540e-07 -2.08718518e-08
      -2.25222593e-07 -4.47034267e-07 -5.05706112e-07 -2.70373192e-07
      1.81391684e-07 5.78631500e-07 6.47527429e-07 4.24700033e-07
      9.28233277e-08 -2.18723571e-07 -4.02605906e-07 -4.06702043e-07
      -2.88630361e-07 -1.40798960e-07 -3.35486590e-08 1.42237706e-08
      -2.14140758e-08 -2.12868599e-07 -5.62953403e-07 -9.35988510e-07
      -1.15673595e-06 -1.32127855e-06 -1.47736250e-06 -1.68104475e-06
      -1.92580046e-06 -2.03929176e-06 -2.08060101e-06 -2.06401091e-06
      -1.96287374e-06 -1.72001489e-06 -1.32308605e-06 -8.40006294e-07
      -4.10804944e-07 -7.85601202e-08 1.36968140e-07 1.90237273e-07
      1.52378675e-06 1.42704437e-06 1.12218822e-06 6.70786108e-07
      1.22102904e-07 -4.13698302e-07 -8.10710731e-07 -8.43965324e-07
      -7.48229468e-07 -5.27869588e-07 -2.08735770e-07 7.84170240e-08
      1.76538620e-07 3.99802929e-08 -2.66137818e-07 -6.25184896e-07
      -9.77516379e-07 -1.27536873e-06 -1.41376188e-06 -1.04321339e-06
      -6.66484482e-07 -3.00209166e-07 1.25719986e-08 1.98539851e-07
      3.12760648e-07 4.22254999e-07 5.38746349e-07 6.29202532e-07
      6.58826139e-07 5.43797000e-07 1.84443962e-07 -4.09316129e-07
      -1.19719141e-06 -1.98725047e-06 -2.59694298e-06 -2.78949824e-06
      -2.75628145e-06 -2.72902685e-06 -2.76059450e-06 -2.74859622e-06
      -2.68312101e-06 -2.56175213e-06 -2.37402628e-06 -2.13221915e-06
      -1.87159446e-06 -1.59672311e-06 -1.25110500e-06 -8.66000676e-07
      -5.10814800e-07 -2.57486278e-07 -1.01524307e-07 -6.92808158e-08
      2.46707987e-06 2.46065497e-06 2.39908991e-06 1.91859908e-06
      1.31355057e-06 6.90746504e-07 2.07871963e-07 -2.49348204e-08
      -1.72125112e-07 -1.76977551e-07 -7.74795623e-08 2.29266295e-08
      1.84919227e-08 -1.19887929e-07 -3.75937418e-07 -6.80105359e-07
      -9.49743139e-07 -1.11740280e-06 -1.27771114e-06 -1.47437856e-06
      -1.63372340e-06 -1.49960272e-06 -1.10656470e-06 -8.29045860e-07
      -5.62760022e-07 -2.81580469e-07 -4.79516373e-08 7.25480689e-08
      6.93930104e-08 -8.89319551e-08 -4.33672227e-07 -9.60177658e-07
      -1.53576173e-06 -1.85366002e-06 -2.13560361e-06 -2.43706472e-06
      -2.71618046e-06 -2.87789089e-06 -2.89720992e-06 -2.70913165e-06
      -2.40822260e-06 -2.02004048e-06 -1.57558213e-06 -1.12203611e-06
      -6.47168406e-07 -2.01632659e-07 1.43392768e-07 3.84300648e-07
      5.06250160e-07 5.58994202e-07 5.87601221e-07 5.87529314e-07
      7.55635995e-07 5.98606221e-07 1.67703320e-07 -4.10666928e-07
      -7.84628980e-07 -8.95261621e-07 -8.03242074e-07 -6.46872479e-07
      -6.32215347e-07 -7.23800554e-07 -7.99181691e-07 -8.38814515e-07
      -8.00510009e-07 -7.01297040e-07 -5.86498800e-07 -5.01544832e-07
      -4.75835236e-07 -4.39247799e-07 -4.35499828e-07 -6.52386404e-07
      -9.91541697e-07 -1.10258793e-06 -9.71981308e-07 -7.99472218e-07
      -6.13972929e-07 -3.26549554e-07 -3.94790725e-08 2.06270514e-07
      3.15120019e-07 2.76172386e-07 1.78847486e-07 1.90160790e-07
      -2.26197017e-08 -3.80277527e-07 -6.87720274e-07 -8.74595685e-07
      -1.24322844e-06 -1.58689363e-06 -1.83801592e-06 -2.01789658e-06
      -2.14724014e-06 -2.20774609e-06 -2.09524296e-06 -1.78027437e-06
      -1.30528053e-06 -7.27065753e-07 -2.76163483e-08 6.69955568e-07
      1.04453238e-06 1.02392903e-06 9.21485821e-07 8.68201823e-07
      -3.43518536e-07 -3.78708279e-07 -4.36296574e-07 -4.67030844e-07
      -1.66199371e-07 2.19126946e-07 3.00816652e-07 -2.08547295e-08
      -7.62272521e-07 -1.50463018e-06 -2.03467539e-06 -2.29562215e-06
      -2.27685609e-06 -1.83191707e-06 -1.16763545e-06 -5.65072526e-07
      -1.80150636e-07 -4.60101504e-08 -1.66266133e-07 -6.66825485e-07
      -1.39067367e-06 -1.73073613e-06 -1.77569768e-06 -1.62908623e-06
      -1.39340648e-06 -1.09460052e-06 -7.71438465e-07 -5.56352006e-07
      -4.40258617e-07 -3.77153725e-07 -3.35585810e-07 -3.59496880e-07
      -3.94301367e-07 -4.43804822e-07 -4.75955829e-07 -5.94575624e-07
      -6.91647983e-07 -9.25577012e-07 -1.36550693e-06 -1.97635154e-06
      -2.61956916e-06 -3.13807209e-06 -3.38105406e-06 -3.23010113e-06
      -2.67256064e-06 -1.85754175e-06 -8.07922220e-07 3.20082961e-07
      1.31220224e-06 2.06483014e-06 2.37027984e-06 2.46910849e-06
      2.28694546e-07 2.62221050e-07 3.68036609e-07 5.75097602e-07
      8.68395659e-07 1.05799063e-06 8.58619501e-07 2.15114724e-07
      -5.36784114e-07 -1.26698183e-06 -1.68679469e-06 -1.73650210e-06
      -1.51447796e-06 -1.09781968e-06 -5.46139290e-07 5.32056958e-08
      4.31023693e-07 5.70555585e-07 3.31332984e-07 -3.20749194e-07
      -1.11771919e-06 -1.66689449e-06 -1.75909315e-06 -1.55508803e-06
      -1.27569149e-06 -1.01476473e-06 -7.66261792e-07 -5.66141125e-07
      -4.16715977e-07 -3.61383513e-07 -4.34233471e-07 -5.79150083e-07
      -6.82015923e-07 -1.01860815e-06 -1.22512404e-06 -1.03334025e-06
      -8.05968455e-07 -6.89534659e-07 -8.01657905e-07 -1.24312112e-06
      -1.87224884e-06 -2.62118465e-06 -3.39407211e-06 -4.03449667e-06
      -4.13725729e-06 -3.89164916e-06 -3.30350895e-06 -2.19989352e-06
      -7.77640139e-07 3.96696265e-07 1.13363240e-06 1.40010980e-06
      3.30539052e-07 3.86145871e-07 5.72127306e-07 8.90491151e-07
      1.11799329e-06 1.18439061e-06 9.32998489e-07 5.45598482e-07
      1.99042233e-07 8.31547666e-08 2.87995221e-07 8.04946467e-07
      1.46389425e-06 2.08993970e-06 2.60400634e-06 2.86229283e-06
      2.89895752e-06 2.83827262e-06 2.47564458e-06 1.75040702e-06
      9.47717467e-07 2.58294648e-07 -1.97156282e-07 -4.49387557e-07
      -5.05603737e-07 -4.09282592e-07 -2.00903045e-07 1.05013367e-08
      1.76674462e-07 2.57111992e-07 2.12003300e-07 -3.43784379e-08
      -4.95497943e-07 -9.82805659e-07 -1.24127860e-06 -1.28009856e-06
      -9.87034696e-07 -8.65185029e-07 -9.45748127e-07 -1.21616472e-06
      -1.61914829e-06 -2.01351327e-06 -2.26070733e-06 -2.20353240e-06
      -1.89723426e-06 -1.51642985e-06 -1.05908953e-06 -5.26487725e-07
      -8.85231302e-08 3.44246075e-07 7.04369995e-07 8.67306710e-07
      4.58569986e-07 5.33568254e-07 7.29376097e-07 1.00878128e-06
      1.30907381e-06 1.34485606e-06 1.31043907e-06 1.20599930e-06
      7.16322177e-07 2.52822133e-07 6.11512760e-08 2.23093821e-07
      7.06409310e-07 1.37641030e-06 2.12556915e-06 2.42559781e-06
      2.52152472e-06 2.52221457e-06 2.44643979e-06 2.27197665e-06
      2.02986871e-06 1.87353032e-06 1.89565037e-06 1.82643987e-06
      1.68276131e-06 1.54702025e-06 1.46082311e-06 1.37252005e-06
      1.23010386e-06 1.02994545e-06 7.64098786e-07 3.96602218e-07
      6.52898535e-08 -5.67050449e-07 -8.61881915e-07 -8.47298509e-07
      -5.78920492e-07 -3.14297182e-07 -3.95196253e-07 -1.08658458e-06
      -1.51271058e-06 -1.57184081e-06 -1.35769585e-06 -1.04183073e-06
      -7.65011748e-07 -3.63549674e-07 6.81028256e-09 1.99159857e-07
      2.16667885e-07 2.76880428e-07 4.05035593e-07 4.62901738e-07
      6.76041680e-07 7.34211824e-07 9.08920697e-07 1.07333688e-06
      1.08837935e-06 9.53881113e-07 6.81312258e-07 3.29142239e-07
      -3.03313925e-07 -1.02915612e-06 -1.58590819e-06 -1.85846284e-06
      -1.87805256e-06 -1.74289119e-06 -1.49044729e-06 -1.12000259e-06
      -7.24432766e-07 -4.59432812e-07 -2.84392712e-07 3.00297742e-08
      4.46651143e-07 8.33015974e-07 1.22982919e-06 1.75139110e-06
      2.07567973e-06 2.24430983e-06 2.29715556e-06 2.28017711e-06
      2.16632588e-06 1.93487972e-06 1.58023261e-06 9.74553132e-07
      -1.11604850e-08 -6.75784918e-07 -8.65969355e-07 -8.43465614e-07
      -4.09481203e-07 -8.70524630e-08 9.16497367e-09 -2.88825561e-07
      -8.12564451e-07 -1.27922306e-06 -1.53968710e-06 -1.56919930e-06
      -1.44187982e-06 -1.06741629e-06 -5.96946336e-07 -2.89397633e-07
      -1.70474522e-07 -1.50519369e-07 -1.65964551e-07 -1.71020034e-07
      3.88333419e-08 5.76013193e-08 2.12314561e-07 3.71295528e-07
      4.52769399e-07 7.85978386e-07 9.16124748e-07 8.71698433e-07
      4.61755434e-07 -9.17718026e-08 -3.62283856e-07 -4.85127202e-07
      -6.32438798e-07 -7.27395161e-07 -6.69322674e-07 -5.81666711e-07
      -5.96371876e-07 -4.98269060e-07 -6.13146312e-07 -5.74832995e-07
      -1.08843679e-07 4.11307695e-07 7.00063140e-07 7.92349738e-07
      9.12797418e-07 1.14968657e-06 1.39817939e-06 1.66220889e-06
      1.86573402e-06 1.92684274e-06 1.73854403e-06 1.33045091e-06
      7.04244940e-07 -5.23808730e-08 -4.89029674e-07 -4.37791300e-07
      -1.75691905e-08 6.62035177e-07 1.47596620e-06 1.96700148e-06
      1.98607654e-06 1.75885725e-06 1.46784555e-06 1.38233486e-06
      1.63331867e-06 2.03823652e-06 2.03526565e-06 1.67019743e-06
      9.48811532e-07 6.95459548e-08 -4.24185373e-07 -5.77607125e-07
      3.42079545e-07 4.21757932e-07 6.36279765e-07 9.90663239e-07
      1.55590590e-06 2.15259183e-06 2.63638253e-06 2.60189563e-06
      2.26729799e-06 1.75241303e-06 1.37613324e-06 1.16647152e-06
      1.06793243e-06 8.60825082e-07 4.82243422e-07 -7.30426066e-08
      -5.69837823e-07 -7.88171519e-07 -8.08202913e-07 -5.72929025e-07
      -9.28132806e-08 3.16260184e-07 4.70624855e-07 3.99230061e-07
      5.07225877e-07 6.02390685e-07 7.08731022e-07 8.43252394e-07
      9.65137019e-07 1.05787694e-06 9.78513981e-07 6.78323318e-07
      2.69611832e-07 -2.51197378e-07 -5.59883063e-07 -4.06763860e-07
      6.09885120e-08 9.17489558e-07 1.75058290e-06 2.48633251e-06
      2.86567138e-06 2.89783179e-06 2.72616035e-06 2.44307853e-06
      2.34567960e-06 2.47413072e-06 2.40639542e-06 2.04817479e-06
      1.50612175e-06 6.87601073e-07 -7.53722915e-08 -3.39379341e-07
      -7.95332710e-07 -8.23543246e-07 -7.59936825e-07 -4.13791497e-07
      6.72851219e-10 6.97159805e-07 1.77774052e-06 2.29545503e-06
      2.43659360e-06 2.22376025e-06 2.07858966e-06 2.00789282e-06
      1.94579479e-06 1.80848110e-06 1.55240753e-06 1.04755702e-06
      1.87378859e-07 -4.63626435e-07 -5.40403619e-07 -5.24562154e-07
      -5.27293594e-07 -4.20697518e-07 -1.17405250e-07 3.33449862e-07
      5.41941233e-07 5.30484101e-07 5.33957746e-07 5.81475319e-07
      6.43973806e-07 6.63897197e-07 6.03648573e-07 4.35497213e-07
      2.48300552e-07 1.38235379e-07 7.52896909e-08 1.53690095e-07
      3.11942586e-07 6.29963722e-07 1.06524203e-06 1.52515008e-06
      1.74341858e-06 1.67696896e-06 1.59702881e-06 1.46915079e-06
      1.58233718e-06 1.77208699e-06 1.54164138e-06 8.15270482e-07
      4.74521720e-08 -5.17790511e-07 -7.60335183e-07 -7.67372569e-07
      -1.68381462e-06 -1.87451201e-06 -2.23836855e-06 -2.43003956e-06
      -1.99695069e-06 -9.95918526e-07 3.63540181e-07 1.84739815e-06
      3.03410502e-06 3.43154875e-06 3.33165917e-06 2.96576241e-06
      2.82008659e-06 3.17104900e-06 3.55946213e-06 3.77833908e-06
      3.53323298e-06 2.94632878e-06 2.11138172e-06 1.18260857e-06
      4.40915443e-07 -1.20419529e-07 -3.99056034e-07 -3.68205292e-07
      -2.23602513e-07 -8.39415932e-08 -6.76271057e-08 -1.00970624e-07
      8.56826166e-09 9.97989176e-08 2.50738367e-07 4.64757164e-07
      6.79955406e-07 9.06869388e-07 1.10490805e-06 1.15193041e-06
      1.14066358e-06 1.20229220e-06 1.38267728e-06 1.53778444e-06
      1.51568406e-06 1.48201286e-06 1.75316939e-06 2.26938937e-06
      2.43694672e-06 2.23529469e-06 1.42884164e-06 2.94014711e-07
      -9.46278988e-07 -1.75996797e-06 -1.98944554e-06 -2.01405169e-06
      -6.40502265e-07 -6.60907801e-07 -7.05190132e-07 -7.99330451e-07
      -5.80529729e-07 -1.58333805e-07 5.42267173e-07 1.36087499e-06
      1.80841448e-06 1.79568860e-06 1.62203639e-06 1.45600984e-06
      1.41027897e-06 1.50645235e-06 1.72980992e-06 1.86181808e-06
      1.75631237e-06 1.48773290e-06 1.13675219e-06 6.76662239e-07
      2.02574114e-07 -1.73860528e-07 -3.57394811e-07 -3.20808681e-07
      -1.45196566e-07 1.13868516e-07 3.04304052e-07 4.27058382e-07
      5.66811138e-07 6.27757743e-07 6.13840257e-07 4.99710438e-07
      2.79782569e-07 -1.15357528e-08 -2.70104039e-07 -5.60698027e-07
      -7.66709888e-07 -8.49406604e-07 -8.31839202e-07 -7.76001798e-07
      -8.46393789e-07 -9.65463641e-07 -9.31090312e-07 -6.64570734e-07
      -4.13729737e-07 -4.30389292e-07 -9.12356199e-07 -1.74385434e-06
      -2.41596126e-06 -2.69489828e-06 -2.71720683e-06 -2.72489524e-06
      4.76446154e-08 6.24756140e-08 7.53748282e-08 1.29453170e-07
      3.17366499e-07 4.84885334e-07 5.02795956e-07 4.52686237e-07
      4.32815057e-07 2.46849709e-07 -8.40835028e-08 -4.16285332e-07
      -6.41246459e-07 -8.00290707e-07 -9.40895802e-07 -1.02491663e-06
      -1.11580039e-06 -1.17053992e-06 -1.14621673e-06 -1.01564012e-06
      -8.27645692e-07 -4.63452551e-07 -8.55080842e-08 2.33999444e-07
      4.98091765e-07 7.10598329e-07 8.57600469e-07 9.46693376e-07
      8.48347895e-07 6.11531220e-07 2.01869327e-07 -3.24536529e-07
      -9.70398673e-07 -1.70329281e-06 -2.17724732e-06 -2.32532898e-06
      -2.30974729e-06 -2.23502411e-06 -2.22912331e-06 -2.41953694e-06
      -2.73315004e-06 -3.01988962e-06 -3.23737731e-06 -3.29801128e-06
      -3.29011573e-06 -3.14000908e-06 -2.86512363e-06 -2.61187688e-06
      -2.36394180e-06 -2.03285640e-06 -1.75746675e-06 -1.65723372e-06
      -2.28025499e-07 -2.38358311e-07 -2.75106061e-07 -3.32067827e-07
      -4.48037468e-07 -5.96764892e-07 -8.61783349e-07 -1.10735198e-06
      -1.23715279e-06 -1.35381958e-06 -1.34728771e-06 -1.45901561e-06
      -1.54923532e-06 -1.49952109e-06 -1.20808454e-06 -9.97420557e-07
      -7.72321584e-07 -3.32854313e-07 -2.44967282e-07 -2.17250602e-07
      -1.24382183e-07 -1.16918537e-08 1.56376800e-07 3.05300432e-07
      4.11427948e-07 4.41311869e-07 4.04218127e-07 2.96900993e-07
      9.25477721e-08 -1.62305895e-07 -4.48387226e-07 -6.87194301e-07
      -9.10892027e-07 -1.12917178e-06 -1.35247240e-06 -1.42620854e-06
      -1.56142119e-06 -1.91969934e-06 -2.13197791e-06 -2.15807609e-06
      -2.11398492e-06 -2.04988419e-06 -2.07433777e-06 -1.98521889e-06
      -1.86058310e-06 -1.77117511e-06 -1.65602057e-06 -1.53442045e-06
      -1.37473660e-06 -1.16157946e-06 -9.59974727e-07 -8.60116018e-07
      -5.05131879e-07 -5.87263003e-07 -8.19586432e-07 -1.17637137e-06
      -1.46945820e-06 -1.58102830e-06 -1.40870532e-06 -1.07695973e-06
      -6.81941515e-07 -3.12830025e-07 -1.21539392e-08 1.20711292e-07
      1.52072221e-09 -2.71714129e-07 -5.15249837e-07 -6.36908680e-07
      -5.92289609e-07 -3.85005478e-07 3.82958021e-08 3.97575945e-07
      5.76136415e-07 6.07022400e-07 5.04582090e-07 3.31789039e-07
      1.38108220e-07 -2.97571408e-08 -1.32153374e-07 -2.03130696e-07
      -1.81410215e-07 -1.13412135e-07 5.28796065e-08 2.87861525e-07
      5.41469149e-07 7.62648369e-07 8.85702207e-07 8.82155291e-07
      7.20202991e-07 3.95476661e-07 -6.27177670e-08 -4.98477164e-07
      -7.65410334e-07 -1.05922311e-06 -1.63391474e-06 -2.13384033e-06
      -2.47296043e-06 -2.69638804e-06 -2.82653536e-06 -2.63099059e-06
      -2.25541976e-06 -2.05225842e-06 -1.97417876e-06 -1.93335723e-06
      -8.66390792e-07 -8.43079874e-07 -7.39969266e-07 -5.89264289e-07
      -4.03938429e-07 -2.59798014e-07 -6.82816790e-08 3.86948749e-08
      1.29894815e-07 1.65246590e-07 6.99684009e-08 -9.08756377e-08
      -2.94898655e-07 -4.91636456e-07 -5.50456377e-07 -3.08802015e-07
      2.31942749e-07 5.89894000e-07 6.88735838e-07 6.23100959e-07
      5.13148734e-07 3.83153321e-07 2.12107096e-07 5.01546999e-08
      -7.58657208e-08 -1.31343612e-07 -1.22716543e-07 -7.33359400e-08
      -1.46501336e-08 5.56111672e-08 2.03863323e-07 3.58430810e-07
      5.31603575e-07 6.96147708e-07 8.55970711e-07 1.01164983e-06
      1.11890608e-06 1.14601153e-06 1.07509732e-06 9.23100515e-07
      6.88954174e-07 3.17044140e-07 -2.09762149e-07 -7.63208789e-07
      -1.28480758e-06 -1.79293011e-06 -2.11468455e-06 -2.13171461e-06
      -1.88216029e-06 -1.51911672e-06 -1.21763651e-06 -1.11088048e-06
      -3.13612759e-07 -2.97521211e-07 -2.64333721e-07 -2.25977317e-07
      -2.34618170e-07 -2.96078667e-07 -3.95410780e-07 -4.97720180e-07
      -5.61984280e-07 -5.61416357e-07 -4.92633205e-07 -3.88514621e-07
      -2.57252111e-07 -1.10907791e-07 1.93696561e-08 1.59491577e-07
      3.05045091e-07 4.12682994e-07 5.16419789e-07 6.08406367e-07
      6.67255563e-07 6.90562899e-07 6.58049828e-07 6.06452318e-07
      5.78693118e-07 5.90152410e-07 6.11535199e-07 6.44090221e-07
      6.71150588e-07 6.88168143e-07 6.78348442e-07 6.19022785e-07
      5.66725362e-07 5.46025376e-07 5.52268716e-07 6.10413679e-07
      7.46853175e-07 9.98345627e-07 1.35752146e-06 1.62435856e-06
      1.73268165e-06 1.75143532e-06 1.65517804e-06 1.52688267e-06
      1.33401090e-06 1.05203924e-06 7.31927287e-07 4.66690096e-07
      2.82872946e-07 2.07645868e-07 1.85620920e-07 1.83762467e-07
      6.27505756e-07 5.77689434e-07 3.88670628e-07 7.87121692e-08
      -2.86275508e-07 -5.81260224e-07 -7.68913367e-07 -8.56298868e-07
      -8.45315924e-07 -7.22027664e-07 -4.62192958e-07 -1.42471492e-07
      1.41944540e-07 3.67940089e-07 6.09407664e-07 8.32103922e-07
      1.01552519e-06 1.21518929e-06 1.44158969e-06 1.67548035e-06
      1.81707355e-06 1.83907628e-06 1.78277344e-06 1.65314214e-06
      1.52025916e-06 1.39366819e-06 1.27909493e-06 1.18377591e-06
      1.14573584e-06 1.14442446e-06 1.08527604e-06 9.77652917e-07
      7.89345904e-07 5.75904266e-07 3.35741333e-07 6.35854747e-08
      -2.09569635e-07 -4.60615638e-07 -6.71303042e-07 -8.02603836e-07
      -8.05722664e-07 -6.74635999e-07 -4.85955070e-07 -2.70303815e-07
      -4.80285500e-08 1.74644441e-07 3.06906173e-07 2.86307539e-07
      2.12384776e-07 1.40454702e-07 9.15871823e-08 8.43522230e-08
      3.31837697e-07 2.80640108e-07 1.38755098e-07 -7.27304794e-08
      -3.11337232e-07 -5.13552095e-07 -6.54327266e-07 -6.98979647e-07
      -6.52328310e-07 -5.77961259e-07 -5.04575041e-07 -4.26772999e-07
      -3.22048322e-07 -2.22886982e-07 -8.65737420e-08 6.60500845e-08
      2.48430098e-07 4.82964367e-07 7.12905603e-07 9.30618000e-07
      1.06840719e-06 1.09269513e-06 1.04307583e-06 9.33241722e-07
      8.29948931e-07 7.54894927e-07 7.08245693e-07 6.68926532e-07
      6.51979860e-07 6.35815354e-07 6.36628329e-07 6.45157627e-07
      6.09551080e-07 4.87098646e-07 3.01071850e-07 5.76453694e-08
      -2.21849746e-07 -5.01037334e-07 -7.69362885e-07 -1.00756813e-06
      -1.21296500e-06 -1.37854829e-06 -1.51942504e-06 -1.63247410e-06
      -1.62459878e-06 -1.51767676e-06 -1.27344924e-06 -9.64662945e-07
      -6.63303467e-07 -4.34924686e-07 -3.03072710e-07 -2.64111861e-07
      -1.02758655e-08 -1.24464483e-08 -9.14721454e-09 2.06236646e-08
      4.70076351e-08 6.92485713e-08 8.65804211e-08 8.28327700e-08
      5.10763414e-08 1.18589742e-08 -5.47249854e-08 -9.95459644e-08
      -1.48559451e-07 -1.86519856e-07 -2.51743700e-07 -3.42803077e-07
      -4.15961210e-07 -4.93401558e-07 -5.77171306e-07 -6.83305927e-07
      -7.65126572e-07 -8.77684329e-07 -1.02260856e-06 -1.12302223e-06
      -1.17931427e-06 -1.16017134e-06 -1.15275373e-06 -1.15890725e-06
      -1.18523599e-06 -1.22292761e-06 -1.21429832e-06 -1.19572235e-06
      -1.16955448e-06 -1.19993535e-06 -1.25646875e-06 -1.26242219e-06
      -1.18415892e-06 -1.04808737e-06 -8.59999716e-07 -6.84940574e-07
      -5.68493192e-07 -5.34044318e-07 -5.82565633e-07 -6.81882966e-07
      -7.86932901e-07 -8.93337869e-07 -9.57657448e-07 -9.76657702e-07
      -1.00809643e-06 -1.04431956e-06 -1.06258676e-06 -1.08638164e-06
      -5.63600047e-08 -3.33543753e-08 1.35467122e-08 9.34311259e-08
      1.73009894e-07 2.39507557e-07 2.85633178e-07 3.02950099e-07
      2.87355562e-07 2.63939995e-07 2.45356347e-07 2.48442603e-07
      2.15096335e-07 1.72270404e-07 6.07537984e-08 -6.38625011e-08
      -2.37183997e-07 -4.61030169e-07 -6.62403465e-07 -8.05307820e-07
      -9.09741175e-07 -9.44232340e-07 -8.76873344e-07 -7.35577487e-07
      -5.63673439e-07 -4.15917157e-07 -3.16440321e-07 -2.74757099e-07
      -3.47556806e-07 -4.84500845e-07 -7.07628487e-07 -9.69938242e-07
      -1.23833763e-06 -1.43524665e-06 -1.53222220e-06 -1.52455198e-06
      -1.43099055e-06 -1.26649763e-06 -1.04666788e-06 -7.84447820e-07
      -5.17784315e-07 -3.36848956e-07 -2.60359769e-07 -3.22419766e-07
      -4.71730033e-07 -6.01413660e-07 -6.77477146e-07 -6.79435004e-07
      -6.56807231e-07 -6.45508464e-07 -6.37743540e-07 -6.30709167e-07
      -1.43560808e-08 -3.30870158e-08 -1.08274541e-07 -2.26269520e-07
      -3.51997045e-07 -4.49559735e-07 -5.32095100e-07 -6.07898585e-07
      -6.22911614e-07 -5.89110698e-07 -5.08686128e-07 -4.25767155e-07
      -3.46435996e-07 -2.97599144e-07 -2.55599531e-07 -2.29537406e-07
      -2.43666051e-07 -2.95970040e-07 -3.74861884e-07 -3.71190453e-07
      -2.69003863e-07 -1.12718389e-07 5.85272497e-09 7.53467901e-08
      1.32119197e-07 1.68635395e-07 2.03232474e-07 1.65929180e-07
      8.19285191e-08 -1.30149136e-08 -1.58651630e-07 -3.15509624e-07
      -4.74781871e-07 -5.85991813e-07 -6.66499432e-07 -6.84307906e-07
      -6.53263385e-07 -5.77850528e-07 -5.04851869e-07 -4.55115725e-07
      -4.07402439e-07 -3.71798933e-07 -3.70468598e-07 -3.77045950e-07
      -4.26356365e-07 -4.50293186e-07 -5.11225210e-07 -5.93670507e-07
      -6.35652043e-07 -6.27717100e-07 -6.07421157e-07 -5.93902428e-07
      -3.87353190e-08 -7.45928119e-08 -1.88047480e-07 -3.79775202e-07
      -5.96687642e-07 -8.18739409e-07 -1.01700243e-06 -1.18127866e-06
      -1.28742761e-06 -1.33247761e-06 -1.34522304e-06 -1.33434094e-06
      -1.23537939e-06 -1.12071109e-06 -9.27979784e-07 -7.50451875e-07
      -5.22346511e-07 -2.18721169e-07 1.74213596e-07 5.85516659e-07
      8.71405575e-07 9.36937397e-07 8.24484516e-07 6.42611440e-07
      4.13642368e-07 1.72123364e-07 -1.41120822e-08 -1.44865282e-07
      -1.80261779e-07 -1.45755948e-07 -1.10791035e-07 -1.17554698e-07
      -1.67348972e-07 -3.37425547e-07 -6.12341921e-07 -8.91744548e-07
      -1.11149689e-06 -1.23617417e-06 -1.29920511e-06 -1.38555072e-06
      -1.49389359e-06 -1.55003067e-06 -1.56351894e-06 -1.45905108e-06
      -1.29183832e-06 -1.09021482e-06 -8.96930828e-07 -6.98980330e-07
      -5.26698102e-07 -3.92121450e-07 -3.18163387e-07 -2.96058090e-07
      2.86303106e-07 2.19017906e-07 5.72045487e-08 -1.94070395e-07
      -4.94417179e-07 -8.03045111e-07 -1.04188916e-06 -1.17718889e-06
      -1.22805795e-06 -1.22875997e-06 -1.19875881e-06 -1.13881060e-06
      -1.04950061e-06 -9.11084953e-07 -7.17214050e-07 -4.73385541e-07
      -1.57777279e-07 2.05938832e-07 4.49851711e-07 4.20400028e-07
      2.37853882e-07 9.73084724e-08 -1.37174014e-08 -1.91778838e-07
      -3.97529647e-07 -5.53232439e-07 -6.73492025e-07 -7.26818371e-07
      -7.38141125e-07 -7.40144174e-07 -7.64473327e-07 -8.79245192e-07
      -9.95703317e-07 -1.09003076e-06 -1.26124951e-06 -1.47250159e-06
      -1.64130324e-06 -1.70178896e-06 -1.68952317e-06 -1.61103060e-06
      -1.51488030e-06 -1.39448957e-06 -1.27853809e-06 -1.16166370e-06
      -1.01892238e-06 -9.25669156e-07 -8.51276809e-07 -7.60979731e-07
      -6.61975264e-07 -5.73643376e-07 -5.32954516e-07 -5.18161187e-07
      -7.49705521e-07 -8.16301451e-07 -9.54510369e-07 -1.09490054e-06
      -1.15624232e-06 -1.12439773e-06 -1.02662307e-06 -8.91940203e-07
      -7.15071621e-07 -5.37591575e-07 -3.63147876e-07 -2.67806485e-07
      -2.74013132e-07 -2.43833966e-07 -2.50867316e-07 -2.90249432e-07
      -3.56756914e-07 -4.31661704e-07 -5.95968686e-07 -1.04221135e-06
      -1.42344038e-06 -1.66694235e-06 -1.78639084e-06 -1.82391591e-06
      -1.78137304e-06 -1.68084921e-06 -1.58804494e-06 -1.48504012e-06
      -1.39558927e-06 -1.35614732e-06 -1.30026865e-06 -1.24779035e-06
      -1.27197973e-06 -1.44556952e-06 -1.68462304e-06 -1.78408618e-06
      -1.63945674e-06 -1.26084194e-06 -7.25230848e-07 -1.84643454e-07
      2.07923662e-07 3.06331657e-07 3.02553872e-07 1.46070306e-07
      -2.76990608e-08 -2.23608950e-07 -4.23555235e-07 -6.15266515e-07
      -7.39536745e-07 -7.79324239e-07 -7.76669083e-07 -7.72320504e-07
      -5.72595297e-07 -5.25308053e-07 -4.21559520e-07 -2.55314689e-07
      -5.86141695e-08 1.21335034e-07 2.61836533e-07 3.46715268e-07
      3.35367787e-07 2.29742312e-07 8.33699119e-08 -1.09796289e-07
      -3.03909104e-07 -5.15630006e-07 -8.41162375e-07 -1.05232641e-06
      -1.17414402e-06 -1.30553883e-06 -1.43445141e-06 -1.57003865e-06
      -1.67027542e-06 -1.67766700e-06 -1.55754594e-06 -1.35644984e-06
      -1.10386713e-06 -8.83025905e-07 -6.34469359e-07 -3.87885535e-07
      -2.23015007e-07 -1.87182408e-07 -2.54604345e-07 -4.27809113e-07
      -6.56717759e-07 -8.61058652e-07 -9.96268909e-07 -1.05379843e-06
      -9.83570430e-07 -7.24395875e-07 -2.67873276e-07 2.37238055e-07
      7.06531125e-07 9.63329967e-07 9.87372573e-07 8.06936100e-07
      5.06210824e-07 1.49175818e-07 -1.94293662e-07 -4.46764858e-07
      -5.85851581e-07 -6.32629451e-07 -5.77136802e-07 -5.49915740e-07
      2.78386295e-07 3.38920586e-07 4.45107844e-07 5.81532674e-07
      7.05906530e-07 7.75548529e-07 8.07569904e-07 7.98383951e-07
      7.61692434e-07 6.83849066e-07 5.76576099e-07 4.12310584e-07
      1.50507148e-07 -2.22671943e-07 -5.27613565e-07 -6.91978187e-07
      -7.32141643e-07 -7.63905746e-07 -7.41857036e-07 -6.79613493e-07
      -6.02668251e-07 -5.09958909e-07 -3.19456035e-07 -4.13813979e-08
      2.62819611e-07 5.44910108e-07 7.99868303e-07 9.19302181e-07
      8.92379774e-07 7.46931789e-07 5.30624334e-07 2.60758583e-07
      5.06982056e-09 -2.31191777e-07 -4.68142844e-07 -6.98275528e-07
      -8.37796563e-07 -8.42767292e-07 -9.00759630e-07 -8.05208231e-07
      -5.31622447e-07 -2.83053907e-07 -1.58743720e-08 2.38911468e-07
      4.75962793e-07 6.65031052e-07 7.83982728e-07 8.43839985e-07
      8.21754440e-07 7.25701284e-07 6.37010430e-07 5.96980158e-07
      -2.85287911e-07 -3.04472280e-07 -3.13889700e-07 -3.00926587e-07
      -2.66600892e-07 -2.24954974e-07 -1.11098885e-07 5.40507870e-08
      2.57998181e-07 4.82480345e-07 7.25213681e-07 9.11128382e-07
      9.76240585e-07 9.57457701e-07 8.91239608e-07 7.43086673e-07
      4.45004673e-07 4.55889300e-08 -1.95484873e-07 -1.05541950e-07
      1.60536374e-07 3.62827024e-07 3.94808808e-07 4.95263407e-07
      6.60080104e-07 7.93061304e-07 8.28819850e-07 7.74001137e-07
      6.97324538e-07 5.30784860e-07 2.47950567e-07 -7.72747057e-08
      -4.24401037e-07 -7.76210982e-07 -1.43709610e-06 -2.01390185e-06
      -2.31457261e-06 -2.29814464e-06 -2.02931665e-06 -1.63615118e-06
      -1.27094461e-06 -8.63522587e-07 -2.32586942e-07 3.16057793e-07
      7.37964740e-07 1.03547586e-06 1.27223257e-06 1.42896613e-06
      1.54164820e-06 1.59129706e-06 1.56365786e-06 1.54776774e-06
      -9.09845596e-07 -9.43246050e-07 -9.88410420e-07 -1.02606816e-06
      -1.02205763e-06 -9.31924887e-07 -7.99988982e-07 -6.33260811e-07
      -4.65949114e-07 -2.44597089e-07 -1.42825884e-08 1.84789712e-07
      3.09625278e-07 4.47308679e-07 5.39859002e-07 3.07892378e-07
      -1.16058182e-07 -5.88423234e-07 -1.01934063e-06 -1.26228610e-06
      -1.17070476e-06 -9.41953317e-07 -7.38546532e-07 -6.15369174e-07
      -5.66093320e-07 -5.55707686e-07 -6.43535714e-07 -7.69444000e-07
      -8.91441687e-07 -1.13273120e-06 -1.58655178e-06 -2.10329063e-06
      -2.52568429e-06 -2.75733328e-06 -2.84496991e-06 -2.80868903e-06
      -2.44647958e-06 -1.60286459e-06 -7.51832374e-07 -1.04752012e-07
      7.17490209e-08 -6.95166733e-08 -2.51509306e-07 -3.53897150e-07
      -2.83094920e-07 -1.16334398e-07 9.46411234e-08 3.17369597e-07
      4.72143086e-07 6.01606644e-07 6.77712592e-07 7.08497168e-07
      -4.84574741e-07 -4.49631301e-07 -3.56825950e-07 -2.27266256e-07
      -1.15512186e-07 1.33032314e-08 7.94935175e-08 6.06415895e-08
      3.59701744e-08 1.08926850e-08 -1.23380474e-07 -2.89214626e-07
      -3.68707191e-07 -2.84821624e-07 -1.77495011e-07 -1.30854957e-07
      -2.71038004e-07 -5.19167827e-07 -8.18218609e-07 -1.08312497e-06
      -1.36891254e-06 -1.54079191e-06 -1.69596592e-06 -1.90679782e-06
      -1.96129372e-06 -2.01682087e-06 -2.10484745e-06 -2.28066347e-06
      -2.50315884e-06 -2.74796662e-06 -3.04414016e-06 -3.23349514e-06
      -3.24225471e-06 -2.97323732e-06 -2.45456886e-06 -1.90856304e-06
      -1.38450787e-06 -5.47323282e-07 2.83788296e-07 7.93506331e-07
      1.10213171e-06 1.17597483e-06 9.64530841e-07 4.74184276e-07
      -7.08780803e-08 -4.59586090e-07 -7.78323454e-07 -9.77994091e-07
      -1.10418534e-06 -1.20477148e-06 -1.29959267e-06 -1.32003697e-06
      -4.97514179e-07 -5.06329968e-07 -5.30463694e-07 -5.10082259e-07
      -4.36603329e-07 -3.21203856e-07 -1.92795810e-07 -7.15669231e-08
      2.55697543e-08 6.23535712e-08 8.71346657e-08 1.35240953e-07
      2.25908153e-07 2.93655631e-07 3.35960266e-07 4.20826922e-07
      6.57862870e-07 8.41375254e-07 1.06312575e-06 1.12028169e-06
      7.15318208e-07 2.22050758e-07 -2.27946671e-07 -5.33566833e-07
      -6.30217585e-07 -7.32725823e-07 -8.38902110e-07 -1.04452840e-06
      -1.38019573e-06 -1.75812340e-06 -2.13560065e-06 -2.30309024e-06
      -2.17113870e-06 -1.75181617e-06 -1.12512259e-06 -4.77779054e-07
      6.54243095e-08 5.20722153e-07 9.21481785e-07 1.12752844e-06
      1.17393324e-06 1.21177129e-06 1.22522420e-06 1.11245777e-06
      8.87208785e-07 5.95011670e-07 2.71573668e-07 -2.67022031e-08
      -2.44979304e-07 -3.20030864e-07 -2.70678242e-07 -2.51262179e-07
      -1.22584925e-06 -1.26524753e-06 -1.36967333e-06 -1.46693105e-06
      -1.47834191e-06 -1.44947933e-06 -1.34087088e-06 -1.23215727e-06
      -1.12835642e-06 -1.01535636e-06 -8.28718498e-07 -5.92744243e-07
      -3.25898583e-07 -5.82754680e-08 1.57051488e-07 3.06995815e-07
      4.05182760e-07 4.48582114e-07 5.11833207e-07 2.67088723e-07
      4.64205963e-09 -1.63649631e-07 -3.08753187e-07 -3.05822226e-07
      -1.54493833e-07 -3.47263303e-08 -9.78082468e-08 -2.69392672e-07
      -5.10839072e-07 -7.97327118e-07 -1.14625902e-06 -1.44844842e-06
      -1.57701731e-06 -1.46535729e-06 -1.18334617e-06 -8.85165946e-07
      -7.24634049e-07 -5.89597448e-07 -3.79215692e-07 -1.98540405e-07
      3.41448327e-08 3.45940464e-07 7.38085532e-07 1.10756082e-06
      1.32045670e-06 1.32987668e-06 1.26667055e-06 1.11397242e-06
      8.82547226e-07 6.88788305e-07 5.83110193e-07 5.48056335e-07
      -1.15724799e-06 -1.11377983e-06 -9.94381139e-07 -8.29593830e-07
      -6.71484770e-07 -5.15102670e-07 -3.14893754e-07 -1.24482440e-07
      1.89437088e-08 8.24340916e-08 1.00396569e-07 1.53452092e-07
      1.71679915e-07 8.57787938e-08 2.94173930e-08 7.13185067e-09
      1.40922971e-08 -2.61977231e-08 -1.26768157e-07 -2.18448079e-07
      -2.55973958e-07 -3.07012641e-07 -4.00995191e-07 -5.04898026e-07
      -3.31895507e-07 -2.33211452e-07 -2.35605100e-07 -3.26587752e-07
      -5.42700150e-07 -8.37720052e-07 -1.16281558e-06 -1.47758828e-06
      -1.69034024e-06 -1.77532161e-06 -1.77549407e-06 -1.63350285e-06
      -1.37685959e-06 -1.13600925e-06 -8.41205008e-07 -5.63078515e-07
      -2.49199843e-07 1.30829903e-07 5.72472061e-07 1.03791797e-06
      1.35814560e-06 1.38664780e-06 1.24926635e-06 1.03740160e-06
      7.42983275e-07 4.33166804e-07 1.92385741e-07 1.25245194e-07
      -4.35479421e-07 -3.91909964e-07 -2.50376445e-07 -2.71291043e-08
      1.70134896e-07 3.82670123e-07 6.14512544e-07 8.09409187e-07
      9.76322440e-07 1.16835679e-06 1.33375329e-06 1.36362905e-06
      1.24088763e-06 1.05886465e-06 8.72537612e-07 6.90325805e-07
      5.44415627e-07 4.19255429e-07 2.94779113e-07 2.40508115e-07
      2.80624192e-07 2.38473177e-07 1.67059795e-07 1.35832224e-07
      4.89152967e-08 -5.46115473e-08 -1.49370038e-07 -2.67253171e-07
      -3.90173483e-07 -4.63371777e-07 -4.81768836e-07 -4.56260437e-07
      -4.61978942e-07 -5.71339626e-07 -6.70297823e-07 -6.12600502e-07
      -4.38235531e-07 -1.59824907e-07 1.86432885e-07 5.20487902e-07
      8.52176356e-07 1.16133958e-06 1.37898462e-06 1.47342212e-06
      1.54514987e-06 1.56166038e-06 1.43793829e-06 1.26547889e-06
      9.75542093e-07 7.07325398e-07 4.95410575e-07 3.89628724e-07
      1.27991268e-06 1.25054044e-06 1.13784085e-06 9.61727210e-07
      7.72088583e-07 6.28747955e-07 5.30210002e-07 5.69399788e-07
      7.41743179e-07 9.61568958e-07 1.16400690e-06 1.10392591e-06
      9.45444299e-07 7.52392452e-07 5.27258806e-07 3.37036681e-07
      8.34902636e-08 -2.04102975e-07 -4.45775299e-07 -5.87038812e-07
      -6.06562082e-07 -5.32985609e-07 -3.73243324e-07 -1.27483105e-07
      1.83993379e-07 5.16002331e-07 8.50410402e-07 1.19096273e-06
      1.46977436e-06 1.56888314e-06 1.43981708e-06 1.13459089e-06
      7.10072470e-07 2.10453464e-07 -2.87335666e-07 -5.95853010e-07
      -7.44698752e-07 -7.47922854e-07 -5.68352164e-07 -2.97871367e-07
      4.72331241e-09 3.05772232e-07 6.08564960e-07 9.13268423e-07
      1.14971806e-06 1.26182658e-06 1.32089406e-06 1.46943933e-06
      1.64388814e-06 1.82072461e-06 1.94884046e-06 1.95720872e-06
      1.32691378e-06 1.35470771e-06 1.33960077e-06 1.25096449e-06
      1.14867169e-06 1.03161199e-06 9.37814150e-07 9.19734305e-07
      9.68876407e-07 1.00516036e-06 9.52343839e-07 8.01033309e-07
      5.15577312e-07 -5.64582159e-09 -7.11094685e-07 -1.42612885e-06
      -2.09120526e-06 -2.63436300e-06 -2.97318661e-06 -3.04285140e-06
      -2.88716546e-06 -2.56413455e-06 -2.14825536e-06 -1.72241482e-06
      -1.32376601e-06 -1.04267986e-06 -9.03873342e-07 -8.32714534e-07
      -7.94592836e-07 -8.43889325e-07 -1.03963043e-06 -1.39916256e-06
      -1.94639415e-06 -2.55831515e-06 -3.06057973e-06 -3.43814281e-06
      -3.59945716e-06 -3.57721387e-06 -3.36002336e-06 -3.00216698e-06
      -2.60420506e-06 -2.19551225e-06 -1.80426218e-06 -1.46104037e-06
      -1.20899517e-06 -1.01004332e-06 -8.33618003e-07 -7.18797082e-07
      -6.25001178e-07 -4.57827724e-07 -2.80132866e-07 -2.06430727e-07
      7.04862089e-07 7.28185171e-07 7.75630042e-07 8.25753261e-07
      8.90520539e-07 8.73764350e-07 7.84695089e-07 6.88085265e-07
      5.35761444e-07 3.18457381e-07 4.50316868e-08 -2.95169116e-07
      -6.87931447e-07 -1.19745403e-06 -1.95773873e-06 -2.72909870e-06
      -3.40004704e-06 -3.88689887e-06 -4.11524388e-06 -4.09459471e-06
      -3.85251587e-06 -3.47778541e-06 -3.07596406e-06 -2.76390529e-06
      -2.62373214e-06 -2.61808282e-06 -2.74309377e-06 -2.80965651e-06
      -2.72257194e-06 -2.62182880e-06 -2.58305477e-06 -2.64940309e-06
      -2.86799536e-06 -3.17709282e-06 -3.47362834e-06 -3.75046579e-06
      -3.94270683e-06 -4.04593538e-06 -4.08178448e-06 -3.98946167e-06
      -3.76287676e-06 -3.40799966e-06 -2.96229268e-06 -2.47841467e-06
      -2.04414459e-06 -1.68067777e-06 -1.37693291e-06 -1.05101435e-06
      -8.25979498e-07 -6.92498304e-07 -6.32987224e-07 -5.90078230e-07
      -8.94702978e-08 -1.39484754e-07 -2.34170571e-07 -3.15331420e-07
      -3.72885580e-07 -4.25989214e-07 -4.07537158e-07 -3.20919298e-07
      -2.46622619e-07 -3.25392790e-07 -3.49639322e-07 -5.34475816e-07
      -9.62192189e-07 -1.47250455e-06 -1.92934453e-06 -2.30323849e-06
      -2.53170901e-06 -2.59388094e-06 -2.50510720e-06 -2.31117542e-06
      -2.14805686e-06 -2.14064312e-06 -2.27012447e-06 -2.52020641e-06
      -2.90195021e-06 -3.27032831e-06 -3.53946257e-06 -3.57433692e-06
      -3.36674134e-06 -3.01730734e-06 -2.61882587e-06 -2.23008442e-06
      -1.83649502e-06 -1.44594162e-06 -1.05839422e-06 -7.68129325e-07
      -7.09299854e-07 -8.79781737e-07 -1.28853173e-06 -1.76353774e-06
      -2.10576991e-06 -2.14564579e-06 -1.87555258e-06 -1.33185620e-06
      -6.23249889e-07 -4.83165010e-08 4.26107050e-07 5.10064922e-07
      5.01248223e-07 4.57232233e-07 3.69401647e-07 3.21925199e-07
      -1.07658934e-06 -1.12096279e-06 -1.24354654e-06 -1.41355997e-06
      -1.63298375e-06 -1.82769963e-06 -1.92147468e-06 -1.97545364e-06
      -1.98807174e-06 -1.97304962e-06 -2.05144465e-06 -2.24004111e-06
      -2.45251590e-06 -2.75996263e-06 -2.65609310e-06 -2.18252740e-06
      -1.50544031e-06 -7.29547992e-07 4.23579998e-08 7.86638225e-07
      1.34752054e-06 1.40745442e-06 1.01376781e-06 2.99608047e-07
      -5.64962193e-07 -1.38910127e-06 -1.99909186e-06 -2.27647820e-06
      -2.27871078e-06 -2.05999868e-06 -1.63289508e-06 -1.15308899e-06
      -4.31268830e-07 3.92634917e-07 1.10169697e-06 1.58384898e-06
      1.65230961e-06 1.27456212e-06 4.66378566e-07 -5.33029038e-07
      -1.49371147e-06 -2.18757009e-06 -2.41793987e-06 -2.03376021e-06
      -1.11221857e-06 -2.26686012e-07 3.06777082e-07 5.62913954e-07
      6.56766417e-07 5.67382699e-07 3.89520295e-07 3.04491266e-07
      -1.51503332e-06 -1.50784194e-06 -1.52337361e-06 -1.60170100e-06
      -1.72903788e-06 -1.85132865e-06 -1.97395116e-06 -2.17386946e-06
      -2.50288826e-06 -2.93895619e-06 -3.44084128e-06 -3.96956557e-06
      -4.35852962e-06 -4.05530182e-06 -2.88839374e-06 -9.80745426e-07
      7.93519348e-07 2.34402637e-06 3.53190035e-06 4.34330286e-06
      4.81951838e-06 4.72750526e-06 3.29723980e-06 1.52981511e-06
      -9.28403523e-08 -1.32289495e-06 -2.05079755e-06 -2.30822297e-06
      -2.18771129e-06 -1.78987398e-06 -1.09050563e-06 -1.86707268e-07
      9.23542530e-07 2.09595146e-06 2.76419996e-06 3.00818647e-06
      2.79665551e-06 2.06352343e-06 7.86715532e-07 -7.24491485e-07
      -1.98695489e-06 -2.76467199e-06 -3.03632237e-06 -2.63705783e-06
      -1.77398624e-06 -8.72085081e-07 -1.92480869e-07 3.66189596e-07
      7.11004304e-07 5.79086191e-07 4.89447530e-07 4.55886436e-07
      1.86430796e-07 2.19381775e-07 3.01041240e-07 3.95527110e-07
      5.36444304e-07 6.41929660e-07 5.97945416e-07 4.46005373e-07
      3.23352500e-09 -8.00556279e-07 -1.75601019e-06 -2.40366194e-06
      -2.25569534e-06 -1.50617609e-06 -2.56593921e-07 1.39352937e-06
      3.27181715e-06 4.92150866e-06 5.63766343e-06 5.86125407e-06
      5.64678749e-06 4.74950912e-06 3.13035048e-06 1.11443694e-06
      -5.72935789e-07 -1.75064326e-06 -2.32392699e-06 -2.32883849e-06
      -1.82551798e-06 -9.62297122e-07 2.95901799e-07 1.83439010e-06
      3.46661341e-06 4.77644699e-06 5.02743114e-06 4.89890454e-06
      4.21883442e-06 2.80814334e-06 1.14677755e-06 -4.51947102e-07
      -1.58959892e-06 -2.16435160e-06 -2.21548385e-06 -1.90807918e-06
      -1.37118150e-06 -8.49123580e-07 -4.27756703e-07 -1.33320848e-08
      2.53334406e-07 3.66087619e-07 3.81834809e-07 3.68196453e-07
      7.85382497e-07 7.84160534e-07 8.14932719e-07 9.21461663e-07
      1.11143288e-06 1.40260579e-06 1.65601421e-06 1.69753412e-06
      1.41713122e-06 9.36614072e-07 3.60790494e-07 4.58955718e-08
      8.76002417e-08 5.14585281e-07 1.58785383e-06 3.01362388e-06
      4.29675174e-06 5.07624964e-06 5.36911557e-06 5.33875846e-06
      4.88539081e-06 4.09823269e-06 2.97566476e-06 1.74035995e-06
      8.09921517e-07 1.38507900e-07 -2.08495536e-07 -2.14268823e-07
      1.81163955e-07 8.71632096e-07 1.89078685e-06 3.11510962e-06
      4.21011828e-06 4.84931252e-06 5.06563129e-06 4.80733524e-06
      4.05387664e-06 3.11136455e-06 2.11172301e-06 1.27952535e-06
      6.22405594e-07 7.37618180e-08 -3.04544329e-07 -5.11575479e-07
      -4.96506061e-07 -5.53491248e-07 -6.17178898e-07 -6.00055614e-07
      -5.23919311e-07 -4.56156585e-07 -4.24682895e-07 -4.28457042e-07
      -9.13115741e-07 -9.62966396e-07 -1.07884330e-06 -1.15553007e-06
      -1.16162948e-06 -1.06800621e-06 -8.74244677e-07 -5.97397161e-07
      -3.14205749e-07 8.24608790e-08 5.37542576e-07 1.10132021e-06
      1.80941197e-06 2.76757214e-06 3.58095394e-06 3.83831321e-06
      3.88844455e-06 3.99459077e-06 3.88598664e-06 3.42667249e-06
      3.03592628e-06 2.76786477e-06 2.42198553e-06 1.91986510e-06
      1.53778603e-06 1.24639064e-06 8.82465031e-07 6.00795545e-07
      6.52552899e-07 9.79663810e-07 1.55274574e-06 2.25287204e-06
      2.79599794e-06 3.08901235e-06 3.06180914e-06 2.90840171e-06
      2.91145079e-06 2.80131030e-06 2.55647501e-06 2.21732626e-06
      1.82322572e-06 1.42598981e-06 1.20938921e-06 8.17740840e-07
      3.26965107e-07 -2.29869983e-07 -5.36109212e-07 -7.27764700e-07
      -9.47648800e-07 -1.16509841e-06 -1.31564002e-06 -1.36509630e-06
      -6.94964513e-07 -7.74434113e-07 -9.93299864e-07 -1.25950442e-06
      -1.55544990e-06 -1.82875681e-06 -1.86827185e-06 -1.61503829e-06
      -1.05830236e-06 -5.49187149e-08 8.90351998e-07 1.77458310e-06
      2.75155003e-06 3.69169584e-06 4.34260755e-06 4.59916100e-06
      4.48140236e-06 4.18964783e-06 3.75603599e-06 3.01272689e-06
      2.20455127e-06 1.45362355e-06 7.97541588e-07 1.05667553e-07
      -6.37753828e-07 -1.42426791e-06 -2.14552097e-06 -2.56081648e-06
      -2.54790939e-06 -2.07364610e-06 -1.28817373e-06 -3.50484157e-07
      4.09387127e-07 1.09187272e-06 1.65579388e-06 1.99288297e-06
      2.21319215e-06 2.38742950e-06 2.56858107e-06 2.63991387e-06
      2.59172657e-06 2.55535792e-06 2.43651766e-06 2.08718734e-06
      1.28872352e-06 8.01262331e-07 3.31997484e-07 -1.75230454e-07
      -6.59666966e-07 -1.06719096e-06 -1.35445987e-06 -1.45188926e-06
      3.48665424e-07 3.06885539e-07 1.75250491e-07 -2.32767192e-08
      -2.20735672e-07 -3.94222155e-07 -4.56988033e-07 -2.78885551e-07
      1.25280650e-07 5.75355500e-07 1.14964200e-06 1.81138296e-06
      2.85339229e-06 3.77279548e-06 4.19660910e-06 3.92704169e-06
      3.13789246e-06 2.27367877e-06 1.66638290e-06 1.47378250e-06
      1.47747494e-06 1.21220194e-06 8.13485713e-07 3.06221807e-07
      -1.60096931e-07 -4.66309928e-07 -6.92264678e-07 -8.91071636e-07
      -1.01488183e-06 -1.05996526e-06 -1.08048027e-06 -1.01456999e-06
      -8.11794848e-07 -4.15352730e-07 1.11232737e-07 6.47544994e-07
      9.72518592e-07 1.30909132e-06 1.67045414e-06 1.90804485e-06
      1.86957811e-06 1.85152032e-06 1.56808949e-06 1.09471603e-06
      5.05529158e-07 4.28835364e-07 8.56514987e-07 1.09420068e-06
      1.06780465e-06 9.28872623e-07 8.26299981e-07 7.88936518e-07
      -2.53758770e-07 -1.88996424e-07 -2.32480630e-08 1.58136359e-07
      3.08860166e-07 4.02661129e-07 3.81451855e-07 3.32896008e-07
      2.89539798e-07 3.55934645e-07 5.89135652e-07 1.16195520e-06
      1.80021846e-06 2.22762333e-06 2.26340603e-06 1.80916129e-06
      9.44761211e-07 -3.27528440e-08 -7.45276850e-07 -1.01786316e-06
      -8.81456572e-07 -7.38815800e-07 -5.92735205e-07 -5.26828671e-07
      -4.03249885e-07 -2.33051608e-07 -8.17037815e-08 -8.59632436e-08
      -3.05058478e-07 -6.93359311e-07 -1.21434834e-06 -1.54862369e-06
      -1.50292851e-06 -1.17905631e-06 -1.04359094e-06 -9.01641386e-07
      -5.81812856e-07 -1.25514319e-07 5.63396384e-07 1.33197693e-06
      1.85950387e-06 1.95215762e-06 1.37149709e-06 1.87710981e-07
      -7.09373580e-07 -8.96235861e-07 -4.84721852e-07 1.78443628e-07
      7.11360485e-07 1.03323896e-06 1.23519965e-06 1.31176876e-06
      -2.53050814e-07 -2.58726544e-07 -3.02120412e-07 -3.73098203e-07
      -5.02234343e-07 -7.07735012e-07 -1.03105162e-06 -1.33315666e-06
      -1.48189258e-06 -1.36393203e-06 -1.03980653e-06 -6.19676712e-07
      -2.41782999e-07 1.06856293e-08 1.15648390e-07 1.53470481e-07
      2.11623970e-07 2.00200162e-07 8.20453963e-08 1.10033376e-07
      3.81142542e-07 5.80546043e-07 6.15769125e-07 4.14598361e-07
      -3.62139644e-07 -6.33657692e-07 -6.04519016e-07 -6.32742740e-07
      -8.21811398e-07 -1.11260022e-06 -1.38039070e-06 -1.01758394e-06
      -5.41677366e-07 4.82413540e-08 3.79080035e-07 4.56576686e-07
      5.65449739e-07 1.02679371e-06 1.53411622e-06 2.16135413e-06
      2.53594658e-06 1.53274107e-06 3.37647748e-07 -7.87357692e-07
      -1.63963000e-06 -2.04999810e-06 -2.01206967e-06 -1.63748473e-06
      -1.13597332e-06 -6.60034232e-07 -3.24660107e-07 -2.14324132e-07
      1.60182651e-07 7.75675915e-08 -1.40122424e-07 -4.89003071e-07
      -1.02101058e-06 -1.67754888e-06 -2.26119778e-06 -2.94804613e-06
      -3.44512296e-06 -3.61171647e-06 -3.35405298e-06 -2.98810983e-06
      -2.60939032e-06 -1.92171183e-06 -9.60923899e-07 7.09156822e-08
      1.04484525e-06 1.91681511e-06 2.67017504e-06 3.00841248e-06
      2.75659067e-06 2.32944080e-06 1.68113547e-06 1.39982205e-06
      8.86228236e-07 4.59842227e-08 -2.32296486e-07 -2.99760273e-07
      -3.45690722e-07 -3.43187622e-07 -1.02508636e-07 3.47811493e-07
      1.36203550e-06 2.14618035e-06 2.79062783e-06 3.56794681e-06
      3.76362868e-06 3.69996201e-06 3.32066952e-06 2.27978762e-06
      9.94427637e-07 -4.30145434e-07 -1.84154408e-06 -3.13328769e-06
      -4.10901521e-06 -4.51517190e-06 -4.41619932e-06 -3.75480136e-06
      -2.76733294e-06 -1.85001500e-06 -1.22165977e-06 -9.93567483e-07
      -7.40754160e-07 -4.95816892e-07 -9.51457153e-08 2.31121987e-07
      4.94419567e-07 5.44717125e-07 5.59647503e-07 6.16046520e-07
      4.10496511e-07 1.62631835e-07 1.13302661e-07 1.15836848e-07
      1.53804706e-07 1.76088875e-07 9.78534587e-08 -5.35716786e-08
      -1.60428186e-07 -3.39041833e-07 -6.64104107e-07 -9.20153468e-07
      -9.74331783e-07 -7.74970260e-07 -5.08493486e-07 -3.23858330e-07
      -9.05206292e-08 1.99121018e-07 3.43557844e-07 3.32168781e-07
      3.64046571e-07 4.48469564e-07 4.09687459e-07 3.18673841e-07
      4.45168951e-07 7.32948649e-07 8.04877743e-07 7.20019671e-07
      5.87369925e-07 5.82309440e-07 7.28527141e-07 8.21414687e-07
      7.52119604e-07 4.64654164e-07 2.08814711e-07 5.83916986e-08
      -8.88389380e-08 2.78511951e-08 1.55051865e-07 2.92207517e-07
      4.60978356e-07 6.18884542e-07 7.40868586e-07 7.04821275e-07
      -6.22601192e-07 -3.45893511e-07 -8.84621159e-08 9.95620866e-08
      4.64763019e-07 6.59396903e-07 5.68983182e-07 5.75384547e-07
      4.03512956e-07 2.96007755e-07 3.36877179e-07 2.65691227e-07
      1.13096121e-07 6.57124133e-08 6.18154843e-08 1.17027925e-08
      -3.35681420e-08 -1.67077900e-07 -4.68273043e-07 -7.23277992e-07
      -7.54895154e-07 -6.55939402e-07 -4.98161967e-07 -3.94718001e-07
      -1.80037404e-07 -6.30918322e-08 4.39243060e-08 2.29875994e-07
      3.07753623e-07 2.92655557e-07 3.17615331e-07 3.04904660e-07
      4.49047434e-07 7.09143251e-07 8.53236998e-07 6.90215984e-07
      3.73322479e-07 3.88259451e-07 6.66191056e-07 8.53639904e-07
      8.06950936e-07 5.06095262e-07 2.17817401e-07 3.36617383e-08
      -1.43385193e-07 4.09636236e-08 1.76471275e-07 1.86588252e-07
      2.62841411e-07 4.72094342e-07 7.34714149e-07 6.89573824e-07
      -2.55371646e-07 -1.31923613e-07 -5.43350147e-08 7.62801733e-08
      2.62180549e-07 4.67379209e-07 4.74780109e-07 5.24022880e-07
      4.31704223e-07 4.50572571e-07 6.58689373e-07 5.68585563e-07
      2.38481334e-07 1.39514952e-07 1.37260074e-07 1.38726762e-07
      8.85138505e-08 -1.03875543e-07 -3.84990898e-07 -5.91122159e-07
      -5.92061951e-07 -5.26472945e-07 -3.85879503e-07 -3.15053825e-07
      -2.03122042e-07 -2.70306941e-07 -2.44647254e-07 -6.15248510e-08
      2.70781815e-08 4.41348869e-09 1.09221014e-08 7.21758084e-08
      3.54121113e-07 6.27383940e-07 7.76525837e-07 5.83322503e-07
      1.96882894e-07 1.90188203e-07 4.90349805e-07 7.89885064e-07
      8.12472763e-07 4.90403352e-07 1.59174775e-07 -1.40644572e-08
      -1.68967617e-07 4.07141805e-08 1.29128026e-07 -4.75883084e-08
      -1.94365057e-07 1.14429334e-07 4.97661972e-07 4.93861251e-07
      1.57397594e-07 8.35819307e-08 2.01210870e-09 8.40375236e-08
      1.46339204e-07 1.54752172e-07 2.59497625e-07 3.51113755e-07
      4.00592683e-07 4.82845621e-07 6.92480228e-07 6.86669068e-07
      4.32774044e-07 2.44834951e-07 3.73573954e-07 3.80845023e-07
      2.42849040e-07 -1.34876705e-08 -3.11471183e-07 -4.80609401e-07
      -5.40665667e-07 -5.42677242e-07 -3.13801564e-07 -1.91492958e-07
      -2.51247656e-07 -3.66696867e-07 -3.00785700e-07 -2.60152149e-07
      -2.64974176e-07 -2.74819172e-07 -2.33246524e-07 -1.30074341e-07
      2.35254220e-07 4.46795696e-07 5.10288260e-07 3.82529379e-07
      1.57445506e-08 3.05191983e-09 3.06141686e-07 6.15025954e-07
      6.56147392e-07 3.64376888e-07 1.69797062e-07 8.29473592e-08
      -4.67521417e-08 9.71693055e-08 1.48421464e-07 -1.08017815e-07
      -3.42261444e-07 -2.13477378e-07 1.91178380e-08 -5.97360952e-08
      3.25093794e-07 3.52354249e-07 1.92060469e-07 6.40971223e-08
      1.65833498e-07 9.28953909e-08 1.38269442e-07 1.82966133e-07
      1.71428240e-07 2.44022999e-07 4.92138838e-07 5.62557943e-07
      3.43029797e-07 3.01025494e-07 4.60172458e-07 4.54617265e-07
      3.22907681e-07 1.70560440e-07 -8.97569166e-08 -1.92718915e-07
      -2.67425548e-07 -3.34807368e-07 -1.73056335e-07 -1.23443314e-07
      -1.71561751e-07 -2.11413663e-07 -2.10589519e-07 -2.76595415e-07
      -3.18957461e-07 -2.43017695e-07 -1.85565412e-07 -1.11833486e-07
      9.54295203e-08 2.43166966e-07 1.47687359e-07 1.77688548e-07
      -7.46647544e-08 -2.06201989e-08 2.80593866e-07 4.78871357e-07
      5.07006689e-07 3.03800761e-07 1.79953773e-07 2.16846928e-07
      1.54304601e-07 1.88700753e-07 1.47827905e-07 -1.22607645e-07
      -2.19343576e-07 -3.34141419e-07 -3.26925601e-07 -4.86320232e-07
      -5.68073290e-07 -2.78992957e-07 -4.52147262e-08 1.21191633e-07
      1.83936876e-07 1.30692712e-07 -4.81963234e-08 -8.28569711e-08
      -1.41556527e-07 -4.35799912e-08 3.25566930e-07 4.61568220e-07
      2.26620386e-07 1.73809653e-07 2.91829451e-07 3.38720099e-07
      2.77634086e-07 1.32760860e-07 7.86531444e-08 1.47666555e-07
      1.25078756e-07 2.31463488e-08 3.04176062e-08 -3.00611340e-08
      -4.70584034e-08 -4.64078340e-08 -8.12799144e-08 -1.77469488e-07
      -1.94484599e-07 -1.41718060e-08 3.86917058e-08 -5.50125527e-08
      -1.10831657e-07 8.08382694e-09 -2.68170197e-08 -5.71633008e-09
      9.21625798e-09 -1.10790825e-08 1.54410955e-07 2.92018370e-07
      4.27134182e-07 3.32154286e-07 1.67348404e-07 2.57318305e-07
      2.57381970e-07 2.19419661e-07 1.10042784e-07 -6.88831037e-08
      -1.35854620e-07 -2.86683388e-07 -5.31377225e-07 -6.45238572e-07
      -8.95888377e-07 -8.35686535e-07 -6.42775603e-07 -2.58159957e-07
      8.96872905e-08 1.47258405e-07 -1.80762427e-07 -4.21118131e-07
      -4.53077860e-07 -2.93651084e-07 5.78098280e-08 3.15936830e-07
      1.72186617e-07 -2.92477562e-08 2.35881128e-08 9.56724193e-08
      8.54563922e-08 -8.78648692e-08 -9.17756626e-09 3.65102380e-07
      3.52131053e-07 2.01336491e-07 1.12599707e-07 6.18334113e-08
      8.55999289e-08 5.55145476e-08 -6.23147542e-08 -2.13500570e-07
      -2.14849564e-07 -2.53386485e-08 4.83553144e-08 -1.81649312e-07
      -3.30070293e-07 -2.72404350e-07 -1.31546017e-07 -1.23618307e-07
      1.70103061e-08 -5.00995583e-08 -4.16636503e-08 8.42492938e-08
      3.60142167e-07 3.04271055e-07 2.13976946e-07 1.03665514e-07
      -1.74187704e-08 -9.29200112e-08 -2.28955059e-08 1.52872644e-07
      1.72778925e-07 -1.79704131e-07 -4.72543206e-07 -5.28366172e-07
      -1.04217600e-06 -1.13177623e-06 -1.12768180e-06 -9.62015974e-07
      -5.06301433e-07 -1.49473848e-07 -1.54457979e-07 -4.97961935e-07
      -5.26930592e-07 -3.66549187e-07 -9.93218308e-08 7.38336468e-08
      -4.36766499e-08 -2.76314978e-07 -3.06444292e-07 -1.94020942e-07
      -1.98116993e-07 -2.79018053e-07 -2.18970285e-07 1.47427471e-07
      3.57632558e-07 2.68772538e-07 2.12095841e-07 2.86047054e-07
      2.43218096e-07 1.43926755e-07 4.47648724e-10 -1.64239495e-07
      -1.97617965e-07 -9.15147851e-08 -1.07081867e-07 -5.18209617e-07
      -6.90191882e-07 -5.68840903e-07 -3.50847444e-07 -3.88428106e-07
      -3.44639147e-07 -3.34786478e-07 -3.07001642e-07 -2.20637801e-07
      1.22631345e-08 1.46748931e-07 1.03558733e-07 -9.49357997e-08
      -3.90894314e-07 -4.47985315e-07 -1.98777215e-07 1.69685151e-07
      5.17564672e-07 4.86226270e-07 2.21180287e-07 1.81742799e-08
      -8.06135688e-07 -1.20231573e-06 -1.47057369e-06 -1.49287200e-06
      -1.25523945e-06 -8.89570913e-07 -6.56208670e-07 -6.51148127e-07
      -5.72610816e-07 -3.28610042e-07 -1.57560024e-07 -1.55988616e-07
      -2.69585911e-07 -4.15008856e-07 -4.71948596e-07 -3.57106330e-07
      -3.57066028e-07 -2.89666531e-07 -2.42891389e-07 -1.98901418e-07
      5.40316201e-08 1.43373086e-07 6.80326622e-08 3.45188056e-07
      4.20230776e-07 2.61207248e-07 1.85970990e-07 2.04991615e-08
      -4.34657856e-08 8.24455171e-08 -9.75234968e-08 -5.15365173e-07
      -7.80906873e-07 -6.84899248e-07 -6.68826146e-07 -7.60503440e-07
      -8.32545823e-07 -8.33830541e-07 -7.70119755e-07 -6.56347140e-07
      -5.22277219e-07 -2.41845413e-07 -6.78903689e-08 -1.73519311e-07
      -4.57583013e-07 -5.47700893e-07 -4.00559259e-07 -2.29475873e-07
      2.97339994e-07 6.80840913e-07 9.19328841e-07 9.52185076e-07
      -9.69071266e-07 -1.13064164e-06 -1.30336923e-06 -1.34798847e-06
      -1.47980631e-06 -1.55721671e-06 -1.41641590e-06 -1.12213195e-06
      -9.64084052e-07 -5.23715869e-07 -3.26933247e-07 -2.43612391e-07
      -2.53978186e-07 -2.27989858e-07 -3.16156559e-07 -2.99278213e-07
      -2.19632852e-07 -2.24617622e-07 -1.27939941e-07 -3.46933177e-07
      -2.38973826e-07 -6.45628333e-08 -3.51534339e-07 -8.04251243e-09
      2.55177923e-07 3.05058080e-07 2.78784597e-07 2.32411281e-07
      1.38170307e-07 1.69504730e-07 1.44754381e-07 -1.77070092e-07
      -5.70830252e-07 -7.37284381e-07 -1.02289141e-06 -1.19674553e-06
      -1.31234617e-06 -1.40927614e-06 -1.27054489e-06 -1.05362039e-06
      -8.50425636e-07 -7.41203792e-07 -5.23124129e-07 -3.09324918e-07
      -1.58129978e-07 -2.11449731e-07 -3.40002174e-07 -3.01895113e-07
      9.91400171e-08 5.41469433e-07 9.74450927e-07 1.21049322e-06
      -1.07012909e-06 -1.07657490e-06 -1.02644003e-06 -9.21762080e-07
      -1.13257624e-06 -1.53262829e-06 -1.58576631e-06 -1.42132171e-06
      -1.31353136e-06 -8.22942468e-07 -4.37134645e-07 -1.53180991e-07
      -4.91701329e-08 -1.93790193e-08 -9.77563630e-08 -2.24208591e-07
      -1.58545603e-07 1.74219927e-08 1.44561582e-07 -2.45181155e-07
      -3.95032316e-07 -3.51870312e-07 -7.98879739e-07 -7.95424853e-07
      -2.70615118e-07 3.32719736e-08 9.71255147e-08 5.20724726e-08
      -2.57755706e-09 6.89493831e-08 2.48719061e-07 2.29647426e-07
      -4.02285174e-08 -4.16662203e-07 -8.16016097e-07 -1.18323885e-06
      -1.63255550e-06 -1.67080213e-06 -1.52806854e-06 -1.18494700e-06
      -8.31710338e-07 -7.48217872e-07 -8.46020157e-07 -6.64798279e-07
      -2.90764177e-07 -9.71585976e-08 -1.27917275e-07 -1.15769279e-08
      2.41756652e-07 5.60568424e-07 8.94518735e-07 1.19808601e-06
      -1.19885851e-06 -9.96573249e-07 -7.71857913e-07 -4.69696317e-07
      -6.43918270e-07 -9.46274838e-07 -1.26017733e-06 -1.24937299e-06
      -1.29065950e-06 -9.46455145e-07 -4.76274295e-07 -8.04071334e-08
      -4.84437983e-08 -1.27256513e-07 -1.11618412e-07 -4.86253782e-07
      -5.72447163e-07 -3.27643761e-07 1.95444230e-08 -1.51010099e-07
      -5.45534817e-07 -4.52052035e-07 -8.17819682e-07 -1.09375821e-06
      -8.20993250e-07 -4.03620874e-07 -1.42157845e-07 -1.67386432e-07
      -1.60095453e-07 1.25184885e-09 3.99003625e-07 6.40298140e-07
      6.79217464e-07 2.97759840e-07 -3.99142266e-07 -9.68634026e-07
      -1.65719916e-06 -1.84888711e-06 -1.50221172e-06 -9.13474196e-07
      -3.20360840e-07 -4.07258170e-07 -7.03780870e-07 -8.63020432e-07
      -6.00956469e-07 -2.57310433e-07 -1.16382530e-08 3.10755183e-07
      3.65471095e-07 6.41226961e-07 7.42885732e-07 1.00729017e-06
      -8.89718820e-07 -7.95968219e-07 -6.54734208e-07 -2.42289588e-07
      -1.72156390e-07 -5.07609229e-07 -9.87240810e-07 -1.14034845e-06
      -1.15994510e-06 -1.01136993e-06 -6.90945114e-07 -1.49165132e-07
      3.27072591e-08 -1.24032780e-07 -4.28156625e-07 -8.54778648e-07
      -1.06499783e-06 -8.36989500e-07 -3.63776252e-07 -2.98825427e-07
      -6.70678787e-07 -6.41742474e-07 -6.61554679e-07 -1.02346132e-06
      -1.11379643e-06 -7.77873197e-07 -4.81240136e-07 -4.29358465e-07
      -2.75758538e-07 1.29348564e-07 6.36082461e-07 1.16333490e-06
      1.21287235e-06 8.58970679e-07 2.03380338e-07 -4.67602291e-07
      -1.26635348e-06 -1.83271720e-06 -1.90220476e-06 -1.16698607e-06
      -1.63930395e-07 2.59179018e-07 -4.43767760e-07 -8.03973990e-07
      -7.34802143e-07 -5.52836127e-07 -2.85276400e-07 2.88259514e-07
      7.14612895e-07 5.98519250e-07 6.96173345e-07 7.93320396e-07
      -3.83756941e-07 -4.30486324e-07 -5.90705895e-07 -3.89628298e-07
      1.48651168e-07 -1.84537523e-08 -6.82881364e-07 -1.14987688e-06
      -1.36523374e-06 -1.25413339e-06 -1.15071100e-06 -7.29192266e-07
      -1.71873921e-07 -2.03196933e-07 -5.37730728e-07 -1.03490447e-06
      -1.34197080e-06 -1.16167348e-06 -8.23434505e-07 -5.01944101e-07
      -8.08618438e-07 -9.62870217e-07 -8.68644918e-07 -1.08488439e-06
      -1.30091644e-06 -1.13599344e-06 -7.79726236e-07 -5.79827656e-07
      -2.69797397e-07 2.78552335e-07 8.55390965e-07 1.44608828e-06
      1.87132275e-06 1.42020747e-06 8.50991285e-07 2.80776931e-07
      -4.72480082e-07 -1.32363800e-06 -1.86330249e-06 -1.74222237e-06
      -8.98362828e-07 1.83782049e-07 -3.27252820e-07 -7.40326755e-07
      -5.98685801e-07 -5.32683600e-07 -4.37103694e-07 -6.88938613e-08
      4.36498198e-07 5.40905205e-07 4.27867633e-07 4.03414901e-07
      -1.83177264e-07 -2.05582523e-07 -3.72562511e-07 -4.00541637e-07
      -1.09487978e-07 3.90864642e-07 -6.63021424e-08 -6.32358706e-07
      -1.22485164e-06 -1.44826697e-06 -1.67099597e-06 -1.58616331e-06
      -5.49772892e-07 -2.42685019e-07 -5.85418320e-07 -8.08948528e-07
      -1.04163598e-06 -9.46924388e-07 -7.88490809e-07 -5.75270008e-07
      -8.63899913e-07 -1.05412403e-06 -1.06992889e-06 -1.35074481e-06
      -1.54543159e-06 -1.39356291e-06 -1.07409744e-06 -6.87308216e-07
      -1.78601553e-07 4.15409971e-07 9.88572538e-07 1.66833172e-06
      2.35089874e-06 2.13548969e-06 1.46654611e-06 9.34795821e-07
      3.07293476e-07 -5.13020723e-07 -1.18154446e-06 -1.53564372e-06
      -1.32496291e-06 -6.52760946e-07 -3.75674915e-07 -7.33331376e-07
      -6.19733044e-07 -3.65863457e-07 -2.24693338e-07 -3.89757204e-08
      9.72237970e-08 1.64140758e-07 7.32343892e-08 -5.50882850e-09
      -1.91622647e-07 -4.38417445e-08 -1.58832535e-07 -3.26182345e-07
      -1.63932839e-07 1.98068619e-07 2.83923271e-07 -5.50133947e-08
      -5.86194460e-07 -9.61926276e-07 -1.33232106e-06 -1.79558685e-06
      -1.23238942e-06 -2.73810400e-07 -4.17194258e-07 -5.54990891e-07
      -4.83991357e-07 -3.75180775e-07 -4.46719270e-07 -4.74605400e-07
      -8.20844093e-07 -9.55541964e-07 -9.71002009e-07 -1.51601841e-06
      -1.66598284e-06 -1.44307967e-06 -1.19204958e-06 -9.21767992e-07
      -4.27737973e-07 1.24001104e-07 6.72614647e-07 1.34835648e-06
      1.98895304e-06 2.27754276e-06 1.88207662e-06 1.27031069e-06
      6.40251017e-07 1.41824783e-08 -3.89681531e-07 -8.55032113e-07
      -1.17620448e-06 -1.05505819e-06 -4.65894459e-07 -6.37878998e-07
      -5.23880658e-07 -2.33976067e-07 1.15165584e-07 2.66712902e-07
      2.02813240e-07 -1.16109327e-07 -2.20097533e-07 -4.24899980e-07
      -2.88912673e-07 -4.55751135e-08 -3.70917803e-08 -2.47216150e-07
      -2.01846206e-07 5.33589706e-09 9.53107602e-08 9.49568317e-08
      -1.77990160e-07 -3.23943397e-07 -5.78239280e-07 -9.89139494e-07
      -1.06991604e-06 -4.25292228e-07 -3.29461130e-07 -7.65268908e-07
      -7.85815530e-07 -5.47625291e-07 -3.98398782e-07 -3.50983129e-07
      -6.76334707e-07 -7.99368536e-07 -9.56110966e-07 -1.56030558e-06
      -1.65138033e-06 -1.41476755e-06 -1.15906244e-06 -9.63715706e-07
      -6.90904130e-07 -3.15854777e-07 5.88304943e-08 6.82999826e-07
      1.26870339e-06 1.51223708e-06 1.37861525e-06 9.98527184e-07
      5.73665432e-07 1.18733297e-07 -1.43456603e-07 -4.61346616e-07
      -7.71168516e-07 -9.11342738e-07 -3.99034178e-07 -3.63564908e-07
      -3.89366733e-07 -8.46502104e-08 3.03776602e-07 4.89806268e-07
      3.87321251e-07 7.15562436e-08 -2.23010119e-07 -5.36302252e-07
      -4.04339062e-07 -2.36892447e-07 -1.24466965e-07 -2.08081303e-07
      -2.51082668e-07 -1.90127054e-07 -2.08723876e-07 -1.25563915e-07
      -1.42224536e-07 -6.99871094e-08 2.38908040e-08 -1.87655075e-07
      -3.86464194e-07 -9.38829814e-08 -1.63423238e-07 -5.29659872e-07
      -8.03297382e-07 -8.57359225e-07 -9.09274604e-07 -8.66269374e-07
      -8.23911250e-07 -8.80096422e-07 -1.02902311e-06 -1.44230000e-06
      -1.48484867e-06 -1.27524743e-06 -1.09213443e-06 -9.03096577e-07
      -8.03989906e-07 -5.63529227e-07 -3.47567749e-07 1.64019298e-07
      6.96389577e-07 9.02041847e-07 9.10853089e-07 7.33557783e-07
      2.27279145e-07 -1.72599272e-07 -1.88115578e-07 -3.80339912e-07
      -5.62284868e-07 -5.70959855e-07 -2.02088700e-07 -1.84713915e-08
      -3.14067194e-07 -1.51990406e-07 1.06075554e-07 3.59514587e-07
      3.46762675e-07 3.97117304e-07 2.18450637e-07 -1.25803822e-07
      -2.07518255e-07 -1.61267607e-07 -1.90571896e-07 -1.43635859e-07
      -1.35698301e-07 -2.53791796e-07 -4.47542533e-07 -3.96172879e-07
      -3.14526886e-07 -1.27461163e-07 1.05390285e-07 6.94635887e-08
      -9.59102948e-08 1.53636336e-07 3.50419640e-07 5.24324122e-08
      -2.87648191e-07 -5.16642672e-07 -8.06658704e-07 -9.79092874e-07
      -1.09675625e-06 -1.12650434e-06 -1.07543781e-06 -1.17681100e-06
      -1.09922792e-06 -1.00462944e-06 -8.86982718e-07 -8.15593182e-07
      -7.65046877e-07 -6.26861777e-07 -5.05830599e-07 -5.88366724e-08
      4.10922098e-07 6.08987420e-07 6.30262036e-07 6.07424170e-07
      2.66965031e-07 -1.97163690e-08 -2.74451565e-07 -4.64523282e-07
      -5.97101973e-07 -4.67094139e-07 -6.16610265e-08 2.99786649e-08
      -2.03252625e-07 -3.59186600e-07 -2.10111523e-07 9.83689397e-09
      5.17138403e-08 2.72600886e-07 2.73815829e-07 1.87196619e-07
      -2.49292583e-07 -3.32469824e-07 -3.04451703e-07 -1.38699789e-07
      -2.92425764e-08 -1.01311798e-07 -3.85676742e-07 -4.05940000e-07
      -3.57750565e-07 -3.03656947e-07 -1.37715560e-07 -1.47363693e-07
      -2.28324865e-07 9.32301436e-09 4.41284072e-07 5.50809091e-07
      3.66462359e-07 3.33125669e-08 -2.28735601e-07 -2.26040939e-07
      -4.24024847e-07 -7.54320070e-07 -8.04480180e-07 -6.71686735e-07
      -5.56823693e-07 -5.50557502e-07 -6.10576080e-07 -7.10489530e-07
      -6.43926114e-07 -5.15135810e-07 -5.34778735e-07 -2.07643765e-07
      2.42952467e-07 3.39876550e-07 3.43102613e-07 4.04614582e-07
      2.26044079e-07 7.86551979e-08 -8.36555500e-08 -2.41969389e-07
      -4.06699826e-07 -3.64126493e-07 -1.88023279e-07 -6.96353055e-08
      -1.23372761e-08 -1.06158545e-07 -1.67436326e-07 -2.69676377e-07
      -8.49602628e-08 7.21796738e-08 3.38072432e-08 2.61775153e-08
      -7.62564056e-08 -2.65003251e-07 -2.83392581e-07 -1.78897068e-07
      -2.29712427e-08 -1.05153122e-08 -1.64459621e-07 -3.16280307e-07
      -3.12504227e-07 -2.70860454e-07 -1.92645658e-07 -1.59992553e-07
      -1.93501208e-07 -6.65741462e-09 3.23494305e-07 4.74877311e-07
      5.48473167e-07 3.31081708e-07 -9.01602437e-09 1.18510194e-07
      4.04664888e-08 -3.75325300e-07 -4.37521095e-07 -2.51399968e-07
      -1.03413100e-07 -4.51841196e-08 -1.32136762e-07 -2.90880564e-07
      -4.18896576e-07 -2.55150923e-07 -1.80286065e-07 -1.22274571e-07
      1.65264780e-07 2.82228797e-07 1.22273732e-07 4.98164034e-08
      1.05937175e-07 9.45194500e-08 8.22811046e-08 5.66789637e-08
      -6.35188329e-08 -1.33322573e-07 -1.13105983e-07 -3.46503555e-08
      9.88593172e-08 1.20016821e-07 -1.69319503e-09 -1.93396119e-07
      -7.67580062e-08 4.13439203e-08 -9.46612317e-08 -1.02977168e-07
      -1.14225331e-08 -1.20040013e-07 -1.13211627e-07 -5.05223348e-08
      3.25063390e-08 4.32039720e-08 -1.45234393e-08 -2.03294292e-07
      -2.14949964e-07 -1.81999738e-07 -1.11592087e-07 -2.24169074e-08
      -3.94201649e-08 2.14272635e-08 1.59623880e-07 2.66493913e-07
      4.08830061e-07 3.03032380e-07 8.56558415e-08 4.46055282e-08
      -1.53536163e-07 -5.15211241e-07 -5.47297418e-07 -2.66904152e-07
      8.83766589e-08 3.54720527e-07 3.52877123e-07 1.55078581e-07
      -7.23999065e-08 -2.19136229e-08 1.46331118e-07 2.03676777e-07
      3.88714369e-07 4.27068926e-07 2.43604461e-07 6.41891447e-08
      -3.22053815e-08 -9.37004252e-09 6.03368520e-08 1.81682879e-07
      2.01162152e-07 5.73065861e-08 6.85868145e-08 1.71750372e-07
      2.02947547e-07 1.69372811e-07 2.58099426e-08 -1.12395021e-07
      -1.04723441e-07 -5.55113253e-08 -1.92343236e-07 -3.11294684e-07
      -1.16398347e-07 -1.04883760e-07 -9.01016151e-09 4.11414298e-08
      4.66816168e-08 4.45422224e-08 1.25384062e-07 -2.30947581e-08
      -4.73610697e-08 -6.42318483e-08 -7.55626246e-08 6.97653633e-08
      1.13376672e-07 1.64646224e-07 1.91700181e-07 8.48814423e-08
      2.33634381e-07 3.00153175e-07 2.26887522e-07 3.32559225e-08
      -3.86993264e-07 -7.60573300e-07 -6.40514600e-07 -3.22165675e-07
      1.10194080e-07 5.40922997e-07 7.58882152e-07 5.97405290e-07
      3.41812211e-07 2.97135699e-07 4.35023054e-07 5.61144873e-07
      7.95775691e-07 8.04541855e-07 6.34285357e-07 4.04490038e-07
      2.29268579e-07 4.47954243e-08 5.80387187e-08 2.32748391e-07
      2.84645182e-07 1.24642312e-07 2.11759044e-07 2.77903951e-07
      2.28539790e-07 2.26716594e-07 1.18032354e-07 2.86056530e-08
      -3.73702989e-08 -8.23448048e-08 -2.49435146e-07 -3.82641588e-07
      -2.57978826e-07 -1.92049114e-07 2.06451016e-08 1.16383916e-07
      7.09297368e-08 8.88181262e-08 2.15287798e-07 9.42911527e-08
      9.56161585e-08 1.00058301e-07 -1.68260228e-09 9.36316340e-08
      3.45735572e-07 4.55450731e-07 4.10136778e-07 4.37991673e-07
      5.83245992e-07 6.12253871e-07 5.54655855e-07 3.36220921e-07
      -3.16873667e-07 -8.73790157e-07 -8.64685262e-07 -7.12596034e-07
      -2.89026161e-07 2.90636649e-07 7.67974825e-07 1.01543560e-06
      8.76848617e-07 7.03743297e-07 7.70864347e-07 8.82754989e-07
      9.69333541e-07 9.83278369e-07 9.37295397e-07 7.92643618e-07
      6.58829435e-07 4.78615050e-07 3.09166950e-07 3.79970260e-07
      2.51029121e-07 5.25770254e-08 2.63115709e-07 3.52145008e-07
      2.16472472e-07 2.30519305e-07 2.09289723e-07 1.70019334e-07
      7.62396937e-08 -3.75269806e-08 -1.97753621e-07 -3.04671801e-07
      -3.62994854e-07 -2.61114621e-07 -3.00651060e-08 1.63949878e-07
      1.79430756e-07 2.27997802e-07 2.62289490e-07 1.13701184e-07
      1.21272720e-07 2.23209241e-07 8.81021975e-08 1.63732878e-07
      4.88114267e-07 6.61490674e-07 6.37833125e-07 8.94506684e-07
      1.17732247e-06 1.18000889e-06 1.08439315e-06 8.46620424e-07
      2.90443325e-07 -1.99892739e-07 -5.95614665e-07 -8.84290614e-07
      -7.51484322e-07 -2.27702955e-07 2.38447626e-07 7.57201065e-07
      1.09806274e-06 1.01933904e-06 1.03607056e-06 1.11747545e-06
      1.19091953e-06 1.10166434e-06 1.00573448e-06 9.99637223e-07
      9.36286597e-07 7.86249586e-07 5.54043197e-07 4.05605078e-07
      1.55605079e-07 -6.06871779e-08 1.99504058e-07 4.31519112e-07
      2.82133783e-07 2.72797166e-07 3.18428249e-07 3.02709680e-07
      2.15307182e-07 4.60613592e-08 -1.45959959e-07 -1.72981586e-07
      -3.39396337e-07 -2.95542918e-07 -9.62106910e-08 7.92038577e-08
      1.89368549e-07 3.53095004e-07 4.12643459e-07 2.00116588e-07
      1.34175750e-07 2.45791199e-07 1.48263496e-07 1.77585065e-07
      3.70762308e-07 4.95820302e-07 8.00571797e-07 1.22498216e-06
      1.57780869e-06 1.56815759e-06 1.40765439e-06 1.21847881e-06
      9.90780677e-07 6.44240458e-07 1.53069081e-07 -3.54783651e-07
      -6.39968164e-07 -5.05838386e-07 -2.12754216e-07 1.75586635e-07
      5.84365807e-07 8.13466954e-07 9.72399675e-07 1.09280882e-06
      1.08807308e-06 9.84846906e-07 9.12667531e-07 1.00004775e-06
      1.12745249e-06 1.05549520e-06 8.39930976e-07 5.66909591e-07
      1.77679226e-07 -5.30405018e-08 1.26938275e-07 4.26436856e-07
      3.47371440e-07 3.45644423e-07 4.12763143e-07 3.68790211e-07
      3.28004404e-07 2.03443790e-07 2.91738775e-08 -1.69020904e-08
      -2.56724235e-07 -2.14952180e-07 -1.24136676e-07 2.20331859e-08
      1.35207983e-07 3.14426842e-07 4.32522199e-07 2.78034321e-07
      2.36435312e-07 2.61517272e-07 1.26699206e-07 1.11210277e-07
      1.79975046e-07 2.39780775e-07 6.39948212e-07 1.18893865e-06
      1.57014449e-06 1.53679309e-06 1.40504756e-06 1.28983038e-06
      1.33020706e-06 1.24522569e-06 9.55494102e-07 5.17377771e-07
      5.27823403e-08 -2.40749728e-07 -2.25091839e-07 -1.50309759e-07
      -3.87955907e-08 1.94711902e-07 4.69666077e-07 6.92719993e-07
      7.73488068e-07 7.02744842e-07 6.86726537e-07 8.71885788e-07
      1.10419001e-06 1.12586895e-06 9.76107344e-07 6.99001191e-07
      2.61347992e-07 -1.02819051e-08 1.47331946e-07 2.78599401e-07
      2.83769765e-07 3.52315311e-07 4.18694412e-07 4.26313591e-07
      3.71858846e-07 3.10262635e-07 2.55372555e-07 1.92213960e-07
      -8.90343088e-08 -4.16651034e-08 -1.72055348e-08 8.53970974e-08
      2.15185182e-07 2.21824237e-07 2.23489607e-07 1.41788249e-07
      2.60397570e-07 2.58030241e-07 1.50456671e-07 5.78890251e-08
      2.70649352e-08 2.50123140e-08 4.52798105e-07 9.81573294e-07
      1.31011041e-06 1.38134340e-06 1.37031225e-06 1.30327714e-06
      1.25867280e-06 1.22776839e-06 1.26928751e-06 1.14649220e-06
      7.29129738e-07 2.49570121e-07 -5.02064079e-09 -2.06695347e-07
      -3.00211838e-07 -1.89594004e-07 1.17669302e-07 3.99865144e-07
      5.43645399e-07 5.90289972e-07 5.76500497e-07 8.15372232e-07
      1.05505524e-06 1.03261175e-06 8.39730262e-07 5.86197245e-07
      2.60253529e-07 6.46733724e-08 1.93871998e-07 2.89930369e-07
      2.28158441e-07 2.16920753e-07 2.53160067e-07 3.25159732e-07
      3.39434052e-07 3.24127313e-07 3.58164243e-07 3.29668353e-07
      -4.17296846e-08 3.82050622e-08 4.81941171e-08 1.13496576e-07
      2.37953344e-07 9.57461310e-08 -7.52816973e-08 -7.72332740e-08
      1.95670509e-07 2.31804961e-07 1.40077830e-07 -1.50916113e-09
      -1.26143405e-07 -1.56559850e-07 1.39598129e-07 4.65355811e-07
      8.80958453e-07 1.23458778e-06 1.44199328e-06 1.30240278e-06
      1.02821434e-06 7.86886574e-07 7.97885718e-07 1.02082424e-06
      1.02988679e-06 5.24170275e-07 1.53931808e-07 -1.84048687e-07
      -2.86645928e-07 -2.21905012e-07 -1.13075750e-07 1.75890889e-07
      5.33970308e-07 8.83791756e-07 1.07644428e-06 1.20133109e-06
      1.21131586e-06 1.05171762e-06 7.76942727e-07 5.12891461e-07
      1.97352662e-07 1.09190061e-07 3.14762843e-07 3.36773184e-07
      1.77375370e-07 1.09036087e-07 1.86872313e-07 2.01863116e-07
      2.49795363e-07 2.93768977e-07 4.96833820e-07 5.36207551e-07
      -2.00257887e-07 -1.62573571e-07 -8.39668246e-08 3.57396921e-08
      1.06149393e-07 -2.69835621e-08 -1.50952630e-07 -9.63236175e-08
      1.37776155e-07 1.36172048e-07 1.03631812e-07 -4.98410699e-08
      -2.80842158e-07 -2.03266168e-07 1.13304594e-07 8.75347572e-10
      3.57832647e-07 9.91078764e-07 1.34212098e-06 1.32470393e-06
      1.02344393e-06 6.77253468e-07 5.32497666e-07 6.00803901e-07
      6.59916054e-07 5.41076417e-07 2.85429280e-07 -2.70032121e-08
      -9.51089447e-08 -1.60849410e-07 -1.77546497e-07 6.79564991e-08
      4.24052246e-07 9.92363653e-07 1.43714271e-06 1.64154835e-06
      1.52258610e-06 1.14579859e-06 7.66340577e-07 4.89636363e-07
      7.79491316e-08 3.29564642e-08 2.52686078e-07 2.70624810e-07
      1.64043769e-07 8.56954330e-08 1.91984554e-07 1.97455691e-07
      2.44222264e-07 4.00368407e-07 6.72068722e-07 7.90560364e-07
      -5.27824511e-07 -5.13247869e-07 -3.77787103e-07 -1.64562820e-07
      -6.77311363e-08 -1.46179019e-07 -1.73515801e-07 5.11539366e-10
      1.05116158e-07 3.97566424e-08 -4.75643240e-08 -2.46685801e-07
      -5.08941412e-07 -3.99751571e-07 -9.58017399e-09 -7.06381487e-09
      2.82024899e-07 9.36960248e-07 1.34922607e-06 1.29628245e-06
      1.22793028e-06 1.10796782e-06 9.24533595e-07 7.33674483e-07
      6.42384578e-07 4.49702299e-07 3.95882779e-07 7.52278169e-08
      5.87354592e-08 1.02119602e-09 -1.02360850e-07 3.13696518e-08
      3.17937122e-07 7.93536287e-07 1.17031527e-06 1.47425078e-06
      1.42517831e-06 1.10141752e-06 6.94060645e-07 3.18434019e-07
      -1.12064427e-07 -2.67310185e-07 -7.73604043e-08 3.40001023e-08
      9.38695948e-08 1.47565331e-07 1.98512296e-07 2.39436559e-07
      2.86552421e-07 6.29949852e-07 9.60655484e-07 1.08892004e-06
      -9.25715653e-07 -8.87916940e-07 -7.10162794e-07 -4.83498923e-07
      -2.90894121e-07 -2.05125147e-07 -2.17303466e-07 -1.06411385e-07
      -7.74442110e-09 -2.45132075e-08 -2.35948022e-07 -4.21411954e-07
      -6.79813240e-07 -5.99830287e-07 -3.66198947e-07 -1.93966471e-07
      3.77155089e-07 1.01309172e-06 1.21091477e-06 1.14616910e-06
      1.34068716e-06 1.62540550e-06 1.49432447e-06 1.19852166e-06
      9.15326552e-07 6.98375572e-07 5.92017898e-07 1.94477693e-07
      -3.47302418e-08 3.39482717e-08 -1.26292704e-07 -1.70855074e-07
      -4.64443950e-08 2.35660792e-07 3.67390356e-07 7.70255895e-07
      9.38710912e-07 7.70934946e-07 4.08079046e-07 8.89874769e-08
      -9.66805374e-08 -4.09171150e-07 -4.55018977e-07 -2.38953476e-07
      -7.09319963e-08 1.62093372e-07 2.55725098e-07 3.12211569e-07
      3.95062500e-07 7.37615551e-07 1.18788830e-06 1.37149652e-06
      -1.28676038e-06 -1.21820301e-06 -1.07258563e-06 -8.43776490e-07
      -5.60393801e-07 -3.84568779e-07 -4.13677469e-07 -3.61389510e-07
      -1.36491010e-07 -4.99754158e-08 -3.22296017e-07 -5.28959049e-07
      -5.33504931e-07 -4.18915846e-07 -2.44060317e-07 -4.72376598e-07
      -2.19816101e-07 3.72210309e-07 6.45242665e-07 6.94077869e-07
      1.12973032e-06 1.54461520e-06 1.38415919e-06 1.12580994e-06
      1.00581508e-06 8.07086451e-07 5.82366511e-07 2.96665291e-07
      1.47030065e-07 -4.01926599e-08 -1.67641701e-07 -4.45403344e-07
      -5.10012796e-07 -5.24893153e-07 -6.31622243e-07 -3.60384661e-07
      -4.17624122e-08 1.29713044e-07 -6.23032719e-08 -2.62963169e-07
      -2.86757370e-07 -3.48720192e-07 -4.42841639e-07 -3.28149895e-07
      -1.48574145e-07 9.96005767e-08 2.83968433e-07 4.11237522e-07
      5.06034326e-07 8.39683594e-07 1.20821119e-06 1.34298909e-06
      -1.46254661e-06 -1.36838992e-06 -1.29259490e-06 -1.15583532e-06
      -8.37779169e-07 -6.19232082e-07 -5.98205418e-07 -6.15601778e-07
      -4.14407623e-07 -1.12256210e-07 -1.57905916e-07 -3.47576417e-07
      -3.39078241e-07 -1.73944784e-07 1.77292890e-07 6.22458103e-08
      -1.96219233e-07 -2.81299464e-07 -1.73269299e-07 5.70038736e-08
      6.77186790e-07 1.17295428e-06 8.38580206e-07 5.62772470e-07
      8.01757608e-07 8.21220283e-07 6.31293233e-07 4.36603614e-07
      3.20485924e-07 1.76238771e-07 1.37629943e-08 -1.29462478e-07
      -3.71518155e-07 -5.39925736e-07 -8.44788076e-07 -8.64968627e-07
      -5.34923458e-07 -3.02570129e-07 -4.69573934e-07 -5.84274915e-07
      -4.39092787e-07 -2.97908684e-07 -2.60615451e-07 -5.28099946e-08
      5.23616315e-08 1.98216796e-07 3.23108338e-07 4.59608628e-07
      5.47606987e-07 7.52666665e-07 1.01549858e-06 1.04594801e-06
      -1.55975260e-06 -1.41603368e-06 -1.35939183e-06 -1.30490571e-06
      -1.02156662e-06 -7.79010975e-07 -6.91379000e-07 -7.84255974e-07
      -6.39385689e-07 -2.78239639e-07 -9.04095820e-09 -6.39610960e-08
      -2.84175776e-08 1.57294807e-07 5.39097755e-07 4.55299556e-07
      2.64905765e-07 2.95114244e-09 -2.25329401e-07 -1.76341828e-07
      2.97654111e-07 7.90933655e-07 6.93131824e-07 4.66544833e-07
      5.92981053e-07 7.40706639e-07 7.70966608e-07 7.09864992e-07
      4.46896820e-07 2.14824411e-07 3.31256132e-07 4.44814788e-07
      1.85299911e-07 1.18608298e-07 -3.15275713e-07 -5.91390233e-07
      -4.31262578e-07 -2.67199596e-07 -3.55711109e-07 -5.15404565e-07
      -3.16060692e-07 7.15920789e-09 4.08177030e-08 1.99147209e-07
      2.05543842e-07 3.08260724e-07 3.39906080e-07 4.14090209e-07
      5.24255370e-07 6.09341214e-07 6.92681397e-07 6.03195701e-07
      -1.58326475e-06 -1.43528359e-06 -1.39515964e-06 -1.34800860e-06
      -1.16048523e-06 -9.54776283e-07 -9.11674931e-07 -9.32421074e-07
      -6.97579992e-07 -3.81408796e-07 -2.38964645e-07 -1.33251632e-07
      1.16530288e-07 5.16212822e-07 9.36749530e-07 9.70311589e-07
      8.85738075e-07 6.69800158e-07 4.05607921e-07 7.50228466e-08
      1.48153973e-07 6.99975374e-07 1.01551279e-06 9.89240789e-07
      8.28886471e-07 7.72757801e-07 9.24779044e-07 8.86412010e-07
      6.11467271e-07 3.50724321e-07 4.08486045e-07 6.61932859e-07
      7.56775137e-07 7.64194056e-07 5.48314176e-07 -4.27504929e-08
      -1.10546274e-07 -8.16374950e-08 -2.15357730e-07 -3.05911300e-07
      -2.70142891e-07 -1.07682496e-07 -6.28296277e-08 7.95203903e-08
      8.29436928e-08 1.60863209e-07 1.13559139e-07 1.18103422e-07
      2.14647201e-07 2.49440234e-07 2.42454945e-07 1.65178591e-07
      -1.51779000e-06 -1.42750253e-06 -1.43782120e-06 -1.36631922e-06
      -1.22145582e-06 -1.14922216e-06 -1.20917878e-06 -1.15294267e-06
      -8.49107721e-07 -5.84711756e-07 -4.70941075e-07 -4.74526274e-07
      -5.73451189e-08 5.76505329e-07 1.10015674e-06 1.27686360e-06
      1.24465987e-06 1.09870052e-06 8.78841604e-07 4.64519275e-07
      2.34341982e-07 6.72530405e-07 1.32117316e-06 1.37166751e-06
      1.17932188e-06 1.03142065e-06 1.13631859e-06 9.91518732e-07
      6.88251703e-07 4.82898884e-07 4.86647082e-07 5.86052067e-07
      5.47051457e-07 5.85982377e-07 4.13852803e-07 1.33087283e-07
      2.23348238e-08 1.32758871e-07 1.03413669e-07 -6.10619040e-08
      -2.36539748e-07 -3.14882897e-07 -3.31595686e-07 -1.74065036e-07
      -1.04385087e-07 -3.98998807e-08 -1.00306792e-07 -1.05975595e-07
      -2.20537046e-07 -3.49459867e-07 -2.71963899e-07 -2.31150409e-07
      -1.54051713e-06 -1.55698388e-06 -1.56528790e-06 -1.43027364e-06
      -1.26822943e-06 -1.30772673e-06 -1.48374011e-06 -1.44574176e-06
      -1.12655300e-06 -9.13183612e-07 -8.55720657e-07 -9.11767643e-07
      -5.29224451e-07 1.56096689e-07 9.06806065e-07 1.32627906e-06
      1.37975371e-06 1.21484095e-06 9.84289613e-07 6.63004812e-07
      5.58933834e-07 7.51614493e-07 1.10226108e-06 1.25326289e-06
      1.13726014e-06 1.05865956e-06 1.07634935e-06 9.49149069e-07
      7.61433910e-07 6.95630263e-07 6.48536172e-07 4.98662871e-07
      3.37887883e-07 2.88923957e-07 -1.63815610e-08 -2.19794813e-07
      -7.32422549e-08 1.03713340e-07 1.55271522e-07 1.11767910e-07
      -3.25916005e-08 -2.41540761e-07 -4.80947961e-07 -3.98713922e-07
      -4.17827863e-07 -2.89381347e-07 -1.83670110e-07 -2.24240850e-07
      -3.52085209e-07 -5.08862513e-07 -5.16466741e-07 -4.76720942e-07
      -1.77321056e-06 -1.90347600e-06 -1.82794975e-06 -1.54613906e-06
      -1.41956684e-06 -1.45601700e-06 -1.52033260e-06 -1.38735300e-06
      -1.32484149e-06 -1.29320426e-06 -1.24027929e-06 -1.24218195e-06
      -9.73051442e-07 -3.77901074e-07 4.02613239e-07 9.05984223e-07
      1.17842603e-06 1.17283844e-06 9.59097065e-07 7.40235237e-07
      7.21415518e-07 7.79702077e-07 8.96384051e-07 8.69289977e-07
      8.20528612e-07 8.00736075e-07 7.74185651e-07 7.00117425e-07
      7.34713467e-07 8.50201900e-07 8.47294814e-07 5.25598864e-07
      3.20302490e-07 1.31325876e-07 -9.53996633e-08 -2.57631598e-07
      -1.67683766e-07 -6.91348205e-08 1.62941731e-08 3.26267440e-08
      -1.18488018e-07 -3.68818519e-07 -5.18456318e-07 -3.83177934e-07
      -5.28409146e-07 -6.43932140e-07 -4.52653182e-07 -2.44802152e-07
      -3.14520520e-07 -4.04081902e-07 -3.59608038e-07 -3.56614663e-07
      -2.07501557e-06 -2.24546375e-06 -2.30831438e-06 -2.12266059e-06
      -1.87114119e-06 -1.72729733e-06 -1.43793216e-06 -1.15045225e-06
      -1.17098955e-06 -1.28270074e-06 -1.33416643e-06 -1.22514791e-06
      -9.62568606e-07 -4.87110356e-07 1.30562185e-07 5.92060530e-07
      9.17089324e-07 1.09272639e-06 1.04386584e-06 8.14486498e-07
      7.07944025e-07 6.87639897e-07 6.49526214e-07 5.25655992e-07
      4.84433031e-07 4.56986385e-07 4.49061616e-07 3.59142575e-07
      3.62137001e-07 6.40951782e-07 7.93927882e-07 5.50341724e-07
      2.55395861e-07 3.93790334e-09 -5.21899572e-08 -4.84252674e-08
      7.86848844e-08 1.74910639e-07 1.84417289e-07 -7.87333132e-09
      -2.99513573e-07 -5.36399568e-07 -4.55534519e-07 -7.23721101e-08
      -2.10715399e-07 -6.31192506e-07 -6.54163784e-07 -4.65405151e-07
      -2.82933826e-07 -2.36306505e-07 -1.49963654e-07 -1.18598543e-07
      -2.28000386e-06 -2.45678257e-06 -2.63241304e-06 -2.51156712e-06
      -2.31291551e-06 -2.12259215e-06 -1.70160467e-06 -1.18206708e-06
      -1.18715423e-06 -1.08344045e-06 -8.45694899e-07 -6.21226377e-07
      -3.32919569e-07 8.86258036e-08 4.22220864e-07 4.78281095e-07
      6.43603187e-07 9.17204659e-07 9.86275609e-07 7.81232814e-07
      6.58765487e-07 6.24582754e-07 5.09339998e-07 3.61820696e-07
      3.29191806e-07 1.34349534e-07 1.27365567e-07 9.22904277e-08
      1.00194555e-07 3.42674184e-07 5.44448199e-07 4.19424794e-07
      1.32928378e-07 -1.45633706e-07 -8.73328077e-08 7.00367480e-08
      3.48032188e-07 6.63221215e-07 7.35057483e-07 3.70081352e-07
      -1.11142967e-07 -5.14498197e-07 -4.91210642e-07 1.03188995e-08
      2.12346887e-08 -4.40824948e-07 -6.77097546e-07 -6.37808682e-07
      -4.31089063e-07 -2.77811182e-07 -2.83222708e-08 8.98903991e-08
      -2.16974422e-06 -2.31692184e-06 -2.54056613e-06 -2.51911069e-06
      -2.32759066e-06 -2.06925188e-06 -1.75721755e-06 -1.38349662e-06
      -1.29610180e-06 -1.13351916e-06 -7.04166382e-07 -2.80185077e-07
      2.06398838e-07 7.61822434e-07 9.51755624e-07 7.49807612e-07
      5.82779990e-07 5.88865305e-07 6.34600951e-07 5.45201544e-07
      3.85286370e-07 2.50461255e-07 1.82302287e-07 2.85140544e-07
      2.89348577e-07 4.66385721e-08 4.14424903e-08 8.97469832e-09
      -2.13471594e-07 -1.92239980e-07 2.00890256e-07 1.84655505e-07
      -6.97086406e-08 -2.34206368e-07 -2.37231475e-07 -1.46995873e-07
      1.20462033e-07 6.43554245e-07 8.87015688e-07 7.23411063e-07
      2.06964714e-07 -2.72020401e-07 -4.12414010e-07 -1.04109056e-07
      2.50449439e-10 -2.96188688e-07 -6.11355802e-07 -7.21639140e-07
      -5.86991860e-07 -5.47518766e-07 -4.44043053e-07 -4.06575538e-08
      -1.97438658e-06 -2.06349227e-06 -2.30952810e-06 -2.25457916e-06
      -1.99220995e-06 -1.65780534e-06 -1.51547283e-06 -1.36826452e-06
      -1.30118462e-06 -1.02570345e-06 -7.48791592e-07 -2.69568858e-07
      3.54327625e-07 9.76766046e-07 1.19244362e-06 9.64528340e-07
      6.30287218e-07 3.92286694e-07 2.35771878e-07 1.05297090e-07
      -2.40372824e-08 -3.39669498e-07 -4.75406097e-07 -3.14295448e-07
      -1.81866355e-07 -4.02321973e-07 -2.78138401e-07 -4.03023819e-08
      -3.15417054e-07 -5.65437006e-07 -5.03037256e-07 -3.12380365e-07
      -3.90730833e-07 -4.12348641e-07 -4.50315810e-07 -4.22738367e-07
      -2.98230560e-07 1.46567176e-08 3.15485806e-07 4.81302777e-07
      2.01734807e-07 -1.83942021e-07 -2.76703133e-07 -1.73549026e-07
      -1.72726203e-07 -2.83310527e-07 -5.27475891e-07 -5.42899954e-07
      -5.46709146e-07 -6.88543309e-07 -7.33291643e-07 -4.29264588e-07
      -1.85815873e-06 -1.95595862e-06 -2.17221259e-06 -2.03190348e-06
      -1.65024926e-06 -1.28287115e-06 -1.18457535e-06 -1.09835366e-06
      -9.10379697e-07 -6.75772526e-07 -5.91484593e-07 -3.46791381e-07
      2.02167442e-07 6.08353730e-07 7.23983987e-07 5.39809150e-07
      2.89181827e-07 9.26634840e-08 -2.83222136e-07 -3.59819666e-07
      -4.61367591e-07 -7.50650145e-07 -1.06008792e-06 -1.25796350e-06
      -1.28916906e-06 -1.39637530e-06 -1.25726649e-06 -8.63039020e-07
      -6.52872814e-07 -7.21537390e-07 -7.87418344e-07 -8.32424860e-07
      -6.90659022e-07 -6.27645079e-07 -7.63484252e-07 -8.97668201e-07
      -7.89939918e-07 -4.72566512e-07 -2.08903870e-07 -9.89948177e-08
      -3.25646312e-07 -6.47799027e-07 -5.27939164e-07 -2.15761006e-07
      -2.55174882e-07 -3.45384422e-07 -5.47536445e-07 -4.18589366e-07
      -3.52773327e-07 -4.58774309e-07 -5.19658897e-07 -3.83786926e-07
      -2.22522772e-06 -2.21431878e-06 -2.14703141e-06 -1.83396605e-06
      -1.42527153e-06 -1.07323740e-06 -8.71735551e-07 -7.61817830e-07
      -6.37971027e-07 -5.75539673e-07 -6.20063531e-07 -5.81122151e-07
      -3.04584489e-07 -1.32292882e-07 -2.06465742e-07 -2.24888041e-07
      -2.77017961e-07 -4.61196151e-07 -7.69664439e-07 -9.16963813e-07
      -8.72279998e-07 -9.54073244e-07 -1.39567612e-06 -1.87602825e-06
      -2.14882061e-06 -2.24657697e-06 -2.13973794e-06 -1.93882511e-06
      -1.54827444e-06 -1.43603154e-06 -1.48112258e-06 -1.39967688e-06
      -1.14936529e-06 -8.31241834e-07 -9.59427780e-07 -1.18152889e-06
      -1.04192600e-06 -8.23854009e-07 -6.77517733e-07 -5.18903050e-07
      -6.93317247e-07 -1.02534113e-06 -1.19185302e-06 -9.47037961e-07
      -8.29837290e-07 -7.48667844e-07 -9.15364353e-07 -7.47759714e-07
      -5.16833268e-07 -3.51286275e-07 -3.16510068e-07 -3.97004783e-07
      -2.32353909e-06 -2.24673363e-06 -2.17611887e-06 -1.75903506e-06
      -1.29899354e-06 -8.73207284e-07 -4.88253079e-07 -4.21196916e-07
      -4.31125045e-07 -4.88815147e-07 -6.69931467e-07 -7.81196150e-07
      -8.28619932e-07 -8.91562820e-07 -1.11557790e-06 -1.33629248e-06
      -1.05724735e-06 -8.48923492e-07 -1.08602717e-06 -1.24272913e-06
      -1.15905971e-06 -1.28495992e-06 -1.66106531e-06 -2.12120312e-06
      -2.50503103e-06 -2.70162241e-06 -2.57391662e-06 -2.34792765e-06
      -2.00483055e-06 -1.93789015e-06 -2.07304947e-06 -1.99805390e-06
      -1.78618143e-06 -1.45293950e-06 -1.29450211e-06 -1.32191201e-06
      -1.25853342e-06 -1.16862043e-06 -9.94528364e-07 -7.63987202e-07
      -6.50048094e-07 -7.80906703e-07 -1.13802173e-06 -1.49877621e-06
      -1.60162699e-06 -1.45802574e-06 -1.42657586e-06 -1.26400471e-06
      -9.91971660e-07 -6.47818240e-07 -5.35148445e-07 -6.42055284e-07
      -2.13975432e-06 -2.07745120e-06 -1.94274230e-06 -1.66040456e-06
      -1.33069398e-06 -7.91209573e-07 -2.06402149e-07 -3.05435179e-08
      -4.80057416e-08 -1.39078537e-07 -2.78867418e-07 -5.76121636e-07
      -8.22552636e-07 -1.12723228e-06 -1.70249882e-06 -2.11955989e-06
      -1.93655046e-06 -1.49391281e-06 -1.45335173e-06 -1.38066002e-06
      -1.32428022e-06 -1.51718086e-06 -1.86639352e-06 -2.13717544e-06
      -2.43810791e-06 -2.75275147e-06 -2.59874469e-06 -2.35674793e-06
      -2.04228331e-06 -1.97289410e-06 -2.08999381e-06 -2.03102036e-06
      -1.99225587e-06 -1.91685058e-06 -1.82317763e-06 -1.74300760e-06
      -1.50288815e-06 -1.67576798e-06 -1.62861215e-06 -1.13555927e-06
      -4.92925210e-07 -2.58077762e-07 -5.96864140e-07 -1.29118541e-06
      -1.87648106e-06 -1.89951322e-06 -1.79433027e-06 -1.67167298e-06
      -1.38013536e-06 -9.75375883e-07 -7.64802053e-07 -7.74305022e-07
      -1.57362751e-06 -1.75848925e-06 -1.72674856e-06 -1.46190109e-06
      -1.33514118e-06 -8.72160399e-07 -2.88468129e-07 -1.47599888e-08
      -1.09480309e-08 -2.03346779e-08 -3.03033900e-08 -8.89523690e-08
      -4.77666731e-07 -1.03575337e-06 -1.81332075e-06 -2.23795473e-06
      -2.39743781e-06 -2.33377818e-06 -1.96244105e-06 -1.60981290e-06
      -1.53719134e-06 -1.64846551e-06 -1.95671532e-06 -2.03967807e-06
      -2.12217901e-06 -2.44528064e-06 -2.47249477e-06 -2.25467875e-06
      -1.99427359e-06 -1.90739979e-06 -1.91579193e-06 -1.81346911e-06
      -1.71904821e-06 -1.93294727e-06 -1.99357078e-06 -2.14721240e-06
      -2.01565990e-06 -1.90002038e-06 -2.08718347e-06 -1.85128158e-06
      -1.12457735e-06 -4.00790299e-07 -3.81849759e-07 -9.94561674e-07
      -1.68564986e-06 -1.91647314e-06 -1.89016237e-06 -1.87926651e-06
      -1.54673739e-06 -1.09519578e-06 -6.33185493e-07 -5.10018140e-07
      -6.66234314e-07 -9.36415290e-07 -1.02691706e-06 -1.08924519e-06
      -1.15250259e-06 -7.82841596e-07 -3.74262015e-07 -2.34102643e-07
      -3.93119251e-07 -5.06157050e-07 -5.14949761e-07 -2.57649873e-07
      -2.76684261e-07 -9.04648005e-07 -1.58232467e-06 -1.91851723e-06
      -2.27920532e-06 -2.62000208e-06 -2.29385796e-06 -1.63376308e-06
      -1.42710530e-06 -1.72149703e-06 -1.83575662e-06 -1.87246906e-06
      -1.78177220e-06 -1.92653033e-06 -2.05465130e-06 -1.97881104e-06
      -1.93724918e-06 -1.86501745e-06 -1.90114781e-06 -1.80092468e-06
      -1.51702807e-06 -1.59526439e-06 -1.86458556e-06 -2.24983660e-06
      -2.14534725e-06 -1.95268058e-06 -2.15196678e-06 -2.13227804e-06
      -1.69782982e-06 -1.18735466e-06 -9.58180976e-07 -1.19791525e-06
      -1.63502318e-06 -1.75517141e-06 -1.78500488e-06 -1.87592673e-06
      -1.56949432e-06 -1.03694367e-06 -4.11237494e-07 -2.24442360e-07
      -8.04077018e-08 -3.14132848e-07 -5.21691845e-07 -7.56094039e-07
      -1.05925494e-06 -1.01780984e-06 -6.78499418e-07 -6.08133746e-07
      -7.72000874e-07 -9.56368922e-07 -9.35763921e-07 -8.27310032e-07
      -7.27444387e-07 -8.38861524e-07 -1.27008138e-06 -1.41662099e-06
      -1.83500867e-06 -2.29004536e-06 -2.15043428e-06 -1.54773591e-06
      -1.25167185e-06 -1.51126119e-06 -1.60250602e-06 -1.47953392e-06
      -1.35450875e-06 -1.46108482e-06 -1.56296380e-06 -1.55867122e-06
      -1.54970803e-06 -1.56233909e-06 -1.79901224e-06 -1.79525921e-06
      -1.47118078e-06 -1.45225431e-06 -1.90822652e-06 -2.33388073e-06
      -2.28929889e-06 -1.97897020e-06 -1.73561114e-06 -1.65112363e-06
      -1.47409526e-06 -1.36052165e-06 -1.50901576e-06 -1.67648864e-06
      -1.77629317e-06 -1.73891237e-06 -1.77581808e-06 -1.81332041e-06
      -1.55523651e-06 -1.09464827e-06 -4.18408888e-07 -7.43323696e-08
      7.26101135e-08 -2.24570414e-07 -5.55414772e-07 -8.86658597e-07
      -1.23120196e-06 -1.31429920e-06 -1.10203109e-06 -1.16596038e-06
      -1.29177533e-06 -1.41194266e-06 -1.43476723e-06 -1.42902388e-06
      -1.38699556e-06 -1.25804468e-06 -1.21284972e-06 -1.21858193e-06
      -1.66840528e-06 -1.99714714e-06 -1.80575830e-06 -1.35179448e-06
      -1.16348895e-06 -1.26412215e-06 -1.31417517e-06 -1.12488965e-06
      -8.87866577e-07 -9.82091024e-07 -1.20044626e-06 -1.20890513e-06
      -1.12774046e-06 -1.16929937e-06 -1.41873250e-06 -1.60807406e-06
      -1.47184676e-06 -1.45377726e-06 -2.00194449e-06 -2.56815019e-06
      -2.44402372e-06 -2.02825777e-06 -1.46499337e-06 -1.04122228e-06
      -8.15609098e-07 -9.12063911e-07 -1.34013692e-06 -1.66537359e-06
      -1.81087194e-06 -1.76454989e-06 -1.86519787e-06 -1.78603625e-06
      -1.54141821e-06 -1.26823329e-06 -6.26748943e-07 -1.18188183e-07
      -2.31287522e-08 -3.82030578e-07 -7.83247913e-07 -1.17821776e-06
      -1.53843598e-06 -1.56272506e-06 -1.42242652e-06 -1.51978190e-06
      -1.65469862e-06 -1.62128856e-06 -1.74376214e-06 -1.93597430e-06
      -2.02214210e-06 -1.84605062e-06 -1.69718896e-06 -1.51079655e-06
      -1.78334540e-06 -2.03258492e-06 -1.80238305e-06 -1.43214834e-06
      -1.21617393e-06 -1.27668056e-06 -1.21860194e-06 -9.43280725e-07
      -6.98452823e-07 -7.86513226e-07 -1.05059610e-06 -1.12326359e-06
      -1.02939703e-06 -1.10013923e-06 -1.31545005e-06 -1.50186804e-06
      -1.55789235e-06 -1.63965910e-06 -2.00468821e-06 -2.57472038e-06
      -2.57811666e-06 -1.97742656e-06 -1.40491431e-06 -8.54867722e-07
      -5.11708492e-07 -5.02488774e-07 -1.00086856e-06 -1.36633582e-06
      -1.60864079e-06 -1.70601618e-06 -1.89276716e-06 -1.80336326e-06
      -1.46329944e-06 -1.22942254e-06 -7.05768741e-07 -1.15463358e-07
      1.12293336e-07 -2.23065655e-08 -8.00382836e-08 -8.00486646e-08
      1.08860210e-08 5.73438754e-08 -1.02907720e-07 -2.57684007e-07
      -1.54066598e-07 -4.67573642e-08 -4.51701183e-08 9.11481379e-08
      1.64812761e-07 9.56791766e-08 1.12023727e-07 1.29995541e-07
      1.12427294e-07 6.13636715e-08 -5.83865578e-08 -1.15290241e-07
      -1.07772005e-08 1.10310808e-07 1.64850917e-07 8.03254920e-08
      8.21462223e-08 6.39917275e-08 1.24401126e-07 1.75219768e-07
      8.02120681e-08 1.22727243e-07 2.39225017e-07 3.04242576e-07
      1.49416366e-07 3.36476731e-08 9.98586671e-08 3.42655007e-08
      -1.45216077e-07 -1.44585286e-07 6.87970170e-09 5.83498085e-08
      1.31664644e-08 -5.41910339e-08 -6.90750124e-09 1.11211307e-07
      7.88042414e-08 -1.90852472e-08 -7.91048915e-09 -1.66234653e-08
      3.88471157e-08 1.68862144e-07 2.60121340e-07 3.41516397e-07
      -3.21329519e-09 1.18106698e-08 -4.22877484e-08 -8.95649634e-08
      -7.42703676e-08 4.59472318e-08 7.80981892e-08 2.70428124e-09
      -1.21021770e-07 -1.29102036e-08 3.66674477e-08 -5.83063944e-08
      1.33079652e-07 1.40333725e-07 4.43301325e-08 5.68042040e-08
      8.54691677e-08 1.02303311e-07 3.85707217e-08 -7.13606738e-08
      -6.26706793e-08 7.61958816e-08 1.38337256e-07 1.30028866e-07
      9.91260976e-08 1.07644240e-07 1.17653286e-07 2.07351732e-07
      1.63191061e-07 4.19257944e-08 9.60320534e-08 2.53849379e-07
      2.32447420e-07 6.61467752e-08 -2.01481871e-08 3.19379474e-08
      -4.88590217e-08 -1.58947202e-07 -6.05772357e-08 5.46473373e-08
      4.90920868e-08 -1.01667702e-07 -1.25831164e-07 -2.74870349e-08
      9.08695910e-08 3.36204984e-08 -6.87171422e-08 -9.58109112e-08
      -7.28902165e-08 4.87070935e-08 2.17278668e-07 2.79367669e-07
      -1.25438532e-07 -2.80261059e-08 -3.32392851e-08 -6.07769763e-08
      -9.08443596e-08 -1.94863308e-08 8.25122015e-08 9.39321936e-08
      -5.13497831e-08 -5.75926329e-08 1.63353988e-08 -1.39937359e-08
      -1.11248450e-08 1.47352921e-07 9.46566416e-08 4.20078976e-08
      4.23490256e-08 7.61319185e-08 1.06489793e-07 3.02892573e-08
      -6.07450730e-08 -3.78265526e-08 8.61484111e-08 1.11430467e-07
      1.42825414e-07 1.07087899e-07 1.26161297e-07 1.81765131e-07
      2.59061778e-07 1.37585459e-07 5.36976952e-09 8.30028668e-08
      1.72592493e-07 1.24950986e-07 -6.05632238e-08 -1.38116164e-07
      2.47503706e-09 -6.66621558e-09 -7.71089859e-08 -4.66923780e-08
      2.36422579e-08 -1.03537076e-07 -2.35909937e-07 -1.35813082e-07
      7.36023242e-09 7.23480653e-08 -1.31627589e-08 -1.71974094e-07
      -2.14231108e-07 -1.45829318e-07 7.87107552e-08 2.41382878e-07
      -6.38227107e-08 -8.66564278e-08 -2.38289406e-08 -3.31601271e-08
      -6.56736745e-08 -4.33021690e-08 -2.51219756e-09 8.56043556e-08
      5.46271401e-08 -1.29332065e-07 -1.00249743e-07 -1.85162978e-08
      1.65785767e-08 9.02286672e-08 1.30958327e-07 6.99061360e-08
      7.76118156e-08 1.82499633e-08 5.44081793e-08 9.96479415e-08
      -2.92380378e-08 -1.44292684e-07 -1.01837045e-07 -1.50021606e-09
      9.95784930e-08 8.81744313e-08 4.38420109e-08 1.00177402e-07
      1.74115129e-07 2.08695695e-07 6.37652278e-08 -3.70954929e-08
      2.92241999e-08 7.26098079e-08 3.25523715e-08 -1.76498247e-07
      -1.58488135e-07 4.51622100e-08 6.39392468e-08 2.00021137e-08
      -3.44811824e-08 -9.07543409e-08 -2.49649730e-07 -2.01459912e-07
      -7.05452479e-08 7.64701511e-08 5.33614966e-08 -8.74931558e-08
      -2.40175211e-07 -2.56339234e-07 -7.26539326e-08 1.77214588e-07
      1.18153011e-07 -2.67097491e-08 -9.45923162e-08 -3.34216987e-10
      -4.39405135e-08 -4.48580835e-08 -8.35704217e-09 -3.62916239e-08
      3.98877802e-08 -7.49833902e-08 -2.25793599e-07 -1.56249612e-07
      3.99051903e-09 1.02524893e-07 2.01797391e-07 1.02575193e-07
      6.19196072e-08 3.54636569e-08 -5.11987999e-08 3.38150912e-08
      7.48629745e-08 -8.51825988e-08 -2.13598256e-07 -1.69403606e-07
      -5.45846603e-08 1.42691343e-08 -3.73610760e-08 -4.74660169e-08
      4.02289970e-08 9.48750909e-08 5.78299826e-08 -6.44114735e-08
      -1.31179263e-07 -4.93105112e-08 -5.89163029e-09 -4.76373465e-08
      -1.87262586e-07 -1.30129962e-07 3.71623443e-08 4.58715839e-08
      3.61740291e-08 -9.29375616e-08 -1.83755176e-07 -1.82327724e-07
      -1.08849910e-07 -1.83705247e-08 8.55837285e-08 5.12863885e-08
      -9.20482250e-08 -1.51176906e-07 -1.00953336e-07 1.04811342e-07
      1.72494993e-07 1.42856820e-07 -5.75576529e-08 -9.26960837e-08
      1.02554409e-08 -2.11773123e-08 -1.35004485e-09 -6.13621438e-08
      -1.01788359e-07 -1.23388219e-07 -2.47666520e-07 -3.01326509e-07
      -1.92211957e-07 -1.02991047e-08 1.63914450e-07 1.87318633e-07
      5.79712669e-08 1.03964384e-08 -8.16594650e-08 -1.30222375e-07
      -4.11376178e-08 1.72833605e-08 -8.39796996e-08 -1.71846281e-07
      -1.52821826e-07 -8.58985061e-08 -1.23970267e-07 -1.62969798e-07
      -8.18852612e-08 -2.27744632e-08 -6.32648494e-08 -1.27818296e-07
      -2.48031796e-07 -1.99660292e-07 -8.47289954e-08 -1.25939685e-08
      -5.05256850e-08 -1.98892607e-07 -1.57040930e-07 -2.08406359e-08
      -2.67230824e-08 -1.03665641e-07 -1.74509665e-07 -1.79716821e-07
      -1.19811020e-07 -4.67790873e-09 9.90918849e-08 1.77876089e-07
      2.63391655e-08 -3.97955517e-08 -1.57120290e-08 5.28082040e-08
      1.05495708e-07 8.52737401e-08 1.85756228e-08 -1.52394577e-07
      -5.47972334e-08 6.46609166e-08 9.44949097e-09 -8.22421669e-08
      -1.10081331e-07 -1.68549960e-07 -2.26201209e-07 -2.90502555e-07
      -2.81920308e-07 -2.38693673e-07 -6.04410175e-08 7.44805106e-08
      7.26800025e-08 -2.26191563e-08 -9.99071332e-08 -1.95094785e-07
      -2.07178246e-07 -1.04504302e-07 -5.12322629e-08 -9.45239336e-08
      -6.39656790e-08 -4.11961629e-08 -9.50070884e-08 -1.52430658e-07
      -1.36870739e-07 -7.76815625e-08 -1.15436457e-07 -2.07065710e-07
      -3.06659700e-07 -3.11557244e-07 -1.52911241e-07 -1.10486260e-08
      6.13532052e-08 -2.28900383e-08 -1.97704480e-07 -2.05205765e-07
      -2.06959555e-07 -2.69840683e-07 -2.98989590e-07 -3.14460209e-07
      -2.53173482e-07 -1.14074489e-07 -3.88507537e-09 7.76564235e-08
      1.53075931e-07 4.28522107e-08 -3.49932598e-08 3.52521283e-08
      5.91145550e-08 1.61936651e-08 -6.45860325e-08 -1.45302778e-07
      -1.61626659e-07 3.85603656e-08 1.32962455e-07 -8.16569283e-08
      -2.21306621e-07 -2.08981902e-07 -2.32623478e-07 -2.37238595e-07
      -3.03498325e-07 -3.63586054e-07 -3.10524911e-07 -1.71573078e-07
      -7.13906800e-08 -1.01722242e-09 -5.08243581e-08 -1.80520203e-07
      -2.81125693e-07 -2.64755357e-07 -1.33451820e-07 -8.51836148e-08
      -1.03904924e-07 4.96469177e-08 7.08541279e-08 8.50360848e-09
      -8.55087663e-08 -7.74551552e-08 -2.11210942e-08 -1.33893280e-07
      -2.85627181e-07 -3.15112857e-07 -2.43397153e-07 -5.17959222e-08
      6.97160019e-08 3.27938245e-08 -7.48112470e-08 -2.10811123e-07
      -2.59987473e-07 -4.18079026e-07 -4.75909019e-07 -5.00175190e-07
      -5.00821784e-07 -3.84726093e-07 -2.11661231e-07 -1.27432656e-07
