<?xml version="1.0"?>
<opencv_storage>
<my_svm type_id="opencv-ml-svm">
  <svm_type>C_SVC</svm_type>
  <kernel><type>LINEAR</type></kernel>
  <C>1.</C>
  <term_criteria><epsilon>2.2204460492503131e-16</epsilon>
    <iterations>1000000</iterations></term_criteria>
  <var_all>108160</var_all>
  <var_count>108160</var_count>
  <class_count>2</class_count>
  <class_labels type_id="opencv-matrix">
    <rows>1</rows>
    <cols>2</cols>
    <dt>i</dt>
    <data>
      0 1</data></class_labels>
  <sv_total>1</sv_total>
  <support_vectors>
    <_>
      -5.36490143e-06 -5.25456744e-06 -4.82797668e-06 -4.12065174e-06
      -3.51110498e-06 -3.32555578e-06 -3.48288950e-06 -3.92259290e-06
      -4.44155467e-06 -4.77557478e-06 -4.89903823e-06 -4.89364174e-06
      -4.68998951e-06 -4.37253811e-06 -3.85257999e-06 -3.17739864e-06
      -2.46164200e-06 -1.41107898e-06 -5.80266146e-07 -4.26070528e-07
      -5.74297133e-07 -9.18374781e-07 -1.28576301e-06 -1.74021704e-06
      -2.23329880e-06 -2.77866434e-06 -3.16024830e-06 -3.32138484e-06
      -3.22011624e-06 -3.01607020e-06 -2.67009159e-06 -2.43912996e-06
      -2.29474745e-06 -2.36721144e-06 -2.71538011e-06 -3.25945484e-06
      -3.73428293e-06 -3.74611818e-06 -3.42897920e-06 -3.08709332e-06
      -2.40709460e-06 -1.62637070e-06 -9.03337707e-07 1.17587618e-07
      1.23233690e-06 2.27788337e-06 3.32970126e-06 3.87741648e-06
      4.10736266e-06 3.62290280e-06 3.80878282e-06 3.88381432e-06
      4.94823951e-07 5.23627364e-07 6.17094429e-07 8.36638549e-07
      9.64671585e-07 9.87103363e-07 6.41810743e-07 1.07585038e-07
      -4.80909875e-07 -1.09888140e-06 -1.58055718e-06 -1.91155550e-06
      -2.14682700e-06 -2.15019168e-06 -1.90358878e-06 -1.46621153e-06
      -8.85126781e-07 -2.90559655e-07 2.63738627e-07 6.96424593e-07
      8.80011896e-07 8.00597491e-07 5.77952278e-07 2.39138075e-07
      -1.25752493e-07 -4.47180582e-07 -6.73035515e-07 -8.19272145e-07
      -8.10233587e-07 -7.17387366e-07 -6.28424516e-07 -5.99304542e-07
      -6.91247749e-07 -9.21866445e-07 -1.17168452e-06 -1.37372706e-06
      -1.46819821e-06 -1.45438014e-06 -1.30729404e-06 -1.24650660e-06
      -1.39776432e-06 -1.69537304e-06 -1.89134255e-06 -1.72958312e-06
      -1.22579331e-06 -4.44668359e-07 3.43138282e-07 9.37231619e-07
      1.29118359e-06 1.44099397e-06 1.33604658e-06 1.28548140e-06
      3.27315229e-06 3.16106980e-06 2.82473684e-06 2.51070765e-06
      2.22988592e-06 2.11557517e-06 2.05067204e-06 1.88611602e-06
      1.68560064e-06 1.34245056e-06 1.00602836e-06 7.66315225e-07
      5.79422476e-07 5.68000530e-07 6.97481596e-07 9.15926648e-07
      1.12232601e-06 1.31013144e-06 1.45059312e-06 1.58679279e-06
      1.68429631e-06 1.58686578e-06 1.41210216e-06 1.10616816e-06
      7.32321212e-07 4.25127922e-07 1.84240278e-07 -2.05832205e-08
      -1.76929063e-07 -2.94038216e-07 -3.93867168e-07 -3.67019311e-07
      -2.10987537e-07 1.84065385e-07 7.84295025e-07 1.36670292e-06
      1.87055286e-06 2.07433231e-06 1.83565908e-06 1.10630640e-06
      5.34378835e-08 -1.05245658e-06 -1.92383050e-06 -2.33966489e-06
      -2.35041102e-06 -1.97356053e-06 -1.36670405e-06 -1.04527396e-06
      -1.13344379e-06 -1.35450171e-06 -1.57640136e-06 -1.64288724e-06
      2.05575316e-06 1.86933244e-06 1.29379225e-06 6.93851291e-07
      1.90170852e-07 -4.09889253e-07 -8.18912554e-07 -1.09575171e-06
      -1.37859604e-06 -1.73319268e-06 -1.91601430e-06 -1.89817001e-06
      -1.75592504e-06 -1.33485105e-06 -7.28252246e-07 -1.21373773e-07
      6.37570110e-07 1.21695768e-06 1.49069979e-06 1.49454365e-06
      1.52196708e-06 1.41251087e-06 1.30268484e-06 1.18299670e-06
      9.57611519e-07 5.81643235e-07 9.63319877e-08 -4.25573489e-07
      -9.21970582e-07 -1.22749771e-06 -1.18525338e-06 -7.96096913e-07
      -1.71974648e-07 4.65004575e-07 9.64318815e-07 1.27074259e-06
      1.35303640e-06 1.03388629e-06 3.29157444e-07 -7.37797279e-07
      -1.87175704e-06 -2.48726769e-06 -2.68261783e-06 -2.29123793e-06
      -1.47375283e-06 -5.68789233e-07 8.01632680e-08 5.09772462e-07
      6.50422976e-07 5.31993919e-07 3.22457907e-07 2.53137614e-07
      1.62293441e-06 1.64812297e-06 1.81486143e-06 1.81096948e-06
      9.51381196e-07 -2.95687386e-07 -1.42842941e-06 -2.61008586e-06
      -3.84971827e-06 -4.85155442e-06 -5.39575603e-06 -5.38335553e-06
      -5.04135414e-06 -4.40986832e-06 -3.63936056e-06 -2.97074507e-06
      -2.35996663e-06 -1.61708738e-06 -7.93437039e-07 -3.97097537e-08
      5.87423926e-07 5.27834970e-07 3.82043424e-07 3.76730839e-07
      4.36585111e-07 3.73538484e-07 2.25919536e-07 2.97731830e-08
      -2.08364867e-07 -3.58001046e-07 -3.13341900e-07 -2.67885667e-07
      -1.38632743e-07 -1.92470981e-08 -1.60516748e-07 -7.12600325e-08
      -2.33622401e-08 -3.80542019e-07 -1.10031385e-06 -1.93801020e-06
      -2.63161610e-06 -3.06824040e-06 -3.26411896e-06 -3.11429085e-06
      -2.14735360e-06 -8.13961833e-07 1.29212651e-07 8.42873476e-07
      1.16501030e-06 1.29418333e-06 1.32002253e-06 1.32909929e-06
      2.12639861e-06 1.91501067e-06 1.23390816e-06 -7.14856796e-08
      -1.57816476e-06 -2.60729644e-06 -3.65789469e-06 -4.69429142e-06
      -5.55122824e-06 -6.13605334e-06 -6.29384795e-06 -6.00447038e-06
      -5.48586422e-06 -4.89849526e-06 -4.35614447e-06 -4.05777382e-06
      -3.90125069e-06 -3.68964766e-06 -2.32741377e-06 -8.30077795e-07
      -3.50799461e-08 -1.44207618e-07 -7.75461388e-07 -1.29046555e-06
      -1.44368096e-06 -1.37397899e-06 -1.28285103e-06 -1.26720590e-06
      -1.36924268e-06 -1.61615856e-06 -1.79012386e-06 -1.70438261e-06
      -1.27269004e-06 -1.15832370e-06 -4.87016848e-07 5.12606675e-07
      1.15740943e-06 1.37318705e-06 1.39636290e-06 1.07827736e-06
      5.43475664e-07 1.80472938e-07 1.21112294e-08 6.05983388e-08
      6.02678313e-07 1.25912652e-06 1.64836706e-06 1.74938577e-06
      1.45868660e-06 9.08008474e-07 4.16952702e-07 2.26235230e-07
      2.84313131e-07 1.16214451e-07 -5.60745150e-07 -1.77359857e-06
      -2.92294726e-06 -4.29518559e-06 -5.40807196e-06 -5.76151797e-06
      -5.50386994e-06 -5.01315208e-06 -4.29648162e-06 -3.47695982e-06
      -2.75312050e-06 -2.41287125e-06 -2.44740227e-06 -2.64170308e-06
      -2.71702129e-06 -2.33358401e-06 -1.36053086e-06 1.47939389e-07
      1.29503417e-06 2.08667052e-06 1.70480280e-06 1.14183740e-06
      7.58046042e-07 7.03836349e-07 7.49641231e-07 6.99384316e-07
      3.96226568e-07 -5.22895576e-08 -5.55321833e-07 -8.31431521e-07
      -7.05916591e-07 -5.12802217e-07 -1.38164054e-07 8.50321612e-07
      1.92257016e-06 2.32164393e-06 2.35465586e-06 2.41392672e-06
      2.48464926e-06 2.25181520e-06 1.64002802e-06 7.90589752e-07
      1.25157754e-07 -4.89780689e-07 -4.86191993e-07 -2.32314306e-07
      -1.73777551e-07 -2.78228754e-07 -6.07583388e-07 -7.81904021e-07
      1.37500501e-06 1.31713909e-06 1.04646301e-06 2.10761854e-07
      -1.04645449e-06 -2.10501821e-06 -2.74314289e-06 -2.68821486e-06
      -2.09137602e-06 -1.41586554e-06 -6.83254768e-07 -9.89485045e-08
      5.98691443e-08 -2.41291701e-07 -9.02130580e-07 -1.54797942e-06
      -1.78251332e-06 -1.07570406e-06 7.81078171e-08 1.27583598e-06
      2.11717997e-06 2.38072971e-06 2.49843765e-06 2.17264096e-06
      1.56263923e-06 1.05404115e-06 7.66115136e-07 6.58529075e-07
      7.68589530e-07 1.05114032e-06 1.46038735e-06 1.79927042e-06
      1.77598213e-06 1.67645885e-06 1.56675333e-06 1.41231510e-06
      1.40055829e-06 1.16818990e-06 9.41350265e-07 7.81586778e-07
      3.88052456e-07 -4.68991630e-07 -1.44650619e-06 -2.34185018e-06
      -3.15120201e-06 -3.77153674e-06 -3.74659589e-06 -3.26162331e-06
      -2.88677575e-06 -2.74075410e-06 -2.69073007e-06 -2.67056930e-06
      2.01994936e-07 1.45405195e-07 -9.31112254e-08 -5.41039981e-07
      -1.16555805e-06 -1.43861007e-06 -1.55380053e-06 -1.83393718e-06
      -1.77638594e-06 -1.39887868e-06 -9.17800151e-07 -3.40488896e-07
      -1.16858871e-07 -5.99325972e-07 -1.45677461e-06 -2.30425076e-06
      -2.70933810e-06 -2.55340865e-06 -1.92801258e-06 -1.23890766e-06
      -2.67663751e-07 4.04946633e-07 6.08600317e-07 4.55051833e-07
      2.08395832e-07 -1.71922125e-07 -3.67936053e-07 -2.57096872e-07
      1.36805525e-07 6.86003375e-07 1.25927602e-06 1.59345541e-06
      1.59676028e-06 1.30073795e-06 9.83092718e-07 5.86493002e-07
      4.07191777e-07 7.28600966e-08 -5.59686271e-07 -1.56484919e-06
      -2.96261533e-06 -4.44549505e-06 -5.90855734e-06 -6.95535346e-06
      -6.96158622e-06 -6.30918521e-06 -5.21978154e-06 -3.87478576e-06
      -2.45545607e-06 -1.04819196e-06 -4.94975900e-08 3.04824226e-07
      -7.47965146e-07 -6.40921996e-07 -4.00332397e-07 -2.06798319e-07
      -4.48200439e-07 -9.25564223e-07 -1.61862363e-06 -2.40202166e-06
      -3.38398081e-06 -4.30213595e-06 -4.94861615e-06 -5.44406521e-06
      -5.59267346e-06 -5.60645549e-06 -5.67220422e-06 -5.50412096e-06
      -5.18904926e-06 -4.70697614e-06 -3.72225145e-06 -2.53755297e-06
      -1.51561346e-06 -9.21163291e-07 -5.69220106e-07 -5.21793481e-07
      -5.31884780e-07 -5.07986840e-07 -4.23763510e-07 -2.72042001e-07
      -1.54904498e-07 -1.36417313e-07 -1.09960155e-07 -1.39864397e-07
      -4.55759363e-07 -8.52723247e-07 -1.00568161e-06 -1.01452110e-06
      -1.29433988e-06 -1.97080135e-06 -3.09995971e-06 -4.59014291e-06
      -6.20141645e-06 -7.44846466e-06 -8.23089522e-06 -8.45556133e-06
      -7.93304025e-06 -6.52054359e-06 -4.73246837e-06 -2.91267020e-06
      -1.47835885e-06 -4.50403149e-07 1.97686091e-07 3.50678164e-07
      2.61710034e-06 2.69435077e-06 3.04625655e-06 3.55971270e-06
      3.70443126e-06 3.29528825e-06 2.16022795e-06 7.43670682e-07
      -6.83719577e-07 -2.20497645e-06 -3.40088263e-06 -4.28265366e-06
      -4.64696359e-06 -4.60713454e-06 -4.48788069e-06 -4.18278660e-06
      -3.84993245e-06 -3.59679689e-06 -3.02074977e-06 -2.24252653e-06
      -1.68511929e-06 -1.09098335e-06 -4.68793132e-07 4.73496193e-08
      4.23865032e-07 7.01156523e-07 8.32947251e-07 8.37710161e-07
      7.42694226e-07 4.59235935e-07 -3.58354200e-08 -6.93694744e-07
      -1.34299478e-06 -1.74140871e-06 -2.14103829e-06 -2.64477262e-06
      -3.64103857e-06 -4.88556543e-06 -5.87660861e-06 -6.03221906e-06
      -5.82897064e-06 -5.34714309e-06 -4.62496109e-06 -3.60790727e-06
      -2.50228754e-06 -1.08439167e-06 2.25348344e-07 1.30261492e-06
      2.13431963e-06 2.79066944e-06 3.20425738e-06 3.29452018e-06
      3.21246330e-06 3.09662141e-06 2.86198519e-06 2.59785111e-06
      2.24555879e-06 2.46664513e-06 2.41018893e-06 2.41038924e-06
      2.26811744e-06 1.69719749e-06 8.93578829e-07 1.32177917e-07
      -5.35839604e-07 -8.60703608e-07 -8.83035113e-07 -8.62481500e-07
      -8.68665097e-07 -9.91170168e-07 -9.88368924e-07 -5.13864052e-07
      -3.62460895e-07 -3.44906141e-07 1.77517222e-07 8.24911638e-07
      1.36094570e-06 1.72701459e-06 2.08922074e-06 2.17284241e-06
      2.13053477e-06 2.00630166e-06 1.64021117e-06 9.97393386e-07
      2.62744038e-07 -5.20436345e-07 -1.22051824e-06 -2.09400264e-06
      -3.01494924e-06 -3.86904321e-06 -4.64544655e-06 -5.31698333e-06
      -5.59055252e-06 -4.99559019e-06 -4.02698743e-06 -2.79591359e-06
      -1.31202796e-06 4.44434278e-07 2.33439960e-06 3.99593864e-06
      5.03094634e-06 5.66131575e-06 6.12215308e-06 6.22554717e-06
      1.86459624e-06 1.69436203e-06 5.72156011e-07 -1.37565394e-07
      9.48490595e-07 2.12354485e-06 2.76798914e-06 2.75523439e-06
      2.41341127e-06 1.97769896e-06 1.46523735e-06 1.47023582e-06
      1.76835954e-06 2.03250534e-06 1.98532462e-06 1.56735075e-06
      1.05098673e-06 7.35709364e-07 5.82790165e-07 5.05462836e-08
      -4.80427559e-07 -7.37106745e-07 -1.61895642e-07 3.65802947e-07
      7.19895127e-07 8.73393162e-07 1.03455216e-06 1.29438786e-06
      1.55101145e-06 1.64161088e-06 1.59594731e-06 1.70367616e-06
      1.90419803e-06 1.65980373e-06 6.17676562e-07 -9.49724381e-07
      -2.30894329e-06 -3.29759496e-06 -3.91721687e-06 -4.10307257e-06
      -3.72627323e-06 -2.81597886e-06 -1.58186208e-06 -4.11939652e-07
      4.56302018e-07 1.09593168e-06 2.10471603e-06 3.51391645e-06
      5.02038529e-06 6.07664379e-06 6.73344448e-06 6.96690950e-06
      3.10859173e-06 3.01253363e-06 2.63366064e-06 2.87168746e-06
      3.08642666e-06 3.10415271e-06 2.12299278e-06 5.59142165e-07
      -5.89761385e-07 -1.24233281e-06 -1.89025241e-06 -1.79064932e-06
      -1.37703728e-06 -8.29552789e-07 -1.52819311e-07 5.14207727e-07
      9.76040951e-07 8.44293766e-07 5.95437200e-07 6.03273406e-07
      5.41804241e-07 4.27586059e-07 6.65808216e-07 5.18542436e-07
      3.34854690e-07 2.75600257e-07 1.87570279e-07 2.49411329e-07
      2.82556186e-07 3.88413497e-07 5.79639675e-07 7.35360743e-07
      5.84532017e-07 2.11257145e-07 -3.92326939e-07 -1.12283726e-06
      -2.02966953e-06 -3.43179613e-06 -4.66324764e-06 -5.43954775e-06
      -5.51118046e-06 -4.94213964e-06 -4.01807483e-06 -3.10559494e-06
      -2.14708712e-06 -9.07091135e-07 9.65664867e-07 2.89979766e-06
      4.46516879e-06 5.68674750e-06 6.36582763e-06 6.66359438e-06
      2.97273959e-06 2.95071118e-06 3.03854108e-06 3.48803655e-06
      3.80141546e-06 3.68313204e-06 2.70477199e-06 1.78446453e-06
      9.63404887e-07 3.05630465e-07 -4.46746924e-07 -7.65045115e-07
      -8.81743631e-07 -1.08067866e-06 -1.15726539e-06 -1.17446666e-06
      -1.15364071e-06 -6.78738843e-07 -1.75603361e-07 1.32092183e-07
      1.76564271e-07 1.37781882e-07 3.25572728e-07 2.81577115e-07
      5.47129630e-08 -2.16425732e-07 -2.48585025e-07 -3.13700752e-07
      -3.58874928e-07 -1.27193672e-07 1.24444327e-07 2.94359552e-07
      1.17863998e-07 -1.53758819e-07 -5.84070790e-07 -9.61267119e-07
      -1.48362392e-06 -2.07910534e-06 -2.63058860e-06 -3.22949518e-06
      -3.38370455e-06 -2.98919304e-06 -2.32669436e-06 -1.71211150e-06
      -1.45278136e-06 -1.13274211e-06 -1.21724682e-07 1.30941112e-06
      2.75414209e-06 3.74937349e-06 4.09530321e-06 4.21222421e-06
      3.00268266e-06 2.91398146e-06 2.80915333e-06 2.70330156e-06
      2.29445618e-06 1.99230590e-06 1.84604960e-06 1.66702091e-06
      1.79329800e-06 2.24758378e-06 2.65533595e-06 2.76651394e-06
      2.46581430e-06 1.76943922e-06 1.01388662e-06 5.08056530e-07
      3.25731747e-07 2.73226334e-07 4.19539703e-07 6.21691527e-07
      9.40357552e-07 1.11008376e-06 9.60083639e-07 6.10613654e-07
      2.38967374e-07 -9.38776665e-08 -1.16568330e-07 -1.77639148e-08
      2.81425457e-07 6.01284341e-07 9.54516054e-07 1.20030131e-06
      1.19680487e-06 1.08936501e-06 1.13478234e-06 1.44040928e-06
      2.16308399e-06 2.87228499e-06 3.70269413e-06 4.45068144e-06
      4.94614596e-06 5.26029589e-06 5.46099227e-06 5.38167660e-06
      4.61526679e-06 3.48192702e-06 2.66728875e-06 2.24312203e-06
      1.91684535e-06 1.67141627e-06 1.38447922e-06 1.28595946e-06
      2.97859015e-06 2.88175283e-06 2.61244304e-06 2.11874681e-06
      1.47125513e-06 6.71011946e-07 1.54625255e-07 -4.44535118e-07
      -1.10375629e-06 -1.22324548e-06 -1.13080955e-06 -1.20807329e-06
      -1.66479833e-06 -2.50869994e-06 -3.34661127e-06 -3.73446505e-06
      -3.32353943e-06 -2.54223437e-06 -1.78183404e-06 -1.18028424e-06
      -1.06161031e-06 -1.09075722e-06 -9.65832896e-07 -7.58293083e-07
      -5.51543565e-07 -4.33947662e-07 -4.02744803e-07 -2.97898737e-07
      -4.79333657e-08 1.87918801e-07 3.80490008e-07 3.25155725e-07
      -1.21430446e-07 -1.04113622e-06 -2.19208118e-06 -3.25175392e-06
      -3.47021387e-06 -2.89174045e-06 -1.47023991e-06 7.20026918e-08
      1.60207867e-06 2.83147483e-06 3.44837599e-06 3.67180792e-06
      3.45187823e-06 2.54931979e-06 1.44598039e-06 1.13556689e-06
      1.33395963e-06 9.09059679e-07 6.52375547e-07 5.15905526e-07
      1.80711754e-06 1.73567332e-06 1.54649388e-06 1.29649220e-06
      9.40009386e-07 6.02040302e-07 4.37129302e-07 6.30668126e-07
      1.35480957e-06 1.78841970e-06 2.12943701e-06 2.64791629e-06
      3.10858786e-06 3.01902583e-06 3.13987312e-06 3.58519560e-06
      4.08747519e-06 4.07880179e-06 3.85186604e-06 3.51716426e-06
      3.07499431e-06 2.33615879e-06 1.55084945e-06 1.06948698e-06
      7.50470520e-07 5.38427969e-07 3.04136194e-07 5.88521907e-08
      -2.11118760e-07 -4.69346332e-07 -8.31666910e-07 -1.14211241e-06
      -1.32144476e-06 -1.42695353e-06 -1.46924685e-06 -1.98008615e-06
      -2.77907793e-06 -3.42532326e-06 -3.87673526e-06 -4.28962949e-06
      -4.80768767e-06 -5.25720316e-06 -5.69651729e-06 -5.95690062e-06
      -5.53693144e-06 -4.66678284e-06 -3.43151396e-06 -1.72404839e-06
      -7.39515968e-08 7.25050938e-07 1.00221996e-06 1.06882123e-06
      1.48424334e-07 2.82412827e-07 6.94548078e-07 1.43420232e-06
      2.20686366e-06 2.85788201e-06 3.16984756e-06 3.22691949e-06
      3.18313914e-06 3.35861341e-06 3.73848843e-06 4.29755119e-06
      4.91540550e-06 5.15639340e-06 4.62109347e-06 3.82611779e-06
      3.16190335e-06 2.62719118e-06 2.21892651e-06 1.80444749e-06
      1.59888987e-06 1.45724073e-06 1.28975535e-06 1.10886469e-06
      8.47714489e-07 5.51008156e-07 3.25436275e-07 1.72827242e-07
      2.92686657e-08 -6.18900913e-08 -1.08689655e-07 -3.47230795e-08
      1.79209437e-07 5.49240610e-07 1.04055141e-06 1.66681923e-06
      2.11335328e-06 2.35103994e-06 2.37230574e-06 2.07642688e-06
      1.21411301e-06 1.17064516e-07 -3.60112693e-07 -2.60459672e-07
      5.00693261e-07 1.12569808e-06 1.58192074e-06 1.86545128e-06
      1.81162989e-06 1.62130709e-06 1.42419594e-06 1.35261189e-06
      -1.81041926e-07 -2.64041716e-07 -4.89857143e-07 -8.74046464e-07
      -1.27763110e-06 -1.55695295e-06 -1.80868108e-06 -1.86747513e-06
      -1.68046779e-06 -1.30471813e-06 -8.77083210e-07 -4.73510966e-07
      -1.53501489e-07 -6.84563588e-08 -1.84324477e-07 -3.32717548e-07
      -3.06241844e-07 -1.57694927e-07 1.82159539e-07 5.69430824e-07
      8.65246136e-07 1.02547801e-06 1.04507194e-06 9.17794409e-07
      7.71995417e-07 5.90530362e-07 5.40485644e-07 6.23204073e-07
      8.79544757e-07 1.26421855e-06 1.71020781e-06 2.03468335e-06
      2.22022277e-06 2.31906893e-06 2.33669971e-06 2.34880804e-06
      2.44927605e-06 2.64482310e-06 2.94023107e-06 3.00668694e-06
      2.86027739e-06 2.84519183e-06 2.78496486e-06 2.71385284e-06
      2.92274194e-06 3.32848708e-06 3.56806936e-06 3.58832222e-06
      3.40591259e-06 3.10817268e-06 2.90393427e-06 2.81769235e-06
      -4.26558913e-08 -7.00104721e-08 -1.98921214e-07 -4.36201503e-07
      -6.71429518e-07 -8.48426168e-07 -8.37192999e-07 -5.16941782e-07
      -1.83544685e-07 7.92718922e-08 2.72629222e-07 4.96266864e-07
      6.06871538e-07 5.95412473e-07 4.91892706e-07 3.21775332e-07
      2.17109871e-07 2.35259108e-07 3.70011918e-07 6.24479867e-07
      8.90644571e-07 1.10791893e-06 1.25884480e-06 1.29629314e-06
      1.27532394e-06 1.25669010e-06 1.19100912e-06 1.14529109e-06
      1.19946321e-06 1.35210155e-06 1.56507826e-06 1.81121470e-06
      2.00099112e-06 2.03870991e-06 1.90118431e-06 1.52617304e-06
      9.51141487e-07 3.51451149e-07 -6.08829396e-08 -2.05118155e-07
      -1.46338550e-07 -2.98837399e-09 2.28024973e-07 5.56709381e-07
      9.67660753e-07 1.46431250e-06 2.10155531e-06 2.86107252e-06
      3.56640612e-06 4.09049835e-06 4.37687686e-06 4.46881040e-06
      -1.32575607e-07 -5.47354944e-08 2.33345304e-07 7.32115780e-07
      1.38329699e-06 1.94450013e-06 2.20753623e-06 2.30769160e-06
      2.20647371e-06 1.98850194e-06 1.62578419e-06 1.10964731e-06
      4.23867846e-07 -2.61974236e-07 -8.09570111e-07 -9.38348137e-07
      -8.30961937e-07 -6.08649316e-07 -2.94773741e-07 1.96046699e-08
      2.78561089e-07 4.57961420e-07 6.00077271e-07 6.76166223e-07
      7.04811896e-07 7.73601641e-07 7.15907845e-07 6.13212023e-07
      4.06535776e-07 1.81021321e-07 6.47227054e-08 1.68413479e-07
      4.47140764e-07 7.32436092e-07 9.91310799e-07 1.10187523e-06
      9.64112701e-07 5.75249715e-07 1.63861440e-08 -4.89571903e-07
      -5.33347190e-07 -4.28741998e-07 -3.17701165e-07 -2.16010079e-07
      -1.58322536e-07 8.55564011e-08 5.90063678e-07 1.14773252e-06
      1.60998502e-06 1.98401449e-06 2.17943943e-06 2.24575547e-06
      -5.20864660e-07 -5.59120792e-07 -6.24407789e-07 -6.68301539e-07
      -6.78161769e-07 -6.55139445e-07 -5.91643925e-07 -4.61896150e-07
      -3.11236192e-07 -1.06441846e-07 1.04872207e-07 2.57186940e-07
      3.81195434e-07 4.29710980e-07 4.87143723e-07 5.71231112e-07
      5.97040412e-07 5.01588772e-07 3.56945321e-07 1.19880696e-07
      -2.08735329e-07 -5.63731192e-07 -8.96561517e-07 -1.19783329e-06
      -1.36473182e-06 -1.47238825e-06 -1.47379808e-06 -1.43104933e-06
      -1.35340122e-06 -1.22156405e-06 -1.03965033e-06 -8.53029121e-07
      -6.44289400e-07 -3.99753333e-07 -1.83682289e-07 -8.08230638e-09
      3.70393956e-08 -7.58145404e-08 -2.33243512e-07 -2.95762447e-07
      -2.17478785e-07 -1.31191044e-07 -1.28225068e-07 -3.55958008e-07
      -8.59872159e-07 -1.40058626e-06 -1.68223130e-06 -1.72641057e-06
      -1.67544385e-06 -1.56810540e-06 -1.47437197e-06 -1.44982323e-06
      -1.03618800e-06 -1.07492212e-06 -1.23237862e-06 -1.41623309e-06
      -1.57335467e-06 -1.72390014e-06 -1.83678810e-06 -1.92281004e-06
      -1.89482898e-06 -1.59472688e-06 -1.07187020e-06 -4.27538282e-07
      1.75429690e-07 5.39620146e-07 7.14072939e-07 8.06201399e-07
      7.72844260e-07 6.95533004e-07 6.34711057e-07 4.66327123e-07
      1.47446201e-07 -2.90525634e-07 -8.23579683e-07 -1.35743664e-06
      -1.87319029e-06 -2.28706017e-06 -2.37867471e-06 -2.36722781e-06
      -2.18528362e-06 -1.84938688e-06 -1.49652408e-06 -1.18606556e-06
      -8.90274350e-07 -5.90021955e-07 -3.47928903e-07 -1.78309762e-07
      -6.46179075e-08 3.77098388e-08 2.03859244e-07 3.78241083e-07
      6.05670778e-07 7.62668492e-07 8.44854640e-07 7.74100442e-07
      4.94113181e-07 5.62921834e-08 -5.29912427e-07 -1.07295102e-06
      -1.49715004e-06 -1.82327335e-06 -2.01240368e-06 -2.08356505e-06
      6.73346563e-07 6.36679545e-07 4.83947019e-07 1.67766601e-07
      -3.50204431e-07 -9.29211410e-07 -1.38195207e-06 -1.69927466e-06
      -1.80497625e-06 -1.73893773e-06 -1.53451253e-06 -1.16448268e-06
      -7.87989563e-07 -4.27644039e-07 -5.61403688e-08 2.66976656e-07
      4.90611455e-07 7.44524641e-07 9.32308637e-07 9.64636911e-07
      8.32556339e-07 5.37495566e-07 1.47733687e-07 -2.15781483e-07
      -5.56857572e-07 -8.54330153e-07 -1.10827773e-06 -1.36615347e-06
      -1.57107286e-06 -1.72793477e-06 -1.93828419e-06 -2.05435049e-06
      -2.02519345e-06 -1.87951321e-06 -1.69434168e-06 -1.48730828e-06
      -1.32271782e-06 -1.14883392e-06 -9.49328751e-07 -7.78911726e-07
      -5.86562805e-07 -3.93801713e-07 -2.27931253e-07 -1.46315529e-07
      -1.55725729e-07 -1.97927406e-07 -3.18572830e-07 -4.87427542e-07
      -6.65933499e-07 -8.85212785e-07 -1.04034905e-06 -1.10765427e-06
      2.42624992e-07 2.03876823e-07 1.04423258e-07 -8.32494464e-08
      -3.03482409e-07 -4.62631618e-07 -5.29573128e-07 -5.17235264e-07
      -3.96260191e-07 -2.51104751e-07 -5.05251023e-08 1.31461704e-07
      1.82767508e-07 1.99367776e-07 1.46924350e-07 -1.07283968e-08
      -2.15088974e-07 -3.95808996e-07 -6.23283768e-07 -9.84321787e-07
      -1.27513749e-06 -1.39023109e-06 -1.23348275e-06 -8.76335889e-07
      -3.80596333e-07 1.02113390e-07 3.30628694e-07 5.35338359e-07
      5.69927010e-07 4.11385201e-07 6.47232881e-08 -3.15021367e-07
      -5.97476856e-07 -9.16272541e-07 -1.40152474e-06 -2.01032117e-06
      -2.49738491e-06 -2.57767965e-06 -2.28762951e-06 -1.85107024e-06
      -1.47653748e-06 -1.10447206e-06 -8.40327687e-07 -6.37240873e-07
      -5.34515038e-07 -5.06225774e-07 -5.06230379e-07 -5.63344884e-07
      -6.82297014e-07 -8.08293123e-07 -8.94345135e-07 -9.14960992e-07
      -1.90244589e-06 -1.86957664e-06 -1.76582671e-06 -1.48474180e-06
      -1.00312752e-06 -4.01234729e-07 1.65095074e-07 6.16552541e-07
      9.07150877e-07 9.68174277e-07 8.30132819e-07 5.26701456e-07
      2.45933734e-07 3.48930413e-08 -1.56936167e-07 -3.37581071e-07
      -5.40610927e-07 -7.99572376e-07 -1.15747685e-06 -1.51041172e-06
      -1.66146765e-06 -1.47647336e-06 -1.06600908e-06 -5.63085905e-07
      -1.20517385e-09 5.55522888e-07 9.73340207e-07 1.27198689e-06
      1.46922889e-06 1.44993805e-06 1.31478214e-06 1.10191797e-06
      8.51452000e-07 6.23232836e-07 4.25070027e-07 1.25156575e-07
      -3.38136005e-07 -7.78224717e-07 -9.13594135e-07 -6.47585409e-07
      -1.62500598e-07 3.49578443e-07 8.38857432e-07 1.19908327e-06
      1.43286081e-06 1.50609071e-06 1.47297635e-06 1.37458380e-06
      1.25714655e-06 1.18180355e-06 1.15998887e-06 1.15255477e-06
      -6.78770107e-07 -5.41535201e-07 -1.97949447e-07 3.45339544e-07
      9.65134177e-07 1.49170285e-06 1.76796527e-06 1.78484447e-06
      1.64137089e-06 1.41739270e-06 1.10138240e-06 7.57957309e-07
      4.10551792e-07 -1.41353675e-08 -4.06615669e-07 -7.26095607e-07
      -9.94155812e-07 -1.15707030e-06 -1.08317715e-06 -8.37755010e-07
      -7.29496719e-07 -5.90054867e-07 -4.51909642e-07 -2.11859174e-07
      5.52717552e-08 3.04776620e-07 6.36452341e-07 8.18706440e-07
      1.02455851e-06 1.09216194e-06 1.05897402e-06 9.79683364e-07
      7.99537247e-07 6.67854522e-07 6.78759534e-07 8.04811179e-07
      9.02553836e-07 9.61133765e-07 8.80195500e-07 7.52744995e-07
      7.27686029e-07 6.76968000e-07 7.78947822e-07 9.22434538e-07
      9.96208769e-07 9.92479499e-07 8.92021376e-07 7.17313185e-07
      4.77516608e-07 2.10528526e-07 -5.14594021e-08 -1.50458050e-07
      -4.50846436e-08 5.10023774e-08 2.42446788e-07 3.13188536e-07
      2.97333202e-07 2.63000118e-07 1.71304933e-07 7.32384606e-08
      -3.19106448e-08 -1.53794431e-07 -3.96326470e-07 -6.42692669e-07
      -8.43077999e-07 -1.13883061e-06 -1.32248056e-06 -1.34894026e-06
      -1.15308490e-06 -9.89190767e-07 -9.48638558e-07 -8.95610754e-07
      -8.87592932e-07 -8.85500299e-07 -8.69418898e-07 -7.83088467e-07
      -8.35135211e-07 -9.99397116e-07 -1.12262978e-06 -1.31416857e-06
      -1.47503829e-06 -1.58399519e-06 -1.69659700e-06 -1.80787004e-06
      -1.85521515e-06 -1.83738985e-06 -1.76179810e-06 -1.56706756e-06
      -1.34750474e-06 -1.31608135e-06 -1.49748018e-06 -1.84658222e-06
      -2.17666911e-06 -2.24024393e-06 -2.11619363e-06 -1.72889520e-06
      -1.29527507e-06 -8.19032664e-07 -3.11765660e-07 1.74991413e-07
      5.11495500e-07 7.09598396e-07 8.30575914e-07 8.91187256e-07
      2.11563602e-07 1.88429027e-07 2.31153464e-07 2.51390418e-07
      2.21044928e-07 1.51103208e-07 1.57494249e-08 -1.82779615e-07
      -3.68980295e-07 -5.87930970e-07 -8.53911217e-07 -1.01914020e-06
      -1.02393813e-06 -8.61808189e-07 -5.32643298e-07 -2.08665483e-07
      1.97872723e-07 7.15323097e-07 1.18202104e-06 1.21181438e-06
      8.23562232e-07 3.21699417e-07 -1.01432498e-07 -4.29202089e-07
      -8.67369579e-07 -1.43566581e-06 -2.10885037e-06 -2.75808839e-06
      -3.38723135e-06 -3.73493367e-06 -3.63677896e-06 -3.20399931e-06
      -2.37797735e-06 -1.23782718e-06 -1.05047008e-07 7.20952187e-07
      9.96943982e-07 3.97552299e-07 -7.46930994e-07 -1.95082885e-06
      -2.98443797e-06 -3.50868459e-06 -3.71037618e-06 -3.52705729e-06
      -2.89562490e-06 -2.14371971e-06 -1.48304593e-06 -9.44213184e-07
      -5.92548190e-07 -3.89881421e-07 -2.82129974e-07 -2.58297916e-07
      1.69656334e-06 1.62413244e-06 1.48369804e-06 1.20034451e-06
      7.66328014e-07 3.27945287e-07 -2.30580159e-08 -2.89586666e-07
      -4.21348261e-07 -4.31797361e-07 -3.00371454e-07 -3.44929276e-08
      2.72699310e-07 5.97071221e-07 8.60132445e-07 1.09473979e-06
      1.29912621e-06 1.47280241e-06 1.54760107e-06 1.25755696e-06
      8.42470286e-07 4.79892719e-07 3.07908721e-07 2.50506787e-07
      5.66235201e-08 -4.00081660e-07 -1.00740522e-06 -1.43264606e-06
      -1.75132254e-06 -1.78624475e-06 -1.40465988e-06 -8.14641567e-07
      -1.79501967e-07 6.96555844e-07 1.43851628e-06 1.81646499e-06
      1.76874835e-06 9.83918426e-07 1.13311231e-07 -5.32971796e-07
      -9.63689558e-07 -1.17286891e-06 -1.15138221e-06 -1.15095622e-06
      -1.10596375e-06 -1.07257438e-06 -1.18425294e-06 -1.38401754e-06
      -1.55822693e-06 -1.71160661e-06 -1.83448435e-06 -1.89390369e-06
      5.74915532e-07 5.84094551e-07 4.92465631e-07 3.45163983e-07
      1.33859402e-07 -1.60004817e-07 -3.64580103e-07 -4.55906900e-07
      -4.12143294e-07 -3.16433500e-07 -1.85956608e-07 -8.64421708e-08
      -1.06753042e-07 -1.94419854e-07 -4.21176679e-07 -6.12809458e-07
      -7.02444879e-07 -8.54507846e-07 -1.26434429e-06 -1.77058621e-06
      -1.73410581e-06 -1.57789498e-06 -1.29405896e-06 -7.73196859e-07
      -2.44383074e-07 -1.89901996e-07 -1.05806301e-07 2.84053314e-08
      1.30791804e-07 1.51330809e-07 2.19132062e-07 3.62147034e-07
      5.96267398e-07 1.14696115e-06 1.60844843e-06 1.41419173e-06
      9.76065053e-07 5.08420555e-07 4.59719331e-07 6.75803847e-07
      8.86723569e-07 9.79748165e-07 9.45541558e-07 8.72286819e-07
      5.93944776e-07 1.74635659e-07 -3.09460347e-07 -7.26333781e-07
      -1.08886218e-06 -1.34171569e-06 -1.54973623e-06 -1.58865714e-06
      1.60612657e-07 1.52811282e-07 1.37477613e-07 1.66115811e-07
      1.70499831e-07 1.53541293e-07 9.59395337e-08 6.31251140e-08
      3.94561255e-08 1.18402276e-07 2.95169400e-07 5.71434384e-07
      6.94965877e-07 6.81776896e-07 6.31780949e-07 3.97105850e-07
      3.16010301e-07 1.47099243e-07 -1.09239288e-07 8.53616200e-09
      1.06979300e-07 -1.71275147e-07 -3.31657162e-07 -2.36841132e-07
      8.50909601e-08 3.55704259e-07 7.23461881e-07 9.09360381e-07
      8.59879208e-07 4.46302892e-07 8.26764648e-08 2.69124257e-07
      1.10311896e-06 2.19439858e-06 3.04455875e-06 3.26009012e-06
      3.43543934e-06 3.26395207e-06 3.04451532e-06 2.48974607e-06
      1.66443260e-06 9.48137654e-07 2.92324074e-07 -1.44505265e-07
      -3.33329666e-07 -3.26607335e-07 -1.79056642e-07 4.08459542e-08
      4.76904972e-07 9.24567644e-07 1.19592357e-06 1.29677665e-06
      -3.58864725e-07 -2.64600175e-07 -6.71226204e-08 2.25869229e-07
      4.74263203e-07 7.09355334e-07 8.68259917e-07 9.63585990e-07
      1.08380550e-06 1.31646493e-06 1.52601820e-06 1.84634757e-06
      2.20400216e-06 2.54079805e-06 2.75756361e-06 2.62198273e-06
      2.11110319e-06 1.50751782e-06 5.24990014e-07 -2.88043026e-07
      -5.46048852e-07 -3.50199059e-07 -5.61622144e-08 8.29287501e-08
      1.54219549e-07 2.85053119e-07 7.01969498e-07 8.51280276e-07
      7.27850420e-07 2.33541229e-07 -1.75905939e-07 -2.40786193e-07
      1.25691187e-07 5.80311450e-07 4.66373706e-07 8.57108020e-08
      1.60492661e-07 4.36002722e-07 1.73347559e-08 -2.66186674e-07
      -5.43122347e-08 4.89918534e-07 1.14070451e-06 1.61593402e-06
      2.06220284e-06 2.39643987e-06 2.48765787e-06 2.21141886e-06
      1.74368120e-06 1.35234382e-06 1.29632417e-06 1.26872931e-06
      4.09927310e-07 4.87084662e-07 6.80969379e-07 8.68566815e-07
      1.05637685e-06 1.24436883e-06 1.32922412e-06 1.27305657e-06
      1.15592547e-06 9.92503715e-07 8.63120476e-07 8.12183941e-07
      7.72943508e-07 6.12796271e-07 2.52550706e-07 -1.60281019e-07
      -8.01318890e-07 -1.46599507e-06 -1.90588480e-06 -2.21260393e-06
      -2.56178555e-06 -2.49143704e-06 -1.58831756e-06 -6.81777976e-07
      -1.60078685e-07 -1.61049542e-07 -2.24824859e-07 -2.92891713e-07
      -4.19586769e-07 -4.15054217e-07 -2.07467608e-07 -5.60792763e-08
      -4.36359358e-07 -1.38184498e-06 -2.37971517e-06 -2.82114092e-06
      -2.73830187e-06 -2.40784061e-06 -1.87573482e-06 -1.49897369e-06
      -1.12354019e-06 -6.89846786e-07 -3.16134674e-07 -1.14232064e-08
      2.29701541e-07 2.60542834e-07 3.17634274e-08 -3.31814306e-07
      -6.10864447e-07 -8.26790938e-07 -8.70335612e-07 -8.35722517e-07
      1.13226338e-06 1.08117888e-06 9.33385138e-07 6.56666316e-07
      3.11546216e-07 -1.43196814e-07 -5.75273418e-07 -9.45662805e-07
      -1.07164919e-06 -9.64222409e-07 -7.09033543e-07 -5.99027487e-07
      -7.43634928e-07 -1.09181929e-06 -1.39391818e-06 -1.48572508e-06
      -1.33879325e-06 -8.63418734e-07 -3.10981534e-07 1.01721817e-07
      6.84276074e-07 1.36066353e-06 1.93093251e-06 2.10746839e-06
      2.26708585e-06 2.07451694e-06 1.87010892e-06 1.53384485e-06
      1.26977113e-06 1.46746527e-06 2.06693471e-06 2.59957619e-06
      2.77214804e-06 2.48362016e-06 1.56738759e-06 3.65520776e-07
      -5.68735004e-07 -1.01448961e-06 -1.44850844e-06 -1.55493797e-06
      -1.52819814e-06 -1.54267514e-06 -1.50040410e-06 -1.63419566e-06
      -1.81181838e-06 -1.94985773e-06 -2.09076552e-06 -2.01856915e-06
      -1.77829054e-06 -1.53031647e-06 -1.34381276e-06 -1.18985588e-06
      7.02055104e-07 6.55014617e-07 5.92909942e-07 5.22582582e-07
      3.78040681e-07 6.40820730e-08 -3.57130830e-07 -8.28256873e-07
      -1.21511653e-06 -1.52384052e-06 -1.73647322e-06 -1.91646973e-06
      -1.90886726e-06 -1.62893980e-06 -1.08764220e-06 -5.72168744e-07
      -2.45735009e-07 1.93282634e-08 3.49824973e-07 7.87697388e-07
      1.28474539e-06 1.72706427e-06 2.16555713e-06 2.70087594e-06
      2.66011853e-06 2.62016533e-06 2.60884826e-06 2.59249987e-06
      2.62227809e-06 2.84660041e-06 3.42969042e-06 3.94924746e-06
      4.24928885e-06 4.06187110e-06 3.04255195e-06 2.33928790e-06
      1.53657061e-06 7.13914915e-07 2.58142450e-08 -3.27656892e-07
      -4.39051490e-07 -4.11550047e-07 -2.30815942e-07 1.22535823e-07
      5.92086280e-07 1.01626961e-06 1.24759208e-06 1.35902110e-06
      1.39739370e-06 1.44947285e-06 1.50279834e-06 1.57565341e-06
      1.50167102e-06 1.45270712e-06 1.38956443e-06 1.34601839e-06
      1.16715489e-06 8.24253902e-07 3.40348038e-07 -1.63606472e-07
      -7.05630669e-07 -1.04366461e-06 -1.21577114e-06 -1.19134427e-06
      -8.44926831e-07 -3.81592486e-07 1.66876628e-08 2.63517251e-07
      4.26676365e-07 6.14980593e-07 7.78965784e-07 9.90709395e-07
      1.31576292e-06 1.86465547e-06 2.30452974e-06 2.72866305e-06
      3.09510256e-06 3.25560040e-06 3.17605236e-06 3.19225887e-06
      3.35406844e-06 3.56870009e-06 3.83714405e-06 4.16574903e-06
      4.20779588e-06 4.00817817e-06 3.54061899e-06 2.83496115e-06
      2.03177069e-06 1.12045996e-06 2.21852645e-07 -5.67576819e-07
      -1.02276761e-06 -1.10039014e-06 -8.57436930e-07 -3.04087393e-07
      2.72937029e-07 8.58241833e-07 1.39235283e-06 1.82941824e-06
      2.08623987e-06 2.05179208e-06 1.91071445e-06 1.81896939e-06
      5.06359470e-07 5.53719531e-07 5.71644364e-07 6.13095551e-07
      6.27737506e-07 6.87260865e-07 7.96289612e-07 8.34256525e-07
      8.83553980e-07 9.65661570e-07 1.04373260e-06 1.31457296e-06
      1.54047359e-06 1.61424578e-06 1.45724334e-06 1.32722118e-06
      1.34762763e-06 1.61796504e-06 1.99853002e-06 2.39639508e-06
      2.76866945e-06 2.93703556e-06 2.79392611e-06 2.44801754e-06
      2.14441911e-06 1.94623840e-06 1.91131880e-06 2.11256724e-06
      2.51893630e-06 2.87666671e-06 2.91452193e-06 2.79134019e-06
      2.55693112e-06 2.32375760e-06 2.22048038e-06 2.07228595e-06
      1.78715709e-06 1.35295181e-06 8.83262544e-07 2.70168357e-07
      -3.22857971e-07 -8.99692623e-07 -1.39354006e-06 -1.65584208e-06
      -1.73291096e-06 -1.61166997e-06 -1.36834956e-06 -1.08313805e-06
      -7.30514159e-07 -4.76681805e-07 -3.27890916e-07 -3.41454694e-07
      -2.63916559e-06 -2.60514071e-06 -2.53148346e-06 -2.38741268e-06
      -2.08562233e-06 -1.61814819e-06 -1.05002175e-06 -4.50155085e-07
      1.53180324e-07 6.73482589e-07 1.00263958e-06 1.08995221e-06
      9.01392980e-07 6.90168861e-07 5.80421045e-07 7.43181715e-07
      1.20615891e-06 1.89192724e-06 2.61279752e-06 3.14676822e-06
      3.22019810e-06 2.66466259e-06 1.69391842e-06 5.85401779e-07
      -3.81080184e-07 -9.73497663e-07 -1.13960857e-06 -9.32218768e-07
      -4.97697215e-07 1.92082112e-07 1.05542119e-06 1.88105514e-06
      2.50665585e-06 2.90267235e-06 3.16882279e-06 3.24127905e-06
      3.09534653e-06 2.84270800e-06 2.53682038e-06 2.16558578e-06
      1.83008854e-06 1.50885739e-06 1.02442527e-06 4.28610463e-07
      -2.34192328e-07 -7.77712955e-07 -1.14737213e-06 -1.34217089e-06
      -1.43905311e-06 -1.45453748e-06 -1.47506398e-06 -1.50289566e-06
      3.77058118e-09 -4.45702542e-09 6.51441141e-08 1.93992165e-07
      3.55035297e-07 4.05427613e-07 1.20380619e-07 -4.04763483e-07
      -1.08996221e-06 -1.85870522e-06 -2.43882459e-06 -2.78865241e-06
      -2.94407755e-06 -2.65562858e-06 -1.82489146e-06 -7.96486120e-07
      4.72544940e-07 1.81462701e-06 3.07270739e-06 4.09462154e-06
      4.63664810e-06 4.70524856e-06 4.49671370e-06 4.08038386e-06
      3.55096449e-06 2.98722534e-06 2.50423500e-06 2.20727406e-06
      2.01450212e-06 1.82673250e-06 1.74251693e-06 1.70239252e-06
      1.69757652e-06 1.81835787e-06 2.06363416e-06 2.32059256e-06
      2.45907609e-06 2.46308309e-06 2.24550968e-06 1.98220005e-06
      1.70884653e-06 1.38982466e-06 9.96780500e-07 5.62400317e-07
      9.78901653e-08 -1.93994126e-07 -3.07986227e-07 8.61780869e-09
      4.01484897e-07 7.66855749e-07 1.01202124e-06 1.14757586e-06
      2.23969005e-06 2.22483095e-06 2.21713708e-06 2.15271530e-06
      1.91324330e-06 1.47281719e-06 9.14729640e-07 1.71066404e-07
      -5.73315390e-07 -1.20538391e-06 -1.44879061e-06 -1.36096571e-06
      -9.06762125e-07 -3.19183584e-07 1.85595042e-07 5.15529905e-07
      7.58028307e-07 1.11949521e-06 1.67144140e-06 2.38342068e-06
      3.12147404e-06 3.61163620e-06 3.65168921e-06 3.39900248e-06
      3.01606701e-06 2.61237278e-06 2.23683901e-06 1.91675281e-06
      1.60372394e-06 1.34190122e-06 1.08790437e-06 8.39154097e-07
      6.41869690e-07 6.02334012e-07 6.47954039e-07 7.09394953e-07
      7.02587897e-07 6.45137959e-07 5.89844831e-07 6.97626547e-07
      8.46081775e-07 9.36897720e-07 9.29394616e-07 8.22074583e-07
      8.25254631e-07 9.70721544e-07 1.19006654e-06 1.33402216e-06
      1.30566730e-06 1.14410079e-06 1.01794171e-06 1.02339584e-06
      3.33345042e-07 2.91407162e-07 1.75704272e-07 1.05527867e-07
      7.79257192e-08 5.66181555e-08 6.14198896e-08 5.09459355e-08
      -5.61003439e-08 -6.01193051e-08 3.00379554e-07 1.04200615e-06
      1.85030649e-06 2.31984609e-06 2.21531513e-06 1.69638452e-06
      7.63923310e-07 -2.53102627e-07 -9.98773430e-07 -1.44736111e-06
      -1.58824389e-06 -1.61306002e-06 -1.66111602e-06 -1.70229453e-06
      -1.74998115e-06 -1.64718278e-06 -1.39732185e-06 -1.05532388e-06
      -6.15265094e-07 -1.34445031e-07 2.41677100e-07 4.34021615e-07
      6.72661145e-07 9.04808928e-07 1.00613499e-06 9.24632218e-07
      6.65116318e-07 3.24113017e-07 2.98110137e-07 7.82821076e-07
      1.63098559e-06 2.20220068e-06 2.33936566e-06 2.49621871e-06
      2.88582100e-06 3.21418520e-06 3.44807836e-06 3.41608256e-06
      3.32048262e-06 3.32618629e-06 3.38080031e-06 3.39230724e-06
      1.22778118e-07 1.72336925e-07 2.53047688e-07 3.85062094e-07
      5.04791956e-07 5.76618845e-07 4.76465175e-07 4.56142260e-07
      4.41258351e-07 3.28516904e-07 2.78968997e-07 4.09686550e-07
      1.00837190e-06 2.22828407e-06 2.32771208e-06 1.56538363e-06
      5.95864037e-07 -1.31007610e-07 -4.86683973e-07 -5.81316613e-07
      -4.67312219e-07 -2.06518465e-07 3.50020741e-07 6.87156501e-07
      9.31829902e-07 1.23303050e-06 1.42505098e-06 1.47005005e-06
      1.41677697e-06 1.25918609e-06 1.01409330e-06 5.32373690e-07
      -6.62630439e-09 -3.47274039e-07 -5.74586863e-07 -6.50816958e-07
      -7.47268473e-07 -6.82783138e-07 -8.19691479e-08 1.36795597e-06
      3.21600282e-06 4.30414502e-06 4.65050653e-06 4.58949125e-06
      4.41971679e-06 3.84219038e-06 3.27883299e-06 2.75948173e-06
      2.42661827e-06 2.34823437e-06 2.38567713e-06 2.40724876e-06
      1.19966478e-06 1.23319148e-06 1.34606728e-06 1.50196058e-06
      1.70392570e-06 1.87886553e-06 2.01972375e-06 2.24528003e-06
      2.75996740e-06 3.49304037e-06 4.21534924e-06 4.77703543e-06
      5.21902621e-06 4.87527268e-06 3.42826343e-06 1.02028309e-06
      -1.10692667e-06 -2.45742331e-06 -2.53661096e-06 -1.77453558e-06
      -5.76320929e-07 8.42332668e-07 2.36290884e-06 3.62275932e-06
      4.49982417e-06 4.96800885e-06 5.00206625e-06 4.78700531e-06
      4.31896569e-06 3.56537566e-06 2.67038035e-06 1.73052422e-06
      8.19878551e-07 -4.75407489e-07 -1.73894296e-06 -2.58844398e-06
      -2.69883935e-06 -1.78862285e-06 -1.60694697e-07 2.23694110e-06
      4.46293961e-06 6.03302851e-06 6.19570574e-06 5.11580038e-06
      3.53113705e-06 2.23864140e-06 1.14158843e-06 3.88062830e-07
      6.29545696e-08 -8.75630235e-08 -9.93970275e-08 -1.07448017e-07
      3.03372872e-07 2.73595958e-07 1.72391694e-07 -1.31448861e-08
      -2.58942890e-07 -5.01096451e-07 -6.02519094e-07 -5.60969454e-07
      -1.70953115e-07 6.53703353e-07 1.20876973e-06 1.11181487e-06
      8.11343398e-07 -4.61748840e-07 -2.15359250e-06 -3.72850036e-06
      -4.34139611e-06 -4.70023269e-06 -4.30784121e-06 -3.54945951e-06
      -2.49372852e-06 -1.07584128e-06 5.79432651e-07 2.07909966e-06
      3.09314078e-06 3.55120756e-06 3.65743517e-06 3.49551169e-06
      3.09607958e-06 2.47132698e-06 1.73403100e-06 1.05886454e-06
      5.41755071e-07 -1.93649569e-07 -1.55117232e-06 -2.72174884e-06
      -3.26297277e-06 -3.24988514e-06 -1.90909714e-06 -4.63543017e-07
      5.06199967e-07 5.11361179e-07 3.29504445e-07 7.72312603e-07
      6.96462735e-07 3.49774240e-07 -7.32765386e-08 -4.53578707e-07
      -7.53151255e-07 -8.96388769e-07 -9.18752391e-07 -9.12362793e-07
      7.29222336e-07 6.49738240e-07 4.28190305e-07 1.00204403e-07
      -2.50276116e-07 -5.66566598e-07 -8.73266060e-07 -1.26110456e-06
      -1.90930177e-06 -3.05111598e-06 -3.65897768e-06 -4.09328095e-06
      -4.83151643e-06 -5.56381974e-06 -5.17069702e-06 -4.24042491e-06
      -3.56712030e-06 -3.54523672e-06 -4.02318392e-06 -4.00603722e-06
      -3.41654413e-06 -2.45908154e-06 -1.63173729e-06 -1.10592669e-06
      -9.74112595e-07 -9.56567533e-07 -7.11575581e-07 -4.67825259e-07
      -3.61781417e-07 -3.84546411e-07 -4.19322902e-07 -6.27584257e-07
      -1.03398190e-06 -1.79274366e-06 -2.48483548e-06 -2.90558546e-06
      -3.40630822e-06 -3.28237911e-06 -3.08866834e-06 -3.32448280e-06
      -3.50029200e-06 -2.75184561e-06 -2.11545080e-06 -1.23130769e-06
      -4.19078070e-08 1.12601003e-06 1.79491428e-06 1.63317475e-06
      1.04161245e-06 4.82612165e-07 1.96442357e-07 1.34557112e-07
      1.50641472e-06 1.50888775e-06 1.53001133e-06 1.54312579e-06
      1.51971960e-06 1.37948223e-06 1.02686295e-06 4.60009460e-07
      -4.99968792e-07 -1.61433002e-06 -2.66424377e-06 -3.28399074e-06
      -3.56193050e-06 -3.57371027e-06 -3.44143587e-06 -3.30193393e-06
      -3.28241526e-06 -3.75284753e-06 -4.82428823e-06 -5.60575836e-06
      -5.17404169e-06 -3.95878033e-06 -2.79251708e-06 -1.95586904e-06
      -9.06498599e-07 9.42409173e-08 9.57638690e-07 1.38528242e-06
      1.38534040e-06 1.06810774e-06 4.20007467e-07 -6.40056555e-07
      -1.99908391e-06 -3.61889920e-06 -4.73252976e-06 -5.88620060e-06
      -5.91216076e-06 -5.48278013e-06 -5.12775614e-06 -4.79798518e-06
      -4.55026475e-06 -3.84301256e-06 -2.89592867e-06 -2.27166493e-06
      -1.24433836e-06 -2.11655461e-07 8.81573726e-07 1.44672663e-06
      1.47054175e-06 1.21402468e-06 9.21159540e-07 8.57672376e-07
      7.95520592e-08 2.99944475e-07 7.80753851e-07 1.40257339e-06
      1.98761609e-06 2.43928457e-06 2.52688346e-06 1.83007046e-06
      4.53868211e-07 -1.18346406e-06 -3.37142956e-06 -5.80362621e-06
      -7.05177899e-06 -7.35514959e-06 -7.09470760e-06 -6.35468859e-06
      -5.46914362e-06 -5.01347995e-06 -4.41657721e-06 -3.73470721e-06
      -2.23094457e-06 -2.25810055e-07 8.60486125e-07 1.55569876e-06
      2.10225289e-06 2.42218357e-06 2.75782600e-06 3.13707483e-06
      3.26281520e-06 3.21250150e-06 3.03233560e-06 2.49032223e-06
      1.87938474e-06 1.36978190e-06 7.22267259e-07 -7.29103647e-07
      -1.97239251e-06 -3.36582002e-06 -4.19337312e-06 -4.52775657e-06
      -4.68235385e-06 -4.47919092e-06 -4.02885598e-06 -2.57362831e-06
      -1.22010294e-06 -4.49333612e-07 1.16377841e-07 1.46648787e-07
      1.01903268e-07 9.35536448e-08 5.74919667e-09 -9.85325865e-09
      -3.85649997e-07 -2.50598049e-07 9.53723003e-08 6.37834660e-07
      1.23430482e-06 1.58739124e-06 1.46048330e-06 8.14505597e-07
      -3.52204296e-07 -1.96625274e-06 -3.41109558e-06 -3.97851454e-06
      -4.09807535e-06 -3.66561926e-06 -2.80938502e-06 -1.70264718e-06
      -3.89694179e-07 9.84189796e-07 3.25103360e-06 4.64238974e-06
      4.89934655e-06 5.16679165e-06 5.62144351e-06 5.62335708e-06
      5.29519775e-06 5.00260921e-06 5.06523747e-06 5.45340026e-06
      5.87504519e-06 6.39167865e-06 7.11701887e-06 7.62601030e-06
      7.79623952e-06 7.44069939e-06 6.62202865e-06 5.40495876e-06
      3.87384443e-06 2.34306344e-06 1.29978559e-06 7.55272367e-07
      7.22941650e-07 8.04480919e-07 1.02338811e-06 1.05976255e-06
      1.07797860e-06 9.08553261e-07 7.78465960e-07 6.65010759e-07
      7.20788478e-07 8.49828211e-07 9.18422586e-07 9.26309838e-07
      9.64044148e-07 9.58847181e-07 9.56550593e-07 8.70848510e-07
      7.23435960e-07 5.53011660e-07 4.62270435e-07 4.25337760e-07
      2.24827318e-07 1.02420232e-08 4.84211227e-10 2.76510065e-07
      7.66553057e-07 1.42785609e-06 2.24320343e-06 3.17453782e-06
      4.53880330e-06 5.90213904e-06 6.46355102e-06 5.74943942e-06
      4.45280193e-06 3.15379862e-06 1.71123691e-06 9.72991188e-07
      7.20860953e-07 7.30194586e-07 8.51314837e-07 9.94952416e-07
      9.11126733e-07 7.89664796e-07 9.50817707e-07 1.57301156e-06
      2.61614105e-06 3.71001352e-06 4.74861918e-06 4.94239521e-06
      4.30432146e-06 3.39090593e-06 2.61239006e-06 2.12061968e-06
      1.96926635e-06 1.79208791e-06 1.60910383e-06 1.48572417e-06
      1.48189940e-06 1.41676935e-06 1.29548368e-06 1.12218140e-06
      9.99217150e-07 9.01541455e-07 9.01724832e-07 9.15325643e-07
      5.95245865e-07 4.20125559e-07 -2.05659020e-07 -1.03753314e-06
      -1.51228346e-06 -1.75478658e-06 -1.78857135e-06 -1.48749803e-06
      -5.86903525e-07 7.18094270e-07 1.71081990e-06 2.37150266e-06
      2.78587754e-06 3.07840401e-06 3.05694130e-06 3.03333559e-06
      2.83649865e-06 3.17917238e-06 3.73971830e-06 3.09026791e-06
      1.16367733e-06 -1.08769370e-06 -3.10407131e-06 -5.10952395e-06
      -6.57786723e-06 -5.90884065e-06 -5.79274547e-06 -5.82533858e-06
      -6.15736690e-06 -6.36655204e-06 -6.16760644e-06 -5.00053420e-06
      -4.84013617e-06 -3.14045997e-06 -1.96987935e-06 -1.38493976e-06
      8.91800269e-08 1.25309737e-06 1.39418864e-06 7.71086036e-07
      9.67046034e-08 -3.33440710e-07 -8.37339726e-08 5.49332185e-07
      8.54225050e-07 1.32855564e-06 9.06214609e-07 3.44776254e-07
      -1.56415467e-07 -7.22183643e-07 -7.02197894e-07 -5.88830915e-07
      2.40274881e-06 2.27784221e-06 1.92496827e-06 1.42307374e-06
      7.99660768e-07 3.99347414e-07 2.22754920e-07 6.62995035e-07
      8.39190875e-07 7.24271672e-07 8.63362857e-07 1.00181308e-06
      7.22556422e-07 7.61475690e-07 7.92037213e-07 5.03128547e-07
      1.94326006e-07 -1.93367072e-07 -1.01396601e-07 5.34380035e-07
      8.91047250e-07 1.41920361e-06 2.07083417e-06 2.66442953e-06
      3.52377879e-06 4.11303563e-06 4.42023338e-06 4.85608507e-06
      5.26233907e-06 5.14909971e-06 4.78270977e-06 4.32643674e-06
      4.07666630e-06 3.26178815e-06 2.57939769e-06 2.18362061e-06
      1.92481730e-06 1.10734709e-06 8.31890191e-07 8.75857779e-07
      1.04992091e-06 1.33131243e-06 1.47831054e-06 1.44445551e-06
      1.34400966e-06 1.28567592e-06 9.57121756e-07 7.50556694e-07
      7.01199781e-07 8.97631026e-07 1.13092051e-06 1.30251055e-06
      2.30924206e-06 2.30827800e-06 1.95311759e-06 1.37313418e-06
      5.66082633e-07 1.42095075e-07 2.12687340e-07 8.00192026e-07
      9.84562462e-07 8.32455839e-07 8.83820292e-07 1.22644258e-06
      1.01686931e-06 9.75224566e-07 9.14154327e-07 4.46264636e-07
      1.22067362e-07 -1.79073709e-07 -4.70849955e-08 4.97357973e-07
      1.00979594e-06 1.53741814e-06 2.09125915e-06 2.82270071e-06
      3.73832472e-06 4.29455122e-06 4.55865347e-06 4.88599653e-06
      5.13327632e-06 5.17966691e-06 4.77812273e-06 4.15707518e-06
      3.66739459e-06 3.05655749e-06 2.31877084e-06 1.81872463e-06
      1.70103829e-06 9.76158276e-07 8.42237228e-07 1.04280423e-06
      9.78803428e-07 9.29186228e-07 1.17732907e-06 1.48320510e-06
      1.73894784e-06 1.73541912e-06 9.46930243e-07 1.97109173e-07
      2.72352480e-07 4.55966614e-07 3.05321038e-07 2.49335130e-07
      1.56759234e-06 1.86398120e-06 1.56388228e-06 1.05339939e-06
      3.39270514e-07 -1.08428907e-07 -8.48628616e-08 5.23493043e-07
      9.17359614e-07 6.89338435e-07 6.46942340e-07 1.06846721e-06
      1.24276687e-06 1.06213452e-06 9.02304976e-07 6.27199256e-07
      2.75535513e-07 -1.24097653e-07 -2.23532695e-07 1.31043620e-07
      7.35034746e-07 1.40531915e-06 1.94128825e-06 2.73226487e-06
      3.82794860e-06 4.46212471e-06 4.67358723e-06 5.00268288e-06
      5.11355984e-06 5.07094046e-06 4.68497228e-06 4.15774593e-06
      3.41795817e-06 2.86437671e-06 2.11070233e-06 1.40617010e-06
      1.15577882e-06 5.71042051e-07 6.20907429e-07 1.08026336e-06
      9.63523121e-07 5.54442011e-07 9.73081455e-07 1.63384436e-06
      2.07097696e-06 2.22562812e-06 1.37467282e-06 5.91796493e-07
      6.77286835e-07 4.32520892e-07 -1.68163353e-07 -6.09704330e-07
      5.72651913e-07 5.23536869e-07 3.59131548e-07 3.26279178e-07
      3.15783637e-07 -7.88258632e-08 -2.14380677e-07 -7.09925772e-08
      3.49525635e-07 1.52726855e-07 2.08240962e-08 5.41930945e-07
      1.21544190e-06 8.57202963e-07 6.86006786e-07 7.13739382e-07
      5.10654843e-07 1.65924718e-07 -3.96001276e-08 -1.13308474e-08
      3.09102063e-07 9.23799803e-07 1.47694732e-06 2.10508415e-06
      3.33450953e-06 4.04835919e-06 4.19818480e-06 4.70194527e-06
      4.95883160e-06 4.72229431e-06 4.39087853e-06 4.14578244e-06
      3.42741805e-06 2.81345638e-06 1.77888580e-06 9.68937002e-07
      5.98208885e-07 4.74749271e-07 4.66875264e-07 7.36188838e-07
      7.12099052e-07 6.12137569e-07 1.08803545e-06 1.61254809e-06
      2.05859283e-06 2.43819068e-06 1.90633989e-06 1.31195486e-06
      1.61219168e-06 1.61542266e-06 1.06873938e-06 3.08175430e-07
      -2.76042613e-07 -1.53978874e-07 -3.27496821e-07 -3.71136593e-07
      2.21235208e-09 4.23875548e-08 -1.04252500e-07 -2.28881149e-07
      -2.74130514e-08 -2.53249596e-07 -5.01633622e-07 -5.08885734e-08
      7.95118922e-07 5.33774823e-07 4.54040901e-07 6.74521630e-07
      7.67985341e-07 4.97075405e-07 1.69612150e-07 4.64489922e-08
      2.11583185e-07 5.60243336e-07 9.83682412e-07 1.23946745e-06
      2.26233624e-06 3.13159217e-06 3.14789281e-06 3.60990543e-06
      4.06744084e-06 3.87925684e-06 3.70419798e-06 3.94704739e-06
      3.58218767e-06 2.84363114e-06 1.63443462e-06 4.33605663e-07
      2.43599857e-07 2.15377440e-07 2.11513523e-07 1.84752167e-07
      3.48407809e-07 6.06692083e-07 9.92808964e-07 1.22625352e-06
      1.62266758e-06 1.99124588e-06 1.83669317e-06 1.22101130e-06
      1.23442737e-06 1.64997300e-06 1.62988954e-06 1.38456153e-06
      -1.14572845e-06 -9.29421162e-07 -5.84464033e-07 -1.37592352e-07
      3.08963237e-08 -2.12162746e-07 -2.42886977e-09 -6.52770922e-08
      1.17585472e-07 -2.76713223e-07 -6.87067711e-07 -2.16254989e-07
      3.24659169e-07 2.57391633e-07 3.21639027e-09 3.56598491e-07
      5.68028554e-07 5.05182015e-07 2.61444939e-07 1.48263013e-07
      2.80434620e-07 5.67623772e-07 9.18872331e-07 8.80964819e-07
      1.27707722e-06 2.24062751e-06 2.10726466e-06 1.98119415e-06
      2.54581869e-06 2.86391833e-06 2.82389510e-06 3.08249628e-06
      3.22463029e-06 2.60977959e-06 1.33357571e-06 3.89956938e-07
      1.88152853e-07 3.16749521e-07 -7.64541070e-08 -2.38508221e-07
      5.76143400e-08 1.54163033e-07 3.17532255e-07 3.44066393e-07
      7.90670413e-07 1.32534831e-06 1.30848036e-06 6.71792009e-07
      5.04868126e-07 5.21876984e-07 1.95107404e-07 -6.40142375e-08
      -6.76060381e-07 -1.09530174e-06 -1.03634466e-06 -3.20497065e-07
      2.30840158e-07 -1.82438100e-07 -3.74739898e-07 -2.39902818e-07
      8.07022431e-08 -5.76822998e-08 -3.26624161e-07 6.11369566e-10
      3.95555816e-07 2.76971349e-07 -2.81926731e-08 -5.07422726e-08
      1.43373271e-07 4.17943653e-08 -1.11900775e-07 -2.14951129e-07
      2.71981691e-07 5.34921696e-07 9.28895474e-07 1.01541605e-06
      9.69996449e-07 1.59608658e-06 1.41615590e-06 1.09581140e-06
      1.62538981e-06 2.22418430e-06 2.38345547e-06 2.23769348e-06
      2.06313030e-06 1.67516941e-06 8.15540318e-07 1.83960466e-07
      2.25095150e-07 2.76504380e-07 -3.20218419e-07 -2.98990614e-07
      5.37439995e-08 5.84312474e-08 -1.64934733e-07 -1.72129560e-07
      2.65533146e-07 6.98339136e-07 6.16926627e-07 2.00982853e-07
      -1.04817005e-07 -1.41848290e-07 -7.15396595e-07 -1.14434101e-06
      1.40623899e-06 4.15877480e-07 -5.66934261e-07 -4.36229669e-07
      3.28178544e-07 1.44345037e-07 -5.38878510e-07 -6.93254208e-07
      -3.75466527e-07 -6.08218045e-08 -1.54660938e-07 3.82777756e-07
      7.64663469e-07 4.20772523e-07 1.24660131e-08 -1.33792184e-07
      -1.54709682e-07 -1.21632212e-07 -4.74782667e-07 -7.76557044e-07
      -7.06892180e-08 3.32421592e-07 6.14197575e-07 8.44755562e-07
      7.77209664e-07 1.23004554e-06 1.14347426e-06 7.72818908e-07
      1.07344761e-06 1.77279423e-06 1.93305277e-06 1.59721651e-06
      7.59404884e-07 6.85227235e-07 3.07244250e-07 -1.27556802e-07
      8.84474787e-08 -1.08243484e-07 -7.00162389e-07 -5.39477355e-07
      4.83342077e-08 1.48749663e-07 -1.33655320e-07 5.59178055e-08
      4.67822929e-07 5.64323500e-07 1.74964086e-07 -2.14103849e-07
      -3.32458853e-07 -4.37100766e-07 -8.19606726e-07 -1.12730822e-06
      1.19200331e-06 9.24565654e-07 2.10817404e-07 -1.06929299e-07
      1.61414793e-08 -2.24092560e-07 -7.05144487e-07 -5.40378153e-07
      -4.11503180e-07 -1.58767321e-07 -1.52138213e-07 4.67297667e-07
      9.58968599e-07 1.93698867e-07 -4.11869507e-07 1.00053086e-07
      3.90441130e-07 1.59482966e-07 -2.19566658e-07 -4.29435602e-07
      -3.68962745e-08 1.96885139e-07 3.78303213e-07 4.79683251e-07
      4.34093351e-07 8.56853660e-07 1.09354767e-06 8.50810579e-07
      1.01996011e-06 1.61919741e-06 1.69551993e-06 1.14423221e-06
      6.39450889e-07 6.64349329e-07 4.56813609e-07 8.08238454e-08
      2.06724465e-07 -3.75635750e-07 -7.58750105e-07 -4.91858714e-07
      -5.12178779e-08 9.30067685e-08 -1.58724248e-07 -1.55774202e-07
      1.28436525e-07 2.28332595e-07 -5.06808391e-08 -4.15902718e-07
      -4.52403043e-07 -7.68736925e-07 -1.17335696e-06 -1.19402489e-06
      6.56378916e-07 -5.57749313e-09 -4.93129619e-07 -7.05852699e-07
      -8.22918537e-07 -1.24576047e-06 -1.46973650e-06 -7.14363750e-07
      -4.24360508e-07 -2.05183824e-07 -7.90799675e-08 2.99453319e-07
      5.13286523e-07 -6.37727965e-07 -1.09236385e-06 -5.12462634e-07
      2.85520485e-07 3.70008792e-07 4.45198907e-07 7.99023894e-07
      1.08268080e-06 9.46727596e-07 7.40749840e-07 4.83087149e-07
      3.54286612e-07 8.13335021e-07 1.25680617e-06 1.40818406e-06
      1.48779827e-06 1.82427175e-06 1.77277821e-06 9.26546932e-07
      5.80455435e-07 7.47058323e-07 6.72281999e-07 9.30204394e-08
      1.19842142e-07 -2.92408231e-07 -4.36596423e-07 -4.02337506e-08
      2.55099621e-07 8.48531556e-08 -4.81191250e-07 -1.12692078e-06
      -1.24727558e-06 -1.05143454e-06 -9.42389363e-07 -8.14532143e-07
      -1.02584158e-06 -1.47420485e-06 -1.92799916e-06 -2.00483464e-06
      8.61392238e-08 -8.98906592e-07 -1.62359731e-06 -1.95456050e-06
      -2.20279799e-06 -2.82810356e-06 -2.71532735e-06 -1.91111167e-06
      -1.42324677e-06 -7.79922800e-07 -1.75394177e-07 1.80952089e-08
      -6.46432454e-08 -1.14013426e-06 -1.63387165e-06 -1.03060540e-06
      -3.04431040e-07 3.34686661e-07 1.27760006e-06 1.80952009e-06
      2.00998602e-06 1.93440337e-06 1.58894045e-06 1.08521158e-06
      6.73188765e-07 9.86253781e-07 1.56013959e-06 2.01938110e-06
      2.25647614e-06 2.62325420e-06 2.37846461e-06 1.68256497e-06
      8.27451743e-07 7.63486184e-07 6.94486801e-07 -4.06486649e-08
      -1.96180309e-07 -5.43514261e-07 -6.65956179e-07 -4.77734716e-07
      4.34400647e-07 4.96033408e-07 -1.10068633e-07 -1.22359984e-06
      -2.16102649e-06 -2.19489698e-06 -1.96115548e-06 -1.67748624e-06
      -1.65250253e-06 -1.79488040e-06 -2.15157706e-06 -2.10142593e-06
      -1.86932169e-07 -1.13114743e-06 -2.00692671e-06 -2.52237010e-06
      -2.57280044e-06 -2.99159683e-06 -3.36461085e-06 -3.21229868e-06
      -2.94736105e-06 -2.15994851e-06 -1.03984019e-06 -2.39554339e-07
      -2.11475992e-07 -9.30996407e-07 -1.63007269e-06 -1.11404597e-06
      -4.55835846e-07 3.42329145e-07 1.60801881e-06 2.23035977e-06
      2.40838108e-06 2.55888835e-06 2.36388132e-06 1.71198485e-06
      1.02557226e-06 1.22359870e-06 2.05009405e-06 2.66732900e-06
      2.51916481e-06 2.50486414e-06 2.47087087e-06 1.92565471e-06
      1.15255227e-06 1.07263156e-06 6.56857594e-07 -1.46602403e-07
      -4.75733515e-07 -8.33601575e-07 -1.19489334e-06 -1.25033569e-06
      -3.93905765e-07 4.45633646e-07 6.42174598e-07 -3.62053527e-07
      -1.61097273e-06 -2.31646072e-06 -2.47769049e-06 -1.94943232e-06
      -9.50021217e-07 -9.11710913e-07 -1.17896798e-06 -1.16130923e-06
      -4.65402792e-07 -6.56813882e-07 -1.26249381e-06 -2.02379783e-06
      -2.02392539e-06 -2.19597791e-06 -2.96035660e-06 -3.58308012e-06
      -3.93743676e-06 -3.44926480e-06 -2.30142450e-06 -1.20384141e-06
      1.30968360e-07 2.17811524e-09 -7.62195043e-07 -7.23553171e-07
      -3.85470059e-07 4.08778590e-07 1.60398156e-06 2.07787275e-06
      2.36458754e-06 2.79659707e-06 2.71698468e-06 1.93021197e-06
      1.29824321e-06 1.32468404e-06 2.30171281e-06 3.23904828e-06
      2.38313146e-06 1.84904411e-06 1.77075594e-06 1.58468333e-06
      8.66313144e-07 1.03384423e-06 7.40828966e-07 -2.16526175e-07
      -7.33353318e-07 -1.03427749e-06 -1.20851030e-06 -1.57271904e-06
      -1.60107641e-06 -5.26108238e-07 7.99238705e-07 7.38155336e-07
      -2.86555121e-07 -1.20842208e-06 -1.76607136e-06 -1.51276288e-06
      -1.58800290e-07 6.36762138e-07 6.16968293e-07 6.58212969e-07
      -5.60484580e-07 -5.99168516e-07 -9.60896955e-07 -1.55200394e-06
      -1.53955341e-06 -1.64477945e-06 -2.20440529e-06 -2.99828412e-06
      -3.74537149e-06 -4.12623376e-06 -2.94696792e-06 -2.34141567e-06
      -7.41549229e-07 3.69400084e-07 3.66210713e-07 -1.39397383e-08
      5.78602162e-08 5.26142571e-07 1.29352156e-06 1.44622254e-06
      1.60614786e-06 2.31703279e-06 2.48902757e-06 1.76835658e-06
      1.08381505e-06 1.12914722e-06 1.76413494e-06 2.51177084e-06
      1.85128977e-06 1.05806203e-06 7.67554752e-07 6.37218932e-07
      -3.74624030e-08 2.64637436e-07 4.68650200e-07 -4.68811606e-07
      -1.00270302e-06 -1.27974090e-06 -1.42997351e-06 -1.57909642e-06
      -2.33581000e-06 -2.21511300e-06 -2.34131178e-07 5.51024684e-08
      -1.10942324e-07 -3.47392557e-07 -5.23449046e-07 -6.99843270e-07
      -3.88460855e-08 1.31849288e-06 1.68726785e-06 1.82602014e-06
      -4.49533331e-07 -4.47188711e-07 -9.44231317e-07 -1.47453954e-06
      -1.61884202e-06 -1.36667074e-06 -1.52687915e-06 -1.92054745e-06
      -2.47907860e-06 -3.08673043e-06 -3.30725265e-06 -2.33644141e-06
      -1.35148855e-06 -3.29035856e-07 5.65167909e-07 6.50075833e-07
      7.13708573e-07 9.41740836e-07 1.07629569e-06 6.38525876e-07
      6.65153721e-07 1.41160137e-06 1.92817402e-06 1.37744541e-06
      7.01791009e-07 7.01077965e-07 9.92053060e-07 1.51060999e-06
      1.04221886e-06 2.21835975e-07 -2.37126585e-07 -4.26344144e-07
      -8.17283876e-07 -6.93673826e-07 -3.92372129e-07 -8.63919752e-07
      -1.08578865e-06 -1.25691213e-06 -1.50569679e-06 -1.68024428e-06
      -2.67811856e-06 -3.19315131e-06 -1.99322221e-06 -1.29762441e-06
      -1.27242254e-06 -8.59596582e-07 -5.61913737e-07 -4.01770194e-07
      3.37225970e-07 1.36981339e-06 1.94763402e-06 1.84705527e-06
      -1.08083363e-07 -1.27857291e-07 -8.24098947e-07 -1.38843131e-06
      -1.73086937e-06 -1.65697145e-06 -1.27340809e-06 -1.16090962e-06
      -1.33113099e-06 -1.36990298e-06 -1.63018308e-06 -1.75123853e-06
      -1.30085778e-06 -5.46838635e-07 2.69957638e-07 1.27963676e-06
      1.53201631e-06 1.55901841e-06 1.16433841e-06 8.76370905e-08
      -1.46667730e-07 4.73005258e-07 1.03595903e-06 9.30142903e-07
      5.75660238e-07 5.77125434e-07 5.87352531e-07 7.77845116e-07
      6.50500851e-07 -2.32624217e-07 -6.29694625e-07 -1.01528974e-06
      -7.61485296e-07 -8.09023618e-07 -8.27837198e-07 -1.07695575e-06
      -1.05348909e-06 -1.06603079e-06 -1.16788158e-06 -1.26175576e-06
      -2.20888319e-06 -3.24963094e-06 -2.98801410e-06 -1.86672537e-06
      -1.55814678e-06 -1.13281658e-06 -9.82867164e-07 -1.10431097e-06
      2.58829090e-07 1.37885343e-06 1.98376097e-06 1.91869117e-06
      1.74429204e-07 2.21621619e-07 -4.09821439e-07 -1.09665450e-06
      -1.69183090e-06 -1.79717370e-06 -1.57211446e-06 -1.07140659e-06
      -8.34265279e-07 -6.75332501e-07 -4.52087875e-07 -7.49095875e-07
      -8.72604119e-07 -3.68622608e-07 2.77855548e-07 7.37215032e-07
      1.71091676e-06 2.38559710e-06 1.40320435e-06 -2.09591946e-07
      -6.55393308e-07 -3.95949399e-07 4.97853705e-08 4.33821640e-07
      6.22145251e-07 8.78616163e-07 9.64053129e-07 7.97891232e-07
      7.15849126e-07 1.63273185e-07 -3.18173420e-07 -8.77496916e-07
      -6.35086963e-07 5.54152848e-08 1.95064175e-07 -2.79655854e-08
      -4.19540953e-07 -6.09890378e-07 -6.93450716e-07 -7.25057362e-07
      -1.24753922e-06 -2.23594338e-06 -2.28940780e-06 -1.64409983e-06
      -1.16588456e-06 -7.49448020e-07 -7.57475277e-07 -1.07821472e-06
      -7.03467947e-07 8.40855307e-07 1.61817854e-06 1.70485646e-06
      2.16165617e-07 5.14433616e-08 -2.84687530e-07 -8.40695520e-07
      -1.31058505e-06 -1.47720664e-06 -1.37016741e-06 -1.06095501e-06
      -6.89462468e-07 -3.37799776e-07 -2.84600823e-08 -4.52745823e-08
      -5.30214095e-07 -6.23023539e-07 -1.25451180e-07 1.96524070e-07
      8.11337884e-07 1.73236037e-06 1.78599453e-06 7.05467869e-07
      2.26910881e-08 -3.16362190e-07 -2.59980339e-07 1.66058882e-07
      5.13383270e-07 7.09651033e-07 9.98973746e-07 7.82489565e-07
      9.60594889e-07 9.86636792e-07 5.35959032e-07 -1.53625791e-07
      -5.14769056e-07 2.00770927e-07 9.34295713e-07 1.05252968e-06
      9.01994554e-07 5.71670682e-07 1.68819767e-07 6.38105107e-08
      -3.65251310e-07 -9.71750524e-07 -1.00053944e-06 -8.11694974e-07
      -4.86366218e-07 -2.15584762e-07 -1.82974716e-07 -6.15454837e-07
      -1.18827154e-06 -4.12182317e-07 3.71945305e-07 6.86953115e-07
      1.53356865e-07 -1.38603028e-07 -4.55947060e-07 -6.75917022e-07
      -9.52184450e-07 -1.12733130e-06 -9.58686655e-07 -8.19365425e-07
      -5.92661991e-07 -2.31133455e-07 1.48440506e-07 2.67892972e-07
      -7.73987594e-08 -4.66909086e-07 -3.98245930e-07 9.85459963e-08
      5.11485155e-07 9.36921595e-07 1.39033568e-06 1.24549877e-06
      9.71328632e-07 5.64331913e-07 1.02213349e-07 3.02612648e-07
      2.76976493e-07 1.21453141e-07 4.42600594e-07 2.96507636e-07
      6.53614620e-07 1.41138719e-06 1.33482479e-06 8.58865974e-07
      1.16951959e-07 1.42615363e-07 6.19411026e-07 1.03048171e-06
      1.05032461e-06 7.20093965e-07 6.73109184e-07 5.57285205e-07
      4.46690194e-07 1.95149541e-09 -2.80497492e-08 2.96575877e-07
      3.95303772e-07 2.43710360e-07 2.09091340e-07 -1.56761129e-08
      -8.43984935e-07 -9.92091486e-07 -5.29251338e-07 -5.28314274e-07
      3.16929203e-07 1.01269066e-07 -2.04739720e-07 -3.70782175e-07
      -7.41637109e-07 -9.21998435e-07 -5.24481379e-07 -4.71155914e-07
      -3.06824148e-07 -1.04595969e-07 2.61798743e-08 -1.08145031e-07
      -5.08421962e-08 3.02265335e-07 6.10216716e-07 7.37213384e-07
      7.04081515e-07 7.61824765e-07 9.45966804e-07 9.18888304e-07
      7.03491082e-07 6.82518078e-07 7.22179152e-07 6.56454517e-07
      2.95419937e-07 -6.12968023e-08 -4.26728377e-08 -2.04842525e-08
      3.30883239e-07 1.23836912e-06 1.54201098e-06 1.47631454e-06
      1.10523922e-06 7.82954146e-07 8.99850988e-07 9.09093330e-07
      7.79040647e-07 4.77105687e-07 6.04278114e-07 1.04772425e-06
      1.04776495e-06 6.17212265e-07 3.24421649e-07 5.08734047e-07
      4.28075651e-07 1.77212812e-07 5.87891407e-07 4.13974249e-07
      -3.25994051e-07 -1.00453997e-06 -9.62070203e-07 -1.25997167e-06
      2.00475540e-07 5.64108689e-08 -7.97988093e-08 -1.18896381e-07
      -5.94633889e-07 -4.93265418e-07 -4.19294537e-07 -2.59191381e-07
      1.87324893e-08 2.95221980e-07 2.85875728e-07 -1.00541293e-07
      -1.92521469e-07 4.90794207e-07 1.02306478e-06 1.29810564e-06
      1.34273046e-06 1.25986060e-06 1.06656239e-06 6.83349981e-07
      4.10075756e-07 4.17805722e-07 5.56743203e-07 3.95794302e-07
      -5.69864049e-08 -4.04262124e-07 -4.38698009e-07 -1.03593443e-07
      2.09239403e-07 1.20273921e-06 1.59021386e-06 1.63906168e-06
      1.53686483e-06 1.14137242e-06 1.17549780e-06 1.17842910e-06
      7.87876161e-07 2.96830564e-07 4.29392259e-07 1.07926610e-06
      1.18929154e-06 8.02444163e-07 5.17852015e-07 5.03772696e-07
      2.60405074e-07 1.36045657e-07 7.09713049e-07 8.20714263e-07
      -2.39131648e-08 -1.07404628e-06 -1.36265669e-06 -1.35793903e-06
      -6.59211778e-08 -1.46363845e-07 -2.21766456e-07 -2.96752944e-07
      -4.05437845e-07 -8.24562463e-08 -7.84829055e-08 -5.32349205e-08
      1.18804714e-07 4.08835575e-07 5.73197894e-07 4.55475174e-07
      4.55857702e-07 6.55437304e-07 6.55813380e-07 9.07299579e-07
      1.50123947e-06 1.77432969e-06 1.65803556e-06 1.14102284e-06
      6.02906653e-07 5.24195855e-07 5.96789675e-07 3.53370950e-07
      -1.95678155e-07 -6.24274946e-07 -7.51677931e-07 -5.75014553e-07
      -3.64413324e-07 6.13996406e-07 1.38820940e-06 1.63033019e-06
      1.79198673e-06 1.52706571e-06 1.20410334e-06 1.15829482e-06
      8.57826251e-07 3.09486438e-07 3.12551862e-07 9.30801150e-07
      1.01395415e-06 5.47628417e-07 5.90962202e-07 8.39811264e-07
      6.12938379e-07 5.33477191e-07 1.06046480e-06 1.23348889e-06
      5.16295131e-07 -3.34507462e-07 -6.67377492e-07 -6.27349948e-07
      -4.06463528e-07 -4.13361562e-07 -5.95001779e-07 -6.20847288e-07
      -4.76538446e-07 -1.21404852e-07 1.38992547e-07 6.85144315e-08
      5.60648594e-08 3.32998923e-07 5.79598520e-07 6.19582750e-07
      1.05976733e-06 1.16661545e-06 7.56583063e-07 4.52834598e-07
      8.95435960e-07 1.61067476e-06 1.83359930e-06 1.61354046e-06
      1.27951137e-06 1.37603934e-06 1.18870707e-06 7.84348515e-07
      2.26293878e-07 -3.70339535e-07 -6.15452905e-07 -9.25461904e-07
      -9.39399740e-07 -5.42579471e-07 5.35684251e-07 1.09080656e-06
      1.65324218e-06 1.76896003e-06 1.63061611e-06 1.65039000e-06
      1.49392076e-06 8.51856896e-07 5.13450232e-07 8.87679562e-07
      7.82566985e-07 2.81301823e-07 4.78445713e-07 1.11556778e-06
      1.07447897e-06 1.02053264e-06 1.26452210e-06 1.46199523e-06
      9.85738552e-07 6.89433762e-07 8.78896856e-07 8.76606919e-07
      -8.38556275e-07 -6.97186920e-07 -8.25348081e-07 -9.68484983e-07
      -6.92616652e-07 -2.57855135e-07 -3.08075059e-08 -6.87983572e-08
      -8.08348375e-08 2.18066646e-07 2.39472570e-07 3.46140041e-07
      1.07196195e-06 1.31515458e-06 1.11945928e-06 6.40383291e-07
      3.91736535e-07 7.15917849e-07 1.05010167e-06 1.13984493e-06
      1.17424008e-06 1.64664357e-06 1.93783740e-06 1.55407417e-06
      1.01735316e-06 3.89060972e-07 -9.06752931e-08 -7.38080644e-07
      -1.05883589e-06 -7.76722572e-07 -1.02235127e-07 1.50942284e-07
      7.70894360e-07 1.24609119e-06 1.46539867e-06 1.67350493e-06
      1.80462257e-06 1.49783568e-06 1.06881703e-06 1.12736518e-06
      9.09975256e-07 2.72428906e-07 1.96247569e-07 9.70237352e-07
      1.17755428e-06 1.03849811e-06 1.20966911e-06 1.32219827e-06
      1.09772645e-06 1.18453920e-06 1.60315278e-06 1.67644771e-06
      -1.51393613e-06 -1.17067884e-06 -1.01789419e-06 -9.16714328e-07
      -6.88303203e-07 -2.68270156e-07 -5.21522274e-08 -1.42247146e-07
      -1.45621314e-07 1.22134992e-07 1.18041335e-07 1.29122455e-07
      7.31504940e-07 9.36298136e-07 8.84089502e-07 7.03912519e-07
      4.99103635e-07 4.02242762e-07 3.39447951e-07 3.34844145e-07
      5.89252807e-07 1.16471517e-06 1.75690639e-06 2.16270996e-06
      1.85748002e-06 1.06537379e-06 5.30798445e-07 -1.82862067e-07
      -6.78878735e-07 -4.82426515e-07 1.20981156e-07 7.66199051e-08
      3.91219004e-07 8.59261377e-07 9.96617018e-07 1.14317334e-06
      1.49721632e-06 1.59753620e-06 1.30193280e-06 1.14139027e-06
      1.11933639e-06 6.57700298e-07 3.05361652e-07 5.20834476e-07
      7.97678638e-07 7.50228480e-07 8.70378528e-07 1.01667570e-06
      9.52020457e-07 1.18585456e-06 1.63719073e-06 1.72321063e-06
      -2.31939271e-06 -1.77285028e-06 -1.38404528e-06 -1.09086977e-06
      -6.51313371e-07 -3.11235254e-07 -1.46076601e-07 -2.29293363e-07
      -1.06084038e-07 9.41132114e-08 1.15018445e-07 3.60307155e-07
      7.33665900e-07 6.70827831e-07 6.16131899e-07 6.13639088e-07
      5.19407706e-07 2.99508315e-07 1.54445232e-07 -1.24142536e-08
      5.20758192e-08 5.34539879e-07 9.58221108e-07 1.51803476e-06
      1.54928807e-06 1.06028381e-06 7.08307141e-07 6.39327880e-09
      -4.19271828e-07 -2.71346948e-07 4.18859344e-07 2.64748991e-07
      2.87399303e-07 5.98444842e-07 8.03112698e-07 9.15984515e-07
      1.21297671e-06 1.46178388e-06 1.17112074e-06 7.37662447e-07
      7.66383266e-07 6.43298449e-07 3.87657792e-07 3.83135102e-07
      3.67489008e-07 3.83665508e-07 4.08311251e-07 6.68185692e-07
      7.62885861e-07 8.89995988e-07 1.15217040e-06 1.26219777e-06
      -2.88947945e-06 -2.46963054e-06 -1.86771990e-06 -1.42704278e-06
      -8.93282731e-07 -4.33971735e-07 -3.83696715e-07 -4.69999804e-07
      -1.93188129e-07 -8.50681481e-09 6.58276322e-09 3.77133603e-07
      7.74293085e-07 6.56869929e-07 5.76078378e-07 4.00716175e-07
      2.09539607e-07 9.96998679e-08 -9.11621223e-10 -5.33949098e-08
      -1.22622641e-08 7.82538123e-09 1.36587047e-07 4.44472562e-07
      6.82875054e-07 5.89877970e-07 6.72076965e-07 -9.85714195e-08
      -4.97654867e-07 -5.55209283e-07 1.03351908e-07 2.25374961e-07
      -1.64777592e-09 1.68785164e-07 2.41994428e-07 2.50629029e-07
      4.22571446e-07 6.82754489e-07 6.34743458e-07 3.01112095e-07
      1.13742779e-07 6.67242048e-08 -9.88859394e-09 8.36376941e-08
      1.61466374e-07 1.54130575e-07 1.81670899e-07 4.28958003e-07
      6.15300621e-07 7.24851077e-07 9.18962030e-07 1.03038985e-06
      -2.86604859e-06 -2.63853053e-06 -1.87970318e-06 -1.33488470e-06
      -9.01139742e-07 -6.40734413e-07 -6.54647010e-07 -5.87789657e-07
      -3.69727900e-07 -2.05712922e-07 -4.08882208e-08 2.36559231e-07
      4.75811078e-07 4.47475315e-07 7.32766694e-07 4.07598748e-07
      -2.78457065e-07 -5.98362590e-07 -3.22916065e-07 -9.37973894e-08
      -9.14249441e-08 -3.91862415e-07 -5.69971519e-07 -3.15176749e-07
      1.36622349e-08 1.65172608e-07 5.24914753e-07 8.88297880e-09
      -4.07393031e-07 -6.92658375e-07 -3.67397746e-07 -3.07292794e-07
      -6.14972976e-07 -5.59114255e-07 -4.77762796e-07 -6.68266637e-07
      -9.46824628e-07 -8.20601315e-07 -5.68831808e-07 -5.49245271e-07
      -4.74757201e-07 -3.65573953e-07 -3.61616600e-07 -1.35789776e-07
      6.41302265e-08 8.63947562e-08 1.15252433e-07 4.43390093e-07
      7.26604185e-07 8.04189142e-07 9.17147361e-07 1.05689378e-06
      -2.40219765e-06 -2.23106190e-06 -1.66236464e-06 -9.35921719e-07
      -6.23264270e-07 -5.82541361e-07 -5.75939396e-07 -5.35120250e-07
      -6.30501688e-07 -5.01407840e-07 -2.12140577e-07 -1.07353566e-08
      1.77310213e-07 4.62085950e-07 7.57443559e-07 2.79015751e-07
      -4.49616863e-07 -9.72724479e-07 -7.19028151e-07 -2.57713538e-07
      -2.47392023e-07 -4.86484282e-07 -5.10249720e-07 -4.34995115e-07
      -2.68015242e-07 1.48990239e-07 6.28250120e-07 3.66571555e-07
      2.31270079e-07 -1.43127878e-07 -6.13590998e-07 -8.52568064e-07
      -1.52856273e-06 -1.74827210e-06 -1.46238119e-06 -1.51718098e-06
      -1.70221506e-06 -1.69054772e-06 -1.41654061e-06 -1.30382671e-06
      -1.29124271e-06 -1.04013782e-06 -7.33002992e-07 -3.07624333e-07
      8.33376568e-09 9.04411550e-08 -2.69805711e-09 4.28035662e-07
      8.32685600e-07 8.76009324e-07 9.95588266e-07 1.10455846e-06
      -2.06175719e-06 -1.85216425e-06 -1.31282854e-06 -7.34346202e-07
      -4.34449760e-07 -3.23976394e-07 -1.17240276e-07 -8.51160209e-08
      -3.84647535e-07 -5.71759188e-07 -1.98898519e-07 -1.41144369e-07
      2.74432153e-07 9.10078086e-07 1.25676968e-06 3.45663665e-07
      -3.81863941e-07 -7.61065508e-07 -5.54754763e-07 -4.29917293e-07
      -6.71111081e-07 -6.88810246e-07 -5.47657919e-07 -1.57401942e-07
      4.94552864e-07 7.44511453e-07 1.07861160e-06 1.02598824e-06
      8.91885009e-07 5.38804045e-07 -2.12872621e-07 -1.03412060e-06
      -2.18496120e-06 -2.68884014e-06 -2.52280188e-06 -2.42439933e-06
      -2.42267652e-06 -2.20483275e-06 -1.70770568e-06 -1.56954172e-06
      -1.68840018e-06 -1.58525654e-06 -1.23502673e-06 -6.05497348e-07
      -1.93493307e-07 6.59076527e-09 -7.93524109e-08 3.25219304e-07
      7.93133779e-07 8.89770149e-07 1.01641842e-06 1.10204496e-06
      -1.71950217e-06 -1.68820532e-06 -1.23615371e-06 -8.09529297e-07
      -5.34022945e-07 -3.91361084e-07 1.30023651e-07 2.77056415e-07
      -5.20371550e-08 -3.56798580e-07 -3.59535735e-09 9.91036941e-08
      6.92788547e-07 1.86489274e-06 2.04637558e-06 1.06369089e-06
      6.32178399e-07 2.25792803e-07 1.32609216e-07 -7.66817791e-08
      -4.79672963e-07 -5.00148019e-07 -3.15252436e-07 -9.74753434e-09
      6.81372057e-07 1.15633009e-06 1.47819856e-06 1.74104628e-06
      1.66652376e-06 1.33418905e-06 5.37560879e-07 -3.81442135e-07
      -1.70654221e-06 -2.94663323e-06 -2.82875658e-06 -2.83976578e-06
      -2.67923588e-06 -2.10507278e-06 -1.28388365e-06 -9.70706878e-07
      -1.20888706e-06 -1.42891690e-06 -1.30375577e-06 -8.76410411e-07
      -4.26241826e-07 -2.14188400e-08 -2.40823503e-08 3.23005963e-07
      7.66656399e-07 8.79750019e-07 1.02310833e-06 1.06367224e-06
      -1.51627989e-06 -1.49325547e-06 -1.27868361e-06 -9.95622713e-07
      -7.35163496e-07 -5.02824719e-07 -3.16081135e-08 3.36815930e-07
      1.29284983e-08 -1.97059137e-07 1.58158272e-07 5.36060384e-07
      1.16329556e-06 2.58943032e-06 3.53407768e-06 2.60568936e-06
      1.76292690e-06 1.35353616e-06 8.51572679e-07 1.97233618e-07
      -1.01905828e-09 -4.51114346e-07 -5.97167343e-07 -5.28491285e-07
      2.64941320e-07 7.74086175e-07 1.12990563e-06 1.68013787e-06
      1.86899206e-06 1.71507065e-06 1.10083613e-06 2.76591805e-07
      -6.10707389e-07 -1.33289711e-06 -1.43056934e-06 -1.50041126e-06
      -1.52541293e-06 -1.16235253e-06 -5.02042894e-07 4.60614906e-08
      -2.77799046e-07 -8.96668212e-07 -9.66364837e-07 -8.10884217e-07
      -4.50070019e-07 -1.22172850e-07 -5.43469412e-08 3.81878635e-07
      8.39913753e-07 9.44458520e-07 1.12884038e-06 1.12310784e-06
      -1.50207211e-06 -1.43052580e-06 -1.33361459e-06 -9.50241713e-07
      -7.63848163e-07 -4.59196315e-07 1.59067710e-08 3.55265655e-07
      2.66442555e-07 1.93654557e-07 4.69366370e-07 1.08712004e-06
      1.69414261e-06 2.72835223e-06 3.70848693e-06 3.73031958e-06
      3.83363067e-06 3.73920966e-06 2.88778301e-06 1.11383974e-06
      -9.45103267e-08 -5.04880973e-07 -1.00779448e-06 -1.17916807e-06
      -6.57185808e-07 -1.44289373e-07 3.40448594e-07 7.70097927e-07
      9.64575975e-07 1.13958288e-06 9.48191428e-07 4.52947091e-07
      9.78455930e-08 2.43880152e-07 9.24293147e-07 1.27298495e-06
      1.10669930e-06 9.82657298e-07 1.12798784e-06 1.28355509e-06
      7.92326546e-07 -3.51734286e-08 -4.85676139e-07 -5.63810545e-07
      -3.39745583e-07 -1.88704448e-07 -2.55142140e-07 1.33283095e-07
      6.67542736e-07 8.64492563e-07 1.09658470e-06 1.30185856e-06
      -1.52420375e-06 -1.43093052e-06 -1.13266299e-06 -7.75714852e-07
      -6.05415892e-07 -3.79915747e-07 1.62860346e-07 3.42390877e-07
      4.62370679e-07 7.05291939e-07 1.23382961e-06 1.94706354e-06
      2.31003378e-06 2.79397705e-06 2.92185791e-06 2.92605660e-06
      3.60910281e-06 4.31548960e-06 3.78988375e-06 2.30587307e-06
      9.54792313e-07 -1.53595536e-07 -9.28680549e-07 -1.49959737e-06
      -1.47353865e-06 -1.23924349e-06 -7.17717398e-07 -3.92472998e-07
      -4.33986855e-07 -1.97703599e-07 -1.24510436e-07 -1.01608656e-07
      -2.29258902e-07 -2.59122686e-07 1.05785637e-06 2.44829766e-06
      2.76322066e-06 2.49568052e-06 2.19587309e-06 1.98990233e-06
      1.34756363e-06 5.49104016e-07 -1.50740902e-07 -5.12552958e-07
      -3.49782454e-07 -3.07860148e-07 -3.84875420e-07 2.46548897e-08
      5.11571557e-07 6.88555474e-07 9.83024506e-07 1.28769136e-06
      -1.17701950e-06 -1.15303567e-06 -7.61138097e-07 -4.20633171e-07
      -1.66868418e-07 -1.41567085e-07 1.70213241e-07 3.91638082e-07
      5.51355697e-07 1.05574429e-06 1.65414815e-06 2.53686972e-06
      2.89308127e-06 2.94297888e-06 2.81015446e-06 2.55276041e-06
      2.54212705e-06 3.02160311e-06 3.12989073e-06 2.21076971e-06
      1.24690644e-06 6.85345128e-07 -6.02376701e-07 -1.47303126e-06
      -1.70789747e-06 -1.97077134e-06 -1.72441764e-06 -1.39235863e-06
      -1.20162406e-06 -7.14012117e-07 -7.05510502e-07 -4.20676656e-07
      -2.85562834e-07 -6.95191488e-07 -5.76316106e-09 1.80378868e-06
      2.46855484e-06 2.41818361e-06 2.02749197e-06 2.02264800e-06
      1.37345864e-06 5.98382258e-07 -3.65646287e-07 -5.62549189e-07
      -3.21288923e-07 -3.81277601e-07 -4.57848927e-07 -1.25671406e-07
      3.71293993e-07 5.73601085e-07 8.17980890e-07 1.04619301e-06
      -9.58022156e-07 -8.29197631e-07 -5.71284602e-07 -7.22535063e-08
      3.45052229e-07 2.62969991e-07 1.90405345e-07 4.21000493e-07
      4.74304869e-07 1.17282491e-06 1.92041784e-06 2.47036269e-06
      2.50233529e-06 2.57253896e-06 2.88939850e-06 2.87956732e-06
      2.23075540e-06 1.77003517e-06 1.42130034e-06 1.17021818e-06
      9.67208848e-07 3.94066888e-07 5.57840814e-08 -9.97322559e-07
      -1.81646817e-06 -2.06571508e-06 -2.13218209e-06 -1.79797416e-06
      -1.35000278e-06 -6.71995508e-07 -3.60794672e-07 -1.83348405e-07
      1.59106222e-07 -3.91812193e-07 -6.19716445e-07 6.53524012e-07
      1.47289290e-06 1.72381715e-06 1.60470347e-06 1.65343499e-06
      1.28654426e-06 4.61060523e-07 -3.66951241e-07 -4.75668202e-07
      -1.55910968e-07 -2.03999406e-07 -2.05736342e-07 -1.16199345e-07
      4.66414640e-08 4.70002732e-07 8.39165580e-07 8.79065112e-07
      -8.94950119e-07 -6.73154091e-07 -5.29031183e-07 3.36458350e-09
      4.99266264e-07 4.26746709e-07 2.24346095e-07 3.55994388e-07
      2.20104582e-07 8.82847644e-07 1.63328320e-06 2.25321173e-06
      2.20365882e-06 1.89222180e-06 2.16936178e-06 2.79197184e-06
      2.76731225e-06 2.28471572e-06 1.76725644e-06 1.36215999e-06
      8.65718278e-07 6.37872745e-07 1.39774798e-07 -4.91606045e-07
      -1.03956199e-06 -1.56800593e-06 -1.85898432e-06 -1.78214668e-06
      -1.46831394e-06 -9.67175083e-07 -4.49945560e-07 5.99116703e-08
      5.99399755e-07 4.98335339e-07 -5.28529199e-07 -7.49168338e-10
      5.51484959e-07 8.47143724e-07 1.03557784e-06 1.25365716e-06
      8.43540477e-07 -4.43400765e-08 -1.69736353e-07 5.98706791e-08
      3.55672057e-07 3.77220914e-07 2.93020179e-07 2.78988466e-07
      3.45462183e-07 6.83054623e-07 1.06318657e-06 1.09131247e-06
      -6.15030842e-07 -6.49616027e-07 -4.06018614e-07 4.54728628e-08
      6.62134482e-07 6.68435575e-07 2.85735524e-07 3.66957039e-07
      1.89635784e-07 4.55049729e-07 1.05390677e-06 1.74254012e-06
      1.87083583e-06 1.23761697e-06 1.07602409e-06 1.49268317e-06
      2.01784883e-06 2.47921798e-06 2.24709493e-06 1.77466734e-06
      1.35699997e-06 9.03126704e-07 3.81868546e-07 -1.47022178e-07
      -4.58455872e-07 -8.18540627e-07 -1.26601299e-06 -1.29772855e-06
      -1.33440835e-06 -1.30098067e-06 -7.85544046e-07 1.28804999e-07
      8.48737272e-07 8.54862435e-07 -1.83678594e-07 -2.58896023e-07
      9.23027821e-10 1.85700017e-07 6.20649246e-07 1.00745103e-06
      5.96678717e-07 -3.05080505e-07 -4.13199217e-07 -1.10340466e-07
      5.13752809e-07 8.71425186e-07 8.64286903e-07 8.43521832e-07
      8.26599830e-07 9.49045443e-07 1.38803694e-06 1.75411481e-06
      9.45287866e-08 2.10317893e-07 3.10662728e-07 6.58388785e-07
      1.11941984e-06 1.13507963e-06 7.94619439e-07 7.54087409e-07
      7.63518926e-07 4.66491855e-07 7.84426049e-07 1.63950870e-06
      1.78292623e-06 1.49787229e-06 7.62328852e-07 3.89702507e-07
      8.41753035e-07 1.54044380e-06 2.10575831e-06 2.14548777e-06
      1.69527743e-06 1.04190190e-06 6.51410744e-07 3.65852088e-07
      1.87483010e-07 -1.21057724e-07 -6.65283608e-07 -5.00809563e-07
      -7.38068536e-07 -1.10188830e-06 -8.92054231e-07 1.87082833e-07
      9.10247763e-07 8.34262096e-07 -9.22356946e-08 -2.32251892e-07
      7.45407576e-08 2.93453979e-07 8.41768497e-07 1.31207867e-06
      1.01619037e-06 4.13736473e-07 -6.29705141e-08 -3.01824031e-07
      2.06056839e-07 8.40763448e-07 9.76170895e-07 7.75688022e-07
      7.08722155e-07 7.27227928e-07 1.12591749e-06 1.76325284e-06
      4.23615461e-07 5.07856441e-07 7.44966940e-07 1.22706422e-06
      1.74961917e-06 1.60952527e-06 1.18259288e-06 1.31083584e-06
      1.48783454e-06 8.12953658e-07 8.05113643e-07 1.50954043e-06
      1.78095434e-06 1.68795509e-06 1.14365025e-06 2.19441915e-07
      1.52517487e-07 3.48848857e-07 9.19350839e-07 1.42953809e-06
      1.44254921e-06 1.42551414e-06 1.19678191e-06 1.18330388e-06
      7.31610214e-07 3.69732476e-07 1.27983654e-07 1.69402270e-07
      1.78491064e-07 -5.86823106e-08 -2.61189342e-07 9.22813044e-08
      3.77220744e-07 2.67076615e-07 -2.06108439e-07 7.64101671e-08
      5.01062800e-07 7.54091161e-07 1.29450723e-06 1.54513066e-06
      1.43302259e-06 9.93751769e-07 4.12185642e-07 -3.40072944e-07
      -1.30840860e-07 4.20531677e-07 7.56622512e-07 4.22123776e-07
      4.27741071e-07 3.23799753e-07 7.05631976e-07 1.22440485e-06
      3.93638089e-07 2.86302281e-07 6.27271447e-07 1.35113305e-06
      2.02101864e-06 2.13807766e-06 1.78526500e-06 1.85542649e-06
      1.82405165e-06 1.18841103e-06 9.76089382e-07 1.24656503e-06
      1.53066185e-06 1.77107654e-06 1.27266139e-06 4.80774986e-07
      5.47179759e-08 -1.10763288e-07 4.73233364e-08 3.25769747e-07
      5.22951950e-07 8.18778517e-07 1.07641426e-06 1.42081660e-06
      1.28461363e-06 8.90645254e-07 7.71599957e-07 9.95510504e-07
      1.05749200e-06 1.00496538e-06 8.32321120e-07 6.74919534e-07
      2.51613471e-07 -5.54309132e-08 -8.69167280e-08 2.20838203e-07
      5.59083048e-07 6.57476448e-07 1.17273032e-06 1.37769246e-06
      1.33817355e-06 1.14562397e-06 7.32255955e-07 -3.10378878e-09
      -3.39670464e-07 -2.13309519e-07 3.57720126e-07 3.07345232e-07
      2.17156071e-07 1.51583251e-07 4.27756675e-07 9.11094276e-07
      6.62600286e-08 7.19827256e-08 6.94521248e-07 1.52973257e-06
      2.03686432e-06 2.27995702e-06 2.26702855e-06 2.06759569e-06
      1.86657587e-06 1.45755757e-06 1.28441320e-06 8.88956322e-07
      9.17406396e-07 1.42523402e-06 1.39250744e-06 9.07753986e-07
      7.08434413e-07 4.08160474e-07 -2.97170288e-07 -6.60958790e-07
      -4.03608141e-07 -9.17399490e-08 3.35030279e-07 7.67893312e-07
      1.06215043e-06 1.33371918e-06 1.40792417e-06 1.45685249e-06
      1.26050486e-06 1.04791866e-06 1.07752987e-06 8.29518171e-07
      5.14762348e-07 2.49994144e-07 5.53925759e-07 7.03242733e-07
      6.23239089e-07 3.02224265e-07 4.87770933e-07 7.89702426e-07
      8.20466425e-07 5.70952125e-07 6.62077014e-07 2.74512075e-07
      -2.72232626e-07 -3.68522791e-07 2.07685375e-07 7.85818770e-08
      1.91684109e-08 9.63098543e-08 3.64845008e-08 1.28600476e-07
      -2.24745165e-07 -8.75691626e-08 5.01106058e-07 1.41060161e-06
      1.77035940e-06 2.04133653e-06 2.18419905e-06 2.06706932e-06
      1.90086394e-06 1.41848693e-06 1.16525121e-06 7.36256311e-07
      4.87937882e-07 1.00894806e-06 8.90751835e-07 7.58943315e-07
      1.02209026e-06 6.70123029e-07 -6.14773114e-07 -1.39164979e-06
      -1.06117318e-06 -8.58707267e-07 -2.87720798e-08 6.09429605e-07
      9.64011406e-07 1.38851306e-06 1.78834398e-06 2.00164027e-06
      2.09312157e-06 1.83658858e-06 1.40263376e-06 8.61372541e-07
      4.93696973e-07 5.75631248e-07 8.15819135e-07 1.06870573e-06
      9.20429841e-07 5.51290668e-07 2.93651397e-07 3.16681280e-07
      4.78225047e-07 3.23798361e-07 3.13201582e-07 3.86722178e-07
      1.48827866e-07 3.79560134e-08 2.34822309e-07 -5.07024422e-09
      -1.91505066e-07 5.71797152e-08 1.33738226e-07 -1.64077252e-09
      2.30302916e-07 1.69511040e-07 4.15915110e-07 9.15387432e-07
      1.40713814e-06 1.76929007e-06 1.85980468e-06 1.72406283e-06
      1.68657641e-06 1.33348783e-06 9.63443767e-07 3.53091963e-07
      2.11397605e-07 4.60202472e-07 6.22127743e-07 4.13142033e-07
      5.43400120e-07 2.97688132e-07 -5.37039966e-07 -1.18515186e-06
      -1.32716173e-06 -9.85979227e-07 -1.13975823e-07 9.77555032e-07
      2.03788568e-06 2.45090382e-06 2.45410229e-06 2.48376023e-06
      2.30548130e-06 1.95476991e-06 1.61674211e-06 1.47758237e-06
      7.85339978e-07 8.58284977e-07 1.08431254e-06 9.68267159e-07
      9.67689289e-07 8.29957855e-07 5.75984245e-07 1.00385783e-07
      -4.10197103e-08 -3.89618116e-08 -1.93562339e-08 5.27752917e-08
      2.36413214e-07 4.26582773e-07 4.56467035e-07 2.43828481e-07
      1.17319495e-07 4.78634263e-07 6.30676141e-07 6.10588359e-07
      1.37339907e-06 1.28202839e-06 1.11981899e-06 1.02583738e-06
      1.26489044e-06 1.66303448e-06 1.56530848e-06 1.49107177e-06
      1.61518233e-06 1.42675208e-06 9.97551865e-07 3.72884216e-07
      -3.26508655e-07 -2.96583522e-07 2.23248065e-07 2.84937414e-07
      4.06625986e-07 4.11066559e-08 -1.99499354e-07 -6.16155660e-07
      -9.33942829e-07 -1.02219326e-06 -4.08878321e-07 8.00116993e-07
      2.02579054e-06 2.99234125e-06 2.90275148e-06 2.98714508e-06
      2.61253354e-06 1.95448092e-06 1.81095288e-06 1.77450067e-06
      1.35143125e-06 1.22063079e-06 1.22988104e-06 7.05442744e-07
      7.24163613e-07 1.15818170e-06 1.07433425e-06 3.59488325e-07
      -1.32731675e-08 -1.96665283e-07 -3.72325161e-07 -4.47401590e-07
      -1.45843266e-08 3.06776684e-07 3.77466307e-07 3.15037823e-07
      5.35008837e-07 7.52112783e-07 8.04218075e-07 1.04831361e-06
      2.43146906e-06 2.26080147e-06 1.84559553e-06 1.48569552e-06
      1.63049208e-06 2.00618751e-06 1.57554859e-06 1.26529858e-06
      1.35238747e-06 1.11733709e-06 8.61702915e-07 6.43754106e-07
      -2.86645570e-08 -6.87697479e-07 -5.71999749e-07 -3.01236526e-07
      3.62518648e-07 4.74985399e-07 6.10271229e-07 6.02190994e-07
      4.29774587e-07 2.22852790e-07 4.25556181e-07 7.31565194e-07
      1.43953048e-06 2.18493369e-06 2.67472319e-06 2.76508104e-06
      2.99620274e-06 2.94535084e-06 2.66870597e-06 2.46044942e-06
      1.74647312e-06 1.44213857e-06 1.37103518e-06 1.03502191e-06
      7.79450374e-07 1.27433464e-06 1.45697129e-06 8.97862321e-07
      4.49153703e-07 2.89843598e-07 -3.26402372e-09 -1.40018130e-07
      3.67455840e-07 4.15135958e-07 3.13164804e-07 2.88288277e-07
      3.94155990e-07 4.72689493e-07 3.31388691e-07 2.79839583e-07
      2.95550785e-06 2.69504881e-06 2.10964231e-06 1.55027885e-06
      1.69639202e-06 2.15237787e-06 1.81648863e-06 1.54081931e-06
      1.60187096e-06 1.23472432e-06 1.02375975e-06 9.83372274e-07
      4.81696190e-07 -3.27216014e-07 -9.22325569e-07 -7.75241745e-07
      -2.01814572e-07 4.00981065e-07 1.17842251e-06 1.41865416e-06
      1.58159219e-06 1.33290564e-06 1.39191059e-06 1.19367314e-06
      8.06416608e-07 9.60040552e-07 1.45523336e-06 1.82323265e-06
      2.30761384e-06 3.22428650e-06 3.44527734e-06 3.06398397e-06
      2.27816759e-06 1.81746395e-06 1.83710858e-06 1.76603453e-06
      1.43438365e-06 1.98533803e-06 2.21716164e-06 1.86769955e-06
      1.69537827e-06 1.47341518e-06 8.83684834e-07 8.35808578e-07
      1.30832700e-06 1.09363907e-06 5.73438967e-07 4.75972598e-07
      5.11736516e-07 3.76875477e-07 -9.32108719e-08 -6.27873135e-07
      2.27890541e-06 2.24089149e-06 1.77977256e-06 1.48296681e-06
      1.45034141e-06 1.82402971e-06 1.90629487e-06 1.84411942e-06
      2.06924551e-06 1.68374515e-06 1.18768992e-06 1.19074343e-06
      8.98091344e-07 -1.20750885e-08 -6.79893560e-07 -8.41337851e-07
      -4.90325476e-07 -3.09293995e-07 5.77694948e-07 1.25086672e-06
      1.48542392e-06 1.59357705e-06 1.65217966e-06 1.62795084e-06
      1.01322087e-06 5.55294321e-07 5.10021209e-07 6.50387449e-07
      9.12029179e-07 1.97233294e-06 2.94729239e-06 3.08558720e-06
      2.56321778e-06 2.28149293e-06 2.28362296e-06 2.04880894e-06
      1.74669162e-06 2.14779857e-06 2.78487732e-06 2.83738927e-06
      2.81544203e-06 2.78549692e-06 2.40970371e-06 2.10755093e-06
      1.96205610e-06 1.59351032e-06 1.02582965e-06 9.51195375e-07
      9.38745472e-07 9.16505996e-07 6.83206906e-07 -2.96973592e-08
      9.36110155e-07 1.00822251e-06 1.14597776e-06 9.86495024e-07
      1.03361981e-06 1.19358435e-06 1.45563524e-06 1.62084211e-06
      2.28466638e-06 2.15787713e-06 1.42734177e-06 1.18309731e-06
      1.11012378e-06 4.49221346e-07 -2.06910030e-07 -4.60560955e-07
      -6.28793543e-07 -4.01625869e-07 2.47982427e-07 8.10405254e-07
      1.13702572e-06 1.30809440e-06 1.48196250e-06 1.46337402e-06
      1.16118315e-06 7.97939947e-07 6.71978341e-07 1.87102316e-07
      1.97176728e-08 6.72442525e-07 1.61597825e-06 2.50725952e-06
      2.80516178e-06 2.39098404e-06 2.07559447e-06 1.78995992e-06
      1.56089686e-06 2.08775509e-06 2.69116299e-06 2.76430933e-06
      2.70973010e-06 3.09097777e-06 3.22878282e-06 2.90089156e-06
      2.58002910e-06 2.17567708e-06 2.02247975e-06 1.61593266e-06
      1.36051858e-06 1.66188886e-06 2.01135254e-06 1.57354134e-06
      -8.79958066e-07 -3.06340723e-07 5.40242411e-07 9.37964330e-07
      9.76363026e-07 9.69307166e-07 1.16350702e-06 1.24729365e-06
      2.03005561e-06 2.40261784e-06 1.62164781e-06 1.11724569e-06
      7.80888399e-07 4.06729612e-07 -3.01803738e-08 -6.44805255e-07
      -9.51847653e-07 -9.81577728e-07 -6.39285076e-07 -1.34709751e-07
      6.18275067e-07 8.56287443e-07 8.63699313e-07 8.65437642e-07
      8.11129382e-07 8.49668425e-07 6.24826271e-07 -8.92467398e-08
      -5.95794063e-07 -2.55320941e-07 4.13799938e-07 1.30067247e-06
      2.07590938e-06 1.75237165e-06 1.17535103e-06 9.90471790e-07
      1.04296919e-06 1.59054116e-06 2.15154046e-06 2.16177250e-06
      1.98467433e-06 2.26109341e-06 2.62248682e-06 2.48089782e-06
      2.68445024e-06 2.56491330e-06 2.38765301e-06 1.96753467e-06
      1.43741238e-06 1.66855864e-06 2.16977469e-06 2.14841680e-06
      -1.73266153e-06 -8.61449450e-07 4.02028206e-07 1.29055093e-06
      1.53784219e-06 1.42008264e-06 1.42843589e-06 1.59814977e-06
      2.41447333e-06 2.91995116e-06 2.41274847e-06 1.76565072e-06
      9.46431953e-07 3.35954638e-07 -8.54850413e-08 -6.44192028e-07
      -1.24337771e-06 -1.28874467e-06 -1.27327814e-06 -9.88211923e-07
      7.93678225e-08 3.75786726e-07 5.20757055e-07 4.33911651e-07
      7.88132525e-07 9.53046424e-07 6.97246264e-07 1.48153676e-08
      -5.86646308e-07 -5.95762174e-07 -3.37459596e-07 2.50529041e-07
      1.08114648e-06 1.08046459e-06 5.51437381e-07 3.21015648e-07
      4.61306342e-07 6.25217808e-07 1.27879809e-06 1.60536968e-06
      1.65633674e-06 1.79980168e-06 2.08740221e-06 2.03797936e-06
      2.32723050e-06 2.67899122e-06 2.56180238e-06 2.16105104e-06
      1.40935015e-06 1.38524945e-06 1.53720839e-06 1.56674696e-06
      -1.65918868e-06 -8.87060992e-07 4.87753255e-07 1.57204693e-06
      2.11087831e-06 2.02938509e-06 1.80675374e-06 1.83777797e-06
      2.76210903e-06 3.26048507e-06 2.80003655e-06 2.10413396e-06
      1.33606261e-06 5.25360178e-07 9.62795212e-08 -2.29727505e-07
      -7.95294000e-07 -1.08968766e-06 -1.13513170e-06 -9.52485777e-07
      -3.92161979e-07 6.48438743e-08 2.56034468e-07 3.77667817e-07
      9.34558159e-07 1.22088227e-06 8.13786073e-07 8.37588203e-08
      -3.40775131e-07 -2.43959107e-07 -2.95860758e-07 -2.40742224e-07
      3.99421282e-07 6.86928388e-07 4.78459697e-07 4.64480809e-09
      7.95624686e-08 1.81032505e-07 7.77782475e-07 1.14707836e-06
      1.39803467e-06 1.72937996e-06 1.77932452e-06 1.84220880e-06
      2.21626647e-06 2.62141066e-06 2.67729797e-06 2.45350043e-06
      1.77869845e-06 1.43458999e-06 1.25082147e-06 1.32320815e-06
      8.25413835e-08 4.33967777e-08 -1.80210122e-07 -3.92954377e-07
      -2.24416411e-07 1.37773270e-07 5.29773388e-07 7.22012260e-07
      8.37502114e-07 9.12785140e-07 9.69065809e-07 3.58325678e-07
      -1.21350734e-08 -7.84977843e-08 -1.02664536e-07 1.68448054e-07
      3.57081746e-07 1.21937830e-07 1.43758001e-07 2.45473103e-07
      2.34080446e-07 2.38249513e-07 3.99614208e-07 3.36615301e-07
      2.55906940e-07 1.74570559e-07 9.65702043e-08 -3.48462095e-08
      1.39931927e-07 6.47804427e-07 8.86303610e-07 8.15889734e-07
      4.51554087e-07 2.48103674e-07 2.98058012e-07 3.37698964e-07
      1.76608125e-07 -1.09422572e-07 -1.52671760e-07 5.56929898e-08
      1.25900684e-07 2.58633520e-07 3.75302591e-07 3.68378892e-07
      1.37984344e-07 -4.05065293e-07 -8.05698960e-07 -7.82697668e-07
      -7.15826957e-07 -7.85694510e-07 -7.67181461e-07 -6.97410030e-07
      9.25195636e-08 1.38304401e-07 -2.07560085e-08 -2.47045762e-07
      -3.17991748e-07 -1.49598108e-07 1.57730454e-07 5.50083143e-07
      6.74187049e-07 7.93086940e-07 7.95952076e-07 6.45697128e-07
      -3.47625360e-08 -1.83311258e-07 -2.86036425e-07 -3.68158453e-07
      -3.34675008e-08 2.85363484e-07 2.66572414e-07 4.38281006e-07
      4.69637627e-07 5.22499874e-07 5.73500301e-07 5.07934487e-07
      4.34835925e-07 3.50244278e-07 2.06485694e-07 1.82588906e-07
      1.36719237e-07 3.09154501e-07 7.70325869e-07 8.92047524e-07
      6.65767175e-07 4.33621096e-07 2.49728430e-07 2.45268836e-07
      2.52463366e-07 1.31717741e-07 -1.18554475e-07 -1.12546431e-07
      7.92834243e-08 1.22428020e-07 9.29278983e-08 1.85888183e-07
      1.93340853e-07 -2.28376379e-07 -7.40544920e-07 -8.15650026e-07
      -6.78329627e-07 -6.71974703e-07 -7.32917897e-07 -6.21772699e-07
      6.59387211e-08 1.84015121e-07 1.27796156e-07 -5.21383363e-08
      -1.48168795e-07 -2.19401514e-07 -6.96250240e-08 2.50865241e-07
      4.45831915e-07 5.24430675e-07 5.45891908e-07 5.38544327e-07
      1.62563509e-07 -2.37534167e-07 -3.06668056e-07 -5.29617580e-07
      -4.04681316e-07 5.63771252e-08 3.54862863e-07 3.98884310e-07
      5.28862927e-07 6.04078707e-07 7.01296074e-07 7.37519656e-07
      6.11916278e-07 6.30790566e-07 4.90658692e-07 3.73226214e-07
      4.74868472e-07 4.11332508e-07 5.04102331e-07 7.26009262e-07
      8.82433596e-07 6.71207204e-07 4.45824099e-07 2.48910709e-07
      2.76800165e-07 3.72578199e-07 2.57302219e-07 -1.41097786e-07
      -2.04359111e-07 -8.56169535e-09 -1.19554471e-07 -1.37734730e-07
      -3.51838416e-08 -1.80857143e-07 -5.50433754e-07 -8.12909946e-07
      -6.13123348e-07 -5.42497219e-07 -5.32498063e-07 -5.45238038e-07
      6.15684570e-08 6.31258885e-08 1.96411136e-07 2.51395107e-07
      1.58880653e-07 7.90068384e-08 -8.74785826e-08 1.08788072e-07
      3.50049817e-07 3.05934236e-07 3.58876775e-07 3.82652814e-07
      4.29216584e-07 1.00039799e-08 -3.11075894e-07 -3.79594923e-07
      -4.95471511e-07 -2.28919774e-07 2.87765914e-07 5.46824197e-07
      5.59719751e-07 6.00052090e-07 6.73322575e-07 7.94302764e-07
      8.56031193e-07 7.21434787e-07 8.10673896e-07 6.88952184e-07
      7.34267473e-07 8.13190525e-07 5.66083258e-07 5.11458609e-07
      7.63267280e-07 8.32685771e-07 5.90355512e-07 4.19404614e-07
      3.45769848e-07 4.57251559e-07 6.63421702e-07 3.51875599e-07
      -2.10956017e-07 -3.85063203e-07 -2.59713204e-07 -3.13387631e-07
      -3.41499828e-07 -2.37788186e-07 -4.76397389e-07 -7.60110652e-07
      -6.59154068e-07 -4.89470665e-07 -3.81692814e-07 -2.34105059e-07
      6.16004343e-07 1.31575106e-07 3.24659943e-08 2.46388851e-07
      4.60094554e-07 4.11916574e-07 2.82771367e-07 7.15690973e-08
      1.90314267e-07 2.42066278e-07 2.29392398e-07 2.38969022e-07
      4.79775224e-07 3.80170377e-07 -9.85565762e-08 -3.15706188e-07
      -4.45193024e-07 -4.63434588e-07 -4.40972459e-09 5.15574470e-07
      7.24551057e-07 7.48972411e-07 6.64530319e-07 7.25605162e-07
      9.27503208e-07 9.13482609e-07 8.46821479e-07 9.62235845e-07
      9.84746748e-07 1.02064041e-06 1.00374530e-06 5.60467811e-07
      3.72941514e-07 7.11374071e-07 6.37542769e-07 4.18973997e-07
      3.76540186e-07 5.18978311e-07 6.99018642e-07 7.77673563e-07
      2.52607549e-07 -4.55101372e-07 -6.31521345e-07 -4.91560684e-07
      -5.39025962e-07 -4.92422998e-07 -4.51708075e-07 -7.40262806e-07
      -8.10726135e-07 -5.53683151e-07 -4.79304731e-07 -2.26207618e-07
      1.15974478e-06 6.75446756e-07 2.09370725e-07 9.13114988e-08
      4.25979778e-07 7.23802486e-07 6.61938088e-07 3.68462622e-07
      2.45006078e-07 9.59174287e-08 8.58554117e-08 3.32209815e-08
      3.13967035e-07 4.74361656e-07 2.22941935e-07 -1.63497830e-07
      -2.93298086e-07 -5.12614974e-07 -4.32237471e-07 1.89760598e-07
      6.81643940e-07 8.96473466e-07 9.11097231e-07 7.76137256e-07
      7.77438402e-07 8.52340406e-07 8.19434490e-07 7.61851879e-07
      9.40266204e-07 1.09806865e-06 1.10978101e-06 9.19825368e-07
      4.76521848e-07 3.48544518e-07 4.87115301e-07 5.02758041e-07
      2.79348342e-07 4.17893347e-07 6.69731946e-07 7.31660123e-07
      5.62347338e-07 -4.16791757e-08 -6.15399529e-07 -7.87313525e-07
      -8.17574403e-07 -7.26454573e-07 -5.55003339e-07 -6.67793415e-07
      -8.45875093e-07 -6.83087535e-07 -3.96222788e-07 -2.69403898e-07
      9.72310659e-07 1.18205389e-06 7.04826164e-07 3.82596994e-07
      3.54885771e-07 6.91508092e-07 9.33470517e-07 7.13408838e-07
      3.46249607e-07 1.86279735e-07 -3.98721127e-08 -2.44762589e-07
      5.89653055e-08 4.64548492e-07 4.00624145e-07 -3.25806440e-08
      -1.55250021e-07 -2.34240261e-07 -4.09351145e-07 -1.48273102e-07
      3.76660324e-07 8.47827891e-07 9.57515226e-07 9.15572741e-07
      6.33452146e-07 5.70779889e-07 4.99091243e-07 5.25013775e-07
      6.17210617e-07 9.49412993e-07 1.08781330e-06 9.11137249e-07
      7.12123438e-07 4.33362260e-07 2.28564119e-07 3.64204453e-07
      3.54170083e-07 2.27381904e-07 5.15463341e-07 6.21473021e-07
      4.38846541e-07 1.90007469e-07 -2.83832804e-07 -7.89473972e-07
      -1.07953042e-06 -1.04890114e-06 -8.50862648e-07 -6.20465471e-07
      -6.90764182e-07 -6.43638145e-07 -3.72391696e-07 -5.10561513e-08
      2.38171083e-07 9.11876782e-07 1.00841339e-06 7.95095048e-07
      5.35856827e-07 5.29751901e-07 9.15116857e-07 9.61579644e-07
      4.32734424e-07 6.58653789e-08 -1.48882915e-08 -3.79743113e-07
      -4.79825189e-07 1.62251226e-07 5.00299791e-07 3.06645916e-07
      -1.59286543e-07 -5.28120907e-08 1.26482380e-08 -6.51977849e-09
      2.36309759e-07 5.14443400e-07 8.86271152e-07 8.61875776e-07
      6.85013674e-07 4.22025465e-07 2.88693798e-07 2.27081131e-07
      3.54057846e-07 6.03799322e-07 9.29813780e-07 9.18171509e-07
      6.38918607e-07 3.76238489e-07 2.31654170e-07 1.09156758e-07
      1.58635544e-07 1.66468453e-07 1.79913869e-07 4.36140340e-07
      4.38547005e-07 2.35520844e-07 -1.79897185e-07 -6.32323577e-07
      -1.13457941e-06 -1.23337202e-06 -1.00425666e-06 -8.64197546e-07
      -6.92446690e-07 -4.22366043e-07 -2.24362012e-07 7.42290638e-08
      -2.60794906e-07 4.78585889e-07 1.00722480e-06 1.13844487e-06
      7.77548621e-07 4.20000049e-07 7.79969639e-07 1.07797041e-06
      7.25587427e-07 7.62568675e-08 -2.39115451e-07 -3.78869714e-07
      -5.44964450e-07 -3.41279105e-07 1.60638507e-07 4.31279830e-07
      2.22380535e-07 -7.92063730e-08 3.04851312e-07 4.71597218e-07
      4.25440533e-07 5.41101315e-07 6.91370587e-07 8.60741011e-07
      7.11467976e-07 4.63126270e-07 3.43266407e-07 2.11350411e-07
      2.03427376e-07 4.36800093e-07 7.24807592e-07 9.00969837e-07
      7.43556143e-07 3.40171994e-07 6.00369887e-08 4.46591386e-08
      -1.38781067e-08 -1.00632302e-08 3.20075593e-08 2.37852362e-07
      4.18696487e-07 1.72774122e-07 -2.56563567e-07 -8.15857334e-07
      -1.38738199e-06 -1.69152702e-06 -1.35650464e-06 -1.17512229e-06
      -1.09577377e-06 -7.48514253e-07 -2.75830644e-07 3.61725725e-08
      -5.73947830e-07 7.68505188e-08 7.43634700e-07 1.05431582e-06
      8.45509646e-07 2.66774947e-07 3.03396149e-07 9.22416689e-07
      9.74481395e-07 1.95679846e-07 -1.60745572e-07 -3.62867269e-07
