<?xml version="1.0"?>
<opencv_storage>
<my_svm type_id="opencv-ml-svm">
  <svm_type>C_SVC</svm_type>
  <kernel><type>LINEAR</type></kernel>
  <C>1.</C>
  <term_criteria><epsilon>2.2204460492503131e-16</epsilon>
    <iterations>1000000</iterations></term_criteria>
  <var_all>108160</var_all>
  <var_count>108160</var_count>
  <class_count>2</class_count>
  <class_labels type_id="opencv-matrix">
    <rows>1</rows>
    <cols>2</cols>
    <dt>i</dt>
    <data>
      0 1</data></class_labels>
  <sv_total>1</sv_total>
  <support_vectors>
    <_>
      -3.56943872e-07 -4.91840865e-07 -8.25455743e-07 -9.53722861e-07
      -1.03915579e-06 -1.28257864e-06 -1.43602699e-06 -1.47008620e-06
      -1.41100077e-06 -1.30493788e-06 -1.18179446e-06 -9.99688609e-07
      -7.74013245e-07 -4.11494142e-07 8.44272776e-08 6.80704602e-07
      9.08027289e-07 8.68304483e-07 6.75432148e-07 5.41614384e-07
      5.34175399e-07 6.04334787e-07 8.01559906e-07 1.11972543e-06
      1.47202309e-06 1.76741810e-06 1.89111313e-06 1.90653225e-06
      1.74571562e-06 1.39685039e-06 9.39425320e-07 4.63007353e-07
      2.58546962e-08 -2.76976692e-07 -3.97850499e-07 -3.90044647e-07
      5.21853494e-08 5.10739881e-07 9.95492769e-07 1.63416428e-06
      2.07201128e-06 2.05970423e-06 2.05965443e-06 1.75524758e-06
      1.42016108e-06 1.21615278e-06 9.36918241e-07 7.34738592e-07
      3.12882605e-07 -6.25039789e-08 -5.09565325e-07 -6.66435142e-07
      -6.96207110e-07 -7.59907721e-07 -9.12383939e-07 -1.09925531e-06
      -1.29304931e-06 -1.50632673e-06 -1.74224510e-06 -1.94092695e-06
      -2.09582959e-06 -2.13639032e-06 -2.16870149e-06 -2.14410602e-06
      -2.06538652e-06 -1.92204084e-06 -1.78646997e-06 -1.64726714e-06
      -1.40409554e-06 -1.26181226e-06 -1.19108472e-06 -1.11750933e-06
      -9.80632421e-07 -8.12513747e-07 -5.67475070e-07 -2.73142234e-07
      2.13339679e-09 2.37028800e-07 4.06224899e-07 4.83599194e-07
      4.99148541e-07 4.15191664e-07 2.46582545e-07 9.36515843e-09
      -3.42344634e-07 -7.92982178e-07 -1.18261119e-06 -1.43190903e-06
      -1.47290621e-06 -1.28842976e-06 -7.85686950e-07 -1.98859780e-07
      1.47664750e-07 4.70828041e-07 7.72036401e-07 1.01229227e-06
      1.18439107e-06 1.30604531e-06 1.37760162e-06 1.45381523e-06
      1.46322338e-06 1.17860247e-06 8.24524648e-07 6.89193541e-07
      2.23242878e-07 1.99029998e-07 2.08600369e-07 2.54687791e-07
      4.66600085e-07 6.12074814e-07 5.42125235e-07 2.99651049e-07
      -1.31803745e-07 -5.44537727e-07 -1.04051560e-06 -1.56530837e-06
      -2.03498530e-06 -2.43705040e-06 -2.72083616e-06 -2.87063835e-06
      -2.96893336e-06 -3.09453935e-06 -2.93198264e-06 -2.49233767e-06
      -1.91276263e-06 -1.27431088e-06 -7.03356875e-07 -2.97791900e-07
      -5.91046430e-08 2.67712927e-08 5.15648537e-08 5.18650793e-08
      1.02629983e-07 1.81265406e-07 2.49743181e-07 1.72524324e-07
      -2.34753458e-07 -9.68345489e-07 -1.82127530e-06 -2.48333845e-06
      -2.81056532e-06 -2.91849369e-06 -2.79094434e-06 -2.48339893e-06
      -2.11210204e-06 -1.70378667e-06 -1.26964824e-06 -8.56648342e-07
      -3.98747204e-07 -4.17452597e-08 1.48023020e-07 2.86381550e-07
      4.36249309e-07 4.62978932e-07 4.12292849e-07 3.65846546e-07
      1.23015650e-06 1.23372740e-06 1.25361964e-06 1.46447235e-06
      1.94484915e-06 2.42453439e-06 2.50844982e-06 2.25984650e-06
      1.73249350e-06 1.13535009e-06 4.78112725e-07 -1.88035557e-07
      -8.57281179e-07 -1.55792020e-06 -2.22425660e-06 -2.74857393e-06
      -2.74751687e-06 -2.47901517e-06 -2.05884976e-06 -1.41799501e-06
      -6.83489930e-07 2.46194759e-07 9.71002237e-07 1.18062610e-06
      1.15298110e-06 1.01833973e-06 8.80238133e-07 8.70550878e-07
      9.67773758e-07 1.14511863e-06 1.24997291e-06 1.21827281e-06
      1.09605662e-06 7.01817839e-07 -1.60260711e-07 -9.28639849e-07
      -1.36932726e-06 -1.64255061e-06 -1.72529155e-06 -1.58976150e-06
      -1.43922273e-06 -1.33642254e-06 -1.23103200e-06 -1.19969127e-06
      -1.23104996e-06 -1.29302464e-06 -1.31568231e-06 -1.41573798e-06
      -1.56359999e-06 -1.75247419e-06 -1.87888725e-06 -1.92723724e-06
      8.19023626e-07 8.48100967e-07 9.67720780e-07 1.07712208e-06
      1.40081454e-06 1.53300368e-06 1.36423262e-06 1.18141111e-06
      9.78900971e-07 7.75968886e-07 5.30731199e-07 2.50802003e-07
      -1.94312317e-08 -2.93048231e-07 -5.16015632e-07 -6.18758236e-07
      -5.56925272e-07 -2.25449725e-07 1.55704043e-07 3.90532165e-07
      5.32649494e-07 8.81677693e-07 9.52781818e-07 7.13646443e-07
      3.80017156e-07 9.62183790e-08 -2.37909532e-08 3.27130927e-08
      2.21606030e-07 5.67434597e-07 9.65696813e-07 1.37983523e-06
      1.66772236e-06 1.68928977e-06 1.62288723e-06 1.18173637e-06
      8.65025527e-07 7.70136296e-07 7.91114985e-07 8.37609036e-07
      7.93099900e-07 6.15515944e-07 3.15939445e-07 -8.42550349e-08
      -4.13794311e-07 -5.74028093e-07 -5.84984662e-07 -6.54982557e-07
      -8.17926889e-07 -1.01120679e-06 -1.15164232e-06 -1.19845197e-06
      4.41481689e-07 5.58635179e-07 8.19069555e-07 1.11415841e-06
      1.32561343e-06 1.08228096e-06 1.04393746e-06 1.05024378e-06
      9.90881745e-07 8.84992915e-07 6.97273663e-07 4.44866259e-07
      2.87480049e-07 2.40675689e-07 3.54504351e-07 5.95485687e-07
      9.08137167e-07 1.29816294e-06 1.07126118e-06 4.46201625e-07
      -3.91497821e-08 -3.86320949e-07 -6.33152581e-07 -8.42883026e-07
      -1.00737748e-06 -9.46441787e-07 -7.21447122e-07 -3.89123869e-07
      7.86101939e-09 4.14438233e-07 7.34264574e-07 9.42710756e-07
      1.17116338e-06 1.34110167e-06 9.20971161e-07 5.79187486e-07
      1.97509124e-07 1.42841641e-08 -1.06005537e-07 -2.18302858e-07
      -4.18861362e-07 -6.93663480e-07 -1.00920772e-06 -1.25140627e-06
      -1.31910667e-06 -1.26862869e-06 -1.12644341e-06 -9.03382272e-07
      -5.30663897e-07 -1.42924691e-07 1.07552495e-07 1.90676090e-07
      2.35956236e-06 2.55732130e-06 3.15499801e-06 4.00017234e-06
      4.46648255e-06 4.49300023e-06 4.29452029e-06 3.79700077e-06
      3.12053862e-06 2.42331589e-06 1.74353022e-06 1.16510546e-06
      7.05374248e-07 2.68070977e-07 -4.56906086e-08 -2.50775031e-07
      -3.85045752e-07 -4.93864206e-07 -4.47104895e-07 -5.24912252e-07
      -7.22359346e-07 -1.39124961e-06 -1.69034945e-06 -1.62467734e-06
      -1.40592397e-06 -1.09746270e-06 -8.35691310e-07 -6.36356162e-07
      -4.19328387e-07 -2.65965440e-07 -1.86458053e-07 -2.39590435e-07
      -4.65013585e-07 -5.60868102e-07 -4.87684190e-07 -6.44737895e-07
      -8.94612810e-07 -1.04928449e-06 -1.23872371e-06 -1.51123220e-06
      -1.77272591e-06 -1.86669104e-06 -1.72859382e-06 -1.26761643e-06
      -5.87272154e-07 1.68937234e-07 7.24689301e-07 1.29153307e-06
      1.91841127e-06 2.42170154e-06 2.76108585e-06 2.88442152e-06
      3.72550949e-06 3.71490250e-06 3.76127423e-06 3.82200460e-06
      3.78045547e-06 3.68128212e-06 3.44676187e-06 3.00800320e-06
      2.02275100e-06 6.27901215e-07 -8.30884403e-07 -2.02807882e-06
      -2.83502732e-06 -3.17187141e-06 -2.98723535e-06 -2.55792520e-06
      -2.25349504e-06 -2.39729025e-06 -2.61379751e-06 -2.83006852e-06
      -2.90970024e-06 -2.84853968e-06 -2.71050953e-06 -2.63445236e-06
      -2.47558796e-06 -2.20006905e-06 -1.86719035e-06 -1.47385015e-06
      -1.07036999e-06 -7.06852234e-07 -4.24223714e-07 -2.26545779e-07
      -5.02177464e-08 -1.15264577e-07 8.36110416e-08 3.94385410e-07
      4.87418561e-07 3.00748553e-07 1.01337136e-07 -2.03211712e-07
      -4.17987138e-07 -2.73111596e-07 1.32036064e-07 7.49000890e-07
      1.56104272e-06 2.54096017e-06 3.58008697e-06 4.35673337e-06
      4.77868753e-06 5.00745682e-06 5.15372221e-06 5.21309767e-06
      2.69397151e-06 2.50325729e-06 2.12047803e-06 1.75832224e-06
      1.41009855e-06 1.08868483e-06 7.77358480e-07 4.26342183e-07
      -8.27509226e-08 -7.72049077e-07 -1.54493432e-06 -2.19210165e-06
      -2.62609728e-06 -2.73841124e-06 -2.52171344e-06 -2.11727615e-06
      -1.75092816e-06 -1.52251573e-06 -1.52053792e-06 -1.69636905e-06
      -2.03712011e-06 -2.04332355e-06 -1.58966566e-06 -9.90315129e-07
      -3.68139524e-07 9.00712180e-08 3.12225950e-07 4.04672420e-07
      4.61381433e-07 5.47626939e-07 6.97946973e-07 8.96901952e-07
      1.09066229e-06 1.32392324e-06 1.43375019e-06 1.38077337e-06
      1.34814218e-06 1.20111679e-06 9.86037207e-07 6.35905621e-07
      2.26649789e-07 1.27294598e-07 2.57690800e-07 6.80998312e-07
      1.33339438e-06 2.05566471e-06 2.90692924e-06 3.75418426e-06
      4.17356205e-06 3.88799663e-06 3.52818643e-06 3.41629448e-06
      1.26231839e-06 1.17425532e-06 9.39852498e-07 5.89275771e-07
      2.86071327e-07 4.81432608e-07 1.33871902e-06 2.65497488e-06
      3.99888313e-06 5.06638708e-06 5.68368432e-06 5.85998851e-06
      5.53570726e-06 4.81810002e-06 3.91653657e-06 2.96460053e-06
      2.06125651e-06 1.40051145e-06 1.08052529e-06 8.43314808e-07
      5.12432791e-07 1.83942930e-07 6.28044674e-08 2.07877193e-07
      5.19521222e-07 7.96467475e-07 9.58523287e-07 1.02851914e-06
      1.03718901e-06 1.00033253e-06 8.82399888e-07 6.80623828e-07
      4.88615797e-07 4.11084187e-07 3.97156185e-07 3.92736951e-07
      4.26583256e-07 3.67489264e-07 4.08479934e-07 5.04823902e-07
      7.35059359e-07 1.29681860e-06 2.06819459e-06 2.70815235e-06
      2.95606310e-06 2.75281263e-06 2.35340372e-06 1.86824138e-06
      1.36482186e-06 8.28483735e-07 3.39406000e-07 1.65810874e-07
      -8.06462879e-07 -7.29571468e-07 -6.24076790e-07 -5.52058395e-07
      -2.62929717e-07 3.56952086e-07 1.28939462e-06 2.48469769e-06
      4.01907300e-06 5.63581261e-06 5.94805260e-06 5.67535380e-06
      4.93060679e-06 3.90029572e-06 2.90269259e-06 2.14433430e-06
      1.60542834e-06 1.36041865e-06 1.31908007e-06 1.32490231e-06
      1.47167702e-06 1.43992361e-06 1.18559353e-06 9.69029429e-07
      7.83964595e-07 7.13280599e-07 7.29379110e-07 7.46946455e-07
      7.21959623e-07 6.76162585e-07 5.60800061e-07 3.78331180e-07
      2.12937294e-07 1.60640923e-07 3.15097424e-07 7.95678545e-07
      1.46699358e-06 2.13481712e-06 2.73873502e-06 2.91011543e-06
      3.01361297e-06 3.06081506e-06 3.09532993e-06 3.20764161e-06
      3.14882118e-06 2.73698947e-06 1.93788014e-06 9.09987534e-07
      -8.90531382e-08 -7.95887615e-07 -1.16553508e-06 -1.29324121e-06
      -1.10365261e-06 -1.06552227e-06 -1.00430498e-06 -9.47533863e-07
      -7.38694780e-07 -5.54567407e-07 -3.82176864e-07 4.71368811e-09
      4.51759206e-07 1.03237937e-06 1.72587079e-06 2.12422151e-06
      2.06601499e-06 1.44543571e-06 4.53855506e-07 -5.61644129e-07
      -1.25514453e-06 -1.08041274e-06 -6.24374366e-07 -4.19752666e-07
      -6.71070026e-08 5.12451322e-07 5.10320149e-07 4.73539615e-07
      4.01944931e-07 3.44347939e-07 3.31738676e-07 3.45532953e-07
      2.94537188e-07 1.67436298e-07 6.57263826e-08 6.77012082e-08
      2.22152281e-07 5.12169777e-07 1.09641962e-06 1.83607381e-06
      2.69274460e-06 3.27183443e-06 3.49178276e-06 3.20231652e-06
      2.66960228e-06 2.03294144e-06 1.42284443e-06 8.41082510e-07
      4.76842331e-07 3.01737401e-07 1.54358091e-07 4.81922022e-08
      6.14522193e-08 2.18783356e-07 -8.82302160e-08 -2.46432791e-07
      9.99595642e-08 -9.44142187e-09 -1.13553398e-07 -4.77586866e-07
      -9.97938628e-07 -1.07932976e-06 -1.21173900e-06 -1.15497176e-06
      -1.00782324e-06 -7.91076275e-07 -3.62199870e-07 1.25729347e-08
      3.78547412e-07 4.65437523e-07 1.75103708e-07 -4.28299359e-07
      -1.09180485e-06 -1.59368449e-06 -1.73472472e-06 -1.31652450e-06
      -8.44138981e-07 -2.21733075e-07 1.65135205e-07 1.26997108e-07
      3.23124908e-07 5.38011250e-07 6.14880264e-07 6.75698971e-07
      7.68512905e-07 8.55727535e-07 8.54681275e-07 7.32207013e-07
      5.20660194e-07 4.06331964e-08 -5.16687955e-08 1.52175119e-07
      4.12822118e-07 8.64459082e-07 1.35506980e-06 1.61143737e-06
      1.50511175e-06 1.01503088e-06 2.19620020e-07 -6.52015274e-07
      -1.30614842e-06 -1.47947060e-06 -1.61867183e-06 -1.89447871e-06
      -1.97799500e-06 -1.87274600e-06 -1.66074847e-06 -1.65955737e-06
      5.56419820e-07 4.09366606e-07 7.40059036e-08 -7.15654323e-07
      -1.69857765e-06 -2.28580529e-06 -2.19450567e-06 -1.73464468e-06
      -1.44170622e-06 -1.20967468e-06 -9.65022537e-07 -7.30740737e-07
      -4.53060579e-07 -2.79872921e-07 -2.60182247e-07 -3.39078582e-07
      -4.19101525e-07 -4.24493265e-07 -1.42488204e-07 7.33822745e-08
      3.15057349e-07 4.43132450e-07 4.85347130e-07 5.61531465e-07
      6.00935209e-07 7.42558655e-07 8.90893034e-07 9.90944955e-07
      1.12900216e-06 1.14334068e-06 9.88653483e-07 7.91253001e-07
      6.28542182e-07 5.71564101e-07 5.95634788e-07 4.86675617e-07
      4.55862903e-07 6.39759719e-07 1.06712002e-06 1.61953767e-06
      1.90574838e-06 1.80588063e-06 1.36471908e-06 6.45385683e-07
      -8.61709921e-08 -6.22653545e-07 -1.53381893e-06 -2.43680324e-06
      -2.94344522e-06 -2.94486927e-06 -2.69973725e-06 -2.63971947e-06
      5.63215110e-07 4.85437965e-07 2.56904883e-07 -2.72959539e-07
      -7.28601663e-07 -1.14506418e-06 -1.19232516e-06 -8.90433569e-07
      -3.88505896e-07 2.75519483e-07 6.44224315e-07 8.74007753e-07
      1.10442897e-06 1.21680716e-06 1.20510799e-06 1.06869334e-06
      1.03422803e-06 9.60868874e-07 8.96047140e-07 7.08629102e-07
      5.39588882e-07 3.63149809e-07 1.14607353e-07 5.24104564e-08
      4.24607061e-09 -3.47047049e-08 5.11286622e-08 1.72053703e-07
      1.06870893e-07 -5.38511529e-08 -8.46991526e-08 -1.18166902e-07
      -1.58260409e-08 3.39093788e-07 9.71088980e-07 1.61992705e-06
      1.89930836e-06 2.00573209e-06 2.15986415e-06 2.26397901e-06
      2.24284599e-06 2.13123440e-06 1.93999085e-06 1.75681896e-06
      1.31824993e-06 6.21511390e-07 -5.64835318e-07 -1.81405392e-06
      -2.56074463e-06 -2.75366870e-06 -2.71102545e-06 -2.68608869e-06
      9.34864318e-07 9.02489887e-07 7.85191958e-07 4.38796462e-07
      1.42743673e-07 1.04185979e-07 3.17581680e-07 6.31613602e-07
      1.22167239e-06 1.79147548e-06 2.10906182e-06 2.11574502e-06
      1.92351990e-06 1.65914173e-06 1.19982008e-06 5.28424152e-07
      -1.22821078e-07 -5.73387581e-07 -1.09593793e-06 -1.56379770e-06
      -1.89193031e-06 -1.98154316e-06 -1.76384731e-06 -1.31283582e-06
      -7.72227224e-07 -3.49891451e-07 -6.57626344e-08 1.39990391e-07
      1.98575805e-07 2.47600155e-07 1.05595724e-07 -1.69851134e-07
      -4.88191120e-07 -8.34660113e-07 -9.44980911e-07 -9.35411322e-07
      -1.07322148e-06 -9.81887183e-07 -8.36666004e-07 -7.89673891e-07
      -6.44731813e-07 -4.48302359e-07 -7.87597827e-08 2.97365006e-07
      3.94302305e-07 5.13054452e-08 -5.92449453e-07 -1.37673885e-06
      -1.76497258e-06 -1.49880748e-06 -1.10443648e-06 -9.78919502e-07
      1.90745618e-06 1.88851550e-06 1.76893411e-06 1.51062750e-06
      1.08450729e-06 4.62596802e-07 -9.27391781e-08 -2.02469764e-07
      2.10173585e-08 4.14766163e-07 1.04642527e-06 1.71160548e-06
      2.15322416e-06 2.36929486e-06 2.29149759e-06 1.99419333e-06
      1.48081972e-06 1.00761110e-06 4.88617218e-07 1.01428689e-07
      -6.38064463e-08 -1.70241250e-07 -2.81329250e-07 -3.91115037e-07
      -4.00167750e-07 -3.26718009e-07 -3.54634494e-07 -3.86612612e-07
      -2.68839869e-07 -9.45899785e-08 -3.00172900e-08 9.38530604e-08
      1.19649883e-07 4.18240624e-08 -2.33042510e-08 -9.51935686e-09
      -4.29883293e-08 -1.14595601e-07 -3.17844865e-07 -4.89178831e-07
      -5.74799060e-07 -6.86121666e-07 -6.42754742e-07 -3.04873993e-07
      -8.69881767e-09 2.29994185e-07 5.00333954e-07 8.86154794e-07
      1.49330697e-06 2.40795748e-06 3.14421277e-06 3.46826232e-06
      2.20051902e-06 2.18200375e-06 2.10596227e-06 1.97147028e-06
      1.79374081e-06 1.52092070e-06 8.91771833e-07 7.24135489e-08
      -4.72718284e-07 -5.89626097e-07 -3.16000381e-07 6.15443838e-08
      4.34593289e-07 6.61327647e-07 5.98591157e-07 2.56008921e-08
      -1.31384979e-07 1.03900923e-07 4.60685726e-07 6.95216954e-07
      5.99878604e-07 1.47549059e-07 -3.80312741e-07 -8.16195723e-07
      -1.12632347e-06 -1.29021055e-06 -1.34641073e-06 -1.35790935e-06
      -1.29423779e-06 -1.26311340e-06 -1.14712202e-06 -9.71692657e-07
      -7.68693837e-07 -4.62475015e-07 -7.27757197e-08 5.80533936e-07
      1.42081456e-06 1.90720925e-06 2.02895899e-06 2.12222130e-06
      2.37263816e-06 2.61804871e-06 2.95777249e-06 3.29907107e-06
      3.34889296e-06 3.29182512e-06 3.31187925e-06 3.09185043e-06
      2.99948260e-06 3.47013724e-06 3.85989142e-06 4.03324339e-06
      1.28154340e-06 1.22735889e-06 1.04725018e-06 7.81424660e-07
      5.59872319e-07 4.43231443e-07 2.54721442e-07 1.58118937e-07
      -5.80966963e-09 -1.51533783e-07 -3.22064523e-07 -4.60116638e-07
      -6.08599407e-07 -6.93415814e-07 -6.43358760e-07 -4.33132101e-07
      -1.96975478e-07 -1.38218198e-07 -3.59690347e-07 -6.18159163e-07
      -8.80116318e-07 -1.08936320e-06 -1.24698374e-06 -1.34263450e-06
      -1.39092651e-06 -1.38168548e-06 -1.25850113e-06 -1.13264355e-06
      -1.10483506e-06 -1.13907993e-06 -1.12792907e-06 -1.17030959e-06
      -1.20550328e-06 -1.21398557e-06 -1.15960665e-06 -9.64660899e-07
      -5.66486449e-07 5.18404564e-09 8.51014534e-07 1.42378769e-06
      1.82534029e-06 2.20326774e-06 2.44612761e-06 2.53873554e-06
      2.46316586e-06 2.37316067e-06 2.28582030e-06 2.21284199e-06
      2.17741353e-06 2.04980552e-06 1.96571341e-06 1.94682138e-06
      -2.80306381e-07 -2.95598909e-07 -3.40754468e-07 -3.68508324e-07
      -4.11309543e-07 -4.40923429e-07 -3.91972236e-07 -3.18934156e-07
      -3.30985529e-07 -4.52961899e-07 -6.43781220e-07 -8.39703091e-07
      -1.05157915e-06 -1.20599771e-06 -1.27327382e-06 -1.21436506e-06
      -1.01124260e-06 -7.25222492e-07 -4.71591420e-07 -3.12208499e-07
      -2.34176042e-07 -2.17558153e-07 -2.30461509e-07 -2.74253779e-07
      -3.23335485e-07 -3.14026579e-07 -3.09797542e-07 -3.39495216e-07
      -4.54011087e-07 -5.75870899e-07 -6.79220818e-07 -7.90657054e-07
      -8.87854583e-07 -9.62795298e-07 -1.00669035e-06 -1.04505489e-06
      -1.12740167e-06 -1.23235827e-06 -1.35937785e-06 -1.37949735e-06
      -1.32138359e-06 -1.23464758e-06 -1.15357977e-06 -1.03429795e-06
      -1.03526270e-06 -1.14102079e-06 -1.26247789e-06 -1.31458137e-06
      -1.22191773e-06 -9.63053935e-07 -7.55038911e-07 -6.85560053e-07
      1.40700692e-07 2.06756866e-07 4.14481377e-07 7.17870591e-07
      8.69770759e-07 8.20841251e-07 6.84854797e-07 5.96815880e-07
      5.68895018e-07 5.57598355e-07 5.05454977e-07 4.26748869e-07
      4.03009324e-07 4.29489972e-07 5.46755814e-07 6.63693925e-07
      6.64512186e-07 5.92853951e-07 4.37959187e-07 2.54340023e-07
      3.60761696e-08 -2.42173940e-07 -4.61767797e-07 -5.59617604e-07
      -5.55635779e-07 -4.72928292e-07 -3.59762055e-07 -2.88405516e-07
      -2.68169856e-07 -2.85220779e-07 -3.84195772e-07 -4.64510833e-07
      -5.23754181e-07 -5.18271293e-07 -5.25251664e-07 -5.09976644e-07
      -4.67963815e-07 -3.79456509e-07 -2.94458772e-07 -3.35778338e-07
      -5.53699522e-07 -7.54551081e-07 -9.14049110e-07 -9.25128347e-07
      -8.52354276e-07 -7.46643707e-07 -6.73368845e-07 -6.30632542e-07
      -6.50588902e-07 -6.79825234e-07 -7.05989180e-07 -7.19498701e-07
      -3.46854883e-08 -3.21851097e-08 -3.13307922e-08 -4.82978848e-08
      -2.97704563e-08 4.33649952e-08 2.03568362e-07 4.49834431e-07
      7.91411765e-07 1.14469162e-06 1.43269642e-06 1.64702806e-06
      1.74533784e-06 1.64742346e-06 1.40284340e-06 1.02413458e-06
      6.13915120e-07 2.54066691e-07 -5.66341178e-08 -3.08448307e-07
      -5.27790860e-07 -7.28492978e-07 -8.81678943e-07 -9.41945189e-07
      -9.37448192e-07 -9.13787744e-07 -8.32167188e-07 -7.40336759e-07
      -6.10833865e-07 -4.95695019e-07 -4.80002768e-07 -4.96823475e-07
      -5.41697830e-07 -5.39980931e-07 -4.74140506e-07 -3.36637441e-07
      -1.31309079e-07 9.21695857e-08 3.48197261e-07 5.78126958e-07
      8.09806011e-07 9.81407879e-07 1.03379364e-06 1.02789738e-06
      9.82510983e-07 9.51543313e-07 8.75394221e-07 5.37302014e-07
      2.08917882e-07 -4.22273239e-08 -1.81100688e-07 -2.23063310e-07
      -4.99186740e-07 -5.05367495e-07 -5.25176858e-07 -5.55957570e-07
      -5.44905731e-07 -4.19462481e-07 -1.26341348e-07 2.77903979e-07
      7.87695626e-07 1.26552106e-06 1.55588259e-06 1.64055825e-06
      1.45894808e-06 1.10064855e-06 6.55930194e-07 2.39717934e-07
      -3.51908653e-08 -1.43460340e-07 -1.25301796e-07 -2.33382149e-08
      1.34254250e-07 2.88119423e-07 3.94462376e-07 4.15514364e-07
      3.20170926e-07 2.15468006e-07 6.97873261e-08 -1.57946456e-08
      -2.32306352e-08 2.31496085e-08 1.27380332e-07 2.36221325e-07
      3.23749504e-07 3.67955721e-07 4.25326647e-07 4.40767792e-07
      4.16581656e-07 3.26098416e-07 1.84932745e-07 4.88746146e-08
      -6.91260169e-08 -9.21087420e-08 -1.39394611e-08 9.99334517e-08
      2.35766180e-07 2.99639595e-07 2.64622940e-07 1.42190586e-07
      4.74839190e-08 -1.78604651e-08 -6.13237034e-08 -6.95707811e-08
      -1.05405820e-06 -1.04274056e-06 -1.00467366e-06 -9.01162366e-07
      -7.12533733e-07 -4.34869577e-07 -9.83108421e-08 2.42578153e-07
      5.09285485e-07 6.70887857e-07 7.10947404e-07 5.99166185e-07
      3.53736482e-07 7.53582157e-08 -2.06797381e-07 -4.22905231e-07
      -4.88123874e-07 -4.02970926e-07 -1.69699845e-07 2.14765677e-07
      7.10639540e-07 1.20231198e-06 1.55081580e-06 1.71654574e-06
      1.79158678e-06 1.81878102e-06 1.75849391e-06 1.66427481e-06
      1.55089776e-06 1.38908717e-06 1.26331872e-06 1.18151968e-06
      1.09107839e-06 8.91514787e-07 5.83223709e-07 2.24248922e-07
      -1.22876685e-07 -4.04654202e-07 -6.10063466e-07 -7.35697597e-07
      -8.06947014e-07 -8.51904929e-07 -8.29724513e-07 -7.64098786e-07
      -6.54659345e-07 -5.61065747e-07 -5.14356373e-07 -5.76798129e-07
      -7.45453121e-07 -9.39378026e-07 -1.08808740e-06 -1.14052455e-06
      -9.80271579e-07 -9.95086225e-07 -1.03378693e-06 -1.06672417e-06
      -1.06828099e-06 -1.07973915e-06 -1.16963406e-06 -1.29359887e-06
      -1.42568524e-06 -1.49759546e-06 -1.52357006e-06 -1.56162162e-06
      -1.51710560e-06 -1.43930743e-06 -1.31163233e-06 -1.15472312e-06
      -9.74699446e-07 -7.81070696e-07 -5.35833692e-07 -2.27692283e-07
      8.37496330e-08 3.81205439e-07 6.48457842e-07 7.54739006e-07
      7.57383305e-07 6.84089969e-07 6.27145539e-07 5.76502373e-07
      5.52657184e-07 5.54980943e-07 5.96072653e-07 6.31754460e-07
      6.55447707e-07 6.26086546e-07 4.33460201e-07 1.59555682e-07
      -1.06134017e-07 -3.19365313e-07 -4.67965521e-07 -5.66931305e-07
      -5.99185796e-07 -6.19962066e-07 -6.03738499e-07 -5.63533490e-07
      -5.34627475e-07 -5.53584641e-07 -5.93365257e-07 -6.65950097e-07
      -7.99641953e-07 -9.76507295e-07 -1.09296718e-06 -1.12380974e-06
      -5.57574715e-08 -8.61139497e-08 -1.62454612e-07 -3.14887302e-07
      -5.05975549e-07 -7.07260995e-07 -9.19547119e-07 -1.09801033e-06
      -1.25721988e-06 -1.36434051e-06 -1.41892258e-06 -1.40751354e-06
      -1.27784574e-06 -1.11061047e-06 -8.96100516e-07 -6.61329864e-07
      -4.61199107e-07 -2.85504115e-07 -1.12506868e-07 7.10227113e-08
      1.77874256e-07 1.86121945e-08 -3.85242288e-07 -8.36191077e-07
      -1.20371976e-06 -1.48607137e-06 -1.59587489e-06 -1.60527918e-06
      -1.53308474e-06 -1.34633035e-06 -1.05197967e-06 -6.85990642e-07
      -3.08114068e-07 1.27541426e-07 5.55974964e-07 9.08119262e-07
      9.83617156e-07 8.50121637e-07 5.84546115e-07 2.01643402e-07
      -2.28677010e-07 -6.50881418e-07 -1.01227374e-06 -1.28330464e-06
      -1.36016831e-06 -1.25755889e-06 -1.03181367e-06 -7.19718969e-07
      -4.01788100e-07 -2.04616200e-07 -9.84507551e-08 -6.39778861e-08
      -3.71075231e-07 -3.40488810e-07 -2.76169345e-07 -1.85433180e-07
      -1.23458349e-07 -1.07076531e-07 -1.14432936e-07 -1.32495742e-07
      -1.44903140e-07 -1.51813595e-07 -1.37585431e-07 -8.56554507e-08
      -4.14479793e-08 4.28882920e-08 1.14227340e-07 1.93866910e-07
      2.85098622e-07 4.42896493e-07 5.93939490e-07 5.38661766e-07
      3.22144075e-07 8.57911857e-08 -1.25494040e-07 -3.19988203e-07
      -5.69233521e-07 -7.83431631e-07 -9.46443265e-07 -1.02966885e-06
      -1.08983431e-06 -1.07641199e-06 -1.01573494e-06 -8.53884501e-07
      -6.65367963e-07 -4.57408845e-07 -2.20968502e-07 4.16697539e-08
      2.89048472e-07 4.08160844e-07 2.16388159e-07 -1.27184208e-07
      -4.10165768e-07 -6.65803668e-07 -9.20626292e-07 -1.16987076e-06
      -1.37352436e-06 -1.43828424e-06 -1.44519117e-06 -1.40211137e-06
      -1.26008604e-06 -1.06850007e-06 -9.33075512e-07 -8.83717746e-07
      -5.31915816e-07 -5.22712298e-07 -4.99538658e-07 -4.57522646e-07
      -3.98651991e-07 -3.22090415e-07 -2.12740758e-07 -9.85961321e-08
      -8.56571969e-09 2.56420396e-08 3.71219038e-08 6.10016997e-08
      6.13683460e-09 -2.92526749e-08 -7.69726825e-08 -1.40162214e-07
      -2.18636359e-07 -3.07720256e-07 -3.70446486e-07 -3.08458766e-07
      -1.05754481e-07 1.77128740e-07 4.64782829e-07 6.66519895e-07
      7.43004705e-07 7.94740458e-07 7.24903828e-07 6.74832677e-07
      6.23131768e-07 5.94416463e-07 5.04605396e-07 3.52117297e-07
      1.04851011e-07 -3.02914088e-07 -7.50320908e-07 -1.13307897e-06
      -1.34449738e-06 -1.33735477e-06 -1.11911254e-06 -7.86682790e-07
      -5.22841049e-07 -2.97158664e-07 -1.75136492e-07 -1.03754822e-07
      -1.27722529e-07 -2.06349029e-07 -2.78385670e-07 -3.80250640e-07
      -4.81543623e-07 -5.40478197e-07 -5.53242614e-07 -5.59939679e-07
      2.46642543e-07 2.56368082e-07 3.41305082e-07 4.65853333e-07
      5.67624397e-07 6.32044987e-07 6.50020922e-07 6.29975318e-07
      5.57093074e-07 4.40892734e-07 3.05128879e-07 9.98033158e-08
      -1.50289551e-07 -4.21178157e-07 -6.45134435e-07 -8.68965174e-07
      -1.02420040e-06 -1.02730769e-06 -9.21124695e-07 -7.45353930e-07
      -5.43202304e-07 -3.26606653e-07 -9.13412919e-08 1.50987432e-07
      4.39736226e-07 7.25574012e-07 9.26923008e-07 1.07957510e-06
      1.13140311e-06 1.03000798e-06 8.68304710e-07 6.18405011e-07
      3.47691781e-07 5.17050012e-08 -2.12843190e-07 -3.81016775e-07
      -3.95058152e-07 -2.91385504e-07 -1.52565889e-07 3.54277070e-08
      2.20821846e-07 3.51724196e-07 4.53243558e-07 4.69352983e-07
      4.56219254e-07 3.47206594e-07 2.36772905e-07 1.20583778e-07
      -8.95571084e-09 -1.30847212e-07 -2.15903668e-07 -2.52137710e-07
      -4.47241945e-07 -4.32050939e-07 -4.02899246e-07 -3.78168863e-07
      -3.65921949e-07 -3.33650661e-07 -3.09927771e-07 -3.15186639e-07
      -3.41030841e-07 -3.74408813e-07 -4.20784346e-07 -4.92243316e-07
      -5.11156372e-07 -4.95316954e-07 -4.81248151e-07 -4.03518868e-07
      -3.05551822e-07 -2.87419880e-07 -4.56716435e-07 -7.02233365e-07
      -8.92942921e-07 -9.92972787e-07 -9.63509706e-07 -8.07809386e-07
      -5.07974221e-07 -1.92602783e-07 1.88029645e-07 4.98026850e-07
      6.74908620e-07 5.97901476e-07 2.88798617e-07 -2.14108255e-07
      -8.65031836e-07 -1.45330364e-06 -1.81985570e-06 -1.91992785e-06
      -1.79855726e-06 -1.42192539e-06 -8.87299677e-07 -3.60898696e-07
      6.67571953e-08 2.60660471e-07 3.98435134e-07 4.18961719e-07
      3.30073334e-07 1.86075766e-07 1.37424818e-08 -1.17163644e-07
      -1.99600578e-07 -2.52998717e-07 -2.99138435e-07 -3.12234619e-07
      -7.90861634e-07 -7.61647925e-07 -7.70161932e-07 -7.86437909e-07
      -8.22600782e-07 -8.96716131e-07 -9.64084734e-07 -9.82985512e-07
      -9.47947512e-07 -8.19640832e-07 -6.22313109e-07 -3.68430591e-07
      -8.92853969e-09 4.19217145e-07 8.21277126e-07 1.18314335e-06
      1.35773541e-06 1.36889594e-06 1.17785180e-06 8.38018195e-07
      4.31070703e-07 -2.68216249e-09 -3.70171250e-07 -5.92704851e-07
      -5.74416788e-07 -4.65907675e-07 -2.86347813e-07 -1.69485318e-07
      -1.35249408e-07 -2.85251531e-07 -6.62573200e-07 -1.14807858e-06
      -1.74222964e-06 -2.22913923e-06 -2.46678724e-06 -2.37932204e-06
      -1.93780852e-06 -1.38609334e-06 -9.35687069e-07 -6.49621029e-07
      -4.11854899e-07 -2.80777783e-07 -1.62741102e-07 9.54095647e-09
      1.65274528e-07 2.63449408e-07 2.96941607e-07 3.34277217e-07
      3.45781700e-07 3.25184317e-07 3.30546527e-07 3.25189319e-07
      3.91468859e-07 3.71080972e-07 3.15986995e-07 2.43446607e-07
      1.77463789e-07 9.40041431e-08 -1.34070159e-08 -7.89945744e-08
      -1.20219084e-07 -1.11944480e-07 -7.86287728e-08 -6.05855561e-08
      9.79077264e-09 1.23386911e-07 4.08485562e-07 8.52876212e-07
      1.21980599e-06 1.49822574e-06 1.95299572e-06 2.08788470e-06
      1.51566132e-06 9.11792711e-07 4.93354378e-07 1.96985724e-07
      9.69435976e-10 -1.92863723e-07 -3.54258191e-07 -4.82410144e-07
      -5.34360765e-07 -5.68174755e-07 -6.45475950e-07 -8.09923392e-07
      -1.13611623e-06 -1.52125199e-06 -1.52983648e-06 -1.17858633e-06
      -7.51010987e-07 -2.85255538e-07 7.88894212e-08 3.14538084e-07
      4.63001783e-07 2.87665813e-07 1.12537840e-07 1.10555753e-07
      2.22404651e-07 3.34380502e-07 3.87662908e-07 3.73425763e-07
      3.22410756e-07 2.04419607e-07 1.19853382e-07 7.10059496e-08
      3.52043173e-07 3.21881544e-07 3.07624418e-07 2.90509320e-07
      2.99707864e-07 3.27142203e-07 3.40797413e-07 2.92946595e-07
      1.75158803e-07 -2.71975438e-08 -2.44679057e-07 -5.29947954e-07
      -8.74297939e-07 -1.16038291e-06 -1.36919687e-06 -1.54723705e-06
      -1.68866552e-06 -1.58727937e-06 -1.36659480e-06 -1.26402074e-06
      -1.00291970e-06 -8.07758852e-07 -6.90847571e-07 -5.26267058e-07
      -5.32606407e-07 -4.26619181e-07 -4.25772441e-07 -5.86988449e-07
      -6.98824465e-07 -6.46445642e-07 -4.57696672e-07 -4.88871706e-07
      -8.87950819e-07 -1.37928816e-06 -1.69444149e-06 -2.02594879e-06
      -2.24843416e-06 -2.05993979e-06 -1.71711747e-06 -1.54309259e-06
      -1.39929364e-06 -1.26136729e-06 -1.09949974e-06 -9.26873497e-07
      -8.49006199e-07 -7.97380892e-07 -7.82373206e-07 -8.20585115e-07
      -8.67389133e-07 -9.17067041e-07 -9.66731477e-07 -9.87292196e-07
      1.42141892e-06 1.36316260e-06 1.22544122e-06 1.06094740e-06
      8.50093897e-07 6.11182941e-07 4.00303009e-07 1.63773109e-07
      -1.13299301e-07 -4.25875868e-07 -6.80152368e-07 -8.57227121e-07
      -1.02190040e-06 -1.07109668e-06 -1.02128229e-06 -1.01356386e-06
      -1.09057953e-06 -1.12684177e-06 -1.33337539e-06 -1.65985477e-06
      -1.87253738e-06 -2.02678689e-06 -2.05434321e-06 -1.90458377e-06
      -1.56310648e-06 -1.34800985e-06 -1.55488624e-06 -1.83811460e-06
      -2.00674776e-06 -1.84032206e-06 -1.40934549e-06 -8.87433657e-07
      -6.35273864e-07 -7.12323754e-07 -6.49957599e-07 -4.45046794e-07
      -2.58366072e-07 6.69428601e-08 1.93582224e-07 -4.03748359e-08
      -4.77107335e-07 -9.13286271e-07 -1.31520483e-06 -1.56262820e-06
      -1.65967572e-06 -1.52592918e-06 -1.25416136e-06 -9.54400321e-07
      -6.92304752e-07 -4.54552520e-07 -3.26985941e-07 -2.67522552e-07
      1.97748682e-06 1.96648330e-06 1.92707580e-06 1.85638726e-06
      1.71643092e-06 1.50845392e-06 1.23417283e-06 9.57911425e-07
      7.02408784e-07 5.05072194e-07 3.36813912e-07 3.21705329e-07
      4.41123262e-07 7.47966567e-07 1.16109015e-06 1.52377220e-06
      1.93890969e-06 2.34918843e-06 2.56527505e-06 2.50279686e-06
      2.33616083e-06 1.94796439e-06 1.11943234e-06 4.01965167e-07
      -2.04393757e-07 -7.74556611e-07 -1.31504771e-06 -1.78294442e-06
      -2.10079588e-06 -2.02471324e-06 -1.54507870e-06 -7.87276804e-07
      2.67395336e-07 1.43599800e-06 2.55353802e-06 3.14065960e-06
      3.45002877e-06 3.44181353e-06 2.84282828e-06 1.98777138e-06
      1.09810287e-06 3.32737642e-07 -2.55216065e-07 -5.49965591e-07
      -5.00699571e-07 -2.41295766e-07 9.94283766e-08 3.66836076e-07
      4.99907571e-07 5.56927830e-07 5.50991786e-07 5.43344186e-07
      -3.55986913e-07 -3.53579821e-07 -3.36153903e-07 -3.64678442e-07
      -3.89291699e-07 -3.88689017e-07 -4.27521229e-07 -5.11423934e-07
      -6.48625132e-07 -7.94047139e-07 -8.99850647e-07 -8.15004341e-07
      -4.83122449e-07 1.82169337e-08 5.20998583e-07 9.07874153e-07
      1.17848094e-06 1.37532311e-06 1.49570303e-06 1.58759462e-06
      1.63514324e-06 1.38725090e-06 7.48387436e-07 1.23842270e-07
      -4.72084707e-07 -1.00017985e-06 -1.47576588e-06 -1.92641733e-06
      -2.19459980e-06 -2.23514053e-06 -2.06285813e-06 -1.78629682e-06
      -1.37404083e-06 -9.18899843e-07 -4.45076068e-07 -1.36341598e-07
      -1.21371755e-07 -1.16322937e-07 -9.36252107e-08 -2.77876495e-07
      -5.33034154e-07 -7.85541260e-07 -9.15607586e-07 -8.28449117e-07
      -5.81649033e-07 -3.89703303e-07 -1.54148694e-07 2.19280437e-07
      5.79064590e-07 8.62605248e-07 1.06335176e-06 1.10284577e-06
      -1.46996331e-06 -1.47513310e-06 -1.51069139e-06 -1.57656427e-06
      -1.63419486e-06 -1.65789049e-06 -1.58137732e-06 -1.42650140e-06
      -1.21682081e-06 -9.38843868e-07 -6.23243238e-07 -3.56515216e-07
      -1.51854692e-07 -1.03772400e-07 -1.61209130e-07 -2.63777792e-07
      -4.17898349e-07 -5.92742367e-07 -7.74820478e-07 -9.73547571e-07
      -1.21232745e-06 -1.37770496e-06 -1.44928129e-06 -1.68225347e-06
      -1.61777587e-06 -1.57042371e-06 -1.58896512e-06 -1.70064777e-06
      -1.87225112e-06 -1.96653855e-06 -1.96251335e-06 -1.87303090e-06
      -1.66012626e-06 -1.33584092e-06 -8.52496157e-07 -7.03460671e-07
      -5.20999549e-07 -2.56088896e-07 7.36669534e-08 2.26592675e-07
      1.47393195e-07 -3.84037406e-08 -1.91130425e-07 -2.66514348e-07
      -3.08221161e-07 -2.90200973e-07 -1.66240795e-07 4.59477327e-08
      3.04413419e-07 4.69032670e-07 5.72264923e-07 6.08082757e-07
      -1.61389210e-07 -1.03460941e-07 3.22472999e-08 2.22358821e-07
      4.48063844e-07 6.69903272e-07 8.91647574e-07 1.12369833e-06
      1.30350043e-06 1.38310122e-06 1.35747621e-06 1.21487108e-06
      9.49491493e-07 5.44895897e-07 6.75302587e-08 -4.06097058e-07
      -8.83617417e-07 -1.35287769e-06 -1.76577453e-06 -2.14896181e-06
      -2.50331391e-06 -2.82522137e-06 -3.04278547e-06 -3.09738653e-06
      -2.94186361e-06 -2.60918091e-06 -2.16944977e-06 -1.77428831e-06
      -1.51822780e-06 -1.35751327e-06 -1.20597247e-06 -1.06232244e-06
      -9.15346561e-07 -7.32482135e-07 -4.57727225e-07 -7.38363255e-08
      3.72724770e-07 8.90552371e-07 1.37834638e-06 1.74179206e-06
      1.84701037e-06 1.69155044e-06 1.26758471e-06 6.75092394e-07
      1.12740608e-07 -3.84864791e-07 -7.44213366e-07 -1.00195064e-06
      -1.06700156e-06 -9.99589929e-07 -8.84654980e-07 -8.22580773e-07
      -1.66487240e-07 -1.76723503e-07 -1.40316544e-07 -7.34791072e-08
      7.01714882e-08 2.31549038e-07 3.90490470e-07 5.59489081e-07
      7.62056516e-07 9.89130854e-07 1.23412303e-06 1.43212037e-06
      1.55994701e-06 1.62222966e-06 1.54051077e-06 1.28771740e-06
      9.24752385e-07 4.45256944e-07 -8.23791950e-08 -5.99212854e-07
      -1.03091998e-06 -1.32963612e-06 -1.44046567e-06 -1.35260291e-06
      -1.06338496e-06 -6.45625846e-07 -2.30450667e-07 1.61500736e-07
      4.65567723e-07 6.41374925e-07 6.56722648e-07 5.35241838e-07
      3.74106520e-07 2.10697806e-07 1.30086875e-07 1.53501588e-07
      2.30494678e-07 3.82249794e-07 5.99462453e-07 8.46368096e-07
      1.05426432e-06 1.17804007e-06 1.14520344e-06 9.41962355e-07
      6.19050752e-07 2.46355484e-07 -1.01299875e-07 -3.84291042e-07
      -5.50935965e-07 -5.22498965e-07 -4.81612972e-07 -4.55838489e-07
      5.10806274e-07 4.84411828e-07 3.90659125e-07 2.49572082e-07
      2.36712765e-08 -2.29637166e-07 -4.63069966e-07 -6.62786931e-07
      -7.26537735e-07 -6.48976084e-07 -4.09847672e-07 -4.57227900e-09
      4.94895914e-07 9.87552539e-07 1.34116885e-06 1.40486429e-06
      1.06822733e-06 5.79138600e-07 7.39868682e-08 -3.59196292e-07
      -6.55194640e-07 -7.57864598e-07 -6.47400270e-07 -3.26475060e-07
      7.08061023e-08 4.89408819e-07 8.26023154e-07 9.96859285e-07
      9.92956302e-07 8.05161790e-07 5.50404707e-07 2.63669818e-07
      -7.88051668e-09 -1.88806084e-07 -2.21737622e-07 -1.27553307e-07
      5.22551566e-08 2.16186265e-07 3.01638067e-07 3.48889046e-07
      3.26754417e-07 2.34748228e-07 1.22609421e-07 1.37721807e-08
      -9.48383345e-08 -1.50763668e-07 -1.64033594e-07 -8.12416943e-08
      1.51950232e-07 3.31053030e-07 4.46289363e-07 4.95868505e-07
      9.28730742e-07 9.15480484e-07 8.58427711e-07 7.69878568e-07
      6.30003456e-07 4.49849807e-07 2.70124275e-07 1.07861304e-07
      -5.11437426e-09 -3.95253146e-08 4.91151431e-09 2.12630297e-07
      3.92024162e-07 3.20019808e-07 -1.33333318e-08 -4.96668065e-07
      -1.00066279e-06 -1.34285813e-06 -1.46084562e-06 -1.33253650e-06
      -9.61731530e-07 -4.26992955e-07 1.39246310e-07 6.35139941e-07
      1.01204580e-06 1.30507919e-06 1.44797832e-06 1.44919329e-06
      1.36558538e-06 1.21289656e-06 1.04983008e-06 9.41292626e-07
      8.46547039e-07 7.64496633e-07 6.95423296e-07 6.71396094e-07
      7.58792567e-07 9.34913373e-07 1.13096837e-06 1.25740894e-06
      1.27191538e-06 1.16411343e-06 1.01356659e-06 7.99504505e-07
      5.85828104e-07 3.80226396e-07 1.95569442e-07 2.59615636e-08
      -4.12315657e-08 -8.77059492e-08 -9.87164057e-08 -9.05484967e-08
      -5.10209929e-07 -5.78672314e-07 -7.32618673e-07 -8.63211767e-07
      -8.77944444e-07 -8.05219656e-07 -6.43753765e-07 -4.07231511e-07
      -1.78376268e-07 4.11543049e-08 2.11632440e-07 2.88298793e-07
      2.37298821e-07 6.15178806e-08 -1.66286213e-07 -3.80323286e-07
      -4.89764886e-07 -4.76699853e-07 -2.97844764e-07 3.26596172e-08
      5.58887962e-07 1.15901878e-06 1.70212047e-06 2.08326355e-06
      2.32034563e-06 2.54789597e-06 2.70921805e-06 2.80205495e-06
      2.84583962e-06 2.76165520e-06 2.53927965e-06 2.23817869e-06
      1.86390082e-06 1.42900444e-06 1.04427716e-06 7.78331298e-07
      6.37236724e-07 6.24286713e-07 6.58029023e-07 6.36032439e-07
      5.86527847e-07 5.03674244e-07 3.65684485e-07 1.61312386e-07
      -9.05684505e-09 -2.44772025e-07 -4.83050144e-07 -6.91058972e-07
      -7.92228661e-07 -8.11875395e-07 -7.83584085e-07 -7.78381605e-07
      -1.83986447e-06 -1.79925553e-06 -1.66483824e-06 -1.45956312e-06
      -1.17802085e-06 -8.28480552e-07 -4.12550975e-07 -1.44177728e-08
      3.31774288e-07 6.11942767e-07 9.57204634e-07 1.18513128e-06
      1.35714492e-06 1.54829536e-06 1.86106956e-06 2.17167712e-06
      2.44010812e-06 2.58446903e-06 2.48483320e-06 2.12004011e-06
      1.66654263e-06 1.20543348e-06 8.38393760e-07 6.48250818e-07
      6.66179119e-07 8.63223079e-07 1.10930432e-06 1.31534011e-06
      1.45218678e-06 1.50937512e-06 1.41554312e-06 1.06634525e-06
      5.92824790e-07 2.79238748e-07 3.72411932e-07 7.68003929e-07
      1.22328993e-06 1.51524046e-06 1.49434641e-06 1.15885393e-06
      6.55508416e-07 1.88607061e-07 -1.90593923e-07 -4.13540135e-07
      -4.54293314e-07 -3.98295981e-07 -3.26501606e-07 -2.13066187e-07
      -1.50173406e-07 -1.03725732e-07 -7.06435088e-08 -6.59451800e-08
      -5.88327339e-07 -5.44299553e-07 -4.25116269e-07 -2.90950624e-07
      -1.46762162e-07 3.30955672e-08 1.99893719e-07 3.36907107e-07
      5.31449245e-07 8.10554923e-07 1.21410494e-06 1.82299698e-06
      2.59022386e-06 3.16043452e-06 3.84301165e-06 4.48915853e-06
      4.78722586e-06 4.58968543e-06 3.84029545e-06 2.69315001e-06
      1.54626809e-06 5.76025286e-07 -1.09121579e-07 -7.68438952e-07
      -1.27484657e-06 -1.53956364e-06 -1.59072761e-06 -1.47659921e-06
      -1.23876123e-06 -8.99384702e-07 -5.34722062e-07 -1.95802116e-07
      2.71264238e-08 1.53270108e-07 9.96770950e-07 2.43609384e-06
      3.86026795e-06 4.75186607e-06 4.86345743e-06 4.18701165e-06
      3.02936655e-06 1.87291369e-06 1.08418601e-06 6.30239185e-07
      3.78280106e-07 3.53385644e-07 4.31236060e-07 6.01281499e-07
      7.53540746e-07 8.81922858e-07 8.97996983e-07 8.73252759e-07
      1.19732090e-06 1.17006039e-06 1.04887988e-06 8.53650420e-07
      6.61146771e-07 4.72133792e-07 3.13062969e-07 1.92410241e-07
      9.57558441e-08 5.43031291e-08 1.12881374e-07 2.20830998e-07
      4.92686013e-07 1.20423226e-06 2.37866948e-06 3.80616984e-06
      4.94845881e-06 5.54517419e-06 5.13386522e-06 4.12091686e-06
      3.02769308e-06 1.92166954e-06 8.10345057e-07 -2.87133645e-07
      -1.24029305e-06 -1.88776221e-06 -2.16948274e-06 -2.08532879e-06
      -1.74904005e-06 -1.11189138e-06 -2.97795026e-07 5.66172332e-07
      1.32127423e-06 1.68836880e-06 2.13237490e-06 2.82596898e-06
      3.66816198e-06 4.10592338e-06 3.83307997e-06 2.58570481e-06
      1.10323890e-06 6.99903211e-08 -3.90558483e-07 -1.91527235e-07
      2.01051833e-07 5.46448405e-07 8.68248321e-07 1.07977371e-06
      1.16447177e-06 1.18574349e-06 1.12187365e-06 1.10339863e-06
      1.38298287e-06 1.36628523e-06 1.32108835e-06 1.27173598e-06
      1.26984241e-06 1.25744953e-06 1.20444111e-06 1.10655174e-06
      9.04535568e-07 5.99444149e-07 2.47414079e-07 4.68197747e-08
      1.73721162e-07 1.12660132e-06 2.45491606e-06 3.68076189e-06
      4.91197761e-06 5.36012249e-06 4.74503304e-06 3.80652000e-06
      2.97774363e-06 2.39011820e-06 1.51225811e-06 4.16518105e-07
      -5.94903270e-07 -1.43853845e-06 -1.96893757e-06 -2.15253499e-06
      -1.97945565e-06 -1.54373367e-06 -1.02216211e-06 -4.20381809e-07
      4.65202447e-07 1.55468001e-06 2.38624671e-06 2.90447815e-06
      2.82801579e-06 2.85503552e-06 1.93967526e-06 7.60647026e-07
      -2.52863913e-07 -1.07884023e-06 -1.50381641e-06 -1.42241038e-06
      -8.04725630e-07 1.23665274e-07 9.50458059e-07 1.56699502e-06
      2.01922558e-06 2.36007713e-06 2.56333510e-06 2.64065920e-06
      -4.89067020e-07 -4.50587265e-07 -3.04088871e-07 -8.45834265e-08
      1.39188387e-07 3.74684078e-07 5.85805196e-07 7.73964132e-07
      9.67939513e-07 1.09869006e-06 1.12679754e-06 1.18390176e-06
      1.69767247e-06 2.69366342e-06 3.51384620e-06 4.07751895e-06
      4.57390843e-06 4.68096732e-06 4.74773788e-06 4.27397345e-06
      3.42455746e-06 2.18424543e-06 9.06761045e-07 -2.30523881e-07
      -1.18716719e-06 -1.98110138e-06 -2.66794063e-06 -3.22495453e-06
      -3.59128171e-06 -3.75533568e-06 -3.57571821e-06 -2.95391737e-06
      -1.78904691e-06 -7.01385332e-08 1.78759706e-06 3.21108041e-06
      4.20518563e-06 4.33592231e-06 4.00644740e-06 3.52829829e-06
      2.73486103e-06 1.57642546e-06 6.88231353e-07 1.65207211e-07
      -2.52925627e-08 5.48106316e-09 1.02968414e-07 2.60379267e-07
      4.61903312e-07 6.42379575e-07 7.55170902e-07 7.81936762e-07
      -3.53649597e-07 -3.46706287e-07 -3.71553369e-07 -4.14055535e-07
      -5.08285723e-07 -6.38224265e-07 -6.72596627e-07 -5.66603717e-07
      -1.32600363e-07 3.19654134e-07 6.92705669e-07 1.24867404e-06
      2.20426432e-06 3.10558266e-06 3.66408517e-06 4.02712976e-06
      4.21874483e-06 4.29328838e-06 4.39858240e-06 4.29835382e-06
      3.29796694e-06 2.00081740e-06 9.70193923e-07 1.75943129e-07
      -4.86188526e-07 -1.08305971e-06 -1.59517174e-06 -1.88456227e-06
      -2.03814648e-06 -2.13574026e-06 -2.08078836e-06 -1.80297684e-06
      -1.28420027e-06 -3.94467094e-07 9.58680062e-07 2.86725185e-06
      4.23623123e-06 4.89239255e-06 4.91432547e-06 4.49403569e-06
      3.62721084e-06 2.36144001e-06 1.02719162e-06 3.96573341e-07
      -8.58539337e-08 -1.51560556e-07 -2.78568166e-07 -6.15781119e-07
      -8.49414619e-07 -9.97686016e-07 -1.05773643e-06 -1.10261465e-06
      -6.61254074e-09 -4.32326885e-08 -1.47070040e-07 -3.53908774e-07
      -6.20574156e-07 -9.15115436e-07 -1.11267934e-06 -1.08380652e-06
      -7.82405209e-07 -1.78687110e-08 1.29877560e-06 3.03225374e-06
      3.81445807e-06 3.64507764e-06 3.17177228e-06 2.69923316e-06
      2.31359422e-06 2.36226265e-06 2.16397007e-06 2.17300203e-06
      2.02532442e-06 1.40326097e-06 1.10580947e-06 9.33264914e-07
      9.30748683e-07 1.16128831e-06 1.46668617e-06 1.81013797e-06
      2.15188629e-06 2.27584633e-06 2.13063436e-06 1.73714591e-06
      1.02452043e-06 5.09845222e-07 4.55745777e-07 1.18814569e-06
      2.27813052e-06 3.21186189e-06 3.40231236e-06 3.21940774e-06
      2.95880977e-06 2.67900259e-06 2.32331058e-06 9.63922275e-07
      -5.77695971e-07 -1.40679003e-06 -1.67129065e-06 -1.70079272e-06
      -1.71581451e-06 -1.72764362e-06 -1.71842100e-06 -1.70834744e-06
      -5.52415315e-07 -6.09898279e-07 -7.39878772e-07 -9.04832802e-07
      -1.04891626e-06 -1.11584166e-06 -1.10368535e-06 -8.91546961e-07
      -4.32590497e-07 3.15923870e-07 1.01360774e-06 1.24121073e-06
      1.50532230e-06 1.36027518e-06 1.05072991e-06 9.31951377e-07
      7.38583594e-07 3.36255255e-07 -2.75350828e-07 -2.75057857e-07
      2.49597036e-07 8.97584073e-07 1.14916929e-06 1.25905103e-06
      1.35846904e-06 1.55708096e-06 1.81449207e-06 2.09622908e-06
      2.35845641e-06 2.49812092e-06 2.45160300e-06 2.18138484e-06
      1.67045607e-06 1.16583806e-06 9.08570428e-07 1.05777576e-06
      1.27956116e-06 1.57549152e-06 1.74626382e-06 1.68901022e-06
      1.22118365e-06 5.12644817e-07 -4.64319129e-07 -1.25287897e-06
      -1.82516089e-06 -2.18479136e-06 -2.53811550e-06 -2.63978677e-06
      -2.57446277e-06 -2.44367106e-06 -2.30480259e-06 -2.21798518e-06
      -1.55620313e-07 -1.90585581e-07 -2.85682034e-07 -4.20144687e-07
      -5.48686899e-07 -5.43481747e-07 -3.90055931e-07 -9.22649193e-08
      3.26459400e-07 6.63949777e-07 8.89040507e-07 1.04744072e-06
      1.13697683e-06 1.12858424e-06 1.01564694e-06 7.46799969e-07
      1.34478583e-07 -5.52605911e-07 -9.50754156e-07 -9.82570327e-07
      -7.09118353e-07 -4.66100857e-07 -1.93527285e-07 -7.66388339e-08
      1.13088646e-07 -4.64456136e-08 -2.41313501e-07 -2.84118556e-07
      -1.49354960e-07 -2.03383195e-08 -1.23346609e-07 -5.15294175e-07
      -1.29739556e-06 -2.34400250e-06 -2.77440427e-06 -2.71432145e-06
      -2.24941255e-06 -1.42937927e-06 -5.11000735e-07 3.60224874e-07
      9.45254101e-07 1.07997334e-06 8.01622264e-07 1.52617346e-07
      -6.69432211e-07 -1.20460231e-06 -1.51180154e-06 -1.65674044e-06
      -1.64937092e-06 -1.51583208e-06 -1.36257734e-06 -1.27573537e-06
      7.40867367e-09 5.64293856e-08 2.47685932e-07 7.25703330e-07
      1.26354848e-06 1.88943795e-06 2.50150060e-06 2.67848191e-06
      2.49441723e-06 2.19981030e-06 2.04654771e-06 1.90808441e-06
      2.02772617e-06 2.40443273e-06 3.12936027e-06 2.60810816e-06
      1.74772356e-06 8.88132377e-07 5.43759825e-07 9.70963896e-08
      -9.44178495e-08 -3.75236709e-07 -7.19296224e-07 -1.41926978e-06
      -1.68402278e-06 -2.41202542e-06 -2.60523302e-06 -2.35942503e-06
      -1.77938580e-06 -1.18181367e-06 -7.93224501e-07 -2.75648830e-07
      5.92831270e-07 7.61575691e-08 -2.79179176e-07 -8.65330435e-07
      -6.49499043e-07 -2.29928617e-07 3.43994913e-07 1.20644711e-06
      1.86058492e-06 2.40600980e-06 1.88757610e-06 1.37538279e-06
      1.29999569e-06 1.30845638e-06 1.47561900e-06 1.47709625e-06
      1.15193666e-06 9.95994242e-07 1.05337767e-06 1.10918756e-06
      -1.22757012e-06 -1.16978106e-06 -1.13825627e-06 -1.26745726e-06
      -1.40917405e-06 -1.35229175e-06 -1.16956733e-06 -1.25652480e-06
      -1.14346665e-06 -6.59285604e-07 -3.18038957e-07 -2.94353384e-07
      -3.06356518e-09 3.05769788e-07 4.30097913e-07 5.35743141e-07
      4.62114514e-07 5.99983537e-07 1.78704525e-07 -7.66742005e-07
      -1.36950905e-06 -1.61521189e-06 -2.14645411e-06 -2.50797916e-06
      -2.68481676e-06 -2.83931195e-06 -2.80031850e-06 -2.50418361e-06
      -2.35699304e-06 -2.40397503e-06 -2.31603894e-06 -2.39855331e-06
      -2.62768413e-06 -2.45056276e-06 -1.61513242e-06 -8.99161705e-07
      -3.60229421e-07 1.50481494e-08 1.40307961e-08 -9.44974445e-08
      -1.70722871e-07 -3.48982212e-07 -3.84638781e-07 -4.20944531e-07
      -3.47490186e-07 -4.84726741e-07 -6.41558245e-07 -8.03650153e-07
      -9.03297064e-07 -9.91422553e-07 -8.96560550e-07 -8.96044867e-07
      -1.20250115e-06 -1.17443926e-06 -1.16530123e-06 -1.24951157e-06
      -1.23081816e-06 -1.03196294e-06 -1.06683387e-06 -1.32899061e-06
      -1.15971079e-06 -6.42132704e-07 -2.51438337e-07 -2.79007196e-07
      -6.53988295e-08 6.45746709e-08 1.87459577e-07 4.86151180e-07
      5.25751773e-07 6.02335149e-07 2.35004421e-07 -5.71416876e-07
      -1.19423908e-06 -1.55019291e-06 -1.92224547e-06 -2.40450640e-06
      -2.66989673e-06 -2.88441629e-06 -2.79865731e-06 -2.49930054e-06
      -2.49864524e-06 -2.58361342e-06 -2.41987846e-06 -2.31358763e-06
      -2.38079474e-06 -2.19814820e-06 -1.49388245e-06 -9.63476054e-07
      -6.02697071e-07 -1.37474686e-07 9.59412105e-08 2.52280721e-08
      2.50726657e-08 -1.36063477e-07 -2.17057490e-07 -3.81639950e-07
      -4.14166038e-07 -4.75380006e-07 -3.90390511e-07 -2.57018655e-07
      -3.47816524e-07 -5.33490493e-07 -3.92699548e-07 -3.11240541e-07
      -1.00554610e-06 -1.08282245e-06 -1.09317239e-06 -1.04986373e-06
      -8.84026178e-07 -6.30030456e-07 -8.41477743e-07 -1.20514642e-06
      -9.42007262e-07 -2.96818712e-07 -1.78797972e-08 -5.64014755e-08
      8.40733350e-09 -7.09159576e-09 1.16742832e-07 3.32005527e-07
      5.18612524e-07 4.58485800e-07 1.38714924e-07 -2.65960381e-07
      -7.96819222e-07 -1.31098932e-06 -1.61593016e-06 -2.09928294e-06
      -2.37194126e-06 -2.51742927e-06 -2.35602238e-06 -2.24669066e-06
      -2.48752531e-06 -2.63545576e-06 -2.61571154e-06 -2.68035251e-06
      -2.52368091e-06 -2.04865705e-06 -1.46106072e-06 -1.05499021e-06
      -8.57380144e-07 -5.56038174e-07 -1.54287036e-07 -1.17516848e-07
      -1.13196625e-08 6.31141850e-09 -1.28378076e-07 -4.19062559e-07
      -5.64181164e-07 -7.04688659e-07 -4.13115856e-07 -5.92594931e-11
      -7.94827244e-08 -5.61342830e-08 1.63022662e-07 3.64299495e-07
      -8.56447230e-07 -1.16196304e-06 -1.15499711e-06 -8.58473072e-07
      -5.36683274e-07 -1.41424636e-07 -4.39462184e-07 -9.01753879e-07
      -7.50077220e-07 -1.03107006e-07 3.42133930e-08 -1.07343343e-08
      -3.84434884e-08 5.20215195e-08 2.07934008e-07 3.51340674e-07
      4.16683463e-07 3.48292332e-07 6.88157158e-08 -2.07395559e-07
      -4.79176776e-07 -8.74872001e-07 -1.34209563e-06 -1.65896984e-06
      -1.91329036e-06 -1.95345774e-06 -1.82069459e-06 -1.86585930e-06
      -2.00355930e-06 -2.24704149e-06 -2.53291478e-06 -3.05519825e-06
      -2.96454186e-06 -2.30751652e-06 -1.65996209e-06 -1.29082810e-06
      -9.77733407e-07 -8.85828456e-07 -6.04473598e-07 -3.95374258e-07
      -2.61430813e-07 -1.33904166e-07 -2.18638576e-07 -4.42009735e-07
      -6.31928799e-07 -8.45545173e-07 -6.18985723e-07 -1.08748928e-07
      -2.30637767e-07 -2.78256493e-07 -9.13277063e-08 4.08547379e-07
      -1.59480905e-07 -3.96639393e-07 -5.68259907e-07 -6.62170464e-07
      -2.85407765e-07 3.12868735e-07 3.77726046e-08 -4.31191410e-07
      -4.45400588e-07 -6.50749783e-08 -8.68810233e-08 -1.06024480e-07
      -1.66908336e-07 -3.85415655e-09 2.69546376e-07 3.90386731e-07
      3.16475024e-07 1.48547088e-07 -3.90810726e-08 -1.63813795e-07
      -4.07493928e-07 -6.45548596e-07 -9.21732919e-07 -1.14447073e-06
      -1.33516687e-06 -1.40433383e-06 -1.31441413e-06 -1.39905751e-06
      -1.43767227e-06 -1.53432256e-06 -1.82412305e-06 -2.79284131e-06
      -3.10139376e-06 -2.54579300e-06 -1.83031273e-06 -1.20949164e-06
      -7.87045678e-07 -6.56501527e-07 -6.51203038e-07 -3.44569656e-07
      -2.29524858e-07 -2.82708385e-07 -3.80942367e-07 -4.95761014e-07
      -5.32550132e-07 -6.55096244e-07 -5.08132814e-07 -8.82591138e-08
      -2.34321760e-07 -4.03138387e-07 -3.76455802e-07 -2.88803790e-07
      2.74401302e-08 1.47723512e-07 1.50276861e-07 -6.02231864e-08
      3.09052375e-08 5.40131168e-07 3.32444102e-07 -3.94494073e-08
      -1.17579823e-07 -1.38877541e-08 -9.77888703e-08 -2.58917623e-07
      -2.61684335e-07 -1.38588064e-07 1.96356496e-07 3.17010603e-07
      2.65236594e-07 -1.57356411e-07 -2.94136129e-07 -1.78213966e-07
      -3.52639944e-07 -5.85325211e-07 -4.53797242e-07 -5.55199676e-07
      -7.20653077e-07 -1.03199091e-06 -1.09817074e-06 -9.22644972e-07
      -9.03070259e-07 -1.05564413e-06 -1.20495417e-06 -1.86674026e-06
      -2.37173640e-06 -2.05411038e-06 -1.48433787e-06 -8.83096391e-07
      -4.24662971e-07 -2.92396862e-07 -2.63325461e-07 1.48178518e-08
      1.33830142e-07 6.68817890e-08 -5.40861613e-08 -1.29106994e-07
      -2.84266093e-07 -3.51673208e-07 -2.23680374e-07 -1.09638250e-07
      -2.39819343e-07 -3.01551552e-07 -1.48442851e-07 -9.10580411e-08
      -3.52089359e-07 -2.89967517e-07 -8.11295067e-08 -9.32722699e-08
      1.50979407e-08 6.50882669e-07 7.77912135e-07 3.88453060e-07
      1.72394635e-07 8.13149867e-08 -1.08681864e-09 -1.71978044e-07
      -2.61589093e-07 -2.50900399e-07 -1.29735542e-10 2.25517979e-07
      1.79532606e-07 -2.09938761e-07 -3.16914623e-07 -7.24179898e-08
      -3.61834708e-07 -6.05123375e-07 -1.39443287e-07 2.65180322e-08
      -2.65722377e-07 -7.66810444e-07 -1.13970918e-06 -1.10845542e-06
      -1.01913611e-06 -1.17966658e-06 -1.24518976e-06 -1.21948506e-06
      -1.32931416e-06 -1.16773765e-06 -7.93439426e-07 -3.86312223e-07
      -1.95064473e-07 -1.13962351e-07 -7.17755668e-08 8.77027446e-08
      2.36584071e-07 2.27705783e-07 1.10377457e-07 5.07442870e-08
      -2.95481385e-07 -4.09640364e-07 -1.51027692e-07 -2.12590123e-07
      -5.08612629e-07 -5.73029865e-07 -2.95156553e-07 -1.75939590e-07
      -5.01027273e-07 -6.25374071e-07 -6.19302455e-07 -7.66342282e-07
      -7.39413849e-07 4.76116355e-08 7.76937327e-07 6.59342561e-07
      3.88379192e-07 2.63601208e-07 1.90799312e-07 1.70159957e-08
      -1.39307005e-07 -2.35716399e-07 -9.87133646e-08 1.83627591e-07
      1.68342339e-07 -1.90682741e-07 -9.82572388e-08 1.95876694e-07
      -1.49901808e-07 -4.48917149e-07 -2.22049845e-08 3.97825374e-07
      1.16161338e-07 -6.18763693e-07 -1.15143348e-06 -1.39976964e-06
      -1.35002040e-06 -1.37079394e-06 -1.37172765e-06 -1.18784260e-06
      -6.99063605e-07 -4.68518948e-07 -2.79151323e-07 -1.50531136e-07
      -2.51445812e-07 -1.04289789e-07 1.59722475e-08 1.57920127e-07
      2.13251667e-07 1.22268460e-07 1.27329995e-08 -2.09273381e-07
      -4.84087082e-07 -4.59289225e-07 -2.63423402e-07 -2.94670315e-07
      -6.08255959e-07 -7.32639478e-07 -6.70117117e-07 -8.51662946e-07
      2.61034305e-09 -1.77218283e-07 -4.79032622e-07 -8.80899961e-07
      -1.24327676e-06 -8.93711501e-07 -1.60084696e-07 3.50811263e-07
      4.01063232e-07 3.59043668e-07 2.60566338e-07 1.36040612e-07
      -1.03807309e-07 -1.58248682e-07 1.97065511e-08 1.38935704e-07
      1.00604325e-07 -9.96194558e-08 2.25384937e-07 5.82189671e-07
      3.70256714e-07 -1.56929101e-08 1.81247984e-07 4.78630398e-07
      3.00786240e-07 -4.28847414e-07 -1.01570834e-06 -1.30268666e-06
      -1.30335570e-06 -1.39702036e-06 -1.42691124e-06 -1.25693748e-06
      -8.10263373e-07 -4.72743494e-07 -5.08784467e-07 -4.06395657e-07
      -6.27062661e-07 -3.85840167e-07 -2.91281843e-08 1.47338241e-07
      1.63357356e-07 1.03431717e-07 -7.73529933e-08 -4.43590778e-07
      -5.79291566e-07 -3.89291415e-07 -1.91752449e-07 -2.11347270e-07
      -3.86346159e-07 -4.76958519e-07 -5.82112079e-07 -7.51539687e-07
      -1.46187830e-07 7.22631270e-08 -1.99212913e-09 -2.36311266e-07
      -7.12827500e-07 -9.50101821e-07 -6.88743000e-07 -2.70214258e-07
      1.75944322e-07 3.92228486e-07 3.22772848e-07 1.00209505e-07
      -2.06180758e-07 -1.45299012e-07 1.66326330e-07 2.43115693e-07
      2.74044929e-08 -1.04315106e-07 5.51700339e-08 4.24069469e-07
      5.34498497e-07 2.89140360e-07 3.96244076e-07 7.22103948e-07
      4.27228684e-07 -3.68588928e-07 -1.14782756e-06 -1.48870220e-06
      -1.42708052e-06 -1.38194025e-06 -1.20692664e-06 -9.22762581e-07
      -5.88397882e-07 -4.43801838e-07 -5.05496132e-07 -4.21671984e-07
      -8.50643062e-07 -9.03872547e-07 -3.73066456e-07 -2.96049074e-09
      9.51346593e-08 1.09971133e-07 1.05181471e-07 4.33206502e-08
      -1.20531780e-07 -1.21537255e-07 -1.64337564e-07 -2.60381995e-07
      -2.60185914e-07 -3.81871843e-07 -3.41638497e-07 -3.45611653e-07
      3.22429361e-10 2.16316167e-07 2.76886311e-07 3.34036486e-07
      1.87730024e-07 1.13153646e-07 -2.64799525e-07 -3.11416187e-07
      -1.00919486e-08 3.03955574e-07 5.52327720e-07 2.95751590e-07
      -9.76952563e-08 3.47722207e-08 3.46353687e-07 2.88488280e-07
      -6.42821707e-09 -3.20190566e-07 -5.67940447e-07 -3.00699980e-07
      6.73884841e-08 8.66202470e-08 1.07479643e-07 4.40680253e-07
      3.79090551e-07 -3.01206882e-07 -1.15829607e-06 -1.64101186e-06
      -1.60013121e-06 -1.52627479e-06 -1.06527989e-06 -7.09149390e-07
      -3.67751284e-07 -3.56126463e-07 -3.19583876e-07 -2.15646338e-07
      -6.62089917e-07 -9.52686946e-07 -6.39452821e-07 -2.75500526e-07
      1.58625433e-08 -7.94704835e-09 2.40540512e-08 1.73168402e-07
      2.87985642e-07 3.33089105e-07 7.84673517e-08 -4.23303334e-07
      -6.57388341e-07 -6.45871069e-07 -4.13990961e-07 -2.89627877e-07
      -1.73490989e-07 9.98938745e-08 8.93652796e-08 3.21525818e-07
      5.63992273e-07 5.61645209e-07 3.40343831e-07 2.32117401e-07
      1.53451580e-07 1.60674233e-07 6.12327597e-07 7.81376684e-07
      4.17784662e-07 3.78670734e-07 5.36984828e-07 3.71691812e-07
      7.11239210e-08 -2.31516381e-07 -7.96956783e-07 -8.88752311e-07
      -4.83523706e-07 -3.37920312e-07 -4.25621067e-07 -2.73202858e-07
      -7.78400988e-08 -4.25317438e-07 -1.17694128e-06 -1.74384115e-06
      -1.53788699e-06 -1.35210075e-06 -8.43737496e-07 -3.56016329e-07
      3.41870852e-08 -7.92396193e-08 3.97557010e-08 2.75862135e-07
      4.55597053e-08 -2.22086157e-07 -1.03915809e-07 -5.62534552e-08
      2.21322498e-08 -2.46214455e-07 -3.13888336e-07 -2.63040988e-07
      -8.05675953e-08 1.08135850e-07 1.45897346e-07 -3.75231423e-07
      -8.67718541e-07 -1.01117280e-06 -1.03237915e-06 -8.37651442e-07
      -3.94089653e-07 -3.59462547e-07 -3.43871079e-07 -2.88238002e-08
      3.14946817e-07 4.09448376e-07 3.86866958e-07 4.84220095e-07
      6.26885026e-07 4.68156571e-07 6.30474290e-07 1.31358524e-06
      9.87153157e-07 6.93215554e-07 6.15660213e-07 3.56981985e-07
      1.71873438e-07 -1.34580176e-07 -6.94233734e-07 -1.09417499e-06
      -8.36252013e-07 -6.80439996e-07 -8.09967048e-07 -9.09354640e-07
      -5.79834477e-07 -5.88678233e-07 -1.19719743e-06 -1.74907871e-06
      -1.45522176e-06 -1.11948646e-06 -5.01716045e-07 8.03362639e-08
      5.62817945e-07 4.03230445e-07 3.27301677e-07 6.11362339e-07
      5.50172388e-07 3.24654678e-07 3.11899072e-07 4.05029255e-07
      2.73318363e-07 2.49829366e-08 -2.81842546e-07 -4.40118811e-07
      -5.07565858e-07 -4.89304512e-07 -3.02817085e-07 -2.60613234e-07
      -7.39999507e-07 -1.26760756e-06 -1.70207068e-06 -1.52562518e-06
      -3.51148799e-07 -5.66571600e-07 -6.03083947e-07 -3.18958541e-07
      3.13529007e-08 6.85937422e-08 1.35572193e-07 2.47626758e-07
      4.53568646e-07 7.77327614e-07 6.30341162e-07 1.46897162e-06
      1.55201803e-06 9.96720814e-07 6.47747470e-07 2.62378308e-07
      -1.38221594e-07 -3.70918656e-07 -8.30586941e-07 -1.16353749e-06
      -1.01754858e-06 -8.23252037e-07 -8.82254028e-07 -1.09445352e-06
      -8.19780837e-07 -4.93538948e-07 -9.14594409e-07 -1.34864558e-06
      -1.27958754e-06 -9.21012941e-07 -2.44121225e-07 4.27384606e-07
      9.91902425e-07 9.67484993e-07 7.30182023e-07 9.33405090e-07
      9.18826800e-07 5.45185571e-07 2.21160676e-07 3.46753353e-07
      4.90739126e-07 3.40009620e-07 4.62921491e-07 4.81973984e-07
      1.07478030e-07 -4.58755494e-07 -5.31648652e-07 -4.40955603e-07
      -4.21397800e-07 -1.13520446e-06 -1.84757801e-06 -2.04481898e-06
      -1.88547659e-07 -6.92134734e-07 -8.82971790e-07 -6.66740618e-07
      -1.76524892e-07 -1.20828588e-07 -1.26904185e-08 6.87334492e-08
      4.53090685e-08 3.50191556e-07 7.69188773e-07 8.90268780e-07
      1.66488314e-06 1.07492315e-06 7.12749113e-07 3.83326665e-07
      -1.68331979e-07 -6.37874848e-07 -1.04395463e-06 -1.26494365e-06
      -1.17283139e-06 -8.88860484e-07 -8.77440016e-07 -1.05457787e-06
      -8.59235683e-07 -2.67538155e-07 -2.53037939e-07 -7.72792703e-07
      -9.76777187e-07 -8.77902778e-07 -3.56254702e-07 5.02616842e-07
      1.16935234e-06 1.30089018e-06 1.03576053e-06 1.18475634e-06
      1.27274473e-06 6.71507962e-07 1.42952402e-07 -8.74365611e-08
      3.43668880e-08 -3.22322791e-08 2.81218291e-07 1.07041012e-06
      1.11403881e-06 7.06467688e-07 4.60688980e-08 -3.25605470e-07
      -6.38198230e-07 -1.05263427e-06 -1.33206049e-06 -1.81502912e-06
      -3.14947386e-07 -7.27323027e-07 -9.66872790e-07 -8.70013423e-07
      -5.76866796e-07 -1.33101850e-07 3.28725811e-08 1.48690319e-07
      -7.36265005e-09 -7.82959688e-08 -1.02977189e-07 2.33080172e-07
      8.38896256e-07 1.03419302e-06 5.96231928e-07 4.50494667e-07
      2.04786232e-07 -4.23449080e-07 -9.75708531e-07 -1.15643854e-06
      -1.23265295e-06 -1.05984452e-06 -9.78733965e-07 -1.18387049e-06
      -1.04270600e-06 -2.46809464e-07 3.15502405e-07 1.08227390e-07
      -5.55448082e-07 -8.77706952e-07 -7.84920474e-07 2.12740101e-08
      9.52762264e-07 1.14278077e-06 8.54099142e-07 1.11526879e-06
      1.20472976e-06 6.40678365e-07 2.26349272e-07 -8.58607976e-08
      -4.31799947e-07 -6.03946773e-07 -2.18551321e-07 5.05524895e-07
      9.98411792e-07 1.26786369e-06 8.90007527e-07 5.10372104e-07
      -4.06106125e-07 -1.11158192e-06 -1.00403247e-06 -1.02985325e-06
      -8.22362836e-07 -9.67984647e-07 -1.09646635e-06 -1.13690498e-06
      -9.71750410e-07 -4.75672010e-07 5.37935954e-08 3.55507467e-07
      3.32202376e-07 2.16453515e-07 -1.76828266e-07 -6.47637933e-07
      -3.33668339e-07 3.20350551e-07 3.65349109e-07 2.81500206e-07
      4.31890243e-07 -7.39869677e-08 -5.26264671e-07 -7.97923576e-07
      -1.00129080e-06 -1.05700394e-06 -1.08854829e-06 -1.33290041e-06
      -1.18013861e-06 -4.47814244e-07 1.70636625e-07 2.94762827e-07
      -2.69038622e-07 -7.99242002e-07 -1.15754324e-06 -6.50648303e-07
      1.81166044e-07 4.04869041e-07 3.70503415e-07 7.20472769e-07
      9.83153200e-07 4.94808432e-07 2.37483505e-07 -3.99535427e-09
      -2.70604943e-07 -5.15776094e-07 -3.24798521e-07 8.84895286e-08
      4.14535549e-07 9.35718617e-07 9.88097213e-07 8.38289736e-07
      5.47074649e-07 -4.90026025e-07 -7.86644364e-07 -6.64271397e-07
      -1.49559867e-06 -1.41248040e-06 -1.24071607e-06 -1.15533135e-06
      -1.34106949e-06 -9.79601964e-07 -2.49667380e-07 3.17366442e-07
      5.03844774e-07 5.65727873e-07 3.89870934e-07 -5.05123978e-07
      -7.16171883e-07 -3.30221724e-07 -1.15168657e-08 7.82037457e-09
      3.52791659e-07 5.95050267e-08 -5.08317953e-07 -7.45951070e-07
      -8.33870956e-07 -1.04286130e-06 -1.17723812e-06 -1.29738339e-06
      -1.02237914e-06 -4.30110219e-07 -3.25937819e-08 1.20561040e-07
      -1.94985972e-07 -7.42395798e-07 -1.43692750e-06 -1.29965008e-06
      -5.34910782e-07 -4.35498379e-07 -2.46918262e-07 3.11223886e-07
      5.49896470e-07 3.68274783e-07 2.85710485e-07 -4.53053985e-08
      -1.86656280e-07 -1.21658715e-07 2.05852384e-08 2.60358433e-07
      2.35672232e-07 5.03988645e-07 6.51216340e-07 7.74719638e-07
      9.35191224e-07 5.14080511e-07 -9.28542789e-08 -2.81843938e-07
      -1.72161640e-06 -1.53941778e-06 -1.24655003e-06 -1.02517777e-06
      -1.25966744e-06 -1.08713039e-06 -5.23487302e-07 7.77402107e-08
      4.16506964e-07 5.73345972e-07 5.80317931e-07 9.59193471e-08
      -1.13301468e-07 -5.51442092e-08 -3.23833902e-08 -8.23924484e-09
      2.03299720e-07 -2.05123349e-08 -5.71373334e-07 -9.08871186e-07
      -8.97154564e-07 -1.21006565e-06 -1.30457931e-06 -1.06185769e-06
      -5.91825085e-07 -7.66568817e-08 7.29587555e-08 1.85672661e-07
      3.80344680e-08 -4.94071287e-07 -1.27878855e-06 -1.67594544e-06
      -1.24504243e-06 -9.82566121e-07 -7.23689823e-07 -6.25226448e-08
      2.36581940e-07 1.41440324e-07 -2.58629580e-08 -2.12166327e-07
      -2.81723032e-07 -1.12525399e-07 5.10636653e-08 2.31592963e-07
      2.97153377e-07 3.99753418e-07 3.75408092e-07 3.07599748e-07
      6.67791085e-07 7.86535111e-07 3.89862805e-07 1.66692431e-07
      -1.83728991e-06 -1.76159426e-06 -1.35239543e-06 -9.88263309e-07
      -1.07060134e-06 -8.96740801e-07 -4.99654732e-07 -8.92921559e-09
      2.20756320e-07 3.03888356e-07 2.45283388e-07 2.57815742e-07
      3.35696058e-07 1.62553974e-07 -7.77266465e-08 -5.64886520e-08
      1.01487338e-07 -2.71687366e-08 -3.64057513e-07 -6.19623165e-07
      -6.42992006e-07 -1.05087906e-06 -1.23331301e-06 -7.89067371e-07
      -2.07439882e-07 1.77973249e-07 2.55265320e-07 2.80169758e-07
      2.80112090e-07 -1.93055811e-07 -8.61497824e-07 -1.43147849e-06
      -1.51275481e-06 -1.29489501e-06 -1.03164950e-06 -5.00552460e-07
      -1.29749807e-07 1.14424656e-08 8.66995791e-08 -1.53718261e-07
      -2.17127251e-07 -9.51370467e-08 1.06174545e-08 -6.17230782e-08
      8.36905087e-08 3.08782575e-07 4.64425902e-08 -8.23007156e-08
      1.63906790e-07 4.04906558e-07 3.23520624e-07 3.13580614e-07
      -1.70917122e-06 -1.70045257e-06 -1.32441983e-06 -9.17070906e-07
      -8.68381278e-07 -6.84951203e-07 -2.29731782e-07 1.23697504e-07
      1.35417736e-07 8.33248137e-08 2.70837486e-08 2.36398066e-07
      3.19061343e-07 -1.64609105e-07 -4.23605314e-07 -4.00832960e-07
      -2.45254114e-07 -2.58489536e-07 -4.21997385e-07 -4.65011141e-07
      -3.69619670e-07 -6.21087281e-07 -8.44211399e-07 -4.55785852e-07
      1.73636465e-07 5.18106049e-07 4.31430465e-07 2.68998122e-07
      2.04321168e-07 -1.33201866e-07 -5.80346523e-07 -1.05823949e-06
      -1.29988678e-06 -1.24407381e-06 -1.13934163e-06 -8.05044294e-07
      -4.42902490e-07 -1.69764618e-07 -3.23097673e-08 -8.49035331e-08
      -8.23823001e-08 1.17243438e-07 1.64549419e-07 -5.50894796e-08
      8.26890734e-09 1.85081035e-07 -1.56782647e-07 -3.19594903e-07
      -8.13378449e-08 2.68718821e-07 1.51224668e-07 1.03745265e-07
      -1.87167859e-06 -1.73426679e-06 -1.23730854e-06 -8.32804801e-07
      -7.77791342e-07 -5.63607159e-07 9.46692147e-09 1.52638805e-07
      2.77146999e-08 -3.67251864e-08 -9.19729644e-08 3.62493893e-08
      1.59533577e-08 -3.38071175e-07 -4.13589646e-07 -4.27105732e-07
      -4.11407513e-07 -5.60673584e-07 -9.27776284e-07 -9.10284996e-07
      -6.67604695e-07 -5.31546448e-07 -4.65529723e-07 -1.98600830e-07
      2.96758543e-07 5.80042240e-07 5.03052263e-07 2.46908371e-07
      1.27517126e-07 -1.79886953e-07 -6.33298498e-07 -9.00239854e-07
      -1.13737542e-06 -1.12750706e-06 -1.04263620e-06 -8.12023814e-07
      -5.51366611e-07 -2.02874418e-07 -1.19952745e-07 -9.64925633e-08
      -8.90987053e-08 1.38581584e-07 1.00810709e-07 8.58920757e-09
      5.85873003e-08 1.99580867e-07 -1.48363810e-07 -3.09742092e-07
      -1.90941620e-07 1.44257370e-07 4.05350775e-08 4.45258586e-08
      -2.00794875e-06 -1.78916184e-06 -1.21642267e-06 -7.65393168e-07
      -6.63355479e-07 -4.14249797e-07 8.36993550e-08 2.17383715e-07
      4.19842472e-08 -6.01635151e-08 -8.21710984e-08 -1.54184164e-07
      -2.25680864e-07 -2.46774505e-07 -5.53510837e-08 -8.64871694e-08
      -2.21310756e-07 -5.11199858e-07 -1.06583263e-06 -1.36706535e-06
      -1.17817467e-06 -7.99017926e-07 -4.10347781e-07 -2.15957314e-07
      -1.61813283e-08 2.37742540e-07 2.50886131e-07 1.65459298e-07
      9.62091846e-08 1.16284014e-07 -3.81460865e-07 -7.13704878e-07
      -9.54539701e-07 -1.14047782e-06 -1.14466980e-06 -9.36896924e-07
      -6.62133573e-07 -3.84445229e-07 -2.15806963e-07 -1.63953885e-07
      -1.10384022e-08 1.93562656e-07 1.29988621e-07 -4.39363070e-08
      8.47867021e-09 1.48524563e-07 1.12564384e-08 -1.39979377e-07
      -1.22236415e-07 8.78195792e-08 -9.78731096e-10 -4.80734315e-08
      -1.94882364e-06 -1.80269740e-06 -1.23522022e-06 -7.32575131e-07
      -5.60582293e-07 -3.14272370e-07 7.83952032e-08 2.74292347e-07
      1.26142623e-07 8.01349458e-08 1.41465804e-07 -1.10231086e-08
      -8.64153975e-08 3.25389564e-08 1.76240249e-07 2.31482588e-07
      1.26352703e-07 -1.41714608e-07 -6.16299246e-07 -1.18080993e-06
      -1.09053246e-06 -8.29012947e-07 -4.67253528e-07 -1.31535870e-07
      -1.82711346e-07 -4.98981265e-08 6.20588025e-08 5.54901085e-08
      8.61014158e-08 3.76427664e-07 1.68381547e-07 -6.77137066e-08
      -3.62324698e-07 -8.92860839e-07 -1.08667712e-06 -9.19083334e-07
      -6.36256402e-07 -3.35901092e-07 -2.32771640e-07 -1.99537638e-07
      1.39853817e-08 2.41236108e-07 2.54272265e-07 6.26016998e-08
      6.60167387e-09 1.27765219e-07 1.08754016e-07 4.11104466e-08
      8.62724026e-09 -5.61555824e-09 -1.03022366e-07 -2.44719558e-07
      -1.39984957e-06 -1.42469446e-06 -1.12586804e-06 -7.74628404e-07
      -5.71897885e-07 -2.88837469e-07 5.00872197e-08 2.54063565e-07
      1.81630440e-07 2.04230858e-07 3.36526114e-07 2.08859959e-07
      1.55332216e-07 1.92391312e-07 2.82506733e-07 3.42745494e-07
      3.10822657e-07 1.50655197e-07 -9.13517013e-08 -4.19801609e-07
      -4.87226259e-07 -4.57619763e-07 -2.58863622e-07 -1.50178483e-08
      -1.10295737e-08 6.47581500e-09 9.72795391e-08 2.17124043e-08
      1.95368060e-07 6.55325664e-07 5.34963931e-07 4.91524816e-07
      2.50170956e-07 -2.50769176e-07 -5.25826124e-07 -5.34791980e-07
      -4.05254582e-07 -1.95939734e-07 -2.32717472e-08 -2.38458249e-08
      5.41549383e-08 1.81760242e-07 1.50714143e-07 8.41291126e-08
      6.60415580e-08 1.29472994e-07 1.24586265e-07 1.25666887e-07
      6.06946742e-08 -6.98920601e-08 -2.54074138e-07 -3.74836503e-07
      -5.39680229e-07 -6.89718092e-07 -7.04631361e-07 -6.13233283e-07
      -5.41458121e-07 -2.89263284e-07 -3.74649076e-08 1.48515639e-07
      2.21875865e-07 2.38779393e-07 3.32443136e-07 1.94705962e-07
      7.15138668e-08 1.62455493e-07 3.96493533e-07 5.29153453e-07
      5.04591014e-07 3.60969722e-07 1.68700069e-07 8.60599769e-09
      1.83323806e-07 1.51391049e-07 2.10976850e-07 2.02349398e-07
      2.37105155e-07 2.59473751e-07 2.51297735e-07 1.47048283e-07
      3.06966285e-07 8.46840805e-07 7.95823382e-07 9.08002676e-07
      9.51704408e-07 6.10957102e-07 2.89337720e-07 2.43487335e-07
      1.68644917e-07 7.25834042e-08 1.27881506e-07 2.11376189e-07
      2.27016997e-07 1.74778222e-07 6.24233243e-09 -2.45308271e-08
      1.29800583e-07 1.03995632e-07 1.55196474e-07 1.44804858e-07
      4.06567402e-08 -1.22513427e-07 -3.03040395e-07 -4.07240634e-07
      2.22559024e-07 1.09562762e-07 -1.45021772e-07 -2.41651065e-07
      -3.19560598e-07 -1.35963575e-07 8.31777811e-08 1.22856662e-07
      2.27724300e-07 2.83366745e-07 2.68831741e-07 8.82365612e-08
      -1.99436077e-08 1.35717229e-07 4.37857807e-07 7.55901453e-07
      7.27398401e-07 6.04479112e-07 3.58013324e-07 8.03381965e-08
      1.23258147e-07 3.21261865e-07 4.20201758e-07 4.68391931e-07
      3.67347923e-07 2.83284209e-07 1.26648970e-07 1.63473260e-07
      3.03912572e-07 7.47672459e-07 6.79566313e-07 9.31410852e-07
      1.22112817e-06 9.84736403e-07 7.75439617e-07 7.81509243e-07
      8.02234922e-07 6.21075515e-07 4.46025439e-07 4.22445709e-07
      4.37986216e-07 2.58822894e-07 2.56421497e-08 -3.85955978e-08
      1.08219304e-07 1.93883309e-08 5.37764109e-08 8.39428083e-08
      6.71352174e-09 -1.73977824e-07 -3.52943886e-07 -4.40574041e-07
      4.43702646e-07 4.68170157e-07 1.46793894e-07 -2.74168830e-08
      -1.30952088e-07 5.01972579e-08 2.80488592e-07 2.46408632e-07
      3.25609477e-07 3.08293721e-07 2.49862154e-07 1.05453523e-07
      7.45085842e-08 2.80758883e-07 5.08775827e-07 7.91959280e-07
      8.93866172e-07 7.54104406e-07 5.62410321e-07 2.33465926e-07
      -1.39306522e-07 2.07988755e-08 2.30047078e-07 3.26466306e-07
      3.87794444e-07 3.68564741e-07 1.72047777e-07 1.72560306e-07
      2.16743089e-07 4.81758093e-07 5.50950517e-07 8.79688912e-07
      1.48680124e-06 1.34395759e-06 1.10882229e-06 1.16780029e-06
      1.17349759e-06 1.11166798e-06 9.39709025e-07 7.19742559e-07
      5.68218525e-07 3.53536535e-07 1.71370758e-07 3.78843126e-08
      6.07203461e-08 -7.25682625e-08 -9.42646068e-08 -2.98414946e-08
      -8.96704222e-08 -1.91765992e-07 -3.19460611e-07 -4.06120250e-07
      2.53703746e-07 2.93274240e-07 2.21858826e-07 -1.54668314e-08
      -9.87606015e-08 8.10996994e-08 2.28862248e-07 1.62392354e-07
      2.40975055e-07 3.29730199e-07 2.61286061e-07 2.61695050e-07
      2.95791182e-07 4.49585656e-07 6.04547608e-07 8.75419516e-07
      1.03267041e-06 8.39623453e-07 5.34545563e-07 2.39661688e-07
      5.17755154e-08 -8.32083344e-08 -1.11843718e-07 7.46305986e-08
      2.46027469e-07 4.41978472e-07 3.54499520e-07 3.69288500e-07
      3.57160445e-07 5.10873690e-07 7.28423345e-07 9.85915904e-07
      1.61521041e-06 1.62837102e-06 1.43044986e-06 1.49106654e-06
      1.52757309e-06 1.36502786e-06 1.11667441e-06 8.23239645e-07
      5.53150869e-07 4.48885743e-07 4.41741548e-07 1.23008320e-07
      3.52969707e-08 -4.00604065e-08 -9.81996564e-08 -6.10532425e-08
      -1.62900136e-07 -2.38430800e-07 -3.02910394e-07 -3.44970545e-07
      3.21698614e-08 2.48193466e-09 -5.14247089e-09 -7.96528621e-10
      -2.05884572e-08 -4.45754651e-08 -5.70215768e-08 -1.50009399e-07
      2.23930723e-08 3.01532708e-07 2.58880050e-07 3.90163478e-07
      6.16890929e-07 7.95614255e-07 8.35209846e-07 1.04577543e-06
      1.21219477e-06 9.87574822e-07 6.38795882e-07 2.72179193e-07
      3.66080464e-08 -4.12379331e-09 -1.04781982e-07 -1.80348806e-07
      5.46104246e-08 4.14481804e-07 5.94202902e-07 7.39351890e-07
      7.01351837e-07 6.46378339e-07 6.99692976e-07 9.87768317e-07
      1.57975649e-06 1.53260976e-06 1.35794880e-06 1.47905757e-06
      1.64061987e-06 1.53014912e-06 1.18357627e-06 7.54609459e-07
      4.54983848e-07 4.42387204e-07 5.23118047e-07 1.52632069e-07
      -1.23775754e-08 -3.07969295e-08 -5.42554126e-08 -2.14838494e-08
      -1.53626232e-07 -2.83706754e-07 -2.76138280e-07 -2.29600346e-07
      2.35409949e-08 -1.06654042e-07 -1.90646659e-07 -1.18998251e-07
      -4.82836811e-08 -6.15734876e-08 -3.22030672e-07 -3.90822265e-07
      -5.48828503e-08 2.23008016e-07 2.68213256e-07 5.29038687e-07
      7.92377591e-07 1.09812117e-06 1.09864823e-06 1.23924178e-06
      1.42653482e-06 1.21670257e-06 8.68660663e-07 5.30280317e-07
      2.75015054e-07 2.20427765e-07 -8.48512300e-08 -4.98620466e-07
      -1.71813099e-07 4.41642669e-07 7.16660452e-07 7.17676983e-07
      7.16857073e-07 6.79870936e-07 5.71974624e-07 5.43589522e-07
      6.84739291e-07 9.72120120e-07 9.57425300e-07 1.04593789e-06
      1.19054175e-06 1.21270352e-06 9.32026694e-07 4.67521375e-07
      1.63289229e-07 1.95375236e-07 3.73495624e-07 1.56881143e-07
      1.11336829e-09 -6.95858446e-08 -6.99114224e-08 -2.88830790e-08
      -1.50281522e-07 -2.87217290e-07 -2.22177320e-07 -1.12918343e-07
      1.91364606e-07 -8.91657663e-08 -2.92386375e-07 -2.89856672e-07
      -1.92101965e-07 -1.69705018e-07 -4.13805367e-07 -4.47624302e-07
      3.78560294e-08 2.95462826e-07 4.02288833e-07 7.15577471e-07
      8.54738630e-07 1.00112470e-06 1.27428336e-06 1.36213112e-06
      1.58236946e-06 1.55904661e-06 1.28887586e-06 9.19117042e-07
      5.82119924e-07 5.88645321e-07 4.22609105e-07 -3.34021237e-08
      -8.57057785e-08 3.16483408e-07 6.95468941e-07 5.81634197e-07
      5.79130074e-07 5.69791268e-07 4.41575907e-07 1.95307067e-07
      -1.49715689e-08 9.09013735e-08 1.96158339e-07 4.14208586e-07
      5.79508821e-07 7.18236379e-07 5.32671095e-07 1.09000013e-07
      -1.65570981e-07 -1.66060659e-07 1.60874379e-07 1.31601368e-07
      1.14126642e-07 5.52495614e-08 -8.77335715e-09 -4.22670823e-08
      -1.33421750e-07 -2.06867369e-07 -2.12988510e-07 -1.06593461e-07
      -6.71218303e-10 -1.16731904e-07 -1.84101381e-07 -2.85210461e-07
      -1.96974611e-07 -1.45908700e-07 -3.98398072e-07 -4.03566986e-07
      1.69549907e-07 3.49735330e-07 4.29378332e-07 7.33085471e-07
      7.68101756e-07 6.81531162e-07 7.90270235e-07 9.98417249e-07
      1.18358514e-06 1.37413838e-06 1.53366307e-06 1.30572323e-06
      9.18264845e-07 8.58427029e-07 8.50952688e-07 5.29134866e-07
      4.20874500e-07 4.97134124e-07 6.50402967e-07 6.08435244e-07
      5.43334011e-07 4.05540163e-07 3.62965693e-07 8.72330048e-08
      -2.43082610e-07 -2.37283984e-07 -3.97632164e-07 -4.06174280e-07
      -2.94772832e-07 1.22619097e-08 1.24185364e-08 -1.64643950e-07
      -2.33428040e-07 -3.17033681e-07 5.66432767e-08 1.86580252e-07
      2.97133738e-07 2.42518581e-07 1.55825902e-07 7.13317547e-08
      -4.08961576e-08 -1.19867323e-07 -2.17183498e-07 -2.03856573e-07
      -8.94083740e-08 -8.94530459e-08 -1.35487070e-07 -1.80000370e-07
      -1.52162769e-07 -5.46406298e-08 -2.52777170e-07 -2.39179826e-07
      2.30087778e-07 2.61953261e-07 3.40075161e-07 5.11001531e-07
      4.38559340e-07 2.30824853e-07 3.58645167e-07 6.19861737e-07
      2.71788821e-07 1.34207127e-07 5.66833023e-07 9.87592557e-07
      8.82086397e-07 8.14488999e-07 8.05214881e-07 5.95359779e-07
      8.08962113e-07 9.06332957e-07 8.61833144e-07 8.64869662e-07
      7.93560105e-07 2.95242785e-07 3.98968439e-07 2.56578119e-07
      -1.19337145e-07 -2.46775915e-08 -3.00269107e-07 -8.91373986e-07
      -1.09716609e-06 -8.52378435e-07 -6.96420386e-07 -6.14668693e-07
      -3.17349304e-07 -3.26402699e-07 1.14051160e-08 2.63955485e-07
      3.88101824e-07 3.35070609e-07 2.31307638e-07 1.58977542e-07
      1.20376811e-07 6.50464571e-10 -1.66529816e-07 -2.33246297e-07
      -4.28203009e-07 -3.18315983e-07 -2.38381276e-07 -1.52250081e-07
      -1.62953356e-07 -3.83863181e-08 -1.35483358e-08 2.06372768e-08
      3.11545762e-07 9.11509090e-08 -4.13512252e-10 8.48235899e-08
      -6.70163232e-08 -2.79547265e-07 -1.56450369e-07 -9.56541371e-08
      -2.21279635e-07 -4.13541926e-07 -2.52115086e-07 1.84491469e-07
      4.93618927e-07 7.15787280e-07 8.41578981e-07 7.46178273e-07
      8.90479441e-07 1.09413804e-06 1.10045153e-06 1.21344851e-06
      1.06172467e-06 5.45934711e-07 4.87146053e-07 4.51016206e-07
      -3.39493660e-08 2.18375092e-07 8.97060826e-09 -8.20096773e-07
      -1.24174539e-06 -1.19718402e-06 -1.15753221e-06 -1.15021294e-06
      -5.75977481e-07 -2.41452739e-07 7.88324073e-08 2.34520641e-07
      3.36176868e-07 3.23117717e-07 2.38798464e-07 1.79831247e-07
      1.17920507e-07 4.25279616e-08 -6.03500112e-08 -1.58383401e-07
      -8.10369215e-07 -6.64142135e-07 -4.79248001e-07 -2.99349267e-07
      -2.47242127e-07 -4.43722170e-09 2.49385579e-07 2.69169135e-07
      3.76682038e-07 -1.10230722e-08 -3.71282937e-07 -2.45829483e-07
      -4.42135246e-07 -5.61598370e-07 -4.91019705e-07 -6.75407762e-07
      -8.94988659e-07 -9.58470537e-07 -6.56053544e-07 -3.82989555e-07
      -4.77897792e-08 4.67806245e-07 9.26034772e-07 1.14366173e-06
      1.20089078e-06 1.18914829e-06 1.16934245e-06 1.23593213e-06
      1.05204651e-06 6.39153257e-07 5.86785632e-07 6.75061528e-07
      3.39192439e-07 2.44524358e-07 1.69054559e-07 -8.30051306e-07
      -1.29184730e-06 -1.26907446e-06 -1.07388712e-06 -1.21355129e-06
      -7.60617013e-07 -1.96364127e-07 5.15061238e-08 1.22355914e-07
      1.18511387e-07 1.92271685e-07 1.88125568e-07 1.12796300e-07
      -6.51904983e-08 -1.25149526e-07 -1.34202182e-07 -1.34850794e-07
      -1.25855343e-06 -1.06247830e-06 -7.58004603e-07 -4.87341140e-07
      -3.07595485e-07 9.28116517e-09 3.09518811e-07 3.52803482e-07
      3.32296878e-07 -4.46494290e-08 -4.40809288e-07 -4.00489967e-07
      -5.91120738e-07 -7.48161710e-07 -7.92656294e-07 -9.90122658e-07
      -1.23791187e-06 -1.34579670e-06 -1.19602510e-06 -8.71080772e-07
      -4.56260977e-07 6.51371153e-08 9.18359149e-07 1.42202248e-06
      1.54441011e-06 1.46899049e-06 1.36972085e-06 1.23804818e-06
      9.71831128e-07 6.95717404e-07 6.70591476e-07 8.00059922e-07
      3.70729708e-07 -2.59444004e-08 6.53793890e-08 -6.04709498e-07
      -8.54069356e-07 -8.77960872e-07 -7.33391232e-07 -1.02838089e-06
      -8.55128462e-07 -2.90165246e-07 -1.45302479e-07 -5.44160841e-08
      -6.91065907e-08 3.11497033e-08 8.98744901e-08 1.68580936e-08
      -2.59348809e-07 -3.99329252e-07 -3.37030201e-07 -3.03767507e-07
      -1.53566396e-06 -1.30208184e-06 -9.62932063e-07 -7.36706738e-07
      -5.01113050e-07 -5.49601609e-08 1.74610136e-07 2.09169329e-07
      1.12954488e-07 -6.63549429e-08 -3.47204121e-07 -3.58771416e-07
      -4.02182906e-07 -5.60713204e-07 -7.14746534e-07 -8.44866804e-07
      -9.94504489e-07 -1.15222406e-06 -1.14884529e-06 -9.12452094e-07
      -3.81431221e-07 1.95184754e-07 7.56704026e-07 1.39492306e-06
      1.75246169e-06 1.68434349e-06 1.46304819e-06 1.20757761e-06
      8.99213262e-07 6.85311818e-07 6.34261880e-07 6.72487943e-07
      2.84509667e-07 -1.69468166e-07 -4.86696621e-08 -1.76109069e-07
      -2.39800926e-07 -3.93842015e-07 -3.92259352e-07 -7.01029421e-07
      -6.52478036e-07 -1.83813214e-07 -1.59664623e-07 -1.31864383e-07
      -5.47219017e-08 -3.45349953e-08 -1.03146167e-08 -2.98473566e-08
      -3.33009723e-07 -6.33806508e-07 -6.81009340e-07 -5.97116980e-07
      -1.56694580e-06 -1.39995359e-06 -1.03663797e-06 -7.59149373e-07
      -5.99511509e-07 -2.23051686e-07 -2.86887714e-09 7.48051292e-08
      -1.39839344e-07 -2.04057869e-07 -2.14685514e-07 -2.72276878e-07
      -2.48855400e-07 -2.99897039e-07 -2.68852261e-07 -2.32199412e-07
      -2.81077803e-07 -5.25070163e-07 -7.54274879e-07 -7.24576523e-07
      -3.32474400e-07 3.32229831e-07 8.81977030e-07 1.29834382e-06
      1.52382222e-06 1.53399026e-06 1.46222897e-06 1.10473241e-06
      7.89735225e-07 4.62079669e-07 3.21589823e-07 2.90671665e-07
      6.64874023e-08 -1.95476446e-07 9.63625979e-08 3.21549180e-07
      3.32237818e-07 1.33733352e-07 3.66111230e-08 -2.74323412e-07
      -2.75587098e-07 9.87259496e-10 7.44428519e-08 1.13736782e-07
      1.78369433e-07 8.37443110e-08 6.81644892e-08 1.68402522e-07
      -1.08864114e-07 -5.21484651e-07 -8.61491856e-07 -9.53319557e-07
      -1.49296238e-06 -1.31395313e-06 -9.74445925e-07 -7.29273438e-07
      -6.14195017e-07 -3.50184081e-07 -6.57331682e-08 6.24266079e-08
      -9.90687781e-08 -2.43180494e-07 -7.90826462e-08 -6.83174974e-08
      -1.67319740e-07 -1.10783574e-07 8.14082952e-08 3.54076548e-07
      3.27907600e-07 3.84420161e-07 1.35245131e-07 -2.37806475e-07
      -2.21750938e-07 1.13939258e-07 6.21229333e-07 1.02647221e-06
      1.21466428e-06 1.09729444e-06 1.07519406e-06 8.35604737e-07
      4.92871266e-07 9.72240812e-08 -4.39617338e-08 -7.36305239e-08
      -1.47588537e-07 -2.36671028e-07 1.89473425e-07 3.96718775e-07
      3.80437058e-07 2.92355367e-07 2.79548857e-07 1.86838150e-07
      1.31087447e-07 2.48797591e-07 3.39639456e-07 3.11686193e-07
      2.73159770e-07 2.63418485e-07 2.53870155e-07 4.14226577e-07
      1.67163009e-07 -2.26611505e-07 -7.18199999e-07 -1.00506600e-06
      -1.66674795e-06 -1.43820364e-06 -1.04889943e-06 -7.02604609e-07
      -5.16416094e-07 -3.33199893e-07 -1.25515768e-07 1.43923078e-08
      -7.67535226e-08 -2.09212672e-07 -2.82041128e-08 1.39383062e-07
      1.06480258e-07 2.36034253e-07 3.68002105e-07 6.81365634e-07
      8.09782250e-07 8.12364078e-07 5.65755272e-07 1.50348683e-07
      3.77891176e-08 2.77427489e-07 3.56203998e-07 4.76727507e-07
      7.25029849e-07 6.57554949e-07 6.59662987e-07 5.19078696e-07
      1.53031110e-07 -3.50458805e-07 -3.19563384e-07 -2.03232005e-07
      -2.90468250e-07 -2.16724771e-07 1.12624548e-07 2.21364246e-07
      2.56383430e-07 4.10614717e-07 4.52256955e-07 3.03210584e-07
      2.55118323e-07 3.17665211e-07 4.26446576e-07 3.18296998e-07
      1.56824782e-07 2.69756782e-07 3.34612110e-07 5.74621652e-07
      4.54837362e-07 4.04245739e-08 -4.68039389e-07 -8.03879800e-07
      -1.82343626e-06 -1.57718171e-06 -1.12356395e-06 -6.76269963e-07
      -3.62451942e-07 -1.33784582e-07 5.57886608e-08 1.45983364e-07
      1.35425310e-07 3.35381003e-08 1.24385636e-07 2.96741206e-07
      3.69529545e-07 5.45663227e-07 6.43642579e-07 7.52151550e-07
      8.76031379e-07 9.52665062e-07 7.71538794e-07 3.54985417e-07
      5.63512863e-08 4.24962934e-07 4.85808812e-07 2.73664654e-07
      2.74494482e-07 2.93934818e-07 1.07054163e-07 1.21727950e-07
      1.54274005e-07 3.68331214e-08 1.77290171e-09 -6.39470770e-08
      -1.86247206e-07 -2.14911836e-07 5.31651132e-08 9.11518825e-08
      4.74164281e-08 3.57594047e-07 5.35610241e-07 3.50176521e-07
      3.68327477e-07 6.05885702e-07 6.64353365e-07 4.72574726e-07
      3.90945189e-07 3.27255975e-07 3.59661243e-07 6.70686802e-07
      7.56712154e-07 3.82701330e-07 -1.42759884e-08 -2.88716677e-07
      -1.95563507e-06 -1.71539455e-06 -1.15251635e-06 -5.61174886e-07
      -8.47925961e-08 2.01051819e-07 3.75976299e-07 6.14942110e-07
      6.21351205e-07 5.77305286e-07 5.74078229e-07 5.18635034e-07
      6.96549421e-07 7.71020041e-07 7.48050184e-07 6.00667022e-07
      5.47212551e-07 6.52071151e-07 8.45968941e-07 6.27207385e-07
      3.51041649e-07 5.61903789e-07 3.93895306e-07 6.89207980e-08
      1.30673044e-07 1.64424662e-07 -1.82703531e-07 -2.20960573e-07
      -4.73046988e-08 2.39065116e-07 3.58090688e-07 1.93029862e-07
      -6.50369714e-08 -1.22891890e-07 1.77891721e-07 2.39463390e-07
      1.28039957e-07 1.43996957e-07 2.59410541e-07 2.68270981e-07
      2.90092373e-07 4.60158702e-07 6.86614783e-07 7.25159737e-07
      7.29752458e-07 6.44308159e-07 4.98851193e-07 6.03461501e-07
      7.46389901e-07 7.09541780e-07 5.02739454e-07 3.21151788e-07
      -2.34544632e-06 -2.01456555e-06 -1.33694834e-06 -5.97007727e-07
      8.22957205e-08 5.35539698e-07 7.03866306e-07 9.28900363e-07
      1.00273428e-06 1.00855380e-06 1.10013013e-06 8.83118162e-07
      7.07966819e-07 8.19192508e-07 4.80787946e-07 1.47347137e-07
      2.42545696e-07 3.59494635e-07 3.93552710e-07 2.38774589e-07
      1.86399305e-07 3.91996821e-07 1.59528653e-07 -1.69719996e-07
      -4.28049248e-07 -4.38268131e-07 -5.38066786e-07 -4.52199032e-07
      5.57017756e-08 3.08922267e-07 3.25890426e-07 1.97338252e-07
      1.26668276e-08 -8.26214475e-08 1.42464316e-07 2.69672000e-07
      1.82057576e-07 1.96411776e-08 8.43528127e-08 1.78000434e-07
      1.56382171e-07 1.48511347e-07 4.10323025e-07 6.18076456e-07
      6.83019664e-07 6.05002981e-07 4.16686362e-07 3.59819865e-07
      3.95184941e-07 3.84347118e-07 4.49807942e-07 4.47255871e-07
      -2.88636943e-06 -2.62399385e-06 -1.82673682e-06 -9.43265718e-07
      -1.80737292e-08 5.59462819e-07 6.68341102e-07 5.95958340e-07
      5.41339716e-07 5.76575701e-07 6.49886999e-07 5.32149443e-07
      4.76511218e-07 4.79909488e-07 8.92717278e-09 -1.90444766e-07
      -2.54155772e-08 2.44041274e-07 1.79002640e-07 1.60340434e-08
      -1.21575217e-09 3.13677788e-07 2.52411979e-07 -3.94371028e-07
      -6.85212967e-07 -8.18146532e-07 -8.77904938e-07 -9.64082233e-07
      -8.56823306e-07 -4.34468916e-07 -1.57878191e-07 -2.81107688e-08
      1.68549974e-08 -2.51868038e-08 3.36920607e-08 1.78180528e-07
      7.48331530e-08 -1.22834535e-07 -7.21422495e-08 1.86937669e-07
      1.10941883e-07 -2.00230446e-07 -8.66083525e-08 1.64755605e-07
      1.42481042e-07 1.12104260e-07 -4.90075500e-08 -9.20713035e-08
      -7.55532028e-08 -1.71625018e-07 -1.25701604e-07 -2.20924931e-10
      -2.99403996e-06 -2.71586509e-06 -2.04351454e-06 -1.21854066e-06
      -2.97980421e-07 3.81674056e-07 5.41228644e-07 2.54392944e-07
      -6.54126708e-08 -7.19623472e-08 -2.65511577e-08 -7.34462446e-08
      8.55176339e-08 3.87391339e-07 6.79741845e-08 -3.28734984e-07
      -3.10810066e-07 -1.36023871e-07 3.66811470e-08 -1.24383618e-07
      -2.24621715e-07 8.29823321e-08 1.76751644e-08 -4.28920004e-07
      -6.50749314e-07 -5.38968209e-07 -5.41208408e-07 -7.45801060e-07
      -9.84576104e-07 -1.06806965e-06 -8.47958518e-07 -5.10287464e-07
      -2.00988026e-07 1.02791148e-07 2.00372583e-07 2.07181529e-07
      7.05731935e-08 -9.14058234e-08 5.74521088e-08 3.58215800e-07
      1.75214012e-07 -3.41102265e-07 -5.33033699e-07 -2.97519591e-07
      -3.84368377e-07 -4.48655896e-07 -3.53000473e-07 -3.05376886e-07
      -2.98954717e-07 -3.28897301e-07 -4.28255305e-07 -2.99405997e-07
      -2.84923317e-06 -2.59405761e-06 -1.98869657e-06 -1.32824073e-06
      -5.57164242e-07 1.26845308e-07 3.59802328e-07 1.18203481e-07
      -2.63717794e-07 -4.37382198e-07 -6.02655291e-07 -6.51800917e-07
      -4.29404764e-07 5.53455024e-08 2.65686367e-07 -1.10199245e-07
      -5.14378257e-07 -6.05134574e-07 -3.27310289e-07 -6.72086244e-08
      -1.07157966e-07 1.00175761e-07 5.33818714e-08 -3.18732674e-07
      -3.60372894e-07 -1.78417608e-07 7.30585086e-08 -1.03513436e-07
      -4.80436483e-07 -8.13138911e-07 -9.60748139e-07 -6.40054679e-07
      -3.18852557e-07 7.68709043e-08 1.58815325e-07 2.01171133e-07
      1.56825763e-07 1.95960794e-08 2.19909808e-07 4.88222099e-07
      2.64601539e-07 -2.76951283e-07 -6.38282131e-07 -7.81133338e-07
      -8.96616598e-07 -8.95752464e-07 -5.58709985e-07 -3.60483256e-07
      -3.22030786e-07 -2.69782390e-07 -4.07938700e-07 -3.36786428e-07
      -2.26955194e-06 -2.17128536e-06 -1.65619474e-06 -1.28166664e-06
      -7.69309452e-07 -1.04630928e-07 1.81945452e-07 2.10772654e-07
      -1.65874084e-07 -4.13622814e-07 -5.52063057e-07 -7.03253818e-07
      -5.81630729e-07 -1.79600804e-07 2.00607133e-07 -6.71083313e-08
      -5.61498894e-07 -7.55623148e-07 -6.49259050e-07 -3.15334830e-07
      1.14360716e-08 2.43947738e-07 2.99721421e-07 2.20743268e-09
      -3.75837573e-07 -3.06944486e-07 1.79128307e-07 4.66407215e-07
      2.12240224e-07 -2.96041605e-07 -6.05770083e-07 -4.08538114e-07
      -2.51010903e-07 -9.94402214e-08 -3.90918927e-07 -3.81846490e-07
      -1.36900965e-07 -2.11665579e-07 -1.21047535e-07 9.57330428e-08
      8.88888110e-08 -7.59921264e-08 -4.21118386e-07 -8.67071890e-07
      -9.90455646e-07 -1.12093562e-06 -9.36995150e-07 -6.67873337e-07
      -5.13272028e-07 -3.29517064e-07 -4.35343310e-07 -5.13444718e-07
      -1.57615648e-06 -1.58647015e-06 -1.28918089e-06 -9.45513762e-07
      -6.23218853e-07 1.17013679e-08 3.32313761e-07 5.11002099e-07
      1.58849275e-07 -1.71237772e-07 -1.93413356e-07 -3.93453661e-07
      -6.31908904e-07 -4.89077024e-07 -2.87793313e-07 -1.27397385e-07
      -4.14171126e-07 -7.46686169e-07 -1.08335507e-06 -9.61738692e-07
      -4.73257899e-07 1.47231427e-08 3.41953694e-07 1.36038437e-07
      -2.56196358e-07 -3.97041902e-07 -1.82985502e-07 3.84556159e-07
      5.33759817e-07 -1.38761989e-08 -3.87950877e-07 -5.44332067e-07
      -4.70860499e-07 -5.15355794e-07 -8.01325200e-07 -9.45039801e-07
      -7.59488728e-07 -8.16300485e-07 -8.89688465e-07 -6.05015430e-07
      -1.78658198e-07 1.99599057e-08 1.41896646e-08 -3.55228167e-07
      -5.67010943e-07 -9.02210616e-07 -1.02025717e-06 -1.00555940e-06
      -1.02488502e-06 -9.40157122e-07 -1.12093176e-06 -1.06790731e-06
      -1.52037057e-06 -1.39244696e-06 -1.22439633e-06 -9.92701530e-07
      -5.77918172e-07 8.90482639e-08 5.74143996e-07 7.77543107e-07
      5.37065489e-07 2.57573902e-07 1.88278804e-07 4.12669969e-08
      -1.63699198e-07 -3.10799862e-07 -4.36895021e-07 -2.37175001e-07
      -2.79357437e-07 -5.43087992e-07 -9.54926236e-07 -1.10645658e-06
      -8.62463821e-07 -3.44588216e-07 5.07507600e-08 -8.93125502e-08
      -2.67900589e-07 -2.32007650e-07 -1.91404567e-07 3.47940627e-08
      4.64744659e-07 2.52090018e-07 -2.52223288e-07 -6.84179440e-07
      -7.64851052e-07 -6.62827517e-07 -8.81557753e-07 -1.07243920e-06
      -1.03108982e-06 -1.24988264e-06 -1.48813763e-06 -1.35209143e-06
      -8.14785494e-07 -3.47172922e-08 3.00640380e-07 3.13051856e-07
      1.40946909e-07 -3.57872580e-07 -8.61672220e-07 -1.20776076e-06
      -1.55850944e-06 -1.86639784e-06 -2.15286968e-06 -2.02516594e-06
      -1.20950017e-06 -1.20080995e-06 -1.24143742e-06 -1.23629377e-06
      -8.11498069e-07 -1.59693229e-07 5.24359336e-07 9.29071007e-07
      6.97150369e-07 4.38823577e-07 2.41015755e-07 1.25853248e-07
      1.09362723e-07 -5.34831308e-08 -3.54923230e-07 -3.97264216e-07
      -4.99533485e-07 -7.69698943e-07 -9.12957091e-07 -9.83948553e-07
      -8.55065025e-07 -5.23459619e-07 -3.55930069e-07 -4.66989405e-07
      -4.56532291e-07 -3.07847785e-07 -2.45896445e-07 -2.45286003e-07
      6.00487766e-08 6.86786663e-08 -2.30078285e-07 -7.07631955e-07
      -8.68973473e-07 -6.91523780e-07 -9.02846239e-07 -1.19747995e-06
      -1.18828234e-06 -1.14464274e-06 -1.41198041e-06 -1.35114476e-06
      -8.94707171e-07 -1.49450173e-07 6.10966424e-07 1.02229683e-06
      7.35555204e-07 1.86959397e-07 -4.28095973e-07 -1.03609818e-06
      -1.66297639e-06 -2.37469249e-06 -2.83965733e-06 -2.94059078e-06
      -1.01677665e-06 -1.14358170e-06 -1.23312748e-06 -1.26525117e-06
      -9.22482570e-07 -4.24732093e-07 2.10543391e-07 7.84008137e-07
      6.06886829e-07 3.64507372e-07 1.51642297e-07 2.31257857e-08
      2.05869588e-09 -1.46700929e-09 -2.65182024e-07 -4.63603612e-07
      -8.76524723e-07 -1.16460762e-06 -1.07642109e-06 -9.82964593e-07
      -6.81403151e-07 -4.00154420e-07 -5.35442609e-07 -6.83398866e-07
      -7.07168624e-07 -5.31508647e-07 -3.10785595e-07 -1.57209172e-07
      -6.97131952e-08 -1.32685770e-07 -2.72299673e-07 -5.40663621e-07
      -8.83099574e-07 -8.29564158e-07 -1.07785411e-06 -1.30167780e-06
      -1.25321617e-06 -1.16240165e-06 -1.34494223e-06 -1.20310972e-06
      -7.33415334e-07 2.36685196e-08 8.62244406e-07 1.40681288e-06
      1.17448576e-06 6.39452196e-07 7.66768835e-08 -6.15117813e-07
      -1.34670881e-06 -2.20346556e-06 -2.86351815e-06 -3.22819301e-06
      -5.87943759e-07 -5.93692334e-07 -5.04704303e-07 -3.45435325e-07
      -2.38524024e-07 -3.34603129e-07 -5.16142563e-07 -5.27497150e-07
      -6.21361608e-07 -6.42570683e-07 -5.69782287e-07 -3.81331915e-07
      -3.61448400e-07 -3.14963017e-07 -2.19650076e-07 -4.00024305e-07
      -4.26752138e-07 -3.02568736e-07 -1.40504980e-07 1.81162847e-07
      1.97036783e-07 -1.00584458e-07 -3.36812406e-07 -4.47712097e-07
      -4.11008415e-07 -4.48656380e-07 -3.91989857e-07 -3.19402488e-07
      -3.67024569e-07 -3.87114767e-07 -3.61655196e-07 -1.86933050e-07
      -6.40368256e-08 -1.81837294e-07 -3.85464745e-07 -5.20719993e-07
      -5.03925264e-07 -3.38439037e-07 -2.63119517e-07 -2.51681286e-07
      -2.86795284e-07 -1.67015770e-07 -9.73770824e-08 -1.40041777e-07
      -2.47676041e-07 -1.74759876e-07 -5.96763812e-08 -5.96791097e-08
      -8.15066841e-08 -3.30996730e-10 -3.66862274e-08 -8.25905566e-09
      -6.16844602e-07 -5.04891943e-07 -4.47970194e-07 -3.06186934e-07
      -1.92053335e-07 -1.43272175e-07 -2.79064693e-07 -4.29595786e-07
      -3.99796676e-07 -4.40784589e-07 -5.19295668e-07 -4.05553351e-07
      -2.25634764e-07 -3.61155486e-07 -3.59181826e-07 -2.74348565e-07
      -4.45194019e-07 -4.48447963e-07 -2.94319364e-07 -1.38767746e-07
      1.14086056e-07 6.07602786e-08 -1.49273689e-07 -3.86441172e-07
      -4.46117042e-07 -3.83098353e-07 -3.60963526e-07 -3.89818439e-07
      -4.19169737e-07 -4.36162338e-07 -4.15155569e-07 -3.57447647e-07
      -1.25286135e-07 -9.65769402e-08 -1.83405461e-07 -3.79869505e-07
      -5.87385387e-07 -4.21115573e-07 -1.00733587e-07 -1.25670558e-08
      -7.69121726e-08 -2.43930657e-07 -1.86124012e-07 -2.36628821e-07
      -4.64035395e-07 -5.62904745e-07 -4.02414059e-07 -3.91444644e-07
      -4.23689244e-07 -3.14922346e-07 -8.34128286e-08 -4.37873240e-08
      -5.52010079e-07 -4.88957198e-07 -3.84286523e-07 -2.31540056e-07
      -8.32110558e-08 -6.57531061e-08 -9.89125155e-08 -2.01249861e-07
      -2.26328268e-07 -1.95423354e-07 -2.93271114e-07 -3.75807332e-07
      -1.48041181e-07 -1.24336481e-07 -3.13404399e-07 -2.99055557e-07
      -3.74536228e-07 -5.55167276e-07 -4.94414280e-07 -3.12997656e-07
      -1.64762284e-07 4.82948650e-08 1.07768239e-08 -1.68894928e-07
      -3.45448882e-07 -4.22340577e-07 -3.20684080e-07 -3.32884355e-07
      -4.81236953e-07 -5.00671888e-07 -4.14550101e-07 -4.01391986e-07
      -3.76297663e-07 -2.87943777e-07 -2.45015542e-07 -2.64098645e-07
      -4.52785599e-07 -5.25560097e-07 -3.02356710e-07 4.28262972e-08
      1.27845439e-07 -5.67762903e-08 -1.90761085e-07 -2.55439915e-07
      -4.13050884e-07 -6.34080095e-07 -7.18252977e-07 -6.21554250e-07
      -7.87525494e-07 -7.22013738e-07 -4.67910269e-07 -1.04265304e-07
      -5.43161946e-07 -4.33181327e-07 -3.45639535e-07 -3.21076470e-07
      -9.05842938e-08 6.72304878e-08 9.54613100e-09 -1.06981773e-07
      -1.86322097e-07 -8.26442204e-08 -6.53171455e-08 -1.71786908e-07
      -1.45712264e-07 5.67838043e-08 -2.40393394e-08 -2.52162039e-07
      -3.31117008e-07 -4.72491564e-07 -6.45208104e-07 -5.39806933e-07
      -3.51404964e-07 -1.96448724e-07 7.08764070e-09 -1.61959512e-08
      -1.42860046e-07 -3.06848307e-07 -3.90216599e-07 -3.03650893e-07
      -4.36979832e-07 -5.54866915e-07 -4.67156156e-07 -3.40821089e-07
      -3.93241692e-07 -4.66730768e-07 -4.10273913e-07 -3.21139765e-07
      -3.24844393e-07 -4.83152803e-07 -4.90925743e-07 -2.05694050e-07
      1.08941450e-07 1.47010979e-07 -2.97366984e-08 -1.54928046e-07
      -2.30792864e-07 -4.24867665e-07 -5.46949138e-07 -6.27513828e-07
      -8.56661984e-07 -1.04682647e-06 -8.67460699e-07 -5.63376773e-07
      -6.05131390e-07 -4.68278529e-07 -2.95061341e-07 -2.90417830e-07
      -2.42897272e-07 -2.10383302e-08 9.62655378e-08 2.16362430e-08
      -1.26659330e-07 -9.57902131e-08 -6.80338216e-11 3.39674493e-08
      -1.83851334e-08 1.29566473e-07 2.22381900e-07 5.91637743e-08
      -1.80399084e-07 -2.83639423e-07 -5.20551055e-07 -6.77921435e-07
      -5.97477197e-07 -4.46179769e-07 -2.34539499e-07 -6.20691623e-08
      -2.95877101e-08 -1.00293029e-07 -2.78923778e-07 -3.62724307e-07
      -3.48089884e-07 -4.78173774e-07 -5.18594277e-07 -3.46772623e-07
      -2.31903385e-07 -4.17013410e-07 -5.16113118e-07 -3.83318110e-07
      -2.63570456e-07 -3.45861224e-07 -4.35037208e-07 -3.72111430e-07
      -1.19775535e-07 1.34542844e-07 1.14950005e-07 2.13743001e-09
      -5.34377964e-09 -1.07007288e-07 -1.23439520e-07 -2.59060016e-07
      -5.76739239e-07 -9.00472060e-07 -1.04804076e-06 -8.63352795e-07
      -4.80969788e-07 -5.83769577e-07 -4.02605508e-07 -1.36618368e-07
      -1.39812741e-07 -1.45305862e-07 -4.49310207e-08 3.37378552e-08
      -5.27845856e-08 -1.51902313e-07 -7.75123326e-08 6.69949003e-08
      6.78023326e-08 1.11503724e-07 2.88951128e-07 3.61475401e-07
      1.69737092e-07 -3.70923203e-08 -1.86466309e-07 -5.02251794e-07
      -6.57124190e-07 -6.38782581e-07 -4.97227688e-07 -2.51173077e-07
      -1.76619665e-07 -8.80530280e-08 -9.28839086e-08 -1.60656143e-07
      -2.69620983e-07 -3.30932011e-07 -3.90300016e-07 -3.55856685e-07
      -2.15454676e-07 -2.48604096e-07 -3.94005980e-07 -4.83125291e-07
      -2.91700786e-07 -2.25586206e-07 -2.96693912e-07 -3.24828846e-07
      -2.20192760e-07 -5.76257655e-08 5.51988499e-08 -8.88778917e-09
      7.78903342e-08 1.64729911e-07 1.76228923e-07 2.37798659e-07
      -8.29511535e-08 -5.18492016e-07 -8.18839055e-07 -9.06830167e-07
      8.09827156e-08 -5.26871304e-07 -6.17074932e-07 -3.29716329e-07
      -7.95568056e-08 -1.14174270e-07 -1.44737996e-07 -5.89310503e-08
      7.43556683e-09 -1.38428035e-07 -2.00616228e-07 -1.32810598e-07
      1.93033625e-08 3.69233994e-08 1.99832229e-07 4.78043546e-07
      4.78265008e-07 2.63193954e-07 1.18262520e-07 -1.77591588e-07
      -4.43471691e-07 -5.90119271e-07 -5.63925653e-07 -4.41642271e-07
      -3.12408844e-07 -2.69521877e-07 -8.64715233e-08 5.08596054e-09
      -6.63848851e-08 -2.01617709e-07 -2.45088472e-07 -1.75845969e-07
      -1.23730771e-07 -1.87775242e-07 -2.15511847e-07 -3.41072962e-07
      -3.37227675e-07 -1.27107342e-07 -1.34024589e-07 -1.74986937e-07
      -1.69395051e-07 -1.75817362e-07 -1.07298497e-07 -9.43329752e-08
      -9.58606989e-08 6.03133046e-08 2.17505089e-07 2.35463958e-07
      1.91201096e-07 -4.17246291e-08 -3.91016442e-07 -6.43214435e-07
      5.57303849e-07 8.70446115e-08 -4.52071447e-07 -5.67153791e-07
      -3.39926117e-07 -2.01945738e-07 -1.95285281e-07 -1.50762816e-07
      3.51221026e-08 -6.82774441e-08 -2.29711262e-07 -3.05308760e-07
      -2.02348375e-07 -2.38192577e-08 1.64127911e-07 4.46435052e-07
      6.21386846e-07 5.33747027e-07 3.69264512e-07 1.13987966e-07
      -1.92738881e-07 -3.36076624e-07 -4.73329038e-07 -4.86947840e-07
      -4.45051995e-07 -3.87851145e-07 -2.40230150e-07 4.71626791e-08
      9.48994838e-08 -2.81359913e-08 -1.59885033e-07 -9.92102471e-08
      4.01423037e-08 4.45991830e-08 -6.14624796e-08 -1.68376005e-07
      -2.43885097e-07 -1.82464149e-07 -7.38732027e-08 -6.48581704e-08
      -8.96414960e-08 -1.95130355e-07 -2.22753940e-07 -1.99169094e-07
      -1.44889128e-07 -1.36280704e-07 5.15897156e-08 2.16533991e-07
      8.89689318e-08 3.84068457e-08 -3.14566400e-08 -2.74176188e-07
      3.36026915e-07 3.86017405e-07 1.01817701e-08 -4.80663743e-07
      -6.07330833e-07 -4.19907707e-07 -3.82727876e-07 -3.44126960e-07
